{"learner":{"attributes":{},"feature_names":["N_Days","Drug","Age","Sex","Ascites","Hepatomegaly","Spiders","Edema","Bilirubin","Cholesterol","Albumin","Copper","Alk_Phos","SGOT","Tryglicerides","Platelets","Prothrombin"],"feature_types":["int","int","int","int","int","int","int","int","float","float","float","float","float","float","float","float","float"],"gradient_booster":{"model":{"cats":{"enc":[],"feature_segments":[],"sorted_idx":[]},"gbtree_model_param":{"num_parallel_tree":"1","num_trees":"1350"},"iteration_indptr":[0,3,6,9,12,15,18,21,24,27,30,33,36,39,42,45,48,51,54,57,60,63,66,69,72,75,78,81,84,87,90,93,96,99,102,105,108,111,114,117,120,123,126,129,132,135,138,141,144,147,150,153,156,159,162,165,168,171,174,177,180,183,186,189,192,195,198,201,204,207,210,213,216,219,222,225,228,231,234,237,240,243,246,249,252,255,258,261,264,267,270,273,276,279,282,285,288,291,294,297,300,303,306,309,312,315,318,321,324,327,330,333,336,339,342,345,348,351,354,357,360,363,366,369,372,375,378,381,384,387,390,393,396,399,402,405,408,411,414,417,420,423,426,429,432,435,438,441,444,447,450,453,456,459,462,465,468,471,474,477,480,483,486,489,492,495,498,501,504,507,510,513,516,519,522,525,528,531,534,537,540,543,546,549,552,555,558,561,564,567,570,573,576,579,582,585,588,591,594,597,600,603,606,609,612,615,618,621,624,627,630,633,636,639,642,645,648,651,654,657,660,663,666,669,672,675,678,681,684,687,690,693,696,699,702,705,708,711,714,717,720,723,726,729,732,735,738,741,744,747,750,753,756,759,762,765,768,771,774,777,780,783,786,789,792,795,798,801,804,807,810,813,816,819,822,825,828,831,834,837,840,843,846,849,852,855,858,861,864,867,870,873,876,879,882,885,888,891,894,897,900,903,906,909,912,915,918,921,924,927,930,933,936,939,942,945,948,951,954,957,960,963,966,969,972,975,978,981,984,987,990,993,996,999,1002,1005,1008,1011,1014,1017,1020,1023,1026,1029,1032,1035,1038,1041,1044,1047,1050,1053,1056,1059,1062,1065,1068,1071,1074,1077,1080,1083,1086,1089,1092,1095,1098,1101,1104,1107,1110,1113,1116,1119,1122,1125,1128,1131,1134,1137,1140,1143,1146,1149,1152,1155,1158,1161,1164,1167,1170,1173,1176,1179,1182,1185,1188,1191,1194,1197,1200,1203,1206,1209,1212,1215,1218,1221,1224,1227,1230,1233,1236,1239,1242,1245,1248,1251,1254,1257,1260,1263,1266,1269,1272,1275,1278,1281,1284,1287,1290,1293,1296,1299,1302,1305,1308,1311,1314,1317,1320,1323,1326,1329,1332,1335,1338,1341,1344,1347,1350],"tree_info":[0,1,2,0,1,2,0,1,2,0,1,2,0,1,2,0,1,2,0,1,2,0,1,2,0,1,2,0,1,2,0,1,2,0,1,2,0,1,2,0,1,2,0,1,2,0,1,2,0,1,2,0,1,2,0,1,2,0,1,2,0,1,2,0,1,2,0,1,2,0,1,2,0,1,2,0,1,2,0,1,2,0,1,2,0,1,2,0,1,2,0,1,2,0,1,2,0,1,2,0,1,2,0,1,2,0,1,2,0,1,2,0,1,2,0,1,2,0,1,2,0,1,2,0,1,2,0,1,2,0,1,2,0,1,2,0,1,2,0,1,2,0,1,2,0,1,2,0,1,2,0,1,2,0,1,2,0,1,2,0,1,2,0,1,2,0,1,2,0,1,2,0,1,2,0,1,2,0,1,2,0,1,2,0,1,2,0,1,2,0,1,2,0,1,2,0,1,2,0,1,2,0,1,2,0,1,2,0,1,2,0,1,2,0,1,2,0,1,2,0,1,2,0,1,2,0,1,2,0,1,2,0,1,2,0,1,2,0,1,2,0,1,2,0,1,2,0,1,2,0,1,2,0,1,2,0,1,2,0,1,2,0,1,2,0,1,2,0,1,2,0,1,2,0,1,2,0,1,2,0,1,2,0,1,2,0,1,2,0,1,2,0,1,2,0,1,2,0,1,2,0,1,2,0,1,2,0,1,2,0,1,2,0,1,2,0,1,2,0,1,2,0,1,2,0,1,2,0,1,2,0,1,2,0,1,2,0,1,2,0,1,2,0,1,2,0,1,2,0,1,2,0,1,2,0,1,2,0,1,2,0,1,2,0,1,2,0,1,2,0,1,2,0,1,2,0,1,2,0,1,2,0,1,2,0,1,2,0,1,2,0,1,2,0,1,2,0,1,2,0,1,2,0,1,2,0,1,2,0,1,2,0,1,2,0,1,2,0,1,2,0,1,2,0,1,2,0,1,2,0,1,2,0,1,2,0,1,2,0,1,2,0,1,2,0,1,2,0,1,2,0,1,2,0,1,2,0,1,2,0,1,2,0,1,2,0,1,2,0,1,2,0,1,2,0,1,2,0,1,2,0,1,2,0,1,2,0,1,2,0,1,2,0,1,2,0,1,2,0,1,2,0,1,2,0,1,2,0,1,2,0,1,2,0,1,2,0,1,2,0,1,2,0,1,2,0,1,2,0,1,2,0,1,2,0,1,2,0,1,2,0,1,2,0,1,2,0,1,2,0,1,2,0,1,2,0,1,2,0,1,2,0,1,2,0,1,2,0,1,2,0,1,2,0,1,2,0,1,2,0,1,2,0,1,2,0,1,2,0,1,2,0,1,2,0,1,2,0,1,2,0,1,2,0,1,2,0,1,2,0,1,2,0,1,2,0,1,2,0,1,2,0,1,2,0,1,2,0,1,2,0,1,2,0,1,2,0,1,2,0,1,2,0,1,2,0,1,2,0,1,2,0,1,2,0,1,2,0,1,2,0,1,2,0,1,2,0,1,2,0,1,2,0,1,2,0,1,2,0,1,2,0,1,2,0,1,2,0,1,2,0,1,2,0,1,2,0,1,2,0,1,2,0,1,2,0,1,2,0,1,2,0,1,2,0,1,2,0,1,2,0,1,2,0,1,2,0,1,2,0,1,2,0,1,2,0,1,2,0,1,2,0,1,2,0,1,2,0,1,2,0,1,2,0,1,2,0,1,2,0,1,2,0,1,2,0,1,2,0,1,2,0,1,2,0,1,2,0,1,2,0,1,2,0,1,2,0,1,2,0,1,2,0,1,2,0,1,2,0,1,2,0,1,2,0,1,2,0,1,2,0,1,2,0,1,2,0,1,2,0,1,2,0,1,2,0,1,2,0,1,2,0,1,2,0,1,2,0,1,2,0,1,2,0,1,2,0,1,2,0,1,2,0,1,2,0,1,2,0,1,2,0,1,2,0,1,2,0,1,2,0,1,2,0,1,2,0,1,2,0,1,2,0,1,2,0,1,2,0,1,2,0,1,2,0,1,2,0,1,2,0,1,2,0,1,2,0,1,2,0,1,2,0,1,2,0,1,2,0,1,2,0,1,2,0,1,2,0,1,2,0,1,2,0,1,2,0,1,2,0,1,2,0,1,2,0,1,2,0,1,2,0,1,2,0,1,2,0,1,2,0,1,2,0,1,2,0,1,2,0,1,2,0,1,2,0,1,2,0,1,2,0,1,2,0,1,2,0,1,2,0,1,2,0,1,2,0,1,2,0,1,2,0,1,2,0,1,2,0,1,2,0,1,2,0,1,2,0,1,2,0,1,2,0,1,2,0,1,2,0,1,2,0,1,2,0,1,2,0,1,2,0,1,2,0,1,2,0,1,2,0,1,2,0,1,2,0,1,2,0,1,2,0,1,2,0,1,2,0,1,2,0,1,2,0,1,2,0,1,2,0,1,2,0,1,2,0,1,2,0,1,2,0,1,2,0,1,2,0,1,2,0,1,2,0,1,2,0,1,2,0,1,2,0,1,2,0,1,2,0,1,2,0,1,2,0,1,2,0,1,2,0,1,2,0,1,2,0,1,2,0,1,2,0,1,2,0,1,2,0,1,2,0,1,2,0,1,2,0,1,2,0,1,2,0,1,2,0,1,2,0,1,2,0,1,2,0,1,2,0,1,2,0,1,2,0,1,2,0,1,2,0,1,2,0,1,2,0,1,2,0,1,2,0,1,2,0,1,2,0,1,2,0,1,2,0,1,2,0,1,2,0,1,2,0,1,2,0,1,2,0,1,2,0,1,2,0,1,2,0,1,2,0,1,2,0,1,2,0,1,2,0,1,2,0,1,2,0,1,2,0,1,2,0,1,2,0,1,2,0,1,2,0,1,2,0,1,2,0,1,2,0,1,2,0,1,2,0,1,2,0,1,2,0,1,2,0,1,2,0,1,2,0,1,2,0,1,2,0,1,2,0,1,2,0,1,2,0,1,2,0,1,2,0,1,2,0,1,2,0,1,2,0,1,2,0,1,2,0,1,2,0,1,2,0,1,2,0,1,2],"trees":[{"base_weights":[5.4086324E-2,5.146457E-1,-5.9662294E-1,7.873409E-1,3.1964637E-2,1.0149941E-1,-9.104962E-1,7.4614994E-3,8.266843E-1,4.2775086E-1,-4.6000138E-1,-3.636856E-2,4.6884972E-1,7.4614994E-3,-5.113479E-2,4.3611873E-2,7.4614994E-3,3.7628837E-2,-1.0257867E-2,-4.093982E-2,4.10321E-3,3.6787696E-2,-1.2627052E-2],"categories":[],"categories_nodes":[],"categories_segments":[],"categories_sizes":[],"default_left":[0,0,0,0,0,0,0,0,0,0,0,0,0,0,0,0,0,0,0,0,0,0,0],"id":0,"left_children":[1,3,5,7,9,11,13,-1,15,17,19,-1,21,-1,-1,-1,-1,-1,-1,-1,-1,-1,-1],"loss_changes":[1.7563585E1,4.483493E0,5.423071E0,4.250803E-1,2.8075151E0,2.9123807E0,2.159956E0,0E0,4.9804974E-1,1.7885036E0,1.3235232E0,0E0,1.4295522E0,0E0,0E0,0E0,0E0,0E0,0E0,0E0,0E0,0E0,0E0],"parents":[2147483647,0,0,1,1,2,2,3,3,4,4,5,5,6,6,8,8,9,9,10,10,12,12],"right_children":[2,4,6,8,10,12,14,-1,16,18,20,-1,22,-1,-1,-1,-1,-1,-1,-1,-1,-1,-1],"split_conditions":[2.1E0,1.9358E4,1.02E1,1.2784E4,1E0,1E0,1.4772E4,7.4614994E-3,8.1E1,3.79E0,1.08E1,-3.636856E-2,2.33E2,7.4614994E-3,-5.113479E-2,4.3611873E-2,7.4614994E-3,3.7628837E-2,-1.0257867E-2,-4.093982E-2,4.10321E-3,3.6787696E-2,-1.2627052E-2],"split_indices":[8,2,16,2,8,1,2,0,11,10,16,0,15,0,0,0,0,0,0,0,0,0,0],"split_type":[0,0,0,0,0,0,0,0,0,0,0,0,0,0,0,0,0,0,0,0,0,0,0],"sum_hessian":[5.6581234E1,3.3253883E1,2.332735E1,2.0845718E1,1.2408166E1,7.4448996E0,1.5882452E1,1.4889798E0,1.9356739E1,6.9485726E0,5.459593E0,1.9853065E0,5.459593E0,1.4889798E0,1.4393472E1,1.7867758E1,1.4889798E0,4.4669394E0,2.4816332E0,2.9779596E0,2.4816332E0,3.970613E0,1.4889798E0],"tree_param":{"num_deleted":"0","num_feature":"17","num_nodes":"23","size_leaf_vector":"1"}},{"base_weights":[6.051858E-2,-2.3524595E-2,1.0130328E0,1.5082666E0,-1.4381873E-2,6.8527013E-3,1.0948546E-1],"categories":[],"categories_nodes":[],"categories_segments":[],"categories_sizes":[],"default_left":[0,0,0,0,0,0,0],"id":1,"left_children":[1,-1,3,5,-1,-1,-1],"loss_changes":[6.923217E0,0E0,3.5767255E0,3.151497E0,0E0,0E0,0E0],"parents":[2147483647,0,0,2,2,3,3],"right_children":[2,-1,4,6,-1,-1,-1],"split_conditions":[3.1E2,-2.3524595E-2,1.7889E4,2.38E2,-1.4381873E-2,6.8527013E-3,1.0948546E-1],"split_indices":[9,0,2,15,0,0,0],"split_type":[0,0,0,0,0,0,0],"sum_hessian":[1.1745468E1,7.8662305E0,3.8792372E0,2.6939147E0,1.1853224E0,1.293079E0,1.4008356E0],"tree_param":{"num_deleted":"0","num_feature":"17","num_nodes":"7","size_leaf_vector":"1"}},{"base_weights":[4.79002E-2,-2.858572E-1,9.090914E-1,6.3909817E-1,-4.1619763E-1,1.4901163E-8,1.0769236E0,-4.098349E-3,4.6391774E-2,-5.3691244E-1,1.7751518E-1,1.6393457E-2,5.7093453E-2,-6.166416E-1,1.5463951E-1,4.109591E-2,-2.4793358E-1,-3.9387297E-2,-2.2821543E-1,1.6393457E-2,-4.098349E-3,-2.9411754E-2,1.6393457E-2,-3.5031836E-2,2.5229378E-2],"categories":[],"categories_nodes":[],"categories_segments":[],"categories_sizes":[],"default_left":[0,0,0,0,0,0,0,0,0,0,0,0,0,0,0,0,0,0,0,0,0,0,0,0,0],"id":2,"left_children":[1,3,5,7,9,-1,11,-1,-1,13,15,-1,-1,17,19,-1,21,-1,23,-1,-1,-1,-1,-1,-1],"loss_changes":[1.5861511E1,5.073887E0,2.3496504E0,1.1836672E0,2.6438918E0,0E0,2.5803566E-1,0E0,0E0,1.7384348E0,2.0571058E0,0E0,0E0,1.6093655E0,1.8590496E-1,0E0,1.1412451E0,0E0,3.69082E0,0E0,0E0,0E0,0E0,0E0,0E0],"parents":[2147483647,0,0,1,1,2,2,3,3,4,4,6,6,9,9,10,10,13,13,14,14,16,16,18,18],"right_children":[2,4,6,8,10,-1,12,-1,-1,14,16,-1,-1,18,20,-1,22,-1,24,-1,-1,-1,-1,-1,-1],"split_conditions":[8.4E1,9.89E2,1.6658E4,1.07E1,3.64E2,1.4901163E-8,1.11E2,-4.098349E-3,4.6391774E-2,1.716E3,1.395E3,1.6393457E-2,5.7093453E-2,2.0354E4,1.978E3,4.109591E-2,1.5056E4,-3.9387297E-2,3.62E0,1.6393457E-2,-4.098349E-3,-2.9411754E-2,1.6393457E-2,-3.5031836E-2,2.5229378E-2],"split_indices":[11,0,2,16,9,0,11,0,0,12,12,0,0,2,0,0,2,0,10,0,0,0,0,0,0],"split_type":[0,0,0,0,0,0,0,0,0,0,0,0,0,0,0,0,0,0,0,0,0,0,0,0,0],"sum_hessian":[5.327999E1,3.8879993E1,1.4399998E1,4.319999E0,3.4559994E1,2.3999996E0,1.1999998E1,1.4399998E0,2.8799996E0,2.8799995E1,5.7599993E0,1.4399998E0,1.05599985E1,2.5919996E1,2.8799996E0,1.9199997E0,3.8399994E0,1.7279997E1,8.639998E0,1.4399998E0,1.4399998E0,2.3999996E0,1.4399998E0,5.2799993E0,3.3599994E0],"tree_param":{"num_deleted":"0","num_feature":"17","num_nodes":"25","size_leaf_vector":"1"}},{"base_weights":[-7.7005327E-3,4.377534E-1,-7.090184E-1,5.849453E-1,-4.036455E-1,-9.066467E-1,-3.312687E-1,4.1907407E-2,3.1986064E-1,4.313838E-3,-3.888684E-2,-1.1642316E-2,-4.831649E-2,2.662728E-1,-7.2258645E-1,-1.925739E-2,4.4022548E-1,2.9943893E-2,-1.1880706E-2,-4.1603133E-2,-1.1794504E-2,3.760998E-2,2.0841444E-1,-2.0047259E-2,2.0573804E-2],"categories":[],"categories_nodes":[],"categories_segments":[],"categories_sizes":[],"default_left":[0,0,0,0,0,0,0,0,0,0,0,0,0,0,0,0,0,0,0,0,0,0,0,0,0],"id":3,"left_children":[1,3,5,7,9,11,13,-1,15,-1,-1,-1,-1,17,19,-1,21,-1,-1,-1,-1,-1,23,-1,-1],"loss_changes":[1.8432343E1,4.7061906E0,1.4103117E0,1.8212147E0,1.1604655E0,3.5682297E-1,2.401218E0,0E0,1.597229E0,0E0,0E0,0E0,0E0,8.9126426E-1,1.22211695E-1,0E0,9.162574E-1,0E0,0E0,0E0,0E0,0E0,1.3894379E0,0E0,0E0],"parents":[2147483647,0,0,1,1,2,2,3,3,4,4,5,5,6,6,8,8,13,13,14,14,16,16,22,22],"right_children":[2,4,6,8,10,12,14,-1,16,-1,-1,-1,-1,18,20,-1,22,-1,-1,-1,-1,-1,24,-1,-1],"split_conditions":[2.3E0,3.64E2,1.363E3,1E0,6.3E1,1E0,3.31E0,4.1907407E-2,3.02E0,4.313838E-3,-3.888684E-2,-1.1642316E-2,-4.831649E-2,1.68E3,1.23E2,-1.925739E-2,3.51E0,2.9943893E-2,-1.1880706E-2,-4.1603133E-2,-1.1794504E-2,3.760998E-2,3.64E0,-2.0047259E-2,2.0573804E-2],"split_indices":[8,9,0,8,11,5,10,0,10,0,0,0,0,0,11,0,10,0,0,0,0,0,10,0,0],"split_type":[0,0,0,0,0,0,0,0,0,0,0,0,0,0,0,0,0,0,0,0,0,0,0,0,0],"sum_hessian":[5.7007965E1,3.509353E1,2.1914436E1,3.0127842E1,4.9656854E0,1.3468145E1,8.446291E0,1.430358E1,1.5824263E1,2.4831026E0,2.4825828E0,1.4947162E0,1.1973429E1,3.4688742E0,4.9774165E0,1.9868608E0,1.3837402E1,1.9760256E0,1.4928486E0,3.4840987E0,1.4933178E0,4.941794E0,8.895608E0,1.9798515E0,6.9157567E0],"tree_param":{"num_deleted":"0","num_feature":"17","num_nodes":"25","size_leaf_vector":"1"}},{"base_weights":[3.3238936E-2,-2.3580516E-2,9.076964E-1,1.3741078E0,-1.4886505E-2,6.968959E-3,9.586295E-2],"categories":[],"categories_nodes":[],"categories_segments":[],"categories_sizes":[],"default_left":[0,0,0,0,0,0,0],"id":4,"left_children":[1,-1,3,5,-1,-1,-1],"loss_changes":[6.327293E0,0E0,3.351169E0,2.3825517E0,0E0,0E0,0E0],"parents":[2147483647,0,0,2,2,3,3],"right_children":[2,-1,4,6,-1,-1,-1],"split_conditions":[3.1E2,-2.3580516E-2,1.7889E4,2.38E2,-1.4886505E-2,6.968959E-3,9.586295E-2],"split_indices":[9,0,2,15,0,0,0],"split_type":[0,0,0,0,0,0,0],"sum_hessian":[1.2362685E1,8.129802E0,4.232884E0,2.951093E0,1.281791E0,1.2854748E0,1.6656182E0],"tree_param":{"num_deleted":"0","num_feature":"17","num_nodes":"7","size_leaf_vector":"1"}},{"base_weights":[-4.9543083E-2,9.0560484E-1,-2.8987923E-1,-4.4097365E-3,5.3073216E-2,-4.679561E-1,4.4261026E-1,-6.710365E-1,-2.1834931E-1,8.585298E-1,-3.535941E-1,-3.785532E-2,-2.9890928E-1,3.4983245E-1,-4.0238422E-1,1.5598637E-2,4.7861237E-2,-3.7666261E-3,-2.4325123E-2,1.6092865E-2,-3.0691812E-2,-1.0616397E-2,3.948346E-2,7.190335E-3,-5.0177485E-1,-3.4673065E-2,-1.0833221E-2],"categories":[],"categories_nodes":[],"categories_segments":[],"categories_sizes":[],"default_left":[0,0,0,0,0,0,0,0,0,0,0,0,0,0,0,0,0,0,0,0,0,0,0,0,0,0,0],"id":5,"left_children":[1,3,5,-1,-1,7,9,11,13,15,17,-1,19,21,23,-1,-1,-1,-1,-1,-1,-1,-1,-1,25,-1,-1],"loss_changes":[1.2810329E1,1.8332758E0,6.00251E0,0E0,0E0,1.6898255E0,3.3511796E0,3.980255E-1,1.9951367E0,4.3194294E-2,1.06331944E-1,0E0,1.2364271E0,1.372733E0,8.245871E-1,0E0,0E0,0E0,0E0,0E0,0E0,0E0,0E0,0E0,5.0280046E-1,0E0,0E0],"parents":[2147483647,0,0,1,1,2,2,5,5,6,6,7,7,8,8,9,9,10,10,12,12,13,13,14,14,24,24],"right_children":[2,4,6,-1,-1,8,10,12,14,16,18,-1,20,22,24,-1,-1,-1,-1,-1,-1,-1,-1,-1,26,-1,-1],"split_conditions":[8.39E2,1.6728E4,3.64E2,-4.4097365E-3,5.3073216E-2,1.8137E4,2.449E3,1.718E3,1E2,1.06E2,2.796E3,-3.785532E-2,2.115E3,9.18E2,1.212E3,1.5598637E-2,4.7861237E-2,-3.7666261E-3,-2.4325123E-2,1.6092865E-2,-3.0691812E-2,-1.0616397E-2,3.948346E-2,7.190335E-3,1.987E3,-3.4673065E-2,-1.0833221E-2],"split_indices":[0,2,9,0,0,2,0,12,14,14,0,0,12,12,0,0,0,0,0,0,0,0,0,0,0,0,0],"split_type":[0,0,0,0,0,0,0,0,0,0,0,0,0,0,0,0,0,0,0,0,0,0,0,0,0,0,0],"sum_hessian":[5.366109E1,1.0231363E1,4.342973E1,1.4459238E0,8.7854395E0,3.5226818E1,8.202912E0,1.8492731E1,1.6734085E1,5.336805E0,2.8661072E0,1.4178767E1,4.313965E0,3.8736954E0,1.2860389E1,1.4527395E0,3.8840654E0,1.4329125E0,1.4331948E0,1.4445473E0,2.8694177E0,1.927453E0,1.9462422E0,1.911124E0,1.09492655E1,5.6908913E0,5.2583737E0],"tree_param":{"num_deleted":"0","num_feature":"17","num_nodes":"27","size_leaf_vector":"1"}},{"base_weights":[3.3231266E-4,4.2848E-1,-6.42205E-1,6.5820205E-1,1.7610714E-1,1.3697115E-2,-7.4200183E-1,7.454902E-1,2.2939168E-1,5.9831846E-1,-5.7200607E-2,1.3237921E-2,-8.6074215E-1,6.9586313E-3,4.024444E-2,-1.3627827E-2,2.8649075E-2,6.6928095E-3,3.5511937E-2,1.3567136E-1,-3.5311192E-2,-1.09971035E-2,-9.0299934E-1,4.656676E-1,-4.0326434E-1,-4.745009E-2,-1.8119695E-2,3.5621885E-2,-1.2929449E-2,-3.560118E-2,6.589657E-3],"categories":[],"categories_nodes":[],"categories_segments":[],"categories_sizes":[],"default_left":[0,0,0,0,0,0,0,0,0,0,0,0,0,0,0,0,0,0,0,0,0,0,0,0,0,0,0,0,0,0,0],"id":6,"left_children":[1,3,5,7,9,-1,11,13,15,17,19,-1,21,-1,-1,-1,-1,-1,-1,23,-1,-1,25,27,29,-1,-1,-1,-1,-1,-1],"loss_changes":[1.5774487E1,1.8790693E0,2.2996998E0,4.8957443E-1,1.7839013E0,0E0,2.7319536E0,4.0007305E-1,9.200776E-1,2.3809218E-1,1.6421679E0,0E0,3.1513214E-1,0E0,0E0,0E0,0E0,0E0,0E0,2.030639E0,0E0,0E0,9.071636E-2,1.4158047E0,8.3248615E-1,0E0,0E0,0E0,0E0,0E0,0E0],"parents":[2147483647,0,0,1,1,2,2,3,3,4,4,6,6,7,7,8,8,9,9,10,10,12,12,19,19,22,22,23,23,24,24],"right_children":[2,4,6,8,10,-1,12,14,16,18,20,-1,22,-1,-1,-1,-1,-1,-1,24,-1,-1,26,28,30,-1,-1,-1,-1,-1,-1],"split_conditions":[2.3E0,1E0,1.4772E4,1.1E1,3.47E0,1.3697115E-2,9.9E0,9.8E0,2.504E3,1.368E3,1.09E2,1.3237921E-2,7E1,6.9586313E-3,4.024444E-2,-1.3627827E-2,2.8649075E-2,6.6928095E-3,3.5511937E-2,1.9002E4,-3.5311192E-2,-1.09971035E-2,2.3376E4,1.428E3,1.06E1,-4.745009E-2,-1.8119695E-2,3.5621885E-2,-1.2929449E-2,-3.560118E-2,6.589657E-3],"split_indices":[8,8,2,16,10,0,16,16,0,0,14,0,14,0,0,0,0,0,0,2,0,0,2,12,16,0,0,0,0,0,0],"split_type":[0,0,0,0,0,0,0,0,0,0,0,0,0,0,0,0,0,0,0,0,0,0,0,0,0,0,0,0,0,0,0],"sum_hessian":[5.5340477E1,3.341074E1,2.1929737E1,1.6648455E1,1.6762287E1,1.9827594E0,1.9946978E1,1.3219086E1,3.4293683E0,5.409088E0,1.1353198E1,1.9746702E0,1.7972307E1,1.477757E0,1.1741329E1,1.4775553E0,1.951813E0,1.476733E0,3.9323552E0,9.362022E0,1.9911764E0,1.495714E0,1.6476593E1,5.890906E0,3.4711163E0,1.4488278E1,1.9883145E0,4.4060025E0,1.4849032E0,1.991286E0,1.4798301E0],"tree_param":{"num_deleted":"0","num_feature":"17","num_nodes":"31","size_leaf_vector":"1"}},{"base_weights":[-2.6476297E-3,-2.3332203E-2,8.086269E-1,1.3867034E0,-1.5751256E-2,1.07976785E-2,9.07579E-2],"categories":[],"categories_nodes":[],"categories_segments":[],"categories_sizes":[],"default_left":[0,0,0,0,0,0,0],"id":7,"left_children":[1,-1,3,5,-1,-1,-1],"loss_changes":[5.037631E0,0E0,3.6004326E0,1.314013E0,0E0,0E0,0E0],"parents":[2147483647,0,0,2,2,3,3],"right_children":[2,-1,4,6,-1,-1,-1],"split_conditions":[3.1E2,-2.3332203E-2,1.7889E4,1.3795E2,-1.5751256E-2,1.07976785E-2,9.07579E-2],"split_indices":[9,0,2,13,0,0,0],"split_type":[0,0,0,0,0,0,0],"sum_hessian":[1.138028E1,7.5099034E0,3.8703766E0,2.4010322E0,1.4693445E0,1.0462335E0,1.3547987E0],"tree_param":{"num_deleted":"0","num_feature":"17","num_nodes":"7","size_leaf_vector":"1"}},{"base_weights":[-1.1338925E-2,-4.0996867E-1,5.9833944E-1,-6.3465E-1,1.4312646E-1,-1.6438287E-1,9.307556E-1,-7.136686E-1,1.6109055E-2,-3.659053E-1,3.8209368E-2,-3.1536303E-2,3.965203E-1,-4.6352344E-3,5.2454304E-2,-3.776166E-2,-3.8068423E-3,-3.0784553E-2,6.2184776E-3,3.4353536E-2,-3.2171328E-3],"categories":[],"categories_nodes":[],"categories_segments":[],"categories_sizes":[],"default_left":[0,0,0,0,0,0,0,0,0,0,0,0,0,0,0,0,0,0,0,0,0],"id":8,"left_children":[1,3,5,7,9,11,13,15,-1,17,-1,-1,19,-1,-1,-1,-1,-1,-1,-1,-1],"loss_changes":[1.2900347E1,4.0771976E0,5.4754596E0,1.9685669E0,3.467136E0,2.1391556E0,1.8860683E0,5.1361084E-1,0E0,8.3796465E-1,0E0,0E0,5.654367E-1,0E0,0E0,0E0,0E0,0E0,0E0,0E0,0E0],"parents":[2147483647,0,0,1,1,2,2,3,3,4,4,5,5,6,6,7,7,9,9,12,12],"right_children":[2,4,6,8,10,12,14,16,-1,18,-1,-1,20,-1,-1,-1,-1,-1,-1,-1,-1],"split_conditions":[2.3E0,1.9724E4,1.02E1,3.92E2,1E0,1E0,1.5177E4,2.1E0,1.6109055E-2,3.79E0,3.8209368E-2,-3.1536303E-2,2E0,-4.6352344E-3,5.2454304E-2,-3.776166E-2,-3.8068423E-3,-3.0784553E-2,6.2184776E-3,3.4353536E-2,-3.2171328E-3],"split_indices":[8,2,16,9,8,6,2,8,0,10,0,0,1,0,0,0,0,0,0,0,0],"split_type":[0,0,0,0,0,0,0,0,0,0,0,0,0,0,0,0,0,0,0,0,0],"sum_hessian":[5.107068E1,3.1078197E1,1.9992483E1,2.199558E1,9.082617E0,6.221914E0,1.3770569E1,2.0552422E1,1.4431597E0,5.2172832E0,3.8653336E0,3.3293555E0,2.8925583E0,1.4495684E0,1.2321E1,1.9121174E1,1.4312477E0,3.2868748E0,1.9304084E0,1.4730444E0,1.419514E0],"tree_param":{"num_deleted":"0","num_feature":"17","num_nodes":"21","size_leaf_vector":"1"}},{"base_weights":[-3.756951E-2,3.372836E-1,-6.0925454E-1,3.9971304E-1,-3.0831119E-2,-7.819508E-1,2.624725E-1,3.916461E-2,1.5198116E-1,7.760423E-3,-8.70754E-1,2.9260585E-2,-1.1368479E-2,-2.5385488E-2,2.884538E-1,-1.0882091E-2,-4.588894E-2,3.970786E-1,-1.9900499E-2,3.606601E-2,8.530466E-3],"categories":[],"categories_nodes":[],"categories_segments":[],"categories_sizes":[],"default_left":[0,0,0,0,0,0,0,0,0,0,0,0,0,0,0,0,0,0,0,0,0],"id":9,"left_children":[1,3,5,7,-1,9,11,-1,13,-1,15,-1,-1,-1,17,-1,-1,19,-1,-1,-1],"loss_changes":[1.2127459E1,2.2857869E0,3.5756617E0,2.9927883E0,0E0,1.7111931E0,8.366621E-1,0E0,2.0494907E0,0E0,3.3617973E-1,0E0,0E0,0E0,1.511603E0,0E0,0E0,1.0645256E0,0E0,0E0,0E0],"parents":[2147483647,0,0,1,1,2,2,3,3,5,5,6,6,8,8,10,10,14,14,17,17],"right_children":[2,4,6,8,-1,10,12,-1,14,-1,16,-1,-1,-1,18,-1,-1,20,-1,-1,-1],"split_conditions":[7.4E1,3.94E2,2.475E3,1.7046E4,-3.0831119E-2,1.2369E4,9.9332E3,3.916461E-2,1.103E3,7.760423E-3,1.023E2,2.9260585E-2,-1.1368479E-2,-2.5385488E-2,1.919E3,-1.0882091E-2,-4.588894E-2,1.9379E4,-1.9900499E-2,3.606601E-2,8.530466E-3],"split_indices":[11,9,0,2,0,2,12,0,0,0,13,0,0,0,12,0,0,2,0,0,0],"split_type":[0,0,0,0,0,0,0,0,0,0,0,0,0,0,0,0,0,0,0,0,0],"sum_hessian":[5.463267E1,3.324439E1,2.1388283E1,3.1747604E1,1.4967843E0,1.7937672E1,3.450612E0,1.1609703E1,2.0137901E1,1.4878879E0,1.6449783E1,1.9627396E0,1.4878724E0,2.9856117E0,1.7152288E1,1.4828734E0,1.4966909E1,1.5172914E1,1.9793758E0,5.3410025E0,9.83191E0],"tree_param":{"num_deleted":"0","num_feature":"17","num_nodes":"21","size_leaf_vector":"1"}},{"base_weights":[9.97056E-2,-2.3223458E-2,8.3847755E-1,8.8834144E-2,4.4116315E-2,3.6257945E-2,-1.8687064E-2],"categories":[],"categories_nodes":[],"categories_segments":[],"categories_sizes":[],"default_left":[0,0,0,0,0,0,0],"id":10,"left_children":[1,-1,3,-1,5,-1,-1],"loss_changes":[6.0293517E0,0E0,4.5539646E0,0E0,1.5206923E0,0E0,0E0],"parents":[2147483647,0,0,2,2,4,4],"right_children":[2,-1,4,-1,6,-1,-1],"split_conditions":[3.1E2,-2.3223458E-2,1.5105E4,8.8834144E-2,3.31E2,3.6257945E-2,-1.8687064E-2],"split_indices":[9,0,2,0,9,0,0],"split_type":[0,0,0,0,0,0,0],"sum_hessian":[1.2531555E1,7.315928E0,5.215627E0,1.8243284E0,3.3912988E0,1.0098994E0,2.3813994E0],"tree_param":{"num_deleted":"0","num_feature":"17","num_nodes":"7","size_leaf_vector":"1"}},{"base_weights":[-1.4220147E-2,7.989591E-1,-2.5877473E-1,-2.4126148E-2,4.9627043E-2,-3.8623083E-1,3.8505948E-1,-6.273265E-1,5.447116E-3,4.4561803E-2,-3.608391E-1,-3.6402002E-2,-3.2830462E-1,-3.2010725E-1,5.1096815E-1,-4.2632427E-3,-2.4448179E-2,1.490772E-1,-3.2324564E-2,-3.0906191E-2,-4.35523E-2,1.3021615E-1,3.956848E-2,-4.234944E-3,1.6054071E-2,2.0872293E-2,-2.8176187E-2,1.4908224E-2,-4.6157963E-3],"categories":[],"categories_nodes":[],"categories_segments":[],"categories_sizes":[],"default_left":[0,0,0,0,0,0,0,0,0,0,0,0,0,0,0,0,0,0,0,0,0,0,0,0,0,0,0,0,0],"id":11,"left_children":[1,3,5,-1,-1,7,9,11,13,-1,15,-1,17,19,21,-1,-1,23,-1,-1,25,27,-1,-1,-1,-1,-1,-1,-1],"loss_changes":[1.1480787E1,3.791191E0,3.7872374E0,0E0,0E0,3.5456996E0,3.277052E0,4.6049595E-1,2.6788907E0,0E0,9.517503E-2,0E0,1.2619609E0,7.899698E-1,5.772736E-1,0E0,0E0,1.8327773E-1,0E0,0E0,1.7254176E0,1.7326418E-1,0E0,0E0,0E0,0E0,0E0,0E0,0E0],"parents":[2147483647,0,0,1,1,2,2,5,5,6,6,7,7,8,8,10,10,12,12,13,13,14,14,17,17,20,20,21,21],"right_children":[2,4,6,-1,-1,8,10,12,14,-1,16,-1,18,20,22,-1,-1,24,-1,-1,26,28,-1,-1,-1,-1,-1,-1,-1],"split_conditions":[9.01E2,1.5105E4,3.94E2,-2.4126148E-2,4.9627043E-2,1.906E4,2.286E3,2.1E0,1.5E0,4.4561803E-2,2.65E2,-3.6402002E-2,3.1E2,1.987E3,3.36E0,-4.2632427E-3,-2.4448179E-2,1.5574E4,-3.2324564E-2,-3.0906191E-2,2.504E3,1.978E3,3.956848E-2,-4.234944E-3,1.6054071E-2,2.0872293E-2,-2.8176187E-2,1.4908224E-2,-4.6157963E-3],"split_indices":[0,2,9,0,0,2,0,8,8,0,15,0,9,0,10,0,0,2,0,0,0,0,0,0,0,0,0,0,0],"split_type":[0,0,0,0,0,0,0,0,0,0,0,0,0,0,0,0,0,0,0,0,0,0,0,0,0,0,0,0,0],"sum_hessian":[5.5691433E1,1.2352059E1,4.3339375E1,1.4251537E0,1.0926906E1,3.6511513E1,6.8278623E0,2.2227705E1,1.4283807E1,3.9514842E0,2.8763778E0,1.5554167E1,6.6735373E0,8.91156E0,5.3722463E0,1.4414804E0,1.4348974E0,2.8816376E0,3.7918997E0,3.69487E0,5.21669E0,2.8994832E0,2.472763E0,1.4366374E0,1.4450002E0,2.8696663E0,2.347024E0,1.4587047E0,1.4407785E0],"tree_param":{"num_deleted":"0","num_feature":"17","num_nodes":"29","size_leaf_vector":"1"}},{"base_weights":[-2.7309952E-2,3.327585E-1,-6.202133E-1,5.077992E-1,-5.6707543E-1,-4.2975966E-2,-2.6367313E-1,7.3866415E-1,6.1849527E-2,-4.0205747E-2,6.963602E-3,1.7715055E-2,-3.6029488E-2,3.91224E-2,4.707025E-3,4.418157E-1,-3.828918E-1,2.8685598E-2,-2.8573927E-1,3.430875E-2,-1.3070524E-2,7.1899304E-3,-5.8889544E-1,1.39954155E-2,-3.4328885E-2,-1.1145157E-2,-3.4843136E-2],"categories":[],"categories_nodes":[],"categories_segments":[],"categories_sizes":[],"default_left":[0,0,0,0,0,0,0,0,0,0,0,0,0,0,0,0,0,0,0,0,0,0,0,0,0,0,0],"id":12,"left_children":[1,3,5,7,9,-1,11,13,15,-1,-1,17,-1,-1,-1,19,21,-1,23,-1,-1,-1,25,-1,-1,-1,-1],"loss_changes":[1.2627589E1,6.092115E0,1.678855E0,3.1846685E0,1.1958399E0,0E0,1.3514353E0,5.0717354E-1,2.162216E0,0E0,0E0,1.4157739E0,0E0,0E0,0E0,1.352096E0,7.323858E-1,0E0,1.4318347E0,0E0,0E0,0E0,2.1989942E-2,0E0,0E0,0E0,0E0],"parents":[2147483647,0,0,1,1,2,2,3,3,4,4,6,6,7,7,8,8,11,11,15,15,16,16,18,18,22,22],"right_children":[2,4,6,8,10,-1,12,14,16,-1,-1,18,-1,-1,-1,20,22,-1,24,-1,-1,-1,26,-1,-1,-1,-1],"split_conditions":[2.3E0,3.64E2,1.092E3,1.9379E4,2.796E3,-4.2975966E-2,1.68E3,1.26E2,1E0,-4.0205747E-2,6.963602E-3,3.16E0,-3.6029488E-2,3.91224E-2,4.707025E-3,3.79E0,2.66E2,2.8685598E-2,1.6658E4,3.430875E-2,-1.3070524E-2,7.1899304E-3,1.212E3,1.39954155E-2,-3.4328885E-2,-1.1145157E-2,-3.4843136E-2],"split_indices":[8,9,0,2,0,0,0,14,8,0,0,10,0,0,0,10,9,0,2,0,0,0,0,0,0,0,0],"split_type":[0,0,0,0,0,0,0,0,0,0,0,0,0,0,0,0,0,0,0,0,0,0,0,0,0,0,0],"sum_hessian":[5.718284E1,3.5850002E1,2.1332836E1,3.0376644E1,5.473359E0,1.19209175E1,9.411918E0,1.9582527E1,1.0794117E1,3.9944649E0,1.4788945E0,6.4196563E0,2.9922614E0,1.8136482E1,1.4460443E0,5.824508E0,4.969609E0,1.9521933E0,4.467463E0,4.340503E0,1.4840051E0,1.4821501E0,3.4874587E0,1.97795E0,2.489513E0,1.4925358E0,1.9949229E0],"tree_param":{"num_deleted":"0","num_feature":"17","num_nodes":"27","size_leaf_vector":"1"}},{"base_weights":[-1.2909937E-2,9.7188073E-1,-2.3554623E-2,-1.6306903E-2,9.300979E-2],"categories":[],"categories_nodes":[],"categories_segments":[],"categories_sizes":[],"default_left":[0,0,0,0,0],"id":13,"left_children":[1,3,-1,-1,-1],"loss_changes":[6.153343E0,5.6045623E0,0E0,0E0,0E0],"parents":[2147483647,0,0,1,1],"right_children":[2,4,-1,-1,-1],"split_conditions":[1.5105E4,3.38E2,-2.3554623E-2,-1.6306903E-2,9.300979E-2],"split_indices":[2,9,0,0,0],"split_type":[0,0,0,0,0],"sum_hessian":[1.1622612E1,3.3344898E0,8.288122E0,1.6119472E0,1.7225426E0],"tree_param":{"num_deleted":"0","num_feature":"17","num_nodes":"5","size_leaf_vector":"1"}},{"base_weights":[2.2095742E-3,-3.481813E-1,6.223126E-1,-4.3074107E-1,3.7910145E-2,-2.4322447E-1,8.258261E-1,-6.5162534E-1,-1.30934715E-2,1.5003227E-2,-2.8362904E-2,1.1870016E-1,4.7979534E-2,-6.8691486E-1,-2.9824662E-3,-3.9405006E-1,3.555812E-1,-5.134309E-3,1.4500059E-2,-3.6365308E-2,-8.101395E-3,-3.2193337E-2,1.7445091E-2,-2.3830201E-2,6.37932E-1,4.427955E-2,-3.8599E-3],"categories":[],"categories_nodes":[],"categories_segments":[],"categories_sizes":[],"default_left":[0,0,0,0,0,0,0,0,0,0,0,0,0,0,0,0,0,0,0,0,0,0,0,0,0,0,0],"id":14,"left_children":[1,3,5,7,-1,9,11,13,15,-1,-1,17,-1,19,-1,21,23,-1,-1,-1,-1,-1,-1,-1,25,-1,-1],"loss_changes":[1.2753877E1,3.75283E0,3.933692E0,3.2703505E0,0E0,1.0163965E0,1.5304909E0,4.4425297E-1,2.0102851E0,0E0,0E0,1.7793319E-1,0E0,3.4487057E-1,0E0,1.5281421E0,2.01756E0,0E0,0E0,0E0,0E0,0E0,0E0,0E0,1.1084745E0,0E0,0E0],"parents":[2147483647,0,0,1,1,2,2,3,3,5,5,6,6,7,7,8,8,11,11,13,13,15,15,16,16,24,24],"right_children":[2,4,6,8,-1,10,12,14,16,-1,-1,18,-1,20,-1,22,24,-1,-1,-1,-1,-1,-1,-1,26,-1,-1],"split_conditions":[2.3E0,4.66E2,1.6658E4,1.9379E4,3.7910145E-2,3.25E2,1.01E1,4.2E0,1E0,1.5003227E-2,-2.8362904E-2,2.36E2,4.7979534E-2,1.15E1,-2.9824662E-3,1.05E1,1.2E2,-5.134309E-3,1.4500059E-2,-3.6365308E-2,-8.101395E-3,-3.2193337E-2,1.7445091E-2,-2.3830201E-2,2.449E3,4.427955E-2,-3.8599E-3],"split_indices":[8,9,2,2,0,9,16,10,8,0,0,15,0,16,0,16,15,0,0,0,0,0,0,0,0,0,0],"split_type":[0,0,0,0,0,0,0,0,0,0,0,0,0,0,0,0,0,0,0,0,0,0,0,0,0,0,0],"sum_hessian":[5.6701077E1,3.650969E1,2.0191387E1,3.4542744E1,1.9669452E0,3.8066566E0,1.6384731E1,2.2227106E1,1.2315637E1,1.449811E0,2.3568456E0,2.9066348E0,1.3478096E1,2.0825272E1,1.4018357E0,6.0230784E0,6.2925587E0,1.4426856E0,1.4639492E0,1.897914E1,1.8461318E0,4.6072598E0,1.4158187E0,1.4198339E0,4.8727245E0,3.442261E0,1.4304637E0],"tree_param":{"num_deleted":"0","num_feature":"17","num_nodes":"27","size_leaf_vector":"1"}},{"base_weights":[1.9442914E-2,3.548422E-1,-5.5214614E-1,4.5177934E-1,-3.5207693E-2,-5.3462528E-2,-7.3641044E-1,6.507818E-1,8.241995E-2,-3.556964E-2,4.7613794E-1,-4.1014254E-2,-3.8706475E-1,7.238551E-1,-3.3599187E-3,3.9158106E-1,-1.7248726E-1,2.9822906E-2,6.9431975E-3,-3.2937597E-2,7.5341524E-3,5.6998427E-3,3.8207334E-2,3.2678585E-2,-1.3904366E-2,-4.6963492E-1,1.743072E-2,-7.918979E-3,-3.3739787E-2],"categories":[],"categories_nodes":[],"categories_segments":[],"categories_sizes":[],"default_left":[0,0,0,0,0,0,0,0,0,0,0,0,0,0,0,0,0,0,0,0,0,0,0,0,0,0,0,0,0],"id":15,"left_children":[1,3,5,7,-1,9,11,13,15,-1,17,-1,19,21,-1,23,25,-1,-1,-1,-1,-1,-1,-1,-1,27,-1,-1,-1],"loss_changes":[1.1263454E1,4.115452E0,1.9582748E0,2.4820766E0,0E0,2.7582169E0,1.4533424E-1,1.2172508E0,1.1096821E0,0E0,9.7601414E-2,0E0,8.2269436E-1,4.117384E-1,0E0,1.2838674E0,1.3935101E0,0E0,0E0,0E0,0E0,0E0,0E0,0E0,0E0,2.4331844E-1,0E0,0E0,0E0],"parents":[2147483647,0,0,1,1,2,2,3,3,5,5,6,6,7,7,8,8,10,10,12,12,13,13,15,15,16,16,25,25],"right_children":[2,4,6,8,-1,10,12,14,16,-1,18,-1,20,22,-1,24,26,-1,-1,-1,-1,-1,-1,-1,-1,28,-1,-1,-1],"split_conditions":[2.3E0,4.5E2,1.6658E4,1.9379E4,-3.5207693E-2,1E0,2E0,2.1E0,1E0,-3.556964E-2,2.132E3,-4.1014254E-2,1.103E3,1.3329E4,-3.3599187E-3,1.987E3,2.338E3,2.9822906E-2,6.9431975E-3,-3.2937597E-2,7.5341524E-3,5.6998427E-3,3.8207334E-2,3.2678585E-2,-1.3904366E-2,1.368E3,1.743072E-2,-7.918979E-3,-3.3739787E-2],"split_indices":[8,9,2,2,0,1,1,8,8,0,12,0,0,2,0,0,0,0,0,0,0,0,0,0,0,0,0,0,0],"split_type":[0,0,0,0,0,0,0,0,0,0,0,0,0,0,0,0,0,0,0,0,0,0,0,0,0,0,0,0,0],"sum_hessian":[5.673042E1,3.5990795E1,2.073962E1,3.3497894E1,2.492902E0,5.9437904E0,1.4795831E1,2.1274015E1,1.2223879E1,2.497655E0,3.4461355E0,1.0844183E1,3.951648E0,1.930141E1,1.9726053E0,5.2817736E0,6.942106E0,1.9735999E0,1.4725357E0,2.4757838E0,1.4758642E0,1.4334731E0,1.7867937E1,3.81377E0,1.4680033E0,4.4839754E0,2.4581306E0,2.485353E0,1.9986222E0],"tree_param":{"num_deleted":"0","num_feature":"17","num_nodes":"29","size_leaf_vector":"1"}},{"base_weights":[-9.0354934E-2,-2.3191491E-2,5.370882E-1,6.5632395E-2,-1.2085804E-1,-1.6715702E-2,1.1094097E-2],"categories":[],"categories_nodes":[],"categories_segments":[],"categories_sizes":[],"default_left":[0,0,0,0,0,0,0],"id":16,"left_children":[1,-1,3,-1,5,-1,-1],"loss_changes":[3.1946785E0,0E0,2.788428E0,0E0,3.4515747E-1,0E0,0E0],"parents":[2147483647,0,0,2,2,4,4],"right_children":[2,-1,4,-1,6,-1,-1],"split_conditions":[3.1E2,-2.3191491E-2,1.02E1,6.5632395E-2,1.847E3,-1.6715702E-2,1.1094097E-2],"split_indices":[9,0,16,0,0,0,0],"split_type":[0,0,0,0,0,0,0],"sum_hessian":[1.1569913E1,7.4162674E0,4.1536455E0,1.4497142E0,2.703931E0,1.68137E0,1.0225611E0],"tree_param":{"num_deleted":"0","num_feature":"17","num_nodes":"7","size_leaf_vector":"1"}},{"base_weights":[2.1891726E-2,-3.32567E-1,5.688984E-1,-5.7074153E-1,-1.0406603E-2,-3.0555127E-2,7.749453E-1,-3.4602005E-2,-1.8703766E-1,-4.263537E-1,3.6225617E-1,6.065914E-3,8.4005255E-1,2.282702E-2,-2.9511655E-2,-3.1766776E-2,7.7472473E-3,-2.6071915E-2,6.775711E-1,1.13122715E-2,8.8288045E-1,6.204993E-3,4.337251E-2,4.6398908E-2,1.2991949E-2],"categories":[],"categories_nodes":[],"categories_segments":[],"categories_sizes":[],"default_left":[0,0,0,0,0,0,0,0,0,0,0,0,0,0,0,0,0,0,0,0,0,0,0,0,0],"id":17,"left_children":[1,3,5,7,9,-1,11,-1,13,15,17,-1,19,-1,-1,-1,-1,-1,21,-1,23,-1,-1,-1,-1],"loss_changes":[1.0958634E1,2.628586E0,5.873332E0,7.884774E-1,2.5745654E0,0E0,7.21467E-1,0E0,1.8542792E0,1.0505253E0,2.7985444E0,0E0,2.5836754E-1,0E0,0E0,0E0,0E0,0E0,6.1776614E-1,0E0,2.0691109E-1,0E0,0E0,0E0,0E0],"parents":[2147483647,0,0,1,1,2,2,3,3,4,4,6,6,8,8,9,9,10,10,12,12,18,18,20,20],"right_children":[2,4,6,8,10,-1,12,-1,14,16,18,-1,20,-1,-1,-1,-1,-1,22,-1,24,-1,-1,-1,-1],"split_conditions":[2.3E0,1.8302E4,1.5116E4,1.09E2,1E0,-3.0555127E-2,1.6658E4,-3.4602005E-2,1.4245E4,2.83E2,1.2E2,6.065914E-3,6.4E2,2.282702E-2,-2.9511655E-2,-3.1766776E-2,7.7472473E-3,-2.6071915E-2,1.9817E4,1.13122715E-2,2.4837E4,6.204993E-3,4.337251E-2,4.6398908E-2,1.2991949E-2],"split_indices":[8,2,2,14,8,0,2,0,2,15,15,0,12,0,0,0,0,0,2,0,2,0,0,0,0],"split_type":[0,0,0,0,0,0,0,0,0,0,0,0,0,0,0,0,0,0,0,0,0,0,0,0,0],"sum_hessian":[5.4543686E1,3.3334835E1,2.1208853E1,1.8721987E1,1.4612848E1,2.860625E0,1.8348228E1,1.3614514E1,5.1074724E0,6.837314E0,7.7755337E0,1.9214727E0,1.6426756E1,1.9163309E0,3.1911414E0,4.960878E0,1.8764365E0,1.8728948E0,5.902639E0,1.4811826E0,1.4945573E1,1.9301347E0,3.9725044E0,1.3480387E1,1.4651861E0],"tree_param":{"num_deleted":"0","num_feature":"17","num_nodes":"25","size_leaf_vector":"1"}},{"base_weights":[-3.0207667E-2,3.0754727E-1,-7.106218E-1,5.788919E-1,1.0251385E-1,-2.7899706E-1,-3.8646083E-2,6.655991E-1,1.826505E-1,4.822737E-1,-1.5619509E-1,-2.9986728E-2,7.814963E-3,6.356177E-3,3.6070976E-2,-1.3321258E-2,2.5467306E-2,-1.205315E-2,6.405467E-1,2.6428675E-2,-2.9934856E-1,6.711216E-3,3.6307838E-2,-5.3479645E-2,-3.6882054E-2,-3.37888E-2,1.0482298E-2],"categories":[],"categories_nodes":[],"categories_segments":[],"categories_sizes":[],"default_left":[0,0,0,0,0,0,0,0,0,0,0,0,0,0,0,0,0,0,0,0,0,0,0,0,0,0,0],"id":18,"left_children":[1,3,5,7,9,11,-1,13,15,17,19,-1,-1,-1,-1,-1,-1,-1,21,-1,23,-1,-1,25,-1,-1,-1],"loss_changes":[1.3274119E1,2.091613E0,2.9923248E-1,4.4274187E-1,2.3583124E0,6.494034E-1,0E0,3.019867E-1,7.7053624E-1,1.2603769E0,1.5871427E0,0E0,0E0,0E0,0E0,0E0,0E0,0E0,2.579496E-1,0E0,1.3285706E0,0E0,0E0,1.6498663E0,0E0,0E0,0E0],"parents":[2147483647,0,0,1,1,2,2,3,3,4,4,5,5,7,7,8,8,9,9,10,10,18,18,20,20,23,23],"right_children":[2,4,6,8,10,12,-1,14,16,18,20,-1,-1,-1,-1,-1,-1,-1,22,-1,24,-1,-1,26,-1,-1,-1],"split_conditions":[3.2E0,1E0,1.5116E4,3.98E0,3.47E0,5.6E0,-3.8646083E-2,1.129E3,2.615E3,2.97E0,1.17E2,-2.9986728E-2,7.814963E-3,6.356177E-3,3.6070976E-2,-1.3321258E-2,2.5467306E-2,-1.205315E-2,1.271E3,2.6428675E-2,1.9817E4,6.711216E-3,3.6307838E-2,3.56E0,-3.6882054E-2,-3.37888E-2,1.0482298E-2],"split_indices":[8,8,2,10,10,8,0,0,0,10,15,0,0,0,0,0,0,0,0,0,2,0,0,10,0,0,0],"split_type":[0,0,0,0,0,0,0,0,0,0,0,0,0,0,0,0,0,0,0,0,0,0,0,0,0,0,0],"sum_hessian":[5.580948E1,3.766214E1,1.814734E1,1.5425016E1,2.2237122E1,2.9799588E0,1.5167382E1,1.2097916E1,3.327101E0,8.660373E0,1.3576749E1,1.4982492E0,1.4817097E0,1.4441533E0,1.0653762E1,1.4788117E0,1.8482893E0,1.4608655E0,7.199507E0,1.881987E0,1.1694762E1,1.4126344E0,5.786873E0,8.21078E0,3.4839823E0,1.9739921E0,6.236788E0],"tree_param":{"num_deleted":"0","num_feature":"17","num_nodes":"27","size_leaf_vector":"1"}},{"base_weights":[9.176485E-2,-2.2935538E-2,8.924247E-1,1.4670559E0,-1.5913399E-2,2.5745451E-2,9.092916E-2],"categories":[],"categories_nodes":[],"categories_segments":[],"categories_sizes":[],"default_left":[0,0,0,0,0,0,0],"id":19,"left_children":[1,-1,3,5,-1,-1,-1],"loss_changes":[5.734444E0,0E0,4.127648E0,3.1759262E-1,0E0,0E0,0E0],"parents":[2147483647,0,0,2,2,3,3],"right_children":[2,-1,4,6,-1,-1,-1],"split_conditions":[3.16E2,-2.2935538E-2,1.7246E4,2.97E2,-1.5913399E-2,2.5745451E-2,9.092916E-2],"split_indices":[9,0,2,15,0,0,0],"split_type":[0,0,0,0,0,0,0],"sum_hessian":[1.1082031E1,6.8201056E0,4.2619257E0,2.746571E0,1.5153544E0,1.4052062E0,1.3413649E0],"tree_param":{"num_deleted":"0","num_feature":"17","num_nodes":"7","size_leaf_vector":"1"}},{"base_weights":[1.1567618E-2,7.676506E-1,-2.2074902E-1,3.070022E-1,4.3322023E-2,-5.65849E-1,-2.4155805E-2,-5.5257133E-3,2.938653E-2,-3.363874E-2,-1.5347308E-1,-3.0565402E-2,8.526191E-2,-2.4829196E-2,1.8095354E-2,-2.704959E-2,1.7137271E-1,-3.2936584E-2,4.754729E-1,3.159592E-2,-7.833658E-3,-8.8719865E-3,4.3304674E-2],"categories":[],"categories_nodes":[],"categories_segments":[],"categories_sizes":[],"default_left":[0,0,0,0,0,0,0,0,0,0,0,0,0,0,0,0,0,0,0,0,0,0,0],"id":20,"left_children":[1,3,5,7,-1,9,11,-1,-1,-1,13,-1,15,-1,-1,-1,17,19,21,-1,-1,-1,-1],"loss_changes":[9.996574E0,3.4258413E-1,2.9425561E0,5.232769E-1,0E0,5.9207296E-1,1.9026519E0,0E0,0E0,0E0,9.8297626E-1,0E0,1.4493759E0,0E0,0E0,0E0,1.4369411E0,1.3015912E0,2.5147533E0,0E0,0E0,0E0,0E0],"parents":[2147483647,0,0,1,1,2,2,3,3,5,5,6,6,10,10,12,12,16,16,17,17,18,18],"right_children":[2,4,6,8,-1,10,12,-1,-1,-1,14,-1,16,-1,-1,-1,18,20,22,-1,-1,-1,-1],"split_conditions":[9.01E2,1.06E1,1E0,3.18E0,4.3322023E-2,1.1E1,9.9E0,-5.5257133E-3,2.938653E-2,-3.363874E-2,3.95E0,-3.0565402E-2,7.8E1,-2.4829196E-2,1.8095354E-2,-2.704959E-2,1.428E3,1E2,1E0,3.159592E-2,-7.833658E-3,-8.8719865E-3,4.3304674E-2],"split_indices":[0,16,8,10,0,16,16,0,0,0,10,0,14,0,0,0,12,14,5,0,0,0,0],"split_type":[0,0,0,0,0,0,0,0,0,0,0,0,0,0,0,0,0,0,0,0,0,0,0],"sum_hessian":[5.4946938E1,1.2373289E1,4.2573647E1,2.9103265E0,9.462963E0,1.476931E1,2.7804338E1,1.413867E0,1.4964595E0,1.1226825E1,3.542485E0,3.647009E0,2.415733E1,2.1485639E0,1.3939211E0,2.2815933E0,2.1875736E1,1.3618115E1,8.257621E0,1.4923784E0,1.2125737E1,3.2953215E0,4.9622993E0],"tree_param":{"num_deleted":"0","num_feature":"17","num_nodes":"23","size_leaf_vector":"1"}},{"base_weights":[-1.6123941E-2,3.093803E-1,-6.0408646E-1,4.4857013E-1,-3.1243587E-1,-6.732581E-1,-3.0807812E-5,-9.225151E-2,5.1198995E-1,1.7270075E-2,-3.7115205E-2,-2.8195593E-1,-3.943436E-2,4.952419E-3,-1.2152293E-2,5.5888516E-1,1.0056329E-1,-4.7433007E-1,7.0877126E-3,6.398875E-1,2.102693E-1,-1.5197483E-2,2.3531837E-2,-8.623037E-3,-2.9187588E-2,1.2656334E-2,3.400259E-2,3.0085055E-2,-1.827179E-2],"categories":[],"categories_nodes":[],"categories_segments":[],"categories_sizes":[],"default_left":[0,0,0,0,0,0,0,0,0,0,0,0,0,0,0,0,0,0,0,0,0,0,0,0,0,0,0,0,0],"id":21,"left_children":[1,3,5,7,9,11,-1,13,15,-1,-1,17,-1,-1,-1,19,21,23,-1,25,27,-1,-1,-1,-1,-1,-1,-1,-1],"loss_changes":[1.0226072E1,3.1196425E0,7.9398394E-1,1.0260882E0,2.2035952E0,5.487604E-1,0E0,1.3492407E-1,4.3958044E-1,0E0,0E0,5.1110125E-1,0E0,0E0,0E0,5.106411E-1,7.191914E-1,3.0629992E-2,0E0,1.0825586E-1,1.5262893E0,0E0,0E0,0E0,0E0,0E0,0E0,0E0,0E0],"parents":[2147483647,0,0,1,1,2,2,3,3,4,4,5,5,7,7,8,8,11,11,15,15,16,16,17,17,19,19,20,20],"right_children":[2,4,6,8,10,12,-1,14,16,-1,-1,18,-1,-1,-1,20,22,24,-1,26,28,-1,-1,-1,-1,-1,-1,-1,-1],"split_conditions":[2.3E0,3.31E2,5.76E2,3.02E0,1E0,1.05E1,-3.0807812E-5,1.78E2,1.35E2,1.7270075E-2,-3.7115205E-2,2E0,-3.943436E-2,4.952419E-3,-1.2152293E-2,1.8E0,2.475E3,1.53E2,7.0877126E-3,6.4E1,3.47E0,-1.5197483E-2,2.3531837E-2,-8.623037E-3,-2.9187588E-2,1.2656334E-2,3.400259E-2,3.0085055E-2,-1.827179E-2],"split_indices":[8,9,9,10,1,16,0,15,14,0,0,1,0,0,0,8,0,15,0,14,10,0,0,0,0,0,0,0,0],"split_type":[0,0,0,0,0,0,0,0,0,0,0,0,0,0,0,0,0,0,0,0,0,0,0,0,0,0,0,0,0],"sum_hessian":[5.145561E1,3.342492E1,1.8030691E1,2.7539074E1,5.885844E0,1.6072739E1,1.9579527E0,2.8427215E0,2.4696352E1,2.403779E0,3.4820652E0,4.4454436E0,1.1627295E1,1.4043274E0,1.4383942E0,2.1847698E1,2.8486533E0,2.9751768E0,1.4702668E0,1.7050447E1,4.7972507E0,1.4463651E0,1.4022882E0,1.4768889E0,1.4982879E0,2.2910585E0,1.4759389E1,2.8287678E0,1.9684827E0],"tree_param":{"num_deleted":"0","num_feature":"17","num_nodes":"29","size_leaf_vector":"1"}},{"base_weights":[1.4939569E-1,-2.2539865E-2,9.7641194E-1,1.4918406E0,-1.4740487E-2,8.896912E-2,2.7722536E-2],"categories":[],"categories_nodes":[],"categories_segments":[],"categories_sizes":[],"default_left":[0,0,0,0,0,0,0],"id":22,"left_children":[1,-1,3,5,-1,-1,-1],"loss_changes":[5.933507E0,0E0,3.6962419E0,1.10321045E-2,0E0,0E0,0E0],"parents":[2147483647,0,0,2,2,3,3],"right_children":[2,-1,4,6,-1,-1,-1],"split_conditions":[3.1E2,-2.2539865E-2,1.7889E4,1.5105E4,-1.4740487E-2,8.896912E-2,2.7722536E-2],"split_indices":[9,0,2,2,0,0,0],"split_type":[0,0,0,0,0,0,0],"sum_hessian":[1.0067048E1,6.0970955E0,3.9699523E0,2.7011836E0,1.2687688E0,1.3797257E0,1.3214579E0],"tree_param":{"num_deleted":"0","num_feature":"17","num_nodes":"7","size_leaf_vector":"1"}},{"base_weights":[5.768073E-2,-3.7274238E-1,4.1052642E-1,-4.8044756E-1,2.0183735E-1,2.2142988E-2,4.0046614E-2,1.4519126E-3,-5.4867E-1,3.1996783E-2,-2.2150299E-2,-2.681908E-2,1.6413887E-1,-6.2232494E-1,-1.7973745E-1,-1.8899107E-1,4.4931665E-1,-3.4029376E-2,-2.6321397E-3,-2.609601E-2,1.4902498E-2,-2.8299186E-2,2.237021E-2,-7.579261E-4,6.7470604E-1,1.293313E-2,3.8859364E-2],"categories":[],"categories_nodes":[],"categories_segments":[],"categories_sizes":[],"default_left":[0,0,0,0,0,0,0,0,0,0,0,0,0,0,0,0,0,0,0,0,0,0,0,0,0,0,0],"id":23,"left_children":[1,3,5,7,9,11,-1,-1,13,-1,-1,-1,15,17,19,21,23,-1,-1,-1,-1,-1,-1,-1,25,-1,-1],"loss_changes":[7.71626E0,1.5177231E0,4.203859E0,6.982236E-1,1.5062578E0,1.276518E0,0E0,0E0,3.599286E-1,0E0,0E0,0E0,1.3652438E0,4.310484E-1,8.5782063E-1,1.7848544E0,7.7755153E-1,0E0,0E0,0E0,0E0,0E0,0E0,0E0,1.0316372E-2,0E0,0E0],"parents":[2147483647,0,0,1,1,2,2,3,3,4,4,5,5,8,8,12,12,13,13,14,14,15,15,16,16,24,24],"right_children":[2,4,6,8,10,12,-1,-1,14,-1,-1,-1,16,18,20,22,24,-1,-1,-1,-1,-1,-1,-1,26,-1,-1],"split_conditions":[1.8137E4,3.6E2,2.2E0,1.43E2,2.286E3,1.32E2,4.0046614E-2,1.4519126E-3,1.919E3,3.1996783E-2,-2.2150299E-2,-2.681908E-2,1E0,4.18E0,1.7167E4,3.79E0,3.43E0,-3.4029376E-2,-2.6321397E-3,-2.609601E-2,1.4902498E-2,-2.8299186E-2,2.237021E-2,-7.579261E-4,2.081E3,1.293313E-2,3.8859364E-2],"split_indices":[2,15,8,15,0,15,0,0,12,0,0,0,8,10,2,10,10,0,0,0,0,0,0,0,0,0,0],"split_type":[0,0,0,0,0,0,0,0,0,0,0,0,0,0,0,0,0,0,0,0,0,0,0,0,0,0,0],"sum_hessian":[4.8799778E1,2.1957846E1,2.6841934E1,1.8629557E1,3.3282897E0,1.3985551E1,1.2856383E1,2.2678182E0,1.6361738E1,1.9863794E0,1.3419104E0,2.271889E0,1.1713661E1,1.3066308E1,3.2954292E0,5.3840218E0,6.3296394E0,1.16773615E1,1.3889468E0,1.8663871E0,1.4290422E0,3.4505816E0,1.9334402E0,2.372733E0,3.9569063E0,1.4785261E0,2.4783802E0],"tree_param":{"num_deleted":"0","num_feature":"17","num_nodes":"27","size_leaf_vector":"1"}},{"base_weights":[3.3267386E-2,-7.242271E-1,2.8296944E-1,-3.8731568E-2,-8.361679E-3,4.8130503E-1,-4.0650046E-1,6.2850916E-1,9.68022E-2,-5.5982083E-1,3.1256916E-3,6.59406E-1,3.3758127E-3,-1.7120759E-1,3.0790975E-2,-2.3876639E-1,-3.531426E-2,3.4622017E-2,4.1453815E-3,2.3700228E-2,-3.866626E-1,9.4013605E-3,-2.8385548E-2,-3.6459353E-2,1.3165361E-2],"categories":[],"categories_nodes":[],"categories_segments":[],"categories_sizes":[],"default_left":[0,0,0,0,0,0,0,0,0,0,0,0,0,0,0,0,0,0,0,0,0,0,0,0,0],"id":24,"left_children":[1,3,5,-1,-1,7,9,11,13,15,-1,17,-1,19,-1,21,-1,-1,-1,-1,23,-1,-1,-1,-1],"loss_changes":[1.1002063E1,2.7565622E-1,6.164651E0,0E0,0E0,1.8837566E0,7.7520096E-1,3.829584E-1,1.592952E0,2.0087266E-1,0E0,3.8558578E-1,0E0,1.2724035E0,0E0,6.6444767E-1,0E0,0E0,0E0,0E0,1.6221974E0,0E0,0E0,0E0,0E0],"parents":[2147483647,0,0,1,1,2,2,5,5,6,6,7,7,8,8,9,9,11,11,13,13,15,15,20,20],"right_children":[2,4,6,-1,-1,8,10,12,14,16,-1,18,-1,20,-1,22,-1,-1,-1,-1,24,-1,-1,-1,-1],"split_conditions":[9.89E2,3.75E0,3.39E2,-3.8731568E-2,-8.361679E-3,1.8E0,2.503E3,1.57E2,1.09E2,1E0,3.1256916E-3,2.3376E4,3.3758127E-3,1.4772E4,3.0790975E-2,3.94E2,-3.531426E-2,3.4622017E-2,4.1453815E-3,2.3700228E-2,2.0459E4,9.4013605E-3,-2.8385548E-2,-3.6459353E-2,1.3165361E-2],"split_indices":[0,10,9,0,0,8,0,14,14,5,0,2,0,2,0,9,0,0,0,0,2,0,0,0,0],"split_type":[0,0,0,0,0,0,0,0,0,0,0,0,0,0,0,0,0,0,0,0,0,0,0,0,0],"sum_hessian":[5.6082993E1,1.3432845E1,4.2650146E1,1.1959823E1,1.4730225E0,3.3356586E1,9.293564E0,2.3662836E1,9.693749E0,6.8580585E0,2.435505E0,2.2261358E1,1.4014766E0,6.834623E0,2.8591263E0,2.9724832E0,3.8855753E0,2.0864664E1,1.3966953E0,1.4105384E0,5.4240847E0,1.4802738E0,1.4922092E0,3.4723365E0,1.9517479E0],"tree_param":{"num_deleted":"0","num_feature":"17","num_nodes":"25","size_leaf_vector":"1"}},{"base_weights":[8.041199E-2,-2.2661967E-2,7.371017E-1,1.1419892E0,-1.5730578E-2,4.26708E-3,8.155795E-2],"categories":[],"categories_nodes":[],"categories_segments":[],"categories_sizes":[],"default_left":[0,0,0,0,0,0,0],"id":25,"left_children":[1,-1,3,5,-1,-1,-1],"loss_changes":[4.637541E0,0E0,2.8657463E0,2.1691628E0,0E0,0E0,0E0],"parents":[2147483647,0,0,2,2,3,3],"right_children":[2,-1,4,6,-1,-1,-1],"split_conditions":[3.1E2,-2.2661967E-2,1E0,2.38E2,-1.5730578E-2,4.26708E-3,8.155795E-2],"split_indices":[9,0,6,15,0,0,0],"split_type":[0,0,0,0,0,0,0],"sum_hessian":[1.1280038E1,6.393911E0,4.886127E0,3.4659655E0,1.4201612E0,1.4684509E0,1.9975147E0],"tree_param":{"num_deleted":"0","num_feature":"17","num_nodes":"7","size_leaf_vector":"1"}},{"base_weights":[-3.4628566E-3,-4.2623097E-1,3.300133E-1,-6.191881E-1,-1.0498147E-3,-3.1518608E-1,5.447872E-1,-3.349526E-2,-5.075543E-4,-3.0442437E-2,4.75425E-1,-4.88842E-1,1.5898228E-2,4.1640848E-2,2.3954967E-1,-7.246095E-3,3.6804553E-2,-2.99752E-2,-2.4115002E-4,-3.3629623E-1,6.066001E-1,1.3015466E-2,-3.0113906E-2,-2.0833794E-2,4.28836E-2],"categories":[],"categories_nodes":[],"categories_segments":[],"categories_sizes":[],"default_left":[0,0,0,0,0,0,0,0,0,0,0,0,0,0,0,0,0,0,0,0,0,0,0,0,0],"id":26,"left_children":[1,3,5,7,9,11,13,-1,-1,-1,15,17,-1,-1,19,-1,-1,-1,-1,21,23,-1,-1,-1,-1],"loss_changes":[7.8732142E0,2.0193872E0,4.4986615E0,5.162797E-1,2.8054245E0,1.0825195E0,1.8923588E0,0E0,0E0,0E0,9.849653E-1,3.7264037E-1,0E0,0E0,2.9423165E0,0E0,0E0,0E0,0E0,1.0591681E0,2.4817598E0,0E0,0E0,0E0,0E0],"parents":[2147483647,0,0,1,1,2,2,3,3,4,4,5,5,6,6,10,10,11,11,14,14,19,19,20,20],"right_children":[2,4,6,8,10,12,14,-1,-1,-1,16,18,-1,-1,20,-1,-1,-1,-1,22,24,-1,-1,-1,-1],"split_conditions":[1.7889E4,2.3E0,1E0,4.22E0,1.5116E4,2.83E2,1.212E3,-3.349526E-2,-5.075543E-4,-3.0442437E-2,1.516E3,1.1E1,1.5898228E-2,4.1640848E-2,3.43E0,-7.246095E-3,3.6804553E-2,-2.99752E-2,-2.4115002E-4,2.61E2,1.17E2,1.3015466E-2,-3.0113906E-2,-2.0833794E-2,4.28836E-2],"split_indices":[2,8,8,10,2,15,0,0,0,0,12,16,0,0,10,0,0,0,0,9,15,0,0,0,0],"split_type":[0,0,0,0,0,0,0,0,0,0,0,0,0,0,0,0,0,0,0,0,0,0,0,0,0],"sum_hessian":[5.3847374E1,2.3622078E1,3.0225296E1,1.5934388E1,7.6876893E0,7.4318514E0,2.2793446E1,1.461721E1,1.3171778E0,3.256204E0,4.431485E0,6.011094E0,1.4207574E0,1.083801E1,1.1955436E1,1.4425234E0,2.988962E0,4.698315E0,1.3127788E0,4.686626E0,7.2688103E0,1.451714E0,3.234912E0,1.3021483E0,5.966662E0],"tree_param":{"num_deleted":"0","num_feature":"17","num_nodes":"25","size_leaf_vector":"1"}},{"base_weights":[-1.4099349E-2,2.8892055E-1,-5.1114815E-1,4.0648293E-1,-3.3629605E-1,2.0121829E-1,-6.404658E-1,5.1965487E-1,-2.6335877E-1,3.4248356E-3,-3.2054186E-2,-9.262603E-3,2.5353162E-2,7.0346254E-3,-7.2041446E-1,5.767582E-1,-1.3035614E-3,1.0457711E-2,-3.137042E-2,-6.349973E-3,-3.846952E-2,6.726191E-1,7.635643E-2,3.571055E-2,4.9940846E-3,2.2742989E-2,-1.0546851E-2],"categories":[],"categories_nodes":[],"categories_segments":[],"categories_sizes":[],"default_left":[0,0,0,0,0,0,0,0,0,0,0,0,0,0,0,0,0,0,0,0,0,0,0,0,0,0,0],"id":27,"left_children":[1,3,5,7,9,11,13,15,17,-1,-1,-1,-1,-1,19,21,-1,-1,-1,-1,-1,23,25,-1,-1,-1,-1],"loss_changes":[8.177328E0,2.618085E0,2.0222187E0,2.3253345E0,7.706553E-1,5.571226E-1,1.2026463E0,7.9512787E-1,9.6314E-1,0E0,0E0,0E0,0E0,0E0,3.7195396E-1,1.0377665E0,0E0,0E0,0E0,0E0,0E0,3.7951565E-1,6.1554635E-1,0E0,0E0,0E0,0E0],"parents":[2147483647,0,0,1,1,2,2,3,3,4,4,5,5,6,6,7,7,8,8,14,14,15,15,21,21,22,22],"right_children":[2,4,6,8,10,12,14,16,18,-1,-1,-1,-1,-1,20,22,-1,-1,-1,-1,-1,24,26,-1,-1,-1,-1],"split_conditions":[2.3E0,3.64E2,1E1,2.1464E4,1E0,1.457E3,1.4772E4,1.35E2,1.02E1,3.4248356E-3,-3.2054186E-2,-9.262603E-3,2.5353162E-2,7.0346254E-3,7.6E1,1.8E0,-1.3035614E-3,1.0457711E-2,-3.137042E-2,-6.349973E-3,-3.846952E-2,1.16E1,1.56E3,3.571055E-2,4.9940846E-3,2.2742989E-2,-1.0546851E-2],"split_indices":[8,9,16,2,1,0,2,14,16,0,0,0,0,0,14,8,0,0,0,0,0,16,0,0,0,0,0],"split_type":[0,0,0,0,0,0,0,0,0,0,0,0,0,0,0,0,0,0,0,0,0,0,0,0,0,0,0],"sum_hessian":[5.231216E1,3.2759468E1,1.9552692E1,2.7868986E1,4.8904815E0,2.918681E0,1.6634012E1,2.4032782E1,3.8362038E0,2.4336207E0,2.4568608E0,1.4635768E0,1.4551041E0,1.4738278E0,1.5160184E1,2.1704786E1,2.3279958E0,1.8545699E0,1.9816339E0,1.4297521E0,1.3730432E1,1.7926487E1,3.7782989E0,1.6482523E1,1.443964E0,1.3786702E0,2.3996286E0],"tree_param":{"num_deleted":"0","num_feature":"17","num_nodes":"27","size_leaf_vector":"1"}},{"base_weights":[4.4280294E-2,-2.2749346E-2,6.356586E-1,1.0158745E0,-1.612009E-2,5.0462843E-3,1.3610752E0,2.51495E-2,8.575708E-2],"categories":[],"categories_nodes":[],"categories_segments":[],"categories_sizes":[],"default_left":[0,0,0,0,0,0,0,0,0],"id":28,"left_children":[1,-1,3,5,-1,-1,7,-1,-1],"loss_changes":[4.136692E0,0E0,2.6524334E0,1.3818312E0,0E0,0E0,1.740179E-1,0E0,0E0],"parents":[2147483647,0,0,2,2,3,3,6,6],"right_children":[2,-1,4,6,-1,-1,8,-1,-1],"split_conditions":[3.1E2,-2.2749346E-2,1.7889E4,2.38E2,-1.612009E-2,5.0462843E-3,6.9E1,2.51495E-2,8.575708E-2],"split_indices":[9,0,2,15,0,0,11,0,0],"split_type":[0,0,0,0,0,0,0,0,0],"sum_hessian":[1.2030991E1,6.6485934E0,5.382397E0,3.8100111E0,1.5723859E0,1.397727E0,2.4122844E0,1.4116758E0,1.0006084E0],"tree_param":{"num_deleted":"0","num_feature":"17","num_nodes":"9","size_leaf_vector":"1"}},{"base_weights":[3.8239309E-3,7.047486E-1,-2.4170366E-1,-3.9641294E-3,4.0020783E-2,-3.6197484E-1,4.278204E-1,-4.521129E-1,1.6050504E-1,3.74753E-2,-1.05334865E-2,-6.20496E-1,-9.2013165E-2,-1.980388E-2,4.086413E-1,1.0339505E-3,-3.3310276E-2,-2.8081367E-2,1.4758714E-1,-4.271609E-3,3.3639535E-2,-2.4054749E-2,2.0970678E-2],"categories":[],"categories_nodes":[],"categories_segments":[],"categories_sizes":[],"default_left":[0,0,0,0,0,0,0,0,0,0,0,0,0,0,0,0,0,0,0,0,0,0,0],"id":29,"left_children":[1,3,5,-1,-1,7,9,11,13,-1,-1,15,17,-1,19,-1,-1,-1,21,-1,-1,-1,-1],"loss_changes":[9.017364E0,1.0828972E0,3.2804935E0,0E0,0E0,1.6477499E0,1.4661008E0,1.6884265E0,9.43438E-1,0E0,0E0,5.835562E-1,1.2470471E0,0E0,6.3255095E-1,0E0,0E0,0E0,1.5078728E0,0E0,0E0,0E0,0E0],"parents":[2147483647,0,0,1,1,2,2,5,5,6,6,7,7,8,8,11,11,12,12,14,14,18,18],"right_children":[2,4,6,-1,-1,8,10,12,14,-1,-1,16,18,-1,20,-1,-1,-1,22,-1,-1,-1,-1],"split_conditions":[9.01E2,1.5177E4,3.94E2,-3.9641294E-3,4.0020783E-2,2.1915E4,2.286E3,1.8E0,8E-1,3.74753E-2,-1.05334865E-2,5.425E1,1E1,-1.980388E-2,1.02E1,1.0339505E-3,-3.3310276E-2,-2.8081367E-2,1.4939E4,-4.271609E-3,3.3639535E-2,-2.4054749E-2,2.0970678E-2],"split_indices":[0,2,9,0,0,2,0,8,8,0,0,13,16,0,16,0,0,0,2,0,0,0,0],"split_type":[0,0,0,0,0,0,0,0,0,0,0,0,0,0,0,0,0,0,0,0,0,0,0],"sum_hessian":[5.0407387E1,1.2591426E1,3.781596E1,1.3879415E0,1.1203485E1,3.2446693E1,5.369265E0,2.7787485E1,4.6592107E0,3.454792E0,1.9144733E0,1.8441223E1,9.346261E0,1.2528323E0,3.4063783E0,1.2636323E0,1.7177591E1,2.7034698E0,6.6427913E0,1.4224182E0,1.9839602E0,1.7727959E0,4.8699956E0],"tree_param":{"num_deleted":"0","num_feature":"17","num_nodes":"23","size_leaf_vector":"1"}},{"base_weights":[2.1508953E-2,3.3080912E-1,-4.2330703E-1,4.5169452E-1,-4.171018E-1,1.573173E-2,-6.895721E-1,6.0448164E-1,-3.7705708E-1,4.017515E-3,-3.2137524E-2,4.8415357E-1,-4.143693E-1,-3.713685E-2,-7.109386E-3,6.7149925E-1,7.904844E-2,7.1700187E-3,-3.1683512E-2,3.0624587E-2,5.2676E-3,-3.3530615E-2,8.349087E-3,3.5221647E-2,1.0885748E-2,-1.5556744E-2,2.2411719E-2],"categories":[],"categories_nodes":[],"categories_segments":[],"categories_sizes":[],"default_left":[0,0,0,0,0,0,0,0,0,0,0,0,0,0,0,0,0,0,0,0,0,0,0,0,0,0,0],"id":30,"left_children":[1,3,5,7,9,11,13,15,17,-1,-1,19,21,-1,-1,23,25,-1,-1,-1,-1,-1,-1,-1,-1,-1,-1],"loss_changes":[7.3128414E0,3.0194712E0,2.5618277E0,3.7019782E0,5.990698E-1,2.0573158E0,2.9034758E-1,7.7618027E-1,7.4350524E-1,0E0,0E0,1.723504E-1,9.0794986E-1,0E0,0E0,1.5677261E-1,6.8647015E-1,0E0,0E0,0E0,0E0,0E0,0E0,0E0,0E0,0E0,0E0],"parents":[2147483647,0,0,1,1,2,2,3,3,4,4,5,5,6,6,7,7,8,8,11,11,12,12,15,15,16,16],"right_children":[2,4,6,8,10,12,14,16,18,-1,-1,20,22,-1,-1,24,26,-1,-1,-1,-1,-1,-1,-1,-1,-1,-1],"split_conditions":[2.1E0,2.1464E4,1.05E1,3.64E2,9E-1,1.516E3,4.86E2,1.35E2,6.3E1,4.017515E-3,-3.2137524E-2,3.51E0,1.58E2,-3.713685E-2,-7.109386E-3,1.7E0,2.475E3,7.1700187E-3,-3.1683512E-2,3.0624587E-2,5.2676E-3,-3.3530615E-2,8.349087E-3,3.5221647E-2,1.0885748E-2,-1.5556744E-2,2.2411719E-2],"split_indices":[8,2,16,9,8,12,9,14,11,0,0,10,14,0,0,8,0,0,0,0,0,0,0,0,0,0,0],"split_type":[0,0,0,0,0,0,0,0,0,0,0,0,0,0,0,0,0,0,0,0,0,0,0,0,0,0,0],"sum_hessian":[5.113491E1,3.0313145E1,2.0821766E1,2.6436287E1,3.8768575E0,8.21581E0,1.2605956E1,2.254968E1,3.8866065E0,1.4107388E0,2.4661188E0,3.8725512E0,4.343259E0,1.1164698E1,1.4412581E0,1.9752333E1,2.7973483E0,1.4291714E0,2.4574351E0,2.4317524E0,1.4407988E0,2.9079683E0,1.4352907E0,1.7900818E1,1.8515143E0,1.4364457E0,1.3609025E0],"tree_param":{"num_deleted":"0","num_feature":"17","num_nodes":"27","size_leaf_vector":"1"}},{"base_weights":[1.9607562E-5,-2.3187816E-2,8.038207E-1,8.553895E-2,-8.147043E-2,1.1321659E-2,-1.54500855E-2],"categories":[],"categories_nodes":[],"categories_segments":[],"categories_sizes":[],"default_left":[0,0,0,0,0,0,0],"id":31,"left_children":[1,-1,3,-1,5,-1,-1],"loss_changes":[4.929799E0,0E0,4.02427E0,0E0,3.0837536E-1,0E0,0E0],"parents":[2147483647,0,0,2,2,4,4],"right_children":[2,-1,4,-1,6,-1,-1],"split_conditions":[2.95E2,-2.3187816E-2,1.5105E4,8.553895E-2,3.56E2,1.1321659E-2,-1.54500855E-2],"split_indices":[15,0,2,0,15,0,0],"split_type":[0,0,0,0,0,0,0],"sum_hessian":[1.122431E1,7.3858685E0,3.8384414E0,1.4354308E0,2.4030106E0,1.0232023E0,1.3798083E0],"tree_param":{"num_deleted":"0","num_feature":"17","num_nodes":"7","size_leaf_vector":"1"}},{"base_weights":[-1.4016702E-2,6.6424906E-1,-2.1818863E-1,3.8256817E-2,3.4081948E-3,-4.231372E-1,3.1880673E-2,-5.3087854E-1,8.988641E-2,-1.4516056E-1,3.007721E-2,-5.6625974E-1,-5.5074873E-3,3.2118928E-2,-2.5835967E-2,-2.8114969E-2,1.4945753E-2,-3.215375E-2,-1.7799187E-1,-1.452774E-1,2.3876427E-2,-2.5578747E-2,1.45361675E-2,1.0614977E-3,-2.543588E-2],"categories":[],"categories_nodes":[],"categories_segments":[],"categories_sizes":[],"default_left":[0,0,0,0,0,0,0,0,0,0,0,0,0,0,0,0,0,0,0,0,0,0,0,0,0],"id":32,"left_children":[1,3,5,-1,-1,7,9,11,13,15,-1,17,-1,-1,-1,-1,19,-1,21,23,-1,-1,-1,-1,-1],"loss_changes":[7.4986863E0,7.015867E-1,2.143937E0,0E0,0E0,1.3143406E0,2.0694246E0,2.21694E-1,1.9514997E0,1.0635717E0,0E0,4.033327E-1,0E0,0E0,0E0,0E0,9.8776066E-1,0E0,8.1326216E-1,6.141466E-1,0E0,0E0,0E0,0E0,0E0],"parents":[2147483647,0,0,1,1,2,2,5,5,6,6,7,7,8,8,9,9,11,11,16,16,18,18,19,19],"right_children":[2,4,6,-1,-1,8,10,12,14,16,-1,18,-1,-1,-1,-1,20,-1,22,24,-1,-1,-1,-1,-1],"split_conditions":[8.39E2,3.48E0,1.8137E4,3.8256817E-2,3.4081948E-3,3.94E2,3.22E2,1.15E1,2.286E3,5E1,3.007721E-2,7.7E1,-5.5074873E-3,3.2118928E-2,-2.5835967E-2,-2.8114969E-2,1.09E1,-3.215375E-2,1.433E3,2.338E3,2.3876427E-2,-2.5578747E-2,1.45361675E-2,1.0614977E-3,-2.543588E-2],"split_indices":[0,10,2,0,0,9,9,16,0,11,0,11,0,0,0,0,16,0,0,0,0,0,0,0,0],"split_type":[0,0,0,0,0,0,0,0,0,0,0,0,0,0,0,0,0,0,0,0,0,0,0,0,0],"sum_hessian":[5.2102283E1,1.153367E1,4.056861E1,9.6216135E0,1.912057E0,2.1915396E1,1.8653215E1,1.8082949E1,3.8324478E0,1.4799102E1,3.8541138E0,1.6361153E1,1.7217946E0,1.9748222E0,1.8576257E0,3.4079742E0,1.1391128E1,1.3110995E1,3.2501578E0,8.970121E0,2.4210062E0,1.845372E0,1.4047859E0,6.797489E0,2.1726317E0],"tree_param":{"num_deleted":"0","num_feature":"17","num_nodes":"25","size_leaf_vector":"1"}},{"base_weights":[-1.4591553E-2,2.0179303E-1,-4.3537125E-1,-2.879431E-2,2.9588023E-1,2.2783205E-2,-5.489606E-1,4.011448E-1,-1.6357893E-1,-6.2054497E-1,4.5441934E-3,3.285438E-2,2.2474732E-1,-2.70586E-2,2.4446703E-2,-1.0957249E-2,-3.25766E-2,-1.9658182E-2,3.4014326E-1,3.2095622E-2,4.788969E-3],"categories":[],"categories_nodes":[],"categories_segments":[],"categories_sizes":[],"default_left":[0,0,0,0,0,0,0,0,0,0,0,0,0,0,0,0,0,0,0,0,0],"id":33,"left_children":[1,3,5,-1,7,-1,9,11,13,15,-1,-1,17,-1,-1,-1,-1,-1,19,-1,-1],"loss_changes":[4.3546767E0,2.4848142E0,1.892956E0,0E0,1.4622798E0,0E0,7.365575E-1,9.261365E-1,1.7658509E0,2.4927616E-2,0E0,0E0,1.2460899E0,0E0,0E0,0E0,0E0,0E0,9.474033E-1,0E0,0E0],"parents":[2147483647,0,0,1,1,2,2,4,4,6,6,7,7,8,8,9,9,12,12,18,18],"right_children":[2,4,6,-1,8,-1,10,12,14,16,-1,-1,18,-1,-1,-1,-1,-1,20,-1,-1],"split_conditions":[7.4E1,7.97E2,8.99E1,-2.879431E-2,1.2865E2,2.2783205E-2,3.422E3,1.284E3,1.705E2,1E1,4.5441934E-3,3.285438E-2,6.5E1,-2.70586E-2,2.4446703E-2,-1.0957249E-2,-3.25766E-2,-1.9658182E-2,3.26E0,3.2095622E-2,4.788969E-3],"split_indices":[11,0,13,0,13,0,0,12,13,16,0,0,11,0,0,0,0,0,10,0,0],"split_type":[0,0,0,0,0,0,0,0,0,0,0,0,0,0,0,0,0,0,0,0,0],"sum_hessian":[4.586228E1,3.063088E1,1.52314E1,2.7532313E0,2.787765E1,1.3816605E0,1.3849739E1,2.2784513E1,5.093136E0,1.2483299E1,1.36644E0,8.18439E0,1.4600124E1,3.3342957E0,1.7588398E0,1.4731057E0,1.1010194E1,1.9187433E0,1.2681381E1,4.946273E0,7.7351084E0],"tree_param":{"num_deleted":"0","num_feature":"17","num_nodes":"21","size_leaf_vector":"1"}},{"base_weights":[1.4838342E-1,-2.4475397E-1,8.82186E-1,-2.237393E-2,2.5016224E-1,1.3903334E0,-1.4403313E-2,3.6094487E-2,-1.4525935E-2,9.794135E-2,8.162058E-3],"categories":[],"categories_nodes":[],"categories_segments":[],"categories_sizes":[],"default_left":[0,0,0,0,0,0,0,0,0,0,0],"id":34,"left_children":[1,3,5,-1,7,9,-1,-1,-1,-1,-1],"loss_changes":[3.800442E0,1.0022374E0,3.1072893E0,0E0,1.0309805E0,2.0139332E0,0E0,0E0,0E0,0E0,0E0],"parents":[2147483647,0,0,1,1,2,2,4,4,5,5],"right_children":[2,4,6,-1,8,10,-1,-1,-1,-1,-1],"split_conditions":[1.4725E2,2.97E2,1.7246E4,-2.237393E-2,1.418E3,1.736E2,-1.4403313E-2,3.6094487E-2,-1.4525935E-2,9.794135E-2,8.162058E-3],"split_indices":[13,15,2,0,12,13,0,0,0,0,0],"split_type":[0,0,0,0,0,0,0,0,0,0,0],"sum_hessian":[1.1425327E1,7.873519E0,3.5518086E0,5.653582E0,2.2199368E0,2.3453476E0,1.206461E0,1.0065786E0,1.2133582E0,1.1952776E0,1.1500701E0],"tree_param":{"num_deleted":"0","num_feature":"17","num_nodes":"11","size_leaf_vector":"1"}},{"base_weights":[4.2278385E-3,-2.063662E-1,5.4343504E-1,2.8171182E-2,-2.6181135E-1,-1.4221805E-2,7.1076673E-1,-4.866931E-1,-1.3741544E-1,3.7925374E-2,1.421859E-2,-3.0581716E-2,-4.4481266E-2,-2.8862042E-2,-3.2180138E-2,-2.0360058E-2,1.8109433E-2,-1.4938062E-1,3.474406E-1,-1.9433876E-2,1.4781008E-3,-2.2469603E-2,3.66953E-2],"categories":[],"categories_nodes":[],"categories_segments":[],"categories_sizes":[],"default_left":[0,0,0,0,0,0,0,0,0,0,0,0,0,0,0,0,0,0,0,0,0,0,0],"id":35,"left_children":[1,3,5,-1,7,-1,9,11,13,-1,-1,-1,15,-1,17,-1,-1,19,21,-1,-1,-1,-1],"loss_changes":[6.1401033E0,1.8077925E0,2.3057184E0,0E0,9.673016E-1,0E0,4.7256947E-2,6.7851377E-1,1.1476138E0,0E0,0E0,0E0,7.21624E-1,0E0,1.0035895E0,0E0,0E0,7.413036E-1,1.9763013E0,0E0,0E0,0E0,0E0],"parents":[2147483647,0,0,1,1,2,2,4,4,6,6,7,7,8,8,12,12,14,14,17,17,18,18],"right_children":[2,4,6,-1,8,-1,10,12,14,-1,-1,-1,16,-1,18,-1,-1,20,22,-1,-1,-1,-1],"split_conditions":[1.08E2,6.91E2,1.02E1,2.8171182E-2,1E0,-1.4221805E-2,3.75E0,1.1E1,9.9E0,3.7925374E-2,1.421859E-2,-3.0581716E-2,3.95E0,-2.8862042E-2,1.09E2,-2.0360058E-2,1.8109433E-2,1.5E0,3.44E0,-1.9433876E-2,1.4781008E-3,-2.2469603E-2,3.66953E-2],"split_indices":[11,0,16,0,8,0,10,16,16,0,0,0,10,0,14,0,0,8,10,0,0,0,0],"split_type":[0,0,0,0,0,0,0,0,0,0,0,0,0,0,0,0,0,0,0,0,0,0,0],"sum_hessian":[5.208458E1,3.7899673E1,1.4184908E1,1.9308138E0,3.596886E1,2.267357E0,1.1917551E1,1.1773104E1,2.4195757E1,1.0017113E1,1.9004378E0,8.880818E0,2.892285E0,3.8055253E0,2.039023E1,1.5280606E0,1.3642247E0,1.6043587E1,4.346644E0,6.362734E0,9.680853E0,1.366436E0,2.980208E0],"tree_param":{"num_deleted":"0","num_feature":"17","num_nodes":"23","size_leaf_vector":"1"}},{"base_weights":[3.8973797E-2,3.4400058E-1,-4.7295374E-1,-2.4974141E-2,3.982739E-1,-4.288315E-2,-6.0987294E-1,4.8420155E-1,-7.356416E-2,-3.0752772E-2,4.0725988E-1,7.1882987E-3,-3.5134673E-2,5.289739E-1,3.131758E-4,-3.81831E-1,2.4933254E-2,7.052148E-3,2.5240377E-2,3.307375E-2,3.3773866E-1,2.7029472E-3,-3.0154312E-2,2.3561304E-2,-3.2441013E-3],"categories":[],"categories_nodes":[],"categories_segments":[],"categories_sizes":[],"default_left":[0,0,0,0,0,0,0,0,0,0,0,0,0,0,0,0,0,0,0,0,0,0,0,0,0],"id":36,"left_children":[1,3,5,-1,7,9,11,13,15,-1,17,-1,-1,19,-1,21,-1,-1,-1,-1,23,-1,-1,-1,-1],"loss_changes":[8.269853E0,1.7147789E0,1.1401176E0,0E0,1.3195305E0,1.7593871E0,1.1466446E0,5.727415E-1,1.2041111E0,0E0,2.9572666E-2,0E0,0E0,3.999977E-1,0E0,4.4740903E-1,0E0,0E0,0E0,0E0,6.8157434E-1,0E0,0E0,0E0,0E0],"parents":[2147483647,0,0,1,1,2,2,4,4,5,5,6,6,7,7,8,8,10,10,13,13,15,15,20,20],"right_children":[2,4,6,-1,8,10,12,14,16,-1,18,-1,-1,20,-1,22,-1,-1,-1,-1,24,-1,-1,-1,-1],"split_conditions":[2.3E0,6.91E2,1.02E1,-2.4974141E-2,1.35E2,1.103E3,1.4772E4,2.3376E4,1.4E0,-3.0752772E-2,3.3E0,7.1882987E-3,-3.5134673E-2,1E0,3.131758E-4,7E-1,2.4933254E-2,7.052148E-3,2.5240377E-2,3.307375E-2,1.9358E4,2.7029472E-3,-3.0154312E-2,2.3561304E-2,-3.2441013E-3],"split_indices":[8,0,16,0,14,0,2,2,8,0,8,0,0,8,0,8,0,0,0,0,2,0,0,0,0],"split_type":[0,0,0,0,0,0,0,0,0,0,0,0,0,0,0,0,0,0,0,0,0,0,0,0,0],"sum_hessian":[5.0918495E1,3.2112576E1,1.880592E1,1.4454314E0,3.0667143E1,4.8584547E0,1.3947465E1,2.592049E1,4.746652E0,1.9779484E0,2.880506E0,1.4692551E0,1.247821E1,2.3602657E1,2.3178344E0,3.3010612E0,1.4455909E0,1.4283338E0,1.4521723E0,1.2489855E1,1.11128025E1,1.3658677E0,1.9351934E0,8.217817E0,2.8949845E0],"tree_param":{"num_deleted":"0","num_feature":"17","num_nodes":"25","size_leaf_vector":"1"}},{"base_weights":[-2.061377E-2,-2.2559926E-2,4.823773E-1,9.1753584E-1,-1.7578011E-2,1.59606E-2,6.2560745E-2],"categories":[],"categories_nodes":[],"categories_segments":[],"categories_sizes":[],"default_left":[0,0,0,0,0,0,0],"id":37,"left_children":[1,-1,3,5,-1,-1,-1],"loss_changes":[2.9630826E0,0E0,2.6196487E0,4.863255E-1,0E0,0E0,0E0],"parents":[2147483647,0,0,2,2,3,3],"right_children":[2,-1,4,6,-1,-1,-1],"split_conditions":[3.16E2,-2.2559926E-2,1.39E2,3.87E2,-1.7578011E-2,1.59606E-2,6.2560745E-2],"split_indices":[9,0,14,9,0,0,0],"split_type":[0,0,0,0,0,0,0],"sum_hessian":[1.16762905E1,6.346418E0,5.3298726E0,3.4364476E0,1.8934247E0,1.930854E0,1.5055937E0],"tree_param":{"num_deleted":"0","num_feature":"17","num_nodes":"7","size_leaf_vector":"1"}},{"base_weights":[1.6748853E-2,-3.596309E-1,2.8127256E-1,2.5120923E-2,-4.5163104E-1,-3.837032E-1,5.090365E-1,-7.9918966E-2,-5.1304907E-1,1.3217576E-4,-4.5812988E-1,3.6738362E-2,2.8409305E-1,-2.0205023E-2,1.4931983E-2,-5.8315986E-1,-2.4806713E-1,2.1630118E-5,-2.8381055E-2,-1.4471971E-2,5.118657E-1,-1.2312615E-2,-3.178866E-2,6.9938176E-3,-2.4587015E-2,-2.58747E-1,2.4727074E-2,4.7201863E-3,3.180222E-2,-2.4962049E-2,4.541907E-3],"categories":[],"categories_nodes":[],"categories_segments":[],"categories_sizes":[],"default_left":[0,0,0,0,0,0,0,0,0,0,0,0,0,0,0,0,0,0,0,0,0,0,0,0,0,0,0,0,0,0,0],"id":38,"left_children":[1,3,5,-1,7,9,11,13,15,-1,17,-1,19,-1,-1,21,23,-1,-1,25,27,-1,-1,-1,-1,29,-1,-1,-1,-1,-1],"loss_changes":[4.9311676E0,1.8497117E0,4.5953155E0,0E0,3.9311433E-1,2.307285E-1,9.118519E-1,5.9695065E-1,1.5508461E-1,0E0,3.36563E-1,0E0,8.6999524E-1,0E0,0E0,5.6475163E-2,5.524124E-1,0E0,0E0,9.313902E-1,3.1437385E-1,0E0,0E0,0E0,0E0,4.6762797E-1,0E0,0E0,0E0,0E0,0E0],"parents":[2147483647,0,0,1,1,2,2,4,4,5,5,6,6,7,7,8,8,10,10,12,12,15,15,16,16,19,19,20,20,25,25],"right_children":[2,4,6,-1,8,10,12,14,16,-1,18,-1,20,-1,-1,22,24,-1,-1,26,28,-1,-1,-1,-1,30,-1,-1,-1,-1,-1],"split_conditions":[1.7889E4,5.15E2,1E0,2.5120923E-2,1.51E2,5.676E1,1.103E3,1.8E0,1.7046E4,1.3217576E-4,6.6E1,3.6738362E-2,1.666E3,-2.0205023E-2,1.4931983E-2,1.3329E4,1.7263E4,2.1630118E-5,-2.8381055E-2,1.28E2,1.0191E2,-1.2312615E-2,-3.178866E-2,6.9938176E-3,-2.4587015E-2,1.9817E4,2.4727074E-2,4.7201863E-3,3.180222E-2,-2.4962049E-2,4.541907E-3],"split_indices":[2,0,8,0,15,13,0,8,2,0,14,0,0,0,0,2,2,0,0,14,13,0,0,0,0,2,0,0,0,0,0],"split_type":[0,0,0,0,0,0,0,0,0,0,0,0,0,0,0,0,0,0,0,0,0,0,0,0,0,0,0,0,0,0,0],"sum_hessian":[4.7512924E1,1.9461882E1,2.805104E1,1.4465468E0,1.8015335E1,6.981963E0,2.1069078E1,2.8808968E0,1.51344385E1,1.2835538E0,5.698409E0,9.384889E0,1.168419E1,1.5155625E0,1.3653343E0,1.1018367E1,4.1160717E0,1.2903436E0,4.408066E0,5.4615874E0,6.222602E0,2.2555373E0,8.76283E0,1.7522861E0,2.3637855E0,4.0227456E0,1.4388418E0,1.8301746E0,4.3924274E0,2.1296065E0,1.8931392E0],"tree_param":{"num_deleted":"0","num_feature":"17","num_nodes":"31","size_leaf_vector":"1"}},{"base_weights":[4.402336E-2,3.1367657E-1,-4.443839E-1,4.5658356E-1,-3.638018E-1,-6.247383E-1,-1.1063278E-1,2.5672716E-1,3.295433E-2,4.6597933E-3,-3.3277933E-2,-3.4078732E-2,-1.0480047E-2,2.5504398E-1,-4.556875E-1,4.0989992E-1,-2.5224358E-1,-1.1559172E-3,2.4126125E-2,-7.6047564E-3,-2.7436152E-2,3.0756373E-2,1.5481569E-1,4.1967924E-3,-2.1391815E-2,-2.676755E-2,2.232595E-2],"categories":[],"categories_nodes":[],"categories_segments":[],"categories_sizes":[],"default_left":[0,0,0,0,0,0,0,0,0,0,0,0,0,0,0,0,0,0,0,0,0,0,0,0,0,0,0],"id":39,"left_children":[1,3,5,7,9,11,13,15,-1,-1,-1,-1,-1,17,19,21,23,-1,-1,-1,-1,-1,25,-1,-1,-1,-1],"loss_changes":[6.724024E0,3.341542E0,1.0263116E0,9.449215E-1,9.2665833E-1,1.3081932E-1,1.0751048E0,1.3112297E0,0E0,0E0,0E0,0E0,0E0,2.8517908E-1,3.7114024E-2,5.481491E-1,2.8401703E-1,0E0,0E0,0E0,0E0,0E0,1.6112115E0,0E0,0E0,0E0,0E0],"parents":[2147483647,0,0,1,1,2,2,3,3,4,4,5,5,6,6,7,7,13,13,14,14,15,15,16,16,22,22],"right_children":[2,4,6,8,10,12,14,16,-1,-1,-1,-1,-1,18,20,22,24,-1,-1,-1,-1,-1,26,-1,-1,-1,-1],"split_conditions":[2.3E0,3.64E2,1.092E3,2.39E2,1E0,4.5E2,2.36E2,2.21E2,3.295433E-2,4.6597933E-3,-3.3277933E-2,-3.4078732E-2,-1.0480047E-2,5E0,1.363E3,1.925E3,2.195E3,-1.1559172E-3,2.4126125E-2,-7.6047564E-3,-2.7436152E-2,3.0756373E-2,2.338E3,4.1967924E-3,-2.1391815E-2,-2.676755E-2,2.232595E-2],"split_indices":[8,9,0,15,5,9,15,15,0,0,0,0,0,8,0,0,0,0,0,0,0,0,0,0,0,0,0],"split_type":[0,0,0,0,0,0,0,0,0,0,0,0,0,0,0,0,0,0,0,0,0,0,0,0,0,0,0],"sum_hessian":[4.8996983E1,3.1798534E1,1.7198448E1,2.6528648E1,5.269887E0,1.0599018E1,6.59943E0,1.4492918E1,1.2035729E1,2.370708E0,2.8991787E0,8.758139E0,1.8408791E0,3.330618E0,3.268812E0,1.1289912E1,3.2030063E0,1.9025444E0,1.4280736E0,1.3847901E0,1.8840218E0,5.474193E0,5.8157196E0,1.2780714E0,1.9249347E0,1.4796429E0,4.3360767E0],"tree_param":{"num_deleted":"0","num_feature":"17","num_nodes":"27","size_leaf_vector":"1"}},{"base_weights":[1.2546982E-1,-2.2174045E-2,6.4854497E-1,5.6070622E-2,1.1389682E0,-1.6869185E-2,2.1805612E-2,9.589536E-3,7.187023E-2],"categories":[],"categories_nodes":[],"categories_segments":[],"categories_sizes":[],"default_left":[0,0,0,0,0,0,0,0,0],"id":40,"left_children":[1,-1,3,5,7,-1,-1,-1,-1],"loss_changes":[4.101006E0,0E0,1.9939272E0,7.839979E-1,8.0496407E-1,0E0,0E0,0E0,0E0],"parents":[2147483647,0,0,2,2,3,3,4,4],"right_children":[2,-1,4,6,8,-1,-1,-1,-1],"split_conditions":[3.1E2,-2.2174045E-2,2.97E2,1E0,2.2E0,-1.6869185E-2,2.1805612E-2,9.589536E-3,7.187023E-2],"split_indices":[9,0,15,5,8,0,0,0,0],"split_type":[0,0,0,0,0,0,0,0,0],"sum_hessian":[1.1813634E1,5.7315607E0,6.082073E0,3.2591116E0,2.8229616E0,1.6564482E0,1.6026635E0,1.0699154E0,1.7530462E0],"tree_param":{"num_deleted":"0","num_feature":"17","num_nodes":"9","size_leaf_vector":"1"}},{"base_weights":[-2.0350983E-2,-2.118168E-1,5.346994E-1,-5.3756964E-1,-6.36099E-2,5.7522364E-2,3.5731398E-2,-3.0375037E-2,1.4492006E-3,-2.486525E-1,3.2970616E-1,-2.3909604E-2,2.7453361E-2,-3.692565E-1,2.1401973E-2,-2.1009969E-2,5.1082504E-1,-4.427591E-1,7.3478105E-3,6.5649456E-1,1.3447789E-3,-4.571027E-3,-2.8446127E-2,1.0992963E-2,3.7447557E-2],"categories":[],"categories_nodes":[],"categories_segments":[],"categories_sizes":[],"default_left":[0,0,0,0,0,0,0,0,0,0,0,0,0,0,0,0,0,0,0,0,0,0,0,0,0],"id":41,"left_children":[1,3,5,7,9,11,-1,-1,-1,13,15,-1,-1,17,-1,-1,19,21,-1,23,-1,-1,-1,-1,-1],"loss_changes":[5.383153E0,1.7804186E0,1.0752218E0,4.7794724E-1,2.0446591E0,1.486445E0,0E0,0E0,0E0,1.7012734E0,1.4449139E0,0E0,0E0,6.943798E-1,0E0,0E0,5.284691E-1,6.025839E-1,0E0,7.400179E-2,0E0,0E0,0E0,0E0,0E0],"parents":[2147483647,0,0,1,1,2,2,3,3,4,4,5,5,9,9,10,10,13,13,16,16,17,17,19,19],"right_children":[2,4,6,8,10,12,-1,-1,-1,14,16,-1,-1,18,-1,-1,20,22,-1,24,-1,-1,-1,-1,-1],"split_conditions":[1.08E2,1E0,1E0,1.881E3,1.9724E4,2.16E2,3.5731398E-2,-3.0375037E-2,1.4492006E-3,3.6E2,1.2E2,-2.3909604E-2,2.7453361E-2,3.91E0,2.1401973E-2,-2.1009969E-2,3E0,1.51E2,7.3478105E-3,1.212E3,1.3447789E-3,-4.571027E-3,-2.8446127E-2,1.0992963E-2,3.7447557E-2],"split_indices":[11,8,5,12,2,15,0,0,0,15,15,0,0,10,0,0,8,15,0,0,0,0,0,0,0],"split_type":[0,0,0,0,0,0,0,0,0,0,0,0,0,0,0,0,0,0,0,0,0,0,0,0,0],"sum_hessian":[4.858819E1,3.6586113E1,1.2002076E1,1.0618943E1,2.596717E1,3.6477656E0,8.354311E0,9.387898E0,1.231045E0,1.7909248E1,8.057922E0,1.7584587E0,1.8893069E0,1.558578E1,2.3234675E0,1.3107729E0,6.74715E0,1.3767714E1,1.8180667E0,4.911983E0,1.8351667E0,4.0933146E0,9.674398E0,1.4486346E0,3.4633484E0],"tree_param":{"num_deleted":"0","num_feature":"17","num_nodes":"25","size_leaf_vector":"1"}},{"base_weights":[-3.398464E-2,2.3682958E-1,-4.2306045E-1,3.7834752E-1,-3.3337146E-2,2.466618E-2,-5.181647E-1,5.861833E-1,1.02981165E-1,-3.3679985E-2,-1.8882284E-1,3.2050245E-2,9.97851E-4,3.3044478E-1,-1.09483495E-1,-2.9838506E-2,2.546025E-1,2.8714204E-2,-1.4363969E-2,-3.6792025E-1,1.5037897E-2,2.6318524E-2,-8.861839E-3,3.587268E-4,-3.0491501E-2],"categories":[],"categories_nodes":[],"categories_segments":[],"categories_sizes":[],"default_left":[0,0,0,0,0,0,0,0,0,0,0,0,0,0,0,0,0,0,0,0,0,0,0,0,0],"id":42,"left_children":[1,3,5,7,-1,-1,9,11,13,-1,15,-1,-1,17,19,-1,21,-1,-1,23,-1,-1,-1,-1,-1],"loss_changes":[5.2554946E0,4.0230436E0,2.0368516E0,1.4352877E0,0E0,0E0,8.456583E-1,4.4289112E-1,6.3804364E-1,0E0,1.5055457E0,0E0,0E0,1.1084149E0,8.72983E-1,0E0,5.963529E-1,0E0,0E0,4.4546872E-1,0E0,0E0,0E0,0E0,0E0],"parents":[2147483647,0,0,1,1,2,2,3,3,6,6,7,7,8,8,10,10,13,13,14,14,16,16,19,19],"right_children":[2,4,6,8,-1,-1,10,12,14,-1,16,-1,-1,18,20,-1,22,-1,-1,24,-1,-1,-1,-1,-1],"split_conditions":[2.3E0,3.64E2,1.4772E4,1.9358E4,-3.3337146E-2,2.466618E-2,1.363E3,1.2E2,1E0,-3.3679985E-2,1E0,3.2050245E-2,9.97851E-4,3.98E0,2.338E3,-2.9838506E-2,2.045E3,2.8714204E-2,-1.4363969E-2,1.368E3,1.5037897E-2,2.6318524E-2,-8.861839E-3,3.587268E-4,-3.0491501E-2],"split_indices":[8,9,2,2,0,0,0,14,8,0,1,0,0,10,0,0,12,0,0,0,0,0,0,0,0],"split_type":[0,0,0,0,0,0,0,0,0,0,0,0,0,0,0,0,0,0,0,0,0,0,0,0,0],"sum_hessian":[4.7926975E1,2.8488796E1,1.9438179E1,2.513363E1,3.355165E0,1.4339607E0,1.800422E1,1.3679864E1,1.1453768E1,1.1521353E1,6.482866E0,1.2351898E1,1.3279656E0,5.2634506E0,6.1903167E0,3.196394E0,3.2864718E0,3.8242111E0,1.4392393E0,3.8611186E0,2.3291984E0,1.8827214E0,1.4037503E0,1.8942771E0,1.9668415E0],"tree_param":{"num_deleted":"0","num_feature":"17","num_nodes":"25","size_leaf_vector":"1"}},{"base_weights":[8.8545635E-2,-2.2080354E-2,6.238028E-1,9.3926907E-1,-1.520392E-2,1.0900173E0,9.828208E-3,9.067408E-3,6.8966895E-2],"categories":[],"categories_nodes":[],"categories_segments":[],"categories_sizes":[],"default_left":[0,0,0,0,0,0,0,0,0],"id":43,"left_children":[1,-1,3,5,-1,7,-1,-1,-1],"loss_changes":[3.6756957E0,0E0,2.1522532E0,3.4594774E-1,0E0,7.8549576E-1,0E0,0E0,0E0],"parents":[2147483647,0,0,2,2,3,3,5,5],"right_children":[2,-1,4,6,-1,8,-1,-1,-1],"split_conditions":[3.1E2,-2.2080354E-2,1.7889E4,1.39E2,-1.520392E-2,1.45E2,9.828208E-3,9.067408E-3,6.8966895E-2],"split_indices":[9,0,2,14,0,13,0,0,0],"split_type":[0,0,0,0,0,0,0,0,0],"sum_hessian":[1.0982393E1,5.6054053E0,5.376988E0,4.003561E0,1.3734266E0,2.9393284E0,1.0642327E0,1.1027448E0,1.8365836E0],"tree_param":{"num_deleted":"0","num_feature":"17","num_nodes":"9","size_leaf_vector":"1"}},{"base_weights":[5.9110682E-2,-4.8576778E-1,2.555632E-1,-5.3825265E-1,6.622349E-4,-1.4070892E-1,5.072696E-1,6.563342E-4,-2.997191E-2,-2.9406494E-2,1.2472705E-1,-1.0449975E-2,5.7344645E-1,-2.2864524E-1,3.9448765E-1,3.5328247E-2,4.056059E-1,9.280441E-3,-2.4674373E-2,5.717718E-1,-6.431361E-3,-1.7425595E-1,6.3491535E-1,8.472818E-3,3.4212008E-2,-2.3377607E-2,1.1590783E-2,-3.0673326E-3,3.8654204E-2],"categories":[],"categories_nodes":[],"categories_segments":[],"categories_sizes":[],"default_left":[0,0,0,0,0,0,0,0,0,0,0,0,0,0,0,0,0,0,0,0,0,0,0,0,0,0,0,0,0],"id":44,"left_children":[1,3,5,7,-1,9,11,-1,-1,-1,13,-1,15,17,19,-1,21,-1,-1,23,-1,25,27,-1,-1,-1,-1,-1,-1],"loss_changes":[5.455292E0,3.618226E-1,3.787963E0,4.2208242E-1,0E0,1.8852894E0,1.2102609E0,0E0,0E0,0E0,1.0816773E0,0E0,1.8988705E-1,6.550484E-1,6.5457976E-1,0E0,1.6770505E0,0E0,0E0,1.0409105E-1,0E0,5.994406E-1,8.802743E-1,0E0,0E0,0E0,0E0,0E0,0E0],"parents":[2147483647,0,0,1,1,2,2,3,3,5,5,6,6,10,10,12,12,13,13,14,14,16,16,19,19,21,21,22,22],"right_children":[2,4,6,8,-1,10,12,-1,-1,-1,14,-1,16,18,20,-1,22,-1,-1,24,-1,26,28,-1,-1,-1,-1,-1,-1],"split_conditions":[1E0,2.3741E4,1.7889E4,9.8E0,6.622349E-4,1.01E1,1.08E2,6.563342E-4,-2.997191E-2,-2.9406494E-2,1.9E0,-1.0449975E-2,1.103E3,1.899E3,1.12E2,3.5328247E-2,3.43E0,9.280441E-3,-2.4674373E-2,1.367E3,-6.431361E-3,1.666E3,1.212E3,8.472818E-3,3.4212008E-2,-2.3377607E-2,1.1590783E-2,-3.0673326E-3,3.8654204E-2],"split_indices":[8,2,2,16,0,16,15,0,0,0,8,0,0,0,14,0,10,0,0,0,0,0,0,0,0,0,0,0,0],"split_type":[0,0,0,0,0,0,0,0,0,0,0,0,0,0,0,0,0,0,0,0,0,0,0,0,0,0,0,0,0],"sum_hessian":[4.8803913E1,1.2542761E1,3.6261154E1,1.1277939E1,1.2648212E0,1.4256896E1,2.2004257E1,1.2049425E0,1.0072997E1,4.855952E0,9.400944E0,1.6785165E0,2.032574E1,4.1357465E0,5.2651973E0,9.545348E0,1.0780393E1,1.7295833E0,2.4061632E0,3.8630066E0,1.4021907E0,3.1230707E0,7.657322E0,1.391634E0,2.4713728E0,1.7254295E0,1.3976413E0,1.3599982E0,6.2973237E0],"tree_param":{"num_deleted":"0","num_feature":"17","num_nodes":"29","size_leaf_vector":"1"}},{"base_weights":[6.235808E-2,2.850604E-1,-3.6739236E-1,4.1554263E-1,-2.1558021E-1,-4.5298257E-1,2.0750005E-2,-1.3281765E-2,4.710917E-1,1.6233681E-1,-5.030807E-1,1.26751205E-2,-5.5517095E-1,5.229058E-1,-1.1551116E-2,-1.2520055E-2,2.3303423E-2,-2.8983919E-2,-9.046485E-3,-1.7667253E-1,-3.4079988E-2,5.992402E-1,6.514367E-2,1.35846585E-2,-2.6126117E-2,3.1588223E-2,6.5622902E-3,2.4046196E-2,-1.8103397E-2],"categories":[],"categories_nodes":[],"categories_segments":[],"categories_sizes":[],"default_left":[0,0,0,0,0,0,0,0,0,0,0,0,0,0,0,0,0,0,0,0,0,0,0,0,0,0,0,0,0],"id":45,"left_children":[1,3,5,7,9,11,-1,-1,13,15,17,-1,19,21,-1,-1,-1,-1,-1,23,-1,25,27,-1,-1,-1,-1,-1,-1],"loss_changes":[5.017575E0,2.3350663E0,1.3905652E0,1.1698318E0,9.253624E-1,1.3438993E0,0E0,0E0,1.0625896E0,6.3207173E-1,9.963632E-3,0E0,5.913024E-1,8.141017E-1,0E0,0E0,0E0,0E0,0E0,9.2877203E-1,0E0,2.3373938E-1,9.9323994E-1,0E0,0E0,0E0,0E0,0E0,0E0],"parents":[2147483647,0,0,1,1,2,2,3,3,4,4,5,5,8,8,9,9,10,10,12,12,13,13,19,19,21,21,22,22],"right_children":[2,4,6,8,10,12,-1,-1,14,16,18,-1,20,22,-1,-1,-1,-1,-1,24,-1,26,28,-1,-1,-1,-1,-1,-1],"split_conditions":[7.4E1,2.1915E4,3.933E3,2.89E0,1.03E1,1E1,2.0750005E-2,-1.3281765E-2,3.94E2,2.2977E4,2.4472E4,1.26751205E-2,1E0,1.15E1,-1.1551116E-2,-1.2520055E-2,2.3303423E-2,-2.8983919E-2,-9.046485E-3,1.6658E4,-3.4079988E-2,3.58E2,2.13E2,1.35846585E-2,-2.6126117E-2,3.1588223E-2,6.5622902E-3,2.4046196E-2,-1.8103397E-2],"split_indices":[11,2,0,10,16,16,0,0,9,2,2,0,5,16,0,0,0,0,0,2,0,15,15,0,0,0,0,0,0],"split_type":[0,0,0,0,0,0,0,0,0,0,0,0,0,0,0,0,0,0,0,0,0,0,0,0,0,0,0,0,0],"sum_hessian":[5.0332455E1,3.337419E1,1.6958261E1,2.6609043E1,6.765149E0,1.566555E1,1.2927115E0,1.7211545E0,2.4887888E1,3.1110504E0,3.6540987E0,1.7924702E0,1.3873079E1,2.3415154E1,1.4727352E0,1.3932971E0,1.7177534E0,2.306326E0,1.3477727E0,4.07397E0,9.79911E0,1.9803709E1,3.611443E0,1.8674253E0,2.2065444E0,1.8189646E1,1.6140648E0,1.7664918E0,1.8449514E0],"tree_param":{"num_deleted":"0","num_feature":"17","num_nodes":"29","size_leaf_vector":"1"}},{"base_weights":[-5.4800577E-2,-2.1875823E-2,3.4990567E-1,-1.6803594E-1,4.7203287E-2,1.0969705E-2,-1.8242285E-2],"categories":[],"categories_nodes":[],"categories_segments":[],"categories_sizes":[],"default_left":[0,0,0,0,0,0,0],"id":46,"left_children":[1,-1,3,5,-1,-1,-1],"loss_changes":[1.9271672E0,0E0,2.0428324E0,3.9419913E-1,0E0,0E0,0E0],"parents":[2147483647,0,0,2,2,3,3],"right_children":[2,-1,4,6,-1,-1,-1],"split_conditions":[3.1E2,-2.1875823E-2,2.286E3,1.395E3,4.7203287E-2,1.0969705E-2,-1.8242285E-2],"split_indices":[9,0,0,12,0,0,0],"split_type":[0,0,0,0,0,0,0],"sum_hessian":[1.0453976E1,5.3312945E0,5.1226816E0,3.1200538E0,2.0026278E0,1.01238E0,2.1076736E0],"tree_param":{"num_deleted":"0","num_feature":"17","num_nodes":"7","size_leaf_vector":"1"}},{"base_weights":[1.0074906E-2,-4.113133E-1,3.316558E-1,-5.344308E-1,3.6843155E-2,-2.4960214E-1,5.259282E-1,-5.790323E-1,1.6708429E-3,2.1614334E-2,-2.5188163E-2,-2.6549736E-2,1.5189524E-1,-1.4008878E-3,5.915282E-1,-4.333948E-3,-3.1342685E-2,2.437332E-2,-1.803956E-2,2.6285264E-1,3.6149096E-2,-2.415781E-2,3.0326424E-2],"categories":[],"categories_nodes":[],"categories_segments":[],"categories_sizes":[],"default_left":[0,0,0,0,0,0,0,0,0,0,0,0,0,0,0,0,0,0,0,0,0,0,0],"id":47,"left_children":[1,3,5,7,9,11,13,15,-1,-1,-1,-1,17,-1,19,-1,-1,-1,-1,21,-1,-1,-1],"loss_changes":[6.73465E0,1.2071722E0,3.312295E0,4.4858885E-1,1.4093211E0,9.5452195E-1,7.955036E-1,3.1692982E-1,0E0,0E0,0E0,0E0,8.5798657E-1,0E0,6.399746E-1,0E0,0E0,0E0,0E0,2.1030138E0,0E0,0E0,0E0],"parents":[2147483647,0,0,1,1,2,2,3,3,4,4,5,5,6,6,7,7,12,12,14,14,19,19],"right_children":[2,4,6,8,10,12,14,16,-1,-1,-1,-1,18,-1,20,-1,-1,-1,-1,22,-1,-1,-1],"split_conditions":[1.7889E4,4.7E0,1E0,4.22E0,3.46E0,3.76E0,1.0191E2,1.43E2,1.6708429E-3,2.1614334E-2,-2.5188163E-2,-2.6549736E-2,9E-1,-1.4008878E-3,1.04E1,-4.333948E-3,-3.1342685E-2,2.437332E-2,-1.803956E-2,3.36E0,3.6149096E-2,-2.415781E-2,3.0326424E-2],"split_indices":[2,8,8,10,10,10,13,15,0,0,0,0,8,0,16,0,0,0,0,10,0,0,0],"split_type":[0,0,0,0,0,0,0,0,0,0,0,0,0,0,0,0,0,0,0,0,0,0,0],"sum_hessian":[4.7691734E1,2.052174E1,2.7169994E1,1.5947996E1,4.573743E0,6.734811E0,2.0435184E1,1.4768324E1,1.179672E0,2.7572403E0,1.8165028E0,3.770024E0,2.9647868E0,2.2244196E0,1.8210764E1,1.5564251E0,1.3211899E1,1.8216469E0,1.1431398E0,6.059556E0,1.2151209E1,1.7831239E0,4.276432E0],"tree_param":{"num_deleted":"0","num_feature":"17","num_nodes":"23","size_leaf_vector":"1"}},{"base_weights":[4.171464E-3,3.057842E-1,-4.4499528E-1,3.9562872E-1,-3.07323E-1,3.573205E-3,-5.998472E-1,5.095001E-1,-1.807929E-1,-2.6760584E-2,4.7624516E-3,-2.8511519E-2,4.0784985E-1,-3.915928E-3,-3.368961E-2,5.723749E-1,4.1193157E-2,1.8833714E-2,-2.2733368E-2,2.454089E-2,6.6119856E-3,6.067065E-1,2.3414248E-3,-1.5956536E-2,2.0270512E-2,3.2211926E-2,8.865391E-3],"categories":[],"categories_nodes":[],"categories_segments":[],"categories_sizes":[],"default_left":[0,0,0,0,0,0,0,0,0,0,0,0,0,0,0,0,0,0,0,0,0,0,0,0,0,0,0],"id":48,"left_children":[1,3,5,7,9,11,13,15,17,-1,-1,-1,19,-1,-1,21,23,-1,-1,-1,-1,25,-1,-1,-1,-1,-1],"loss_changes":[6.6203074E0,1.7315726E0,1.3660581E0,1.7940574E0,4.4532147E-1,1.6320782E0,5.1036596E-1,6.216693E-1,9.369941E-1,0E0,0E0,0E0,2.935946E-2,0E0,0E0,3.187766E-1,6.112051E-1,0E0,0E0,0E0,0E0,1.7552185E-1,0E0,0E0,0E0,0E0,0E0],"parents":[2147483647,0,0,1,1,2,2,3,3,4,4,5,5,6,6,7,7,8,8,12,12,15,15,16,16,21,21],"right_children":[2,4,6,8,10,12,14,16,18,-1,-1,-1,20,-1,-1,22,24,-1,-1,-1,-1,26,-1,-1,-1,-1,-1],"split_conditions":[2.1E0,3.64E2,1.01E1,2.1464E4,2.449E3,1.072E3,1.4772E4,1.35E2,1.01E1,-2.6760584E-2,4.7624516E-3,-2.8511519E-2,3.1E2,-3.915928E-3,-3.368961E-2,5.89E3,2.475E3,1.8833714E-2,-2.2733368E-2,2.454089E-2,6.6119856E-3,1.17E1,2.3414248E-3,-1.5956536E-2,2.0270512E-2,3.2211926E-2,8.865391E-3],"split_indices":[8,9,16,2,0,0,2,14,16,0,0,0,9,0,0,12,0,0,0,0,0,16,0,0,0,0,0],"split_type":[0,0,0,0,0,0,0,0,0,0,0,0,0,0,0,0,0,0,0,0,0,0,0,0,0,0,0],"sum_hessian":[4.686317E1,2.8227678E1,1.8635494E1,2.4929266E1,3.298411E0,5.03301E0,1.3602485E1,2.0913858E1,4.0154085E0,1.8957698E0,1.402641E0,1.910656E0,3.122354E0,1.9448367E0,1.1657648E1,1.8242413E1,2.6714456E0,1.1991677E0,2.8162405E0,1.7997333E0,1.3226209E0,1.6978832E1,1.2635806E0,1.4051275E0,1.2663181E0,1.5153957E1,1.8248752E0],"tree_param":{"num_deleted":"0","num_feature":"17","num_nodes":"27","size_leaf_vector":"1"}},{"base_weights":[1.0262859E-1,-2.1727247E-2,5.9310627E-1,8.720236E-1,-1.5173356E-2,1.0720025E0,6.3917316E-3,9.8091755E-3,6.6500805E-2],"categories":[],"categories_nodes":[],"categories_segments":[],"categories_sizes":[],"default_left":[0,0,0,0,0,0,0,0,0],"id":49,"left_children":[1,-1,3,5,-1,7,-1,-1,-1],"loss_changes":[3.3270783E0,0E0,1.8931715E0,6.405976E-1,0E0,6.3915586E-1,0E0,0E0,0E0],"parents":[2147483647,0,0,2,2,3,3,5,5],"right_children":[2,-1,4,6,-1,8,-1,-1,-1],"split_conditions":[3.1E2,-2.1727247E-2,1E0,1.736E2,-1.5173356E-2,2E0,6.3917316E-3,9.8091755E-3,6.6500805E-2],"split_indices":[9,0,6,13,0,8,0,0,0],"split_type":[0,0,0,0,0,0,0,0,0],"sum_hessian":[1.0649631E1,5.137286E0,5.512344E0,4.225274E0,1.2870694E0,2.9831438E0,1.2421304E0,1.0794258E0,1.903718E0],"tree_param":{"num_deleted":"0","num_feature":"17","num_nodes":"9","size_leaf_vector":"1"}},{"base_weights":[3.2254495E-3,-1.8970914E-1,5.076661E-1,-3.134098E-1,3.210806E-1,-2.1256207E-2,6.4452595E-1,-4.093398E-1,2.760843E-2,-5.7696346E-2,2.7234707E-2,7.650134E-3,3.4589436E-2,-4.5573545E-1,4.2290124E-3,1.50558455E-2,-2.0339638E-2,-5.2054554E-1,-1.1926896E-1,-2.7847616E-2,1.7784188E-3,2.612417E-2,-2.5521455E-2],"categories":[],"categories_nodes":[],"categories_segments":[],"categories_sizes":[],"default_left":[0,0,0,0,0,0,0,0,0,0,0,0,0,0,0,0,0,0,0,0,0,0,0],"id":50,"left_children":[1,3,5,7,9,-1,11,13,-1,15,-1,-1,-1,17,-1,-1,-1,19,21,-1,-1,-1,-1],"loss_changes":[4.707088E0,2.3118954E0,1.9819701E0,2.6074445E0,6.5116805E-1,0E0,1.7442179E-1,6.43353E-1,0E0,5.759775E-1,0E0,0E0,0E0,4.6743822E-1,0E0,0E0,0E0,4.2602634E-1,1.576843E0,0E0,0E0,0E0,0E0],"parents":[2147483647,0,0,1,1,2,2,3,3,4,4,6,6,7,7,9,9,13,13,17,17,18,18],"right_children":[2,4,6,8,10,-1,12,14,-1,16,-1,-1,-1,18,-1,-1,-1,20,22,-1,-1,-1,-1],"split_conditions":[1.05E2,2.1915E4,1.4975E4,6.3E0,1.02E1,-2.1256207E-2,7E1,1.85E2,2.760843E-2,2.3376E4,2.7234707E-2,7.650134E-3,3.4589436E-2,1.9817E4,4.2290124E-3,1.50558455E-2,-2.0339638E-2,4.22E0,2.0459E4,-2.7847616E-2,1.7784188E-3,2.612417E-2,-2.5521455E-2],"split_indices":[11,2,2,8,16,0,14,14,0,2,0,0,0,2,0,0,0,10,2,0,0,0,0],"split_type":[0,0,0,0,0,0,0,0,0,0,0,0,0,0,0,0,0,0,0,0,0,0,0],"sum_hessian":[4.6375538E1,3.399667E1,1.2378865E1,2.7679743E1,6.316929E0,1.3143601E0,1.1064505E1,2.539263E1,2.2871127E0,2.62034E0,3.696589E0,1.3422853E0,9.722219E0,2.3282892E1,2.109736E0,1.3599628E0,1.2603772E0,1.9063744E1,4.2191496E0,1.789098E1,1.1727643E0,1.4706376E0,2.7485123E0],"tree_param":{"num_deleted":"0","num_feature":"17","num_nodes":"23","size_leaf_vector":"1"}},{"base_weights":[-7.214732E-2,2.0538913E-1,-4.252264E-1,3.362607E-1,-4.9210036E-1,1.2775582E-2,-5.180678E-1,-9.865484E-3,3.9775294E-1,-7.3071793E-3,-2.960274E-2,-2.4511501E-1,-5.954115E-1,1.08720616E-1,4.939398E-1,-4.4294143E-1,1.2195661E-2,-3.3751436E-2,-2.2948655E-1,2.5132665E-2,-3.4347904E-1,2.9026879E-2,7.6092005E-2,-2.8641103E-2,-3.143935E-3,6.0801944E-3,-2.2845237E-2,2.3348974E-3,-2.7987793E-2,2.0818884E-2,-1.627798E-2],"categories":[],"categories_nodes":[],"categories_segments":[],"categories_sizes":[],"default_left":[0,0,0,0,0,0,0,0,0,0,0,0,0,0,0,0,0,0,0,0,0,0,0,0,0,0,0,0,0,0,0],"id":51,"left_children":[1,3,5,7,9,-1,11,-1,13,-1,-1,15,17,19,21,23,-1,-1,25,-1,27,-1,29,-1,-1,-1,-1,-1,-1,-1,-1],"loss_changes":[4.8171115E0,2.6938524E0,1.4954917E0,8.631973E-1,7.883632E-2,0E0,2.6171064E-1,0E0,5.517168E-1,0E0,0E0,6.849415E-1,2.6306343E-1,1.3696828E0,5.368438E-1,1.9109267E-1,0E0,0E0,3.8122886E-1,0E0,3.4027284E-1,0E0,6.695961E-1,0E0,0E0,0E0,0E0,0E0,0E0,0E0,0E0],"parents":[2147483647,0,0,1,1,2,2,3,3,4,4,6,6,8,8,11,11,12,12,13,13,14,14,15,15,18,18,20,20,22,22],"right_children":[2,4,6,8,10,-1,12,-1,14,-1,-1,16,18,20,22,24,-1,-1,26,-1,28,-1,30,-1,-1,-1,-1,-1,-1,-1,-1],"split_conditions":[2.1E0,3.64E2,9.9E0,3.02E0,4.5E2,1.2775582E-2,1E0,-9.865484E-3,1.02E1,-7.3071793E-3,-2.960274E-2,1.49E2,2E0,1E0,3.95E0,1E0,1.2195661E-2,-3.3751436E-2,1.05E1,2.5132665E-2,7.3E1,2.9026879E-2,1.1E1,-2.8641103E-2,-3.143935E-3,6.0801944E-3,-2.2845237E-2,2.3348974E-3,-2.7987793E-2,2.0818884E-2,-1.627798E-2],"split_indices":[8,9,16,10,9,0,5,0,16,0,0,14,1,8,10,1,0,0,16,0,11,0,16,0,0,0,0,0,0,0,0],"split_type":[0,0,0,0,0,0,0,0,0,0,0,0,0,0,0,0,0,0,0,0,0,0,0,0,0,0,0,0,0,0,0],"sum_hessian":[4.7266796E1,2.6698687E1,2.056811E1,2.2916677E1,3.7820106E0,2.258206E0,1.8309902E1,2.1399095E0,2.0776768E1,1.399666E0,2.3823447E0,4.963264E0,1.3346639E1,5.7197556E0,1.5057012E1,3.6008534E0,1.3624105E0,1.0267859E1,3.0787797E0,2.9971883E0,2.7225676E0,1.2149673E1,2.9073377E0,2.3057287E0,1.2951248E0,1.3932114E0,1.6855683E0,1.2505604E0,1.4720072E0,1.5540543E0,1.3532834E0],"tree_param":{"num_deleted":"0","num_feature":"17","num_nodes":"31","size_leaf_vector":"1"}},{"base_weights":[8.9075826E-2,-2.1439677E-2,4.9925593E-1,8.3029485E-1,-9.724118E-2,1.1123941E0,4.4819955E-3,1.06315045E-2,-1.5834175E-2,8.943531E-3,7.568562E-2],"categories":[],"categories_nodes":[],"categories_segments":[],"categories_sizes":[],"default_left":[0,0,0,0,0,0,0,0,0,0,0],"id":52,"left_children":[1,-1,3,5,7,9,-1,-1,-1,-1,-1],"loss_changes":[2.7386687E0,0E0,1.4815568E0,8.75402E-1,3.0037117E-1,9.625926E-1,0E0,0E0,0E0,0E0,0E0],"parents":[2147483647,0,0,2,2,3,3,4,4,5,5],"right_children":[2,-1,4,6,8,10,-1,-1,-1,-1,-1],"split_conditions":[3.1E2,-2.1439677E-2,1.04E1,1.5965E2,3.41E0,1.45E2,4.4819955E-3,1.06315045E-2,-1.5834175E-2,8.943531E-3,7.568562E-2],"split_indices":[9,0,16,13,10,13,0,0,0,0,0],"split_type":[0,0,0,0,0,0,0,0,0,0,0],"sum_hessian":[1.088492E1,4.79087E0,6.0940504E0,3.6670117E0,2.4270384E0,2.2920966E0,1.3749151E0,1.0190693E0,1.4079692E0,1.1237657E0,1.1683309E0],"tree_param":{"num_deleted":"0","num_feature":"17","num_nodes":"11","size_leaf_vector":"1"}},{"base_weights":[-7.0936374E-2,-3.3852804E-1,3.3795425E-1,2.510426E-2,-4.0093243E-1,-2.764367E-2,5.162592E-1,-4.5822066E-1,-3.7544567E-2,-2.0748615E-2,6.2274444E-1,-5.141075E-1,2.073294E-2,-2.2720661E-2,1.9944606E-2,8.6846715E-3,3.455252E-2,-5.408753E-1,-9.038244E-3,1.6414091E-2,-1.6932566E-2,-1.0441832E-2,-3.0604128E-2],"categories":[],"categories_nodes":[],"categories_segments":[],"categories_sizes":[],"default_left":[0,0,0,0,0,0,0,0,0,0,0,0,0,0,0,0,0,0,0,0,0,0,0],"id":53,"left_children":[1,3,5,-1,7,-1,9,11,13,-1,15,17,19,-1,-1,-1,-1,21,-1,-1,-1,-1,-1],"loss_changes":[5.255742E0,1.7174127E0,3.3172736E0,0E0,5.544586E-1,0E0,1.8868008E0,6.432047E-1,1.0598001E0,0E0,3.4423828E-1,9.140062E-2,4.9034423E-1,0E0,0E0,0E0,0E0,3.2430935E-1,0E0,0E0,0E0,0E0,0E0],"parents":[2147483647,0,0,1,1,2,2,4,4,6,6,7,7,8,8,10,10,11,11,12,12,17,17],"right_children":[2,4,6,-1,8,-1,10,12,14,-1,16,18,20,-1,-1,-1,-1,22,-1,-1,-1,-1,-1],"split_conditions":[2.3E0,6.91E2,1.5105E4,2.510426E-2,2.1464E4,-2.764367E-2,9.9E0,1.919E3,3.6E0,-2.0748615E-2,1.02E1,1.17E1,4.232E3,-2.2720661E-2,1.9944606E-2,8.6846715E-3,3.455252E-2,1.43E2,-9.038244E-3,1.6414091E-2,-1.6932566E-2,-1.0441832E-2,-3.0604128E-2],"split_indices":[8,0,2,0,2,0,16,12,10,0,16,16,0,0,0,0,0,15,0,0,0,0,0],"split_type":[0,0,0,0,0,0,0,0,0,0,0,0,0,0,0,0,0,0,0,0,0,0,0],"sum_hessian":[4.5989E1,2.7901443E1,1.8087553E1,1.4412699E0,2.6460175E1,2.66621E0,1.5421344E1,2.2631363E1,3.8288112E0,1.285185E0,1.4136158E1,2.0200827E1,2.4305372E0,1.9372399E0,1.8915713E0,2.334139E0,1.1802019E1,1.8122952E1,2.0778751E0,1.3563566E0,1.0741806E0,3.894717E0,1.4228233E1],"tree_param":{"num_deleted":"0","num_feature":"17","num_nodes":"23","size_leaf_vector":"1"}},{"base_weights":[-2.6200904E-2,1.8812303E-1,-4.4022632E-1,2.8254697E-1,-3.9063558E-1,9.063559E-3,-5.1168215E-1,2.9966274E-2,9.85796E-2,3.362419E-3,-2.995713E-2,2.8352754E-3,-5.897242E-1,4.3740362E-1,-5.076225E-2,-3.614403E-3,-3.4010243E-2,2.7014678E-2,1.19951E-3,1.18310675E-1,-4.7199336E-1,-3.5100933E-3,1.9778227E-2,-3.3025898E-3,-3.1009326E-2],"categories":[],"categories_nodes":[],"categories_segments":[],"categories_sizes":[],"default_left":[0,0,0,0,0,0,0,0,0,0,0,0,0,0,0,0,0,0,0,0,0,0,0,0,0],"id":54,"left_children":[1,3,5,7,9,-1,11,-1,13,-1,-1,-1,15,17,19,-1,-1,-1,-1,21,23,-1,-1,-1,-1],"loss_changes":[4.16532E0,1.8053234E0,8.029573E-1,1.5286918E0,4.9570173E-1,0E0,6.8127465E-1,0E0,9.5490515E-1,0E0,0E0,0E0,5.561466E-1,2.3132181E-1,1.0308014E0,0E0,0E0,0E0,0E0,5.8012915E-1,2.0696771E-1,0E0,0E0,0E0,0E0],"parents":[2147483647,0,0,1,1,2,2,3,3,4,4,6,6,8,8,12,12,13,13,14,14,19,19,20,20],"right_children":[2,4,6,8,10,-1,12,-1,14,-1,-1,-1,16,18,20,-1,-1,-1,-1,22,24,-1,-1,-1,-1],"split_conditions":[7.4E1,3.64E2,1.2369E4,1.7046E4,2.77E2,9.063559E-3,7.8E1,2.9966274E-2,1.284E3,3.362419E-3,-2.995713E-2,2.8352754E-3,1.0578E2,3.79E0,1.1E1,-3.614403E-3,-3.4010243E-2,2.7014678E-2,1.19951E-3,2.2369E4,3.08E0,-3.5100933E-3,1.9778227E-2,-3.3025898E-3,-3.1009326E-2],"split_indices":[11,9,2,2,15,0,14,0,12,0,0,0,13,10,16,0,0,0,0,2,10,0,0,0,0],"split_type":[0,0,0,0,0,0,0,0,0,0,0,0,0,0,0,0,0,0,0,0,0,0,0,0,0],"sum_hessian":[4.5007526E1,3.0015408E1,1.4992119E1,2.6245314E1,3.7700932E0,1.3874805E0,1.3604638E1,8.812699E0,1.7432615E1,1.3915997E0,2.3784935E0,1.675464E0,1.1929174E1,4.7429724E0,1.2689643E1,2.043254E0,9.885921E0,3.5520363E0,1.1909359E0,9.568277E0,3.1213655E0,6.1401896E0,3.428088E0,1.2213817E0,1.8999836E0],"tree_param":{"num_deleted":"0","num_feature":"17","num_nodes":"25","size_leaf_vector":"1"}},{"base_weights":[1.0573206E-1,-2.1625202E-2,5.9003186E-1,1.011763E0,-1.7234227E-2,6.872412E-2,4.66384E-3],"categories":[],"categories_nodes":[],"categories_segments":[],"categories_sizes":[],"default_left":[0,0,0,0,0,0,0],"id":55,"left_children":[1,-1,3,5,-1,-1,-1],"loss_changes":[3.250698E0,0E0,2.8999503E0,1.4422178E0,0E0,0E0,0E0],"parents":[2147483647,0,0,2,2,3,3],"right_children":[2,-1,4,6,-1,-1,-1],"split_conditions":[3.16E2,-2.1625202E-2,1.43E2,1.5105E4,-1.7234227E-2,6.872412E-2,4.66384E-3],"split_indices":[9,0,14,2,0,0,0],"split_type":[0,0,0,0,0,0,0],"sum_hessian":[1.04916725E1,5.0197854E0,5.471887E0,3.7138302E0,1.7580566E0,2.3065042E0,1.407326E0],"tree_param":{"num_deleted":"0","num_feature":"17","num_nodes":"7","size_leaf_vector":"1"}},{"base_weights":[3.6908528E-3,-1.9614205E-1,4.998473E-1,-4.3759927E-1,8.414052E-2,-2.0830236E-2,6.289823E-1,-5.293843E-1,1.5546487E-1,-1.1829975E-1,3.5038587E-1,6.896499E-3,3.3472966E-2,-4.033915E-3,-5.705779E-1,1.2538779E-2,-1.2613036E-3,-2.5805948E-2,1.7601702E-1,-5.537572E-3,5.665167E-1,-3.0479485E-2,-7.5828657E-3,-2.614363E-1,4.950878E-1,3.22947E-2,9.700331E-3,-1.8682934E-2,-1.7704014E-3,3.418393E-2,4.483105E-4],"categories":[],"categories_nodes":[],"categories_segments":[],"categories_sizes":[],"default_left":[0,0,0,0,0,0,0,0,0,0,0,0,0,0,0,0,0,0,0,0,0,0,0,0,0,0,0,0,0,0,0],"id":56,"left_children":[1,3,5,7,9,-1,11,13,15,17,19,-1,-1,-1,21,-1,-1,-1,23,-1,25,-1,-1,27,29,-1,-1,-1,-1,-1,-1],"loss_changes":[4.729896E0,2.339257E0,1.8827937E0,1.0859506E0,9.352837E-1,0E0,1.5417004E-1,2.5328875E-1,6.2194735E-2,1.2813854E0,8.0180293E-1,0E0,0E0,0E0,1.472578E-1,0E0,0E0,0E0,1.0492648E0,0E0,2.881968E-2,0E0,0E0,7.3870316E-2,3.7490392E-1,0E0,0E0,0E0,0E0,0E0,0E0],"parents":[2147483647,0,0,1,1,2,2,3,3,4,4,6,6,7,7,8,8,9,9,10,10,14,14,18,18,20,20,23,23,24,24],"right_children":[2,4,6,8,10,-1,12,14,16,18,20,-1,-1,-1,22,-1,-1,-1,24,-1,26,-1,-1,28,30,-1,-1,-1,-1,-1,-1],"split_conditions":[1.08E2,1.8137E4,1.4975E4,3.6E2,1.5E0,-2.0830236E-2,6.57E2,1.43E2,4.21E2,1.987E3,1.65E2,6.896499E-3,3.3472966E-2,-4.033915E-3,1.5965E2,1.2538779E-2,-1.2613036E-3,-2.5805948E-2,5E1,-5.537572E-3,1.09E2,-3.0479485E-2,-7.5828657E-3,7.595E1,2.504E3,3.22947E-2,9.700331E-3,-1.8682934E-2,-1.7704014E-3,3.418393E-2,4.483105E-4],"split_indices":[11,2,2,15,8,0,12,15,15,0,15,0,0,0,13,0,0,0,11,0,14,0,0,13,0,0,0,0,0,0,0],"split_type":[0,0,0,0,0,0,0,0,0,0,0,0,0,0,0,0,0,0,0,0,0,0,0,0,0,0,0,0,0,0,0],"sum_hessian":[4.5716404E1,3.3021343E1,1.2695061E1,1.7437792E1,1.558355E1,1.2929647E0,1.1402096E1,1.5193723E1,2.244069E0,9.168179E0,6.415372E0,1.2039416E0,1.0198154E1,1.5263463E0,1.36673765E1,1.2152041E0,1.0288649E0,3.5781217E0,5.590057E0,2.2028778E0,4.212494E0,1.2086669E1,1.5807076E0,2.4338396E0,3.1562173E0,2.8675563E0,1.3449376E0,1.1899052E0,1.2439344E0,1.9812121E0,1.1750052E0],"tree_param":{"num_deleted":"0","num_feature":"17","num_nodes":"31","size_leaf_vector":"1"}},{"base_weights":[3.1126348E-2,2.614493E-1,-3.4883872E-1,4.0162972E-1,-1.264328E-1,2.0089122E-2,-4.320584E-1,-8.557474E-3,4.4616276E-1,-4.1260132E-1,2.3004908E-2,8.7931445E-3,-5.005362E-1,5.161288E-1,6.977086E-2,4.246853E-3,-5.365088E-1,3.1827185E-3,-5.7688594E-1,2.7264714E-2,3.6066521E-3,2.2000134E-2,-1.536296E-2,-3.2048002E-3,-3.344671E-2,-3.2794695E-2,-1.8453798E-1,7.812538E-3,-2.1816967E-2],"categories":[],"categories_nodes":[],"categories_segments":[],"categories_sizes":[],"default_left":[0,0,0,0,0,0,0,0,0,0,0,0,0,0,0,0,0,0,0,0,0,0,0,0,0,0,0,0,0],"id":57,"left_children":[1,3,5,7,9,-1,11,-1,13,15,-1,-1,17,19,21,-1,23,-1,25,-1,-1,-1,-1,-1,-1,-1,27,-1,-1],"loss_changes":[4.043775E0,1.6108136E0,1.265105E0,6.20033E-1,1.5958823E0,0E0,7.6289606E-1,0E0,4.9209785E-1,4.251573E-1,0E0,0E0,6.7554736E-1,1.7762089E-1,7.353858E-1,0E0,2.7406728E-1,0E0,2.8696394E-1,0E0,0E0,0E0,0E0,0E0,0E0,0E0,3.7689975E-1,0E0,0E0],"parents":[2147483647,0,0,1,1,2,2,3,3,4,4,6,6,8,8,9,9,12,12,13,13,14,14,16,16,18,18,26,26],"right_children":[2,4,6,8,10,-1,12,-1,14,16,-1,-1,18,20,22,-1,24,-1,26,-1,-1,-1,-1,-1,-1,-1,28,-1,-1],"split_conditions":[7.4E1,1.1E1,8.99E1,2.8E0,3.395E3,2.0089122E-2,1.2369E4,-8.557474E-3,1.271E2,1.718E4,2.3004908E-2,8.7931445E-3,7.8E1,1.07E1,1E0,4.246853E-3,3.08E0,3.1827185E-3,2.475E3,2.7264714E-2,3.6066521E-3,2.2000134E-2,-1.536296E-2,-3.2048002E-3,-3.344671E-2,-3.2794695E-2,3.36E0,7.812538E-3,-2.1816967E-2],"split_indices":[11,16,13,10,0,0,2,0,13,2,0,0,14,16,1,0,10,0,0,0,0,0,0,0,0,0,10,0,0],"split_type":[0,0,0,0,0,0,0,0,0,0,0,0,0,0,0,0,0,0,0,0,0,0,0,0,0,0,0,0,0],"sum_hessian":[4.4164665E1,2.7691097E1,1.6473566E1,2.0314137E1,7.3769608E0,1.2620659E0,1.5211501E1,1.2603571E0,1.905378E1,5.1572685E0,2.2196922E0,1.3812336E0,1.3830267E1,1.5754065E1,3.2997153E0,1.0909956E0,4.066273E0,1.6683304E0,1.2161937E1,1.4568899E1,1.1851648E0,1.5805962E0,1.7191191E0,1.2151997E0,2.8510733E0,9.56425E0,2.5976872E0,1.2650427E0,1.3326445E0],"tree_param":{"num_deleted":"0","num_feature":"17","num_nodes":"29","size_leaf_vector":"1"}},{"base_weights":[-6.399029E-2,5.3061026E-1,-2.2651056E-2,5.981602E-2,-1.0767563E-1,9.599703E-3,-1.5978968E-2],"categories":[],"categories_nodes":[],"categories_segments":[],"categories_sizes":[],"default_left":[0,0,0,0,0,0,0],"id":58,"left_children":[1,3,-1,-1,5,-1,-1],"loss_changes":[2.8890092E0,2.248775E0,0E0,0E0,2.8135505E-1,0E0,0E0],"parents":[2147483647,0,0,1,1,4,4],"right_children":[2,4,-1,-1,6,-1,-1],"split_conditions":[1.5056E4,1.04E2,-2.2651056E-2,5.981602E-2,3.61E0,9.599703E-3,-1.5978968E-2],"split_indices":[2,14,0,0,10,0,0],"split_type":[0,0,0,0,0,0,0],"sum_hessian":[1.0450177E1,3.9891586E0,6.4610186E0,1.5246894E0,2.464469E0,1.05975E0,1.4047191E0],"tree_param":{"num_deleted":"0","num_feature":"17","num_nodes":"7","size_leaf_vector":"1"}},{"base_weights":[-5.9354417E-2,4.8638645E-1,-2.2683378E-1,-2.033824E-2,3.2457244E-2,-3.7613177E-1,2.3072855E-1,-1.9126163E-1,-2.9791487E-2,-3.103707E-1,4.981442E-1,-3.8474578E-1,3.360841E-2,-2.154529E-2,-2.4712675E-3,3.286435E-2,-3.1783504E-3,-4.6273872E-1,3.2518338E-3,2.6992533E-2,-1.5341939E-1,-2.7299032E-2,-1.1245435E-3,-1.4395644E-2,1.1266704E-2],"categories":[],"categories_nodes":[],"categories_segments":[],"categories_sizes":[],"default_left":[0,0,0,0,0,0,0,0,0,0,0,0,0,0,0,0,0,0,0,0,0,0,0,0,0],"id":59,"left_children":[1,3,5,-1,-1,7,9,11,-1,13,15,17,19,-1,-1,-1,-1,21,-1,-1,23,-1,-1,-1,-1],"loss_changes":[4.1081753E0,1.803366E0,2.419735E0,0E0,0E0,9.472995E-1,1.4600043E0,6.943706E-1,0E0,9.1932535E-2,6.1581576E-1,3.2823503E-1,8.5572845E-1,0E0,0E0,0E0,0E0,2.5766993E-1,0E0,0E0,4.0819496E-1,0E0,0E0,0E0,0E0],"parents":[2147483647,0,0,1,1,2,2,5,5,6,6,7,7,9,9,10,10,11,11,12,12,17,17,20,20],"right_children":[2,4,6,-1,-1,8,10,12,-1,14,16,18,20,-1,-1,-1,-1,22,-1,-1,24,-1,-1,-1,-1],"split_conditions":[9.01E2,1.5105E4,3.64E2,-2.033824E-2,3.2457244E-2,2.36E2,1.09E2,1.5E0,-2.9791487E-2,1.5056E4,2.286E3,2.25E2,1E2,-2.154529E-2,-2.4712675E-3,3.286435E-2,-3.1783504E-3,2.1185E4,3.2518338E-3,2.6992533E-2,3.2E0,-2.7299032E-2,-1.1245435E-3,-1.4395644E-2,1.1266704E-2],"split_indices":[0,2,9,0,0,15,14,8,0,2,0,15,14,0,0,0,0,2,0,0,8,0,0,0,0],"split_type":[0,0,0,0,0,0,0,0,0,0,0,0,0,0,0,0,0,0,0,0,0,0,0,0,0],"sum_hessian":[4.2739952E1,9.589118E0,3.3150833E1,1.2469842E0,8.3421335E0,2.5129347E1,8.021488E0,1.4662119E1,1.0467228E1,2.5999722E0,5.421516E0,7.4988985E0,7.1632204E0,1.3329393E0,1.267033E0,4.092022E0,1.329494E0,6.366187E0,1.1327116E0,1.4235413E0,5.7396793E0,5.1519003E0,1.2142864E0,4.4126205E0,1.3270589E0],"tree_param":{"num_deleted":"0","num_feature":"17","num_nodes":"25","size_leaf_vector":"1"}},{"base_weights":[-1.6328314E-2,4.835267E-1,-2.0103435E-1,5.386441E-1,-6.6816295E-4,-5.600256E-1,-5.15805E-2,1.2084944E-3,2.9729871E-2,-3.1165713E-2,-4.382471E-3,1.7490825E-1,-5.0769955E-1,4.395026E-1,-9.816817E-3,-2.982775E-3,-3.3070486E-2,1.4102922E-1,2.8292209E-2,-2.0597155E-1,2.4606569E-2,1.9936403E-2,-9.129909E-3,1.04665E-2,-1.803451E-2],"categories":[],"categories_nodes":[],"categories_segments":[],"categories_sizes":[],"default_left":[0,0,0,0,0,0,0,0,0,0,0,0,0,0,0,0,0,0,0,0,0,0,0,0,0],"id":60,"left_children":[1,3,5,7,-1,9,11,-1,-1,-1,-1,13,15,17,19,-1,-1,21,-1,23,-1,-1,-1,-1,-1],"loss_changes":[4.214585E0,3.4478498E-1,1.7561133E0,3.0573058E-1,0E0,2.3469853E-1,2.629263E0,0E0,0E0,0E0,0E0,8.4382606E-1,5.4012585E-1,1.8730617E-1,1.1935451E0,0E0,0E0,3.5957778E-1,0E0,6.3328636E-1,0E0,0E0,0E0,0E0,0E0],"parents":[2147483647,0,0,1,1,2,2,3,3,5,5,6,6,11,11,12,12,13,13,14,14,17,17,19,19],"right_children":[2,4,6,8,-1,10,12,-1,-1,-1,-1,14,16,18,20,-1,-1,22,-1,24,-1,-1,-1,-1,-1],"split_conditions":[1E0,1.881E3,1.072E3,9.8E0,-6.6816295E-4,3.95E2,3.82E2,1.2084944E-3,2.9729871E-2,-3.1165713E-2,-4.382471E-3,1.827E3,1.408E3,1.363E3,3.933E3,-2.982775E-3,-3.3070486E-2,1.15E3,2.8292209E-2,1.0191E2,2.4606569E-2,1.9936403E-2,-9.129909E-3,1.04665E-2,-1.803451E-2],"split_indices":[8,12,0,16,0,9,9,0,0,0,0,0,12,0,0,0,0,0,0,13,0,0,0,0,0],"split_type":[0,0,0,0,0,0,0,0,0,0,0,0,0,0,0,0,0,0,0,0,0,0,0,0,0],"sum_hessian":[4.3595985E1,1.1326413E1,3.2269573E1,1.0119842E1,1.2065713E0,8.67791E0,2.3591663E1,1.1331189E0,8.986723E0,7.3708386E0,1.3070707E0,1.6175932E1,7.4157305E0,6.0832505E0,1.0092681E1,2.2488236E0,5.166907E0,2.4385638E0,3.644687E0,7.6807866E0,2.4118946E0,1.2283728E0,1.2101909E0,1.9889638E0,5.691823E0],"tree_param":{"num_deleted":"0","num_feature":"17","num_nodes":"25","size_leaf_vector":"1"}},{"base_weights":[7.528807E-2,3.9314213E-1,-2.1082906E-2,7.136562E-1,-1.7609695E-2,4.9657892E-2,-1.3467065E-2],"categories":[],"categories_nodes":[],"categories_segments":[],"categories_sizes":[],"default_left":[0,0,0,0,0,0,0],"id":61,"left_children":[1,3,-1,5,-1,-1,-1],"loss_changes":[2.0613356E0,2.1234431E0,0E0,1.8639293E0,0E0,0E0,0E0],"parents":[2147483647,0,0,1,1,3,3],"right_children":[2,4,-1,6,-1,-1,-1],"split_conditions":[1E0,2.503E3,-2.1082906E-2,1.7889E4,-1.7609695E-2,4.9657892E-2,-1.3467065E-2],"split_indices":[6,0,0,2,0,0,0],"split_type":[0,0,0,0,0,0,0],"sum_hessian":[1.1000556E1,6.836631E0,4.163925E0,4.8104954E0,2.0261354E0,3.7374635E0,1.073032E0],"tree_param":{"num_deleted":"0","num_feature":"17","num_nodes":"7","size_leaf_vector":"1"}},{"base_weights":[9.811877E-3,-1.7487457E-1,5.284688E-1,-4.2754585E-1,-3.582266E-2,2.2883275E-1,3.0468244E-2,-2.7965296E-2,3.7282247E-3,1.3373068E-1,-3.181106E-1,2.2581477E-2,-2.5587408E-3,-1.2241078E-1,3.3700344E-1,-4.5311874E-1,6.731033E-3,-3.9277503E-1,1.669627E-2,-1.6214905E-2,4.7444317E-1,-2.720927E-2,-7.6436955E-3,-4.873925E-4,-2.558448E-2,-7.6966576E-4,2.8926188E-2],"categories":[],"categories_nodes":[],"categories_segments":[],"categories_sizes":[],"default_left":[0,0,0,0,0,0,0,0,0,0,0,0,0,0,0,0,0,0,0,0,0,0,0,0,0,0,0],"id":62,"left_children":[1,3,5,7,9,11,-1,-1,-1,13,15,-1,-1,17,19,21,-1,23,-1,-1,25,-1,-1,-1,-1,-1,-1],"loss_changes":[4.200106E0,1.122119E0,1.3952684E-1,7.9593563E-1,1.0942491E0,2.756455E-1,0E0,0E0,0E0,7.926723E-1,5.830741E-1,0E0,0E0,1.0094903E0,9.094036E-1,1.0296774E-1,0E0,2.1956098E-1,0E0,0E0,3.8048708E-1,0E0,0E0,0E0,0E0,0E0,0E0],"parents":[2147483647,0,0,1,1,2,2,3,3,4,4,5,5,9,9,10,10,13,13,14,14,15,15,17,17,20,20],"right_children":[2,4,6,8,10,12,-1,-1,-1,14,16,-1,-1,18,20,22,-1,24,-1,-1,26,-1,-1,-1,-1,-1,-1],"split_conditions":[1.07E2,1E0,1E0,1.1E1,2.338E3,1E0,3.0468244E-2,-2.7965296E-2,3.7282247E-3,3.47E0,3.91E0,2.2581477E-2,-2.5587408E-3,6.3E0,1.17E2,2.045E3,6.731033E-3,1.9E0,1.669627E-2,-1.6214905E-2,1.212E3,-2.720927E-2,-7.6436955E-3,-4.873925E-4,-2.558448E-2,-7.6966576E-4,2.8926188E-2],"split_indices":[11,8,5,16,0,1,0,0,0,10,10,0,0,8,15,12,0,8,0,0,0,0,0,0,0,0,0],"split_type":[0,0,0,0,0,0,0,0,0,0,0,0,0,0,0,0,0,0,0,0,0,0,0,0,0,0,0],"sum_hessian":[4.188274E1,3.13738E1,1.050894E1,1.0400439E1,2.0973362E1,3.0479975E0,7.460942E0,8.148311E0,2.2521288E0,1.3431894E1,7.541468E0,1.3560749E0,1.6919225E0,6.119097E0,7.312797E0,5.808477E0,1.7329912E0,3.9299912E0,2.1891057E0,1.0243747E0,6.2884226E0,3.833326E0,1.9751506E0,1.1873798E0,2.7426114E0,1.2513361E0,5.0370865E0],"tree_param":{"num_deleted":"0","num_feature":"17","num_nodes":"27","size_leaf_vector":"1"}},{"base_weights":[2.8367963E-2,2.2413906E-1,-3.5787046E-1,3.4444353E-1,-1.17998295E-1,1.3859228E-2,-5.83751E-1,4.7359258E-1,1.17301814E-1,2.6667574E-1,-4.2246038E-1,3.99485E-1,-3.8662642E-1,-3.1697005E-2,-5.08438E-3,5.587064E-1,-8.962943E-3,-1.9010635E-2,3.2251582E-1,2.2615096E-2,-5.39999E-3,