{"learner":{"attributes":{},"feature_names":["feature_1","feature_2","feature_3","feature_4","feature_5","feature_6","feature_7","feature_8","feature_9","feature_10","feature_11","feature_12","feature_13","feature_14","feature_15","feature_16","feature_17","feature_18","feature_19","feature_20","feature_21","feature_22","feature_23","feature_24","feature_25","feature_26","feature_27","feature_28","feature_29","feature_30"],"feature_types":["float","float","float","float","float","float","float","float","float","float","float","float","float","float","float","float","float","float","float","float","float","float","float","float","float","float","float","float","float","float"],"gradient_booster":{"model":{"cats":{"enc":[],"feature_segments":[],"sorted_idx":[]},"gbtree_model_param":{"num_parallel_tree":"1","num_trees":"300"},"iteration_indptr":[0,1,2,3,4,5,6,7,8,9,10,11,12,13,14,15,16,17,18,19,20,21,22,23,24,25,26,27,28,29,30,31,32,33,34,35,36,37,38,39,40,41,42,43,44,45,46,47,48,49,50,51,52,53,54,55,56,57,58,59,60,61,62,63,64,65,66,67,68,69,70,71,72,73,74,75,76,77,78,79,80,81,82,83,84,85,86,87,88,89,90,91,92,93,94,95,96,97,98,99,100,101,102,103,104,105,106,107,108,109,110,111,112,113,114,115,116,117,118,119,120,121,122,123,124,125,126,127,128,129,130,131,132,133,134,135,136,137,138,139,140,141,142,143,144,145,146,147,148,149,150,151,152,153,154,155,156,157,158,159,160,161,162,163,164,165,166,167,168,169,170,171,172,173,174,175,176,177,178,179,180,181,182,183,184,185,186,187,188,189,190,191,192,193,194,195,196,197,198,199,200,201,202,203,204,205,206,207,208,209,210,211,212,213,214,215,216,217,218,219,220,221,222,223,224,225,226,227,228,229,230,231,232,233,234,235,236,237,238,239,240,241,242,243,244,245,246,247,248,249,250,251,252,253,254,255,256,257,258,259,260,261,262,263,264,265,266,267,268,269,270,271,272,273,274,275,276,277,278,279,280,281,282,283,284,285,286,287,288,289,290,291,292,293,294,295,296,297,298,299,300],"tree_info":[0,0,0,0,0,0,0,0,0,0,0,0,0,0,0,0,0,0,0,0,0,0,0,0,0,0,0,0,0,0,0,0,0,0,0,0,0,0,0,0,0,0,0,0,0,0,0,0,0,0,0,0,0,0,0,0,0,0,0,0,0,0,0,0,0,0,0,0,0,0,0,0,0,0,0,0,0,0,0,0,0,0,0,0,0,0,0,0,0,0,0,0,0,0,0,0,0,0,0,0,0,0,0,0,0,0,0,0,0,0,0,0,0,0,0,0,0,0,0,0,0,0,0,0,0,0,0,0,0,0,0,0,0,0,0,0,0,0,0,0,0,0,0,0,0,0,0,0,0,0,0,0,0,0,0,0,0,0,0,0,0,0,0,0,0,0,0,0,0,0,0,0,0,0,0,0,0,0,0,0,0,0,0,0,0,0,0,0,0,0,0,0,0,0,0,0,0,0,0,0,0,0,0,0,0,0,0,0,0,0,0,0,0,0,0,0,0,0,0,0,0,0,0,0,0,0,0,0,0,0,0,0,0,0,0,0,0,0,0,0,0,0,0,0,0,0,0,0,0,0,0,0,0,0,0,0,0,0,0,0,0,0,0,0,0,0,0,0,0,0,0,0,0,0,0,0,0,0,0,0,0,0,0,0,0,0,0,0,0,0,0,0,0,0,0,0,0,0,0,0],"trees":[{"base_weights":[-6.1960574E-2,-1.4418732E0,1.9883828E0,-1.5235096E0,8.358238E-4,-2.1970218E-2,2.2245831E0,-2.1970218E-2,-7.827542E-2,4.216942E-2,1.1710334E-1],"categories":[],"categories_nodes":[],"categories_segments":[],"categories_sizes":[],"default_left":[0,0,0,0,0,0,0,0,0,0,0],"id":0,"left_children":[1,3,5,7,-1,-1,9,-1,-1,-1,-1],"loss_changes":[1.0758068E2,2.728653E0,9.756237E0,2.914505E-1,0E0,0E0,3.1537628E-1,0E0,0E0,0E0,0E0],"parents":[2147483647,0,0,1,1,2,2,3,3,6,6],"right_children":[2,4,6,8,-1,-1,10,-1,-1,-1,-1],"split_conditions":[5.069E-2,3.376E1,2.432E-1,3.741E-3,8.358238E-4,-2.1970218E-2,8.124E2,-2.1970218E-2,-7.827542E-2,4.216942E-2,1.1710334E-1],"split_indices":[7,13,26,14,0,0,23,0,0,0,0],"split_type":[0,0,0,0,0,0,0,0,0,0,0],"sum_hessian":[3.6010525E1,2.1701708E1,1.4308818E1,2.0509306E1,1.1924015E0,1.1924015E0,1.3116417E1,1.1924015E0,1.9316904E1,1.6693621E0,1.1447054E1],"tree_param":{"num_deleted":"0","num_feature":"30","num_nodes":"11","size_leaf_vector":"1"}},{"base_weights":[6.21707E-2,-1.195503E0,1.0757335E-1,-1.3528259E0,4.6106644E-2,-1.4286382E0,-8.019337E-3,-2.0447453E-2,-1.469518E0,-2.0883707E-2,-7.574802E-2],"categories":[],"categories_nodes":[],"categories_segments":[],"categories_sizes":[],"default_left":[0,0,0,0,0,0,0,0,0,0,0],"id":1,"left_children":[1,3,-1,5,-1,7,-1,-1,9,-1,-1],"loss_changes":[9.71663E1,8.948296E0,0E0,1.7526321E0,0E0,2.5294876E-1,0E0,0E0,2.9021072E-1,0E0,0E0],"parents":[2147483647,0,0,1,1,3,3,5,5,8,8],"right_children":[2,4,-1,6,-1,8,-1,-1,10,-1,-1],"split_conditions":[1.425E-1,1.752E1,1.0757335E-1,1.362E-1,4.6106644E-2,2.06E-1,-8.019337E-3,-2.0447453E-2,1.514E-3,-2.0883707E-2,-7.574802E-2],"split_indices":[27,20,0,27,0,28,0,0,19,0,0],"split_type":[0,0,0,0,0,0,0,0,0,0,0],"sum_hessian":[3.4999504E1,2.2114967E1,1.2884538E1,2.092181E1,1.1931562E0,1.9484926E1,1.4368831E0,1.1751883E0,1.8309738E1,1.1803255E0,1.7129414E1],"tree_param":{"num_deleted":"0","num_feature":"30","num_nodes":"11","size_leaf_vector":"1"}},{"base_weights":[4.4986326E-2,-1.2418377E0,1.8823462E0,-1.4028009E0,4.371975E-2,-2.2516921E-2,1.05226114E-1,-7.426849E-2,-2.1960609E-2],"categories":[],"categories_nodes":[],"categories_segments":[],"categories_sizes":[],"default_left":[0,0,0,0,0,0,0,0,0],"id":2,"left_children":[1,3,5,7,-1,-1,-1,-1,-1],"loss_changes":[9.050536E1,8.902248E0,9.114113E0,1.044239E0,0E0,0E0,0E0,0E0,0E0],"parents":[2147483647,0,0,1,1,2,2,3,3],"right_children":[2,4,6,8,-1,-1,-1,-1,-1],"split_conditions":[5.596E-2,1.172E2,1.534E1,1.565E1,4.371975E-2,-2.2516921E-2,1.05226114E-1,-7.426849E-2,-2.1960609E-2],"split_indices":[7,22,1,20,0,0,0,0,0],"split_type":[0,0,0,0,0,0,0,0,0],"sum_hessian":[3.6290367E1,2.1533298E1,1.4757068E1,2.0324514E1,1.2087841E0,1.1940008E0,1.35630665E1,1.8221626E1,2.1028886E0],"tree_param":{"num_deleted":"0","num_feature":"30","num_nodes":"9","size_leaf_vector":"1"}},{"base_weights":[4.774772E-2,-1.1710697E0,1.7844851E0,-1.3207947E0,3.1581737E-2,-2.1961782E-2,9.953917E-2,-1.3971533E0,-1.6611097E-2,-7.2143994E-2,-1.712104E-2],"categories":[],"categories_nodes":[],"categories_segments":[],"categories_sizes":[],"default_left":[0,0,0,0,0,0,0,0,0,0,0],"id":3,"left_children":[1,3,5,7,-1,-1,-1,9,-1,-1,-1],"loss_changes":[8.283823E1,7.0475044E0,8.2728615E0,1.1646652E0,0E0,0E0,0E0,4.5694733E-1,0E0,0E0,0E0],"parents":[2147483647,0,0,1,1,2,2,3,3,7,7],"right_children":[2,4,6,8,-1,-1,-1,10,-1,-1,-1],"split_conditions":[5.596E-2,8.883E2,1.534E1,7.879E2,3.1581737E-2,-2.1961782E-2,9.953917E-2,3.195E0,-1.6611097E-2,-7.2143994E-2,-1.712104E-2],"split_indices":[7,23,1,23,0,0,0,12,0,0,0],"split_type":[0,0,0,0,0,0,0,0,0,0,0],"sum_hessian":[3.7147095E1,2.2019695E1,1.51274E1,2.0577908E1,1.4417872E0,1.1883936E0,1.3939007E1,1.8718744E1,1.8591632E0,1.7588226E1,1.130519E0],"tree_param":{"num_deleted":"0","num_feature":"30","num_nodes":"11","size_leaf_vector":"1"}},{"base_weights":[-9.943628E-2,-1.117894E0,9.1305956E-2,-1.285476E0,6.150648E-2,-1.3444005E0,-1.8857498E-2,-1.3807722E0,-1.7273663E-2,-1.739089E-2,-7.1053565E-2],"categories":[],"categories_nodes":[],"categories_segments":[],"categories_sizes":[],"default_left":[0,0,0,0,0,0,0,0,0,0,0],"id":4,"left_children":[1,3,-1,5,-1,7,-1,9,-1,-1,-1],"loss_changes":[7.762285E1,1.1744236E1,0E0,8.0942154E-1,0E0,3.4802246E-1,0E0,4.0389633E-1,0E0,0E0,0E0],"parents":[2147483647,0,0,1,1,3,3,5,5,7,7],"right_children":[2,4,-1,6,-1,8,-1,10,-1,-1,-1],"split_conditions":[1.459E-1,1.177E2,9.1305956E-2,1.362E-1,6.150648E-2,5.19E-1,-1.8857498E-2,1.514E-3,-1.7273663E-2,-1.739089E-2,-7.1053565E-2],"split_indices":[27,22,0,27,0,10,0,19,0,0,0],"split_type":[0,0,0,0,0,0,0,0,0,0,0],"sum_hessian":[3.7540394E1,2.4827934E1,1.2712459E1,2.3596357E1,1.2315778E0,2.1708036E1,1.88832E0,2.0576572E1,1.1314644E0,1.1342473E0,1.9442326E1],"tree_param":{"num_deleted":"0","num_feature":"30","num_nodes":"11","size_leaf_vector":"1"}},{"base_weights":[-5.3729273E-2,-1.0268238E0,8.705531E-2,-1.2742192E0,6.729527E-2,-1.4810159E-2,-1.3110068E0,-5.6395674E-1,-6.946788E-2,-4.569475E-2,5.961552E-3],"categories":[],"categories_nodes":[],"categories_segments":[],"categories_sizes":[],"default_left":[0,0,0,0,0,0,0,0,0,0,0],"id":5,"left_children":[1,3,-1,5,-1,-1,7,9,-1,-1,-1],"loss_changes":[6.4304825E1,1.5708946E1,0E0,4.068985E-1,0E0,0E0,4.4618225E-1,9.881698E-1,0E0,0E0,0E0],"parents":[2147483647,0,0,1,1,3,3,6,6,7,7],"right_children":[2,4,-1,6,-1,-1,8,10,-1,-1,-1],"split_conditions":[1.043E-1,1.177E2,8.705531E-2,2.16E-1,6.729527E-2,-1.4810159E-2,1.386E-2,5.592E2,-6.946788E-2,-4.569475E-2,5.961552E-3],"split_indices":[6,22,0,28,0,0,18,3,0,0,0],"split_type":[0,0,0,0,0,0,0,0,0,0,0],"sum_hessian":[3.479469E1,2.2839722E1,1.1954967E1,2.1102425E1,1.7372959E0,1.0931172E0,2.0009308E1,2.6775508E0,1.7331757E1,1.5473068E0,1.1302441E0],"tree_param":{"num_deleted":"0","num_feature":"30","num_nodes":"11","size_leaf_vector":"1"}},{"base_weights":[4.064255E-2,-1.1332895E0,8.49114E-2,-1.2827405E0,3.771132E-2,-6.8002E-2,-1.1857226E-2],"categories":[],"categories_nodes":[],"categories_segments":[],"categories_sizes":[],"default_left":[0,0,0,0,0,0,0],"id":6,"left_children":[1,3,-1,5,-1,-1,-1],"loss_changes":[7.229878E1,7.1089497E0,0E0,1.3379402E0,0E0,0E0,0E0],"parents":[2147483647,0,0,1,1,3,3],"right_children":[2,4,-1,6,-1,-1,-1],"split_conditions":[1.459E-1,9.714E2,8.49114E-2,1.362E-1,3.771132E-2,-6.8002E-2,-1.1857226E-2],"split_indices":[27,23,0,27,0,0,0],"split_type":[0,0,0,0,0,0,0],"sum_hessian":[3.516551E1,2.0771242E1,1.4394268E1,1.9544168E1,1.2270732E0,1.7918728E1,1.6254398E0],"tree_param":{"num_deleted":"0","num_feature":"30","num_nodes":"7","size_leaf_vector":"1"}},{"base_weights":[-4.134151E-2,-1.2412378E0,1.2981585E0,-6.6287056E-2,1.660822E-3,-1.6367406E-2,1.5239958E0,3.5169905E-3,8.212478E-2],"categories":[],"categories_nodes":[],"categories_segments":[],"categories_sizes":[],"default_left":[0,0,0,0,0,0,0,0,0],"id":7,"left_children":[1,3,5,-1,-1,-1,7,-1,-1],"loss_changes":[5.517905E1,1.9924202E0,6.459465E0,0E0,0E0,0E0,2.3706818E0,0E0,0E0],"parents":[2147483647,0,0,1,1,2,2,6,6],"right_children":[2,4,6,-1,-1,-1,8,-1,-1],"split_conditions":[1.014E2,3.407E-1,1.112E-1,-6.6287056E-2,1.660822E-3,-1.6367406E-2,7.293E-2,3.5169905E-3,8.212478E-2],"split_indices":[22,28,27,0,0,0,6,0,0],"split_type":[0,0,0,0,0,0,0,0,0],"sum_hessian":[3.2328575E1,1.7091618E1,1.5236959E1,1.599108E1,1.1005371E0,1.8038582E0,1.3433101E1,1.1326231E0,1.2300478E1],"tree_param":{"num_deleted":"0","num_feature":"30","num_nodes":"9","size_leaf_vector":"1"}},{"base_weights":[-8.304145E-2,-1.1181476E0,1.4677376E0,-1.22339E0,1.6151799E-2,5.6526195E-3,8.0586635E-2,-6.514823E-2,-4.5313594E-1,8.144668E-3,-4.0854257E-2],"categories":[],"categories_nodes":[],"categories_segments":[],"categories_sizes":[],"default_left":[0,0,0,0,0,0,0,0,0,0,0],"id":8,"left_children":[1,3,5,7,-1,-1,-1,-1,9,-1,-1],"loss_changes":[5.5617134E1,3.5398464E0,2.5277348E0,6.066761E-1,0E0,0E0,0E0,0E0,8.868699E-1,0E0,0E0],"parents":[2147483647,0,0,1,1,2,2,3,3,8,8],"right_children":[2,4,6,8,-1,-1,-1,-1,10,-1,-1],"split_conditions":[5.596E-2,1.425E-1,1.926E1,1.108E-1,1.6151799E-2,5.6526195E-3,8.0586635E-2,-6.514823E-2,4.107E-2,8.144668E-3,-4.0854257E-2],"split_indices":[7,27,21,27,0,0,0,0,7,0,0],"split_type":[0,0,0,0,0,0,0,0,0,0,0],"sum_hessian":[3.262527E1,1.9732979E1,1.2892293E1,1.8530882E1,1.2020955E0,1.4102238E0,1.1482069E1,1.616888E1,2.3620026E0,1.0823755E0,1.2796271E0],"tree_param":{"num_deleted":"0","num_feature":"30","num_nodes":"11","size_leaf_vector":"1"}},{"base_weights":[7.2760168E-3,-1.0456705E0,7.580861E-2,-1.1578999E0,2.1652296E-2,-1.2439033E0,5.970444E-3,-6.415961E-2,-1.6411597E-2],"categories":[],"categories_nodes":[],"categories_segments":[],"categories_sizes":[],"default_left":[0,0,0,0,0,0,0,0,0],"id":9,"left_children":[1,3,-1,5,-1,7,-1,-1,-1],"loss_changes":[5.4142147E1,3.8330498E0,0E0,2.2282124E0,0E0,2.200737E-1,0E0,0E0,0E0],"parents":[2147483647,0,0,1,1,3,3,5,5],"right_children":[2,4,-1,6,-1,8,-1,-1,-1],"split_conditions":[1.459E-1,3.503E1,7.580861E-2,3.172E-1,2.1652296E-2,9.293E-2,5.970444E-3,-6.415961E-2,-1.6411597E-2],"split_indices":[27,13,0,25,0,6,0,0,0],"split_type":[0,0,0,0,0,0,0,0,0],"sum_hessian":[3.2079784E1,1.9075445E1,1.300434E1,1.7931467E1,1.1439782E0,1.6824778E1,1.1066896E0,1.574772E1,1.0770566E0],"tree_param":{"num_deleted":"0","num_feature":"30","num_nodes":"9","size_leaf_vector":"1"}},{"base_weights":[-4.6639234E-2,-9.1901714E-1,7.286713E-2,-1.1127805E0,4.5746192E-2,-1.1737255E0,-1.1937462E-2,-1.0329176E-2,-1.2160013E0,-6.3069016E-2,-1.1470772E-2],"categories":[],"categories_nodes":[],"categories_segments":[],"categories_sizes":[],"default_left":[0,0,0,0,0,0,0,0,0,0,0],"id":10,"left_children":[1,3,-1,5,-1,7,-1,-1,9,-1,-1],"loss_changes":[4.6793575E1,9.027416E0,0E0,8.2969284E-1,0E0,5.3476334E-1,0E0,0E0,5.260334E-1,0E0,0E0],"parents":[2147483647,0,0,1,1,3,3,5,5,8,8],"right_children":[2,4,-1,6,-1,8,-1,-1,10,-1,-1],"split_conditions":[1.453E-1,1.773E1,7.286713E-2,1.362E-1,4.5746192E-2,3.728E-3,-1.1937462E-2,-1.0329176E-2,4.537E-1,-6.3069016E-2,-1.1470772E-2],"split_indices":[27,20,0,27,0,14,0,0,10,0,0],"split_type":[0,0,0,0,0,0,0,0,0,0,0],"sum_hessian":[3.3643936E1,2.1539177E1,1.2104758E1,1.9836592E1,1.7025858E0,1.8223036E1,1.613555E0,1.009744E0,1.7213291E1,1.6190083E1,1.0232098E0],"tree_param":{"num_deleted":"0","num_feature":"30","num_nodes":"11","size_leaf_vector":"1"}},{"base_weights":[-7.290411E-2,-9.965384E-1,1.2775831E0,-1.1526511E0,2.5632555E-2,-2.1850092E-2,7.351022E-2,-6.1951566E-2,-1.3509651E-2],"categories":[],"categories_nodes":[],"categories_segments":[],"categories_sizes":[],"default_left":[0,0,0,0,0,0,0,0,0],"id":11,"left_children":[1,3,5,7,-1,-1,-1,-1,-1],"loss_changes":[4.1580215E1,5.244419E0,5.1217175E0,1.0531425E0,0E0,0E0,0E0,0E0,0E0],"parents":[2147483647,0,0,1,1,2,2,3,3],"right_children":[2,4,6,8,-1,-1,-1,-1,-1],"split_conditions":[5.596E-2,3.444E1,1.534E1,7.879E2,2.5632555E-2,-2.1850092E-2,7.351022E-2,-6.1951566E-2,-1.3509651E-2],"split_indices":[7,13,1,23,0,0,0,0,0],"split_type":[0,0,0,0,0,0,0,0,0],"sum_hessian":[3.1313986E1,1.8751453E1,1.25625305E1,1.720771E1,1.5437441E0,1.1406379E0,1.1421893E1,1.5305452E1,1.9022576E0],"tree_param":{"num_deleted":"0","num_feature":"30","num_nodes":"9","size_leaf_vector":"1"}},{"base_weights":[9.492649E-2,-1.0474858E0,1.152182E0,-1.1653461E0,1.6607968E-2,-1.4938729E-1,1.3513519E0,-6.0992338E-2,-1.1968084E-2,-3.7592437E-2,2.6871188E-2,3.5452426E-3,7.335445E-2],"categories":[],"categories_nodes":[],"categories_segments":[],"categories_sizes":[],"default_left":[0,0,0,0,0,0,0,0,0,0,0,0,0],"id":12,"left_children":[1,3,5,7,-1,9,11,-1,-1,-1,-1,-1,-1],"loss_changes":[4.238813E1,3.1369934E0,4.9157543E0,5.055065E-1,0E0,1.7752059E0,2.2478619E0,0E0,0E0,0E0,0E0,0E0,0E0],"parents":[2147483647,0,0,1,1,2,2,3,3,5,5,6,6],"right_children":[2,4,6,8,-1,10,12,-1,-1,-1,-1,-1,-1],"split_conditions":[1.025E2,1.297E-1,5.069E-2,3.167E0,1.6607968E-2,2.723E-1,2.606E-1,-6.0992338E-2,-1.1968084E-2,-3.7592437E-2,2.6871188E-2,3.5452426E-3,7.335445E-2],"split_indices":[22,5,7,12,0,28,26,0,0,0,0,0,0],"split_type":[0,0,0,0,0,0,0,0,0,0,0,0,0],"sum_hessian":[3.3095463E1,1.5911551E1,1.718391E1,1.4802345E1,1.1092057E0,2.3137267E0,1.4870183E1,1.3679841E1,1.1225042E0,1.1821047E0,1.1316218E0,1.3663485E0,1.3503835E1],"tree_param":{"num_deleted":"0","num_feature":"30","num_nodes":"13","size_leaf_vector":"1"}},{"base_weights":[-2.4843667E-2,-9.063526E-1,6.996509E-2,-1.0454183E0,3.392367E-2,-6.0112786E-2,-2.7834466E-1,2.5703192E-2,-4.5536127E-2],"categories":[],"categories_nodes":[],"categories_segments":[],"categories_sizes":[],"default_left":[0,0,0,0,0,0,0,0,0],"id":13,"left_children":[1,3,-1,5,-1,-1,7,-1,-1],"loss_changes":[3.9357204E1,4.9733276E0,0E0,1.8525333E0,0E0,0E0,2.6667073E0,0E0,0E0],"parents":[2147483647,0,0,1,1,3,3,6,6],"right_children":[2,4,-1,6,-1,-1,8,-1,-1],"split_conditions":[1.459E-1,4.368E1,6.996509E-2,1.108E-1,3.392367E-2,-6.0112786E-2,1.526E-2,2.5703192E-2,-4.5536127E-2],"split_indices":[27,13,0,27,0,0,18,0,0],"split_type":[0,0,0,0,0,0,0,0,0],"sum_hessian":[2.9340166E1,1.8347267E1,1.0992899E1,1.7180101E1,1.1671661E0,1.3792691E1,3.3874092E0,1.5865092E0,1.8009E0],"tree_param":{"num_deleted":"0","num_feature":"30","num_nodes":"9","size_leaf_vector":"1"}},{"base_weights":[7.102424E-4,-8.6404765E-1,1.3139666E0,-1.0745075E0,4.3153092E-2,2.0278972E-2,6.822814E-2,-1.1558399E0,-3.711408E-1,-1.1814992E-2,-6.0521126E-2,-3.5118796E-2,7.4389153E-3],"categories":[],"categories_nodes":[],"categories_segments":[],"categories_sizes":[],"default_left":[0,0,0,0,0,0,0,0,0,0,0,0,0],"id":14,"left_children":[1,3,5,7,-1,-1,-1,9,11,-1,-1,-1,-1],"loss_changes":[3.674805E1,8.019536E0,3.7042618E-2,5.9144783E-1,0E0,0E0,0E0,4.9272537E-1,6.765635E-1,0E0,0E0,0E0,0E0],"parents":[2147483647,0,0,1,1,2,2,3,3,7,7,8,8],"right_children":[2,4,6,8,-1,-1,-1,10,12,-1,-1,-1,-1],"split_conditions":[1.459E-1,9.714E2,1.584E-1,1.809E0,4.3153092E-2,2.0278972E-2,6.822814E-2,3.796E-3,9.246E-2,-1.1814992E-2,-6.0521126E-2,-3.5118796E-2,7.4389153E-3],"split_indices":[27,23,8,11,0,0,0,14,4,0,0,0,0],"split_type":[0,0,0,0,0,0,0,0,0,0,0,0,0],"sum_hessian":[3.0358923E1,1.8511475E1,1.1847447E1,1.6837564E1,1.6739113E0,1.1007603E0,1.0746687E1,1.4515764E1,2.3217993E0,1.1119657E0,1.3403799E1,1.2038842E0,1.117915E0],"tree_param":{"num_deleted":"0","num_feature":"30","num_nodes":"13","size_leaf_vector":"1"}},{"base_weights":[-1.8853644E-2,-8.551044E-1,6.689916E-2,-1.0279038E0,5.088545E-2,-1.576431E-3,-1.10858E0,-5.9285756E-2,-1.0586666E-2],"categories":[],"categories_nodes":[],"categories_segments":[],"categories_sizes":[],"default_left":[0,0,0,0,0,0,0,0,0],"id":15,"left_children":[1,3,-1,5,-1,-1,7,-1,-1],"loss_changes":[3.606125E1,7.404996E0,0E0,1.4510899E0,0E0,0E0,9.3001556E-1,0E0,0E0],"parents":[2147483647,0,0,1,1,3,3,6,6],"right_children":[2,4,-1,6,-1,-1,8,-1,-1],"split_conditions":[1.459E-1,5.495E-1,6.689916E-2,4.097E-3,5.088545E-2,-1.576431E-3,1.362E-1,-5.9285756E-2,-1.0586666E-2],"split_indices":[27,10,0,14,0,0,27,0,0],"split_type":[0,0,0,0,0,0,0,0,0],"sum_hessian":[2.977333E1,1.864918E1,1.1124151E1,1.7486858E1,1.1623204E0,1.4140255E0,1.6072834E1,1.4503349E1,1.569484E0],"tree_param":{"num_deleted":"0","num_feature":"30","num_nodes":"9","size_leaf_vector":"1"}},{"base_weights":[-1.6099403E-2,-1.0566751E0,1.1304324E0,-7.92265E-3,-1.1087722E0,-6.713929E-3,6.262027E-2,-8.802898E-3,-5.8377273E-2],"categories":[],"categories_nodes":[],"categories_segments":[],"categories_sizes":[],"default_left":[0,0,0,0,0,0,0,0,0],"id":16,"left_children":[1,3,5,-1,7,-1,-1,-1,-1],"loss_changes":[3.5082016E1,5.452728E-1,2.3273754E0,0E0,5.8358955E-1,0E0,0E0,0E0,0E0],"parents":[2147483647,0,0,1,1,2,2,4,4],"right_children":[2,4,6,-1,8,-1,-1,-1,-1],"split_conditions":[5.069E-2,2.16E-1,1.529E1,-7.92265E-3,1.541E-3,-6.713929E-3,6.262027E-2,-8.802898E-3,-5.8377273E-2],"split_indices":[7,28,20,0,19,0,0,0,0],"split_type":[0,0,0,0,0,0,0,0,0],"sum_hessian":[2.7404032E1,1.4406905E1,1.2997126E1,1.0113515E0,1.3395554E1,1.1343545E0,1.1862771E1,1.0309081E0,1.2364645E1],"tree_param":{"num_deleted":"0","num_feature":"30","num_nodes":"9","size_leaf_vector":"1"}},{"base_weights":[-1.3673245E-2,-8.4690857E-1,1.2210776E0,-1.0295643E0,3.8439993E-2,1.7231328E-2,6.3620105E-2,-1.1150411E0,-3.1573835E-1,-9.6250195E-3,-5.8531117E-2,8.792504E-3,-3.2563444E-2],"categories":[],"categories_nodes":[],"categories_segments":[],"categories_sizes":[],"default_left":[0,0,0,0,0,0,0,0,0,0,0,0,0],"id":17,"left_children":[1,3,5,7,-1,-1,-1,9,11,-1,-1,-1,-1],"loss_changes":[3.1061037E1,6.108487E0,1.0889244E-1,6.616516E-1,0E0,0E0,0E0,5.1519394E-1,6.3767636E-1,0E0,0E0,0E0,0E0],"parents":[2147483647,0,0,1,1,2,2,3,3,7,7,8,8],"right_children":[2,4,6,8,-1,-1,-1,10,12,-1,-1,-1,-1],"split_conditions":[1.459E-1,1.773E1,9.029E-2,1.805E0,3.8439993E-2,1.7231328E-2,6.3620105E-2,1.315E-2,1.868E-2,-9.6250195E-3,-5.8531117E-2,8.792504E-3,-3.2563444E-2],"split_indices":[27,20,4,11,0,0,0,18,18,0,0,0,0],"split_type":[0,0,0,0,0,0,0,0,0,0,0,0,0],"sum_hessian":[2.8185251E1,1.7016363E1,1.1168887E1,1.5613983E1,1.4023803E0,1.0446367E0,1.012425E1,1.3442276E1,2.1717067E0,1.0174803E0,1.2424796E1,1.0740346E0,1.0976721E0],"tree_param":{"num_deleted":"0","num_feature":"30","num_nodes":"13","size_leaf_vector":"1"}},{"base_weights":[-4.5409475E-2,-8.6647576E-1,6.278789E-2,-1.0486542E0,3.5940226E-2,-5.7481665E-2,3.917574E-3],"categories":[],"categories_nodes":[],"categories_segments":[],"categories_sizes":[],"default_left":[0,0,0,0,0,0,0],"id":18,"left_children":[1,3,-1,5,-1,-1,-1],"loss_changes":[3.0047342E1,5.7244205E0,0E0,1.8931656E0,0E0,0E0,0E0],"parents":[2147483647,0,0,1,1,3,3],"right_children":[2,4,-1,6,-1,-1,-1],"split_conditions":[1.453E-1,3.503E1,6.278789E-2,9.74E-2,3.5940226E-2,-5.7481665E-2,3.917574E-3],"split_indices":[27,13,0,29,0,0,0],"split_type":[0,0,0,0,0,0,0],"sum_hessian":[2.6106663E1,1.621114E1,9.895522E0,1.4843813E1,1.3673272E0,1.3604757E1,1.2390561E0],"tree_param":{"num_deleted":"0","num_feature":"30","num_nodes":"7","size_leaf_vector":"1"}},{"base_weights":[-1.3486552E-2,-1.0501698E0,9.1535765E-1,-5.576852E-2,-9.95963E-3,-2.9163793E-2,1.1352212E0,-3.5680123E-3,6.40563E-2],"categories":[],"categories_nodes":[],"categories_segments":[],"categories_sizes":[],"default_left":[0,0,0,0,0,0,0,0,0],"id":19,"left_children":[1,3,5,-1,-1,-1,7,-1,-1],"loss_changes":[2.5441002E1,4.7024345E-1,5.2562695E0,0E0,0E0,0E0,2.291729E0,0E0,0E0],"parents":[2147483647,0,0,1,1,2,2,6,6],"right_children":[2,4,6,-1,-1,-1,8,-1,-1],"split_conditions":[1.014E2,2.884E0,1.534E1,-5.576852E-2,-9.95963E-3,-2.9163793E-2,1.108E-1,-3.5680123E-3,6.40563E-2],"split_indices":[22,12,1,0,0,0,27,0,0],"split_type":[0,0,0,0,0,0,0,0,0],"sum_hessian":[2.4422453E1,1.1479528E1,1.29429245E1,1.0373995E1,1.105534E0,1.4444396E0,1.1498486E1,1.2955608E0,1.0202925E1],"tree_param":{"num_deleted":"0","num_feature":"30","num_nodes":"9","size_leaf_vector":"1"}},{"base_weights":[1.7476656E-2,-6.9436806E-1,6.2269416E-2,-9.492914E-1,3.9007075E-2,-1.0292736E0,3.9651934E-3,-2.6224446E-1,-5.6834556E-2,-3.1123325E-2,1.1482114E-2],"categories":[],"categories_nodes":[],"categories_segments":[],"categories_sizes":[],"default_left":[0,0,0,0,0,0,0,0,0,0,0],"id":20,"left_children":[1,3,-1,5,-1,7,-1,9,-1,-1,-1],"loss_changes":[2.4104393E1,7.308275E0,0E0,1.344305E0,0E0,8.8113403E-1,0E0,6.8479216E-1,0E0,0E0,0E0],"parents":[2147483647,0,0,1,1,3,3,5,5,7,7],"right_children":[2,4,-1,6,-1,8,-1,10,-1,-1,-1],"split_conditions":[1.177E2,1.043E-1,6.2269416E-2,5.169E-1,3.9007075E-2,1.386E-2,3.9651934E-3,6.399E-3,-5.6834556E-2,-3.1123325E-2,1.1482114E-2],"split_indices":[22,6,0,10,0,18,0,17,0,0,0],"split_type":[0,0,0,0,0,0,0,0,0,0,0],"sum_hessian":[2.5587465E1,1.6472527E1,9.114938E0,1.4348124E1,2.124404E0,1.3312316E1,1.0358076E0,2.0580294E0,1.1254287E1,1.0347711E0,1.0232582E0],"tree_param":{"num_deleted":"0","num_feature":"30","num_nodes":"11","size_leaf_vector":"1"}},{"base_weights":[3.5310972E-2,-9.615452E-1,1.1090587E0,-5.548072E-2,1.7512767E-2,7.684915E-4,6.089281E-2],"categories":[],"categories_nodes":[],"categories_segments":[],"categories_sizes":[],"default_left":[0,0,0,0,0,0,0],"id":21,"left_children":[1,3,5,-1,-1,-1,-1],"loss_changes":[2.7185455E1,2.9505625E0,1.4344177E0,0E0,0E0,0E0,0E0],"parents":[2147483647,0,0,1,1,2,2],"right_children":[2,4,6,-1,-1,-1,-1],"split_conditions":[7.594E2,5.588E-2,1.565E1,-5.548072E-2,1.7512767E-2,7.684915E-4,6.089281E-2],"split_indices":[23,7,1,0,0,0,0],"split_type":[0,0,0,0,0,0,0],"sum_hessian":[2.3401833E1,1.2189617E1,1.1212216E1,1.1091765E1,1.0978513E0,1.1177063E0,1.009451E1],"tree_param":{"num_deleted":"0","num_feature":"30","num_nodes":"7","size_leaf_vector":"1"}},{"base_weights":[2.3820517E-3,-9.9494314E-1,9.190484E-1,-5.3953614E-2,-5.8366763E-3,-2.7627755E-2,1.1528053E0,1.0605383E-2,6.2387057E-2],"categories":[],"categories_nodes":[],"categories_segments":[],"categories_sizes":[],"default_left":[0,0,0,0,0,0,0,0,0],"id":22,"left_children":[1,3,5,-1,-1,-1,7,-1,-1],"loss_changes":[2.1856339E1,7.200718E-1,4.9218254E0,0E0,0E0,0E0,7.241974E-1,0E0,0E0],"parents":[2147483647,0,0,1,1,2,2,6,6],"right_children":[2,4,6,-1,-1,-1,8,-1,-1],"split_conditions":[1.565E1,5.381E-2,1.534E1,-5.3953614E-2,-5.8366763E-3,-2.7627755E-2,1.773E-1,1.0605383E-2,6.2387057E-2],"split_indices":[20,7,1,0,0,0,25,0,0],"split_type":[0,0,0,0,0,0,0,0,0],"sum_hessian":[2.190703E1,1.0451018E1,1.1456012E1,9.32865E0,1.1223681E0,1.3833578E0,1.0072654E1,1.2198318E0,8.852822E0],"tree_param":{"num_deleted":"0","num_feature":"30","num_nodes":"9","size_leaf_vector":"1"}},{"base_weights":[3.396933E-2,-8.925402E-1,8.51615E-1,-5.054855E-2,5.039845E-3,-2.3905912E-2,1.0296441E0,-2.639544E-4,5.828935E-2],"categories":[],"categories_nodes":[],"categories_segments":[],"categories_sizes":[],"default_left":[0,0,0,0,0,0,0,0,0],"id":23,"left_children":[1,3,5,-1,-1,-1,7,-1,-1],"loss_changes":[1.8370972E1,1.4413996E0,3.5368214E0,0E0,0E0,0E0,1.6489162E0,0E0,0E0],"parents":[2147483647,0,0,1,1,2,2,6,6],"right_children":[2,4,6,-1,-1,-1,8,-1,-1],"split_conditions":[1.025E2,3.066E1,1.534E1,-5.054855E-2,5.039845E-3,-2.3905912E-2,6.859E-2,-2.639544E-4,5.828935E-2],"split_indices":[22,13,1,0,0,0,6,0,0],"split_type":[0,0,0,0,0,0,0,0,0],"sum_hessian":[2.224694E1,1.0386243E1,1.1860697E1,9.26399E0,1.1222522E0,1.2014233E0,1.0659274E1,1.3509457E0,9.308328E0],"tree_param":{"num_deleted":"0","num_feature":"30","num_nodes":"9","size_leaf_vector":"1"}},{"base_weights":[-3.4882955E-2,-7.0727867E-1,5.840472E-2,-9.1182333E-1,3.0496886E-2,-9.8695016E-1,2.4038646E-3,-2.6846787E-1,-5.4611165E-2,-3.208512E-2,1.2011292E-2],"categories":[],"categories_nodes":[],"categories_segments":[],"categories_sizes":[],"default_left":[0,0,0,0,0,0,0,0,0,0,0],"id":24,"left_children":[1,3,-1,5,-1,7,-1,9,-1,-1,-1],"loss_changes":[2.083208E1,4.9985285E0,0E0,1.1055574E0,0E0,7.395277E-1,0E0,7.3719263E-1,0E0,0E0,0E0],"parents":[2147483647,0,0,1,1,3,3,5,5,7,7],"right_children":[2,4,-1,6,-1,8,-1,10,-1,-1,-1],"split_conditions":[1.177E2,1.043E-1,5.840472E-2,3.398E0,3.0496886E-2,1.386E-2,2.4038646E-3,1.936E1,-5.4611165E-2,-3.208512E-2,1.2011292E-2],"split_indices":[22,6,0,12,0,18,0,13,0,0,0],"split_type":[0,0,0,0,0,0,0,0,0,0,0],"sum_hessian":[2.3732954E1,1.5488067E1,8.244886E0,1.3672665E1,1.815402E0,1.2654109E1,1.0185559E0,2.0708566E0,1.0583253E1,1.0436485E0,1.0272082E0],"tree_param":{"num_deleted":"0","num_feature":"30","num_nodes":"11","size_leaf_vector":"1"}},{"base_weights":[6.561508E-2,-6.601377E-1,5.672204E-2,-8.932677E-1,3.7643608E-2,-5.254531E-2,-1.5797035E-1,-3.661023E-2,2.8991094E-2],"categories":[],"categories_nodes":[],"categories_segments":[],"categories_sizes":[],"default_left":[0,0,0,0,0,0,0,0,0],"id":25,"left_children":[1,3,-1,5,-1,-1,7,-1,-1],"loss_changes":[1.7880405E1,5.213749E0,0E0,1.2586212E0,0E0,0E0,1.8424349E0,0E0,0E0],"parents":[2147483647,0,0,1,1,3,3,6,6],"right_children":[2,4,-1,6,-1,-1,8,-1,-1],"split_conditions":[1.459E-1,4.009E1,5.672204E-2,1.025E2,3.7643608E-2,-5.254531E-2,1.958E-1,-3.661023E-2,2.8991094E-2],"split_indices":[27,13,0,22,0,0,25,0,0],"split_type":[0,0,0,0,0,0,0,0,0],"sum_hessian":[2.1085142E1,1.2785749E1,8.299394E0,1.1290737E1,1.4950125E0,8.944025E0,2.3467119E0,1.3238859E0,1.022826E0],"tree_param":{"num_deleted":"0","num_feature":"30","num_nodes":"9","size_leaf_vector":"1"}},{"base_weights":[2.5041915E-2,-8.7023985E-1,8.2969093E-1,-5.220157E-2,2.0507028E-2,8.967353E-2,5.6300033E-2,-4.8837185E-1,4.070149E-2,-3.610433E-2,-1.6828243E-3],"categories":[],"categories_nodes":[],"categories_segments":[],"categories_sizes":[],"default_left":[0,0,0,0,0,0,0,0,0,0,0],"id":26,"left_children":[1,3,5,-1,-1,7,-1,9,-1,-1,-1],"loss_changes":[1.727306E1,2.9567308E0,2.6645126E0,0E0,0E0,2.362385E0,0E0,3.194812E-1,0E0,0E0,0E0],"parents":[2147483647,0,0,1,1,2,2,5,5,7,7],"right_children":[2,4,6,-1,-1,8,-1,10,-1,-1,-1],"split_conditions":[1.112E-1,3.646E1,1.029E-1,-5.220157E-2,2.0507028E-2,1.773E1,5.6300033E-2,1.87E1,4.070149E-2,-3.610433E-2,-1.6828243E-3],"split_indices":[27,13,6,0,0,20,0,1,0,0,0],"split_type":[0,0,0,0,0,0,0,0,0,0,0],"sum_hessian":[2.1975178E1,1.0363194E1,1.1611982E1,9.287196E0,1.0759988E0,3.6925855E0,7.9193964E0,2.2348957E0,1.4576899E0,1.0877943E0,1.1471014E0],"tree_param":{"num_deleted":"0","num_feature":"30","num_nodes":"11","size_leaf_vector":"1"}},{"base_weights":[-9.570635E-2,-6.836779E-1,5.4516323E-2,-9.4260937E-1,3.4355003E-2,-1.0123457E0,-3.2437288E-3,-7.1645416E-3,-5.389395E-2],"categories":[],"categories_nodes":[],"categories_segments":[],"categories_sizes":[],"default_left":[0,0,0,0,0,0,0,0,0],"id":27,"left_children":[1,3,-1,5,-1,7,-1,-1,-1],"loss_changes":[1.6401117E1,6.19319E0,0E0,7.6452446E-1,0E0,5.572481E-1,0E0,0E0,0E0],"parents":[2147483647,0,0,1,1,3,3,5,5],"right_children":[2,4,-1,6,-1,8,-1,-1,-1],"split_conditions":[1.177E2,1.043E-1,5.4516323E-2,3.391E-1,3.4355003E-2,1.621E-3,-3.2437288E-3,-7.1645416E-3,-5.389395E-2],"split_indices":[22,6,0,25,0,19,0,0,0],"split_type":[0,0,0,0,0,0,0,0,0],"sum_hessian":[2.1450142E1,1.4623937E1,6.8262057E0,1.2563183E1,2.060753E0,1.1496428E1,1.0667558E0,1.0295691E0,1.0466858E1],"tree_param":{"num_deleted":"0","num_feature":"30","num_nodes":"9","size_leaf_vector":"1"}},{"base_weights":[-1.6337113E-3,-6.333352E-1,5.5271354E-2,-8.8115144E-1,5.5428916E-1,-9.714289E-1,3.2808853E-3,3.8406278E-3,3.8092922E-2,-7.513316E-3,-5.1821973E-2],"categories":[],"categories_nodes":[],"categories_segments":[],"categories_sizes":[],"default_left":[0,0,0,0,0,0,0,0,0,0,0],"id":28,"left_children":[1,3,-1,5,7,9,-1,-1,-1,-1,-1],"loss_changes":[1.617296E1,4.8215036E0,0E0,1.1378803E0,2.542305E-1,4.6012115E-1,0E0,0E0,0E0,0E0,0E0],"parents":[2147483647,0,0,1,1,3,3,4,4,5,5],"right_children":[2,4,-1,6,8,10,-1,-1,-1,-1,-1],"split_conditions":[1.177E2,9.964E-2,5.5271354E-2,5.169E-1,1.548E1,3.98E-3,3.2808853E-3,3.8406278E-3,3.8092922E-2,-7.513316E-3,-5.1821973E-2],"split_indices":[22,29,0,10,20,14,0,0,0,0,0],"split_type":[0,0,0,0,0,0,0,0,0,0,0],"sum_hessian":[2.1125193E1,1.372275E1,7.402444E0,1.1567142E1,2.1556082E0,1.0536414E1,1.0307266E0,1.0682788E0,1.0873295E0,1.015891E0,9.520523E0],"tree_param":{"num_deleted":"0","num_feature":"30","num_nodes":"11","size_leaf_vector":"1"}},{"base_weights":[3.5498925E-2,-6.101907E-1,5.4514755E-2,-8.978751E-1,3.9901603E-2,6.986434E-4,-9.87652E-1,-5.2391995E-2,-1.1868927E-2],"categories":[],"categories_nodes":[],"categories_segments":[],"categories_sizes":[],"default_left":[0,0,0,0,0,0,0,0,0],"id":29,"left_children":[1,3,-1,5,-1,-1,7,-1,-1],"loss_changes":[1.4858375E1,6.213104E0,0E0,9.7459793E-1,0E0,0E0,2.3438644E-1,0E0,0E0],"parents":[2147483647,0,0,1,1,3,3,6,6],"right_children":[2,4,-1,6,-1,-1,8,-1,-1],"split_conditions":[1.029E-1,4.009E1,5.4514755E-2,1.621E-3,3.9901603E-2,6.986434E-4,1.231E-1,-5.2391995E-2,-1.1868927E-2],"split_indices":[6,13,0,19,0,0,5,0,0],"split_type":[0,0,0,0,0,0,0,0,0],"sum_hessian":[1.9839365E1,1.2567638E1,7.2717266E0,1.0736663E1,1.8309761E0,1.0380222E0,9.698641E0,8.611227E0,1.0874135E0],"tree_param":{"num_deleted":"0","num_feature":"30","num_nodes":"9","size_leaf_vector":"1"}},{"base_weights":[2.5240475E-2,-4.7647428E-2,7.262018E-1,-2.0961707E-2,9.582146E-1,4.0294192E-4,5.2980073E-2],"categories":[],"categories_nodes":[],"categories_segments":[],"categories_sizes":[],"default_left":[0,0,0,0,0,0,0],"id":30,"left_children":[1,-1,3,-1,5,-1,-1],"loss_changes":[1.4198928E1,0E0,3.6022196E0,0E0,9.8551273E-1,0E0,0E0],"parents":[2147483647,0,0,2,2,4,4],"right_children":[2,-1,4,-1,6,-1,-1],"split_conditions":[1.017E2,-4.7647428E-2,1.959E1,-2.0961707E-2,1.105E-1,4.0294192E-4,5.2980073E-2],"split_indices":[22,0,21,0,27,0,0],"split_type":[0,0,0,0,0,0,0],"sum_hessian":[1.8698751E1,7.6557255E0,1.1043025E1,1.7241307E0,9.318894E0,1.002583E0,8.316312E0],"tree_param":{"num_deleted":"0","num_feature":"30","num_nodes":"7","size_leaf_vector":"1"}},{"base_weights":[2.7385168E-2,-8.1399E-1,8.5581726E-1,-5.0119497E-2,4.9426067E-3,1.0391314E-1,5.2381344E-2,-2.0101985E-2,2.7593736E-2],"categories":[],"categories_nodes":[],"categories_segments":[],"categories_sizes":[],"default_left":[0,0,0,0,0,0,0,0,0],"id":31,"left_children":[1,3,5,-1,-1,7,-1,-1,-1],"loss_changes":[1.4270963E1,1.8488798E0,1.3766756E0,0E0,0E0,9.479748E-1,0E0,0E0,0E0],"parents":[2147483647,0,0,1,1,2,2,5,5],"right_children":[2,4,6,-1,-1,8,-1,-1,-1],"split_conditions":[4.951E-2,7.836E2,1.459E-1,-5.0119497E-2,4.9426067E-3,1.651E1,5.2381344E-2,-2.0101985E-2,2.7593736E-2],"split_indices":[7,23,27,0,0,20,0,0,0],"split_type":[0,0,0,0,0,0,0,0,0],"sum_hessian":[1.8474754E1,9.174425E0,9.300329E0,7.5235534E0,1.6508713E0,2.2036512E0,7.0966783E0,1.0829828E0,1.1206684E0],"tree_param":{"num_deleted":"0","num_feature":"30","num_nodes":"9","size_leaf_vector":"1"}},{"base_weights":[-4.1476106E-3,-5.624856E-1,5.257997E-2,-8.289158E-1,3.164995E-2,-8.535835E-3,-9.3628055E-1,-4.9709333E-3,-5.118472E-2],"categories":[],"categories_nodes":[],"categories_segments":[],"categories_sizes":[],"default_left":[0,0,0,0,0,0,0,0,0],"id":32,"left_children":[1,3,-1,5,-1,-1,7,-1,-1],"loss_changes":[1.2053501E1,4.7832346E0,0E0,6.433935E-1,0E0,0E0,5.9679127E-1,0E0,0E0],"parents":[2147483647,0,0,1,1,3,3,6,6],"right_children":[2,4,-1,6,-1,-1,8,-1,-1],"split_conditions":[1.177E2,1.043E-1,5.257997E-2,1.386E-2,3.164995E-2,-8.535835E-3,8.24E-2,-4.9709333E-3,-5.118472E-2],"split_indices":[22,6,0,18,0,0,25,0,0],"split_type":[0,0,0,0,0,0,0,0,0],"sum_hessian":[1.8444782E1,1.2370033E1,6.0747495E0,1.0366372E1,2.003661E0,1.817046E0,8.549327E0,1.0106968E0,7.53863E0],"tree_param":{"num_deleted":"0","num_feature":"30","num_nodes":"9","size_leaf_vector":"1"}},{"base_weights":[1.9275652E-3,-7.903278E-1,7.78069E-1,-4.8478983E-2,-1.3121627E-1,-1.1288461E-2,5.2753728E-2,1.8883018E-2,-2.8836656E-2],"categories":[],"categories_nodes":[],"categories_segments":[],"categories_sizes":[],"default_left":[0,0,0,0,0,0,0,0,0],"id":33,"left_children":[1,3,5,-1,7,-1,-1,-1,-1],"loss_changes":[1.1023417E1,9.2105436E-1,2.7559466E0,0E0,9.100992E-1,0E0,0E0,0E0,0E0],"parents":[2147483647,0,0,1,1,2,2,4,4],"right_children":[2,4,6,-1,8,-1,-1,-1,-1],"split_conditions":[7.293E-2,2.994E1,1.635E1,-4.8478983E-2,5.7E-2,-1.1288461E-2,5.2753728E-2,1.8883018E-2,-2.8836656E-2],"split_indices":[6,21,20,0,9,0,0,0,0],"split_type":[0,0,0,0,0,0,0,0,0],"sum_hessian":[1.5927061E1,7.8726673E0,8.054394E0,5.8190727E0,2.0535948E0,1.7819093E0,6.272485E0,1.02973E0,1.0238647E0],"tree_param":{"num_deleted":"0","num_feature":"30","num_nodes":"9","size_leaf_vector":"1"}},{"base_weights":[7.358485E-3,-6.7925066E-1,5.15813E-2,-9.330983E-1,2.5339967E-2,-1.039452E-2,-4.9895626E-2],"categories":[],"categories_nodes":[],"categories_segments":[],"categories_sizes":[],"default_left":[0,0,0,0,0,0,0],"id":34,"left_children":[1,3,-1,5,-1,-1,-1],"loss_changes":[1.258233E1,3.6996846E0,0E0,2.2404194E-1,0E0,0E0,0E0],"parents":[2147483647,0,0,1,1,3,3],"right_children":[2,4,-1,6,-1,-1,-1],"split_conditions":[1.177E2,1.02E-1,5.15813E-2,1.365E-2,2.5339967E-2,-1.039452E-2,-4.9895626E-2],"split_indices":[22,6,0,18,0,0,0],"split_type":[0,0,0,0,0,0,0],"sum_hessian":[1.5894752E1,9.717529E0,6.177222E0,8.180045E0,1.5374845E0,1.0162855E0,7.1637597E0],"tree_param":{"num_deleted":"0","num_feature":"30","num_nodes":"7","size_leaf_vector":"1"}},{"base_weights":[6.5024026E-2,-8.035604E-1,8.0743676E-1,-4.7478765E-2,3.8060937E-3,-3.6091537E-3,9.361952E-1,7.26951E-3,5.188739E-2],"categories":[],"categories_nodes":[],"categories_segments":[],"categories_sizes":[],"default_left":[0,0,0,0,0,0,0,0,0],"id":35,"left_children":[1,3,5,-1,-1,-1,7,-1,-1],"loss_changes":[1.1639079E1,1.145505E0,1.1648016E0,0E0,0E0,0E0,5.3353643E-1,0E0,0E0],"parents":[2147483647,0,0,1,1,2,2,6,6],"right_children":[2,4,6,-1,-1,-1,8,-1,-1],"split_conditions":[1.112E-1,3.327E1,7.293E-2,-4.7478765E-2,3.8060937E-3,-3.6091537E-3,1.567E1,7.26951E-3,5.188739E-2],"split_indices":[27,13,6,0,0,0,20,0,0],"split_type":[0,0,0,0,0,0,0,0,0],"sum_hessian":[1.6043169E1,7.355386E0,8.687783E0,6.2401547E0,1.1152312E0,1.1654366E0,7.522347E0,1.1327925E0,6.389554E0],"tree_param":{"num_deleted":"0","num_feature":"30","num_nodes":"9","size_leaf_vector":"1"}},{"base_weights":[2.0792479E-2,-7.6823086E-1,7.326862E-1,-4.5529395E-2,7.663194E-3,-1.2305138E-2,9.0310794E-1,9.08604E-3,5.1329143E-2],"categories":[],"categories_nodes":[],"categories_segments":[],"categories_sizes":[],"default_left":[0,0,0,0,0,0,0,0,0],"id":36,"left_children":[1,3,5,-1,-1,-1,7,-1,-1],"loss_changes":[1.0243056E1,1.2758794E0,1.8188486E0,0E0,0E0,0E0,5.5865765E-1,0E0,0E0],"parents":[2147483647,0,0,1,1,2,2,6,6],"right_children":[2,4,6,-1,-1,-1,8,-1,-1],"split_conditions":[1.025E2,3.029E1,1.926E1,-4.5529395E-2,7.663194E-3,-1.2305138E-2,4.951E-2,9.08604E-3,5.1329143E-2],"split_indices":[22,13,21,0,0,0,7,0,0],"split_type":[0,0,0,0,0,0,0,0,0],"sum_hessian":[1.6233702E1,7.6622047E0,8.571498E0,6.6471553E0,1.0150492E0,1.2052519E0,7.3662457E0,1.4377998E0,5.928446E0],"tree_param":{"num_deleted":"0","num_feature":"30","num_nodes":"9","size_leaf_vector":"1"}},{"base_weights":[7.814446E-2,-4.7996795E-1,5.3159293E-2,-4.753215E-2,2.9785624E-1,-1.8138481E-2,5.7799214E-1,3.3205969E-3,3.705013E-2],"categories":[],"categories_nodes":[],"categories_segments":[],"categories_sizes":[],"default_left":[0,0,0,0,0,0,0,0,0],"id":37,"left_children":[1,3,-1,-1,5,-1,7,-1,-1],"loss_changes":[9.639776E0,4.416157E0,0E0,0E0,1.1382182E0,0E0,2.7676594E-1,0E0,0E0],"parents":[2147483647,0,0,1,1,4,4,6,6],"right_children":[2,4,-1,-1,6,-1,8,-1,-1],"split_conditions":[4.009E1,1.108E-1,5.3159293E-2,-4.753215E-2,1.939E1,-1.8138481E-2,9.288E-2,3.3205969E-3,3.705013E-2],"split_indices":[13,27,0,0,13,0,29,0,0],"split_type":[0,0,0,0,0,0,0,0,0],"sum_hessian":[1.5606189E1,1.0289198E1,5.316991E0,6.271825E0,4.0173726E0,1.1084387E0,2.908934E0,1.0430162E0,1.8659178E0],"tree_param":{"num_deleted":"0","num_feature":"30","num_nodes":"9","size_leaf_vector":"1"}},{"base_weights":[3.884761E-2,-5.4856354E-1,9.20268E-1,-4.659415E-2,1.9639091E-1,8.423744E-3,5.2001726E-2,-2.3259513E-1,3.6214203E-2,-3.0734345E-2,1.318765E-2],"categories":[],"categories_nodes":[],"categories_segments":[],"categories_sizes":[],"default_left":[0,0,0,0,0,0,0,0,0,0,0],"id":38,"left_children":[1,3,5,-1,7,-1,-1,9,-1,-1,-1],"loss_changes":[8.307643E0,2.944348E0,4.0107012E-1,0E0,1.0994904E0,0E0,0E0,7.358218E-1,0E0,0E0,0E0],"parents":[2147483647,0,0,1,1,2,2,4,4,7,7],"right_children":[2,4,6,-1,8,-1,-1,10,-1,-1,-1],"split_conditions":[3.444E1,1.108E-1,7.476E-1,-4.659415E-2,9.646E-2,8.423744E-3,5.2001726E-2,1.87E1,3.6214203E-2,-3.0734345E-2,1.318765E-2],"split_indices":[13,27,11,0,29,0,0,1,0,0,0],"split_type":[0,0,0,0,0,0,0,0,0,0,0],"sum_hessian":[1.4070449E1,8.670046E0,5.4004025E0,5.5588107E0,3.1112356E0,1.0728223E0,4.32758E0,2.0250185E0,1.0862172E0,1.0094889E0,1.0155296E0],"tree_param":{"num_deleted":"0","num_feature":"30","num_nodes":"11","size_leaf_vector":"1"}},{"base_weights":[3.0173546E-2,-5.324775E-1,4.8998035E-2,-7.3301125E-1,3.1385846E-2,-1.5507193E-3,-8.923783E-1,-1.1742669E-2,-4.794451E-2],"categories":[],"categories_nodes":[],"categories_segments":[],"categories_sizes":[],"default_left":[0,0,0,0,0,0,0,0,0],"id":39,"left_children":[1,3,-1,5,-1,-1,7,-1,-1],"loss_changes":[8.680174E0,2.841383E0,0E0,1.0002284E0,0E0,0E0,1.0070276E-1,0E0,0E0],"parents":[2147483647,0,0,1,1,3,3,6,6],"right_children":[2,4,-1,6,-1,-1,8,-1,-1],"split_conditions":[1.043E-1,1.773E1,4.8998035E-2,1.104E-2,3.1385846E-2,-1.5507193E-3,1.365E-2,-1.1742669E-2,-4.794451E-2],"split_indices":[6,20,0,15,0,0,18,0,0],"split_type":[0,0,0,0,0,0,0,0,0],"sum_hessian":[1.42664385E1,9.235015E0,5.0314236E0,8.187966E0,1.0470489E0,1.7359369E0,6.4520297E0,1.0089295E0,5.4431E0],"tree_param":{"num_deleted":"0","num_feature":"30","num_nodes":"9","size_leaf_vector":"1"}},{"base_weights":[-1.1576272E-2,-5.5068135E-1,4.7528986E-2,-7.10161E-1,2.4000108E-2,-1.327623E-1,-4.8744246E-2,-4.9902564E-1,2.6110146E-2,-5.9302202E-3,-3.1003714E-2],"categories":[],"categories_nodes":[],"categories_segments":[],"categories_sizes":[],"default_left":[0,0,0,0,0,0,0,0,0,0,0],"id":40,"left_children":[1,3,-1,5,-1,7,-1,9,-1,-1,-1],"loss_changes":[8.763469E0,2.118468E0,0E0,1.3637085E0,0E0,1.2749498E0,0E0,7.488555E-2,0E0,0E0,0E0],"parents":[2147483647,0,0,1,1,3,3,5,5,7,7],"right_children":[2,4,-1,6,-1,8,-1,10,-1,-1,-1],"split_conditions":[1.459E-1,1.773E1,4.7528986E-2,1.581E-2,2.4000108E-2,9.867E-2,-4.8744246E-2,1.612E0,2.6110146E-2,-5.9302202E-3,-3.1003714E-2],"split_indices":[27,20,0,18,0,4,0,12,0,0,0],"split_type":[0,0,0,0,0,0,0,0,0,0,0],"sum_hessian":[1.4885776E1,9.814358E0,5.0714183E0,8.768561E0,1.0457958E0,3.2284307E0,5.540131E0,2.223253E0,1.0051777E0,1.0145669E0,1.208686E0],"tree_param":{"num_deleted":"0","num_feature":"30","num_nodes":"11","size_leaf_vector":"1"}},{"base_weights":[-3.7098333E-2,-7.7720684E-1,6.489457E-1,-4.6577174E-2,4.673983E-3,-2.0587882E-2,8.635933E-1,5.236132E-3,4.92378E-2],"categories":[],"categories_nodes":[],"categories_segments":[],"categories_sizes":[],"default_left":[0,0,0,0,0,0,0,0,0],"id":41,"left_children":[1,3,5,-1,-1,-1,7,-1,-1],"loss_changes":[7.946631E0,1.0957174E0,2.2115054E0,0E0,0E0,0E0,5.499201E-1,0E0,0E0],"parents":[2147483647,0,0,1,1,2,2,6,6],"right_children":[2,4,6,-1,-1,-1,8,-1,-1],"split_conditions":[1.025E2,4.203E-1,1.556E1,-4.6577174E-2,4.673983E-3,-2.0587882E-2,6.877E-2,5.236132E-3,4.92378E-2],"split_indices":[22,10,1,0,0,0,6,0,0],"split_type":[0,0,0,0,0,0,0,0,0],"sum_hessian":[1.365743E1,6.505921E0,7.151509E0,5.4669595E0,1.0389609E0,1.0490791E0,6.10243E0,1.0968583E0,5.0055714E0],"tree_param":{"num_deleted":"0","num_feature":"30","num_nodes":"9","size_leaf_vector":"1"}},{"base_weights":[-3.4602308E-3,-4.506106E-2,5.4698485E-1,-2.6733508E-2,7.609158E-1,-6.965298E-3,4.524263E-2],"categories":[],"categories_nodes":[],"categories_segments":[],"categories_sizes":[],"default_left":[0,0,0,0,0,0,0],"id":42,"left_children":[1,-1,3,-1,5,-1,-1],"loss_changes":[7.4993315E0,0E0,2.584655E0,0E0,1.1976533E0,0E0,0E0],"parents":[2147483647,0,0,2,2,4,4],"right_children":[2,-1,4,-1,6,-1,-1],"split_conditions":[3.279E-2,-4.506106E-2,1.997E1,-2.6733508E-2,2.577E-1,-6.965298E-3,4.524263E-2],"split_indices":[7,0,21,0,10,0,0],"split_type":[0,0,0,0,0,0,0],"sum_hessian":[1.3178124E1,4.7666273E0,8.411497E0,1.1413679E0,7.2701297E0,1.0066191E0,6.2635107E0],"tree_param":{"num_deleted":"0","num_feature":"30","num_nodes":"7","size_leaf_vector":"1"}},{"base_weights":[-3.4881018E-2,-5.086947E-1,4.1364156E-2,1.4046523E-1,-4.414759E-2,-2.0511776E-2,3.4585446E-2],"categories":[],"categories_nodes":[],"categories_segments":[],"categories_sizes":[],"default_left":[0,0,0,0,0,0,0],"id":43,"left_children":[1,3,-1,5,-1,-1,-1],"loss_changes":[6.101976E0,2.45494E0,0E0,1.6107469E0,0E0,0E0,0E0],"parents":[2147483647,0,0,1,1,3,3],"right_children":[2,4,-1,6,-1,-1,-1],"split_conditions":[1.459E-1,1.581E-2,4.1364156E-2,1.865E0,-4.414759E-2,-2.0511776E-2,3.4585446E-2],"split_indices":[27,18,0,12,0,0,0],"split_type":[0,0,0,0,0,0,0],"sum_hessian":[1.2907147E1,8.594116E0,4.313031E0,3.3712552E0,5.222861E0,1.8144212E0,1.5568341E0],"tree_param":{"num_deleted":"0","num_feature":"30","num_nodes":"7","size_leaf_vector":"1"}},{"base_weights":[3.7409753E-2,-4.810985E-1,4.224109E-2,-6.3090754E-1,1.4498062E-2,-4.482415E-2,9.4014205E-2,-7.379971E-3,1.4386958E-2],"categories":[],"categories_nodes":[],"categories_segments":[],"categories_sizes":[],"default_left":[0,0,0,0,0,0,0,0,0],"id":44,"left_children":[1,3,-1,5,-1,-1,7,-1,-1],"loss_changes":[6.2181425E0,1.233002E0,0E0,1.6103113E0,0E0,0E0,1.8431163E-1,0E0,0E0],"parents":[2147483647,0,0,1,1,3,3,6,6],"right_children":[2,4,-1,6,-1,-1,8,-1,-1],"split_conditions":[1.425E-1,4.009E1,4.224109E-2,1.108E-1,1.4498062E-2,-4.482415E-2,1.228E-1,-7.379971E-3,1.4386958E-2],"split_indices":[27,13,0,27,0,0,24,0,0],"split_type":[0,0,0,0,0,0,0,0,0],"sum_hessian":[1.28820095E1,8.090533E0,4.791476E0,6.9265428E0,1.163991E0,4.8961678E0,2.0303748E0,1.0094668E0,1.020908E0],"tree_param":{"num_deleted":"0","num_feature":"30","num_nodes":"9","size_leaf_vector":"1"}},{"base_weights":[-1.6727254E-2,-5.185985E-1,4.163174E-2,1.09780096E-1,-8.317762E-1,-1.8288417E-2,3.0115558E-2,-4.579417E-2,-1.0113285E-2],"categories":[],"categories_nodes":[],"categories_segments":[],"categories_sizes":[],"default_left":[0,0,0,0,0,0,0,0,0],"id":45,"left_children":[1,3,-1,5,7,-1,-1,-1,-1],"loss_changes":[6.385783E0,1.9403918E0,0E0,1.1592284E0,1.5293407E-1,0E0,0E0,0E0,0E0],"parents":[2147483647,0,0,1,1,3,3,4,4],"right_children":[2,4,-1,6,8,-1,-1,-1,-1],"split_conditions":[1.459E-1,1.581E-2,4.163174E-2,1.865E0,6.845E2,-1.8288417E-2,3.0115558E-2,-4.579417E-2,-1.0113285E-2],"split_indices":[27,18,0,12,3,0,0,0,0],"split_type":[0,0,0,0,0,0,0,0,0],"sum_hessian":[1.2967615E1,8.396007E0,4.571608E0,3.0086782E0,5.3873286E0,1.6616714E0,1.3470067E0,4.351079E0,1.0362496E0],"tree_param":{"num_deleted":"0","num_feature":"30","num_nodes":"9","size_leaf_vector":"1"}},{"base_weights":[4.746868E-2,-7.4800587E-1,6.348902E-1,-4.530496E-3,-4.317549E-2,-5.1975134E-3,4.1674495E-2],"categories":[],"categories_nodes":[],"categories_segments":[],"categories_sizes":[],"default_left":[0,0,0,0,0,0,0],"id":46,"left_children":[1,3,5,-1,-1,-1,-1],"loss_changes":[6.506743E0,3.7296677E-1,1.2555404E0,0E0,0E0,0E0,0E0],"parents":[2147483647,0,0,1,1,2,2],"right_children":[2,4,6,-1,-1,-1,-1],"split_conditions":[1.108E-1,8.862E-2,1.548E1,-4.530496E-3,-4.317549E-2,-5.1975134E-3,4.1674495E-2],"split_indices":[27,25,20,0,0,0,0],"split_type":[0,0,0,0,0,0,0],"sum_hessian":[1.190844E1,4.9423018E0,6.9661384E0,1.0052645E0,3.937037E0,1.5767646E0,5.389374E0],"tree_param":{"num_deleted":"0","num_feature":"30","num_nodes":"7","size_leaf_vector":"1"}},{"base_weights":[-1.2681746E-1,-7.132939E-1,4.4910442E-2,-4.638517E-2,2.1923339E-2],"categories":[],"categories_nodes":[],"categories_segments":[],"categories_sizes":[],"default_left":[0,0,0,0,0],"id":47,"left_children":[1,3,-1,-1,-1],"loss_changes":[8.198698E0,2.5192494E0,0E0,0E0,0E0],"parents":[2147483647,0,0,1,1],"right_children":[2,4,-1,-1,-1],"split_conditions":[1.043E-1,1.172E2,4.4910442E-2,-4.638517E-2,2.1923339E-2],"split_indices":[6,22,0,0,0],"split_type":[0,0,0,0,0],"sum_hessian":[1.1572508E1,7.5543513E0,4.018157E0,6.5327606E0,1.0215907E0],"tree_param":{"num_deleted":"0","num_feature":"30","num_nodes":"5","size_leaf_vector":"1"}},{"base_weights":[-6.1619215E-2,-7.297798E-1,5.23224E-1,-4.344799E-2,-3.2555798E-4,-5.3106986E-2,4.758051E-2,-2.80024E-2,2.088756E-2],"categories":[],"categories_nodes":[],"categories_segments":[],"categories_sizes":[],"default_left":[0,0,0,0,0,0,0,0,0],"id":48,"left_children":[1,3,5,-1,-1,7,-1,-1,-1],"loss_changes":[5.3189054E0,6.3000226E-1,1.8576865E0,0E0,0E0,1.2049887E0,0E0,0E0,0E0],"parents":[2147483647,0,0,1,1,2,2,5,5],"right_children":[2,4,6,-1,-1,8,-1,-1,-1],"split_conditions":[1.112E-1,4.505E-1,2.726E1,-4.344799E-2,-3.2555798E-4,1.635E1,4.758051E-2,-2.80024E-2,2.088756E-2],"split_indices":[27,10,21,0,0,20,0,0,0],"split_type":[0,0,0,0,0,0,0,0,0],"sum_hessian":[1.1634227E1,5.3146386E0,6.3195887E0,4.288047E0,1.0265919E0,3.0680313E0,3.2515574E0,1.3861922E0,1.681839E0],"tree_param":{"num_deleted":"0","num_feature":"30","num_nodes":"9","size_leaf_vector":"1"}},{"base_weights":[-7.828277E-2,-5.513518E-1,4.242341E-2,-7.5390035E-1,1.7688036E-2,-4.4745527E-2,2.3787546E-3],"categories":[],"categories_nodes":[],"categories_segments":[],"categories_sizes":[],"default_left":[0,0,0,0,0,0,0],"id":49,"left_children":[1,3,-1,5,-1,-1,-1],"loss_changes":[5.64349E0,1.8106778E0,0E0,8.5643053E-1,0E0,0E0,0E0],"parents":[2147483647,0,0,1,1,3,3],"right_children":[2,4,-1,6,-1,-1,-1],"split_conditions":[1.177E2,9.74E-2,4.242341E-2,4.956E-1,1.7688036E-2,-4.4745527E-2,2.3787546E-3],"split_indices":[22,29,0,10,0,0,0],"split_type":[0,0,0,0,0,0,0],"sum_hessian":[1.0805388E1,7.4218855E0,3.3835034E0,6.2012234E0,1.2206621E0,5.1742887E0,1.0269343E0],"tree_param":{"num_deleted":"0","num_feature":"30","num_nodes":"7","size_leaf_vector":"1"}},{"base_weights":[9.415669E-2,-4.8737478E-1,7.870294E-1,7.669153E-3,-7.3853225E-1,7.6562017E-3,4.4390198E-2,-4.2401467E-2,-7.1910764E-3],"categories":[],"categories_nodes":[],"categories_segments":[],"categories_sizes":[],"default_left":[0,0,0,0,0,0,0,0,0],"id":50,"left_children":[1,3,5,-1,7,-1,-1,-1,-1],"loss_changes":[5.1430697E0,1.2461874E0,2.3281646E-1,0E0,2.1856499E-1,0E0,0E0,0E0,0E0],"parents":[2147483647,0,0,1,1,2,2,4,4],"right_children":[2,4,6,-1,8,-1,-1,-1,-1],"split_conditions":[4.951E-2,1.104E-2,9.447E-2,7.669153E-3,1.428E-1,7.6562017E-3,4.4390198E-2,-4.2401467E-2,-7.1910764E-3],"split_indices":[7,15,6,0,24,0,0,0,0],"split_type":[0,0,0,0,0,0,0,0,0],"sum_hessian":[1.0812283E1,6.0397115E0,4.772571E0,1.8103659E0,4.2293453E0,1.0002348E0,3.7723365E0,3.2120044E0,1.017341E0],"tree_param":{"num_deleted":"0","num_feature":"30","num_nodes":"9","size_leaf_vector":"1"}},{"base_weights":[-2.04373E-3,-4.2084447E-1,4.305564E-2,-6.646635E-1,2.1878121E-2,4.632411E-3,-4.3707076E-2],"categories":[],"categories_nodes":[],"categories_segments":[],"categories_sizes":[],"default_left":[0,0,0,0,0,0,0],"id":51,"left_children":[1,3,-1,5,-1,-1,-1],"loss_changes":[4.695245E0,2.120512E0,0E0,1.22403E0,0E0,0E0,0E0],"parents":[2147483647,0,0,1,1,3,3],"right_children":[2,4,-1,6,-1,-1,-1],"split_conditions":[1.177E2,1.043E-1,4.305564E-2,1.104E-2,2.1878121E-2,4.632411E-3,-4.3707076E-2],"split_indices":[22,6,0,15,0,0,0],"split_type":[0,0,0,0,0,0,0],"sum_hessian":[1.0986066E1,7.742073E0,3.2439933E0,6.2052546E0,1.5368186E0,1.4653591E0,4.7398953E0],"tree_param":{"num_deleted":"0","num_feature":"30","num_nodes":"7","size_leaf_vector":"1"}},{"base_weights":[2.0350013E-3,-6.498979E-1,5.21812E-1,-4.148705E-2,3.938125E-3,-1.8180583E-2,7.6536185E-1,1.0215885E-2,4.6879325E-2],"categories":[],"categories_nodes":[],"categories_segments":[],"categories_sizes":[],"default_left":[0,0,0,0,0,0,0,0,0],"id":52,"left_children":[1,3,5,-1,-1,-1,7,-1,-1],"loss_changes":[4.269712E0,7.980125E-1,1.7896473E0,0E0,0E0,0E0,3.706677E-1,0E0,0E0],"parents":[2147483647,0,0,1,1,2,2,6,6],"right_children":[2,4,6,-1,-1,-1,8,-1,-1],"split_conditions":[1.112E-1,3.444E1,7.259E2,-4.148705E-2,3.938125E-3,-1.8180583E-2,8.208E-1,1.0215885E-2,4.6879325E-2],"split_indices":[27,13,23,0,0,0,11,0,0],"split_type":[0,0,0,0,0,0,0,0,0],"sum_hessian":[1.0599454E1,4.5909243E0,6.0085297E0,3.570866E0,1.0200584E0,1.1898549E0,4.8186746E0,1.6452861E0,3.1733887E0],"tree_param":{"num_deleted":"0","num_feature":"30","num_nodes":"9","size_leaf_vector":"1"}},{"base_weights":[3.897577E-2,-4.6709293E-1,4.3058347E-2,-6.146343E-1,1.067683E-2,-4.2160627E-2,7.296511E-4],"categories":[],"categories_nodes":[],"categories_segments":[],"categories_sizes":[],"default_left":[0,0,0,0,0,0,0],"id":53,"left_children":[1,3,-1,5,-1,-1,-1],"loss_changes":[5.129659E0,9.0259945E-1,0E0,9.573395E-1,0E0,0E0,0E0],"parents":[2147483647,0,0,1,1,3,3],"right_children":[2,4,-1,6,-1,-1,-1],"split_conditions":[1.459E-1,4.009E1,4.3058347E-2,1.025E2,1.067683E-2,-4.2160627E-2,7.296511E-4],"split_indices":[27,13,0,22,0,0,0],"split_type":[0,0,0,0,0,0,0],"sum_hessian":[1.03616495E1,6.6811886E0,3.680461E0,5.570601E0,1.1105874E0,3.8367538E0,1.7338473E0],"tree_param":{"num_deleted":"0","num_feature":"30","num_nodes":"7","size_leaf_vector":"1"}},{"base_weights":[-1.2806158E-1,-5.5011064E-1,4.137875E-2,-7.397155E-1,1.594658E-2,-4.655632E-2,8.373538E-3],"categories":[],"categories_nodes":[],"categories_segments":[],"categories_sizes":[],"default_left":[0,0,0,0,0,0,0],"id":54,"left_children":[1,3,-1,5,-1,-1,-1],"loss_changes":[4.965172E0,1.6129422E0,0E0,1.3995016E0,0E0,0E0,0E0],"parents":[2147483647,0,0,1,1,3,3],"right_children":[2,4,-1,6,-1,-1,-1],"split_conditions":[1.177E2,9.964E-2,4.137875E-2,1.809E0,1.594658E-2,-4.655632E-2,8.373538E-3],"split_indices":[22,29,0,11,0,0,0],"split_type":[0,0,0,0,0,0,0],"sum_hessian":[1.0181821E1,7.3570094E0,2.8248112E0,6.1615233E0,1.1954864E0,5.0661964E0,1.0953267E0],"tree_param":{"num_deleted":"0","num_feature":"30","num_nodes":"7","size_leaf_vector":"1"}},{"base_weights":[-8.806043E-2,-5.0123775E-1,3.9936516E-2,-4.3426845E-2,-8.0087796E-2,-4.3652153E-1,1.9810745E-2,-4.2007845E-3,-2.8252065E-2],"categories":[],"categories_nodes":[],"categories_segments":[],"categories_sizes":[],"default_left":[0,0,0,0,0,0,0,0,0],"id":55,"left_children":[1,3,-1,-1,5,7,-1,-1,-1],"loss_changes":[4.1153207E0,1.095383E0,0E0,0E0,9.5557284E-1,9.3536675E-2,0E0,0E0,0E0],"parents":[2147483647,0,0,1,1,4,4,5,5],"right_children":[2,4,-1,-1,6,8,-1,-1,-1],"split_conditions":[1.177E2,1.805E1,3.9936516E-2,-4.3426845E-2,1.108E-1,6.669E-2,1.9810745E-2,-4.2007845E-3,-2.8252065E-2],"split_indices":[22,1,0,0,27,5,0,0,0],"split_type":[0,0,0,0,0,0,0,0,0],"sum_hessian":[9.139051E0,6.530914E0,2.6081378E0,2.92106E0,3.6098535E0,2.1125102E0,1.4973434E0,1.0062556E0,1.1062545E0],"tree_param":{"num_deleted":"0","num_feature":"30","num_nodes":"9","size_leaf_vector":"1"}},{"base_weights":[7.6584935E-2,-5.602913E-1,5.543715E-1,-4.020795E-2,1.1261571E-2,-1.4772164E-2,7.687615E-1,9.206341E-3,4.41163E-2],"categories":[],"categories_nodes":[],"categories_segments":[],"categories_sizes":[],"default_left":[0,0,0,0,0,0,0,0,0],"id":56,"left_children":[1,3,5,-1,-1,-1,7,-1,-1],"loss_changes":[3.6629488E0,1.181007E0,1.4655359E0,0E0,0E0,0E0,2.1635342E-1,0E0,0E0],"parents":[2147483647,0,0,1,1,2,2,6,6],"right_children":[2,4,6,-1,-1,-1,8,-1,-1],"split_conditions":[1.017E2,1.368E-2,2.049E1,-4.020795E-2,1.1261571E-2,-1.4772164E-2,5.069E-2,9.206341E-3,4.41163E-2],"split_indices":[22,17,21,0,0,0,7,0,0],"split_type":[0,0,0,0,0,0,0,0,0],"sum_hessian":[1.0016891E1,4.2195997E0,5.797291E0,3.2018518E0,1.017748E0,1.0917335E0,4.7055573E0,1.1917449E0,3.5138123E0],"tree_param":{"num_deleted":"0","num_feature":"30","num_nodes":"9","size_leaf_vector":"1"}},{"base_weights":[7.1085533E-3,-4.1079402E-1,4.0904976E-2,-5.8043504E-1,9.2215305E-3,-3.9828293E-2,-4.1559893E-3],"categories":[],"categories_nodes":[],"categories_segments":[],"categories_sizes":[],"default_left":[0,0,0,0,0,0,0],"id":57,"left_children":[1,3,-1,5,-1,-1,-1],"loss_changes":[3.8192954E0,8.5913444E-1,0E0,5.8272314E-1,0E0,0E0,0E0],"parents":[2147483647,0,0,1,1,3,3],"right_children":[2,4,-1,6,-1,-1,-1],"split_conditions":[1.177E2,3.376E1,4.0904976E-2,1.108E-1,9.2215305E-3,-3.9828293E-2,-4.1559893E-3],"split_indices":[22,13,0,27,0,0,0],"split_type":[0,0,0,0,0,0,0],"sum_hessian":[9.277572E0,6.448259E0,2.8293128E0,5.037423E0,1.4108357E0,3.0919464E0,1.9454769E0],"tree_param":{"num_deleted":"0","num_feature":"30","num_nodes":"7","size_leaf_vector":"1"}},{"base_weights":[4.82609E-2,-5.202618E-1,5.3851247E-1,-3.786739E-2,3.8180917E-3,-8.719387E-3,7.432173E-1,7.212225E-3,4.3961976E-2],"categories":[],"categories_nodes":[],"categories_segments":[],"categories_sizes":[],"default_left":[0,0,0,0,0,0,0,0,0],"id":58,"left_children":[1,3,5,-1,-1,-1,7,-1,-1],"loss_changes":[2.947302E0,7.565352E-1,9.511758E-1,0E0,0E0,0E0,2.4500847E-1,0E0,0E0],"parents":[2147483647,0,0,1,1,2,2,6,6],"right_children":[2,4,6,-1,-1,-1,8,-1,-1],"split_conditions":[1.112E-1,3.323E-2,1.548E1,-3.786739E-2,3.8180917E-3,-8.719387E-3,8.208E-1,7.212225E-3,4.3961976E-2],"split_indices":[27,7,20,0,0,0,11,0,0],"split_type":[0,0,0,0,0,0,0,0,0],"sum_hessian":[8.569255E0,3.9395368E0,4.6297183E0,2.6264503E0,1.3130864E0,1.0658646E0,3.5638535E0,1.0408643E0,2.5229893E0],"tree_param":{"num_deleted":"0","num_feature":"30","num_nodes":"9","size_leaf_vector":"1"}},{"base_weights":[2.6137526E-3,-3.6995062E-1,3.6777895E-2,-5.8214444E-1,1.8320706E-2,9.005144E-3,-4.097619E-2],"categories":[],"categories_nodes":[],"categories_segments":[],"categories_sizes":[],"default_left":[0,0,0,0,0,0,0],"id":59,"left_children":[1,3,-1,5,-1,-1,-1],"loss_changes":[3.0660298E0,1.3771933E0,0E0,1.2637854E0,0E0,0E0,0E0],"parents":[2147483647,0,0,1,1,3,3],"right_children":[2,4,-1,6,-1,-1,-1],"split_conditions":[1.773E1,9.964E-2,3.6777895E-2,1.104E-2,1.8320706E-2,9.005144E-3,-4.097619E-2],"split_indices":[20,29,0,15,0,0,0],"split_type":[0,0,0,0,0,0,0],"sum_hessian":[9.231522E0,6.4487815E0,2.78274E0,5.168764E0,1.2800174E0,1.2847137E0,3.8840504E0],"tree_param":{"num_deleted":"0","num_feature":"30","num_nodes":"7","size_leaf_vector":"1"}},{"base_weights":[8.89637E-2,-5.7649463E-1,5.8035254E-1,-3.8793713E-2,3.5788633E-3,-1.1188451E-2,7.9265684E-1,1.398197E-2,4.4749916E-2],"categories":[],"categories_nodes":[],"categories_segments":[],"categories_sizes":[],"default_left":[0,0,0,0,0,0,0,0,0],"id":60,"left_children":[1,3,5,-1,-1,-1,7,-1,-1],"loss_changes":[3.517224E0,6.5454745E-1,1.21825E0,0E0,0E0,0E0,1.4531851E-2,0E0,0E0],"parents":[2147483647,0,0,1,1,2,2,6,6],"right_children":[2,4,6,-1,-1,-1,8,-1,-1],"split_conditions":[1.025E2,2.643E1,1.112E-1,-3.8793713E-2,3.5788633E-3,-1.1188451E-2,8.208E-1,1.398197E-2,4.4749916E-2],"split_indices":[22,13,27,0,0,0,11,0,0],"split_type":[0,0,0,0,0,0,0,0,0],"sum_hessian":[8.732923E0,3.6358776E0,5.0970445E0,2.6296582E0,1.0062195E0,1.0533574E0,4.0436873E0,1.2932578E0,2.7504294E0],"tree_param":{"num_deleted":"0","num_feature":"30","num_nodes":"9","size_leaf_vector":"1"}},{"base_weights":[-2.211829E-2,-3.729807E-2,4.7129294E-1,-1.0847057E-2,6.640412E-1,3.7102413E-3,4.2165156E-2],"categories":[],"categories_nodes":[],"categories_segments":[],"categories_sizes":[],"default_left":[0,0,0,0,0,0,0],"id":61,"left_children":[1,-1,3,-1,5,-1,-1],"loss_changes":[3.8451602E0,0E0,9.9698186E-1,0E0,4.94555E-1,0E0,0E0],"parents":[2147483647,0,0,2,2,4,4],"right_children":[2,-1,4,-1,6,-1,-1],"split_conditions":[1.017E2,-3.729807E-2,2.086E1,-1.0847057E-2,5.069E-2,3.7102413E-3,4.2165156E-2],"split_indices":[22,0,21,0,7,0,0],"split_type":[0,0,0,0,0,0,0],"sum_hessian":[8.781805E0,3.352209E0,5.429596E0,1.1604687E0,4.269127E0,1.3246143E0,2.9445128E0],"tree_param":{"num_deleted":"0","num_feature":"30","num_nodes":"7","size_leaf_vector":"1"}},{"base_weights":[2.1174753E-2,-4.1485515E-1,3.5704814E-2,1.7384918E-2,-6.911974E-1,-4.10384E-2,-4.3035396E-3],"categories":[],"categories_nodes":[],"categories_segments":[],"categories_sizes":[],"default_left":[0,0,0,0,0,0,0],"id":62,"left_children":[1,3,-1,-1,5,-1,-1],"loss_changes":[3.1242597E0,1.5842377E0,0E0,0E0,3.226285E-1,0E0,0E0],"parents":[2147483647,0,0,1,1,4,4],"right_children":[2,4,-1,-1,6,-1,-1],"split_conditions":[1.425E-1,1.104E-2,3.5704814E-2,1.7384918E-2,2.154E1,-4.10384E-2,-4.3035396E-3],"split_indices":[27,15,0,0,1,0,0],"split_type":[0,0,0,0,0,0,0],"sum_hessian":[8.360114E0,5.377529E0,2.982585E0,1.3617172E0,4.015812E0,3.014076E0,1.0017359E0],"tree_param":{"num_deleted":"0","num_feature":"30","num_nodes":"7","size_leaf_vector":"1"}},{"base_weights":[2.8304497E-2,-3.0445883E-1,3.8167987E-2,-6.516843E-1,1.7356287E-1,-4.752274E-3,-3.9292898E-2,-8.407738E-3,2.8114853E-2],"categories":[],"categories_nodes":[],"categories_segments":[],"categories_sizes":[],"default_left":[0,0,0,0,0,0,0,0,0],"id":63,"left_children":[1,3,-1,5,7,-1,-1,-1,-1],"loss_changes":[2.5745316E0,1.32581E0,0E0,2.57097E-1,6.0781175E-1,0E0,0E0,0E0,0E0],"parents":[2147483647,0,0,1,1,3,3,4,4],"right_children":[2,4,-1,6,8,-1,-1,-1,-1],"split_conditions":[1.177E2,9.968E-2,3.8167987E-2,1.612E0,9.333E-2,-4.752274E-3,-3.9292898E-2,-8.407738E-3,2.8114853E-2],"split_indices":[22,4,0,12,29,0,0,0,0],"split_type":[0,0,0,0,0,0,0,0,0],"sum_hessian":[8.575329E0,6.3062553E0,2.2690732E0,3.4424405E0,2.8638148E0,1.0004218E0,2.4420187E0,1.8260508E0,1.0377641E0],"tree_param":{"num_deleted":"0","num_feature":"30","num_nodes":"9","size_leaf_vector":"1"}},{"base_weights":[-9.04956E-2,-5.035508E-1,3.3696637E-2,-7.210531E-1,1.6027283E-2,-4.37358E-2,-1.8192098E-3],"categories":[],"categories_nodes":[],"categories_segments":[],"categories_sizes":[],"default_left":[0,0,0,0,0,0,0],"id":64,"left_children":[1,3,-1,5,-1,-1,-1],"loss_changes":[3.148582E0,1.3690175E0,0E0,5.2897716E-1,0E0,0E0,0E0],"parents":[2147483647,0,0,1,1,3,3],"right_children":[2,4,-1,6,-1,-1,-1],"split_conditions":[8.883E2,9.964E-2,3.3696637E-2,1.705E0,1.6027283E-2,-4.37358E-2,-1.8192098E-3],"split_indices":[23,29,0,11,0,0,0],"split_type":[0,0,0,0,0,0,0],"sum_hessian":[7.896952E0,5.3482966E0,2.5486553E0,4.3304157E0,1.0178809E0,3.3099713E0,1.0204445E0],"tree_param":{"num_deleted":"0","num_feature":"30","num_nodes":"7","size_leaf_vector":"1"}},{"base_weights":[3.0118523E-3,-3.6104175E-1,3.3094116E-2,1.9244058E-2,-6.5357494E-1,-4.1252963E-2,-4.3606968E-3],"categories":[],"categories_nodes":[],"categories_segments":[],"categories_sizes":[],"default_left":[0,0,0,0,0,0,0],"id":65,"left_children":[1,3,-1,-1,5,-1,-1],"loss_changes":[2.350828E0,1.6301838E0,0E0,0E0,4.048009E-1,0E0,0E0],"parents":[2147483647,0,0,1,1,4,4],"right_children":[2,4,-1,-1,6,-1,-1],"split_conditions":[1.459E-1,1.104E-2,3.3094116E-2,1.9244058E-2,8.124E2,-4.1252963E-2,-4.3606968E-3],"split_indices":[27,15,0,0,23,0,0],"split_type":[0,0,0,0,0,0,0],"sum_hessian":[7.804403E0,5.318009E0,2.486394E0,1.4091556E0,3.908853E0,2.6497748E0,1.2590783E0],"tree_param":{"num_deleted":"0","num_feature":"30","num_nodes":"7","size_leaf_vector":"1"}},{"base_weights":[-1.273522E-3,-3.0551592E-1,4.110681E-2,-5.8513594E-1,2.4451701E-2,1.0021418E-2,-4.350955E-2],"categories":[],"categories_nodes":[],"categories_segments":[],"categories_sizes":[],"default_left":[0,0,0,0,0,0,0],"id":66,"left_children":[1,3,-1,5,-1,-1,-1],"loss_changes":[2.490405E0,1.8982145E0,0E0,1.4782109E0,0E0,0E0,0E0],"parents":[2147483647,0,0,1,1,3,3],"right_children":[2,4,-1,6,-1,-1,-1],"split_conditions":[5.495E-1,1.459E-1,4.110681E-2,1.461E-2,2.4451701E-2,1.0021418E-2,-4.350955E-2],"split_indices":[10,27,0,18,0,0,0],"split_type":[0,0,0,0,0,0,0],"sum_hessian":[7.9384637E0,6.2559204E0,1.6825432E0,4.8223796E0,1.433541E0,1.3630148E0,3.4593647E0],"tree_param":{"num_deleted":"0","num_feature":"30","num_nodes":"7","size_leaf_vector":"1"}},{"base_weights":[5.9344023E-3,-3.7600422E-1,3.7963398E-2,-5.396483E-1,1.2705982E-2,1.06435865E-2,-4.0123075E-2],"categories":[],"categories_nodes":[],"categories_segments":[],"categories_sizes":[],"default_left":[0,0,0,0,0,0,0],"id":67,"left_children":[1,3,-1,5,-1,-1,-1],"loss_changes":[2.8223727E0,8.093992E-1,0E0,1.2576917E0,0E0,0E0,0E0],"parents":[2147483647,0,0,1,1,3,3],"right_children":[2,4,-1,6,-1,-1,-1],"split_conditions":[1.177E2,1.043E-1,3.7963398E-2,1.104E-2,1.2705982E-2,1.06435865E-2,-4.0123075E-2],"split_indices":[22,6,0,15,0,0,0],"split_type":[0,0,0,0,0,0,0],"sum_hessian":[7.8169794E0,5.519489E0,2.2974906E0,4.4955673E0,1.0239217E0,1.2128391E0,3.2827282E0],"tree_param":{"num_deleted":"0","num_feature":"30","num_nodes":"7","size_leaf_vector":"1"}},{"base_weights":[-6.029361E-3,-3.5777903E-1,3.662642E-2,-3.838457E-2,1.9881417E-1,3.1214312E-2,-1.1758446E-2],"categories":[],"categories_nodes":[],"categories_segments":[],"categories_sizes":[],"default_left":[0,0,0,0,0,0,0],"id":68,"left_children":[1,3,-1,-1,5,-1,-1],"loss_changes":[2.458104E0,1.6123345E0,0E0,0E0,7.945115E-1,0E0,0E0],"parents":[2147483647,0,0,1,1,4,4],"right_children":[2,4,-1,-1,6,-1,-1],"split_conditions":[1.177E2,9.968E-2,3.662642E-2,-3.838457E-2,1.682E-2,3.1214312E-2,-1.1758446E-2],"split_indices":[22,4,0,0,18,0,0],"split_type":[0,0,0,0,0,0,0],"sum_hessian":[7.453144E0,5.3978868E0,2.0552573E0,2.890132E0,2.5077548E0,1.0448713E0,1.4628836E0],"tree_param":{"num_deleted":"0","num_feature":"30","num_nodes":"7","size_leaf_vector":"1"}},{"base_weights":[-6.910158E-2,-3.5790976E-2,3.9909157E-1,-2.4177132E-2,6.97499E-1,4.4406947E-2,1.4396088E-2],"categories":[],"categories_nodes":[],"categories_segments":[],"categories_sizes":[],"default_left":[0,0,0,0,0,0,0],"id":69,"left_children":[1,-1,3,-1,5,-1,-1],"loss_changes":[2.8696606E0,0E0,1.8101856E0,0E0,1.0258055E-1,0E0,0E0],"parents":[2147483647,0,0,2,2,4,4],"right_children":[2,-1,4,-1,6,-1,-1],"split_conditions":[1.023E2,-3.5790976E-2,1.959E1,-2.4177132E-2,1.526E-2,4.4406947E-2,1.4396088E-2],"split_indices":[22,0,21,0,18,0,0],"split_type":[0,0,0,0,0,0,0],"sum_hessian":[7.5339413E0,2.9416814E0,4.59226E0,1.0035455E0,3.5887144E0,1.6515589E0,1.9371554E0],"tree_param":{"num_deleted":"0","num_feature":"30","num_nodes":"7","size_leaf_vector":"1"}},{"base_weights":[1.1575926E-1,-2.124548E-1,3.0621914E-2,-4.526672E-1,2.160117E-2,-3.6703918E-2,6.1869863E-3],"categories":[],"categories_nodes":[],"categories_segments":[],"categories_sizes":[],"default_left":[0,0,0,0,0,0,0],"id":70,"left_children":[1,3,-1,5,-1,-1,-1],"loss_changes":[1.4729671E0,1.0783529E0,0E0,8.4386134E-1,0E0,0E0,0E0],"parents":[2147483647,0,0,1,1,3,3],"right_children":[2,4,-1,6,-1,-1,-1],"split_conditions":[1.043E-1,3.503E1,3.0621914E-2,1.565E1,2.160117E-2,-3.6703918E-2,6.1869863E-3],"split_indices":[6,13,0,20,0,0,0],"split_type":[0,0,0,0,0,0,0],"sum_hessian":[7.2374926E0,4.7023487E0,2.5351436E0,3.642372E0,1.0599768E0,2.26367E0,1.3787018E0],"tree_param":{"num_deleted":"0","num_feature":"30","num_nodes":"7","size_leaf_vector":"1"}},{"base_weights":[-2.5067424E-2,-3.666115E-2,3.8688228E-1,-1.3975962E-2,5.9786534E-1,-4.5739543E-3,4.4288367E-2],"categories":[],"categories_nodes":[],"categories_segments":[],"categories_sizes":[],"default_left":[0,0,0,0,0,0,0],"id":71,"left_children":[1,-1,3,-1,5,-1,-1],"loss_changes":[2.6569674E0,0E0,9.8230857E-1,0E0,1.0182414E0,0E0,0E0],"parents":[2147483647,0,0,2,2,4,4],"right_children":[2,-1,4,-1,6,-1,-1],"split_conditions":[2.085E-1,-3.666115E-2,2.054E1,-1.3975962E-2,1.549E1,-4.5739543E-3,4.4288367E-2],"split_indices":[26,0,21,0,20,0,0],"split_type":[0,0,0,0,0,0,0],"sum_hessian":[7.135404E0,2.337418E0,4.797986E0,1.0756488E0,3.7223372E0,1.2976165E0,2.4247208E0],"tree_param":{"num_deleted":"0","num_feature":"30","num_nodes":"7","size_leaf_vector":"1"}},{"base_weights":[3.6809557E-5,-5.2795964E-1,4.2731097E-1,-3.493283E-2,-4.3958734E-4,1.733271E-2,3.6042377E-2,2.4331372E-2,-2.299455E-2],"categories":[],"categories_nodes":[],"categories_segments":[],"categories_sizes":[],"default_left":[0,0,0,0,0,0,0,0,0],"id":72,"left_children":[1,3,5,-1,-1,7,-1,-1,-1],"loss_changes":[2.0406272E0,3.5240197E-1,5.891635E-1,0E0,0E0,9.204507E-1,0E0,0E0,0E0],"parents":[2147483647,0,0,1,1,2,2,5,5],"right_children":[2,4,6,-1,-1,8,-1,-1,-1],"split_conditions":[1.112E-1,2.806E0,1.029E-1,-3.493283E-2,-4.3958734E-4,1.11E-2,3.6042377E-2,2.4331372E-2,-2.299455E-2],"split_indices":[27,12,6,0,0,17,0,0,0],"split_type":[0,0,0,0,0,0,0,0,0],"sum_hessian":[7.0453477E0,3.0458486E0,3.9994988E0,2.0320187E0,1.01383E0,2.1106427E0,1.8888562E0,1.0542266E0,1.056416E0],"tree_param":{"num_deleted":"0","num_feature":"30","num_nodes":"9","size_leaf_vector":"1"}},{"base_weights":[-4.4636223E-2,-4.0171456E-1,3.4547377E-2,1.342762E-2,-3.492704E-2],"categories":[],"categories_nodes":[],"categories_segments":[],"categories_sizes":[],"default_left":[0,0,0,0,0],"id":73,"left_children":[1,3,-1,-1,-1],"loss_changes":[2.29556E0,1.3424165E0,0E0,0E0,0E0],"parents":[2147483647,0,0,1,1],"right_children":[2,4,-1,-1,-1],"split_conditions":[1.459E-1,1.461E-2,3.4547377E-2,1.342762E-2,-3.492704E-2],"split_indices":[27,18,0,0,0],"split_type":[0,0,0,0,0],"sum_hessian":[6.6828914E0,4.8045E0,1.8783908E0,1.5038631E0,3.3006372E0],"tree_param":{"num_deleted":"0","num_feature":"30","num_nodes":"5","size_leaf_vector":"1"}},{"base_weights":[1.1365719E-2,-4.05962E-1,6.1458844E-1,-3.37017E-2,1.2173166E-2,9.454451E-3,3.7475985E-2],"categories":[],"categories_nodes":[],"categories_segments":[],"categories_sizes":[],"default_left":[0,0,0,0,0,0,0],"id":74,"left_children":[1,3,5,-1,-1,-1,-1],"loss_changes":[2.01681E0,9.9135023E-1,4.5933247E-2,0E0,0E0,0E0,0E0],"parents":[2147483647,0,0,1,1,2,2],"right_children":[2,4,6,-1,-1,-1,-1],"split_conditions":[3.444E1,5.069E-2,5.495E-1,-3.37017E-2,1.2173166E-2,9.454451E-3,3.7475985E-2],"split_indices":[13,7,10,0,0,0,0],"split_type":[0,0,0,0,0,0,0],"sum_hessian":[6.020336E0,3.751764E0,2.268572E0,2.6287615E0,1.1230025E0,1.1243523E0,1.1442198E0],"tree_param":{"num_deleted":"0","num_feature":"30","num_nodes":"7","size_leaf_vector":"1"}},{"base_weights":[1.3463499E-1,-4.5349962E-1,5.325886E-1,-3.1459786E-2,-2.8482205E-4,-3.5953105E-3,3.586967E-2],"categories":[],"categories_nodes":[],"categories_segments":[],"categories_sizes":[],"default_left":[0,0,0,0,0,0,0],"id":75,"left_children":[1,3,5,-1,-1,-1,-1],"loss_changes":[1.9918206E0,2.7635694E-1,6.0123575E-1,0E0,0E0,0E0,0E0],"parents":[2147483647,0,0,1,1,2,2],"right_children":[2,4,6,-1,-1,-1,-1],"split_conditions":[1.112E-1,3.962E-1,1.544E1,-3.1459786E-2,-2.8482205E-4,-3.5953105E-3,3.586967E-2],"split_indices":[27,10,20,0,0,0,0],"split_type":[0,0,0,0,0,0,0],"sum_hessian":[6.4782724E0,2.5580933E0,3.920179E0,1.5463207E0,1.0117726E0,1.0608984E0,2.8592806E0],"tree_param":{"num_deleted":"0","num_feature":"30","num_nodes":"7","size_leaf_vector":"1"}},{"base_weights":[-4.3389287E-2,-5.9729815E-1,3.9597926E-1,-3.5275172E-2,-7.6166387E-3,-9.925982E-4,3.483853E-2],"categories":[],"categories_nodes":[],"categories_segments":[],"categories_sizes":[],"default_left":[0,0,0,0,0,0,0],"id":76,"left_children":[1,3,5,-1,-1,-1,-1],"loss_changes":[2.0679815E0,7.199764E-2,6.139527E-1,0E0,0E0,0E0,0E0],"parents":[2147483647,0,0,1,1,2,2],"right_children":[2,4,6,-1,-1,-1,-1],"split_conditions":[1.112E-1,2.011E1,1.029E-1,-3.5275172E-2,-7.6166387E-3,-9.925982E-4,3.483853E-2],"split_indices":[27,1,6,0,0,0,0],"split_type":[0,0,0,0,0,0,0],"sum_hessian":[6.525425E0,2.7274725E0,3.7979524E0,1.7229637E0,1.004509E0,1.9861649E0,1.8117875E0],"tree_param":{"num_deleted":"0","num_feature":"30","num_nodes":"7","size_leaf_vector":"1"}},{"base_weights":[5.340058E-2,-4.7782022E-1,4.720533E-1,-3.2949235E-2,2.3429596E-4,-1.7499669E-3,3.1493824E-2],"categories":[],"categories_nodes":[],"categories_segments":[],"categories_sizes":[],"default_left":[0,0,0,0,0,0,0],"id":77,"left_children":[1,3,5,-1,-1,-1,-1],"loss_changes":[1.8606294E0,3.2978064E-1,3.91335E-1,0E0,0E0,0E0,0E0],"parents":[2147483647,0,0,1,1,2,2],"right_children":[2,4,6,-1,-1,-1,-1],"split_conditions":[1.112E-1,9.867E-2,7.395E-2,-3.2949235E-2,2.3429596E-4,-1.7499669E-3,3.1493824E-2],"split_indices":[27,4,6,0,0,0,0],"split_type":[0,0,0,0,0,0,0],"sum_hessian":[6.352044E0,2.7373464E0,3.6146977E0,1.7242104E0,1.013136E0,1.0427618E0,2.571936E0],"tree_param":{"num_deleted":"0","num_feature":"30","num_nodes":"7","size_leaf_vector":"1"}},{"base_weights":[2.6749311E-2,-3.3862603E-1,3.2490492E-2,-3.608198E-2,1.5753174E-2],"categories":[],"categories_nodes":[],"categories_segments":[],"categories_sizes":[],"default_left":[0,0,0,0,0],"id":78,"left_children":[1,3,-1,-1,-1],"loss_changes":[1.8369874E0,1.5129277E0,0E0,0E0,0E0],"parents":[2147483647,0,0,1,1],"right_children":[2,4,-1,-1,-1],"split_conditions":[3.646E1,2.994E-1,3.2490492E-2,-3.608198E-2,1.5753174E-2],"split_indices":[13,28,0,0,0],"split_type":[0,0,0,0,0],"sum_hessian":[6.1027374E0,4.1346226E0,1.9681149E0,2.5415275E0,1.593095E0],"tree_param":{"num_deleted":"0","num_feature":"30","num_nodes":"5","size_leaf_vector":"1"}},{"base_weights":[1.0066081E-1,-3.295752E-2,4.856558E-1,-6.391103E-3,6.672842E-1,9.105786E-3,3.9531108E-2],"categories":[],"categories_nodes":[],"categories_segments":[],"categories_sizes":[],"default_left":[0,0,0,0,0,0,0],"id":79,"left_children":[1,-1,3,-1,5,-1,-1],"loss_changes":[2.323457E0,0E0,6.559144E-1,0E0,1.02078915E-1,0E0,0E0],"parents":[2147483647,0,0,2,2,4,4],"right_children":[2,-1,4,-1,6,-1,-1],"split_conditions":[3.323E-2,-3.295752E-2,1.616E1,-6.391103E-3,2.362E0,9.105786E-3,3.9531108E-2],"split_indices":[7,0,1,0,12,0,0],"split_type":[0,0,0,0,0,0,0],"sum_hessian":[5.8484645E0,1.7273442E0,4.1211205E0,1.009071E0,3.1120493E0,1.1327529E0,1.9792964E0],"tree_param":{"num_deleted":"0","num_feature":"30","num_nodes":"7","size_leaf_vector":"1"}},{"base_weights":[-1.06263064E-1,-3.3938523E-2,3.419214E-1,-7.021458E-3,2.9021317E-2],"categories":[],"categories_nodes":[],"categories_segments":[],"categories_sizes":[],"default_left":[0,0,0,0,0],"id":80,"left_children":[1,-1,3,-1,-1],"loss_changes":[1.9752023E0,0E0,5.963778E-1,0E0,0E0],"parents":[2147483647,0,0,2,2],"right_children":[2,-1,4,-1,-1],"split_conditions":[1.112E-1,-3.3938523E-2,2.572E1,-7.021458E-3,2.9021317E-2],"split_indices":[27,0,21,0,0],"split_type":[0,0,0,0,0],"sum_hessian":[5.79342E0,2.3179715E0,3.4754484E0,1.2859547E0,2.1894937E0],"tree_param":{"num_deleted":"0","num_feature":"30","num_nodes":"5","size_leaf_vector":"1"}},{"base_weights":[2.1120233E-2,-3.0692471E-2,3.062026E-1,6.0949564E-1,-9.538121E-3,1.0461197E-2,3.819461E-2],"categories":[],"categories_nodes":[],"categories_segments":[],"categories_sizes":[],"default_left":[0,0,0,0,0,0,0],"id":81,"left_children":[1,-1,3,5,-1,-1,-1],"loss_changes":[1.3597101E0,0E0,8.901799E-1,5.1963925E-2,0E0,0E0,0E0],"parents":[2147483647,0,0,2,2,3,3],"right_children":[2,-1,4,6,-1,-1,-1],"split_conditions":[2.03E1,-3.0692471E-2,1.906E-2,9.934E-2,-9.538121E-3,1.0461197E-2,3.819461E-2],"split_indices":[13,0,18,4,0,0,0],"split_type":[0,0,0,0,0,0,0],"sum_hessian":[5.4730783E0,1.3385231E0,4.134555E0,2.426965E0,1.7075897E0,1.3311301E0,1.095835E0],"tree_param":{"num_deleted":"0","num_feature":"30","num_nodes":"7","size_leaf_vector":"1"}},{"base_weights":[5.2142877E-2,-2.522391E-1,3.773356E-2,2.1052217E-2,-5.56034E-1,-3.5913553E-2,-2.1224224E-3],"categories":[],"categories_nodes":[],"categories_segments":[],"categories_sizes":[],"default_left":[0,0,0,0,0,0,0],"id":82,"left_children":[1,3,-1,-1,5,-1,-1],"loss_changes":[1.5892742E0,1.3210155E0,0E0,0E0,3.1051636E-1,0E0,0E0],"parents":[2147483647,0,0,1,1,4,4],"right_children":[2,4,-1,-1,6,-1,-1],"split_conditions":[5.495E-1,1.5E-2,3.773356E-2,2.1052217E-2,9.251E-2,-3.5913553E-2,-2.1224224E-3],"split_indices":[10,18,0,0,29,0,0],"split_type":[0,0,0,0,0,0,0],"sum_hessian":[5.541978E0,4.313875E0,1.2281024E0,1.2212778E0,3.0925975E0,2.0473242E0,1.0452733E0],"tree_param":{"num_deleted":"0","num_feature":"30","num_nodes":"7","size_leaf_vector":"1"}},{"base_weights":[2.590718E-2,-3.1523995E-2,3.6441654E-1,4.012895E-2,3.7040748E-2,-2.1323275E-2,1.893151E-2],"categories":[],"categories_nodes":[],"categories_segments":[],"categories_sizes":[],"default_left":[0,0,0,0,0,0,0],"id":83,"left_children":[1,-1,3,5,-1,-1,-1],"loss_changes":[1.6390994E0,0E0,5.5841804E-1,7.372803E-1,0E0,0E0,0E0],"parents":[2147483647,0,0,2,2,3,3],"right_children":[2,-1,4,6,-1,-1,-1],"split_conditions":[3.515E-2,-3.1523995E-2,5.495E-1,1.312E-1,3.7040748E-2,-2.1323275E-2,1.893151E-2],"split_indices":[7,0,10,27,0,0,0],"split_type":[0,0,0,0,0,0,0],"sum_hessian":[5.3428693E0,1.5244209E0,3.8184483E0,2.6456718E0,1.1727766E0,1.0031092E0,1.6425625E0],"tree_param":{"num_deleted":"0","num_feature":"30","num_nodes":"7","size_leaf_vector":"1"}},{"base_weights":[-9.5396385E-2,-4.3533057E-1,3.204297E-2,-3.561134E-2,3.3015318E-3],"categories":[],"categories_nodes":[],"categories_segments":[],"categories_sizes":[],"default_left":[0,0,0,0,0],"id":84,"left_children":[1,3,-1,-1,-1],"loss_changes":[1.8747212E0,7.352404E-1,0E0,0E0,0E0],"parents":[2147483647,0,0,1,1],"right_children":[2,4,-1,-1,-1],"split_conditions":[1.177E2,9.968E-2,3.204297E-2,-3.561134E-2,3.3015318E-3],"split_indices":[22,4,0,0,0],"split_type":[0,0,0,0,0],"sum_hessian":[5.375839E0,3.9574034E0,1.4184358E0,2.278453E0,1.6789503E0],"tree_param":{"num_deleted":"0","num_feature":"30","num_nodes":"5","size_leaf_vector":"1"}},{"base_weights":[1.1387746E-2,-3.366294E-2,4.0284193E-1,-1.0698999E-2,3.135946E-2],"categories":[],"categories_nodes":[],"categories_segments":[],"categories_sizes":[],"default_left":[0,0,0,0,0],"id":85,"left_children":[1,-1,3,-1,-1],"loss_changes":[2.0376933E0,0E0,8.010869E-1,0E0,0E0],"parents":[2147483647,0,0,2,2],"right_children":[2,-1,4,-1,-1],"split_conditions":[1.014E2,-3.366294E-2,1.59E1,-1.0698999E-2,3.135946E-2],"split_indices":[22,0,1,0,0],"split_type":[0,0,0,0,0],"sum_hessian":[5.5911384E0,1.772018E0,3.8191204E0,1.0309181E0,2.7882025E0],"tree_param":{"num_deleted":"0","num_feature":"30","num_nodes":"5","size_leaf_vector":"1"}},{"base_weights":[2.2417653E-1,5.972432E-1,-1.2666853E-1,5.3060795E-3,3.8475323E-2,-2.9349292E-2,2.8574485E-2],"categories":[],"categories_nodes":[],"categories_segments":[],"categories_sizes":[],"default_left":[0,0,0,0,0,0,0],"id":86,"left_children":[1,3,5,-1,-1,-1,-1],"loss_changes":[9.137944E-1,1.957016E-1,1.6611397E0,0E0,0E0,0E0,0E0],"parents":[2147483647,0,0,1,1,2,2],"right_children":[2,4,6,-1,-1,-1,-1],"split_conditions":[1.581E-2,1.897E0,1.425E-1,5.3060795E-3,3.8475323E-2,-2.9349292E-2,2.8574485E-2],"split_indices":[18,12,27,0,0,0,0],"split_type":[0,0,0,0,0,0,0],"sum_hessian":[5.40348E0,2.2784355E0,3.1250448E0,1.0112915E0,1.267144E0,1.9792806E0,1.1457642E0],"tree_param":{"num_deleted":"0","num_feature":"30","num_nodes":"7","size_leaf_vector":"1"}},{"base_weights":[4.521524E-3,-3.0456537E-1,3.6385942E-2,-3.0751526E-2,1.2336662E-2],"categories":[],"categories_nodes":[],"categories_segments":[],"categories_sizes":[],"default_left":[0,0,0,0,0],"id":87,"left_children":[1,3,-1,-1,-1],"loss_changes":[1.5942494E0,1.0087302E0,0E0,0E0,0E0],"parents":[2147483647,0,0,1,1],"right_children":[2,4,-1,-1,-1],"split_conditions":[5.495E-1,8.124E2,3.6385942E-2,-3.0751526E-2,1.2336662E-2],"split_indices":[10,23,0,0,0],"split_type":[0,0,0,0,0],"sum_hessian":[5.140591E0,4.0069327E0,1.1336582E0,2.4894114E0,1.5175215E0],"tree_param":{"num_deleted":"0","num_feature":"30","num_nodes":"5","size_leaf_vector":"1"}},{"base_weights":[1.12391464E-1,-2.7014617E-2,3.5727564E-1,-9.907006E-3,3.568536E-2],"categories":[],"categories_nodes":[],"categories_segments":[],"categories_sizes":[],"default_left":[0,0,0,0,0],"id":88,"left_children":[1,-1,3,-1,-1],"loss_changes":[1.2362888E0,0E0,1.200211E0,0E0,0E0],"parents":[2147483647,0,0,2,2],"right_children":[2,-1,4,-1,-1],"split_conditions":[2.024E1,-2.7014617E-2,1.014E2,-9.907006E-3,3.568536E-2],"split_indices":[21,0,22,0,0],"split_type":[0,0,0,0,0],"sum_hessian":[5.5272026E0,1.1788704E0,4.3483324E0,1.8733116E0,2.4750206E0],"tree_param":{"num_deleted":"0","num_feature":"30","num_nodes":"5","size_leaf_vector":"1"}},{"base_weights":[1.5364715E-1,-2.8844994E-1,4.6269187E-1,-2.8338248E-2,8.072146E-3,-3.8203485E-3,3.3780538E-2],"categories":[],"categories_nodes":[],"categories_segments":[],"categories_sizes":[],"default_left":[0,0,0,0,0,0,0],"id":89,"left_children":[1,3,5,-1,-1,-1,-1],"loss_changes":[1.0189904E0,5.0252235E-1,5.3356624E-1,0E0,0E0,0E0,0E0],"parents":[2147483647,0,0,1,1,2,2],"right_children":[2,4,6,-1,-1,-1,-1],"split_conditions":[1.112E-1,3.327E1,1.548E1,-2.8338248E-2,8.072146E-3,-3.8203485E-3,3.3780538E-2],"split_indices":[27,13,20,0,0,0,0],"split_type":[0,0,0,0,0,0,0],"sum_hessian":[5.48131E0,2.2826114E0,3.1986988E0,1.2497234E0,1.0328878E0,1.0871754E0,2.1115234E0],"tree_param":{"num_deleted":"0","num_feature":"30","num_nodes":"7","size_leaf_vector":"1"}},{"base_weights":[1.6356537E-1,-3.046159E-1,5.3218967E-1,-2.8417965E-2,5.8924933E-3,6.0482584E-3,3.655865E-2],"categories":[],"categories_nodes":[],"categories_segments":[],"categories_sizes":[],"default_left":[0,0,0,0,0,0,0],"id":90,"left_children":[1,3,5,-1,-1,-1,-1],"loss_changes":[1.2237048E0,4.3976346E-1,2.2294807E-1,0E0,0E0,0E0,0E0],"parents":[2147483647,0,0,1,1,2,2],"right_children":[2,4,6,-1,-1,-1,-1],"split_conditions":[1.112E-1,3.795E-1,2.021E1,-2.8417965E-2,5.8924933E-3,6.0482584E-3,3.655865E-2],"split_indices":[27,10,1,0,0,0,0],"split_type":[0,0,0,0,0,0,0],"sum_hessian":[5.1511936E0,2.3456628E0,2.805531E0,1.231503E0,1.1141597E0,1.4391855E0,1.3663454E0],"tree_param":{"num_deleted":"0","num_feature":"30","num_nodes":"7","size_leaf_vector":"1"}},{"base_weights":[1.0849543E-1,-2.678888E-2,3.4841925E-1,-1.1044266E-1,3.3807475E-2,-1.9686775E-2,1.1834228E-2],"categories":[],"categories_nodes":[],"categories_segments":[],"categories_sizes":[],"default_left":[0,0,0,0,0,0,0],"id":91,"left_children":[1,-1,3,5,-1,-1,-1],"loss_changes":[1.1912963E0,0E0,8.779615E-1,3.9658055E-1,0E0,0E0,0E0],"parents":[2147483647,0,0,2,2,3,3],"right_children":[2,-1,4,6,-1,-1,-1],"split_conditions":[2.024E1,-2.678888E-2,7.393E2,1.377E0,3.3807475E-2,-1.9686775E-2,1.1834228E-2],"split_indices":[21,0,23,11,0,0,0],"split_type":[0,0,0,0,0,0,0],"sum_hessian":[5.4991865E0,1.157584E0,4.3416023E0,2.0851493E0,2.2564533E0,1.0742104E0,1.0109389E0],"tree_param":{"num_deleted":"0","num_feature":"30","num_nodes":"7","size_leaf_vector":"1"}},{"base_weights":[1.4701709E-1,-1.7086622E-1,3.2880004E-2,2.1550184E-2,-5.01787E-1,-3.1121878E-2,-5.5275448E-3],"categories":[],"categories_nodes":[],"categories_segments":[],"categories_sizes":[],"default_left":[0,0,0,0,0,0,0],"id":92,"left_children":[1,3,-1,-1,5,-1,-1],"loss_changes":[1.0963011E0,1.1185017E0,0E0,0E0,9.096694E-2,0E0,0E0],"parents":[2147483647,0,0,1,1,4,4],"right_children":[2,4,-1,-1,6,-1,-1],"split_conditions":[1.029E-1,1.104E-2,3.2880004E-2,2.1550184E-2,9.02E1,-3.1121878E-2,-5.5275448E-3],"split_indices":[6,15,0,0,2,0,0],"split_type":[0,0,0,0,0,0,0],"sum_hessian":[5.0622563E0,3.5299187E0,1.5323378E0,1.144995E0,2.3849237E0,1.3711374E0,1.0137863E0],"tree_param":{"num_deleted":"0","num_feature":"30","num_nodes":"7","size_leaf_vector":"1"}},{"base_weights":[1.2792194E-1,-3.0295521E-2,5.2042764E-1,2.231745E-1,3.5312023E-2,-3.6502907E-3,2.0482793E-2],"categories":[],"categories_nodes":[],"categories_segments":[],"categories_sizes":[],"default_left":[0,0,0,0,0,0,0],"id":93,"left_children":[1,-1,3,5,-1,-1,-1],"loss_changes":[1.9060353E0,0E0,7.0833564E-2,1.985277E-1,0E0,0E0,0E0],"parents":[2147483647,0,0,2,2,3,3],"right_children":[2,-1,4,6,-1,-1,-1],"split_conditions":[3.323E-2,-3.0295521E-2,4.368E1,3.201E-1,3.5312023E-2,-3.6502907E-3,2.0482793E-2],"split_indices":[7,0,13,26,0,0,0],"split_type":[0,0,0,0,0,0,0],"sum_hessian":[4.522633E0,1.3865772E0,3.136056E0,2.0529423E0,1.0831136E0,1.0282794E0,1.024663E0],"tree_param":{"num_deleted":"0","num_feature":"30","num_nodes":"7","size_leaf_vector":"1"}},{"base_weights":[-5.540432E-3,-4.1077322E-1,3.1244585E-1,-2.8182639E-2,-1.9107705E-3,-2.766045E-3,3.350331E-2],"categories":[],"categories_nodes":[],"categories_segments":[],"categories_sizes":[],"default_left":[0,0,0,0,0,0,0],"id":94,"left_children":[1,3,5,-1,-1,-1,-1],"loss_changes":[9.4270116E-1,1.6133064E-1,5.774965E-1,0E0,0E0,0E0,0E0],"parents":[2147483647,0,0,1,1,2,2],"right_children":[2,4,6,-1,-1,-1,-1],"split_conditions":[1.112E-1,9.831E-2,2.726E1,-2.8182639E-2,-1.9107705E-3,-2.766045E-3,3.350331E-2],"split_indices":[27,4,21,0,0,0,0],"split_type":[0,0,0,0,0,0,0],"sum_hessian":[5.319777E0,2.2107122E0,3.1090648E0,1.2038031E0,1.0069093E0,1.9495306E0,1.1595343E0],"tree_param":{"num_deleted":"0","num_feature":"30","num_nodes":"7","size_leaf_vector":"1"}},{"base_weights":[1.23437196E-1,-2.1991445E-2,3.5546678E-1,-5.559989E-2,3.5017993E-2,-1.7448058E-2,1.33638E-2],"categories":[],"categories_nodes":[],"categories_segments":[],"categories_sizes":[],"default_left":[0,0,0,0,0,0,0],"id":95,"left_children":[1,-1,3,5,-1,-1,-1],"loss_changes":[9.605425E-1,0E0,7.352031E-1,3.9324886E-1,0E0,0E0,0E0],"parents":[2147483647,0,0,2,2,3,3],"right_children":[2,-1,4,6,-1,-1,-1],"split_conditions":[2.053E1,-2.1991445E-2,2.853E-1,9.934E-2,3.5017993E-2,-1.7448058E-2,1.33638E-2],"split_indices":[13,0,28,4,0,0,0],"split_type":[0,0,0,0,0,0,0],"sum_hessian":[5.1532702E0,1.2421947E0,3.9110758E0,2.1670415E0,1.7440342E0,1.0930859E0,1.0739558E0],"tree_param":{"num_deleted":"0","num_feature":"30","num_nodes":"7","size_leaf_vector":"1"}},{"base_weights":[-3.1708892E-2,-2.9624647E-2,3.641772E-1,-9.104716E-3,3.1368043E-2],"categories":[],"categories_nodes":[],"categories_segments":[],"categories_sizes":[],"default_left":[0,0,0,0,0],"id":96,"left_children":[1,-1,3,-1,-1],"loss_changes":[1.422045E0,0E0,6.611898E-1,0E0,0E0],"parents":[2147483647,0,0,2,2],"right_children":[2,-1,4,-1,-1],"split_conditions":[1.112E-1,-2.9624647E-2,8.208E-1,-9.104716E-3,3.1368043E-2],"split_indices":[27,0,11,0,0],"split_type":[0,0,0,0,0],"sum_hessian":[4.4334984E0,1.6291441E0,2.8043542E0,1.0119765E0,1.7923778E0],"tree_param":{"num_deleted":"0","num_feature":"30","num_nodes":"5","size_leaf_vector":"1"}},{"base_weights":[-7.076782E-2,-2.885659E-2,2.1963996E-1,2.1050496E-2,-6.680573E-3],"categories":[],"categories_nodes":[],"categories_segments":[],"categories_sizes":[],"default_left":[0,0,0,0,0],"id":97,"left_children":[1,-1,3,-1,-1],"loss_changes":[9.222664E-1,0E0,3.523336E-1,0E0,0E0],"parents":[2147483647,0,0,2,2],"right_children":[2,-1,4,-1,-1],"split_conditions":[3.515E-2,-2.885659E-2,3.817E-3,2.1050496E-2,-6.680573E-3],"split_indices":[7,0,19,0,0],"split_type":[0,0,0,0,0],"sum_hessian":[4.409685E0,1.2473872E0,3.1622982E0,1.8919713E0,1.2703267E0],"tree_param":{"num_deleted":"0","num_feature":"30","num_nodes":"5","size_leaf_vector":"1"}},{"base_weights":[-5.4508876E-2,-2.7479185E-2,2.0102547E-1,-7.627386E-2,2.8506761E-2,-2.1813232E-2,1.7342953E-2],"categories":[],"categories_nodes":[],"categories_segments":[],"categories_sizes":[],"default_left":[0,0,0,0,0,0,0],"id":98,"left_children":[1,-1,3,5,-1,-1,-1],"loss_changes":[8.1490237E-1,0E0,4.9432993E-1,6.6879505E-1,0E0,0E0,0E0],"parents":[2147483647,0,0,2,2,3,3],"right_children":[2,-1,4,6,-1,-1,-1],"split_conditions":[1.658E1,-2.7479185E-2,3.444E1,2.948E-1,2.8506761E-2,-2.1813232E-2,1.7342953E-2],"split_indices":[1,0,13,28,0,0,0],"split_type":[0,0,0,0,0,0,0],"sum_hessian":[4.568175E0,1.1634235E0,3.4047515E0,2.397186E0,1.0075653E0,1.2784654E0,1.1187208E0],"tree_param":{"num_deleted":"0","num_feature":"30","num_nodes":"7","size_leaf_vector":"1"}},{"base_weights":[-1.4606553E-1,-4.4628325E-1,2.7600711E-2,-3.5540286E-2,9.328056E-3],"categories":[],"categories_nodes":[],"categories_segments":[],"categories_sizes":[],"default_left":[0,0,0,0,0],"id":99,"left_children":[1,3,-1,-1,-1],"loss_changes":[1.3577635E0,8.459532E-1,0E0,0E0,0E0],"parents":[2147483647,0,0,1,1],"right_children":[2,4,-1,-1,-1],"split_conditions":[1.177E2,1.02E-1,2.7600711E-2,-3.5540286E-2,9.328056E-3],"split_indices":[22,6,0,0,0],"split_type":[0,0,0,0,0],"sum_hessian":[4.303132E0,3.2612784E0,1.0418539E0,2.213053E0,1.0482254E0],"tree_param":{"num_deleted":"0","num_feature":"30","num_nodes":"5","size_leaf_vector":"1"}},{"base_weights":[7.5004897E-3,-2.92514E-1,2.91957E-2,-2.9559597E-2,1.3573569E-2],"categories":[],"categories_nodes":[],"categories_segments":[],"categories_sizes":[],"default_left":[0,0,0,0,0],"id":100,"left_children":[1,3,-1,-1,-1],"loss_changes":[1.123405E0,8.8299316E-1,0E0,0E0,0E0],"parents":[2147483647,0,0,1,1],"right_children":[2,4,-1,-1,-1],"split_conditions":[4.009E1,5.069E-2,2.91957E-2,-2.9559597E-2,1.3573569E-2],"split_indices":[13,7,0,0,0],"split_type":[0,0,0,0,0],"sum_hessian":[4.508523E0,3.2891154E0,1.2194073E0,2.1187947E0,1.1703209E0],"tree_param":{"num_deleted":"0","num_feature":"30","num_nodes":"5","size_leaf_vector":"1"}},{"base_weights":[1.6392262E-1,-1.320412E-2,3.775933E-1,-4.781167E-4,2.7420778E-2],"categories":[],"categories_nodes":[],"categories_segments":[],"categories_sizes":[],"default_left":[0,0,0,0,0],"id":101,"left_children":[1,-1,3,-1,-1],"loss_changes":[5.537518E-1,0E0,2.5146973E-1,0E0,0E0],"parents":[2147483647,0,0,2,2],"right_children":[2,-1,4,-1,-1],"split_conditions":[2.339E1,-1.320412E-2,1.752E-1,-4.781167E-4,2.7420778E-2],"split_indices":[21,0,8,0,0],"split_type":[0,0,0,0,0],"sum_hessian":[3.9647396E0,1.2416505E0,2.723089E0,1.1226681E0,1.600421E0],"tree_param":{"num_deleted":"0","num_feature":"30","num_nodes":"5","size_leaf_vector":"1"}},{"base_weights":[6.943159E-2,-1.984948E-2,2.7249894E-1,5.0263536E-1,-1.0107688E-2,3.7229672E-2,3.1213004E-3],"categories":[],"categories_nodes":[],"categories_segments":[],"categories_sizes":[],"default_left":[0,0,0,0,0,0,0],"id":102,"left_children":[1,-1,3,5,-1,-1,-1],"loss_changes":[6.331012E-1,0E0,5.881503E-1,3.0357116E-1,0E0,0E0,0E0],"parents":[2147483647,0,0,2,2,3,3],"right_children":[2,-1,4,6,-1,-1,-1],"split_conditions":[2.053E1,-1.984948E-2,7.257E-3,1.78E-2,-1.0107688E-2,3.7229672E-2,3.1213004E-3],"split_indices":[13,0,14,16,0,0,0],"split_type":[0,0,0,0,0,0,0],"sum_hessian":[4.542126E0,1.0880475E0,3.4540787E0,2.2865067E0,1.167572E0,1.0293038E0,1.257203E0],"tree_param":{"num_deleted":"0","num_feature":"30","num_nodes":"7","size_leaf_vector":"1"}},{"base_weights":[-1.7104192E-2,-2.5752434E-1,2.7378535E-2,1.4630091E-2,-4.849835E-1,-3.422353E-2,7.8545336E-4],"categories":[],"categories_nodes":[],"categories_segments":[],"categories_sizes":[],"default_left":[0,0,0,0,0,0,0],"id":103,"left_children":[1,3,-1,-1,5,-1,-1],"loss_changes":[9.225407E-1,7.3224616E-1,0E0,0E0,3.8171482E-1,0E0,0E0],"parents":[2147483647,0,0,1,1,4,4],"right_children":[2,4,-1,-1,6,-1,-1],"split_conditions":[1.177E2,1.401E-2,2.7378535E-2,1.4630091E-2,5.596E-2,-3.422353E-2,7.8545336E-4],"split_indices":[22,16,0,0,7,0,0],"split_type":[0,0,0,0,0,0,0],"sum_hessian":[4.75672E0,3.7177608E0,1.038959E0,1.0037433E0,2.7140176E0,1.6782984E0,1.0357192E0],"tree_param":{"num_deleted":"0","num_feature":"30","num_nodes":"7","size_leaf_vector":"1"}},{"base_weights":[4.2128958E-2,-1.761801E-2,2.9230258E-1,-1.1771478E-3,2.8294671E-2],"categories":[],"categories_nodes":[],"categories_segments":[],"categories_sizes":[],"default_left":[0,0,0,0,0],"id":104,"left_children":[1,-1,3,-1,-1],"loss_changes":[6.4707345E-1,0E0,3.5207063E-1,0E0,0E0],"parents":[2147483647,0,0,2,2],"right_children":[2,-1,4,-1,-1],"split_conditions":[1.112E-1,-1.761801E-2,1.02E-1,-1.1771478E-3,2.8294671E-2],"split_indices":[27,0,6,0,0],"split_type":[0,0,0,0,0],"sum_hessian":[4.5129533E0,1.5928254E0,2.9201276E0,1.7796121E0,1.1405156E0],"tree_param":{"num_deleted":"0","num_feature":"30","num_nodes":"5","size_leaf_vector":"1"}},{"base_weights":[8.927436E-2,-2.605755E-1,3.89257E-1,-2.7111584E-2,7.787462E-3,-5.3213527E-3,3.3088416E-2],"categories":[],"categories_nodes":[],"categories_segments":[],"categories_sizes":[],"default_left":[0,0,0,0,0,0,0],"id":105,"left_children":[1,3,5,-1,-1,-1,-1],"loss_changes":[6.62101E-1,4.4387758E-1,5.131028E-1,0E0,0E0,0E0,0E0],"parents":[2147483647,0,0,1,1,2,2],"right_children":[2,4,6,-1,-1,-1,-1],"split_conditions":[7.393E2,2.335E1,1.852E1,-2.7111584E-2,7.787462E-3,-5.3213527E-3,3.3088416E-2],"split_indices":[23,13,1,0,0,0,0],"split_type":[0,0,0,0,0,0,0],"sum_hessian":[4.3423166E0,2.065189E0,2.277128E0,1.051436E0,1.0137528E0,1.023994E0,1.2531339E0],"tree_param":{"num_deleted":"0","num_feature":"30","num_nodes":"7","size_leaf_vector":"1"}},{"base_weights":[1.292149E-1,2.8600518E-2,-2.9197076E-1,-3.0210739E-2,1.1617119E-2],"categories":[],"categories_nodes":[],"categories_segments":[],"categories_sizes":[],"default_left":[0,0,0,0,0],"id":106,"left_children":[1,-1,3,-1,-1],"loss_changes":[1.1771576E0,0E0,7.032294E-1,0E0,0E0],"parents":[2147483647,0,0,2,2],"right_children":[2,-1,4,-1,-1],"split_conditions":[1.581E-2,2.8600518E-2,1.357E-1,-3.0210739E-2,1.1617119E-2],"split_indices":[18,0,27,0,0],"split_type":[0,0,0,0,0],"sum_hessian":[4.416366E0,1.9783827E0,2.4379833E0,1.4324963E0,1.005487E0],"tree_param":{"num_deleted":"0","num_feature":"30","num_nodes":"5","size_leaf_vector":"1"}},{"base_weights":[3.1605396E-2,-2.4110219E-2,2.881301E-1,-6.3814046E-3,2.7766675E-2],"categories":[],"categories_nodes":[],"categories_segments":[],"categories_sizes":[],"default_left":[0,0,0,0,0],"id":107,"left_children":[1,-1,3,-1,-1],"loss_changes":[8.314722E-1,0E0,5.2974415E-1,0E0,0E0],"parents":[2147483647,0,0,2,2],"right_children":[2,-1,4,-1,-1],"split_conditions":[1.658E1,-2.4110219E-2,1.551E1,-6.3814046E-3,2.7766675E-2],"split_indices":[1,0,20,0,0],"split_type":[0,0,0,0,0],"sum_hessian":[4.2542405E0,1.1237173E0,3.1305232E0,1.4291604E0,1.7013627E0],"tree_param":{"num_deleted":"0","num_feature":"30","num_nodes":"5","size_leaf_vector":"1"}},{"base_weights":[-3.4500826E-2,-2.191806E-2,2.663461E-1,3.3765253E-2,-6.6908984E-3],"categories":[],"categories_nodes":[],"categories_segments":[],"categories_sizes":[],"default_left":[0,0,0,0,0],"id":108,"left_children":[1,-1,3,-1,-1],"loss_changes":[7.793843E-1,0E0,7.03652E-1,0E0,0E0],"parents":[2147483647,0,0,2,2],"right_children":[2,-1,4,-1,-1],"split_conditions":[1.025E2,-2.191806E-2,1.499E-2,3.3765253E-2,-6.6908984E-3],"split_indices":[22,0,18,0,0],"split_type":[0,0,0,0,0],"sum_hessian":[4.4537263E0,1.7062056E0,2.7475204E0,1.0187796E0,1.7287408E0],"tree_param":{"num_deleted":"0","num_feature":"30","num_nodes":"5","size_leaf_vector":"1"}},{"base_weights":[1.0115536E-1,-2.0358318E-1,2.8439468E-2,-2.4094889E-2,1.1315443E-2],"categories":[],"categories_nodes":[],"categories_segments":[],"categories_sizes":[],"default_left":[0,0,0,0,0],"id":109,"left_children":[1,3,-1,-1,-1],"loss_changes":[8.1996006E-1,5.551107E-1,0E0,0E0,0E0],"parents":[2147483647,0,0,1,1],"right_children":[2,4,-1,-1,-1],"split_conditions":[4.009E1,2.994E-1,2.8439468E-2,-2.4094889E-2,1.1315443E-2],"split_indices":[13,28,0,0,0],"split_type":[0,0,0,0,0],"sum_hessian":[3.941291E0,2.7281299E0,1.2131612E0,1.5825827E0,1.1455472E0],"tree_param":{"num_deleted":"0","num_feature":"30","num_nodes":"5","size_leaf_vector":"1"}},{"base_weights":[6.822312E-2,-2.4044782E-2,3.0317152E-1,-4.345489E-3,3.0768568E-2],"categories":[],"categories_nodes":[],"categories_segments":[],"categories_sizes":[],"default_left":[0,0,0,0,0],"id":110,"left_children":[1,-1,3,-1,-1],"loss_changes":[8.472824E-1,0E0,5.9192425E-1,0E0,0E0],"parents":[2147483647,0,0,2,2],"right_children":[2,-1,4,-1,-1],"split_conditions":[2.024E1,-2.4044782E-2,7.393E2,-4.345489E-3,3.0768568E-2],"split_indices":[21,0,23,0,0],"split_type":[0,0,0,0,0],"sum_hessian":[4.4372816E0,1.0159652E0,3.4213164E0,1.8417474E0,1.579569E0],"tree_param":{"num_deleted":"0","num_feature":"30","num_nodes":"5","size_leaf_vector":"1"}},{"base_weights":[8.4457465E-2,2.0120919E-2,-2.2282179E-1,-2.5827397E-2,1.045028E-2],"categories":[],"categories_nodes":[],"categories_segments":[],"categories_sizes":[],"default_left":[0,0,0,0,0],"id":111,"left_children":[1,-1,3,-1,-1],"loss_changes":[6.147381E-1,0E0,5.362471E-1,0E0,0E0],"parents":[2147483647,0,0,2,2],"right_children":[2,-1,4,-1,-1],"split_conditions":[1.581E-2,2.0120919E-2,3.201E-1,-2.5827397E-2,1.045028E-2],"split_indices":[18,0,26,0,0],"split_type":[0,0,0,0,0],"sum_hessian":[4.3741617E0,1.9975523E0,2.376609E0,1.2977188E0,1.0788904E0],"tree_param":{"num_deleted":"0","num_feature":"30","num_nodes":"5","size_leaf_vector":"1"}},{"base_weights":[1.721899E-1,2.7535707E-2,-2.0741883E-1,-2.828674E-2,1.450815E-2],"categories":[],"categories_nodes":[],"categories_segments":[],"categories_sizes":[],"default_left":[0,0,0,0,0],"id":112,"left_children":[1,-1,3,-1,-1],"loss_changes":[8.674139E-1,0E0,7.6027435E-1,0E0,0E0],"parents":[2147483647,0,0,2,2],"right_children":[2,-1,4,-1,-1],"split_conditions":[1.581E-2,2.7535707E-2,9.954E-2,-2.828674E-2,1.450815E-2],"split_indices":[18,0,6,0,0],"split_type":[0,0,0,0,0],"sum_hessian":[4.2416983E0,1.8981899E0,2.3435085E0,1.2827866E0,1.0607219E0],"tree_param":{"num_deleted":"0","num_feature":"30","num_nodes":"5","size_leaf_vector":"1"}},{"base_weights":[1.2821284E-1,-1.2177528E-1,2.3762625E-2,-2.3763455E-2,9.03054E-3],"categories":[],"categories_nodes":[],"categories_segments":[],"categories_sizes":[],"default_left":[0,0,0,0,0],"id":113,"left_children":[1,3,-1,-1,-1],"loss_changes":[5.177975E-1,5.0032157E-1,0E0,0E0,0E0],"parents":[2147483647,0,0,1,1],"right_children":[2,4,-1,-1,-1],"split_conditions":[8.124E2,1.805E1,2.3762625E-2,-2.3763455E-2,9.03054E-3],"split_indices":[23,1,0,0,0],"split_type":[0,0,0,0,0],"sum_hessian":[4.3013587E0,2.8775988E0,1.4237599E0,1.0630952E0,1.8145037E0],"tree_param":{"num_deleted":"0","num_feature":"30","num_nodes":"5","size_leaf_vector":"1"}},{"base_weights":[5.0984733E-2,-2.3946263E-2,2.7972767E-1,-7.02211E-3,2.86695E-2],"categories":[],"categories_nodes":[],"categories_segments":[],"categories_sizes":[],"default_left":[0,0,0,0,0],"id":114,"left_children":[1,-1,3,-1,-1],"loss_changes":[7.946061E-1,0E0,6.2814796E-1,0E0,0E0],"parents":[2147483647,0,0,2,2],"right_children":[2,-1,4,-1,-1],"split_conditions":[2.024E1,-2.3946263E-2,1.551E1,-7.02211E-3,2.86695E-2],"split_indices":[21,0,20,0,0],"split_type":[0,0,0,0,0],"sum_hessian":[4.450211E0,1.0120202E0,3.4381912E0,1.6290766E0,1.8091145E0],"tree_param":{"num_deleted":"0","num_feature":"30","num_nodes":"5","size_leaf_vector":"1"}},{"base_weights":[8.500082E-2,2.038696E-2,-2.0649597E-1,-2.815915E-2,1.4764087E-2],"categories":[],"categories_nodes":[],"categories_segments":[],"categories_sizes":[],"default_left":[0,0,0,0,0],"id":115,"left_children":[1,-1,3,-1,-1],"loss_changes":[5.78581E-1,0E0,7.792971E-1,0E0,0E0],"parents":[2147483647,0,0,2,2],"right_children":[2,-1,4,-1,-1],"split_conditions":[1.581E-2,2.038696E-2,1.029E-1,-2.815915E-2,1.4764087E-2],"split_indices":[18,0,6,0,0],"split_type":[0,0,0,0,0],"sum_hessian":[4.255093E0,1.8300867E0,2.4250066E0,1.3459015E0,1.0791051E0],"tree_param":{"num_deleted":"0","num_feature":"30","num_nodes":"5","size_leaf_vector":"1"}},{"base_weights":[-4.0729553E-3,1.7191973E-2,-3.0902278E-1,-2.577174E-2,2.6385018E-3],"categories":[],"categories_nodes":[],"categories_segments":[],"categories_sizes":[],"default_left":[0,0,0,0,0],"id":116,"left_children":[1,-1,3,-1,-1],"loss_changes":[6.5190095E-1,0E0,2.71201E-1,0E0,0E0],"parents":[2147483647,0,0,2,2],"right_children":[2,-1,4,-1,-1],"split_conditions":[1.581E-2,1.7191973E-2,5.596E-2,-2.577174E-2,2.6385018E-3],"split_indices":[18,0,7,0,0],"split_type":[0,0,0,0,0],"sum_hessian":[4.142961E0,1.8755957E0,2.2673652E0,1.1732994E0,1.0940658E0],"tree_param":{"num_deleted":"0","num_feature":"30","num_nodes":"5","size_leaf_vector":"1"}},{"base_weights":[-9.2119916E-4,-3.114983E-1,2.3378937E-2,-2.8280417E-2,6.138056E-3],"categories":[],"categories_nodes":[],"categories_segments":[],"categories_sizes":[],"default_left":[0,0,0,0,0],"id":117,"left_children":[1,3,-1,-1,-1],"loss_changes":[8.155958E-1,4.411982E-1,0E0,0E0,0E0],"parents":[2147483647,0,0,1,1],"right_children":[2,4,-1,-1,-1],"split_conditions":[4.009E1,3.155E-1,2.3378937E-2,-2.8280417E-2,6.138056E-3],"split_indices":[13,26,0,0,0],"split_type":[0,0,0,0,0],"sum_hessian":[3.60427E0,2.3689594E0,1.2353108E0,1.3036518E0,1.0653076E0],"tree_param":{"num_deleted":"0","num_feature":"30","num_nodes":"5","size_leaf_vector":"1"}},{"base_weights":[7.636619E-2,-1.862443E-1,2.1334335E-2,1.2236094E-2,-2.2356175E-2],"categories":[],"categories_nodes":[],"categories_segments":[],"categories_sizes":[],"default_left":[0,0,0,0,0],"id":118,"left_children":[1,3,-1,-1,-1],"loss_changes":[5.465016E-1,5.139056E-1,0E0,0E0,0E0],"parents":[2147483647,0,0,1,1],"right_children":[2,4,-1,-1,-1],"split_conditions":[8.124E2,4.187E-2,2.1334335E-2,1.2236094E-2,-2.2356175E-2],"split_indices":[23,6,0,0,0],"split_type":[0,0,0,0,0],"sum_hessian":[4.076572E0,2.5976543E0,1.4789172E0,1.0028706E0,1.5947838E0],"tree_param":{"num_deleted":"0","num_feature":"30","num_nodes":"5","size_leaf_vector":"1"}},{"base_weights":[1.08171776E-1,-1.824068E-2,3.088555E-1,-4.3768133E-3,2.8486958E-2],"categories":[],"categories_nodes":[],"categories_segments":[],"categories_sizes":[],"default_left":[0,0,0,0,0],"id":119,"left_children":[1,-1,3,-1,-1],"loss_changes":[6.062255E-1,0E0,4.8339784E-1,0E0,0E0],"parents":[2147483647,0,0,2,2],"right_children":[2,-1,4,-1,-1],"split_conditions":[2.086E1,-1.824068E-2,9.688E-2,-4.3768133E-3,2.8486958E-2],"split_indices":[21,0,4,0,0],"split_type":[0,0,0,0,0],"sum_hessian":[4.1996245E0,1.007418E0,3.1922064E0,1.5307767E0,1.6614296E0],"tree_param":{"num_deleted":"0","num_feature":"30","num_nodes":"5","size_leaf_vector":"1"}},{"base_weights":[-4.049123E-2,-4.0005362E-1,2.2223128E-2,-2.6052324E-2,-3.2046286E-3],"categories":[],"categories_nodes":[],"categories_segments":[],"categories_sizes":[],"default_left":[0,0,0,0,0],"id":120,"left_children":[1,3,-1,-1,-1],"loss_changes":[1.012236E0,9.9698424E-2,0E0,0E0,0E0],"parents":[2147483647,0,0,1,1],"right_children":[2,4,-1,-1,-1],"split_conditions":[2.021E1,1.38E-1,2.2223128E-2,-2.6052324E-2,-3.2046286E-3],"split_indices":[1,24,0,0,0],"split_type":[0,0,0,0,0],"sum_hessian":[3.7853518E0,2.2742262E0,1.5111254E0,1.2670119E0,1.0072144E0],"tree_param":{"num_deleted":"0","num_feature":"30","num_nodes":"5","size_leaf_vector":"1"}},{"base_weights":[8.034683E-2,-1.8627457E-1,2.703831E-2,-2.40399E-2,9.50656E-3],"categories":[],"categories_nodes":[],"categories_segments":[],"categories_sizes":[],"default_left":[0,0,0,0,0],"id":121,"left_children":[1,3,-1,-1,-1],"loss_changes":[7.252026E-1,5.310087E-1,0E0,0E0,0E0],"parents":[2147483647,0,0,1,1],"right_children":[2,4,-1,-1,-1],"split_conditions":[3.646E1,1.025E2,2.703831E-2,-2.40399E-2,9.50656E-3],"split_indices":[13,22,0,0,0],"split_type":[0,0,0,0,0],"sum_hessian":[4.087028E0,2.9652965E0,1.1217313E0,1.5080018E0,1.4572946E0],"tree_param":{"num_deleted":"0","num_feature":"30","num_nodes":"5","size_leaf_vector":"1"}},{"base_weights":[-6.535899E-2,-2.967098E-1,1.9907532E-2,-2.7427344E-2,