{"learner":{"attributes":{},"feature_names":["time","trt","age","sex","ascites","hepato","spiders","edema","bili","chol","albumin","copper","alk.phos","ast","trig","platelet","protime"],"feature_types":["int","float","float","int","float","float","float","float","float","float","float","float","float","float","float","float","float"],"gradient_booster":{"model":{"cats":{"enc":[],"feature_segments":[],"sorted_idx":[]},"gbtree_model_param":{"num_parallel_tree":"1","num_trees":"1200"},"iteration_indptr":[0,4,8,12,16,20,24,28,32,36,40,44,48,52,56,60,64,68,72,76,80,84,88,92,96,100,104,108,112,116,120,124,128,132,136,140,144,148,152,156,160,164,168,172,176,180,184,188,192,196,200,204,208,212,216,220,224,228,232,236,240,244,248,252,256,260,264,268,272,276,280,284,288,292,296,300,304,308,312,316,320,324,328,332,336,340,344,348,352,356,360,364,368,372,376,380,384,388,392,396,400,404,408,412,416,420,424,428,432,436,440,444,448,452,456,460,464,468,472,476,480,484,488,492,496,500,504,508,512,516,520,524,528,532,536,540,544,548,552,556,560,564,568,572,576,580,584,588,592,596,600,604,608,612,616,620,624,628,632,636,640,644,648,652,656,660,664,668,672,676,680,684,688,692,696,700,704,708,712,716,720,724,728,732,736,740,744,748,752,756,760,764,768,772,776,780,784,788,792,796,800,804,808,812,816,820,824,828,832,836,840,844,848,852,856,860,864,868,872,876,880,884,888,892,896,900,904,908,912,916,920,924,928,932,936,940,944,948,952,956,960,964,968,972,976,980,984,988,992,996,1000,1004,1008,1012,1016,1020,1024,1028,1032,1036,1040,1044,1048,1052,1056,1060,1064,1068,1072,1076,1080,1084,1088,1092,1096,1100,1104,1108,1112,1116,1120,1124,1128,1132,1136,1140,1144,1148,1152,1156,1160,1164,1168,1172,1176,1180,1184,1188,1192,1196,1200],"tree_info":[0,1,2,3,0,1,2,3,0,1,2,3,0,1,2,3,0,1,2,3,0,1,2,3,0,1,2,3,0,1,2,3,0,1,2,3,0,1,2,3,0,1,2,3,0,1,2,3,0,1,2,3,0,1,2,3,0,1,2,3,0,1,2,3,0,1,2,3,0,1,2,3,0,1,2,3,0,1,2,3,0,1,2,3,0,1,2,3,0,1,2,3,0,1,2,3,0,1,2,3,0,1,2,3,0,1,2,3,0,1,2,3,0,1,2,3,0,1,2,3,0,1,2,3,0,1,2,3,0,1,2,3,0,1,2,3,0,1,2,3,0,1,2,3,0,1,2,3,0,1,2,3,0,1,2,3,0,1,2,3,0,1,2,3,0,1,2,3,0,1,2,3,0,1,2,3,0,1,2,3,0,1,2,3,0,1,2,3,0,1,2,3,0,1,2,3,0,1,2,3,0,1,2,3,0,1,2,3,0,1,2,3,0,1,2,3,0,1,2,3,0,1,2,3,0,1,2,3,0,1,2,3,0,1,2,3,0,1,2,3,0,1,2,3,0,1,2,3,0,1,2,3,0,1,2,3,0,1,2,3,0,1,2,3,0,1,2,3,0,1,2,3,0,1,2,3,0,1,2,3,0,1,2,3,0,1,2,3,0,1,2,3,0,1,2,3,0,1,2,3,0,1,2,3,0,1,2,3,0,1,2,3,0,1,2,3,0,1,2,3,0,1,2,3,0,1,2,3,0,1,2,3,0,1,2,3,0,1,2,3,0,1,2,3,0,1,2,3,0,1,2,3,0,1,2,3,0,1,2,3,0,1,2,3,0,1,2,3,0,1,2,3,0,1,2,3,0,1,2,3,0,1,2,3,0,1,2,3,0,1,2,3,0,1,2,3,0,1,2,3,0,1,2,3,0,1,2,3,0,1,2,3,0,1,2,3,0,1,2,3,0,1,2,3,0,1,2,3,0,1,2,3,0,1,2,3,0,1,2,3,0,1,2,3,0,1,2,3,0,1,2,3,0,1,2,3,0,1,2,3,0,1,2,3,0,1,2,3,0,1,2,3,0,1,2,3,0,1,2,3,0,1,2,3,0,1,2,3,0,1,2,3,0,1,2,3,0,1,2,3,0,1,2,3,0,1,2,3,0,1,2,3,0,1,2,3,0,1,2,3,0,1,2,3,0,1,2,3,0,1,2,3,0,1,2,3,0,1,2,3,0,1,2,3,0,1,2,3,0,1,2,3,0,1,2,3,0,1,2,3,0,1,2,3,0,1,2,3,0,1,2,3,0,1,2,3,0,1,2,3,0,1,2,3,0,1,2,3,0,1,2,3,0,1,2,3,0,1,2,3,0,1,2,3,0,1,2,3,0,1,2,3,0,1,2,3,0,1,2,3,0,1,2,3,0,1,2,3,0,1,2,3,0,1,2,3,0,1,2,3,0,1,2,3,0,1,2,3,0,1,2,3,0,1,2,3,0,1,2,3,0,1,2,3,0,1,2,3,0,1,2,3,0,1,2,3,0,1,2,3,0,1,2,3,0,1,2,3,0,1,2,3,0,1,2,3,0,1,2,3,0,1,2,3,0,1,2,3,0,1,2,3,0,1,2,3,0,1,2,3,0,1,2,3,0,1,2,3,0,1,2,3,0,1,2,3,0,1,2,3,0,1,2,3,0,1,2,3,0,1,2,3,0,1,2,3,0,1,2,3,0,1,2,3,0,1,2,3,0,1,2,3,0,1,2,3,0,1,2,3,0,1,2,3,0,1,2,3,0,1,2,3,0,1,2,3,0,1,2,3,0,1,2,3,0,1,2,3,0,1,2,3,0,1,2,3,0,1,2,3,0,1,2,3,0,1,2,3,0,1,2,3,0,1,2,3,0,1,2,3,0,1,2,3,0,1,2,3,0,1,2,3,0,1,2,3,0,1,2,3,0,1,2,3,0,1,2,3,0,1,2,3,0,1,2,3,0,1,2,3,0,1,2,3,0,1,2,3,0,1,2,3,0,1,2,3,0,1,2,3,0,1,2,3,0,1,2,3,0,1,2,3,0,1,2,3,0,1,2,3,0,1,2,3,0,1,2,3,0,1,2,3,0,1,2,3,0,1,2,3,0,1,2,3,0,1,2,3,0,1,2,3,0,1,2,3,0,1,2,3,0,1,2,3,0,1,2,3,0,1,2,3,0,1,2,3,0,1,2,3,0,1,2,3,0,1,2,3,0,1,2,3,0,1,2,3,0,1,2,3,0,1,2,3,0,1,2,3,0,1,2,3,0,1,2,3,0,1,2,3,0,1,2,3,0,1,2,3,0,1,2,3,0,1,2,3,0,1,2,3,0,1,2,3,0,1,2,3,0,1,2,3,0,1,2,3,0,1,2,3,0,1,2,3,0,1,2,3,0,1,2,3,0,1,2,3,0,1,2,3,0,1,2,3,0,1,2,3,0,1,2,3,0,1,2,3,0,1,2,3,0,1,2,3,0,1,2,3,0,1,2,3,0,1,2,3,0,1,2,3,0,1,2,3,0,1,2,3,0,1,2,3,0,1,2,3,0,1,2,3,0,1,2,3,0,1,2,3,0,1,2,3,0,1,2,3,0,1,2,3,0,1,2,3,0,1,2,3,0,1,2,3,0,1,2,3,0,1,2,3,0,1,2,3,0,1,2,3,0,1,2,3,0,1,2,3,0,1,2,3],"trees":[{"base_weights":[-4.0568147E-2,1.0515914E-1,-4.0568963E-1,-2.4162188E-2,9.907392E-3],"categories":[],"categories_nodes":[],"categories_segments":[],"categories_sizes":[],"default_left":[0,0,0,0,0],"id":0,"left_children":[1,-1,3,-1,-1],"loss_changes":[1.1276557E1,0E0,6.678736E-1,0E0,0E0],"parents":[2147483647,0,0,2,2],"right_children":[2,-1,4,-1,-1],"split_conditions":[7.285E1,1.0515914E-1,4.01E2,-2.4162188E-2,9.907392E-3],"split_indices":[13,0,15,0,0],"split_type":[0,0,0,0,0],"sum_hessian":[1.2316629E1,1.099699E0,1.121693E1,1.0117231E1,1.099699E0],"tree_param":{"num_deleted":"0","num_feature":"17","num_nodes":"5","size_leaf_vector":"1"}},{"base_weights":[-5.749684E-2,5.770077E-1,-2.3513976E-1,-3.0691528E-1,1.3420011E0,1.2987415E-1,-5.479844E-1,-2.3811063E-2,7.831615E-3,7.84694E-2,2.2804437E-2,-3.4971464E-1,3.7215137E-1,-3.0254116E-2,7.831615E-3,-2.5133455E-2,7.831615E-3,2.9710008E-2,5.8730073E-2,5.296298E-1,-2.229846E-1,3.221644E-2,7.831615E-3,2.2804437E-2,-2.565149E-2],"categories":[],"categories_nodes":[],"categories_segments":[],"categories_sizes":[],"default_left":[0,0,0,0,0,0,0,0,0,0,0,0,0,0,0,0,0,0,0,0,0,0,0,0,0],"id":1,"left_children":[1,3,5,7,9,11,13,-1,-1,-1,-1,15,17,-1,-1,-1,-1,19,-1,21,23,-1,-1,-1,-1],"loss_changes":[4.4714108E0,6.297039E0,3.584068E0,4.5535752E-1,2.6156425E-1,1.8737546E0,7.6893806E-1,0E0,0E0,0E0,0E0,5.0872374E-1,2.8378072E0,0E0,0E0,0E0,0E0,1.173333E0,0E0,3.1741858E-2,1.4654484E0,0E0,0E0,0E0,0E0],"parents":[2147483647,0,0,1,1,2,2,3,3,4,4,5,5,6,6,11,11,12,12,17,17,19,19,20,20],"right_children":[2,4,6,8,10,12,14,-1,-1,-1,-1,16,18,-1,-1,-1,-1,20,-1,22,24,-1,-1,-1,-1],"split_conditions":[5.2E1,2.33E2,4.8977413E1,4.127E3,2.615E3,2E0,1.6E1,-2.3811063E-2,7.831615E-3,7.84694E-2,2.2804437E-2,3.05E3,8.4E1,-3.0254116E-2,7.831615E-3,-2.5133455E-2,7.831615E-3,8E-1,5.8730073E-2,1.69E3,3.26E0,3.221644E-2,7.831615E-3,2.2804437E-2,-2.565149E-2],"split_indices":[11,15,2,0,0,1,8,0,0,0,0,0,11,0,0,0,0,8,0,0,10,0,0,0,0],"split_type":[0,0,0,0,0,0,0,0,0,0,0,0,0,0,0,0,0,0,0,0,0,0,0,0,0],"sum_hessian":[3.7466255E1,7.7033424E0,2.9762915E1,3.8516712E0,3.8516712E0,1.4006077E1,1.5756837E1,2.8012154E0,1.0504558E0,2.4510634E0,1.4006077E0,4.5519753E0,9.454102E0,1.4706381E1,1.0504558E0,3.5015192E0,1.0504558E0,7.3531904E0,2.1009116E0,2.1009116E0,5.252279E0,1.0504558E0,1.0504558E0,1.4006077E0,3.8516712E0],"tree_param":{"num_deleted":"0","num_feature":"17","num_nodes":"25","size_leaf_vector":"1"}},{"base_weights":[5.0208323E-2,2.1292719E-1,-4.9655446E-1,3.690835E-1,-3.8332593E-1,-3.604267E-2,1.8887694E-1,-3.8560858E-1,4.657447E-1,-5.5234843E-1,8.3523085E-3,3.8569015E-2,-2.359511E-2,-2.632228E-2,-2.873735E-3,5.5177706E-1,-2.632228E-2,-2.873735E-3,-3.3237197E-2,3.396483E-1,5.149873E-2,-2.5122417E-3,2.939774E-2],"categories":[],"categories_nodes":[],"categories_segments":[],"categories_sizes":[],"default_left":[0,0,0,0,0,0,0,0,0,0,0,0,0,0,0,0,0,0,0,0,0,0,0],"id":2,"left_children":[1,3,5,7,9,-1,11,13,15,17,-1,-1,-1,-1,-1,19,-1,-1,-1,21,-1,-1,-1],"loss_changes":[4.762153E0,3.9621072E0,2.0277483E0,2.5889158E0,9.3012905E-1,0E0,1.8366414E0,1.6831815E-1,2.8282747E0,3.5797834E-1,0E0,0E0,0E0,0E0,0E0,2.4748926E0,0E0,0E0,0E0,2.0414643E0,0E0,0E0,0E0],"parents":[2147483647,0,0,1,1,2,2,3,3,4,4,6,6,7,7,8,8,9,9,15,15,19,19],"right_children":[2,4,6,8,10,-1,12,14,16,18,-1,-1,-1,-1,-1,20,-1,-1,-1,22,-1,-1,-1],"split_conditions":[1.11E1,1.01E2,1.86E2,6.85E2,3.8E0,-3.604267E-2,7.2E0,5.5726215E1,5.4302E3,2.7E0,8.3523085E-3,3.8569015E-2,-2.359511E-2,-2.632228E-2,-2.873735E-3,1.09E2,-2.632228E-2,-2.873735E-3,-3.3237197E-2,3.57E0,5.149873E-2,-2.5122417E-3,2.939774E-2],"split_indices":[16,11,11,12,10,0,8,2,12,8,0,0,0,0,0,14,0,0,0,10,0,0,0],"split_type":[0,0,0,0,0,0,0,0,0,0,0,0,0,0,0,0,0,0,0,0,0,0,0],"sum_hessian":[5.1337814E1,4.0034073E1,1.1303739E1,3.202726E1,8.006815E0,8.477804E0,2.8259346E0,3.2969236E0,2.8730335E1,6.1228585E0,1.8839564E0,1.4129673E0,1.4129673E0,1.8839564E0,1.4129673E0,2.6846378E1,1.8839564E0,1.4129673E0,4.7098913E0,1.9781542E1,7.0648365E0,8.006815E0,1.1774728E1],"tree_param":{"num_deleted":"0","num_feature":"17","num_nodes":"23","size_leaf_vector":"1"}},{"base_weights":[-1.1888212E-2,-5.1723313E-1,3.0940324E-1,2.0449819E-2,-6.551012E-1,-2.3503594E-1,6.535744E-1,-3.5371657E-2,-1.5606762E-4,2.9755859E-2,-4.194435E-1,-3.275686E-1,8.577094E-1,2.1228239E-2,-5.7607806E-1,-1.5606762E-4,-2.4119241E-2,1.0533972E0,1.950558E-1,-1.5606762E-4,-3.3252206E-2,1.1792418E0,-1.5606762E-4,-2.4119241E-2,3.5928395E-2,6.62102E-2,2.0449819E-2],"categories":[],"categories_nodes":[],"categories_segments":[],"categories_sizes":[],"default_left":[0,0,0,0,0,0,0,0,0,0,0,0,0,0,0,0,0,0,0,0,0,0,0,0,0,0,0],"id":3,"left_children":[1,3,5,-1,7,9,11,-1,-1,-1,13,15,17,-1,19,-1,-1,21,23,-1,-1,25,-1,-1,-1,-1,-1],"loss_changes":[8.433744E0,2.844911E0,6.108138E0,0E0,6.102376E-1,2.246397E0,4.233453E0,0E0,0E0,0E0,1.7330657E0,2.055602E-1,1.9486475E0,0E0,5.036385E-1,0E0,0E0,1.6785965E0,2.1250064E0,0E0,0E0,7.155752E-1,0E0,0E0,0E0,0E0,0E0],"parents":[2147483647,0,0,1,1,2,2,4,4,5,5,6,6,10,10,11,11,12,12,14,14,17,17,18,18,21,21],"right_children":[2,4,6,-1,8,10,12,-1,-1,-1,14,16,18,-1,20,-1,-1,22,24,-1,-1,26,-1,-1,-1,-1,-1],"split_conditions":[1.2E0,1.81E2,1.06E1,2.0449819E-2,5.876523E1,2.58E2,4.122108E1,-3.5371657E-2,-1.5606762E-4,2.9755859E-2,3.3152634E1,1.925E3,1.82E2,2.1228239E-2,1.072E3,-1.5606762E-4,-2.4119241E-2,4.19E2,5.3916496E1,-1.5606762E-4,-3.3252206E-2,5.9969883E1,-1.5606762E-4,-2.4119241E-2,3.5928395E-2,6.62102E-2,2.0449819E-2],"split_indices":[8,15,16,0,2,9,2,0,0,0,2,0,11,0,0,0,0,15,2,0,0,2,0,0,0,0,0],"split_type":[0,0,0,0,0,0,0,0,0,0,0,0,0,0,0,0,0,0,0,0,0,0,0,0,0,0,0],"sum_hessian":[4.9958096E1,1.918034E1,3.0777756E1,2.230272E0,1.6950068E1,1.2043469E1,1.8734285E1,1.5611905E1,1.3381633E0,1.7842177E0,1.0259252E1,3.122381E0,1.5611905E1,1.3381633E0,8.921088E0,1.3381633E0,1.7842177E0,1.1597415E1,4.0144897E0,1.3381633E0,7.5829253E0,1.0259252E1,1.3381633E0,1.7842177E0,2.230272E0,8.028979E0,2.230272E0],"tree_param":{"num_deleted":"0","num_feature":"17","num_nodes":"27","size_leaf_vector":"1"}},{"base_weights":[1.2184337E-1,1.2068222E-1,-3.1704062E-1,2.3846126E-1,-2.3751667E-2,-1.4503772E-2,3.413827E-2],"categories":[],"categories_nodes":[],"categories_segments":[],"categories_sizes":[],"default_left":[0,0,0,0,0,0,0],"id":4,"left_children":[1,-1,3,5,-1,-1,-1],"loss_changes":[1.3909006E1,0E0,1.1533989E0,9.706595E-1,0E0,0E0,0E0],"parents":[2147483647,0,0,2,2,3,3],"right_children":[2,-1,4,6,-1,-1,-1],"split_conditions":[6.708E1,1.2068222E-1,9E-1,2.176E3,-2.3751667E-2,-1.4503772E-2,3.413827E-2],"split_indices":[13,0,8,0,0,0,0],"split_type":[0,0,0,0,0,0,0],"sum_hessian":[1.2067537E1,1.2163572E0,1.085118E1,2.290051E0,8.56113E0,1.2044188E0,1.0856321E0],"tree_param":{"num_deleted":"0","num_feature":"17","num_nodes":"7","size_leaf_vector":"1"}},{"base_weights":[-1.3221821E-2,3.4728006E-1,-2.2267401E-1,7.9856855E-1,-2.3092084E-2,-2.9531095E-2,1.2164174E-1,1.1061639E0,-2.2548528E-3,5.1835E-1,-2.6384974E-1,4.4784322E-1,-2.5917968E-2,1.5496227E-2,7.263097E-2,-1.665376E-2,5.574295E-2,-9.419137E-3,-2.3683859E-2,6.824632E-1,-2.0323223E-2,1.5638988E-2,-1.8810933E-2,8.765935E-1,-1.6199512E-2,1.0373979E-2,5.6086745E-2],"categories":[],"categories_nodes":[],"categories_segments":[],"categories_sizes":[],"default_left":[0,0,0,0,0,0,0,0,0,0,0,0,0,0,0,0,0,0,0,0,0,0,0,0,0,0,0],"id":5,"left_children":[1,3,5,7,9,-1,11,13,-1,15,17,19,-1,-1,-1,-1,-1,21,-1,23,-1,-1,-1,25,-1,-1,-1],"loss_changes":[3.0215154E0,2.4787683E0,3.27356E0,1.7790322E0,1.3173469E0,0E0,3.1307943E0,9.076104E-1,0E0,1.9584086E0,3.655964E-1,2.2283363E0,0E0,0E0,0E0,0E0,0E0,6.085026E-1,0E0,1.8489306E0,0E0,0E0,0E0,9.128742E-1,0E0,0E0,0E0],"parents":[2147483647,0,0,1,1,2,2,3,3,4,4,6,6,7,7,9,9,10,10,11,11,17,17,19,19,23,23],"right_children":[2,4,6,8,10,-1,12,14,-1,16,18,20,-1,-1,-1,-1,-1,22,-1,24,-1,-1,-1,26,-1,-1,-1],"split_conditions":[4.5607117E1,3.56E0,3.47E0,1.09E2,1.0449E2,-2.9531095E-2,3.91E0,1E0,-2.2548528E-3,8.256E1,1.69E3,3.02E2,-2.5917968E-2,1.5496227E-2,7.263097E-2,-1.665376E-2,5.574295E-2,1.3674E2,-2.3683859E-2,6.0999317E1,-2.0323223E-2,1.5638988E-2,-1.8810933E-2,4.96564E1,-1.6199512E-2,1.0373979E-2,5.6086745E-2],"split_indices":[2,10,10,14,13,0,10,8,0,13,0,15,0,0,0,0,0,13,0,2,0,0,0,2,0,0,0],"split_type":[0,0,0,0,0,0,0,0,0,0,0,0,0,0,0,0,0,0,0,0,0,0,0,0,0,0,0],"sum_hessian":[3.799175E1,1.3719749E1,2.4272E1,5.6631856E0,8.056564E0,1.1387533E1,1.2884466E1,3.9220793E0,1.7411063E0,2.1248882E0,5.931676E0,8.733397E0,4.1510696E0,1.7635561E0,2.158523E0,1.057333E0,1.0675552E0,3.1531491E0,2.7785265E0,7.009513E0,1.7238839E0,1.7570336E0,1.3961157E0,5.984263E0,1.0252501E0,2.0996451E0,3.8846178E0],"tree_param":{"num_deleted":"0","num_feature":"17","num_nodes":"27","size_leaf_vector":"1"}},{"base_weights":[-3.0419083E-2,1.01333134E-1,-4.317273E-1,2.4661191E-1,-3.9898157E-1,-3.4959678E-2,4.1314416E-2,1.2713617E-1,4.8624624E-2,-3.225453E-2,-7.757627E-2,3.0998027E-2,-2.7760351E-2,4.283258E-2,-3.6921527E-2,2.5239924E-2,-2.7952198E-2,-4.8688874E-1,9.638273E-2,-3.0120525E-3,-3.0692685E-2,3.744292E-2,-4.231596E-3],"categories":[],"categories_nodes":[],"categories_segments":[],"categories_sizes":[],"default_left":[0,0,0,0,0,0,0,0,0,0,0,0,0,0,0,0,0,0,0,0,0,0,0],"id":6,"left_children":[1,3,5,7,9,-1,11,13,-1,-1,15,-1,-1,-1,17,-1,-1,19,21,-1,-1,-1,-1],"loss_changes":[2.8153546E0,3.02568E0,1.6921892E0,2.6367116E0,6.9704723E-1,0E0,2.3091316E0,3.4402761E0,0E0,0E0,1.7493808E0,0E0,0E0,0E0,1.49913E0,0E0,0E0,2.717011E-1,2.367891E0,0E0,0E0,0E0,0E0],"parents":[2147483647,0,0,1,1,2,2,3,3,4,4,6,6,7,7,10,10,14,14,17,17,18,18],"right_children":[2,4,6,8,10,-1,12,14,-1,-1,16,-1,-1,-1,18,-1,-1,20,22,-1,-1,-1,-1],"split_conditions":[1.11E1,8.8E1,1.43E2,1.39E2,3.82E2,-3.4959678E-2,6.1E0,1.168E3,4.8624624E-2,-3.225453E-2,1.06E1,3.0998027E-2,-2.7760351E-2,4.283258E-2,8.7E1,2.5239924E-2,-2.7952198E-2,9.9E0,1.116E2,-3.0120525E-3,-3.0692685E-2,3.744292E-2,-4.231596E-3],"split_indices":[16,11,11,14,9,0,8,0,0,0,16,0,0,0,13,0,0,16,13,0,0,0,0],"split_type":[0,0,0,0,0,0,0,0,0,0,0,0,0,0,0,0,0,0,0,0,0,0,0],"sum_hessian":[5.141982E1,3.927354E1,1.2146278E1,3.082874E1,8.444802E0,7.4537277E0,4.6925507E0,2.748072E1,3.34802E0,4.2122617E0,4.2325406E0,2.3620188E0,2.3305318E0,4.270305E0,2.3210415E1,1.8936081E0,2.3389325E0,4.6984344E0,1.851198E1,1.4156873E0,3.2827468E0,3.3390863E0,1.51728945E1],"tree_param":{"num_deleted":"0","num_feature":"17","num_nodes":"23","size_leaf_vector":"1"}},{"base_weights":[-5.385835E-3,-5.3039867E-1,2.8438348E-1,-6.293781E-1,4.7752466E-3,-1.0431594E-1,8.617816E-1,-2.7189982E-1,-3.4199666E-2,1.3128676E-1,-3.1330083E-2,5.9114106E-2,5.0117725E-1,-2.1409286E-2,5.5508997E-5,-2.7132189E-2,3.2985067E-1,-2.4107067E-2,8.761544E-1,4.6825385E-1,-2.1442834E-2,1.1854752E-2,5.4601878E-2,3.0290836E-2,-6.262126E-3],"categories":[],"categories_nodes":[],"categories_segments":[],"categories_sizes":[],"default_left":[0,0,0,0,0,0,0,0,0,0,0,0,0,0,0,0,0,0,0,0,0,0,0,0,0],"id":7,"left_children":[1,3,5,7,-1,9,11,13,-1,15,-1,-1,17,-1,-1,-1,19,-1,21,23,-1,-1,-1,-1,-1],"loss_changes":[7.4242654E0,1.1350989E0,7.15008E0,1.0911417E-1,0E0,2.5055292E0,8.8272667E-1,1.5676448E-1,0E0,2.1056917E0,0E0,0E0,3.277209E0,0E0,0E0,0E0,1.4339304E0,0E0,5.633273E-1,9.2573595E-1,0E0,0E0,0E0,0E0,0E0],"parents":[2147483647,0,0,1,1,2,2,3,3,5,5,6,6,7,7,9,9,12,12,16,16,18,18,19,19],"right_children":[2,4,6,8,-1,10,12,14,-1,16,-1,-1,18,-1,-1,-1,20,-1,22,24,-1,-1,-1,-1,-1],"split_conditions":[1.3E0,6.4E1,5.3916496E1,4E1,4.7752466E-3,3.68E0,5.9408623E1,3.81E0,-3.4199666E-2,4.0900753E1,-3.1330083E-2,5.9114106E-2,6.1242985E1,-2.1409286E-2,5.5508997E-5,-2.7132189E-2,1.41E1,-2.4107067E-2,2.5E0,1.61E2,-2.1442834E-2,1.1854752E-2,5.4601878E-2,3.0290836E-2,-6.262126E-3],"split_indices":[8,2,2,2,0,10,2,10,0,2,0,0,2,0,0,0,8,0,8,11,0,0,0,0,0],"split_type":[0,0,0,0,0,0,0,0,0,0,0,0,0,0,0,0,0,0,0,0,0,0,0,0,0],"sum_hessian":[4.6809788E1,1.6352114E1,3.0457674E1,1.4114515E1,2.2375982E0,1.8693026E1,1.1764648E1,2.662946E0,1.145157E1,1.33978815E1,5.295144E0,5.0222893E0,6.7423596E0,1.3320305E0,1.3309156E0,2.6547515E0,1.0743131E1,1.78243E0,4.9599295E0,9.409482E0,1.333648E0,1.7822754E0,3.1776543E0,7.6220546E0,1.7874279E0],"tree_param":{"num_deleted":"0","num_feature":"17","num_nodes":"25","size_leaf_vector":"1"}},{"base_weights":[-8.20876E-2,7.101843E-1,-2.3511E-2,5.990706E-2,2.1068676E-1,-1.5468731E-2,3.631737E-2],"categories":[],"categories_nodes":[],"categories_segments":[],"categories_sizes":[],"default_left":[0,0,0,0,0,0,0],"id":8,"left_children":[1,3,-1,-1,5,-1,-1],"loss_changes":[4.123575E0,8.3231854E-1,0E0,0E0,1.1398985E0,0E0,0E0],"parents":[2147483647,0,0,1,1,4,4],"right_children":[2,4,-1,-1,6,-1,-1],"split_conditions":[1E0,8.256E1,-2.3511E-2,5.990706E-2,3.12E2,-1.5468731E-2,3.631737E-2],"split_indices":[8,13,0,0,15,0,0],"split_type":[0,0,0,0,0,0,0],"sum_hessian":[1.1323751E1,3.450566E0,7.8731856E0,1.0379268E0,2.4126391E0,1.4003652E0,1.012274E0],"tree_param":{"num_deleted":"0","num_feature":"17","num_nodes":"7","size_leaf_vector":"1"}},{"base_weights":[4.1136585E-2,7.765578E-1,-1.1050082E-1,4.2677257E-2,6.476479E-2,-2.730523E-2,2.589321E-3,-2.0621488E-2,3.1369463E-2,5.558383E-2,-8.543699E-2,-1.8003395E-1,4.471433E-1,3.985921E-1,-2.6983988E-1,-2.0417398E-2,6.028647E-2,3.108165E-2,1.9588412E-3,-1.6475486E-2,5.9111933E-3],"categories":[],"categories_nodes":[],"categories_segments":[],"categories_sizes":[],"default_left":[0,0,0,0,0,0,0,0,0,0,0,0,0,0,0,0,0,0,0,0,0],"id":9,"left_children":[1,3,5,7,-1,-1,9,-1,-1,-1,11,13,15,17,19,-1,-1,-1,-1,-1,-1],"loss_changes":[4.4065375E0,2.5135427E0,1.6269338E0,1.2775373E0,0E0,0E0,2.7496457E0,0E0,0E0,0E0,1.3964695E0,1.2972102E0,3.235409E0,2.5458163E-1,5.116621E-1,0E0,0E0,0E0,0E0,0E0,0E0],"parents":[2147483647,0,0,1,1,2,2,3,3,6,6,10,10,11,11,12,12,13,13,14,14],"right_children":[2,4,6,8,-1,-1,10,-1,-1,-1,12,14,16,18,20,-1,-1,-1,-1,-1,-1],"split_conditions":[8.04E2,7.13E1,7.88E2,2.5E2,6.476479E-2,-2.730523E-2,8.9E2,-2.0621488E-2,3.1369463E-2,5.558383E-2,3.839E3,9.9E0,2.66E2,1.3E0,1.12E1,-2.0417398E-2,6.028647E-2,3.108165E-2,1.9588412E-3,-1.6475486E-2,5.9111933E-3],"split_indices":[12,13,0,9,0,0,0,0,0,0,0,16,9,8,16,0,0,0,0,0,0],"split_type":[0,0,0,0,0,0,0,0,0,0,0,0,0,0,0,0,0,0,0,0,0],"sum_hessian":[3.7744877E1,5.7477765E0,3.19971E1,2.828479E0,2.9192977E0,5.805681E0,2.6191422E1,1.7561978E0,1.0722811E0,1.0708122E0,2.5120607E1,2.1893791E1,3.226818E0,2.4795434E0,1.9414248E1,1.7335337E0,1.4932842E0,1.0798548E0,1.3996886E0,1.6957672E1,2.456574E0],"tree_param":{"num_deleted":"0","num_feature":"17","num_nodes":"21","size_leaf_vector":"1"}},{"base_weights":[2.331777E-3,1.5121318E-1,-4.4716963E-1,2.9608783E-1,-3.8800296E-1,-3.4880947E-2,4.0515956E-2,1.9336577E-1,4.708783E-2,-3.182557E-2,-6.582763E-2,3.017366E-2,-2.7343273E-2,6.607231E-1,8.0428E-3,1.6352266E-2,-2.5312556E-2,7.659921E-3,3.906348E-2,-3.0607307E-2,1.4341143E-1,1.6098378E-2,-1.2356652E-2],"categories":[],"categories_nodes":[],"categories_segments":[],"categories_sizes":[],"default_left":[0,0,0,0,0,0,0,0,0,0,0,0,0,0,0,0,0,0,0,0,0,0,0],"id":10,"left_children":[1,3,5,7,9,-1,11,13,-1,-1,15,-1,-1,17,19,-1,-1,-1,-1,-1,21,-1,-1],"loss_changes":[3.761255E0,3.4121048E0,1.7364028E0,2.0620735E0,7.084098E-1,0E0,2.2116113E0,2.6320612E0,0E0,0E0,1.0646715E0,0E0,0E0,4.0853024E-1,2.0033383E0,0E0,0E0,0E0,0E0,0E0,1.4420965E0,0E0,0E0],"parents":[2147483647,0,0,1,1,2,2,3,3,4,4,6,6,7,7,10,10,13,13,14,14,20,20],"right_children":[2,4,6,8,10,-1,12,14,-1,-1,16,-1,-1,18,20,-1,-1,-1,-1,-1,22,-1,-1],"split_conditions":[1.11E1,7.9E1,1.43E2,1.39E2,1.3674E2,-3.4880947E-2,7.2E0,1.42E3,4.708783E-2,-3.182557E-2,2E0,3.017366E-2,-2.7343273E-2,8.53E2,1.558E3,1.6352266E-2,-2.5312556E-2,7.659921E-3,3.906348E-2,-3.0607307E-2,2.73E2,1.6098378E-2,-1.2356652E-2],"split_indices":[16,11,11,14,13,0,8,0,0,0,1,0,0,0,0,0,0,0,0,0,15,0,0],"split_type":[0,0,0,0,0,0,0,0,0,0,0,0,0,0,0,0,0,0,0,0,0,0,0],"sum_hessian":[5.4192837E1,4.120781E1,1.2985027E1,3.283635E1,8.371461E0,8.294796E0,4.6902323E0,2.945044E1,3.3859093E0,4.1752415E0,4.1962194E0,2.3809195E0,2.3093128E0,7.633818E0,2.1816622E1,2.3538945E0,1.8423252E0,1.9010186E0,5.7327995E0,3.2777236E0,1.8538898E1,1.2842793E1,5.696105E0],"tree_param":{"num_deleted":"0","num_feature":"17","num_nodes":"23","size_leaf_vector":"1"}},{"base_weights":[-4.2201847E-2,4.3451163E-1,-2.736783E-1,-2.0516555E-1,6.435946E-1,-5.128212E-1,2.8211784E-1,-2.7412642E-2,2.1089384E-2,8.0017084E-1,-2.1538544E-2,2.7757881E-2,-6.2077653E-1,6.913006E-1,-3.861382E-1,9.502304E-1,5.0155898E-3,-6.590904E-1,5.286107E-4,-5.9700445E-3,4.850602E-2,6.540471E-4,-2.6716191E-2,2.052176E-2,1.0560552E0,-3.5095368E-2,1.9750014E-4,5.7255205E-2,1.925402E-2],"categories":[],"categories_nodes":[],"categories_segments":[],"categories_sizes":[],"default_left":[0,0,0,0,0,0,0,0,0,0,0,0,0,0,0,0,0,0,0,0,0,0,0,0,0,0,0,0,0],"id":11,"left_children":[1,3,5,7,9,11,13,-1,-1,15,-1,-1,17,19,21,23,-1,25,-1,-1,-1,-1,-1,-1,27,-1,-1,-1,-1],"loss_changes":[5.8244343E0,2.4440372E0,4.8522882E0,1.3103195E0,2.5769486E0,3.240613E0,3.3568115E0,0E0,0E0,1.1577749E0,0E0,0E0,5.702038E-1,1.7810624E0,2.9882312E-1,1.21068E-1,0E0,6.2642956E-1,0E0,0E0,0E0,0E0,0E0,0E0,5.990982E-3,0E0,0E0,0E0,0E0],"parents":[2147483647,0,0,1,1,2,2,3,3,4,4,5,5,6,6,9,9,12,12,13,13,14,14,15,15,17,17,24,24],"right_children":[2,4,6,8,10,12,14,-1,-1,16,-1,-1,18,20,22,24,-1,26,-1,-1,-1,-1,-1,-1,28,-1,-1,-1,-1],"split_conditions":[1.98E2,1E0,1.718E3,1.55E2,1.581E2,2.83E0,3.58E0,-2.7412642E-2,2.1089384E-2,3.1E2,-2.1538544E-2,2.7757881E-2,2E2,4.3000683E1,3.39E2,4.1152634E1,5.0155898E-3,6.1242985E1,5.286107E-4,-5.9700445E-3,4.850602E-2,6.540471E-4,-2.6716191E-2,2.052176E-2,6.741136E1,-3.5095368E-2,1.9750014E-4,5.7255205E-2,1.925402E-2],"split_indices":[15,5,12,15,13,10,10,0,0,9,0,0,14,2,9,2,0,2,0,0,0,0,0,0,2,0,0,0,0],"split_type":[0,0,0,0,0,0,0,0,0,0,0,0,0,0,0,0,0,0,0,0,0,0,0,0,0,0,0,0,0],"sum_hessian":[5.0704796E1,1.6286495E1,3.44183E1,4.0166197E0,1.2269875E1,2.4118246E1,1.0300056E1,2.677139E0,1.3394809E0,1.0931894E1,1.3379799E0,1.8338542E0,2.2284391E1,6.366979E0,3.9330773E0,8.707203E0,2.2246919E0,2.0967993E1,1.3163989E0,1.7756965E0,4.591283E0,1.3115163E0,2.621561E0,2.226848E0,6.4803553E0,1.9641022E1,1.3269714E0,5.0972433E0,1.383112E0],"tree_param":{"num_deleted":"0","num_feature":"17","num_nodes":"29","size_leaf_vector":"1"}},{"base_weights":[2.8284555E-2,-3.7875426E-1,9.687415E-1,1.1325923E-2,-2.3569888E-2,8.333894E-2,2.3804146E-1,-1.4773537E-2,3.577582E-2],"categories":[],"categories_nodes":[],"categories_segments":[],"categories_sizes":[],"default_left":[0,0,0,0,0,0,0,0,0],"id":12,"left_children":[1,3,5,-1,-1,-1,7,-1,-1],"loss_changes":[5.5218287E0,6.7411005E-1,1.8213878E0,0E0,0E0,0E0,1.0498405E0,0E0,0E0],"parents":[2147483647,0,0,1,1,2,2,6,6],"right_children":[2,4,6,-1,-1,-1,8,-1,-1],"split_conditions":[2.534E3,8.84E2,2.59E2,1.1325923E-2,-2.3569888E-2,8.333894E-2,2.95E2,-1.4773537E-2,3.577582E-2],"split_indices":[0,12,9,0,0,0,15,0,0],"split_type":[0,0,0,0,0,0,0,0,0],"sum_hessian":[1.2466249E1,9.117412E0,3.3488379E0,1.0184512E0,8.09896E0,1.0575192E0,2.291319E0,1.2621837E0,1.0291351E0],"tree_param":{"num_deleted":"0","num_feature":"17","num_nodes":"9","size_leaf_vector":"1"}},{"base_weights":[4.1830357E-2,-4.7864583E-1,2.2509871E-1,7.860984E-3,-2.8339261E-2,7.441063E-1,8.3333746E-2,-1.683701E-2,1.0376766E0,4.295004E-1,-2.2394967E-1,7.14258E-2,1.2207915E-3,2.5040777E-2,1.1167269E0,-2.7242398E-2,8.9532085E-2,5.656279E-1,-2.5282044E-2,8.020603E-3,6.8656564E-2,-2.1247016E-2,3.48506E-1,-2.0404615E-2,6.447855E-2,5.3577334E-2,-3.2651771E-3],"categories":[],"categories_nodes":[],"categories_segments":[],"categories_sizes":[],"default_left":[0,0,0,0,0,0,0,0,0,0,0,0,0,0,0,0,0,0,0,0,0,0,0,0,0,0,0],"id":13,"left_children":[1,3,5,-1,-1,7,9,-1,11,13,15,-1,-1,17,19,-1,21,23,-1,-1,-1,-1,25,-1,-1,-1,-1],"loss_changes":[3.7974515E0,6.715982E-1,2.092937E0,0E0,0E0,2.3032358E0,2.6630063E0,0E0,1.9798055E0,3.2213774E0,1.4008495E0,0E0,0E0,2.6906292E0,8.3610725E-1,0E0,1.1683724E0,3.7859802E0,0E0,0E0,0E0,0E0,1.7583978E0,0E0,0E0,0E0,0E0],"parents":[2147483647,0,0,1,1,2,2,5,5,6,6,8,8,9,9,10,10,13,13,14,14,16,16,17,17,22,22],"right_children":[2,4,6,-1,-1,8,10,-1,12,14,16,-1,-1,18,20,-1,22,24,-1,-1,-1,-1,26,-1,-1,-1,-1],"split_conditions":[3.16E0,4.1355236E1,8.04E2,7.860984E-3,-2.8339261E-2,2.19E2,4.5607117E1,-1.683701E-2,5.5967144E1,4.122108E1,5.2060234E1,7.14258E-2,1.2207915E-3,3.8398357E1,1.1625E2,-2.7242398E-2,3.52E0,1.02E1,-2.5282044E-2,8.020603E-3,6.8656564E-2,-2.1247016E-2,3.64E0,-2.0404615E-2,6.447855E-2,5.3577334E-2,-3.2651771E-3],"split_indices":[10,2,12,0,0,9,2,0,2,2,2,0,0,2,13,0,10,16,0,0,0,0,10,0,0,0,0],"split_type":[0,0,0,0,0,0,0,0,0,0,0,0,0,0,0,0,0,0,0,0,0,0,0,0,0,0,0],"sum_hessian":[3.768154E1,9.393262E0,2.828828E1,1.0481087E0,8.345153E0,5.1575174E0,2.3130762E1,1.070217E0,4.0873003E0,1.0690156E1,1.2440607E1,2.653832E0,1.4334685E0,7.3819985E0,3.308157E0,5.78287E0,6.6577373E0,3.6242492E0,3.7577496E0,1.0431452E0,2.2650118E0,2.0146375E0,4.6431E0,1.7315571E0,1.892692E0,1.1115113E0,3.5315883E0],"tree_param":{"num_deleted":"0","num_feature":"17","num_nodes":"27","size_leaf_vector":"1"}},{"base_weights":[-3.2634962E-2,1.4441353E-1,-4.8369053E-1,-5.031823E-1,2.501956E-1,-5.883978E-1,1.7841835E-2,-2.6618715E-3,-3.1280868E-2,3.657927E-1,-3.0471528E-2,-3.5326116E-2,-6.1879233E-2,4.592248E-1,-3.6594456E-1,1.706452E-2,-2.2379471E-2,2.6425645E-2,5.966543E-1,-2.5306536E-2,-2.3363633E-3,2.9627327E-2,-1.5751123E-2,1.6130045E-2,3.992425E-2],"categories":[],"categories_nodes":[],"categories_segments":[],"categories_sizes":[],"default_left":[0,0,0,0,0,0,0,0,0,0,0,0,0,0,0,0,0,0,0,0,0,0,0,0,0],"id":14,"left_children":[1,3,5,7,9,11,-1,-1,-1,13,-1,-1,15,17,19,-1,-1,21,23,-1,-1,-1,-1,-1,-1],"loss_changes":[4.576449E0,2.954785E0,1.6301565E0,3.0441034E-1,3.816639E0,8.7221336E-1,0E0,0E0,0E0,2.3902092E0,0E0,0E0,7.4283385E-1,1.7249718E0,1.6594446E-1,0E0,0E0,1.7523516E0,9.6849155E-1,0E0,0E0,0E0,0E0,0E0,0E0],"parents":[2147483647,0,0,1,1,2,2,3,3,4,4,5,5,9,9,12,12,13,13,14,14,17,17,18,18],"right_children":[2,4,6,8,10,12,-1,-1,-1,14,-1,-1,16,18,20,-1,-1,22,24,-1,-1,-1,-1,-1,-1],"split_conditions":[1.11E1,8.04E2,4.6512E3,3.6E0,5.4302E3,1.86E2,1.7841835E-2,-2.6618715E-3,-3.1280868E-2,1.3E2,-3.0471528E-2,-3.5326116E-2,1.7205E2,3.36E0,3.72E0,1.706452E-2,-2.2379471E-2,1.067E3,1.02E1,-2.5306536E-2,-2.3363633E-3,2.9627327E-2,-1.5751123E-2,1.6130045E-2,3.992425E-2],"split_indices":[16,12,12,10,12,11,0,0,0,11,0,0,13,10,10,0,0,0,16,0,0,0,0,0,0],"split_type":[0,0,0,0,0,0,0,0,0,0,0,0,0,0,0,0,0,0,0,0,0,0,0,0,0],"sum_hessian":[5.5432133E1,4.0295258E1,1.5136876E1,5.1303806E0,3.5164875E1,1.3726845E1,1.4100322E0,1.4043312E0,3.7260494E0,3.1503023E1,3.6618528E0,1.0932304E1,2.7945397E0,2.8266256E1,3.2367678E0,1.422653E0,1.3718867E0,7.0997353E0,2.1166521E1,1.8422129E0,1.3945549E0,2.3944104E0,4.7053246E0,1.0079103E1,1.1087417E1],"tree_param":{"num_deleted":"0","num_feature":"17","num_nodes":"25","size_leaf_vector":"1"}},{"base_weights":[2.7668744E-2,-4.6169993E-1,3.4624404E-1,-5.3920126E-1,1.2088299E-2,8.3186984E-1,1.6543072E-1,5.265308E-2,-3.3989366E-2,3.5649347E-1,5.269746E-2,4.6639256E-2,4.297091E-2,-2.1997666E-2,1.9653182E-2,-9.4047375E-4,2.7104259E-2,5.9518963E-1,-8.07292E-2,6.430251E-4,4.2764124E-2,-3.7534216E-1,2.3099357E-1,-2.832902E-2,-9.672112E-3,3.641118E-2,-8.133683E-3],"categories":[],"categories_nodes":[],"categories_segments":[],"categories_sizes":[],"default_left":[0,0,0,0,0,0,0,0,0,0,0,0,0,0,0,0,0,0,0,0,0,0,0,0,0,0,0],"id":15,"left_children":[1,3,5,7,-1,9,11,13,-1,15,-1,-1,17,-1,-1,-1,-1,19,21,-1,-1,23,25,-1,-1,-1,-1],"loss_changes":[8.277792E0,1.2731113E0,2.6819515E0,1.6325169E0,0E0,5.1780987E-1,2.275991E0,9.4621813E-1,0E0,3.031662E-1,0E0,0E0,1.571571E0,0E0,0E0,0E0,0E0,6.2530553E-1,1.8409883E0,0E0,0E0,2.4527144E-1,2.0564277E0,0E0,0E0,0E0,0E0],"parents":[2147483647,0,0,1,1,2,2,3,3,5,5,6,6,7,7,9,9,12,12,17,17,18,18,21,21,22,22],"right_children":[2,4,6,8,-1,10,12,14,-1,16,-1,-1,18,-1,-1,-1,-1,20,22,-1,-1,24,26,-1,-1,-1,-1],"split_conditions":[1.3E0,3.82E2,7.88E2,1.81E2,1.2088299E-2,7.2E0,1.24E2,3.06E0,-3.3989366E-2,1E0,5.269746E-2,4.6639256E-2,1.0578E2,-2.1997666E-2,1.9653182E-2,-9.4047375E-4,2.7104259E-2,1.847E3,1.2865E2,6.430251E-4,4.2764124E-2,1.418E3,3.3E0,-2.832902E-2,-9.672112E-3,3.641118E-2,-8.133683E-3],"split_indices":[8,15,0,15,0,8,15,10,0,6,0,0,13,0,0,0,0,0,13,0,0,12,8,0,0,0,0],"split_type":[0,0,0,0,0,0,0,0,0,0,0,0,0,0,0,0,0,0,0,0,0,0,0,0,0,0,0],"sum_hessian":[5.1071144E1,1.9960394E1,3.111075E1,1.8189907E1,1.7704873E0,7.463819E0,2.364693E1,3.6114607E0,1.4578446E1,3.2061288E0,4.2576904E0,2.343718E0,2.1303213E1,1.356319E0,2.2551417E0,1.3582106E0,1.8479182E0,3.2011538E0,1.8102058E1,1.3123475E0,1.8888063E0,9.20151E0,8.900548E0,3.4546814E0,5.746829E0,3.5574224E0,5.3431263E0],"tree_param":{"num_deleted":"0","num_feature":"17","num_nodes":"27","size_leaf_vector":"1"}},{"base_weights":[-2.2312429E-2,8.946516E-2,-3.9596245E-1,-4.6504065E-2,-2.3593957E-2,1.0941989E-2,-1.4015797E-2],"categories":[],"categories_nodes":[],"categories_segments":[],"categories_sizes":[],"default_left":[0,0,0,0,0,0,0],"id":16,"left_children":[1,-1,3,5,-1,-1,-1],"loss_changes":[9.392939E0,0E0,2.8194463E-1,2.569977E-1,0E0,0E0,0E0],"parents":[2147483647,0,0,2,2,3,3],"right_children":[2,-1,4,6,-1,-1,-1],"split_conditions":[6.708E1,8.946516E-2,9E-1,4.6390144E1,-2.3593957E-2,1.0941989E-2,-1.4015797E-2],"split_indices":[13,0,8,2,0,0,0],"split_type":[0,0,0,0,0,0,0],"sum_hessian":[1.1829533E1,1.3748682E0,1.0454664E1,2.1536381E0,8.301026E0,1.0387906E0,1.1148477E0],"tree_param":{"num_deleted":"0","num_feature":"17","num_nodes":"7","size_leaf_vector":"1"}},{"base_weights":[-3.382113E-2,2.3492746E-1,-2.8234017E-1,9.330421E-2,5.82152E-2,2.8724631E-2,-3.5912806E-1,2.3926741E-1,-2.403573E-2,-1.4236383E-1,-4.9705523E-1,5.670076E-1,-9.695209E-2,-2.4087196E-2,1.0259007E-1,-2.8708026E-2,7.87134E-3,-2.0410115E-2,9.077536E-1,2.9405592E-2,-2.8384128E-1,2.9440794E-2,-1.2070549E-1,6.5130614E-2,-2.5703022E-3,6.9089434E-3,-1.898308E-2,-1.9933062E-2,6.6805803E-3],"categories":[],"categories_nodes":[],"categories_segments":[],"categories_sizes":[],"default_left":[0,0,0,0,0,0,0,0,0,0,0,0,0,0,0,0,0,0,0,0,0,0,0,0,0,0,0,0,0],"id":17,"left_children":[1,3,5,7,-1,-1,9,11,-1,13,15,17,19,-1,21,-1,-1,-1,23,-1,25,-1,27,-1,-1,-1,-1,-1,-1],"loss_changes":[2.7518754E0,2.5059216E0,1.6107036E0,1.6503576E0,0E0,0E0,5.333154E-1,1.7384192E0,0E0,8.190908E-1,6.932576E-1,2.9898016E0,1.2417612E0,0E0,7.444002E-1,0E0,0E0,0E0,2.3967137E0,0E0,3.4645438E-1,0E0,4.123508E-1,0E0,0E0,0E0,0E0,0E0,0E0],"parents":[2147483647,0,0,1,1,2,2,3,3,6,6,7,7,9,9,10,10,11,11,12,12,14,14,18,18,20,20,22,22],"right_children":[2,4,6,8,-1,-1,10,12,-1,14,16,18,20,-1,22,-1,-1,-1,24,-1,26,-1,28,-1,-1,-1,-1,-1,-1],"split_conditions":[4.8977413E1,6.4E0,3.8E1,1.2E2,5.82152E-2,2.8724631E-2,1.9E0,1E0,-2.403573E-2,9E-1,1.74E1,2.44E2,8E-1,-2.4087196E-2,6.8E1,-2.8708026E-2,7.87134E-3,-2.0410115E-2,7E1,2.9405592E-2,3.40397E1,2.9440794E-2,2.25E2,6.5130614E-2,-2.5703022E-3,6.9089434E-3,-1.898308E-2,-1.9933062E-2,6.6805803E-3],"split_indices":[2,8,11,14,0,0,8,5,0,8,8,9,8,0,11,0,0,0,11,0,2,0,15,0,0,0,0,0,0],"split_type":[0,0,0,0,0,0,0,0,0,0,0,0,0,0,0,0,0,0,0,0,0,0,0,0,0,0,0,0,0],"sum_hessian":[3.920932E1,1.8864227E1,2.0345093E1,1.7324608E1,1.5396199E0,1.1402403E0,1.9204853E1,1.4277305E1,3.0473034E0,8.258339E0,1.0946513E1,6.8822246E0,7.3950796E0,3.0566804E0,5.2016582E0,9.902601E0,1.0439123E0,1.7307827E0,5.1514416E0,1.1248747E0,6.270205E0,1.1218647E0,4.0797935E0,3.395524E0,1.7559175E0,1.0784289E0,5.1917763E0,1.678119E0,2.4016747E0],"tree_param":{"num_deleted":"0","num_feature":"17","num_nodes":"29","size_leaf_vector":"1"}},{"base_weights":[-2.4906872E-2,-5.797888E-1,8.115025E-2,-3.3652164E-2,-2.4737755E-3,-4.1587633E-1,2.1552679E-1,-3.3245027E-2,8.713553E-2,-2.7279709E-2,2.8114015E-1,2.4304865E-2,-2.2062236E-2,3.5963756E-1,-3.7068093E-1,2.6147038E-1,3.9551172E-2,-1.9878088E-3,-2.5824903E-2,4.287864E-2,8.441287E-3],"categories":[],"categories_nodes":[],"categories_segments":[],"categories_sizes":[],"default_left":[0,0,0,0,0,0,0,0,0,0,0,0,0,0,0,0,0,0,0,0,0],"id":18,"left_children":[1,3,5,-1,-1,7,9,-1,11,-1,13,-1,-1,15,17,19,-1,-1,-1,-1,-1],"loss_changes":[3.2364886E0,4.0285778E-1,3.187118E0,0E0,0E0,1.3370482E0,2.0094433E0,0E0,1.1136692E0,0E0,1.9177954E0,0E0,0E0,1.1328535E0,1.8411636E-1,1.3609173E0,0E0,0E0,0E0,0E0,0E0],"parents":[2147483647,0,0,1,1,2,2,5,5,6,6,8,8,10,10,13,13,14,14,15,15],"right_children":[2,4,6,-1,-1,8,10,-1,12,-1,14,-1,-1,16,18,20,-1,-1,-1,-1,-1],"split_conditions":[8.04E2,1.35E2,9.35E2,-3.3652164E-2,-2.4737755E-3,5.6E1,1.24E2,-3.3245027E-2,1.2126E2,-2.7279709E-2,3.839E3,2.4304865E-2,-2.2062236E-2,2.769E3,3.57E0,1.49E2,3.9551172E-2,-1.9878088E-3,-2.5824903E-2,4.287864E-2,8.441287E-3],"split_indices":[12,14,0,0,0,2,15,0,13,0,0,0,0,0,10,15,0,0,0,0,0],"split_type":[0,0,0,0,0,0,0,0,0,0,0,0,0,0,0,0,0,0,0,0,0],"sum_hessian":[5.3196823E1,7.8194356E0,4.5377388E1,6.421148E0,1.398288E0,9.211479E0,3.616591E1,5.945984E0,3.2654948E0,2.2897153E0,3.3876194E1,1.9062071E0,1.3592877E0,3.0635128E1,3.241065E0,2.6264446E1,4.3706822E0,1.380571E0,1.8604941E0,2.4222715E0,2.3842175E1],"tree_param":{"num_deleted":"0","num_feature":"17","num_nodes":"21","size_leaf_vector":"1"}},{"base_weights":[2.0950435E-2,-2.46177E-1,3.8029927E-1,2.8088633E-2,-3.249407E-1,9.447314E-2,7.3922396E-1,-5.143568E-1,3.4371924E-2,4.2110506E-2,-3.172946E-1,-6.871973E-3,9.8065376E-1,-7.7027647E-4,-5.565622E-1,3.001115E-1,-2.6007513E-2,-4.9880674E-1,1.9339925E-2,5.343741E-2,1.811003E-2,-5.8235056E-3,-6.0382277E-1,3.8781658E-2,-1.5385568E-1,-2.5106943E-1,-2.8964868E-2,-5.9554325E-3,-3.3244755E-2,-2.3518572E-2,1.0477248E-2,-2.0386485E-2,6.2542775E-4],"categories":[],"categories_nodes":[],"categories_segments":[],"categories_sizes":[],"default_left":[0,0,0,0,0,0,0,0,0,0,0,0,0,0,0,0,0,0,0,0,0,0,0,0,0,0,0,0,0,0,0,0,0],"id":19,"left_children":[1,3,5,-1,7,9,11,13,15,-1,17,-1,19,-1,21,23,-1,25,-1,-1,-1,-1,27,-1,29,31,-1,-1,-1,-1,-1,-1,-1],"loss_changes":[4.6224914E0,1.943348E0,2.0343082E0,0E0,1.7766957E0,4.135704E0,2.0282068E0,3.491311E-1,1.6088952E0,0E0,1.3212687E0,0E0,1.7471313E-3,0E0,2.548256E-1,1.6949894E0,0E0,3.2327175E-3,0E0,0E0,0E0,0E0,3.316331E-1,0E0,6.240566E-1,1.534772E-1,0E0,0E0,0E0,0E0,0E0,0E0,0E0],"parents":[2147483647,0,0,1,1,2,2,4,4,5,5,6,6,7,7,8,8,10,10,12,12,14,14,15,15,17,17,22,22,24,24,25,25],"right_children":[2,4,6,-1,8,10,12,14,16,-1,18,-1,20,-1,22,24,-1,26,-1,-1,-1,-1,28,-1,30,32,-1,-1,-1,-1,-1,-1,-1],"split_conditions":[5.19206E1,1.26E2,7.4E1,2.8088633E-2,1.3795E2,1.73E2,9.5E1,7.97E2,2.475E3,4.2110506E-2,5E-1,-6.871973E-3,1.6585E2,-7.7027647E-4,8.5E1,3.46E2,-2.6007513E-2,5.601369E1,1.9339925E-2,5.343741E-2,1.811003E-2,-5.8235056E-3,1.81E2,3.8781658E-2,4.36E2,5.3056812E1,-2.8964868E-2,-5.9554325E-3,-3.3244755E-2,-2.3518572E-2,1.0477248E-2,-2.0386485E-2,6.2542775E-4],"split_indices":[2,15,11,0,13,15,14,0,0,0,7,0,13,0,14,9,0,2,0,0,0,0,15,0,9,2,0,0,0,0,0,0,0],"split_type":[0,0,0,0,0,0,0,0,0,0,0,0,0,0,0,0,0,0,0,0,0,0,0,0,0,0,0,0,0,0,0,0,0],"sum_hessian":[4.6179695E1,2.6669474E1,1.9510223E1,1.8242396E0,2.4845234E1,1.1564311E1,7.9459124E0,1.5986337E1,8.858897E0,3.7355328E0,7.8287783E0,1.8087673E0,6.137145E0,1.3532503E0,1.4633086E1,6.299045E0,2.5598521E0,6.4560084E0,1.3727698E0,4.7346306E0,1.4025145E0,1.7549902E0,1.2878096E1,2.7304187E0,3.5686264E0,2.593345E0,3.8626637E0,1.7711613E0,1.1106935E1,1.7500244E0,1.8186018E0,1.2835504E0,1.3097944E0],"tree_param":{"num_deleted":"0","num_feature":"17","num_nodes":"33","size_leaf_vector":"1"}},{"base_weights":[2.9344846E-2,7.823488E-2,-3.1467012E-1,-2.3650084E-2,2.41525E-1,-1.4541316E-2,3.501826E-2],"categories":[],"categories_nodes":[],"categories_segments":[],"categories_sizes":[],"default_left":[0,0,0,0,0,0,0],"id":20,"left_children":[1,-1,3,-1,5,-1,-1],"loss_changes":[7.5831137E0,0E0,1.1533835E0,0E0,1.0040709E0,0E0,0E0],"parents":[2147483647,0,0,2,2,4,4],"right_children":[2,-1,4,-1,6,-1,-1],"split_conditions":[6.708E1,7.823488E-2,3.3E2,-2.3650084E-2,2.466E3,-1.4541316E-2,3.501826E-2],"split_indices":[13,0,15,0,0,0,0],"split_type":[0,0,0,0,0,0,0],"sum_hessian":[1.2424765E1,1.6248136E0,1.0799951E1,8.523228E0,2.2767234E0,1.2234429E0,1.0532805E0],"tree_param":{"num_deleted":"0","num_feature":"17","num_nodes":"7","size_leaf_vector":"1"}},{"base_weights":[9.507682E-3,6.0572624E-1,-1.7718573E-1,-2.1591056E-2,9.668974E-1,-2.288338E-1,2.9992769E-2,6.0004897E-2,1.2792994E-3,3.6290532E-1,-3.022383E-1,-1.6264241E-2,3.850111E-2,1.782386E-1,-3.5443318E-1,-1.6606923E-2,2.940617E-2,-3.852603E-1,7.865871E-3,7.0781386E-3,-2.0921601E-2],"categories":[],"categories_nodes":[],"categories_segments":[],"categories_sizes":[],"default_left":[0,0,0,0,0,0,0,0,0,0,0,0,0,0,0,0,0,0,0,0,0],"id":21,"left_children":[1,3,5,-1,7,9,-1,-1,-1,11,13,-1,-1,15,17,-1,-1,19,-1,-1,-1],"loss_changes":[4.2770367E0,3.8497431E0,1.3132031E0,0E0,1.5284624E0,1.3345385E0,0E0,0E0,0E0,1.2496858E0,7.059965E-1,0E0,0E0,8.599611E-1,4.306364E-1,0E0,0E0,4.5091057E-1,0E0,0E0,0E0],"parents":[2147483647,0,0,1,1,2,2,4,4,5,5,9,9,10,10,13,13,14,14,17,17],"right_children":[2,4,6,-1,8,10,-1,-1,-1,12,14,-1,-1,16,18,-1,-1,20,-1,-1,-1],"split_conditions":[5.2E1,2E2,1.29E1,-2.1591056E-2,4.19E3,9.8E0,2.9992769E-2,6.0004897E-2,1.2792994E-3,1E0,6.46E2,-1.6264241E-2,3.850111E-2,1.08E2,1.13202E4,-1.6606923E-2,2.940617E-2,5.6E1,7.865871E-3,7.0781386E-3,-2.0921601E-2],"split_indices":[11,15,16,0,0,16,0,0,0,5,12,0,0,14,12,0,0,14,0,0,0],"split_type":[0,0,0,0,0,0,0,0,0,0,0,0,0,0,0,0,0,0,0,0,0],"sum_hessian":[3.6460323E1,8.159116E0,2.8301207E1,2.056302E0,6.1028132E0,2.7198868E1,1.1023381E0,4.6707587E0,1.4320548E0,2.5663908E0,2.4632479E1,1.0286186E0,1.5377722E0,2.1770368E0,2.245544E1,1.0541354E0,1.1229013E0,2.1412739E1,1.0427015E0,1.0748405E0,2.03379E1],"tree_param":{"num_deleted":"0","num_feature":"17","num_nodes":"21","size_leaf_vector":"1"}},{"base_weights":[-6.2273894E-2,-3.2118637E-2,2.9828258E-2,-3.7951207E-1,1.9155425E-1,-5.1045614E-1,1.7470304E-2,-1.9982368E-2,4.3787917E-1,1.6134925E-3,-3.34569E-2,3.303787E-1,-4.575573E-1,7.038967E-1,4.4679236E-2,5.718433E-1,-2.4794051E-2,-3.1536084E-2,-1.6053714E-1,4.961478E-2,-9.066406E-3,4.2130172E-1,-3.446556E-1,2.1283938E-4,4.008325E-2,1.5698632E-2,-2.5599957E-2,-2.222465E-3,3.5054535E-2,-2.921389E-3,-2.4340479E-2],"categories":[],"categories_nodes":[],"categories_segments":[],"categories_sizes":[],"default_left":[0,0,0,0,0,0,0,0,0,0,0,0,0,0,0,0,0,0,0,0,0,0,0,0,0,0,0,0,0,0,0],"id":22,"left_children":[1,-1,3,5,7,9,-1,11,13,-1,-1,15,17,19,21,23,-1,-1,25,-1,-1,27,29,-1,-1,-1,-1,-1,-1,-1,-1],"loss_changes":[2.4991808E0,0E0,2.7878208E0,1.3189931E0,1.5752316E0,9.2903924E-1,0E0,2.777341E0,1.4259174E0,0E0,0E0,2.2973833E0,3.1207573E-1,2.284295E0,1.1262093E0,1.076066E0,0E0,0E0,8.780573E-1,0E0,0E0,5.329432E-1,1.2778547E-1,0E0,0E0,0E0,0E0,0E0,0E0,0E0,0E0],"parents":[2147483647,0,0,2,2,3,3,4,4,5,5,7,7,8,8,11,11,12,12,13,13,14,14,15,15,18,18,21,21,22,22],"right_children":[2,-1,4,6,8,10,-1,12,14,-1,-1,16,18,20,22,24,-1,-1,26,-1,-1,28,30,-1,-1,-1,-1,-1,-1,-1,-1],"split_conditions":[6.85E2,-3.2118637E-2,9.35E2,1.21E1,4.7216976E1,1.05E1,1.7470304E-2,4.122108E1,5.2999317E1,1.6134925E-3,-3.34569E-2,1.1E1,1.04E1,1.919E3,2.8E2,3.7798767E1,-2.4794051E-2,-3.1536084E-2,2.534E3,4.961478E-2,-9.066406E-3,2.27E2,3.6E0,2.1283938E-4,4.008325E-2,1.5698632E-2,-2.5599957E-2,-2.222465E-3,3.5054535E-2,-2.921389E-3,-2.4340479E-2],"split_indices":[12,0,0,16,2,16,0,2,2,0,0,16,16,12,9,2,0,0,0,0,0,9,10,0,0,0,0,0,0,0,0],"split_type":[0,0,0,0,0,0,0,0,0,0,0,0,0,0,0,0,0,0,0,0,0,0,0,0,0,0,0,0,0,0,0],"sum_hessian":[4.541768E1,5.4043293E0,4.001335E1,1.0950414E1,2.9062935E1,9.536898E0,1.4135165E0,1.6129915E1,1.2933021E1,2.3377905E0,7.1991067E0,9.093686E0,7.036229E0,7.2427783E0,5.690242E0,7.275439E0,1.8182476E0,3.7351298E0,3.3010993E0,5.3717527E0,1.8710257E0,2.8506057E0,2.8396358E0,2.3904088E0,4.88503E0,1.4500499E0,1.8510495E0,1.3854492E0,1.4651567E0,1.4105344E0,1.4291016E0],"tree_param":{"num_deleted":"0","num_feature":"17","num_nodes":"31","size_leaf_vector":"1"}},{"base_weights":[-1.0759887E-2,-3.093664E-1,4.9698636E-1,-2.174507E-3,-6.034985E-1,-3.0716807E-1,6.8532133E-1,-4.488567E-1,2.607382E-1,-3.3119738E-2,8.3934714E-4,-2.3152296E-2,5.1187864E-4,2.644325E-1,4.55079E-2,-2.883013E-2,7.405331E-4,-3.2795736E-1,5.5393505E-1,6.4771605E-1,-2.4037173E-2,-2.4356881E-2,2.928132E-4,4.189082E-2,-2.1176273E-2,1.07019385E-2,4.2236898E-2],"categories":[],"categories_nodes":[],"categories_segments":[],"categories_sizes":[],"default_left":[0,0,0,0,0,0,0,0,0,0,0,0,0,0,0,0,0,0,0,0,0,0,0,0,0,0,0],"id":23,"left_children":[1,3,5,7,9,11,13,15,17,-1,-1,-1,-1,19,-1,-1,-1,21,23,25,-1,-1,-1,-1,-1,-1,-1],"loss_changes":[7.2071548E0,2.70121E0,2.8777537E0,1.9530478E0,5.691972E-1,2.0425153E-1,1.1389456E0,3.734039E-1,1.989498E0,0E0,0E0,0E0,0E0,2.163812E0,0E0,0E0,0E0,2.2126004E-1,2.3981042E0,2.2153902E-1,0E0,0E0,0E0,0E0,0E0,0E0,0E0],"parents":[2147483647,0,0,1,1,2,2,3,3,4,4,5,5,6,6,7,7,8,8,13,13,17,17,18,18,19,19],"right_children":[2,4,6,8,10,12,14,16,18,-1,-1,-1,-1,20,-1,-1,-1,22,24,26,-1,-1,-1,-1,-1,-1,-1],"split_conditions":[1.1E1,2.38E2,1E0,1E1,1.7515E2,1.074E3,5.000137E1,1.28E2,1.42E3,-3.3119738E-2,8.3934714E-4,-2.3152296E-2,5.1187864E-4,1.2E1,4.55079E-2,-2.883013E-2,7.405331E-4,1.78E2,7.7E1,1.11E1,-2.4037173E-2,-2.4356881E-2,2.928132E-4,4.189082E-2,-2.1176273E-2,1.07019385E-2,4.2236898E-2],"split_indices":[16,15,5,16,13,12,2,14,0,0,0,0,0,16,0,0,0,15,11,16,0,0,0,0,0,0,0],"split_type":[0,0,0,0,0,0,0,0,0,0,0,0,0,0,0,0,0,0,0,0,0,0,0,0,0,0,0],"sum_hessian":[4.5521397E1,2.891005E1,1.6611347E1,1.46338415E1,1.4276208E1,3.0324397E0,1.3578907E1,5.1599565E0,9.473886E0,1.2976225E1,1.299983E0,1.7259701E0,1.3064694E0,5.485776E0,8.093131E0,3.8544424E0,1.3055141E0,3.1103032E0,6.363582E0,3.7088866E0,1.7768896E0,1.7950277E0,1.3152755E0,5.042086E0,1.321496E0,1.8103598E0,1.8985267E0],"tree_param":{"num_deleted":"0","num_feature":"17","num_nodes":"27","size_leaf_vector":"1"}},{"base_weights":[-4.392193E-2,7.860434E-2,-3.9853376E-1,-2.392744E-2,9.979795E-3],"categories":[],"categories_nodes":[],"categories_segments":[],"categories_sizes":[],"default_left":[0,0,0,0,0],"id":24,"left_children":[1,-1,3,-1,-1],"loss_changes":[8.297342E0,0E0,6.590507E-1,0E0,0E0],"parents":[2147483647,0,0,2,2],"right_children":[2,-1,4,-1,-1],"split_conditions":[6.708E1,7.860434E-2,4E0,-2.392744E-2,9.979795E-3],"split_indices":[13,0,10,0,0],"split_type":[0,0,0,0,0],"sum_hessian":[1.2385801E1,1.6110035E0,1.0774797E1,9.679803E0,1.0949948E0],"tree_param":{"num_deleted":"0","num_feature":"17","num_nodes":"5","size_leaf_vector":"1"}},{"base_weights":[-1.8773653E-2,3.67473E-1,-2.6895577E-1,8.021922E-1,-8.887307E-2,-3.7511334E-1,3.204207E-2,-1.9203367E-2,1.1249317E0,6.256506E-1,-2.625302E-2,1.5872665E-1,-4.446104E-1,6.557783E-2,5.9532733E-3,1.485037E-3,4.9977075E-2,2.7249182E-2,-1.6492894E-2,-4.871287E-1,7.5068E-3,-5.3431743E-1,7.200782E-3,-2.9223224E-2,-1.0827781E-2],"categories":[],"categories_nodes":[],"categories_segments":[],"categories_sizes":[],"default_left":[0,0,0,0,0,0,0,0,0,0,0,0,0,0,0,0,0,0,0,0,0,0,0,0,0],"id":25,"left_children":[1,3,5,7,9,11,-1,-1,13,15,-1,17,19,-1,-1,-1,-1,-1,-1,21,-1,23,-1,-1,-1],"loss_changes":[3.7296717E0,3.0853176E0,2.4985552E0,3.449163E0,2.9191947E0,8.707719E-1,0E0,0E0,1.0545654E0,7.740649E-1,0E0,7.8769827E-1,5.623801E-1,0E0,0E0,0E0,0E0,0E0,0E0,6.217375E-1,0E0,1.4801693E-1,0E0,0E0,0E0],"parents":[2147483647,0,0,1,1,2,2,3,3,4,4,5,5,8,8,9,9,11,11,12,12,19,19,21,21],"right_children":[2,4,6,8,10,12,-1,-1,14,16,-1,18,20,-1,-1,-1,-1,-1,-1,22,-1,24,-1,-1,-1],"split_conditions":[1.2E0,6.8E1,1.6E1,4.4E1,4.406297E1,3.40397E1,3.204207E-2,-1.9203367E-2,1E0,1.581E3,-2.625302E-2,1.3674E2,2.4645E2,6.557783E-2,5.9532733E-3,1.485037E-3,4.9977075E-2,2.7249182E-2,-1.6492894E-2,2.42E2,7.5068E-3,6E1,7.200782E-3,-2.9223224E-2,-1.0827781E-2],"split_indices":[8,11,8,2,2,2,0,0,5,0,0,13,13,0,0,0,0,0,0,14,0,2,0,0,0],"split_type":[0,0,0,0,0,0,0,0,0,0,0,0,0,0,0,0,0,0,0,0,0,0,0,0,0],"sum_hessian":[3.657386E1,1.4193003E1,2.238086E1,6.880613E0,7.3123894E0,2.056856E1,1.812299E0,1.43096E0,5.4496527E0,2.607178E0,4.7052116E0,2.221353E0,1.8347208E1,4.340436E0,1.1092167E0,1.4212558E0,1.1859221E0,1.1761212E0,1.0452318E0,1.7291956E1,1.0552521E0,1.6231771E1,1.060185E0,1.3294419E1,2.9373512E0],"tree_param":{"num_deleted":"0","num_feature":"17","num_nodes":"25","size_leaf_vector":"1"}},{"base_weights":[-7.095406E-2,9.3228765E-2,-3.752083E-1,-3.7957114E-1,2.4482578E-1,-4.8264003E-1,1.9931154E-1,1.765379E-2,-5.5516475E-1,-2.2750556E-1,3.7155202E-1,-6.1987126E-1,-1.3414255E-3,-1.7277669E-3,1.731257E-2,-3.288683E-2,-2.120627E-3,1.7124599E-2,-4.4972426E-1,4.6045497E-2,2.0778239E-1,-3.4259863E-2,-1.9497613E-3,3.447453E-2,-2.6346302E-2,-2.9259041E-2,-2.3545779E-3,5.054181E-1,1.9362742E-2,4.583478E-2,-1.2900713E-2,-2.272628E-2,1.4019974E-2],"categories":[],"categories_nodes":[],"categories_segments":[],"categories_sizes":[],"default_left":[0,0,0,0,0,0,0,0,0,0,0,0,0,0,0,0,0,0,0,0,0,0,0,0,0,0,0,0,0,0,0,0,0],"id":26,"left_children":[1,3,5,7,9,11,13,-1,15,17,19,21,23,-1,-1,-1,-1,-1,25,-1,27,-1,-1,-1,-1,-1,-1,29,31,-1,-1,-1,-1],"loss_changes":[2.7868803E0,2.714951E0,1.3002217E0,1.3890775E0,1.7789695E0,1.1039414E0,1.4189093E-1,0E0,3.859992E-1,9.911028E-1,1.8508923E0,4.6708727E-1,2.0746393E0,0E0,0E0,0E0,0E0,0E0,2.553494E-1,0E0,1.0432925E0,0E0,0E0,0E0,0E0,0E0,0E0,2.509588E0,1.6784946E0,0E0,0E0,0E0,0E0],"parents":[2147483647,0,0,1,1,2,2,3,3,4,4,5,5,6,6,8,8,9,9,10,10,11,11,12,12,18,18,20,20,27,27,28,28],"right_children":[2,4,6,8,10,12,14,-1,16,18,20,22,24,-1,-1,-1,-1,-1,26,-1,28,-1,-1,-1,-1,-1,-1,30,32,-1,-1,-1,-1],"split_conditions":[1.1E1,2.98E2,4.6512E3,2.22E2,1.06E2,1.86E2,1.11E1,1.765379E-2,1.23E2,3.35E2,7.3E1,1.75E2,7.2E0,-1.7277669E-3,1.731257E-2,-3.288683E-2,-2.120627E-3,1.7124599E-2,9.1E1,4.6045497E-2,1.168E3,-3.4259863E-2,-1.9497613E-3,3.447453E-2,-2.6346302E-2,-2.9259041E-2,-2.3545779E-3,6.3E0,9E-1,4.583478E-2,-1.2900713E-2,-2.272628E-2,1.4019974E-2],"split_indices":[16,9,12,9,14,11,16,0,14,9,11,14,8,0,0,0,0,0,14,0,0,0,0,0,0,0,0,8,8,0,0,0,0],"split_type":[0,0,0,0,0,0,0,0,0,0,0,0,0,0,0,0,0,0,0,0,0,0,0,0,0,0,0,0,0,0,0,0,0],"sum_hessian":[5.4089428E1,3.5582077E1,1.8507353E1,8.273843E0,2.7308233E1,1.5726515E1,2.7808385E0,1.4042004E0,6.8696427E0,5.608627E0,2.1699606E1,1.2013288E1,3.7132277E0,1.3681493E0,1.4126892E0,5.48888E0,1.3807628E0,1.4214153E0,4.1872115E0,3.9215937E0,1.7778013E1,1.0637401E1,1.3758867E0,1.4696523E0,2.2435753E0,2.7938862E0,1.3933252E0,6.239471E0,1.1538542E1,3.924502E0,2.314969E0,3.835077E0,7.7034645E0],"tree_param":{"num_deleted":"0","num_feature":"17","num_nodes":"33","size_leaf_vector":"1"}},{"base_weights":[2.3920515E-3,5.1076823E-1,-2.8158113E-1,-2.293159E-2,6.4019054E-1,-5.439006E-1,-4.2420883E-2,1.5488634E-1,9.270635E-1,-5.9748393E-1,1.1361301E-3,3.1007474E-2,-1.8145306E-1,3.4455266E-2,-3.430819E-1,-4.4257494E-4,5.3593714E-2,-3.3049356E-2,7.278758E-4,-3.5510203E-1,4.5113763E-1,-2.4806986E-2,8.2251645E-4,-4.624483E-1,5.7841E-3,3.673846E-2,-1.5224648E-3,-2.6728267E-2,2.0852555E-3],"categories":[],"categories_nodes":[],"categories_segments":[],"categories_sizes":[],"default_left":[0,0,0,0,0,0,0,0,0,0,0,0,0,0,0,0,0,0,0,0,0,0,0,0,0,0,0,0,0],"id":27,"left_children":[1,3,5,-1,7,9,11,13,15,17,-1,-1,19,-1,21,-1,-1,-1,-1,23,25,-1,-1,27,-1,-1,-1,-1,-1],"loss_changes":[7.2877493E0,2.5632863E0,2.009246E0,0E0,2.1364503E0,4.8007107E-1,1.7734169E0,2.1743772E0,1.3772993E0,5.5662537E-1,0E0,0E0,1.8822298E0,0E0,2.5238067E-1,0E0,0E0,0E0,0E0,7.033781E-1,5.437278E-1,0E0,0E0,4.1030335E-1,0E0,0E0,0E0,0E0,0E0],"parents":[2147483647,0,0,1,1,2,2,4,4,5,5,6,6,7,7,8,8,9,9,12,12,14,14,19,19,20,20,23,23],"right_children":[2,4,6,-1,8,10,12,14,16,18,-1,-1,20,-1,22,-1,-1,-1,-1,24,26,-1,-1,28,-1,-1,-1,-1,-1],"split_conditions":[3.36E0,9.9E0,1E0,-2.293159E-2,2.4E0,1.89E2,1.41E2,1.98E2,1.01E1,1E0,1.1361301E-3,3.1007474E-2,1.11E1,3.4455266E-2,3.26E0,-4.4257494E-4,5.3593714E-2,-3.3049356E-2,7.278758E-4,1E0,9.2E1,-2.4806986E-2,8.2251645E-4,3.48E2,5.7841E-3,3.673846E-2,-1.5224648E-3,-2.6728267E-2,2.0852555E-3],"split_indices":[10,16,5,0,8,14,15,15,16,3,0,0,16,0,10,0,0,0,0,6,14,0,0,15,0,0,0,0,0],"split_type":[0,0,0,0,0,0,0,0,0,0,0,0,0,0,0,0,0,0,0,0,0,0,0,0,0,0,0,0,0],"sum_hessian":[4.8485104E1,1.7090534E1,3.1394567E1,1.7133679E0,1.5377167E1,1.4364674E1,1.7029894E1,6.284896E0,9.092271E0,1.3073865E1,1.2908083E0,2.3535178E0,1.4676376E1,2.8469074E0,3.4379885E0,1.344113E0,7.7481585E0,1.177243E1,1.301435E0,1.1859535E1,2.816841E0,2.1449115E0,1.293077E0,9.671895E0,2.1876404E0,1.441904E0,1.3749369E0,8.408737E0,1.2631576E0],"tree_param":{"num_deleted":"0","num_feature":"17","num_nodes":"29","size_leaf_vector":"1"}},{"base_weights":[3.710372E-2,7.429754E-2,-3.083857E-1,-2.3445126E-2,1.9595817E-1,-1.5337037E-2,3.3793505E-2],"categories":[],"categories_nodes":[],"categories_segments":[],"categories_sizes":[],"default_left":[0,0,0,0,0,0,0],"id":28,"left_children":[1,-1,3,-1,5,-1,-1],"loss_changes":[7.074366E0,0E0,1.0229238E0,0E0,1.0473162E0,0E0,0E0],"parents":[2147483647,0,0,2,2,4,4],"right_children":[2,-1,4,-1,6,-1,-1],"split_conditions":[6.708E1,7.429754E-2,3.3E2,-2.3445126E-2,2.466E3,-1.5337037E-2,3.3793505E-2],"split_indices":[13,0,15,0,0,0,0],"split_type":[0,0,0,0,0,0,0],"sum_hessian":[1.22174015E1,1.7168025E0,1.0500599E1,8.018754E0,2.481845E0,1.3883811E0,1.0934639E0],"tree_param":{"num_deleted":"0","num_feature":"17","num_nodes":"7","size_leaf_vector":"1"}},{"base_weights":[-9.0316795E-2,3.869986E-1,-2.48187E-1,-1.7300624E-1,8.839625E-1,1.6580428E-1,-4.514501E-1,-2.4404602E-2,2.1548873E-2,5.3679217E-2,4.7422308E-3,-2.2448922E-2,4.1873547E-1,-3.2929163E-2,-5.3232014E-1,6.394101E-1,-1.8576013E-2,-1.8668E-2,1.4316571E-2,-2.9285548E-2,-4.391364E-3,2.5303617E-1,4.4238348E-2,-1.5973713E-2,2.7813649E-2],"categories":[],"categories_nodes":[],"categories_segments":[],"categories_sizes":[],"default_left":[0,0,0,0,0,0,0,0,0,0,0,0,0,0,0,0,0,0,0,0,0,0,0,0,0],"id":29,"left_children":[1,3,5,7,9,11,13,-1,-1,-1,-1,-1,15,17,19,21,-1,-1,-1,-1,-1,23,-1,-1,-1],"loss_changes":[3.017024E0,2.9429302E0,2.577311E0,1.2665379E0,7.174492E-1,1.8245062E0,6.666331E-1,0E0,0E0,0E0,0E0,0E0,1.6281304E0,5.7853216E-1,3.4902716E-1,4.018793E-1,0E0,0E0,0E0,0E0,0E0,8.659313E-1,0E0,0E0,0E0],"parents":[2147483647,0,0,1,1,2,2,3,3,4,4,5,5,6,6,12,12,13,13,14,14,15,15,21,21],"right_children":[2,4,6,8,10,12,14,-1,-1,-1,-1,-1,16,18,20,22,-1,-1,-1,-1,-1,24,-1,-1,-1],"split_conditions":[5.2E1,2.36E2,4.406297E1,1.162E3,1E0,2E0,1.53E2,-2.4404602E-2,2.1548873E-2,5.3679217E-2,4.7422308E-3,-2.2448922E-2,3.81E0,3.42E0,1.18E1,4.044353E1,-1.8576013E-2,-1.8668E-2,1.4316571E-2,-2.9285548E-2,-4.391364E-3,1.05E1,4.4238348E-2,-1.5973713E-2,2.7813649E-2],"split_indices":[11,15,2,12,5,1,15,0,0,0,0,0,10,10,16,2,0,0,0,0,0,16,0,0,0],"split_type":[0,0,0,0,0,0,0,0,0,0,0,0,0,0,0,0,0,0,0,0,0,0,0,0,0],"sum_hessian":[3.7763447E1,9.025071E0,2.8738377E1,4.5498905E0,4.47518E0,9.52429E0,1.9214087E1,3.1161425E0,1.4337482E0,3.3175097E0,1.1576705E0,2.550314E0,6.9739766E0,3.339353E0,1.5874733E1,5.6008515E0,1.3731251E0,1.5340875E0,1.8052654E0,1.3888761E1,1.9859726E0,2.9642382E0,2.6366134E0,1.0078577E0,1.9563804E0],"tree_param":{"num_deleted":"0","num_feature":"17","num_nodes":"25","size_leaf_vector":"1"}},{"base_weights":[1.3333694E-2,1.13517575E-1,-3.491477E-1,-2.623959E-1,2.6695687E-1,-3.2171786E-2,3.0851623E-1,-4.4035906E-1,2.4165528E-2,7.68416E-1,8.844437E-2,-7.709554E-3,3.5516936E-2,-3.353137E-2,-8.760783E-3,1.5629789E-2,4.539072E-2,2.0748833E-1,-4.2467788E-1,1.4540677E-2,-2.1856947E-2,-8.179809E-2,4.1538385E-1,-2.7825579E-2,-3.3614677E-3,-2.4036221E-2,2.2274572E-2,2.728434E-2,-8.748299E-3],"categories":[],"categories_nodes":[],"categories_segments":[],"categories_sizes":[],"default_left":[0,0,0,0,0,0,0,0,0,0,0,0,0,0,0,0,0,0,0,0,0,0,0,0,0,0,0,0,0],"id":30,"left_children":[1,3,5,7,9,-1,11,13,-1,15,17,-1,-1,-1,19,-1,-1,21,23,-1,-1,25,27,-1,-1,-1,-1,-1,-1],"loss_changes":[1.943414E0,2.482638E0,2.4430504E0,1.8887277E0,2.6353343E0,0E0,9.017725E-1,1.0593727E0,0E0,2.1171093E-1,1.5175318E0,0E0,0E0,0E0,7.357112E-1,0E0,0E0,1.2167138E0,1.8571001E-1,0E0,0E0,2.1196628E0,9.8835206E-1,0E0,0E0,0E0,0E0,0E0,0E0],"parents":[2147483647,0,0,1,1,2,2,3,3,4,4,6,6,7,7,9,9,10,10,14,14,17,17,18,18,21,21,22,22],"right_children":[2,4,6,8,10,-1,12,14,-1,16,18,-1,-1,-1,20,-1,-1,22,24,-1,-1,26,28,-1,-1,-1,-1,-1,-1],"split_conditions":[1.11E1,1.08E2,1.59E2,1.07E1,7.3E1,-3.2171786E-2,1.19E1,2E0,2.4165528E-2,5E1,3.48E2,-7.709554E-3,3.5516936E-2,-3.353137E-2,1.3E0,1.5629789E-2,4.539072E-2,4.7216976E1,6.6E0,1.4540677E-2,-2.1856947E-2,2.49E2,5E-1,-2.7825579E-2,-3.3614677E-3,-2.4036221E-2,2.2274572E-2,2.728434E-2,-8.748299E-3],"split_indices":[16,14,11,16,11,0,16,1,0,11,15,0,0,0,8,0,0,2,8,0,0,15,7,0,0,0,0,0,0],"split_type":[0,0,0,0,0,0,0,0,0,0,0,0,0,0,0,0,0,0,0,0,0,0,0,0,0,0,0,0,0],"sum_hessian":[5.142435E1,4.0827217E1,1.05971365E1,1.1628432E1,2.9198784E1,7.3360662E0,3.26107E0,9.718566E0,1.9098662E0,6.7979956E0,2.2400787E1,1.8021389E0,1.4589312E0,5.97626E0,3.742306E0,2.3514454E0,4.4465504E0,1.866594E1,3.7348478E0,2.3912094E0,1.3510966E0,8.058745E0,1.0607194E1,2.3216717E0,1.4131761E0,4.638073E0,3.4206722E0,8.751258E0,1.8559362E0],"tree_param":{"num_deleted":"0","num_feature":"17","num_nodes":"29","size_leaf_vector":"1"}},{"base_weights":[-1.3005343E-4,2.9194015E-1,-3.7282997E-1,-1.6177818E-1,5.0590366E-1,-4.8665386E-1,3.721479E-2,4.2380102E-2,-2.6294833E-2,5.963096E-1,-2.0958098E-2,-1.7206278E-1,-3.2792754E-2,-2.4238963E-2,3.5570404E-1,3.3358225E-1,7.8965676E-1,1.1030576E-1,-2.661245E-2,3.1504523E-2,-5.52158E-3,-1.5140678E-1,6.550042E-1,9.393011E-1,-2.943456E-3,-1.8960329E-2,3.295459E-1,5.0156604E-4,-1.0957654E-2,1.4795557E-2,4.0774226E-2,5.1333465E-2,1.5548492E-2,-6.5519894E-3,3.8275972E-2],"categories":[],"categories_nodes":[],"categories_segments":[],"categories_sizes":[],"default_left":[0,0,0,0,0,0,0,0,0,0,0,0,0,0,0,0,0,0,0,0,0,0,0,0,0,0,0,0,0,0,0,0,0,0,0],"id":31,"left_children":[1,3,5,7,9,11,-1,13,-1,15,-1,17,-1,-1,19,21,23,25,-1,-1,-1,27,29,31,-1,-1,33,-1,-1,-1,-1,-1,-1,-1,-1],"loss_changes":[5.4583673E0,2.811035E0,3.1635458E0,7.483249E-1,1.8679094E0,9.8357916E-1,0E0,1.3589274E0,0E0,6.528063E-1,0E0,9.292731E-1,0E0,0E0,7.196105E-1,1.561051E0,1.2817473E0,7.288044E-1,0E0,0E0,0E0,5.1962145E-2,9.452748E-2,1.3471699E-1,0E0,0E0,9.880769E-1,0E0,0E0,0E0,0E0,0E0,0E0,0E0,0E0],"parents":[2147483647,0,0,1,1,2,2,3,3,4,4,5,5,7,7,9,9,11,11,14,14,15,15,16,16,17,17,21,21,22,22,23,23,26,26],"right_children":[2,4,6,8,10,12,-1,14,-1,16,-1,18,-1,-1,20,22,24,26,-1,-1,-1,28,30,32,-1,-1,34,-1,-1,-1,-1,-1,-1,-1,-1],"split_conditions":[3.6E0,1.04E1,2.67E2,3.3E0,1.3E1,1.925E3,3.721479E-2,9.9E0,-2.6294833E-2,1.428E3,-2.0958098E-2,1.09E2,-3.2792754E-2,-2.4238963E-2,1.02E1,1.11E1,1.21E1,3.65E0,-2.661245E-2,3.1504523E-2,-5.52158E-3,1.07E1,1.209E2,1.72E2,-2.943456E-3,-1.8960329E-2,9E-1,5.0156604E-4,-1.0957654E-2,1.4795557E-2,4.0774226E-2,5.1333465E-2,1.5548492E-2,-6.5519894E-3,3.8275972E-2],"split_indices":[10,16,11,8,16,0,0,16,0,12,0,14,0,0,16,16,16,10,0,0,0,16,13,14,0,0,8,0,0,0,0,0,0,0,0],"split_type":[0,0,0,0,0,0,0,0,0,0,0,0,0,0,0,0,0,0,0,0,0,0,0,0,0,0,0,0,0,0,0,0,0,0,0],"sum_hessian":[4.8143776E1,2.7113043E1,2.1030733E1,8.766731E0,1.8346312E1,1.9598238E1,1.432494E0,6.1833735E0,2.583358E0,1.7036715E1,1.309597E0,7.5596685E0,1.203857E1,2.101105E0,4.082268E0,8.377865E0,8.65885E0,4.626483E0,2.9331853E0,2.348257E0,1.7340112E0,3.5501063E0,4.8277583E0,7.2697854E0,1.3890642E0,1.2054199E0,3.4210632E0,1.3012296E0,2.2488766E0,2.3695433E0,2.4582152E0,5.8257623E0,1.4440231E0,2.00369E0,1.4173731E0],"tree_param":{"num_deleted":"0","num_feature":"17","num_nodes":"35","size_leaf_vector":"1"}},{"base_weights":[1.21673845E-1,9.3163006E-2,-3.0432537E-1,2.563028E-1,-2.3425743E-2,-1.4103946E-2,3.4126952E-2],"categories":[],"categories_nodes":[],"categories_segments":[],"categories_sizes":[],"default_left":[0,0,0,0,0,0,0],"id":32,"left_children":[1,-1,3,5,-1,-1,-1],"loss_changes":[1.02312E1,0E0,1.1625917E0,9.295933E-1,0E0,0E0,0E0],"parents":[2147483647,0,0,2,2,3,3],"right_children":[2,-1,4,6,-1,-1,-1],"split_conditions":[6.708E1,9.3163006E-2,9E-1,6.9E1,-2.3425743E-2,-1.4103946E-2,3.4126952E-2],"split_indices":[13,0,8,11,0,0,0],"split_type":[0,0,0,0,0,0,0],"sum_hessian":[1.2025982E1,1.7004166E0,1.0325565E1,2.2119162E0,8.113648E0,1.1268256E0,1.0850906E0],"tree_param":{"num_deleted":"0","num_feature":"17","num_nodes":"7","size_leaf_vector":"1"}},{"base_weights":[1.4202079E-2,2.6183617E-1,-2.9134816E-1,-2.416349E-2,4.245683E-1,4.8884872E-1,-5.0328E-1,6.8152815E-1,-1.909978E-1,3.83149E-2,2.8448206E-4,7.15717E-3,-2.855795E-2,-1.3017789E-1,8.7852293E-1,-2.4813073E-2,2.7282277E-2,8.905838E-3,-1.7325578E-2,6.329879E-2,4.8748475E-1,4.0548053E-2,-6.4098984E-3],"categories":[],"categories_nodes":[],"categories_segments":[],"categories_sizes":[],"default_left":[0,0,0,0,0,0,0,0,0,0,0,0,0,0,0,0,0,0,0,0,0,0,0],"id":33,"left_children":[1,3,5,-1,7,9,11,13,15,-1,-1,-1,-1,17,19,-1,-1,-1,-1,-1,21,-1,-1],"loss_changes":[2.7598574E0,2.6443734E0,2.9494839E0,0E0,2.8259583E0,5.318298E-1,6.675446E-1,2.0719957E0,1.5750935E0,0E0,0E0,0E0,0E0,2.7926978E-1,8.950391E-1,0E0,0E0,0E0,0E0,0E0,1.4171404E0,0E0,0E0],"parents":[2147483647,0,0,1,1,2,2,4,4,5,5,6,6,7,7,8,8,13,13,14,14,20,20],"right_children":[2,4,6,-1,8,10,12,14,16,-1,-1,-1,-1,18,20,-1,-1,-1,-1,-1,22,-1,-1],"split_conditions":[4.8977413E1,2.66E2,1E1,-2.416349E-2,1.3674E2,1.481E3,1.17E2,1.83E2,1.88E2,3.83149E-2,2.8448206E-4,7.15717E-3,-2.855795E-2,1.43E2,1.418E3,-2.4813073E-2,2.7282277E-2,8.905838E-3,-1.7325578E-2,6.329879E-2,3.07E2,4.0548053E-2,-6.4098984E-3],"split_indices":[2,9,16,0,13,0,15,15,13,0,0,0,0,15,12,0,0,0,0,0,15,0,0],"split_type":[0,0,0,0,0,0,0,0,0,0,0,0,0,0,0,0,0,0,0,0,0,0,0],"sum_hessian":[3.4466652E1,1.9116608E1,1.5350044E1,3.073619E0,1.6042988E1,2.9998593E0,1.2350185E1,1.1242711E1,4.8002768E0,1.5333389E0,1.4665203E0,1.0682507E0,1.1281935E1,2.2618918E0,8.98082E0,3.6245785E0,1.1756983E0,1.0055505E0,1.2563412E0,3.3872004E0,5.593619E0,3.4590697E0,2.1345494E0],"tree_param":{"num_deleted":"0","num_feature":"17","num_nodes":"23","size_leaf_vector":"1"}},{"base_weights":[2.7055403E-3,-5.473158E-1,1.0848524E-1,-3.1916644E-2,-2.3018203E-3,-9.0645425E-2,3.0853903E-1,2.4256562E-1,-3.962548E-1,4.4372106E-1,-2.3789395E-1,-2.2707537E-2,3.812352E-1,-5.159113E-1,9.398081E-3,4.3905996E-2,2.830034E-1,1.5883526E-2,-2.7219651E-2,7.2052824E-1,-3.8650571E-3,1.2565553E-3,-3.3591956E-2,3.6128473E-2,2.568498E-2,1.2756295E-2,4.14481E-2,-1.4431923E-2,1.40079325E-2,-1.619015E-2,1.8588385E-2],"categories":[],"categories_nodes":[],"categories_segments":[],"categories_sizes":[],"default_left":[0,0,0,0,0,0,0,0,0,0,0,0,0,0,0,0,0,0,0,0,0,0,0,0,0,0,0,0,0,0,0],"id":34,"left_children":[1,3,5,-1,-1,7,9,11,13,15,17,-1,19,21,-1,-1,23,-1,-1,25,27,-1,-1,-1,29,-1,-1,-1,-1,-1,-1],"loss_changes":[3.0719304E0,3.5921478E-1,1.7912118E0,0E0,0E0,2.4336734E0,1.7533097E0,1.2940316E0,9.605168E-1,1.024348E0,1.0371065E0,0E0,1.3381019E0,9.0439963E-1,0E0,0E0,1.6535903E0,0E0,0E0,6.295538E-2,5.484751E-1,0E0,0E0,0E0,1.3736502E0,0E0,0E0,0E0,0E0,0E0,0E0],"parents":[2147483647,0,0,1,1,2,2,5,5,6,6,7,7,8,8,9,9,10,10,12,12,13,13,16,16,19,19,20,20,24,24],"right_children":[2,4,6,-1,-1,8,10,12,14,16,18,-1,20,22,-1,-1,24,-1,-1,26,28,-1,-1,-1,30,-1,-1,-1,-1,-1,-1],"split_conditions":[8.84E2,1.09E2,4.8936344E1,-3.1916644E-2,-2.3018203E-3,1.05E1,8.4E0,5.8E1,4.21E2,1.138E3,1.05E1,-2.2707537E-2,7.3E1,1.083E3,9.398081E-3,4.3905996E-2,5.2060234E1,1.5883526E-2,-2.7219651E-2,2.02E2,2.49E2,1.2565553E-3,-3.3591956E-2,3.6128473E-2,1.06E1,1.2756295E-2,4.14481E-2,-1.4431923E-2,1.40079325E-2,-1.619015E-2,1.8588385E-2],"split_indices":[12,14,2,0,0,16,8,14,15,12,16,0,11,0,0,0,2,0,0,15,15,0,0,0,16,0,0,0,0,0,0],"split_type":[0,0,0,0,0,0,0,0,0,0,0,0,0,0,0,0,0,0,0,0,0,0,0,0,0,0,0,0,0,0,0],"sum_hessian":[5.0778934E1,7.5172863E0,4.3261646E1,6.130725E0,1.3865614E0,2.1954926E1,2.130672E1,1.0601845E1,1.1353081E1,1.7231731E1,4.0749884E0,1.3822025E0,9.219643E0,9.52013E0,1.832951E0,3.4481344E0,1.3783597E1,1.4358672E0,2.6391215E0,4.438278E0,4.7813644E0,2.3175309E0,7.202599E0,4.4218554E0,9.361742E0,1.4722302E0,2.9660478E0,2.3794181E0,2.4019465E0,4.6899858E0,4.6717567E0],"tree_param":{"num_deleted":"0","num_feature":"17","num_nodes":"31","size_leaf_vector":"1"}},{"base_weights":[-1.6560853E-2,-4.8987463E-1,2.887922E-1,-5.63316E-1,3.7877746E-3,2.0967849E-2,6.8114555E-1,-6.0355264E-1,-2.1175512E-3,-2.4601844E-1,2.4268788E-1,-2.0524638E-2,8.3688134E-1,-3.249228E-2,-2.4906716E-1,3.585446E-2,-5.0632113E-1,4.4487557E-1,-2.9919568E-1,1.5218859E-2,9.391086E-1,7.026191E-5,-1.9819986E-2,-3.0132098E-2,-4.843181E-4,-1.9590868E-2,6.362523E-1,-8.983559E-4,-2.2470942E-2,5.072811E-2,1.5507661E-2,-5.748004E-3,4.434437E-2],"categories":[],"categories_nodes":[],"categories_segments":[],"categories_sizes":[],"default_left":[0,0,0,0,0,0,0,0,0,0,0,0,0,0,0,0,0,0,0,0,0,0,0,0,0,0,0,0,0,0,0,0,0],"id":35,"left_children":[1,3,5,7,-1,9,11,13,-1,15,17,-1,19,-1,21,-1,23,25,27,-1,29,-1,-1,-1,-1,-1,31,-1,-1,-1,-1,-1,-1],"loss_changes":[7.5761967E0,8.9606714E-1,3.3376057E0,3.5806847E-1,0E0,1.2429878E0,2.538113E0,1.157012E-1,0E0,2.7611241E0,1.3847134E0,0E0,3.47044E-1,0E0,1.3248856E-1,0E0,3.8241863E-1,1.6458358E0,1.4832723E-1,0E0,1.25453E-1,0E0,0E0,0E0,0E0,0E0,1.5101454E0,0E0,0E0,0E0,0E0,0E0,0E0],"parents":[2147483647,0,0,1,1,2,2,3,3,5,5,6,6,7,7,9,9,10,10,12,12,14,14,16,16,17,17,18,18,20,20,26,26],"right_children":[2,4,6,8,-1,10,12,14,-1,16,18,-1,20,-1,22,-1,24,26,28,-1,30,-1,-1,-1,-1,-1,32,-1,-1,-1,-1,-1,-1],"split_conditions":[1.3E0,1.12E1,5.3916496E1,6.700069E1,3.7877746E-3,7.5E1,1.01E1,1.09E1,-2.1175512E-3,8.5E1,1.17E1,-2.0524638E-2,2.64E2,-3.249228E-2,2.468E3,3.585446E-2,1.38E1,9.8E0,5.1E0,1.5218859E-2,1.65E2,7.026191E-5,-1.9819986E-2,-3.0132098E-2,-4.843181E-4,-1.9590868E-2,1.02E2,-8.983559E-4,-2.2470942E-2,5.072811E-2,1.5507661E-2,-5.748004E-3,4.434437E-2],"split_indices":[8,16,2,2,0,11,16,16,0,14,16,0,0,0,0,0,8,16,8,0,14,0,0,0,0,0,14,0,0,0,0,0,0],"split_type":[0,0,0,0,0,0,0,0,0,0,0,0,0,0,0,0,0,0,0,0,0,0,0,0,0,0,0,0,0,0,0,0,0],"sum_hessian":[5.0441483E1,1.9543581E1,3.08979E1,1.7301277E1,2.2423043E0,1.8989153E1,1.1908747E1,1.591366E1,1.3876172E0,8.565425E0,1.0423729E1,1.2825834E0,1.06261635E1,1.3338545E1,2.5751147E0,1.4490776E0,7.1163473E0,7.7216463E0,2.7020822E0,2.3520002E0,8.274163E0,1.3205606E0,1.254554E0,5.7815766E0,1.3347707E0,1.2424282E0,6.479218E0,1.3306369E0,1.3714454E0,6.8404484E0,1.4337147E0,1.7563496E0,4.7228684E0],"tree_param":{"num_deleted":"0","num_feature":"17","num_nodes":"33","size_leaf_vector":"1"}},{"base_weights":[1.351378E-1,8.11128E-2,-2.9193267E-1,2.2629713E-1,-2.3157036E-2,-1.5120367E-2,3.6491662E-2],"categories":[],"categories_nodes":[],"categories_segments":[],"categories_sizes":[],"default_left":[0,0,0,0,0,0,0],"id":36,"left_children":[1,-1,3,5,-1,-1,-1],"loss_changes":[8.5582905E0,0E0,1.0574589E0,1.109385E0,0E0,0E0,0E0],"parents":[2147483647,0,0,2,2,3,3],"right_children":[2,-1,4,6,-1,-1,-1],"split_conditions":[6.708E1,8.11128E-2,9E-1,2.534E3,-2.3157036E-2,-1.5120367E-2,3.6491662E-2],"split_indices":[13,0,8,0,0,0,0],"split_type":[0,0,0,0,0,0,0],"sum_hessian":[1.1729724E1,1.9926109E0,9.737113E0,2.3381119E0,7.399001E0,1.3353986E0,1.0027132E0],"tree_param":{"num_deleted":"0","num_feature":"17","num_nodes":"7","size_leaf_vector":"1"}},{"base_weights":[-7.974404E-2,2.4754894E-1,-2.6390725E-1,-6.117888E-2,9.27844E-1,-2.7973428E-2,-4.3512795E-2,-3.2945037E-1,5.6101245E-1,6.101453E-3,5.7142567E-2,2.6665702E-1,-2.688231E-1,-2.6525302E-2,1.6715729E-1,5.4986594E-4,4.5166533E-2,-3.6519352E-2,4.846328E-2,1.2346672E-1,-2.6136694E-2,2.7470335E-2,-1.6203495E-2,-3.0057496E-1,2.9448751E-2,4.4667354E-1,-1.8634906E-2,-2.3121199E-2,7.841985E-3,2.8141046E-2,5.8785933E-3],"categories":[],"categories_nodes":[],"categories_segments":[],"categories_sizes":[],"default_left":[0,0,0,0,0,0,0,0,0,0,0,0,0,0,0,0,0,0,0,0,0,0,0,0,0,0,0,0,0,0,0],"id":37,"left_children":[1,3,5,7,9,-1,11,13,15,-1,-1,17,19,-1,21,-1,-1,23,-1,25,-1,-1,-1,27,-1,29,-1,-1,-1,-1,-1],"loss_changes":[2.4645655E0,3.1753743E0,1.6664265E0,2.0462322E0,6.743121E-1,0E0,1.1865492E0,9.295851E-1,6.9229174E-1,0E0,0E0,1.5721781E0,1.0345625E0,0E0,7.76569E-1,0E0,0E0,1.1685961E0,0E0,9.0983844E-1,0E0,0E0,0E0,4.340617E-1,0E0,5.8509827E-2,0E0,0E0,0E0,0E0,0E0],"parents":[2147483647,0,0,1,1,2,2,3,3,4,4,6,6,7,7,8,8,11,11,12,12,14,14,17,17,19,19,23,23,25,25],"right_children":[2,4,6,8,10,-1,12,14,16,-1,-1,18,20,-1,22,-1,-1,24,-1,26,-1,-1,-1,28,-1,30,-1,-1,-1,-1,-1],"split_conditions":[4.5607117E1,4.3000683E1,3.42E0,4.5E2,2.68E2,-2.7973428E-2,3.64E0,1.1E1,7.9E1,6.101453E-3,5.7142567E-2,3.6E0,6.8E1,-2.6525302E-2,3.26E0,5.4986594E-4,4.5166533E-2,5.1E0,4.846328E-2,1E0,-2.6136694E-2,2.7470335E-2,-1.6203495E-2,3.31E2,2.9448751E-2,2.93E2,-1.8634906E-2,-2.3121199E-2,7.841985E-3,2.8141046E-2,5.8785933E-3],"split_indices":[2,2,10,9,9,0,10,16,11,0,0,10,11,0,10,0,0,8,0,5,0,0,0,9,0,9,0,0,0,0,0],"split_type":[0,0,0,0,0,0,0,0,0,0,0,0,0,0,0,0,0,0,0,0,0,0,0,0,0,0,0,0,0,0,0],"sum_hessian":[3.88046E1,1.3848682E1,2.4955917E1,1.0151744E1,3.696939E0,1.0002934E1,1.4952984E1,7.422059E0,2.7296844E0,1.1088171E0,2.588122E0,6.2144504E0,8.738533E0,5.234549E0,2.18751E0,1.4431113E0,1.286573E0,5.0034704E0,1.2109797E0,3.6354837E0,5.1030498E0,1.1636084E0,1.0239015E0,3.883494E0,1.1199765E0,2.2618437E0,1.3736401E0,2.860426E0,1.0230681E0,1.1469027E0,1.1149409E0],"tree_param":{"num_deleted":"0","num_feature":"17","num_nodes":"31","size_leaf_vector":"1"}},{"base_weights":[-1.0277974E-2,9.6458085E-2,-3.1730365E-2,-2.9961962E-2,1.8865338E-1,4.3167673E-2,9.949991E-2,7.811539E-4,6.0266304E-1,1.1481301E-1,-3.8815707E-1,-4.602308E-3,4.2163357E-2,9.762718E-3,-2.4947498E-2,-2.8393243E-2,-5.827602E-3],"categories":[],"categories_nodes":[],"categories_segments":[],"categories_sizes":[],"default_left":[0,0,0,0,0,0,0,0,0,0,0,0,0,0,0,0,0],"id":38,"left_children":[1,3,-1,-1,5,-1,7,9,11,13,15,-1,-1,-1,-1,-1,-1],"loss_changes":[3.4033427E0,2.9158924E0,0E0,0E0,2.2808294E0,0E0,1.7819438E0,1.419443E0,1.0611756E0,1.3190442E0,2.8799677E-1,0E0,0E0,0E0,0E0,0E0,0E0],"parents":[2147483647,0,0,1,1,4,4,6,6,7,7,8,8,9,9,10,10],"right_children":[2,4,-1,-1,6,-1,8,10,12,14,16,-1,-1,-1,-1,-1,-1],"split_conditions":[7.2E0,6.85E2,-3.1730365E-2,-2.9961962E-2,7.5E2,4.3167673E-2,1.55E2,1.919E3,4.0717316E1,1.18E1,1.07E1,-4.602308E-3,4.2163357E-2,9.762718E-3,-2.4947498E-2,-2.8393243E-2,-5.827602E-3],"split_indices":[8,12,0,0,0,0,14,12,2,16,16,0,0,0,0,0,0],"split_type":[0,0,0,0,0,0,0,0,0,0,0,0,0,0,0,0,0],"sum_hessian":[4.9153175E1,4.2698833E1,6.4543405E0,4.352862E0,3.8345974E1,3.4620204E0,3.4883953E1,2.9999678E1,4.884274E0,2.3743256E1,6.2564235E0,1.4152846E0,3.4689896E0,2.159485E1,2.1484036E0,3.108745E0,3.1476784E0],"tree_param":{"num_deleted":"0","num_feature":"17","num_nodes":"17","size_leaf_vector":"1"}},{"base_weights":[-2.7703468E-2,3.9710173E-1,-2.4972166E-1,5.289356E-1,-2.3660732E-2,-4.770294E-1,4.0200666E-1,-6.332066E-3,6.2472177E-1,-5.302086E-1,-1.14405625E-1,-8.2989305E-2,4.559907E-2,4.423961E-1,4.469602E-2,-2.1095155E-3,-5.6208926E-1,1.1800233E-2,-2.188567E-2,2.1817566E-1,-2.3216823E-2,6.0055465E-1,-8.434872E-3,-2.9903838E-2,-2.580133E-1,-2.066502E-2,3.5804056E-2,6.1966847E-3,3.6327392E-2,2.5425311E-3,-2.1232693E-2],"categories":[],"categories_nodes":[],"categories_segments":[],"categories_sizes":[],"default_left":[0,0,0,0,0,0,0,0,0,0,0,0,0,0,0,0,0,0,0,0,0,0,0,0,0,0,0,0,0,0,0],"id":39,"left_children":[1,3,5,7,-1,9,11,-1,13,15,17,19,-1,21,-1,-1,23,-1,-1,25,-1,27,-1,-1,29,-1,-1,-1,-1,-1,-1],"loss_changes":[4.6383553E0,2.1900244E0,4.965295E0,1.0307155E0,0E0,4.0885878E-1,2.270787E0,0E0,2.6177216E-1,3.0236292E-1,6.005411E-1,7.290099E-1,0E0,1.0642629E0,0E0,0E0,6.008339E-2,0E0,0E0,1.4700232E0,0E0,3.9841986E-1,0E0,0E0,2.1882737E-1,0E0,0E0,0E0,0E0,0E0,0E0],"parents":[2147483647,0,0,1,1,2,2,3,3,5,5,6,6,8,8,9,9,10,10,11,11,13,13,16,16,19,19,21,21,24,24],"right_children":[2,4,6,8,-1,10,12,-1,14,16,18,20,-1,22,-1,-1,24,-1,-1,26,-1,28,-1,-1,30,-1,-1,-1,-1,-1,-1],"split_conditions":[1.98E2,1.767E2,1.08E2,1.01E1,-2.3660732E-2,3.88E2,1.4725E2,-6.332066E-3,1.8E2,3.01E0,4.26E2,1.96E3,4.559907E-2,1.426E2,4.469602E-2,-2.1095155E-3,1.271E2,1.1800233E-2,-2.188567E-2,1.16E2,-2.3216823E-2,2.97E0,-8.434872E-3,-2.9903838E-2,3.18E2,-2.066502E-2,3.5804056E-2,6.1966847E-3,3.6327392E-2,2.5425311E-3,-2.1232693E-2],"split_indices":[15,13,11,16,0,15,13,0,15,10,15,12,0,13,0,0,13,0,0,14,0,10,0,0,9,0,0,0,0,0,0],"split_type":[0,0,0,0,0,0,0,0,0,0,0,0,0,0,0,0,0,0,0,0,0,0,0,0,0,0,0,0,0,0,0],"sum_hessian":[4.7128246E1,1.5905802E1,3.1222445E1,1.4154026E1,1.7517762E0,2.334745E1,7.8749948E0,1.7633348E0,1.2390691E1,1.9958385E1,3.3890638E0,4.465492E0,3.4095027E0,8.963308E0,3.4273822E0,1.3663393E0,1.8592047E1,1.7559478E0,1.6331158E0,2.7341259E0,1.7313659E0,7.1341486E0,1.8291599E0,1.5759982E1,2.8320649E0,1.2802948E0,1.4538312E0,1.9063292E0,5.2278194E0,1.2360066E0,1.5960584E0],"tree_param":{"num_deleted":"0","num_feature":"17","num_nodes":"31","size_leaf_vector":"1"}},{"base_weights":[4.019623E-2,1.0386344E0,-2.896946E-1,7.8279756E-2,5.5569736E-3,-2.3072442E-2,1.7976476E-1,3.4449548E-2,-1.5859006E-2],"categories":[],"categories_nodes":[],"categories_segments":[],"categories_sizes":[],"default_left":[0,0,0,0,0,0,0,0,0],"id":40,"left_children":[1,3,5,-1,-1,-1,7,-1,-1],"loss_changes":[4.6042E0,1.5184562E0,9.378299E-1,0E0,0E0,0E0,1.1193047E0,0E0,0E0],"parents":[2147483647,0,0,1,1,2,2,6,6],"right_children":[2,4,6,-1,-1,-1,8,-1,-1],"split_conditions":[6.76E2,2.27E2,2.504E3,7.8279756E-2,5.5569736E-3,-2.3072442E-2,3.358E3,3.4449548E-2,-1.5859006E-2],"split_indices":[12,9,0,0,0,0,0,0,0],"split_type":[0,0,0,0,0,0,0,0,0],"sum_hessian":[1.2065062E1,2.4628005E0,9.602262E0,1.1317879E0,1.3310127E0,7.0427113E0,2.5595503E0,1.073286E0,1.4862643E0],"tree_param":{"num_deleted":"0","num_feature":"17","num_nodes":"9","size_leaf_vector":"1"}},{"base_weights":[3.40926E-2,-2.4708521E-1,2.4502954E-1,-4.331029E-1,3.7335914E-1,5.249912E-1,-3.1432286E-1,-6.212249E-2,-2.7969314E-2,3.7413314E-2,-4.0728827E-3,-1.6925377E-1,6.672374E-1,-4.0468994E-1,8.117332E-3,1.391335E-2,-1.940493E-2,6.020809E-3,-1.8043365E-2,3.332158E-1,4.8331764E-2,-2.6130727E-2,6.8036537E-3,6.598354E-2,4.7940955E-2,1.7142156E-2,-2.012083E-2],"categories":[],"categories_nodes":[],"categories_segments":[],"categories_sizes":[],"default_left":[0,0,0,0,0,0,0,0,0,0,0,0,0,0,0,0,0,0,0,0,0,0,0,0,0,0,0],"id":41,"left_children":[1,3,5,7,9,11,13,15,-1,-1,-1,17,19,21,-1,-1,-1,-1,-1,23,-1,-1,-1,25,-1,-1,-1],"loss_changes":[2.3573136E0,2.1348681E0,3.708479E0,6.0313916E-1,8.249391E-1,1.639133E0,4.177649E-1,6.164963E-1,0E0,0E0,0E0,2.3359857E-1,9.808593E-1,5.2751136E-1,0E0,0E0,0E0,0E0,0E0,1.221424E0,0E0,0E0,0E0,9.7548664E-1,0E0,0E0,0E0],"parents":[2147483647,0,0,1,1,2,2,3,3,4,4,5,5,6,6,7,7,11,11,12,12,13,13,19,19,23,23],"right_children":[2,4,6,8,10,12,14,16,-1,-1,-1,18,20,22,-1,-1,-1,-1,-1,24,-1,-1,-1,26,-1,-1,-1],"split_conditions":[2.25E2,3.39E2,1.428E3,1.24E2,3.82E2,2.26E2,6.0648E3,1.11E1,-2.7969314E-2,3.7413314E-2,-4.0728827E-3,5.8E1,1.615E3,3.839E3,8.117332E-3,1.391335E-2,-1.940493E-2,6.020809E-3,-1.8043365E-2,5E-1,4.8331764E-2,-2.6130727E-2,6.8036537E-3,3.62E0,4.7940955E-2,1.7142156E-2,-2.012083E-2],"split_indices":[15,9,12,15,9,9,12,16,0,0,0,13,0,0,0,0,0,0,0,7,0,0,0,10,0,0,0],"split_type":[0,0,0,0,0,0,0,0,0,0,0,0,0,0,0,0,0,0,0,0,0,0,0,0,0,0,0],"sum_hessian":[3.7724335E1,1.6096464E1,2.162787E1,1.2615971E1,3.4804935E0,1.4454616E1,7.173255E0,3.5827925E0,9.033178E0,1.5541766E0,1.9263171E0,2.4257348E0,1.202888E1,6.1570125E0,1.0162424E0,1.8242445E0,1.758548E0,1.1136906E0,1.3120441E0,6.6844096E0,5.344471E0,5.0822773E0,1.0747352E0,5.4583125E0,1.2260971E0,3.5990558E0,1.8592565E0],"tree_param":{"num_deleted":"0","num_feature":"17","num_nodes":"27","size_leaf_vector":"1"}},{"base_weights":[5.0708763E-2,1.9042899E-1,-3.8150626E-1,-2.8670836E-2,2.819136E-1,-3.1481247E-2,5.310672E-2,3.62621E-1,-2.6557997E-2,2.7074656E-2,-2.4657946E-2,4.548557E-1,-2.3394659E-1,3.2446125E-1,8.2035244E-1,-2.6862824E-2,1.5829569E-2,-1.6497195E-2,2.1621443E-2,1.3883996E-2,4.576775E-2],"categories":[],"categories_nodes":[],"categories_segments":[],"categories_sizes":[],"default_left":[0,0,0,0,0,0,0,0,0,0,0,0,0,0,0,0,0,0,0,0,0],"id":42,"left_children":[1,3,5,-1,7,-1,9,11,-1,-1,-1,13,15,17,19,-1,-1,-1,-1,-1,-1],"loss_changes":[3.1273985E0,2.8795698E0,1.4019146E0,0E0,2.5158799E0,0E0,1.7434951E0,1.9112973E0,0E0,0E0,0E0,1.1039667E0,1.0138078E0,1.7566907E0,1.0182524E-1,0E0,0E0,0E0,0E0,0E0,0E0],"parents":[2147483647,0,0,1,1,2,2,4,4,6,6,7,7,11,11,12,12,13,13,14,14],"right_children":[2,4,6,-1,8,-1,10,12,-1,-1,-1,14,16,18,20,-1,-1,-1,-1,-1,-1],"split_conditions":[1.11E1,6.85E2,1.59E2,-2.8670836E-2,5.4302E3,-3.1481247E-2,1.3795E2,1.1E2,-2.6557997E-2,2.7074656E-2,-2.4657946E-2,1.07E1,3.51E0,3.8E1,4.044353E1,-2.6862824E-2,1.5829569E-2,-1.6497195E-2,2.1621443E-2,1.3883996E-2,4.576775E-2],"split_indices":[16,12,11,0,12,0,13,11,0,0,0,16,10,11,2,0,0,0,0,0,0],"split_type":[0,0,0,0,0,0,0,0,0,0,0,0,0,0,0,0,0,0,0,0,0],"sum_hessian":[4.958437E1,3.7893967E1,1.1690403E1,3.4896255E0,3.440434E1,7.156236E0,4.5341663E0,3.1801653E1,2.6026876E0,2.3985183E0,2.1356483E0,2.774896E1,4.052693E0,2.1843727E1,5.905232E0,2.6286213E0,1.4240714E0,2.8023548E0,1.9041372E1,1.4642168E0,4.4410152E0],"tree_param":{"num_deleted":"0","num_feature":"17","num_nodes":"21","size_leaf_vector":"1"}},{"base_weights":[-3.9518293E-2,-3.0679002E-1,3.5672465E-1,8.483804E-2,-5.137495E-1,4.8174575E-1,-2.4129972E-2,-3.6252698E-1,3.3882725E-1,-5.9468776E-1,3.8658162E-3,2.8236695E-2,6.4910704E-1,-2.5106428E-2,-7.4873137E-4,3.798369E-2,5.7131164E-2,-3.1937014E-2,-9.5760655E-3,3.2861855E-2,-3.3443242E-1,7.3136175E-1,-1.4994631E-3,-3.427085E-1,3.5477113E-2,-2.4299577E-2,7.9710194E-4,1.3139051E-2,7.732203E-1,-2.4519583E-2,-1.0522867E-3,1.6379265E-2,4.318401E-2],"categories":[],"categories_nodes":[],"categories_segments":[],"categories_sizes":[],"default_left":[0,0,0,0,0,0,0,0,0,0,0,0,0,0,0,0,0,0,0,0,0,0,0,0,0,0,0,0,0,0,0,0,0],"id":43,"left_children":[1,3,5,7,9,11,-1,13,15,17,-1,19,21,-1,-1,-1,23,-1,-1,-1,25,27,-1,29,-1,-1,-1,-1,31,-1,-1,-1,-1],"loss_changes":[5.239882E0,2.431986E0,2.3286583E0,1.3780208E0,9.750838E-1,1.339283E0,0E0,2.1001768E-1,8.5321146E-1,1.8309641E-1,0E0,1.5581867E0,7.4920464E-1,0E0,0E0,0E0,1.7070786E0,0E0,0E0,0E0,2.40556E-1,2.536726E-2,0E0,1.8700007E-1,0E0,0E0,0E0,0E0,1.2753677E-1,0E0,0E0,0E0,0E0],"parents":[2147483647,0,0,1,1,2,2,3,3,4,4,5,5,7,7,8,8,9,9,11,11,12,12,16,16,20,20,21,21,23,23,28,28],"right_children":[2,4,6,8,10,12,-1,14,16,18,-1,20,22,-1,-1,-1,24,-1,-1,-1,26,28,-1,30,-1,-1,-1,-1,32,-1,-1,-1,-1],"split_conditions":[2.7E0,1.98E2,1.847E3,1E0,4.196E3,7.4E1,-2.4129972E-2,1.32E2,1.2E2,1.9E0,3.8658162E-3,7.88E2,2.05E2,-2.5106428E-2,-7.4873137E-4,3.798369E-2,1.8E2,-3.1937014E-2,-9.5760655E-3,3.2861855E-2,3.37E0,1.31E2,-1.4994631E-3,1.492E3,3.5477113E-2,-2.4299577E-2,7.9710194E-4,1.3139051E-2,1.53E2,-2.4519583E-2,-1.0522867E-3,1.6379265E-2,4.318401E-2],"split_indices":[8,15,0,5,0,11,0,15,15,8,0,0,14,0,0,0,15,0,0,0,10,0,0,0,0,0,0,0,15,0,0,0,0],"split_type":[0,0,0,0,0,0,0,0,0,0,0,0,0,0,0,0,0,0,0,0,0,0,0,0,0,0,0,0,0,0,0,0,0],"sum_hessian":[4.7444035E1,2.8467821E1,1.8976213E1,1.0046661E1,1.842116E1,1.688687E1,2.089344E0,3.4835548E0,6.5631065E0,1.6197067E1,2.2240918E0,4.867049E0,1.201982E1,2.167983E0,1.3155718E0,1.9512324E0,4.611874E0,1.407485E1,2.1222177E0,1.482914E0,3.3841352E0,1.0652577E1,1.3672433E0,3.1537545E0,1.4581199E0,2.0921044E0,1.2920307E0,1.4703827E0,9.182195E0,1.8019042E0,1.3518502E0,2.3291879E0,6.8530064E0],"tree_param":{"num_deleted":"0","num_feature":"17","num_nodes":"33","size_leaf_vector":"1"}},{"base_weights":[4.4947773E-2,9.41305E-1,-2.3387086E-2,7.0936345E-2,2.4184145E-1,-1.4783512E-2,3.571285E-2],"categories":[],"categories_nodes":[],"categories_segments":[],"categories_sizes":[],"default_left":[0,0,0,0,0,0,0],"id":44,"left_children":[1,3,-1,-1,5,-1,-1],"loss_changes":[6.379788E0,1.3381476E0,0E0,0E0,1.0359106E0,0E0,0E0],"parents":[2147483647,0,0,1,1,4,4],"right_children":[2,4,-1,-1,6,-1,-1],"split_conditions":[9E-1,2.44E2,-2.3387086E-2,7.0936345E-2,3.13E2,-1.4783512E-2,3.571285E-2],"split_indices":[8,9,0,0,15,0,0],"split_type":[0,0,0,0,0,0,0],"sum_hessian":[1.192452E1,4.034614E0,7.889905E0,1.7867521E0,2.247862E0,1.2264946E0,1.0213675E0],"tree_param":{"num_deleted":"0","num_feature":"17","num_nodes":"7","size_leaf_vector":"1"}},{"base_weights":[-3.1712152E-2,4.7890106E-1,-2.1398512E-1,-7.963681E-2,7.656062E-1,1.4296578E-1,-4.698165E-1,2.505517E-2,-2.2179237E-2,9.624693E-1,3.4527173E-5,3.0032888E-1,-2.1701168E-2,-5.1830417E-1,7.6966747E-3,5.7518E-2,5.3337417E-3,7.593147E-1,-2.4382386E-2,7.760387E-4,-2.8512577E-2,6.2529715E-3,4.628691E-2,2.8837574E-1,-2.2408517E-2,3.639234E-2,-1.9114472E-2],"categories":[],"categories_nodes":[],"categories_segments":[],"categories_sizes":[],"default_left":[0,0,0,0,0,0,0,0,0,0,0,0,0,0,0,0,0,0,0,0,0,0,0,0,0,0,0],"id":45,"left_children":[1,3,5,7,9,11,13,-1,-1,15,-1,17,-1,19,-1,-1,-1,21,23,-1,-1,-1,-1,25,-1,-1,-1],"loss_changes":[3.7890873E0,1.7790599E0,2.7959476E0,1.1829157E0,1.0811181E0,1.3326879E0,6.1328244E-1,0E0,0E0,7.9587364E-1,0E0,1.6572571E0,0E0,4.6907997E-1,0E0,0E0,0E0,3.683977E-1,1.1111983E0,0E0,0E0,0E0,0E0,1.7139658E0,0E0,0E0,0E0],"parents":[2147483647,0,0,1,1,2,2,3,3,4,4,5,5,6,6,9,9,11,11,13,13,17,17,18,18,23,23],"right_children":[2,4,6,8,10,12,14,-1,-1,16,-1,18,-1,20,-1,-1,-1,22,24,-1,-1,-1,-1,26,-1,-1,-1],"split_conditions":[5.2E1,2.57E2,4.718138E1,1.558E3,1E0,3.81E0,1.6E1,2.505517E-2,-2.2179237E-2,5.2183437E1,3.4527173E-5,1.3E0,-2.1701168E-2,6.46E2,7.6966747E-3,5.7518E-2,5.3337417E-3,3.24E0,3.51E0,7.760387E-4,-2.8512577E-2,6.2529715E-3,4.628691E-2,1.516E3,-2.2408517E-2,3.639234E-2,-1.9114472E-2],"split_indices":[11,9,2,0,5,10,8,0,0,2,0,8,0,12,0,0,0,10,10,0,0,0,0,12,0,0,0],"split_type":[0,0,0,0,0,0,0,0,0,0,0,0,0,0,0,0,0,0,0,0,0,0,0,0,0,0,0],"sum_hessian":[3.8610725E1,9.728962E0,2.8881763E1,3.5450299E0,6.1839323E0,1.2242076E1,1.6639688E1,1.2205625E0,2.3244674E0,4.712761E0,1.4711714E0,9.995482E0,2.2465932E0,1.5596347E1,1.0433418E0,3.5821042E0,1.1306565E0,3.5868988E0,6.408584E0,1.4452978E0,1.4151049E1,1.1095922E0,2.4773066E0,3.8711672E0,2.537417E0,2.2871747E0,1.5839924E0],"tree_param":{"num_deleted":"0","num_feature":"17","num_nodes":"27","size_leaf_vector":"1"}},{"base_weights":[-6.4574674E-2,7.867586E-2,-5.125421E-1,-2.8811915E-2,1.6628449E-1,-3.1764235E-2,-1.06279455E-1,2.65246E-1,-4.3198648E-1,1.5528395E-2,-2.2175545E-2,1.3471393E-1,6.6303235E-1,-2.7978063E-2,-1.1886368E-3,3.198991E-2,6.852405E-3,1.3017058E-2,4.0271945E-2,2.9291913E-2,-6.1589456E-3],"categories":[],"categories_nodes":[],"categories_segments":[],"categories_sizes":[],"default_left":[0,0,0,0,0,0,0,0,0,0,0,0,0,0,0,0,0,0,0,0,0],"id":46,"left_children":[1,3,5,-1,7,-1,9,11,13,-1,-1,15,17,-1,-1,-1,19,-1,-1,-1,-1],"loss_changes":[3.2876456E0,2.345509E0,5.505295E-1,0E0,2.2080598E0,0E0,7.108151E-1,1.5182526E0,2.6787305E-1,0E0,0E0,1.5820961E0,2.143476E-1,0E0,0E0,0E0,1.624121E0,0E0,0E0,0E0,0E0],"parents":[2147483647,0,0,1,1,2,2,4,4,6,6,7,7,8,8,11,11,12,12,16,16],"right_children":[2,4,6,-1,8,-1,10,12,14,-1,-1,16,18,-1,-1,-1,20,-1,-1,-1,-1],"split_conditions":[1.11E1,6.85E2,1.86E2,-2.8811915E-2,1.1E2,-3.1764235E-2,2.21E2,3.73E2,6.6E0,1.5528395E-2,-2.2175545E-2,1.168E3,1.09E2,-2.7978063E-2,-1.1886368E-3,3.198991E-2,2.42E2,1.3017058E-2,4.0271945E-2,2.9291913E-2,-6.1589456E-3],"split_indices":[16,12,11,0,11,0,11,9,8,0,0,0,14,0,0,0,9,0,0,0,0],"split_type":[0,0,0,0,0,0,0,0,0,0,0,0,0,0,0,0,0,0,0,0,0],"sum_hessian":[4.9603725E1,3.8209503E1,1.139422E1,3.8501883E0,3.4359318E1,8.317544E0,3.0766764E0,2.9960173E1,4.399143E0,1.411279E0,1.6653974E0,2.3565804E1,6.39437E0,3.069202E0,1.3299413E0,3.9517171E0,1.9614086E1,2.40938E0,3.9849901E0,2.9542844E0,1.6659801E1],"tree_param":{"num_deleted":"0","num_feature":"17","num_nodes":"21","size_leaf_vector":"1"}},{"base_weights":[3.6701534E-2,-4.456594E-1,3.059264E-1,-5.3410035E-1,1.208088E-2,-1.7540921E-1,5.524205E-1,-3.171937E-2,3.616364E-3,-4.5042828E-1,1.2685691E-1,8.9828975E-2,7.1272177E-1,9.1675867E-4,-2.849908E-2,5.4963344E-1,-2.448582E-2,-2.7551696E-1,4.425064E-1,8.244589E-1,-6.3505583E-3,3.9523236E-2,1.7605627E-4,2.137339E-3,-2.2097906E-2,-9.2732225E-4,3.500534E-2,9.1925836E-1,6.516407E-3,1.4826584E-2,4.866376E-2],"categories":[],"categories_nodes":[],"categories_segments":[],"categories_sizes":[],"default_left":[0,0,0,0,0,0,0,0,0,0,0,0,0,0,0,0,0,0,0,0,0,0,0,0,0,0,0,0,0,0,0],"id":47,"left_children":[1,3,5,7,-1,9,11,-1,-1,13,15,17,19,-1,-1,21,-1,23,25,27,-1,-1,-1,-1,-1,-1,-1,29,-1,-1,-1],"loss_changes":[6.5656404E0,1.2317386E0,3.9371054E0,1.0423346E0,0E0,1.0314667E0,1.5411272E0,0E0,0E0,3.6669302E-1,1.9280821E0,9.8712087E-1,1.5995398E0,0E0,0E0,5.5571806E-1,0E0,2.2625026E-1,4.6434522E-1,8.141985E-1,0E0,0E0,0E0,0E0,0E0,0E0,0E0,1.2591457E-1,0E0,0E0,0E0],"parents":[2147483647,0,0,1,1,2,2,3,3,5,5,6,6,9,9,10,10,11,11,12,12,15,15,17,17,18,18,19,19,27,27],"right_children":[2,4,6,8,-1,10,12,-1,-1,14,16,18,20,-1,-1,22,-1,24,26,28,-1,-1,-1,-1,-1,-1,-1,30,-1,-1,-1],"split_conditions":[1.3E0,5.876523E1,4.6516087E1,1.12E1,1.208088E-2,1.516E3,1.04E1,-3.171937E-2,3.616364E-3,1.6E0,3.92E2,5.2999317E1,1E0,9.1675867E-4,-2.849908E-2,4.155236E1,-2.448582E-2,4.8977413E1,1.01E1,1.24E1,-6.3505583E-3,3.9523236E-2,1.7605627E-4,2.137339E-3,-2.2097906E-2,-9.2732225E-4,3.500534E-2,5.3E1,6.516407E-3,1.4826584E-2,4.866376E-2],"split_indices":[8,2,2,16,0,12,16,0,0,8,9,2,3,0,0,2,0,2,16,16,0,0,0,0,0,0,0,11,0,0,0],"split_type":[0,0,0,0,0,0,0,0,0,0,0,0,0,0,0,0,0,0,0,0,0,0,0,0,0,0,0,0,0,0,0],"sum_hessian":[4.850812E1,1.7141302E1,3.1366821E1,1.5384457E1,1.7568446E0,1.0720667E1,2.0646154E1,1.3161746E1,2.2227101E0,5.3566804E0,5.3639865E0,5.7148447E0,1.493131E1,1.2605909E0,4.09609E0,3.2464824E0,2.1175041E0,2.9144692E0,2.800375E0,1.3193885E1,1.7374247E0,1.9424411E0,1.3040411E0,1.2559849E0,1.6584845E0,1.3364325E0,1.4639426E0,1.1323123E1,1.8707619E0,1.4217905E0,9.901332E0],"tree_param":{"num_deleted":"0","num_feature":"17","num_nodes":"31","size_leaf_vector":"1"}},{"base_weights":[7.129331E-2,6.1597474E-2,-2.8242558E-1,-2.3055084E-2,2.3791213E-1,3.5758603E-2,-1.4783502E-2],"categories":[],"categories_nodes":[],"categories_segments":[],"categories_sizes":[],"default_left":[0,0,0,0,0,0,0],"id":48,"left_children":[1,-1,3,-1,5,-1,-1],"loss_changes":[5.417161E0,0E0,1.0651709E0,0E0,1.0484016E0,0E0,0E0],"parents":[2147483647,0,0,2,2,4,4],"right_children":[2,-1,4,-1,6,-1,-1],"split_conditions":[6.76E2,6.1597474E-2,2.534E3,-2.3055084E-2,3.358E3,3.5758603E-2,-1.4783502E-2],"split_indices":[12,0,0,0,0,0,0],"split_type":[0,0,0,0,0,0,0],"sum_hessian":[1.1347526E1,2.0705595E0,9.276966E0,6.9904075E0,2.2865589E0,1.0273386E0,1.2592201E0],"tree_param":{"num_deleted":"0","num_feature":"17","num_nodes":"7","size_leaf_vector":"1"}},{"base_weights":[-1.5437643E-2,2.7319708E-1,-2.913267E-1,-2.1527324E-2,3.8723058E-1,3.3838835E-1,-2.5289787E-2,6.2119067E-1,-1.7282867E-1,-2.0584537E-1,4.68525E-2,-1.21990494E-1,4.029058E-2,-2.409955E-2,2.6687577E-2,6.8994123E-3,-1.9738488E-2,8.641628E-3,-1.679221E-2],"categories":[],"categories_nodes":[],"categories_segments":[],"categories_sizes":[],"default_left":[0,0,0,0,0,0,0,0,0,0,0,0,0,0,0,0,0,0,0],"id":49,"left_children":[1,3,5,-1,7,9,-1,11,13,15,-1,17,-1,-1,-1,-1,-1,-1,-1],"loss_changes":[3.006849E0,1.6498419E0,2.7748733E0,0E0,2.2602856E0,1.9839027E0,0E0,1.7182927E0,1.4857402E0,2.947765E-1,0E0,2.6093313E-1,0E0,0E0,0E0,0E0,0E0,0E0,0E0],"parents":[2147483647,0,0,1,1,2,2,4,4,5,5,7,7,8,8,9,9,11,11],"right_children":[2,4,6,-1,8,10,-1,12,14,16,-1,18,-1,-1,-1,-1,-1,-1,-1],"split_conditions":[4.718138E1,2.44E2,4.2E1,-2.1527324E-2,1.3674E2,2.33E2,-2.5289787E-2,1.83E2,2.064E2,4.8936344E1,4.68525E-2,3.37E0,4.029058E-2,-2.409955E-2,2.6687577E-2,6.8994123E-3,-1.9738488E-2,8.641628E-3,-1.679221E-2],"split_indices":[2,9,11,0,13,15,0,15,13,2,0,10,0,0,0,0,0,0,0],"split_type":[0,0,0,0,0,0,0,0,0,0,0,0,0,0,0,0,0,0,0],"sum_hessian":[3.5760223E1,1.7481188E1,1.8279036E1,2.0505927E0,1.5430594E1,4.497085E0,1.3781951E1,1.0806935E1,4.6236596E0,2.6993272E0,1.7977577E0,2.2179475E0,8.588987E0,3.4374614E0,1.1861981E0,1.0528324E0,1.6464949E0,1.0130942E0,1.2048534E0],"tree_param":{"num_deleted":"0","num_feature":"17","num_nodes":"19","size_leaf_vector":"1"}},{"base_weights":[-7.604096E-2,-1.3043672E-1,4.6610084E-1,-6.3813813E-3,-3.605968E-1,-6.2752217E-3,3.7336495E-2,-2.8984237E-2,9.233243E-2,-4.8596984E-1,2.1103054E-1,1.9585268E-1,-2.681452E-2,-5.882645E-1,1.0220485E-3,1.7354062E-2,-9.1809966E-4,-2.4833381E-2,2.7153325E-1,-1.1860905E-3,-3.2868776E-2,3.347088E-2,5.790815E-3],"categories":[],"categories_nodes":[],"categories_segments":[],"categories_sizes":[],"default_left":[0,0,0,0,0,0,0,0,0,0,0,0,0,0,0,0,0,0,0,0,0,0,0],"id":50,"left_children":[1,3,5,7,9,-1,-1,-1,11,13,15,17,-1,19,-1,-1,-1,-1,21,-1,-1,-1,-1],"loss_changes":[1.5861151E0,1.3621646E0,9.1304255E-1,1.8684211E0,1.300714E0,0E0,0E0,0E0,1.9415334E0,7.379956E-1,1.2198609E-1,1.4432023E0,0E0,4.4060183E-1,0E0,0E0,0E0,0E0,1.3568218E0,0E0,0E0,0E0,0E0],"parents":[2147483647,0,0,1,1,2,2,3,3,4,4,8,8,9,9,10,10,11,11,13,13,18,18],"right_children":[2,4,6,8,10,-1,-1,-1,12,14,16,18,-1,20,-1,-1,-1,-1,22,-1,-1,-1,-1],"split_conditions":[4.18E0,7.7E1,1.02E1,7.285E1,1.21E1,-6.2752217E-3,3.7336495E-2,-2.8984237E-2,1.11E1,3.81E0,9.5E1,2.7E1,-2.681452E-2,1.28E2,1.0220485E-3,1.7354062E-2,-9.1809966E-4,-2.4833381E-2,1.116E2,-1.1860905E-3,-3.2868776E-2,3.347088E-2,5.790815E-3],"split_indices":[10,11,16,13,16,0,0,0,16,10,14,11,0,15,0,0,0,0,13,0,0,0,0],"split_type":[0,0,0,0,0,0,0,0,0,0,0,0,0,0,0,0,0,0,0,0,0,0,0],"sum_hessian":[5.0722862E1,4.6787815E1,3.9350476E0,3.1069311E1,1.5718506E1,1.4438932E0,2.4911544E0,3.8481147E0,2.7221195E1,1.3014031E1,2.704474E0,2.3963398E1,3.2577987E0,1.0692514E1,2.3215168E0,1.3755827E0,1.3288913E0,1.812777E0,2.215062E1,1.3127086E0,9.3798065E0,5.3026004E0,1.684802E1],"tree_param":{"num_deleted":"0","num_feature":"17","num_nodes":"23","size_leaf_vector":"1"}},{"base_weights":[2.7209433E-2,-1.9788694E-1,4.0796384E-1,-3.3339617E-1,1.5677105E-1,-2.2638254E-2,5.2199227E-1,1.9244062E-2,-3.960372E-1,3.8575748E-1,-2.7151436E-1,-3.8030624E-2,6.285243E-1,-4.6656448E-1,1.3536217E-2,6.3174456E-1,-1.8890679E-2,-2.118881E-2,1.2300354E-3,-1.9267164E-2,1.5124515E-2,6.99843E-1,-1.37619E-3,-2.6851548E-2,-8.367994E-2,4.271581E-2,-1.0790841E-3,4.0685117E-2,3.418586E-1,-2.2515243E-2,2.0683518E-2,-2.1223998E-2,3.7537303E-2],"categories":[],"categories_nodes":[],"categories_segments":[],"categories_sizes":[],"default_left":[0,0,0,0,0,0,0,0,0,0,0,0,0,0,0,0,0,0,0,0,0,0,0,0,0,0,0,0,0,0,0,0,0],"id":51,"left_children":[1,3,5,7,9,-1,11,-1,13,15,17,19,21,23,-1,25,-1,-1,-1,-1,-1,27,-1,-1,29,-1,-1,-1,31,-1,-1,-1,-1],"loss_changes":[4.229689E0,1.5467504E0,2.0336542E0,1.1791639E0,1.0145459E0,0E0,1.0163336E0,0E0,1.1364987E0,1.4516919E0,1.826083E-1,5.4251105E-1,6.7584896E-1,4.8912048E-1,0E0,7.831216E-1,0E0,0E0,0E0,0E0,0E0,2.392745E-1,0E0,0E0,9.6328664E-1,0E0,0E0,0E0,1.8189492E0,0E0,0E0,0E0,0E0],"parents":[2147483647,0,0,1,1,2,2,3,3,4,4,6,6,8,8,9,9,10,10,11,11,12,12,13,13,15,15,21,21,24,24,28,28],"right_children":[2,4,6,8,10,-1,12,-1,14,16,18,20,22,24,-1,26,-1,-1,-1,-1,-1,28,-1,-1,30,-1,-1,-1,32,-1,-1,-1,-1],"split_conditions":[1.1E1,1.613E3,6.13E2,6.01E2,1.978E3,-2.2638254E-2,5.3E1,1.9244062E-2,3.4E2,1.94E2,2.77E2,1.11E1,1.27E1,2.466E3,1.3536217E-2,4.48E2,-1.8890679E-2,-2.118881E-2,1.2300354E-3,-1.9267164E-2,1.5124515E-2,1.82E2,-1.37619E-3,-2.6851548E-2,1E0,4.271581E-2,-1.0790841E-3,4.0685117E-2,2.21E2,-2.2515243E-2,2.0683518E-2,-2.1223998E-2,3.7537303E-2],"split_indices":[16,12,12,12,0,0,11,0,15,14,15,16,16,0,0,9,0,0,0,0,0,11,0,0,5,0,0,0,11,0,0,0,0],"split_type":[0,0,0,0,0,0,0,0,0,0,0,0,0,0,0,0,0,0,0,0,0,0,0,0,0,0,0,0,0,0,0,0,0],"sum_hessian":[4.740895E1,3.0096575E1,1.7312374E1,2.1819601E1,8.276975E0,1.6777158E0,1.5634658E1,1.3376069E0,2.0481993E1,5.45807E0,2.8189054E0,2.6015768E0,1.3033081E1,1.8794266E1,1.6877272E0,4.2587447E0,1.199325E0,1.5769303E0,1.241975E0,1.2227798E0,1.378797E0,1.1694971E1,1.3381102E0,1.553297E1,3.2612958E0,2.9471014E0,1.3116432E0,7.907064E0,3.787907E0,1.9318284E0,1.3294673E0,1.3046299E0,2.4832768E0],"tree_param":{"num_deleted":"0","num_feature":"17","num_nodes":"33","size_leaf_vector":"1"}},{"base_weights":[6.940305E-2,7.7537173E-1,-2.2816662E-2,-5.52467E-2,1.3025607E0,1.0518892E-2,-1.4264928E-2,6.0170777E-3,9.6686184E-2],"categories":[],"categories_nodes":[],"categories_segments":[],"categories_sizes":[],"default_left":[0,0,0,0,0,0,0,0,0],"id":52,"left_children":[1,3,-1,5,7,-1,-1,-1,-1],"loss_changes":[4.943692E0,2.5455995E0,0E0,2.526679E-1,2.3761764E0,0E0,0E0,0E0,0E0],"parents":[2147483647,0,0,1,1,3,3,4,4],"right_children":[2,4,-1,6,8,-1,-1,-1,-1],"split_conditions":[1E0,2.534E3,-2.2816662E-2,4.507324E1,6E1,1.0518892E-2,-1.4264928E-2,6.0170777E-3,9.6686184E-2],"split_indices":[8,0,0,2,11,0,0,0,0],"split_type":[0,0,0,0,0,0,0,0,0],"sum_hessian":[1.136649E1,4.6489553E0,6.7175355E0,2.152603E0,2.4963524E0,1.038751E0,1.1138519E0,1.283298E0,1.2130543E0],"tree_param":{"num_deleted":"0","num_feature":"17","num_nodes":"9","size_leaf_vector":"1"}},{"base_weights":[-1.5114762E-2,4.0124962E-1,-1.335367E-1,-1.5422702E-1,4.7554325E-2,-2.1541421E-1,4.290045E-1,2.4754195E-2,-2.3795823E-2,1.5566896E-1,-3.5074228E-1,4.95071E-2,-1.8242711E-2,6.205544E-1,-1.634105E-1,-4.301478E-1,2.4515722E-2,5.4566097E-3,4.041471E-2,1.5545341E-2,-2.2960624E-2,-1.8906471E-1,-2.7886778E-2,4.131694E-3,-2.359358E-2],"categories":[],"categories_nodes":[],"categories_segments":[],"categories_sizes":[],"default_left":[0,0,0,0,0,0,0,0,0,0,0,0,0,0,0,0,0,0,0,0,0,0,0,0,0],"id":53,"left_children":[1,3,5,7,-1,9,11,-1,-1,13,15,-1,-1,17,19,21,-1,-1,-1,-1,-1,23,-1,-1,-1],"loss_changes":[1.9430742E0,2.8146849E0,1.5011778E0,1.3230121E0,0E0,1.4288328E0,2.24129E0,0E0,0E0,1.2888951E0,1.5706367E0,0E0,0E0,2.4464321E-1,9.198775E-1,4.831674E-1,0E0,0E0,0E0,0E0,0E0,6.6410196E-1,0E0,0E0,0E0],"parents":[2147483647,0,0,1,1,2,2,3,3,5,5,6,6,9,9,10,10,13,13,14,14,15,15,21,21],"right_children":[2,4,6,8,-1,10,12,-1,-1,14,16,-1,-1,18,20,22,-1,-1,-1,-1,-1,24,-1,-1,-1],"split_conditions":[9.18E2,2.71E2,1.88E2,1.487E3,4.7554325E-2,1E0,2.14E2,2.4754195E-2,-2.3795823E-2,5.2E1,1.3E1,4.95071E-2,-1.8242711E-2,3.6E1,8.53E2,1.3E0,2.4515722E-2,5.4566097E-3,4.041471E-2,1.5545341E-2,-2.2960624E-2,3.61E0,-2.7886778E-2,4.131694E-3,-2.359358E-2],"split_indices":[12,15,13,0,0,5,15,0,0,11,16,0,0,11,0,8,0,0,0,0,0,10,0,0,0],"split_type":[0,0,0,0,0,0,0,0,0,0,0,0,0,0,0,0,0,0,0,0,0,0,0,0,0],"sum_hessian":[3.7321236E1,7.7354727E0,2.958576E1,4.205918E0,3.5295548E0,2.6365368E1,3.2203932E0,1.2148347E0,2.9910831E0,7.0054398E0,1.9359928E1,1.7418896E0,1.4785035E0,2.4667137E0,4.538726E0,1.813622E1,1.2237076E0,1.086976E0,1.3797376E0,1.7237058E0,2.81502E0,7.1353946E0,1.1000826E1,4.000162E0,3.1352324E0],"tree_param":{"num_deleted":"0","num_feature":"17","num_nodes":"25","size_leaf_vector":"1"}},{"base_weights":[-4.5904923E-2,-2.9861549E-2,2.9238798E-2,3.6349568E-1,-1.08924E-1,-5.2473087E-2,6.23385E-1,-5.116274E-1,3.1846268E-3,-3.4752458E-1,1.5194892E-2,5.838191E-3,3.783587E-2,-3.1116566E-2,-1.459573E-4,1.5352476E-1,-3.238228E-1,-2.2939986E-2,-4.5476947E-3,-4.5515228E-2,3.9895035E-2,-4.9707258E-1,1.6949935E-2,7.8092194E-3,-2.3575028E-2,-3.0519413E-3,-2.9264683E-2],"categories":[],"categories_nodes":[],"categories_segments":[],"categories_sizes":[],"default_left":[0,0,0,0,0,0,0,0,0,0,0,0,0,0,0,0,0,0,0,0,0,0,0,0,0,0,0],"id":54,"left_children":[1,-1,3,5,7,9,11,13,15,17,-1,-1,-1,-1,-1,19,21,-1,-1,23,-1,25,-1,-1,-1,-1,-1],"loss_changes":[2.0856543E0,0E0,2.1125617E0,1.4768033E0,1.4701972E0,7.427019E-1,4.7224116E-1,3.9745712E-1,1.3495198E0,6.6222966E-2,0E0,0E0,0E0,0E0,0E0,2.446318E0,1.1616541E0,0E0,0E0,1.3884132E0,0E0,2.4362028E-1,0E0,0E0,0E0,0E0,0E0],"parents":[2147483647,0,0,2,2,3,3,4,4,5,5,6,6,7,7,8,8,9,9,15,15,16,16,19,19,21,21],"right_children":[2,-1,4,6,8,10,12,14,16,18,-1,-1,-1,-1,-1,20,22,-1,-1,24,-1,26,-1,-1,-1,-1,-1],"split_conditions":[6.85E2,-2.9861549E-2,7.3E1,2E0,1.73E2,1E0,9.18E2,1.19E1,1.1E1,1E0,1.5194892E-2,5.838191E-3,3.783587E-2,-3.1116566E-2,-1.459573E-4,1.07E1,2.468E3,-2.2939986E-2,-4.5476947E-3,1.06E1,3.9895035E-2,1.05E3,1.6949935E-2,7.8092194E-3,-2.3575028E-2,-3.0519413E-3,-2.9264683E-2],"split_indices":[12,0,11,1,15,5,12,16,16,8,0,0,0,0,0,16,12,0,0,16,0,12,0,0,0,0,0],"split_type":[0,0,0,0,0,0,0,0,0,0,0,0,0,0,0,0,0,0,0,0,0,0,0,0,0,0,0],"sum_hessian":[4.8921738E1,5.034679E0,4.388706E1,1.2358134E1,3.1528923E1,5.058996E0,7.299138E0,6.089884E0,2.543904E1,2.781184E0,2.2778125E0,1.911557E0,5.3875813E0,4.8180375E0,1.2718465E0,1.779047E1,7.6485696E0,1.3900964E0,1.3910875E0,1.4302091E1,3.488379E0,6.261889E0,1.386681E0,1.01361065E1,4.1659837E0,1.3384532E0,4.9234357E0],"tree_param":{"num_deleted":"0","num_feature":"17","num_nodes":"27","size_leaf_vector":"1"}},{"base_weights":[9.828372E-3,-4.9408937E-1,3.232839E-1,-5.8223957E-1,4.9552904E-3,-4.0066823E-1,4.6963194E-1,1.3314497E-3,-3.1719506E-2,1.3191153E-4,-2.627695E-2,2.4612875E-1,7.188743E-1,3.0457417E-2,7.969532E-2,3.8284495E-2,1.2141213E-2,5.3117985E-1,-1.7117734E-1,1.3432189E-4,3.7948813E-2,-2.1814773E-2,2.1622619E-2],"categories":[],"categories_nodes":[],"categories_segments":[],"categories_sizes":[],"default_left":[0,0,0,0,0,0,0,0,0,0,0,0,0,0,0,0,0,0,0,0,0,0,0],"id":55,"left_children":[1,3,5,7,-1,9,11,-1,-1,-1,-1,13,15,-1,17,-1,-1,19,21,-1,-1,-1,-1],"loss_changes":[7.4957647E0,1.0097113E0,3.285834E0,5.2481794E-1,0E0,2.7616298E-1,1.2035394E0,0E0,0E0,0E0,0E0,8.3271164E-1,6.3578606E-2,0E0,1.3539829E0,0E0,0E0,5.06824E-1,1.4568608E0,0E0,0E0,0E0,0E0],"parents":[2147483647,0,0,1,1,2,2,3,3,5,5,6,6,11,11,12,12,14,14,17,17,18,18],"right_children":[2,4,6,8,-1,10,12,-1,-1,-1,-1,14,16,-1,18,-1,-1,20,22,-1,-1,-1,-1],"split_conditions":[1.3E0,6.4E1,4.1385353E1,1.15E3,4.9552904E-3,8.9E1,5.3916496E1,1.3314497E-3,-3.1719506E-2,1.3191153E-4,-2.627695E-2,7.88E2,1.8445E2,3.0457417E-2,2.2E0,3.8284495E-2,1.2141213E-2,2.466E3,4.36E2,1.3432189E-4,3.7948813E-2,-2.1814773E-2,2.1622619E-2],"split_indices":[8,2,2,0,0,14,2,0,0,0,0,0,13,0,8,0,0,0,9,0,0,0,0],"split_type":[0,0,0,0,0,0,0,0,0,0,0,0,0,0,0,0,0,0,0,0,0,0,0],"sum_hessian":[4.5443577E1,1.7206223E1,2.8237352E1,1.4996219E1,2.210005E0,4.4561186E0,2.3781235E1,1.2217234E0,1.3774495E1,1.2849312E0,3.1711874E0,1.3585875E1,1.019536E1,3.4345427E0,1.0151332E1,8.728555E0,1.4668055E0,3.2268262E0,6.9245057E0,1.2766829E0,1.9501431E0,5.0039515E0,1.9205546E0],"tree_param":{"num_deleted":"0","num_feature":"17","num_nodes":"23","size_leaf_vector":"1"}},{"base_weights":[3.392074E-2,1.0766172E0,-3.7485933E-1,4.702998E-3,7.757182E-2,-2.33367E-2,1.097192E-2],"categories":[],"categories_nodes":[],"categories_segments":[],"categories_sizes":[],"default_left":[0,0,0,0,0,0,0],"id":56,"left_children":[1,3,5,-1,-1,-1,-1],"loss_changes":[5.960331E0,1.6874876E0,6.542721E-1,0E0,0E0,0E0,0E0],"parents":[2147483647,0,0,1,1,2,2],"right_children":[2,4,6,-1,-1,-1,-1],"split_conditions":[6.708E1,2.615E3,4.1E2,4.702998E-3,7.757182E-2,-2.33367E-2,1.097192E-2],"split_indices":[13,0,15,0,0,0,0],"split_type":[0,0,0,0,0,0,0],"sum_hessian":[1.2036868E1,2.9298403E0,9.107028E0,1.3448982E0,1.5849421E0,8.073554E0,1.0334734E0],"tree_param":{"num_deleted":"0","num_feature":"17","num_nodes":"7","size_leaf_vector":"1"}},{"base_weights":[-7.2973943E-3,-2.5678203E-2,1.0688031E-1,4.2900708E-2,2.3724772E-2,4.2245772E-1,-9.403287E-2,-1.8158833E-2,6.8812364E-1,-2.5063893E-2,3.2280315E-2,4.477596E-3,4.167087E-2,-1.5075985E-1,4.0402707E-2,2.7307863E-3,-1.9799618E-2],"categories":[],"categories_nodes":[],"categories_segments":[],"categories_sizes":[],"default_left":[0,0,0,0,0,0,0,0,0,0,0,0,0,0,0,0,0],"id":57,"left_children":[1,-1,3,-1,5,7,9,-1,11,-1,13,-1,-1,15,-1,-1,-1],"loss_changes":[2.1483414E0,0E0,1.8771561E0,0E0,1.3722593E0,1.6383957E0,1.1852758E0,0E0,3.8776565E-1,0E0,2.7184343E0,0E0,0E0,8.092392E-1,0E0,0E0,0E0],"parents":[2147483647,0,0,2,2,4,4,5,5,6,6,8,8,10,10,13,13],"right_children":[2,-1,4,-1,6,8,10,-1,12,-1,14,-1,-1,16,-1,-1,-1],"split_conditions":[7.85E2,-2.5678203E-2,8.9E2,4.2900708E-2,8.04E2,2.19E2,2.66E2,-1.8158833E-2,6.2E2,-2.5063893E-2,3.255E3,4.477596E-3,4.167087E-2,1.9E0,4.0402707E-2,2.7307863E-3,-1.9799618E-2],"split_indices":[0,0,0,0,12,9,9,0,12,0,0,0,0,8,0,0,0],"split_type":[0,0,0,0,0,0,0,0,0,0,0,0,0,0,0,0,0],"sum_hessian":[3.5216152E1,5.836967E0,2.9379185E1,1.9995261E0,2.7379658E1,5.6525016E0,2.1727158E1,1.3356472E0,4.3168545E0,4.4408684E0,1.728629E1,1.1588888E0,3.1579657E0,1.4638151E1,2.6481373E0,8.38948E0,6.248672E0],"tree_param":{"num_deleted":"0","num_feature":"17","num_nodes":"17","size_leaf_vector":"1"}},{"base_weights":[-3.0063707E-2,-4.341452E-1,5.451624E-2,1.8785334E-3,-3.0028278E-2,4.706408E-1,-5.515482E-2,8.292279E-4,6.2157494E-1,2.6658258E-1,-1.7807822E-1,1.2324364E-2,3.81869E-2,4.1410917E-1,-2.078756E-2,-2.9710585E-1,2.848138E-2,-1.1591494E-2,6.282439E-1,-5.644333E-2,-4.7091517E-1,1.2131411E-2,3.9154537E-2,5.9558908E-3,-2.5690172E-2,9.277253E-3,-2.9445404E-2],"categories":[],"categories_nodes":[],"categories_segments":[],"categories_sizes":[],"default_left":[0,0,0,0,0,0,0,0,0,0,0,0,0,0,0,0,0,0,0,0,0,0,0,0,0,0,0],"id":58,"left_children":[1,3,5,-1,-1,7,9,-1,11,13,15,-1,-1,17,-1,19,-1,-1,21,23,25,-1,-1,-1,-1,-1,-1],"loss_changes":[1.7812911E0,7.300936E-1,2.0072358E0,0E0,0E0,6.174669E-1,1.4417261E0,0E0,1.7688227E-1,1.1935012E0,2.492757E0,0E0,0E0,1.3688501E0,0E0,9.4300485E-1,0E0,0E0,2.2267723E-1,9.3292516E-1,1.1412346E0,0E0,0E0,0E0,0E0,0E0,0E0],"parents":[2147483647,0,0,1,1,2,2,5,5,6,6,8,8,9,9,10,10,13,13,15,15,18,18,19,19,20,20],"right_children":[2,4,6,-1,-1,8,10,-1,12,14,16,-1,-1,18,-1,20,-1,-1,22,24,26,-1,-1,-1,-1,-1,-1],"split_conditions":[9.44E2,6E-1,1.408E3,1.8785334E-3,-3.0028278E-2,1.009E3,1.01E1,8.292279E-4,1.4E0,1.01E2,3.93E0,1.2324364E-2,3.81869E-2,8E-1,-2.078756E-2,1.7E0,2.848138E-2,-1.1591494E-2,2.31E2,1.428E3,2.61E2,1.2131411E-2,3.9154537E-2,5.9558908E-3,-2.5690172E-2,9.277253E-3,-2.9445404E-2],"split_indices":[12,8,12,0,0,12,16,0,8,11,10,0,0,8,0,8,0,0,15,12,9,0,0,0,0,0,0],"split_type":[0,0,0,0,0,0,0,0,0,0,0,0,0,0,0,0,0,0,0,0,0,0,0,0,0,0,0],"sum_hessian":[5.042678E1,8.012764E0,4.2414017E1,2.2915742E0,5.72119E0,8.160244E0,3.4253773E1,2.3127282E0,5.8475156E0,9.146143E0,2.510763E1,2.3585289E0,3.4889867E0,7.8434243E0,1.3027186E0,2.2179508E1,2.9281223E0,1.9322232E0,5.911201E0,9.856539E0,1.23229685E1,2.4290411E0,3.4821599E0,7.656924E0,2.1996148E0,1.790258E0,1.0532711E1],"tree_param":{"num_deleted":"0","num_feature":"17","num_nodes":"27","size_leaf_vector":"1"}},{"base_weights":[-3.5395168E-3,-3.6805093E-1,2.0390525E-1,-4.585548E-1,1.9660184E-2,2.7420413E-1,-2.474253E-2,3.1349992E-3,-5.5025E-1,-2.5943446E-1,3.977741E-1,-3.0323772E-2,-4.837305E-4,1.903716E-2,-2.6759235E-2,6.3205343E-1,2.0174909E-1,7.400365E-1,-1.8825451E-3,5.2633834E-1,2.533873E-3,9.815233E-3,4.2577963E-2,1.1538648E-2,3.4140337E-2,1.6899467E-2,-1.4661863E-2],"categories":[],"categories_nodes":[],"categories_segments":[],"categories_sizes":[],"default_left":[0,0,0,0,0,0,0,0,0,0,0,0,0,0,0,0,0,0,0,0,0,0,0,0,0,0,0],"id":59,"left_children":[1,3,5,7,-1,9,-1,-1,11,13,15,-1,-1,-1,-1,17,19,21,-1,23,25,-1,-1,-1,-1,-1,-1],"loss_changes":[3.5832381E0,1.3641949E0,1.6197178E0,7.906132E-1,0E0,1.9557018E0,0E0,0E0,4.0612888E-1,1.2430617E0,9.381969E-1,0E0,0E0,0E0,0E0,7.584424E-1,9.1062343E-1,3.6331034E-1,0E0,9.025991E-2,1.0659175E0,0E0,0E0,0E0,0E0,0E0,0E0],"parents":[2147483647,0,0,1,1,2,2,3,3,5,5,8,8,9,9,10,10,15,15,16,16,17,17,19,19,20,20],"right_children":[2,4,6,8,-1,10,-1,-1,12,14,16,-1,-1,-1,-1,18,20,22,-1,24,26,-1,-1,-1,-1,-1,-1],"split_conditions":[1.3E0,5.876523E1,4.01E2,1.81E2,1.9660184E-2,4.0717316E1,-2.474253E-2,3.1349992E-3,1.919E3,3.3152634E1,2E0,-3.0323772E-2,-4.837305E-4,1.903716E-2,-2.6759235E-2,1E0,8.39E2,4.4569473E1,-1.8825451E-3,2.24E2,3E0,9.815233E-3,4.2577963E-2,1.1538648E-2,3.4140337E-2,1.6899467E-2,-1.4661863E-2],"split_indices":[8,2,15,15,0,2,0,0,12,2,1,0,0,0,0,3,0,2,0,15,8,0,0,0,0,0,0],"split_type":[0,0,0,0,0,0,0,0,0,0,0,0,0,0,0,0,0,0,0,0,0,0,0,0,0,0,0],"sum_hessian":[4.539482E1,1.6183603E1,2.9211218E1,1.4819392E1,1.3642114E0,2.709308E1,2.1181376E0,2.264234E0,1.2555159E1,4.8873787E0,2.2205702E1,1.1261898E1,1.2932605E0,1.3567693E0,3.5306094E0,9.102498E0,1.3103204E1,7.7481656E0,1.3543327E0,