{"learner":{"attributes":{},"feature_names":["Exposure","Area","VehPower","VehAge","DrivAge","BonusMalus","VehBrand","VehGas","Density","Region"],"feature_types":["float","int","int","int","int","int","int","int","int","int"],"gradient_booster":{"model":{"cats":{"enc":[],"feature_segments":[],"sorted_idx":[]},"gbtree_model_param":{"num_parallel_tree":"1","num_trees":"900"},"iteration_indptr":[0,3,6,9,12,15,18,21,24,27,30,33,36,39,42,45,48,51,54,57,60,63,66,69,72,75,78,81,84,87,90,93,96,99,102,105,108,111,114,117,120,123,126,129,132,135,138,141,144,147,150,153,156,159,162,165,168,171,174,177,180,183,186,189,192,195,198,201,204,207,210,213,216,219,222,225,228,231,234,237,240,243,246,249,252,255,258,261,264,267,270,273,276,279,282,285,288,291,294,297,300,303,306,309,312,315,318,321,324,327,330,333,336,339,342,345,348,351,354,357,360,363,366,369,372,375,378,381,384,387,390,393,396,399,402,405,408,411,414,417,420,423,426,429,432,435,438,441,444,447,450,453,456,459,462,465,468,471,474,477,480,483,486,489,492,495,498,501,504,507,510,513,516,519,522,525,528,531,534,537,540,543,546,549,552,555,558,561,564,567,570,573,576,579,582,585,588,591,594,597,600,603,606,609,612,615,618,621,624,627,630,633,636,639,642,645,648,651,654,657,660,663,666,669,672,675,678,681,684,687,690,693,696,699,702,705,708,711,714,717,720,723,726,729,732,735,738,741,744,747,750,753,756,759,762,765,768,771,774,777,780,783,786,789,792,795,798,801,804,807,810,813,816,819,822,825,828,831,834,837,840,843,846,849,852,855,858,861,864,867,870,873,876,879,882,885,888,891,894,897,900],"tree_info":[0,1,2,0,1,2,0,1,2,0,1,2,0,1,2,0,1,2,0,1,2,0,1,2,0,1,2,0,1,2,0,1,2,0,1,2,0,1,2,0,1,2,0,1,2,0,1,2,0,1,2,0,1,2,0,1,2,0,1,2,0,1,2,0,1,2,0,1,2,0,1,2,0,1,2,0,1,2,0,1,2,0,1,2,0,1,2,0,1,2,0,1,2,0,1,2,0,1,2,0,1,2,0,1,2,0,1,2,0,1,2,0,1,2,0,1,2,0,1,2,0,1,2,0,1,2,0,1,2,0,1,2,0,1,2,0,1,2,0,1,2,0,1,2,0,1,2,0,1,2,0,1,2,0,1,2,0,1,2,0,1,2,0,1,2,0,1,2,0,1,2,0,1,2,0,1,2,0,1,2,0,1,2,0,1,2,0,1,2,0,1,2,0,1,2,0,1,2,0,1,2,0,1,2,0,1,2,0,1,2,0,1,2,0,1,2,0,1,2,0,1,2,0,1,2,0,1,2,0,1,2,0,1,2,0,1,2,0,1,2,0,1,2,0,1,2,0,1,2,0,1,2,0,1,2,0,1,2,0,1,2,0,1,2,0,1,2,0,1,2,0,1,2,0,1,2,0,1,2,0,1,2,0,1,2,0,1,2,0,1,2,0,1,2,0,1,2,0,1,2,0,1,2,0,1,2,0,1,2,0,1,2,0,1,2,0,1,2,0,1,2,0,1,2,0,1,2,0,1,2,0,1,2,0,1,2,0,1,2,0,1,2,0,1,2,0,1,2,0,1,2,0,1,2,0,1,2,0,1,2,0,1,2,0,1,2,0,1,2,0,1,2,0,1,2,0,1,2,0,1,2,0,1,2,0,1,2,0,1,2,0,1,2,0,1,2,0,1,2,0,1,2,0,1,2,0,1,2,0,1,2,0,1,2,0,1,2,0,1,2,0,1,2,0,1,2,0,1,2,0,1,2,0,1,2,0,1,2,0,1,2,0,1,2,0,1,2,0,1,2,0,1,2,0,1,2,0,1,2,0,1,2,0,1,2,0,1,2,0,1,2,0,1,2,0,1,2,0,1,2,0,1,2,0,1,2,0,1,2,0,1,2,0,1,2,0,1,2,0,1,2,0,1,2,0,1,2,0,1,2,0,1,2,0,1,2,0,1,2,0,1,2,0,1,2,0,1,2,0,1,2,0,1,2,0,1,2,0,1,2,0,1,2,0,1,2,0,1,2,0,1,2,0,1,2,0,1,2,0,1,2,0,1,2,0,1,2,0,1,2,0,1,2,0,1,2,0,1,2,0,1,2,0,1,2,0,1,2,0,1,2,0,1,2,0,1,2,0,1,2,0,1,2,0,1,2,0,1,2,0,1,2,0,1,2,0,1,2,0,1,2,0,1,2,0,1,2,0,1,2,0,1,2,0,1,2,0,1,2,0,1,2,0,1,2,0,1,2,0,1,2,0,1,2,0,1,2,0,1,2,0,1,2,0,1,2,0,1,2,0,1,2,0,1,2,0,1,2,0,1,2,0,1,2,0,1,2,0,1,2,0,1,2,0,1,2,0,1,2,0,1,2,0,1,2,0,1,2,0,1,2,0,1,2,0,1,2,0,1,2,0,1,2,0,1,2,0,1,2,0,1,2,0,1,2,0,1,2,0,1,2,0,1,2,0,1,2,0,1,2,0,1,2,0,1,2,0,1,2,0,1,2,0,1,2,0,1,2,0,1,2,0,1,2,0,1,2,0,1,2,0,1,2,0,1,2,0,1,2,0,1,2,0,1,2,0,1,2,0,1,2,0,1,2,0,1,2,0,1,2,0,1,2,0,1,2,0,1,2,0,1,2,0,1,2,0,1,2,0,1,2,0,1,2,0,1,2,0,1,2,0,1,2,0,1,2,0,1,2,0,1,2,0,1,2,0,1,2,0,1,2,0,1,2,0,1,2,0,1,2,0,1,2,0,1,2,0,1,2,0,1,2,0,1,2,0,1,2,0,1,2,0,1,2,0,1,2,0,1,2],"trees":[{"base_weights":[3.6627038E-3,2.637669E-2,-5.283193E-1,7.048511E-2,-7.4672E-2,-3.4319252E-1,-1.0123024E0,1.4668304E-1,2.7069816E-2,8.248298E-3,-4.3178993E-1,-5.454878E-1,-1.9614425E-1,-1.5038571E0,-7.999424E-1,1.9985612E-1,1.1686818E-1,-1.3438686E-2,7.769695E-2,4.588391E-2,-1.3306123E-1,-5.373786E-1,-5.908095E-2,-4.6559222E-2,-5.893055E-1,-3.1677014E-1,-2.5689257E-2,-1.1195378E0,-2.0364296E0,-1.3375578E0,-5.901678E-1,2.361022E-1,1.1672E-1,2.0013797E-1,9.124404E-2,6.551158E-2,-4.8784785E-2,1.2756643E-1,2.7621856E-2,6.4839154E-2,-1.241894E-1,-3.7150252E-1,-5.908122E-2,-8.25166E-1,-4.1580415E-1,1.339857E-1,-1.7201427E-1,8.149102E-2,-4.3615368E-1,-8.743639E-1,-5.141176E-1,5.05236E-2,-4.425942E-1,1.4251018E-1,-1.1361346E-1,-1.5013953E0,-7.093474E-1,-1.447779E0,-2.7985523E0,-7.1241987E-1,-1.8232168E0,-3.787809E-2,-9.3710357E-1,-1.5327647E-2,1.1999655E-2,1.965403E-3,9.998534E-3,1.9995613E-2,8.78704E-3,1.2213502E-3,6.673448E-3,3.5746226E-3,-3.1280696E-2,-1.3231243E-3,-7.873985E-3,7.0563206E-3,-2.3736989E-3,1.728155E-3,-1.9238831E-2,8.989296E-3,1.9673815E-3,-1.7070677E-3,-1.2896068E-2,-1.1365506E-2,-4.198344E-2,2.4627768E-3,-8.119313E-3,-2.3530433E-2,-7.182723E-2,-1.4519653E-2,-2.8449565E-2,9.026169E-3,-2.908414E-2,-7.2333054E-3,-3.6070257E-2,2.195248E-2,-7.5349645E-3,-5.722627E-2,1.7525306E-2,-5.7569135E-2,-1.4551214E-2,-1.8526927E-2,-3.1501256E-2,2.2533057E-2,-1.3059287E-2,-7.8103766E-3,-3.273815E-2,2.018874E-3,2.001243E-2,-1.8192729E-2,-1.02171434E-4,-8.22142E-2,-2.8789055E-3,-1.6479997E-2,-6.105138E-2,-2.4402058E-2,-1.1621976E-1,-1.6701362E-1,-4.271097E-2,-5.463549E-2,6.9023296E-3,-1.07314065E-1,-2.5164325E-2,1.614136E-2,-1.5059481E-2,-1.718713E-2,-5.3833038E-2],"categories":[],"categories_nodes":[],"categories_segments":[],"categories_sizes":[],"default_left":[0,0,0,0,0,0,0,0,0,0,0,0,0,0,0,0,0,0,0,0,0,0,0,0,0,0,0,0,0,0,0,0,0,0,0,0,0,0,0,0,0,0,0,0,0,0,0,0,0,0,0,0,0,0,0,0,0,0,0,0,0,0,0,0,0,0,0,0,0,0,0,0,0,0,0,0,0,0,0,0,0,0,0,0,0,0,0,0,0,0,0,0,0,0,0,0,0,0,0,0,0,0,0,0,0,0,0,0,0,0,0,0,0,0,0,0,0,0,0,0,0,0,0,0,0,0,0],"id":0,"left_children":[1,3,5,7,9,11,13,15,17,19,21,23,25,27,29,31,33,35,37,39,41,43,45,47,49,51,53,55,57,59,61,63,65,67,69,71,73,75,77,79,81,83,85,87,89,91,93,95,97,99,101,103,105,107,109,111,113,115,117,119,121,123,125,-1,-1,-1,-1,-1,-1,-1,-1,-1,-1,-1,-1,-1,-1,-1,-1,-1,-1,-1,-1,-1,-1,-1,-1,-1,-1,-1,-1,-1,-1,-1,-1,-1,-1,-1,-1,-1,-1,-1,-1,-1,-1,-1,-1,-1,-1,-1,-1,-1,-1,-1,-1,-1,-1,-1,-1,-1,-1,-1,-1,-1,-1,-1,-1],"loss_changes":[2.0748322E2,7.340301E1,6.265114E1,3.7921265E1,1.481968E2,1.5066998E1,1.9050537E1,6.573044E0,1.4980942E1,2.1611015E1,3.7080917E1,4.6543465E0,6.0974436E0,9.468201E0,1.4731895E1,4.47274E0,5.675354E0,1.1328784E1,8.104475E0,1.0352322E1,1.505409E1,2.5363678E1,4.586786E0,9.5223093E-1,3.7680054E0,8.054472E0,1.8521389E0,4.504936E0,6.1937637E0,1.0189148E1,1.9276367E1,2.2674103E0,2.9270725E0,2.986023E0,5.758856E0,5.234444E0,6.7991986E0,3.867199E0,4.6544843E0,8.454172E0,3.8700943E0,1.3458162E1,7.3214183E0,4.640422E1,9.796783E0,2.6965463E0,1.8864233E0,1.2842718E0,3.0218315E0,6.0710506E0,2.3982162E0,5.760919E0,7.769867E0,1.1173539E0,2.2909808E0,3.5199013E0,3.2971325E0,1.1449249E1,6.500351E0,6.032358E0,7.727028E0,3.8894804E0,4.752411E0,0E0,0E0,0E0,0E0,0E0,0E0,0E0,0E0,0E0,0E0,0E0,0E0,0E0,0E0,0E0,0E0,0E0,0E0,0E0,0E0,0E0,0E0,0E0,0E0,0E0,0E0,0E0,0E0,0E0,0E0,0E0,0E0,0E0,0E0,0E0,0E0,0E0,0E0,0E0,0E0,0E0,0E0,0E0,0E0,0E0,0E0,0E0,0E0,0E0,0E0,0E0,0E0,0E0,0E0,0E0,0E0,0E0,0E0,0E0,0E0,0E0,0E0,0E0,0E0],"parents":[2147483647,0,0,1,1,2,2,3,3,4,4,5,5,6,6,7,7,8,8,9,9,10,10,11,11,12,12,13,13,14,14,15,15,16,16,17,17,18,18,19,19,20,20,21,21,22,22,23,23,24,24,25,25,26,26,27,27,28,28,29,29,30,30,31,31,32,32,33,33,34,34,35,35,36,36,37,37,38,38,39,39,40,40,41,41,42,42,43,43,44,44,45,45,46,46,47,47,48,48,49,49,50,50,51,51,52,52,53,53,54,54,55,55,56,56,57,57,58,58,59,59,60,60,61,61,62,62],"right_children":[2,4,6,8,10,12,14,16,18,20,22,24,26,28,30,32,34,36,38,40,42,44,46,48,50,52,54,56,58,60,62,64,66,68,70,72,74,76,78,80,82,84,86,88,90,92,94,96,98,100,102,104,106,108,110,112,114,116,118,120,122,124,126,-1,-1,-1,-1,-1,-1,-1,-1,-1,-1,-1,-1,-1,-1,-1,-1,-1,-1,-1,-1,-1,-1,-1,-1,-1,-1,-1,-1,-1,-1,-1,-1,-1,-1,-1,-1,-1,-1,-1,-1,-1,-1,-1,-1,-1,-1,-1,-1,-1,-1,-1,-1,-1,-1,-1,-1,-1,-1,-1,-1,-1,-1,-1,-1],"split_conditions":[9.6E1,5.8E1,1.01E2,4.5E1,4.7E1,2.6E1,2.5E1,1.4E2,7E0,3.8E1,1.8E1,4.3E1,5E0,8.54E2,3E0,4.1E1,1E0,5E0,1E0,9.2E1,6.3E1,6.3E1,3.17E2,7E0,2E1,5E0,3.88E2,7E0,1.2E2,3.3E1,4E0,7E0,1E1,4E0,4E0,8.6E1,6.9E1,5.1E1,8.2E1,5E0,1.262E3,6.2E1,7.3E1,6.2E1,6E0,7.4E1,1.1E1,6E0,2.1E1,1.5E1,6E0,1.323E3,1E0,2.03E2,1.228E3,8E0,1.6E1,8E0,1.7E1,1.5E1,3.744E3,3.2E1,5E0,-1.5327647E-2,1.1999655E-2,1.965403E-3,9.998534E-3,1.9995613E-2,8.78704E-3,1.2213502E-3,6.673448E-3,3.5746226E-3,-3.1280696E-2,-1.3231243E-3,-7.873985E-3,7.0563206E-3,-2.3736989E-3,1.728155E-3,-1.9238831E-2,8.989296E-3,1.9673815E-3,-1.7070677E-3,-1.2896068E-2,-1.1365506E-2,-4.198344E-2,2.4627768E-3,-8.119313E-3,-2.3530433E-2,-7.182723E-2,-1.4519653E-2,-2.8449565E-2,9.026169E-3,-2.908414E-2,-7.2333054E-3,-3.6070257E-2,2.195248E-2,-7.5349645E-3,-5.722627E-2,1.7525306E-2,-5.7569135E-2,-1.4551214E-2,-1.8526927E-2,-3.1501256E-2,2.2533057E-2,-1.3059287E-2,-7.8103766E-3,-3.273815E-2,2.018874E-3,2.001243E-2,-1.8192729E-2,-1.02171434E-4,-8.22142E-2,-2.8789055E-3,-1.6479997E-2,-6.105138E-2,-2.4402058E-2,-1.1621976E-1,-1.6701362E-1,-4.271097E-2,-5.463549E-2,6.9023296E-3,-1.07314065E-1,-2.5164325E-2,1.614136E-2,-1.5059481E-2,-1.718713E-2,-5.3833038E-2],"split_indices":[5,5,5,4,4,4,4,8,2,4,9,8,6,8,6,4,6,2,7,5,5,5,8,6,4,2,8,9,5,4,6,8,9,9,6,4,4,5,4,2,8,5,5,5,6,4,2,2,4,9,6,8,7,8,8,6,9,9,9,9,8,4,2,0,0,0,0,0,0,0,0,0,0,0,0,0,0,0,0,0,0,0,0,0,0,0,0,0,0,0,0,0,0,0,0,0,0,0,0,0,0,0,0,0,0,0,0,0,0,0,0,0,0,0,0,0,0,0,0,0,0,0,0,0,0,0,0],"split_type":[0,0,0,0,0,0,0,0,0,0,0,0,0,0,0,0,0,0,0,0,0,0,0,0,0,0,0,0,0,0,0,0,0,0,0,0,0,0,0,0,0,0,0,0,0,0,0,0,0,0,0,0,0,0,0,0,0,0,0,0,0,0,0,0,0,0,0,0,0,0,0,0,0,0,0,0,0,0,0,0,0,0,0,0,0,0,0,0,0,0,0,0,0,0,0,0,0,0,0,0,0,0,0,0,0,0,0,0,0,0,0,0,0,0,0,0,0,0,0,0,0,0,0,0,0,0,0],"sum_hessian":[1.7168732E4,1.646661E4,7.0212286E2,1.1463165E4,5.0034443E3,5.0909845E2,1.9302446E2,4.1598525E3,7.3033125E3,4.061394E3,9.420505E2,2.1315292E2,2.9594553E2,5.63977E1,1.3662675E2,1.4924503E3,2.6674023E3,4.0575012E3,3.245811E3,3.207738E3,8.536561E2,7.337398E2,2.083107E2,1.737505E1,1.9577788E2,1.7280104E2,1.2314448E2,3.4560207E1,2.1837494E1,3.68389E1,9.978785E1,1.0380405E3,4.5440976E2,6.260715E2,2.0413309E3,1.2545165E3,2.8029846E3,1.6254691E3,1.620342E3,2.8866318E3,3.211061E2,2.0118977E2,6.524663E2,2.161912E2,5.175486E2,7.681101E1,1.314997E2,1.367217E1,3.7028794E0,3.8642868E1,1.5713501E2,4.424466E1,1.2855638E2,4.2060913E1,8.1083565E1,1.6520538E1,1.8039669E1,1.3957006E1,7.880487E0,1.7185158E1,1.9653744E1,3.8927708E1,6.0860146E1,6.836085E0,1.0312045E3,2.3622472E2,2.1818504E2,6.646194E1,5.596095E2,7.910869E2,1.250244E3,1.2446422E3,9.874345E0,2.3264526E3,4.7653207E2,1.5087809E3,1.1668817E2,1.5944219E3,2.5920155E1,5.2286554E2,2.3637664E3,1.9264467E2,1.2846143E2,1.5495126E2,4.6238518E1,3.1873245E2,3.3373386E2,1.37956E2,7.823519E1,2.861661E2,2.3138249E2,7.2823296E1,3.9877162E0,1.26467575E2,5.0321183E0,5.0321183E0,8.640052E0,1.7090212E0,1.9938581E0,2.5540373E1,1.3102496E1,7.206373E1,8.507128E1,1.9179016E1,2.5065645E1,5.5448246E1,7.310813E1,3.0952274E1,1.1108638E1,2.430608E1,5.6777485E1,1.4906463E1,1.6140757E0,1.129853E1,6.7411394E0,7.405759E0,6.551248E0,5.601792E0,2.278695E0,1.1678311E1,5.5068464E0,1.5286245E1,4.367499E0,1.6330647E1,2.259706E1,1.2247986E1,4.861216E1],"tree_param":{"num_deleted":"0","num_feature":"10","num_nodes":"127","size_leaf_vector":"1"}},{"base_weights":[4.3375377E-4,-1.4291632E-1,1.7433602E-1,-2.8640237E-1,-7.860693E-2,1.5343998E-1,2.4659028E0,-2.1520117E-1,-4.005416E-1,-1.0188149E-1,2.9672226E-1,5.0710853E-2,4.7821885E-1,1.3123621E0,3.3120902E0,-3.1296012E-1,-1.1205253E-1,-4.0573025E-1,1.5983804E-1,-1.4415222E-1,-2.5782503E-2,5.8811533E-1,1.6323169E-1,-8.1064925E-2,9.016767E-2,2.4927758E-1,8.810137E-1,2.165596E-1,1.6661534E0,3.4711316E0,1.5447545E0,-1.2115728E-1,-3.4533784E-1,-1.7015813E-2,-2.3566958E-1,-4.0737304E-1,2.3827942E-2,7.520399E-1,-1.9589345E-1,-1.8837652E-1,-9.8145835E-2,-9.483959E-2,4.5243494E-2,2.2373147E-1,1.0440016E0,-3.3900043E-1,2.1340616E-1,-1.6221146E-1,1.2459472E-2,7.4641526E-2,3.5068247E-1,1.9971596E-1,9.786408E-1,4.9223992E-1,1.3318822E0,-3.0466264E-1,6.900304E-2,1.0466582E0,2.4623318E0,1.7829962E-1,5.439849E-2,7.841623E-3,9.745746E-2,3.2493934E-2,-7.1380534E-3,-1.5823515E-2,-2.1431087E-2,-4.1602943E-3,4.4539385E-3,7.1930577E-4,-1.24911545E-2,-1.5129067E-2,-2.0872705E-2,6.3524656E-2,9.021855E-4,-1.4233761E-2,6.4493283E-3,-1.1834728E-2,-5.9855445E-3,8.992243E-3,-5.5836625E-3,-8.320197E-3,-1.1275354E-3,-9.752158E-4,7.8913225E-3,2.3683079E-2,8.0886064E-4,3.47861E-2,8.1729345E-2,-2.2478811E-2,7.1257423E-3,-1.2575187E-3,1.4327683E-2,-9.013677E-3,-1.2228268E-3,-8.433421E-4,9.769336E-3,3.5251144E-3,3.4185994E-2,9.744206E-3,4.4725645E-2,-3.6415271E-4,1.2497052E-2,5.224228E-2,7.480435E-3,3.535117E-2,2.0267332E-2,8.973889E-2,5.4513525E-2,9.3575E-3,-2.1736179E-2,6.932411E-2,5.445459E-4,1.4580059E-2,1.5156643E-1],"categories":[],"categories_nodes":[],"categories_segments":[],"categories_sizes":[],"default_left":[0,0,0,0,0,0,0,0,0,0,0,0,0,0,0,0,0,0,0,0,0,0,0,0,0,0,0,0,0,0,0,0,0,0,0,0,0,0,0,0,0,0,0,0,0,0,0,0,0,0,0,0,0,0,0,0,0,0,0,0,0,0,0,0,0,0,0,0,0,0,0,0,0,0,0,0,0,0,0,0,0,0,0,0,0,0,0,0,0,0,0,0,0,0,0,0,0,0,0,0,0,0,0,0,0,0,0,0,0,0,0,0,0,0,0],"id":1,"left_children":[1,3,5,7,9,11,13,15,17,19,21,23,25,27,29,31,33,35,37,39,41,43,45,47,49,51,53,55,57,59,61,63,65,67,69,71,-1,73,75,77,79,81,83,85,87,89,91,93,95,97,99,101,103,105,107,109,-1,111,113,-1,-1,-1,-1,-1,-1,-1,-1,-1,-1,-1,-1,-1,-1,-1,-1,-1,-1,-1,-1,-1,-1,-1,-1,-1,-1,-1,-1,-1,-1,-1,-1,-1,-1,-1,-1,-1,-1,-1,-1,-1,-1,-1,-1,-1,-1,-1,-1,-1,-1,-1,-1,-1,-1,-1,-1],"loss_changes":[4.2793744E2,8.680585E1,3.7104254E2,2.3577454E1,5.6802612E1,2.5646527E2,6.40047E1,1.8068626E1,3.31398E0,1.9683567E1,1.467485E1,3.0379246E1,1.7012073E2,1.1768723E1,5.807251E0,5.6789093E0,1.0277361E1,1.7993164E0,2.4581232E0,7.986496E0,1.0730193E1,1.952116E1,6.6697707E0,1.0221181E1,1.8158504E1,4.2429237E1,1.1661493E2,5.7482886E0,9.014473E0,4.180664E0,2.5470028E0,2.3346145E0,1.757927E0,3.489452E0,1.3495388E0,1.042038E0,0E0,1.6221731E0,2.5725794E-1,6.623764E0,7.279524E0,5.733905E0,7.8663125E0,3.4868703E0,9.672653E0,1.3507793E0,4.171503E0,1.7896748E0,3.364151E0,1.0652004E1,2.1228024E1,1.1494015E1,3.9475784E0,6.4477997E0,3.2623047E1,5.2185863E-1,0E0,5.2493496E0,1.09053955E1,0E0,0E0,0E0,0E0,0E0,0E0,0E0,0E0,0E0,0E0,0E0,0E0,0E0,0E0,0E0,0E0,0E0,0E0,0E0,0E0,0E0,0E0,0E0,0E0,0E0,0E0,0E0,0E0,0E0,0E0,0E0,0E0,0E0,0E0,0E0,0E0,0E0,0E0,0E0,0E0,0E0,0E0,0E0,0E0,0E0,0E0,0E0,0E0,0E0,0E0,0E0,0E0,0E0,0E0,0E0,0E0],"parents":[2147483647,0,0,1,1,2,2,3,3,4,4,5,5,6,6,7,7,8,8,9,9,10,10,11,11,12,12,13,13,14,14,15,15,16,16,17,17,18,18,19,19,20,20,21,21,22,22,23,23,24,24,25,25,26,26,27,27,28,28,29,29,30,30,31,31,32,32,33,33,34,34,35,35,37,37,38,38,39,39,40,40,41,41,42,42,43,43,44,44,45,45,46,46,47,47,48,48,49,49,50,50,51,51,52,52,53,53,54,54,55,55,57,57,58,58],"right_children":[2,4,6,8,10,12,14,16,18,20,22,24,26,28,30,32,34,36,38,40,42,44,46,48,50,52,54,56,58,60,62,64,66,68,70,72,-1,74,76,78,80,82,84,86,88,90,92,94,96,98,100,102,104,106,108,110,-1,112,114,-1,-1,-1,-1,-1,-1,-1,-1,-1,-1,-1,-1,-1,-1,-1,-1,-1,-1,-1,-1,-1,-1,-1,-1,-1,-1,-1,-1,-1,-1,-1,-1,-1,-1,-1,-1,-1,-1,-1,-1,-1,-1,-1,-1,-1,-1,-1,-1,-1,-1,-1,-1,-1,-1,-1,-1],"split_conditions":[5.5E-1,9E-2,1.01E2,8E-2,9.6E1,5.8E1,8.3E-1,1E0,1.6533E4,5.8E1,2.4E1,4.1E1,3.9E1,1.37E2,1.8E1,3E0,7E0,2.1E1,6E0,1E0,3E-1,3E-1,4.9E1,2.83E2,5.2E1,9.7E1,9.9E-1,7.5E-1,1.4E1,6.8E1,4.14E2,2.7E1,8E0,5E-2,2.4E1,3E0,2.3827942E-2,5.2E1,5.7E1,3.4E-1,1.1E-1,1E0,3.8E1,2.1E1,1.054E3,8E0,5E0,5.5E1,5.5E1,8.6E1,6.1E1,5E0,3.6E1,6.4E1,6.3E1,2.6E1,6.900304E-2,7.4E-1,1.07E2,1.7829962E-1,5.439849E-2,7.841623E-3,9.745746E-2,3.2493934E-2,-7.1380534E-3,-1.5823515E-2,-2.1431087E-2,-4.1602943E-3,4.4539385E-3,7.1930577E-4,-1.24911545E-2,-1.5129067E-2,-2.0872705E-2,6.3524656E-2,9.021855E-4,-1.4233761E-2,6.4493283E-3,-1.1834728E-2,-5.9855445E-3,8.992243E-3,-5.5836625E-3,-8.320197E-3,-1.1275354E-3,-9.752158E-4,7.8913225E-3,2.3683079E-2,8.0886064E-4,3.47861E-2,8.1729345E-2,-2.2478811E-2,7.1257423E-3,-1.2575187E-3,1.4327683E-2,-9.013677E-3,-1.2228268E-3,-8.433421E-4,9.769336E-3,3.5251144E-3,3.4185994E-2,9.744206E-3,4.4725645E-2,-3.6415271E-4,1.2497052E-2,5.224228E-2,7.480435E-3,3.535117E-2,2.0267332E-2,8.973889E-2,5.4513525E-2,9.3575E-3,-2.1736179E-2,6.932411E-2,5.445459E-4,1.4580059E-2,1.5156643E-1],"split_indices":[0,0,5,0,5,5,0,7,8,5,4,4,4,8,9,9,2,9,2,7,0,0,8,8,5,5,0,0,9,4,8,8,2,0,4,9,0,5,4,0,0,7,4,4,8,2,2,5,5,4,4,2,4,5,5,8,0,0,5,0,0,0,0,0,0,0,0,0,0,0,0,0,0,0,0,0,0,0,0,0,0,0,0,0,0,0,0,0,0,0,0,0,0,0,0,0,0,0,0,0,0,0,0,0,0,0,0,0,0,0,0,0,0,0,0],"split_type":[0,0,0,0,0,0,0,0,0,0,0,0,0,0,0,0,0,0,0,0,0,0,0,0,0,0,0,0,0,0,0,0,0,0,0,0,0,0,0,0,0,0,0,0,0,0,0,0,0,0,0,0,0,0,0,0,0,0,0,0,0,0,0,0,0,0,0,0,0,0,0,0,0,0,0,0,0,0,0,0,0,0,0,0,0,0,0,0,0,0,0,0,0,0,0,0,0,0,0,0,0,0,0,0,0,0,0,0,0,0,0,0,0,0,0],"sum_hessian":[1.7164316E4,9.408739E3,7.755578E3,2.9107866E3,6.4979526E3,7.6865537E3,6.902413E1,1.7943425E3,1.116444E3,6.1192217E3,3.7873074E2,5.840372E3,1.8461819E3,3.0287067E1,3.8737064E1,9.201951E2,8.741474E2,1.1064749E3,9.969097E0,3.933426E3,2.185796E3,1.1792018E2,2.6081058E2,1.3455433E3,4.4948286E3,1.1781575E3,6.680245E2,7.7853904E0,2.2501677E1,3.465448E1,4.082583E0,1.335859E2,7.8660925E2,4.9484702E2,3.793004E2,1.1049558E3,1.5191005E0,3.3230324E0,6.6460648E0,2.0039784E3,1.9294476E3,1.1080889E3,1.0777069E3,6.636571E1,5.1554474E1,2.3166283E1,2.3764429E2,7.2005365E2,6.254896E2,4.2432275E3,2.5160103E2,1.1043861E3,7.377132E1,3.5983694E2,3.0818753E2,5.8865147E0,1.8988757E0,1.3956737E1,8.544941E0,3.2850548E1,1.803932E0,1.2342691E0,2.8483136E0,2.8483136E0,1.307376E2,5.87702E2,1.9890723E2,3.048645E2,1.8998251E2,2.031797E1,3.5898245E2,9.969097E1,1.0052648E3,1.5191005E0,1.803932E0,5.316852E0,1.329213E0,1.1748344E3,8.2914404E2,8.8962326E1,1.8404852E3,5.5618066E2,5.519082E2,6.8473456E2,3.9297232E2,2.9527517E1,3.683819E1,3.3799988E1,1.7754488E1,1.8893812E1,4.2724705E0,5.592189E1,1.817224E2,6.3631323E2,8.374042E1,5.3985034E2,8.563929E1,4.215694E3,2.7533697E1,1.9662857E2,5.497245E1,2.1580722E2,8.8857886E2,6.807469E1,5.696627E0,1.0158985E2,2.582471E2,1.0348872E2,2.0469879E2,1.1393254E0,4.747189E0,1.0253929E1,3.7028077E0,2.0887632E0,6.456177E0],"tree_param":{"num_deleted":"0","num_feature":"10","num_nodes":"115","size_leaf_vector":"1"}},{"base_weights":[0E0],"categories":[],"categories_nodes":[],"categories_segments":[],"categories_sizes":[],"default_left":[0],"id":2,"left_children":[-1],"loss_changes":[0E0],"parents":[2147483647],"right_children":[-1],"split_conditions":[0E0],"split_indices":[0],"split_type":[0],"sum_hessian":[3.6147264E-1],"tree_param":{"num_deleted":"0","num_feature":"10","num_nodes":"1","size_leaf_vector":"1"}},{"base_weights":[1.675593E-3,1.753081E-1,-1.2458279E-1,-3.049496E-1,2.5067952E-1,-2.2245215E-2,-3.8342118E-1,9.7671345E-2,-7.876546E-1,3.702882E-1,1.7672542E-1,-4.187011E-1,-2.3698232E-3,-3.3208406E-1,-1.6260675E0,3.5434082E-1,4.9411595E-2,-9.691659E-1,1.8185751E-1,3.234568E-1,4.3187848E-1,-4.0033484E-1,1.9298458E-1,-1.0628633E-1,-7.894842E-1,-3.7894253E-2,1.3289222E-1,-2.0481253E-1,-6.493656E-1,-9.1498196E-1,-2.5808086E0,4.1443074E-1,-1.8495503E-1,-6.489309E-2,2.1237628E-1,2.3124549E-1,-1.1186056E0,9.393462E-2,2.461263E-2,3.427224E-1,1.682815E-1,7.784972E-2,4.349614E-1,-4.4254363E-1,2.1680122E-2,2.2433706E-1,5.7139322E-2,-6.763965E-2,-1.0250813E0,-1.1256022E0,1.7286587E-1,7.667339E-2,-1.0845614E-1,3.30715E-1,6.741017E-2,-8.803384E-1,-1.5898933E-1,-2.8132817E-1,-1.1494136E0,-4.121393E-1,-1.140399E0,-1.05646765E-2,-2.6307633E0,2.3722222E-2,-4.5264685E-3,-2.0206781E-2,1.7985856E-2,-9.5380945E-3,9.882793E-3,1.7780494E-2,6.0482085E-4,1.664365E-2,-3.4666218E-2,-7.06062E-2,-2.9010532E-2,1.7129071E-2,-1.6227218E-3,1.7210027E-2,-3.2010276E-2,2.0704953E-2,5.1789447E-3,1.5197821E-2,-1.5392423E-2,2.1954946E-2,1.1145867E-2,-2.4692891E-2,1.5588093E-2,1.3389088E-2,8.194714E-3,7.5885304E-3,-1.9541648E-3,-5.820855E-3,1.7169146E-2,1.5808418E-2,-7.097616E-2,-8.061175E-2,-2.1399736E-2,1.3591652E-2,-1.1662344E-2,6.249242E-3,-6.7321205E-4,-7.5550785E-4,-7.7191754E-3,1.7680362E-2,7.5445683E-3,4.798528E-3,-3.2811065E-3,-1.2232768E-2,-7.762786E-2,-5.2199434E-3,-2.1082258E-2,-2.169266E-2,-1.6070007E-3,-7.9880945E-2,-4.4143423E-2,-7.531298E-2,-8.947418E-3,-2.774039E-2,-7.923658E-2,-1.34601E-1,-3.641186E-2],"categories":[],"categories_nodes":[],"categories_segments":[],"categories_sizes":[],"default_left":[0,0,0,0,0,0,0,0,0,0,0,0,0,0,0,0,0,0,0,0,0,0,0,0,0,0,0,0,0,0,0,0,0,0,0,0,0,0,0,0,0,0,0,0,0,0,0,0,0,0,0,0,0,0,0,0,0,0,0,0,0,0,0,0,0,0,0,0,0,0,0,0,0,0,0,0,0,0,0,0,0,0,0,0,0,0,0,0,0,0,0,0,0,0,0,0,0,0,0,0,0,0,0,0,0,0,0,0,0,0,0,0,0,0,0,0,0,0,0,0,0],"id":3,"left_children":[1,3,5,7,9,11,13,15,17,19,21,23,25,27,29,31,33,35,37,39,41,43,45,47,49,51,53,55,57,59,61,63,65,67,69,71,73,75,-1,77,79,81,83,85,-1,87,89,91,93,95,97,99,101,103,105,107,109,111,113,115,117,-1,119,-1,-1,-1,-1,-1,-1,-1,-1,-1,-1,-1,-1,-1,-1,-1,-1,-1,-1,-1,-1,-1,-1,-1,-1,-1,-1,-1,-1,-1,-1,-1,-1,-1,-1,-1,-1,-1,-1,-1,-1,-1,-1,-1,-1,-1,-1,-1,-1,-1,-1,-1,-1,-1,-1,-1,-1,-1,-1],"loss_changes":[3.76536E2,2.6183026E2,2.6341052E2,1.9080368E2,5.5226837E1,5.616436E1,1.7921017E2,6.6213408E0,7.8734314E1,6.7462463E0,3.633619E1,3.9332653E1,3.2624825E1,1.0918375E2,7.335715E1,2.8202305E0,8.439044E0,6.7739685E1,1.897929E0,4.0085144E0,1.0883484E0,3.9310417E0,1.5998322E1,6.5290933E0,5.047547E1,4.347891E1,1.8272125E1,5.9713234E1,1.422255E2,6.9511185E0,5.0145264E0,2.360735E0,1.2411792E0,8.8481E0,5.3513823E0,4.221716E0,5.207242E1,1.79455E0,0E0,1.9769135E0,2.3775568E0,9.738889E-1,7.962036E-1,4.0867443E0,0E0,7.975708E0,6.437029E0,3.6366446E0,4.3797145E0,3.846556E1,1.715492E0,8.929355E0,1.4265923E1,1.3914185E0,4.0424953E0,5.2012886E1,2.5936806E1,1.6994495E1,3.778253E1,5.300432E0,1.0736023E1,0E0,3.4005737E0,0E0,0E0,0E0,0E0,0E0,0E0,0E0,0E0,0E0,0E0,0E0,0E0,0E0,0E0,0E0,0E0,0E0,0E0,0E0,0E0,0E0,0E0,0E0,0E0,0E0,0E0,0E0,0E0,0E0,0E0,0E0,0E0,0E0,0E0,0E0,0E0,0E0,0E0,0E0,0E0,0E0,0E0,0E0,0E0,0E0,0E0,0E0,0E0,0E0,0E0,0E0,0E0,0E0,0E0,0E0,0E0,0E0,0E0],"parents":[2147483647,0,0,1,1,2,2,3,3,4,4,5,5,6,6,7,7,8,8,9,9,10,10,11,11,12,12,13,13,14,14,15,15,16,16,17,17,18,18,19,19,20,20,21,21,22,22,23,23,24,24,25,25,26,26,27,27,28,28,29,29,30,30,31,31,32,32,33,33,34,34,35,35,36,36,37,37,39,39,40,40,41,41,42,42,43,43,45,45,46,46,47,47,48,48,49,49,50,50,51,51,52,52,53,53,54,54,55,55,56,56,57,57,58,58,59,59,60,60,62,62],"right_children":[2,4,6,8,10,12,14,16,18,20,22,24,26,28,30,32,34,36,38,40,42,44,46,48,50,52,54,56,58,60,62,64,66,68,70,72,74,76,-1,78,80,82,84,86,-1,88,90,92,94,96,98,100,102,104,106,108,110,112,114,116,118,-1,120,-1,-1,-1,-1,-1,-1,-1,-1,-1,-1,-1,-1,-1,-1,-1,-1,-1,-1,-1,-1,-1,-1,-1,-1,-1,-1,-1,-1,-1,-1,-1,-1,-1,-1,-1,-1,-1,-1,-1,-1,-1,-1,-1,-1,-1,-1,-1,-1,-1,-1,-1,-1,-1,-1,-1,-1,-1,-1],"split_conditions":[4E-1,1E0,5.8E1,1E0,9E-2,1E0,1.01E2,5E0,4E0,8E-2,2.2E1,1E0,1.3E1,9.9E-1,8.2E-1,4.116E3,8E0,3E0,6.3E1,9.5E1,2.1E1,1.8E1,7.7E1,8.88E3,4E0,8E-1,4.2E1,1E0,3.9E1,5E0,1.8E1,7E0,5.1E1,5E0,1E1,7.7E1,7E0,8E-2,2.461263E-2,8.7E1,4E0,1.3E1,6.9E1,4.128E3,2.1680122E-2,2.5E-1,4E0,8.9E-1,4.8E-1,7E0,9E0,6E0,4.5E1,5.5E1,6.8E1,1E0,9.1E1,1.1E1,7E0,1E0,4.8E2,-1.05646765E-2,6.8E1,2.3722222E-2,-4.5264685E-3,-2.0206781E-2,1.7985856E-2,-9.5380945E-3,9.882793E-3,1.7780494E-2,6.0482085E-4,1.664365E-2,-3.4666218E-2,-7.06062E-2,-2.9010532E-2,1.7129071E-2,-1.6227218E-3,1.7210027E-2,-3.2010276E-2,2.0704953E-2,5.1789447E-3,1.5197821E-2,-1.5392423E-2,2.1954946E-2,1.1145867E-2,-2.4692891E-2,1.5588093E-2,1.3389088E-2,8.194714E-3,7.5885304E-3,-1.9541648E-3,-5.820855E-3,1.7169146E-2,1.5808418E-2,-7.097616E-2,-8.061175E-2,-2.1399736E-2,1.3591652E-2,-1.1662344E-2,6.249242E-3,-6.7321205E-4,-7.5550785E-4,-7.7191754E-3,1.7680362E-2,7.5445683E-3,4.798528E-3,-3.2811065E-3,-1.2232768E-2,-7.762786E-2,-5.2199434E-3,-2.1082258E-2,-2.169266E-2,-1.6070007E-3,-7.9880945E-2,-4.4143423E-2,-7.531298E-2,-8.947418E-3,-2.774039E-2,-7.923658E-2,-1.34601E-1,-3.641186E-2],"split_indices":[0,3,5,7,0,3,5,2,6,0,4,7,3,0,0,8,2,6,4,5,4,3,5,8,6,0,4,3,4,3,8,6,4,6,2,5,2,0,0,4,3,3,4,8,0,0,6,0,0,2,6,6,4,5,4,7,5,3,3,3,8,0,4,0,0,0,0,0,0,0,0,0,0,0,0,0,0,0,0,0,0,0,0,0,0,0,0,0,0,0,0,0,0,0,0,0,0,0,0,0,0,0,0,0,0,0,0,0,0,0,0,0,0,0,0,0,0,0,0,0,0],"split_type":[0,0,0,0,0,0,0,0,0,0,0,0,0,0,0,0,0,0,0,0,0,0,0,0,0,0,0,0,0,0,0,0,0,0,0,0,0,0,0,0,0,0,0,0,0,0,0,0,0,0,0,0,0,0,0,0,0,0,0,0,0,0,0,0,0,0,0,0,0,0,0,0,0,0,0,0,0,0,0,0,0,0,0,0,0,0,0,0,0,0,0,0,0,0,0,0,0,0,0,0,0,0,0,0,0,0,0,0,0,0,0,0,0,0,0,0,0,0,0,0,0],"sum_hessian":[1.7173736E4,7.230227E3,9.94351E3,9.803714E2,6.2498555E3,7.1268394E3,2.8166704E3,5.3496136E2,4.4541E2,2.3863374E3,3.863518E3,3.3927283E2,6.7875664E3,2.7061394E3,1.10530785E2,8.36621E1,4.5129926E2,3.751711E2,7.023889E1,1.3591398E3,1.0271976E3,1.05227516E2,3.7582905E3,1.8482742E2,1.5444542E2,5.376289E3,1.4112773E3,1.9325707E3,7.7356885E2,6.447129E1,4.6059486E1,7.548309E1,8.179011E0,2.6560422E2,1.8569504E2,4.1473946E1,3.3369717E2,5.574977E1,1.4489122E1,1.2079586E3,1.5118124E2,9.094336E0,1.01810333E3,1.0060485E2,4.6226683E0,3.0530166E3,7.052739E2,1.7839723E2,6.43019E0,1.1434036E2,4.0105064E1,2.0491328E3,3.3271565E3,3.4996735E2,1.0613099E3,1.21608315E2,1.8109624E3,4.4650317E2,3.2706567E2,2.0831144E1,4.364015E1,1.0589682E0,4.500052E1,6.7519005E1,7.9640923E0,6.0161023E0,2.162909E0,1.7971861E2,8.588561E1,1.0781426E2,7.7880775E1,3.794324E1,3.530703E0,2.1491078E2,1.1878639E2,1.8211508E1,3.7538265E1,1.2067936E3,1.1650267E0,3.0376205E1,1.2080503E2,5.86692E0,3.2274153E0,9.975674E2,2.053597E1,9.452008E1,6.0847707E0,1.7742795E3,1.278737E3,3.5528616E2,3.4998776E2,1.6011285E2,1.8284374E1,1.5063795E0,4.9238105E0,6.658283E1,4.7757523E1,3.2512592E1,7.5924716E0,1.3338416E3,7.152914E2,1.0976155E3,2.229541E3,3.0958908E2,4.037829E1,8.7396014E2,1.8734981E2,6.320373E1,5.8404587E1,1.5004962E3,3.1046616E2,2.7651233E2,1.6999084E2,1.2010721E2,2.0695847E2,2.7006216E0,1.8130522E1,1.9797466E1,2.3842684E1,4.3194782E1,1.8057373E0],"tree_param":{"num_deleted":"0","num_feature":"10","num_nodes":"121","size_leaf_vector":"1"}},{"base_weights":[-4.1918154E-3,-1.4091973E-1,1.6286471E-1,3.1814137E-1,-2.0623095E-1,4.5317627E-2,5.1200086E-1,4.3613282E-1,-1.5670112E-1,-3.7644848E-1,-1.3690984E-1,9.959569E-2,-1.1121312E-1,4.481563E-1,1.998363E0,-1.6453598E-1,5.4774594E-1,6.6515826E-2,-2.905741E-1,-3.2975927E-1,-4.3720046E-1,-1.6193628E-1,2.3351255E-1,4.221972E-1,8.361239E-2,-2.8423217E-1,-6.1929032E-2,2.9367945E-1,8.559528E-1,1.0482268E0,2.6032948E0,-3.1158635E-1,-2.3406645E-2,3.3759764E-1,6.869108E-1,-6.5784315E-3,8.2720417E-1,-3.170713E-1,3.4703994E-1,-3.4584978E-1,-1.1613929E-1,-4.4215578E-1,-2.0457788E-1,-2.3320958E-1,-9.872939E-2,4.822575E-1,1.0947852E-1,5.704179E-1,7.869901E-2,-3.6601946E-2,1.223534E-1,-6.760835E-2,-3.4018117E-1,-1.6095904E-1,-2.5560346E-2,2.573162E-1,8.255898E-1,4.825515E-1,1.2432538E0,4.6873692E-1,1.5484945E0,2.6672819E0,2.2421647E-2,1.8592795E-2,-1.7285667E-2,-3.327182E-3,6.38485E-2,8.9704484E-2,1.6077947E-2,3.1178957E-2,5.5790026E-2,-2.8527991E-3,7.071855E-2,5.7145227E-3,8.87238E-2,-2.18125E-2,-1.1114008E-2,4.922008E-2,-1.0198781E-3,-1.8966768E-2,-1.464157E-2,-1.9811796E-2,-2.2466492E-3,-1.5247831E-3,-2.2189967E-2,-1.3947328E-2,3.5460453E-2,-1.3047951E-2,-5.699611E-3,-8.267315E-3,-2.0463641E-4,6.7947083E-3,4.4035193E-2,-4.2016744E-3,1.3851876E-2,-3.1123993E-3,3.8852714E-2,-5.790278E-4,1.5619918E-2,5.6736614E-3,-3.910761E-3,9.668725E-4,8.642879E-3,1.4182462E-2,-1.0573227E-2,-1.7877782E-2,7.441173E-3,-8.553972E-3,4.0219437E-2,1.8856524E-2,-1.9417944E-3,8.126503E-3,2.1978116E-2,4.6757422E-2,1.8673243E-3,1.3073898E-2,3.809052E-2,8.3667494E-2,4.782779E-2,7.936477E-2,1.210337E-2,3.0420324E-2,9.780184E-2,3.146947E-2,1.3532332E-1],"categories":[],"categories_nodes":[],"categories_segments":[],"categories_sizes":[],"default_left":[0,0,0,0,0,0,0,0,0,0,0,0,0,0,0,0,0,0,0,0,0,0,0,0,0,0,0,0,0,0,0,0,0,0,0,0,0,0,0,0,0,0,0,0,0,0,0,0,0,0,0,0,0,0,0,0,0,0,0,0,0,0,0,0,0,0,0,0,0,0,0,0,0,0,0,0,0,0,0,0,0,0,0,0,0,0,0,0,0,0,0,0,0,0,0,0,0,0,0,0,0,0,0,0,0,0,0,0,0,0,0,0,0,0,0,0,0,0,0,0,0,0,0,0,0],"id":4,"left_children":[1,3,5,7,9,11,13,15,17,19,21,23,25,27,29,31,33,35,37,39,41,43,45,47,49,51,53,55,57,59,61,63,65,67,69,71,73,75,77,79,81,83,85,87,89,91,93,95,97,99,101,103,105,107,109,111,113,115,117,119,121,123,-1,-1,-1,-1,-1,-1,-1,-1,-1,-1,-1,-1,-1,-1,-1,-1,-1,-1,-1,-1,-1,-1,-1,-1,-1,-1,-1,-1,-1,-1,-1,-1,-1,-1,-1,-1,-1,-1,-1,-1,-1,-1,-1,-1,-1,-1,-1,-1,-1,-1,-1,-1,-1,-1,-1,-1,-1,-1,-1,-1,-1,-1,-1],"loss_changes":[3.9114438E2,2.8240533E2,3.1628857E2,6.5804955E1,9.723349E1,4.9010166E1,1.8331952E2,6.3112732E1,7.019536E0,6.6219482E0,5.436508E1,2.2047863E1,1.2648367E1,1.1708139E2,4.3056885E1,3.0656466E0,2.2958649E1,4.933792E0,2.5871725E0,4.6100464E0,1.1008911E0,2.4709381E1,1.1402456E1,1.0235985E1,1.9014702E1,3.9647694E0,4.164201E0,2.5945229E1,7.3328094E1,8.742924E0,5.4219055E0,1.8179765E0,4.383932E0,6.848892E0,1.2235794E1,5.9520516E0,5.050037E0,1.4992228E0,1.5018911E0,2.1216278E0,1.9022821E0,6.7059326E-1,1.7892536E0,8.504227E0,1.835398E1,1.688886E1,8.09842E0,1.8468483E1,1.3123014E0,6.2266135E0,1.6058865E1,3.5357249E0,2.2727757E0,3.172883E0,4.54625E0,2.1820267E1,7.3992233E0,1.596973E1,2.9262238E1,3.816209E0,5.359539E0,2.0026855E0,0E0,0E0,0E0,0E0,0E0,0E0,0E0,0E0,0E0,0E0,0E0,0E0,0E0,0E0,0E0,0E0,0E0,0E0,0E0,0E0,0E0,0E0,0E0,0E0,0E0,0E0,0E0,0E0,0E0,0E0,0E0,0E0,0E0,0E0,0E0,0E0,0E0,0E0,0E0,0E0,0E0,0E0,0E0,0E0,0E0,0E0,0E0,0E0,0E0,0E0,0E0,0E0,0E0,0E0,0E0,0E0,0E0,0E0,0E0,0E0,0E0,0E0,0E0],"parents":[2147483647,0,0,1,1,2,2,3,3,4,4,5,5,6,6,7,7,8,8,9,9,10,10,11,11,12,12,13,13,14,14,15,15,16,16,17,17,18,18,19,19,20,20,21,21,22,22,23,23,24,24,25,25,26,26,27,27,28,28,29,29,30,30,31,31,32,32,33,33,34,34,35,35,36,36,37,37,38,38,39,39,40,40,41,41,42,42,43,43,44,44,45,45,46,46,47,47,48,48,49,49,50,50,51,51,52,52,53,53,54,54,55,55,56,56,57,57,58,58,59,59,60,60,61,61],"right_children":[2,4,6,8,10,12,14,16,18,20,22,24,26,28,30,32,34,36,38,40,42,44,46,48,50,52,54,56,58,60,62,64,66,68,70,72,74,76,78,80,82,84,86,88,90,92,94,96,98,100,102,104,106,108,110,112,114,116,118,120,122,124,-1,-1,-1,-1,-1,-1,-1,-1,-1,-1,-1,-1,-1,-1,-1,-1,-1,-1,-1,-1,-1,-1,-1,-1,-1,-1,-1,-1,-1,-1,-1,-1,-1,-1,-1,-1,-1,-1,-1,-1,-1,-1,-1,-1,-1,-1,-1,-1,-1,-1,-1,-1,-1,-1,-1,-1,-1,-1,-1,-1,-1,-1,-1],"split_conditions":[5.6E-1,1E0,5.8E1,6E0,9E-2,1.2E1,1.01E2,3E0,7E0,8E-2,9.6E1,1E0,4.1E1,4.4E1,8.3E-1,1.8E-1,8E-2,1E1,5.2E-1,9.6E1,6.9E1,2.9E-1,2.4E1,4E0,8E-1,1.3E1,5.4E1,9.6E1,9.9E-1,7E0,6.8E1,2.8E1,5E0,2.739726E-3,8.1E1,9.6E1,2.7E-1,1.6E1,1.3E1,6E0,4E0,2E1,7.8E1,7.4E1,6E0,3E-1,9.04E2,3E0,8E0,3E0,4.5E1,9.3E-1,8.455E3,8.7E1,6E1,3.4E1,1.5E1,7E0,7E0,2E0,2.17E2,1.8E1,2.2421647E-2,1.8592795E-2,-1.7285667E-2,-3.327182E-3,6.38485E-2,8.9704484E-2,1.6077947E-2,3.1178957E-2,5.5790026E-2,-2.8527991E-3,7.071855E-2,5.7145227E-3,8.87238E-2,-2.18125E-2,-1.1114008E-2,4.922008E-2,-1.0198781E-3,-1.8966768E-2,-1.464157E-2,-1.9811796E-2,-2.2466492E-3,-1.5247831E-3,-2.2189967E-2,-1.3947328E-2,3.5460453E-2,-1.3047951E-2,-5.699611E-3,-8.267315E-3,-2.0463641E-4,6.7947083E-3,4.4035193E-2,-4.2016744E-3,1.3851876E-2,-3.1123993E-3,3.8852714E-2,-5.790278E-4,1.5619918E-2,5.6736614E-3,-3.910761E-3,9.668725E-4,8.642879E-3,1.4182462E-2,-1.0573227E-2,-1.7877782E-2,7.441173E-3,-8.553972E-3,4.0219437E-2,1.8856524E-2,-1.9417944E-3,8.126503E-3,2.1978116E-2,4.6757422E-2,1.8673243E-3,1.3073898E-2,3.809052E-2,8.3667494E-2,4.782779E-2,7.936477E-2,1.210337E-2,3.0420324E-2,9.780184E-2,3.146947E-2,1.3532332E-1],"split_indices":[0,3,5,6,0,3,5,6,9,0,5,3,4,4,0,0,0,6,0,5,4,0,4,6,0,3,8,5,0,3,4,4,1,0,5,5,0,9,9,6,3,4,5,5,6,0,8,6,6,6,4,0,8,4,8,4,3,3,3,6,8,8,0,0,0,0,0,0,0,0,0,0,0,0,0,0,0,0,0,0,0,0,0,0,0,0,0,0,0,0,0,0,0,0,0,0,0,0,0,0,0,0,0,0,0,0,0,0,0,0,0,0,0,0,0,0,0,0,0,0,0,0,0,0,0],"split_type":[0,0,0,0,0,0,0,0,0,0,0,0,0,0,0,0,0,0,0,0,0,0,0,0,0,0,0,0,0,0,0,0,0,0,0,0,0,0,0,0,0,0,0,0,0,0,0,0,0,0,0,0,0,0,0,0,0,0,0,0,0,0,0,0,0,0,0,0,0,0,0,0,0,0,0,0,0,0,0,0,0,0,0,0,0,0,0,0,0,0,0,0,0,0,0,0,0,0,0,0,0,0,0,0,0,0,0,0,0,0,0,0,0,0,0,0,0,0,0,0,0,0,0,0,0],"sum_hessian":[1.7122438E4,9.416022E3,7.7064155E3,1.1722952E3,8.243727E3,5.7661865E3,1.9402288E3,9.390391E2,2.3325603E2,2.3844055E3,5.8593213E3,4.281806E3,1.4843806E3,1.8615692E3,7.865952E1,1.4707123E2,7.919679E2,8.763629E1,1.4561972E2,1.3518826E3,1.032523E3,5.4890347E3,3.7028687E2,2.0092805E2,4.080878E3,3.2802686E2,1.1563538E3,1.3513765E3,5.101928E2,3.1662159E1,4.6997364E1,7.1433235E1,7.563799E1,3.168814E2,4.7508646E2,8.085803E1,6.7782655E0,1.4029236E2,5.327375E0,1.2566118E3,9.527075E1,1.0101049E3,2.2418036E1,2.5786316E3,2.910403E3,1.2224389E2,2.4804298E2,1.3990007E2,6.102799E1,9.9461566E2,3.0862622E3,6.778494E1,2.602419E2,3.0968158E2,8.466722E2,1.266292E3,8.508441E1,2.6090106E2,2.4929176E2,1.5566973E1,1.6095186E1,4.5411118E1,1.5862463E0,2.9266484E0,6.8506584E1,7.412781E1,1.5101911E0,2.2439778E0,3.1463745E2,4.160977E2,5.8988796E1,7.90111E1,1.8469296E0,4.5069795E0,2.2712858E0,6.0555317E1,7.973703E1,1.3341106E0,3.9932647E0,7.664068E2,4.9020502E2,1.8385412E1,7.688534E1,4.0945573E0,1.0060104E3,2.1373302E1,1.0447338E0,2.0907842E3,4.878474E2,1.7076218E3,1.2027812E3,6.6113495E1,5.6130394E1,1.15338425E2,1.3270456E2,3.4615456E1,1.05284615E2,4.4707603E1,1.6320389E1,2.155443E2,7.7907135E2,1.015756E3,2.0705063E3,1.941269E1,4.837225E1,2.515723E2,8.669626E0,3.072829E2,2.3986773E0,2.6146774E1,8.2052545E2,8.3427673E2,4.3201523E2,7.453795E1,1.0546467E1,1.4670181E2,1.14199234E2,9.777536E1,1.515164E2,1.6115723E0,1.39554E1,5.6212883E0,1.0473898E1,1.1785667E0,4.423255E1],"tree_param":{"num_deleted":"0","num_feature":"10","num_nodes":"125","size_leaf_vector":"1"}},{"base_weights":[0E0],"categories":[],"categories_nodes":[],"categories_segments":[],"categories_sizes":[],"default_left":[0],"id":5,"left_children":[-1],"loss_changes":[0E0],"parents":[2147483647],"right_children":[-1],"split_conditions":[0E0],"split_indices":[0],"split_type":[0],"sum_hessian":[3.6180475E-1],"tree_param":{"num_deleted":"0","num_feature":"10","num_nodes":"1","size_leaf_vector":"1"}},{"base_weights":[-1.2173511E-3,1.7550163E-1,-1.2641135E-1,-2.7774587E-1,2.5031325E-1,-2.6899414E-2,-3.7243882E-1,-4.6148166E-1,-7.9856396E-2,3.7312308E-1,1.751074E-1,-4.1286194E-1,-7.0992843E-3,-3.2176396E-1,-1.4330362E0,-1.9061537E-1,-6.7926323E-1,2.2427905E-2,-2.6447022E-1,1.592641E-1,3.8281593E-1,2.1087134E-1,-4.541666E-2,-3.371221E-1,-9.581254E-1,9.604635E-2,-6.0122397E-2,-1.7871875E-1,-5.636709E-1,-8.657296E-1,-2.0666711E0,-2.9339057E-1,1.33651E-1,-1.2114394E0,-5.5404735E-1,-1.547158E-1,3.0144143E-1,-7.2397155E-1,1.5152596E-1,9.699709E-2,2.4621833E-2,3.4942007E-1,4.2534238E-1,2.5202554E-1,1.5425988E-1,-4.7490206E-1,1.1751914E-2,-5.245112E-1,-1.5485659E-1,-1.0113002E0,1.5613034E-2,1.9809616E-1,6.363842E-2,-1.17648825E-1,8.879569E-2,-9.3177474E-1,-1.4241263E-1,-3.0337453E-1,-1.03601E0,-4.3238375E-1,-1.0695027E0,-1.5158911E0,-2.439304E0,4.93377E-4,-2.0933595E-2,1.0068469E-2,-3.5658237E-2,-1.0179305E-1,-5.148944E-2,-5.3105997E-3,-3.374401E-2,-3.3637711E-3,-1.626338E-2,2.1323508E-2,4.886499E-3,-2.070405E-2,-4.946572E-2,-9.1508385E-3,1.2609593E-2,-1.1026189E-2,7.462043E-3,3.5550487E-3,1.774516E-2,2.147205E-2,1.1451816E-2,1.2855709E-2,-7.0584193E-3,1.0311837E-2,5.116792E-3,-2.6852245E-2,6.996983E-3,1.4257449E-2,-6.6850905E-4,-2.9663732E-2,1.0037134E-2,1.4114424E-3,-2.2924542E-2,-5.5314023E-2,-1.2579376E-2,6.6611E-3,1.4214234E-2,5.9843375E-3,-8.890294E-5,5.453005E-4,-7.753552E-3,1.2837308E-2,1.8003223E-3,-6.826426E-2,-2.488687E-2,-4.649634E-3,-3.4112893E-2,-7.290505E-3,-2.1249063E-2,-6.569391E-2,-3.7786696E-2,5.5944654E-3,-4.943938E-2,-5.9994932E-2,-6.1923326E-3,-8.933503E-2,-2.1221995E-2,-9.045773E-2,-1.4435217E-1],"categories":[],"categories_nodes":[],"categories_segments":[],"categories_sizes":[],"default_left":[0,0,0,0,0,0,0,0,0,0,0,0,0,0,0,0,0,0,0,0,0,0,0,0,0,0,0,0,0,0,0,0,0,0,0,0,0,0,0,0,0,0,0,0,0,0,0,0,0,0,0,0,0,0,0,0,0,0,0,0,0,0,0,0,0,0,0,0,0,0,0,0,0,0,0,0,0,0,0,0,0,0,0,0,0,0,0,0,0,0,0,0,0,0,0,0,0,0,0,0,0,0,0,0,0,0,0,0,0,0,0,0,0,0,0,0,0,0,0,0,0,0,0],"id":6,"left_children":[1,3,5,7,9,11,13,15,17,19,21,23,25,27,29,31,33,35,37,39,41,43,45,47,49,51,53,55,57,59,61,63,65,67,69,71,73,75,77,79,-1,81,83,85,87,89,91,93,95,97,-1,99,101,103,105,107,109,111,113,115,117,119,121,-1,-1,-1,-1,-1,-1,-1,-1,-1,-1,-1,-1,-1,-1,-1,-1,-1,-1,-1,-1,-1,-1,-1,-1,-1,-1,-1,-1,-1,-1,-1,-1,-1,-1,-1,-1,-1,-1,-1,-1,-1,-1,-1,-1,-1,-1,-1,-1,-1,-1,-1,-1,-1,-1,-1,-1,-1,-1,-1,-1],"loss_changes":[3.8008453E2,2.416267E2,2.461817E2,3.6676353E1,5.6414062E1,5.4721237E1,1.5517972E2,3.0744598E1,9.208618E0,4.7515564E0,2.9936096E1,1.4107143E1,3.7263817E1,9.5582275E1,4.5575684E1,7.859338E0,1.8635468E1,1.5592102E1,3.3336937E1,2.0760615E0,3.0046082E0,7.568329E0,1.302681E1,1.0450031E1,3.1579285E0,7.6382637E0,3.856138E1,4.7414787E1,1.25957275E2,5.8285294E0,8.929169E0,6.7854815E0,3.4214566E0,6.041725E0,1.271994E1,2.8569808E0,3.07788E0,6.3961143E0,3.1464467E0,1.4843972E0,0E0,1.8811646E0,6.8370056E-1,3.8160934E0,3.6953278E0,2.4564085E0,3.2250931E0,7.6802635E0,8.781107E0,2.6526146E0,0E0,3.077177E0,6.443207E0,1.5620201E1,1.1113402E1,1.433699E1,4.423128E1,1.2652321E1,2.7392517E1,7.519312E0,5.74284E0,7.360653E0,4.667206E0,0E0,0E0,0E0,0E0,0E0,0E0,0E0,0E0,0E0,0E0,0E0,0E0,0E0,0E0,0E0,0E0,0E0,0E0,0E0,0E0,0E0,0E0,0E0,0E0,0E0,0E0,0E0,0E0,0E0,0E0,0E0,0E0,0E0,0E0,0E0,0E0,0E0,0E0,0E0,0E0,0E0,0E0,0E0,0E0,0E0,0E0,0E0,0E0,0E0,0E0,0E0,0E0,0E0,0E0,0E0,0E0,0E0,0E0,0E0,0E0],"parents":[2147483647,0,0,1,1,2,2,3,3,4,4,5,5,6,6,7,7,8,8,9,9,10,10,11,11,12,12,13,13,14,14,15,15,16,16,17,17,18,18,19,19,20,20,21,21,22,22,23,23,24,24,25,25,26,26,27,27,28,28,29,29,30,30,31,31,32,32,33,33,34,34,35,35,36,36,37,37,38,38,39,39,41,41,42,42,43,43,44,44,45,45,46,46,47,47,48,48,49,49,51,51,52,52,53,53,54,54,55,55,56,56,57,57,58,58,59,59,60,60,61,61,62,62],"right_children":[2,4,6,8,10,12,14,16,18,20,22,24,26,28,30,32,34,36,38,40,42,44,46,48,50,52,54,56,58,60,62,64,66,68,70,72,74,76,78,80,-1,82,84,86,88,90,92,94,96,98,-1,100,102,104,106,108,110,112,114,116,118,120,122,-1,-1,-1,-1,-1,-1,-1,-1,-1,-1,-1,-1,-1,-1,-1,-1,-1,-1,-1,-1,-1,-1,-1,-1,-1,-1,-1,-1,-1,-1,-1,-1,-1,-1,-1,-1,-1,-1,-1,-1,-1,-1,-1,-1,-1,-1,-1,-1,-1,-1,-1,-1,-1,-1,-1,-1,-1,-1,-1,-1],"split_conditions":[4E-1,1E0,5.8E1,7E0,9E-2,1E0,1.01E2,5E0,9E0,2.4E1,8.8E1,4.649E3,7.7E-1,3.9E1,8.3E-1,5.7E1,2E0,8E0,1.1E1,1.8E1,8E-2,2.5E-1,2.1E1,7E0,9.7E-1,4.1E1,1.2E1,1E0,9.9E-1,5E0,4.44E2,3.2E1,6.8E1,4.28E2,7E0,1.422E3,1.2E-1,9E-2,2E0,5.9E1,2.4621833E-2,1.3E1,6.9E1,7.8E1,6E0,1.7E1,4.3E1,9.1E-1,9E0,5.4E1,1.5613034E-2,8E0,6E0,4.1E1,4.2E1,6E0,9.7E1,5.6E-1,9E0,1.2E1,1.26E2,1.5E1,1.15E2,4.93377E-4,-2.0933595E-2,1.0068469E-2,-3.5658237E-2,-1.0179305E-1,-5.148944E-2,-5.3105997E-3,-3.374401E-2,-3.3637711E-3,-1.626338E-2,2.1323508E-2,4.886499E-3,-2.070405E-2,-4.946572E-2,-9.1508385E-3,1.2609593E-2,-1.1026189E-2,7.462043E-3,3.5550487E-3,1.774516E-2,2.147205E-2,1.1451816E-2,1.2855709E-2,-7.0584193E-3,1.0311837E-2,5.116792E-3,-2.6852245E-2,6.996983E-3,1.4257449E-2,-6.6850905E-4,-2.9663732E-2,1.0037134E-2,1.4114424E-3,-2.2924542E-2,-5.5314023E-2,-1.2579376E-2,6.6611E-3,1.4214234E-2,5.9843375E-3,-8.890294E-5,5.453005E-4,-7.753552E-3,1.2837308E-2,1.8003223E-3,-6.826426E-2,-2.488687E-2,-4.649634E-3,-3.4112893E-2,-7.290505E-3,-2.1249063E-2,-6.569391E-2,-3.7786696E-2,5.5944654E-3,-4.943938E-2,-5.9994932E-2,-6.1923326E-3,-8.933503E-2,-2.1221995E-2,-9.045773E-2,-1.4435217E-1],"split_indices":[0,3,5,2,0,3,5,2,2,4,5,8,0,4,0,4,9,2,2,9,0,0,4,2,0,4,3,3,0,3,8,4,5,8,9,8,0,0,9,8,0,8,4,4,3,3,8,0,2,5,0,3,3,4,4,2,5,0,3,9,5,9,5,0,0,0,0,0,0,0,0,0,0,0,0,0,0,0,0,0,0,0,0,0,0,0,0,0,0,0,0,0,0,0,0,0,0,0,0,0,0,0,0,0,0,0,0,0,0,0,0,0,0,0,0,0,0,0,0,0,0,0,0],"split_type":[0,0,0,0,0,0,0,0,0,0,0,0,0,0,0,0,0,0,0,0,0,0,0,0,0,0,0,0,0,0,0,0,0,0,0,0,0,0,0,0,0,0,0,0,0,0,0,0,0,0,0,0,0,0,0,0,0,0,0,0,0,0,0,0,0,0,0,0,0,0,0,0,0,0,0,0,0,0,0,0,0,0,0,0,0,0,0,0,0,0,0,0,0,0,0,0,0,0,0,0,0,0,0,0,0,0,0,0,0,0,0,0,0,0,0,0,0,0,0,0,0,0,0],"sum_hessian":[1.7177613E4,7.12286E3,1.0054753E4,1.00873145E3,6.1141284E3,7.1598735E3,2.8948796E3,5.223809E2,4.8635056E2,2.320626E3,3.7935024E3,3.4841394E2,6.8114595E3,2.764115E3,1.3076477E2,2.3365157E2,2.8872934E2,3.135232E2,1.7282735E2,1.0137449E2,2.2192515E3,3.2641724E3,5.2932996E2,3.07341E2,4.1072926E1,2.3123816E3,4.4990776E3,1.738084E3,1.026031E3,7.024197E1,6.052281E1,1.7749142E2,5.616014E1,5.3343033E1,2.3538629E2,1.9204236E2,1.2148084E2,8.176784E1,9.105951E1,8.64996E1,1.4874883E1,1.2482344E3,9.7101715E2,1.8881284E3,1.376044E3,6.1323463E1,4.6800653E2,1.5061472E2,1.567263E2,3.961854E1,1.4543805E0,5.561139E2,1.7562678E3,3.2455469E3,1.253531E3,7.880743E1,1.6592765E3,6.6255365E2,3.634774E2,2.346435E1,4.6777615E1,2.6468456E1,3.4054356E1,5.2158028E1,1.25333405E2,5.2707424E1,3.452716E0,7.788292E0,4.555474E1,5.041506E1,1.8497124E2,1.2787595E2,6.41664E1,7.460081E1,4.6880035E1,3.8898876E1,4.286896E1,2.0873287E1,7.018622E1,1.1766364E1,7.473324E1,2.4386023E1,1.2238484E3,9.4999493E2,2.1022228E1,1.8643466E3,2.3781876E1,6.8618713E2,6.898569E2,5.580928E1,5.514185E0,3.851437E1,4.2949216E2,1.3773741E2,1.2877307E1,9.833767E1,5.8388638E1,3.481033E1,4.8082123E0,3.1874213E2,2.3737178E2,9.454145E2,8.108533E2,7.319208E2,2.513626E3,2.9885422E2,9.546768E2,3.8354218E1,4.045321E1,1.5211918E3,1.3808476E2,2.8956573E2,3.7298788E2,1.8067091E2,1.8280646E2,1.2265334E1,1.1199017E1,4.0872833E1,5.90478E0,2.0696316E1,5.77214E0,1.623949E1,1.7814865E1],"tree_param":{"num_deleted":"0","num_feature":"10","num_nodes":"123","size_leaf_vector":"1"}},{"base_weights":[-7.8377617E-4,-1.3426489E-1,1.5856174E-1,2.8442493E-1,-1.9641156E-1,4.8990034E-2,4.7129843E-1,-4.0812515E-2,6.541306E-1,-3.7206396E-1,-1.2641022E-1,1.0144415E-1,-1.05670445E-1,4.1740385E-1,1.5827324E0,-1.2900972E-1,1.6252734E-1,8.155628E-1,-1.919988E-1,-3.2933363E-1,-4.281102E-1,-1.5076075E-1,2.2456287E-1,4.5453948E-1,8.3584204E-2,-2.6842016E-1,-6.0053214E-2,2.680607E-1,7.963016E-1,9.5678836E-1,1.950835E0,-3.8620394E-1,-8.279345E-2,9.906506E-2,4.164896E-1,-1.8824804E-1,9.5226073E-1,-2.3429081E-1,6.072748E-1,-6.953712E-2,-3.4484997E-1,-2.7859686E-2,-4.2971805E-1,-2.2620675E-1,-1.0516033E-1,5.700114E-1,5.3515993E-2,1.3793555E-1,8.1509227E-1,-2.899219E-2,1.1673081E-1,-9.124194E-2,-3.1467992E-1,-3.0209867E-2,-1.459528E-1,2.2918454E-1,8.1656235E-1,4.819385E-1,1.0975355E0,4.1529155E-1,1.8185738E0,1.4281663E0,2.3080325E0,-2.2646818E-2,1.2328594E-2,6.7646714E-4,-1.1104116E-2,-1.2031779E-2,7.774514E-3,4.1303836E-2,8.311841E-3,-1.2734041E-2,2.6210545E-2,6.099644E-2,2.1544818E-2,-1.9576183E-2,-6.648966E-3,5.70967E-2,-2.2003108E-3,9.6442355E-3,-9.0360325E-3,-2.0046111E-2,-1.5514794E-2,8.2926955E-3,-1.54332165E-2,-2.1598494E-2,-6.9540376E-3,-1.2276477E-2,-5.825998E-3,-7.7913734E-3,-1.6631503E-3,1.1686865E-2,4.037846E-2,-5.1539754E-3,9.2797E-3,4.313771E-3,4.0649585E-2,5.860305E-2,-1.15826465E-2,-3.9376887E-3,3.8887642E-3,4.8845545E-3,2.133629E-2,-1.2364442E-2,1.99557E-2,-1.6606873E-2,9.775988E-3,-1.4543404E-4,-7.59821E-3,-8.717294E-3,3.911093E-3,4.595955E-3,1.6593521E-2,2.489554E-2,5.2342903E-2,1.4346071E-2,3.5636894E-2,7.336676E-2,4.3845452E-2,6.307574E-2,8.150342E-3,1.3266879E-2,1.0434466E-1,5.8377184E-2,1.2844992E-1,8.3281316E-2,1.4102341E-1],"categories":[],"categories_nodes":[],"categories_segments":[],"categories_sizes":[],"default_left":[0,0,0,0,0,0,0,0,0,0,0,0,0,0,0,0,0,0,0,0,0,0,0,0,0,0,0,0,0,0,0,0,0,0,0,0,0,0,0,0,0,0,0,0,0,0,0,0,0,0,0,0,0,0,0,0,0,0,0,0,0,0,0,0,0,0,0,0,0,0,0,0,0,0,0,0,0,0,0,0,0,0,0,0,0,0,0,0,0,0,0,0,0,0,0,0,0,0,0,0,0,0,0,0,0,0,0,0,0,0,0,0,0,0,0,0,0,0,0,0,0,0,0,0,0,0,0],"id":7,"left_children":[1,3,5,7,9,11,13,15,17,19,21,23,25,27,29,31,33,35,37,39,41,43,45,47,49,51,53,55,57,59,61,63,65,67,69,71,73,75,77,79,81,83,85,87,89,91,93,95,97,99,101,103,105,107,109,111,113,115,117,119,121,123,125,-1,-1,-1,-1,-1,-1,-1,-1,-1,-1,-1,-1,-1,-1,-1,-1,-1,-1,-1,-1,-1,-1,-1,-1,-1,-1,-1,-1,-1,-1,-1,-1,-1,-1,-1,-1,-1,-1,-1,-1,-1,-1,-1,-1,-1,-1,-1,-1,-1,-1,-1,-1,-1,-1,-1,-1,-1,-1,-1,-1,-1,-1,-1,-1],"loss_changes":[3.6529938E2,2.4323633E2,2.682493E2,1.4531891E2,1.00023315E2,4.7053215E1,1.2100592E2,1.1566271E1,7.740851E1,5.411865E0,4.9781334E1,2.7272106E1,1.0890604E1,1.0948224E2,1.9695236E1,5.3118453E0,3.1047468E0,6.537741E1,3.2326937E0,5.296814E0,6.313629E-1,1.8704971E1,2.2307863E1,2.366283E1,1.5389788E1,2.6050072E0,2.9404354E0,2.9495628E1,5.1323395E1,1.6331593E1,7.52536E0,2.9918146E0,5.133035E0,3.056024E0,3.8308263E0,2.8684497E0,5.7857056E1,1.3425899E0,1.7470425E0,2.2418842E0,2.2883606E0,3.269286E-1,5.915222E-1,4.3161163E0,1.2361889E1,9.804447E0,5.271691E0,3.8392007E0,3.658175E1,4.993426E0,1.8760677E1,5.297057E0,2.3308086E0,2.8376617E0,1.8972573E0,1.8311188E1,6.2111244E0,1.19357605E1,2.1462952E1,4.871645E0,5.2114563E0,4.7770386E0,6.102661E0,0E0,0E0,0E0,0E0,0E0,0E0,0E0,0E0,0E0,0E0,0E0,0E0,0E0,0E0,0E0,0E0,0E0,0E0,0E0,0E0,0E0,0E0,0E0,0E0,0E0,0E0,0E0,0E0,0E0,0E0,0E0,0E0,0E0,0E0,0E0,0E0,0E0,0E0,0E0,0E0,0E0,0E0,0E0,0E0,0E0,0E0,0E0,0E0,0E0,0E0,0E0,0E0,0E0,0E0,0E0,0E0,0E0,0E0,0E0,0E0,0E0,0E0,0E0,0E0],"parents":[2147483647,0,0,1,1,2,2,3,3,4,4,5,5,6,6,7,7,8,8,9,9,10,10,11,11,12,12,13,13,14,14,15,15,16,16,17,17,18,18,19,19,20,20,21,21,22,22,23,23,24,24,25,25,26,26,27,27,28,28,29,29,30,30,31,31,32,32,33,33,34,34,35,35,36,36,37,37,38,38,39,39,40,40,41,41,42,42,43,43,44,44,45,45,46,46,47,47,48,48,49,49,50,50,51,51,52,52,53,53,54,54,55,55,56,56,57,57,58,58,59,59,60,60,61,61,62,62],"right_children":[2,4,6,8,10,12,14,16,18,20,22,24,26,28,30,32,34,36,38,40,42,44,46,48,50,52,54,56,58,60,62,64,66,68,70,72,74,76,78,80,82,84,86,88,90,92,94,96,98,100,102,104,106,108,110,112,114,116,118,120,122,124,126,-1,-1,-1,-1,-1,-1,-1,-1,-1,-1,-1,-1,-1,-1,-1,-1,-1,-1,-1,-1,-1,-1,-1,-1,-1,-1,-1,-1,-1,-1,-1,-1,-1,-1,-1,-1,-1,-1,-1,-1,-1,-1,-1,-1,-1,-1,-1,-1,-1,-1,-1,-1,-1,-1,-1,-1,-1,-1,-1,-1,-1,-1,-1,-1],"split_conditions":[5.6E-1,1E0,5.8E1,1E0,9E-2,1.2E1,1.01E2,2.6E-1,4E0,8E-2,9.6E1,1E0,4.1E1,4.4E1,8.3E-1,5E0,5E-1,3E0,5.2E-1,2.4E1,2E1,2.5E-1,2.4E1,1E0,4.1E1,1.3E1,1.7E1,9.6E1,9.9E-1,3.4E1,4.44E2,7E0,8E0,5E0,4.1E1,7.7E1,7E0,9E-2,6.29E2,1.34E2,4E0,1.11E3,1.6533E4,8E1,5.5E1,2.5E-1,8.54E2,6.09E3,4E0,7.47E2,5.2E1,5.2E1,8.455E3,7E0,2.446E3,3E1,7E0,7E0,6.3E1,2.2E1,1.32E2,8E0,1.15E2,-2.2646818E-2,1.2328594E-2,6.7646714E-4,-1.1104116E-2,-1.2031779E-2,7.774514E-3,4.1303836E-2,8.311841E-3,-1.2734041E-2,2.6210545E-2,6.099644E-2,2.1544818E-2,-1.9576183E-2,-6.648966E-3,5.70967E-2,-2.2003108E-3,9.6442355E-3,-9.0360325E-3,-2.0046111E-2,-1.5514794E-2,8.2926955E-3,-1.54332165E-2,-2.1598494E-2,-6.9540376E-3,-1.2276477E-2,-5.825998E-3,-7.7913734E-3,-1.6631503E-3,1.1686865E-2,4.037846E-2,-5.1539754E-3,9.2797E-3,4.313771E-3,4.0649585E-2,5.860305E-2,-1.15826465E-2,-3.9376887E-3,3.8887642E-3,4.8845545E-3,2.133629E-2,-1.2364442E-2,1.99557E-2,-1.6606873E-2,9.775988E-3,-1.4543404E-4,-7.59821E-3,-8.717294E-3,3.911093E-3,4.595955E-3,1.6593521E-2,2.489554E-2,5.2342903E-2,1.4346071E-2,3.5636894E-2,7.336676E-2,4.3845452E-2,6.307574E-2,8.150342E-3,1.3266879E-2,1.0434466E-1,5.8377184E-2,1.2844992E-1,8.3281316E-2,1.4102341E-1],"split_indices":[0,3,5,7,0,3,5,0,6,0,5,3,4,4,0,2,0,6,0,4,4,0,4,7,4,3,3,5,0,4,8,6,2,2,4,5,2,0,8,8,3,8,8,5,5,0,8,8,6,8,5,5,8,6,8,4,3,3,5,4,8,2,5,0,0,0,0,0,0,0,0,0,0,0,0,0,0,0,0,0,0,0,0,0,0,0,0,0,0,0,0,0,0,0,0,0,0,0,0,0,0,0,0,0,0,0,0,0,0,0,0,0,0,0,0,0,0,0,0,0,0,0,0,0,0,0,0],"split_type":[0,0,0,0,0,0,0,0,0,0,0,0,0,0,0,0,0,0,0,0,0,0,0,0,0,0,0,0,0,0,0,0,0,0,0,0,0,0,0,0,0,0,0,0,0,0,0,0,0,0,0,0,0,0,0,0,0,0,0,0,0,0,0,0,0,0,0,0,0,0,0,0,0,0,0,0,0,0,0,0,0,0,0,0,0,0,0,0,0,0,0,0,0,0,0,0,0,0,0,0,0,0,0,0,0,0,0,0,0,0,0,0,0,0,0,0,0,0,0,0,0,0,0,0,0,0,0],"sum_hessian":[1.7172705E4,9.344842E3,7.8278633E3,1.2073306E3,8.137511E3,5.7977104E3,2.0301527E3,6.4276605E2,5.645645E2,2.3176306E3,5.8198804E3,4.3296313E3,1.4680789E3,1.9375734E3,9.257938E1,4.485683E2,1.9419774E2,4.7413992E2,9.0424576E1,1.3189346E3,9.9869604E2,5.442827E3,3.7705328E2,2.0727644E2,4.122355E3,3.2033337E2,1.1477455E3,1.3910116E3,5.4656177E2,3.5615623E1,5.696375E1,6.720652E1,3.813618E2,1.564842E2,3.7713543E1,5.6783794E1,4.1735614E2,8.655173E1,3.8728468E0,7.464271E1,1.2442919E3,4.0690684E0,9.94627E2,2.0489219E3,3.3939055E3,1.24095634E2,2.5295764E2,1.111007E2,9.617575E1,9.3771216E2,3.184643E3,6.693598E1,2.5339738E2,8.528121E2,2.949334E2,1.3002701E3,9.074148E1,2.6872464E2,2.7783716E2,2.2782377E1,1.2833248E1,2.5154593E1,3.1809155E1,6.1052177E1,6.154343E0,2.2598715E2,1.5537462E2,2.1824999E1,1.3465921E2,1.3430675E1,2.4282866E1,5.2528355E1,4.255441E0,2.7488867E2,1.4246744E2,3.279311E1,5.3758617E1,1.7131205E0,2.1597264E0,2.1994703E1,5.264801E1,4.7038193E2,7.7391E2,2.6501913E0,1.4188771E0,9.864975E2,8.129496E0,1.7409854E3,3.0793646E2,1.9902084E3,1.403697E3,5.219505E1,7.190059E1,1.1583723E2,1.3712042E2,1.0425051E2,6.8501897E0,7.1628685E1,2.4547062E1,6.397865E2,2.979257E2,3.0016013E3,1.830416E2,5.1153122E1,1.578286E1,2.4535121E2,8.046184E0,6.9744635E2,1.5536572E2,2.6197495E2,3.295844E1,5.5725464E2,7.4301544E2,3.9394638E1,5.134684E1,1.4686891E2,1.21855736E2,1.0170875E2,1.761284E2,4.313502E0,1.8468876E1,2.1833339E0,1.0649914E1,2.2123827E1,3.030765E0,1.6000639E1,1.5808517E1],"tree_param":{"num_deleted":"0","num_feature":"10","num_nodes":"127","size_leaf_vector":"1"}},{"base_weights":[0E0],"categories":[],"categories_nodes":[],"categories_segments":[],"categories_sizes":[],"default_left":[0],"id":8,"left_children":[-1],"loss_changes":[0E0],"parents":[2147483647],"right_children":[-1],"split_conditions":[0E0],"split_indices":[0],"split_type":[0],"sum_hessian":[3.6110485E-1],"tree_param":{"num_deleted":"0","num_feature":"10","num_nodes":"1","size_leaf_vector":"1"}},{"base_weights":[-4.2728186E-3,-3.291989E-1,2.7355477E-2,2.2036664E-2,-7.104369E-1,4.8044488E-2,-3.939504E-1,3.076495E-1,-2.7144536E-2,-8.739774E-1,1.1802003E-1,9.173328E-2,-3.0671205E-2,-2.4563272E-1,-7.111775E-1,3.3139086E-1,-5.4616626E-2,-1.763854E-1,9.229976E-3,1.8778199E-1,-1.0279506E0,1.5274796E-1,-3.6261383E-1,1.9496718E-1,6.254622E-2,5.343382E-2,-2.7266055E-1,-4.009959E-1,-1.4323434E-1,-1.9916357E-1,-8.6079E-1,3.5361752E-1,-4.8311308E-1,-9.390473E-2,-4.5563442E-1,-1.903775E-2,2.0288688E-1,2.4222823E-2,3.75242E-1,-1.2932521E0,-5.059747E-1,2.1991162E-1,-5.9505954E-2,-8.418022E-2,5.0931346E-2,1.6140369E-1,3.381922E-1,1.04284436E-1,9.095951E-3,2.4278384E-2,1.6133603E-1,-3.5044596E-1,4.0394448E-2,-4.4496766E-1,8.9593045E-2,3.278718E-2,-2.0735574E-1,-4.9634144E-1,8.94441E-2,-1.793258E0,-8.2256037E-1,8.997566E-3,2.1039903E-2,1.4337418E-2,-5.031649E-2,-1.100416E-2,1.076018E-2,-5.517819E-2,-9.967185E-3,1.0969363E-3,-4.863621E-2,1.1411632E-3,1.6861582E-2,4.4020596E-3,-3.196193E-2,3.1546403E-3,2.3596464E-2,-3.7047137E-2,-9.6562274E-2,-3.808403E-2,-7.87615E-3,3.972828E-3,1.4115396E-2,1.7662426E-2,-1.1686846E-2,-2.4794372E-2,2.1018077E-2,-1.6288355E-2,8.395658E-3,1.718432E-2,-6.3229017E-3,8.592742E-4,1.0244907E-2,-1.5720486E-3,5.6840032E-3,2.340984E-3,-7.3063397E-3,9.284432E-3,-2.3045646E-5,-2.5494939E-2,-1.1491167E-2,9.122481E-3,-3.767288E-3,-2.5234012E-2,-1.6112033E-3,1.3919999E-2,-7.9299575E-3,7.858E-3,-1.29636545E-2,4.412105E-3,-1.3090785E-2,8.607253E-3,-3.5082873E-2,1.5816133E-2,-2.4823189E-2,-1.1059703E-1,-6.3723936E-3,-2.9143704E-2,-4.904708E-2],"categories":[],"categories_nodes":[],"categories_segments":[],"categories_sizes":[],"default_left":[0,0,0,0,0,0,0,0,0,0,0,0,0,0,0,0,0,0,0,0,0,0,0,0,0,0,0,0,0,0,0,0,0,0,0,0,0,0,0,0,0,0,0,0,0,0,0,0,0,0,0,0,0,0,0,0,0,0,0,0,0,0,0,0,0,0,0,0,0,0,0,0,0,0,0,0,0,0,0,0,0,0,0,0,0,0,0,0,0,0,0,0,0,0,0,0,0,0,0,0,0,0,0,0,0,0,0,0,0,0,0,0,0,0,0,0,0,0,0],"id":9,"left_children":[1,3,5,7,9,11,13,15,17,19,21,23,25,27,29,31,-1,33,35,37,39,41,43,45,47,49,51,53,55,57,59,61,63,65,67,69,71,73,75,77,79,81,83,-1,85,87,89,91,93,95,97,99,101,103,105,107,109,111,113,115,117,-1,-1,-1,-1,-1,-1,-1,-1,-1,-1,-1,-1,-1,-1,-1,-1,-1,-1,-1,-1,-1,-1,-1,-1,-1,-1,-1,-1,-1,-1,-1,-1,-1,-1,-1,-1,-1,-1,-1,-1,-1,-1,-1,-1,-1,-1,-1,-1,-1,-1,-1,-1,-1,-1,-1,-1,-1,-1],"loss_changes":[1.7639856E2,2.0389777E2,1.3636234E2,1.1153778E1,9.902768E1,5.1281208E1,3.4279907E1,4.2387676E0,3.6811714E0,9.989963E1,2.079265E0,2.8880707E1,1.08346176E2,7.905285E0,1.7659805E1,2.2611113E0,0E0,3.017758E0,2.9924316E0,2.3851736E0,7.3128845E1,1.6351826E0,4.7112093E0,1.0103241E1,1.667972E1,1.2424954E1,3.3447975E1,4.3171806E0,3.4293714E0,4.670497E0,4.935684E0,1.2423124E0,1.6942272E0,4.0973964E0,4.76824E0,1.8673958E1,1.6765549E0,1.8672849E0,1.0662975E0,1.22819275E2,1.6024254E1,7.3693943E-1,2.1060765E0,0E0,1.7071723E0,5.4895973E0,1.0652809E0,3.6788628E1,1.3907605E1,1.1958685E1,3.3108044E0,2.1036713E1,4.521187E0,4.472706E0,8.474585E-1,3.013248E0,3.6034517E0,3.7890787E0,3.907079E0,4.0667915E0,6.056366E0,0E0,0E0,0E0,0E0,0E0,0E0,0E0,0E0,0E0,0E0,0E0,0E0,0E0,0E0,0E0,0E0,0E0,0E0,0E0,0E0,0E0,0E0,0E0,0E0,0E0,0E0,0E0,0E0,0E0,0E0,0E0,0E0,0E0,0E0,0E0,0E0,0E0,0E0,0E0,0E0,0E0,0E0,0E0,0E0,0E0,0E0,0E0,0E0,0E0,0E0,0E0,0E0,0E0,0E0,0E0,0E0,0E0,0E0],"parents":[2147483647,0,0,1,1,2,2,3,3,4,4,5,5,6,6,7,7,8,8,9,9,10,10,11,11,12,12,13,13,14,14,15,15,17,17,18,18,19,19,20,20,21,21,22,22,23,23,24,24,25,25,26,26,27,27,28,28,29,29,30,30,31,31,32,32,33,33,34,34,35,35,36,36,37,37,38,38,39,39,40,40,41,41,42,42,44,44,45,45,46,46,47,47,48,48,49,49,50,50,51,51,52,52,53,53,54,54,55,55,56,56,57,57,58,58,59,59,60,60],"right_children":[2,4,6,8,10,12,14,16,18,20,22,24,26,28,30,32,-1,34,36,38,40,42,44,46,48,50,52,54,56,58,60,62,64,66,68,70,72,74,76,78,80,82,84,-1,86,88,90,92,94,96,98,100,102,104,106,108,110,112,114,116,118,-1,-1,-1,-1,-1,-1,-1,-1,-1,-1,-1,-1,-1,-1,-1,-1,-1,-1,-1,-1,-1,-1,-1,-1,-1,-1,-1,-1,-1,-1,-1,-1,-1,-1,-1,-1,-1,-1,-1,-1,-1,-1,-1,-1,-1,-1,-1,-1,-1,-1,-1,-1,-1,-1,-1,-1,-1,-1],"split_conditions":[1E0,1E0,9.6E1,5E0,4E0,5.5E1,1.01E2,1E1,3E0,3E0,1E1,4.1E1,4.4E1,2.5E1,4E0,5E0,-5.4616626E-2,9E0,1.1E1,1.3E1,7E0,6E1,2E0,1.3E1,6E0,1.3E1,1.9E1,1.7E1,2.9E1,1E0,1.06E2,5E0,4E1,8E0,1.1E1,1E1,4.6E1,7.7E1,3.9E1,5E0,1E1,6E0,2.9E1,-8.418022E-2,7E0,2.6E1,5E0,3E0,1.2E1,9E0,4E1,6.4E1,3E0,1.8E1,5E0,1.3E1,2E0,5E0,3.9E1,1.2E1,1.15E2,8.997566E-3,2.1039903E-2,1.4337418E-2,-5.031649E-2,-1.100416E-2,1.076018E-2,-5.517819E-2,-9.967185E-3,1.0969363E-3,-4.863621E-2,1.1411632E-3,1.6861582E-2,4.4020596E-3,-3.196193E-2,3.1546403E-3,2.3596464E-2,-3.7047137E-2,-9.6562274E-2,-3.808403E-2,-7.87615E-3,3.972828E-3,1.4115396E-2,1.7662426E-2,-1.1686846E-2,-2.4794372E-2,2.1018077E-2,-1.6288355E-2,8.395658E-3,1.718432E-2,-6.3229017E-3,8.592742E-4,1.0244907E-2,-1.5720486E-3,5.6840032E-3,2.340984E-3,-7.3063397E-3,9.284432E-3,-2.3045646E-5,-2.5494939E-2,-1.1491167E-2,9.122481E-3,-3.767288E-3,-2.5234012E-2,-1.6112033E-3,1.3919999E-2,-7.9299575E-3,7.858E-3,-1.29636545E-2,4.412105E-3,-1.3090785E-2,8.607253E-3,-3.5082873E-2,1.5816133E-2,-2.4823189E-2,-1.1059703E-1,-6.3723936E-3,-2.9143704E-2,-4.904708E-2],"split_indices":[3,7,5,2,6,5,5,6,9,6,2,4,4,4,3,1,0,2,2,9,2,5,1,3,6,3,9,3,4,7,5,9,4,2,2,2,4,5,4,2,2,9,4,0,6,4,1,6,3,2,4,5,1,9,9,3,1,2,4,3,5,0,0,0,0,0,0,0,0,0,0,0,0,0,0,0,0,0,0,0,0,0,0,0,0,0,0,0,0,0,0,0,0,0,0,0,0,0,0,0,0,0,0,0,0,0,0,0,0,0,0,0,0,0,0,0,0,0,0],"split_type":[0,0,0,0,0,0,0,0,0,0,0,0,0,0,0,0,0,0,0,0,0,0,0,0,0,0,0,0,0,0,0,0,0,0,0,0,0,0,0,0,0,0,0,0,0,0,0,0,0,0,0,0,0,0,0,0,0,0,0,0,0,0,0,0,0,0,0,0,0,0,0,0,0,0,0,0,0,0,0,0,0,0,0,0,0,0,0,0,0,0,0,0,0,0,0,0,0,0,0,0,0,0,0,0,0,0,0,0,0,0,0,0,0,0,0,0,0,0,0],"sum_hessian":[1.7162762E4,1.521595E3,1.5641167E4,7.9245056E2,7.291445E2,1.4909876E4,7.3129126E2,1.1563886E2,6.7681165E2,6.0889197E2,1.20252495E2,9.588114E3,5.321761E3,4.9951862E2,2.3177267E2,1.1446108E2,1.1777786E0,1.3187854E2,5.4493317E2,7.7088715E1,5.318033E2,1.1278544E2,7.4670553E0,2.1120754E3,7.476039E3,3.9497708E3,1.3719901E3,1.9728038E2,3.0223822E2,5.2937508E1,1.7883517E2,1.1197139E2,2.4896944E0,1.02839516E2,2.903902E1,4.7630893E2,6.862421E1,4.1771893E1,3.5316826E1,3.5161334E2,1.8018991E2,8.564777E1,2.7137665E1,1.0480647E0,6.4189906E0,1.7128187E3,3.992567E2,4.1974136E3,3.2786252E3,3.1105247E3,8.392462E2,1.0988398E3,2.7315027E2,1.8113788E2,1.61425E1,8.083217E1,2.2140607E2,2.5726885E1,2.7210623E1,5.2351785E0,1.7359999E2,3.2258812E1,7.971258E1,1.1902745E0,1.2994199E0,7.3233505E1,2.9606016E1,7.2937536E0,2.1745268E1,4.576235E2,1.868544E1,2.9822584E1,3.880162E1,3.889763E1,2.8742638E0,8.743025E0,2.65738E1,1.896206E2,1.6199275E2,1.03241684E2,7.694823E1,2.7044218E1,5.8603554E1,7.750114E0,1.938755E1,2.450111E0,3.9688797E0,2.1937824E1,1.6908809E3,3.9484818E2,4.408527E0,2.2504348E3,1.9469789E3,2.363305E3,9.153204E2,2.747773E3,3.6275177E2,7.293253E2,1.0992089E2,4.7185733E2,6.2698254E2,1.22375206E2,1.5077509E2,1.5804971E2,2.3088154E1,9.098954E0,7.043546E0,5.7014595E1,2.381757E1,3.434857E1,1.870575E2,6.0829673E0,1.9643917E1,1.994682E1,7.2638044E0,3.921665E0,1.3135134E0,7.093327E1,1.0266672E2],"tree_param":{"num_deleted":"0","num_feature":"10","num_nodes":"119","size_leaf_vector":"1"}},{"base_weights":[-3.4012091E-3,-1.7368884E-1,1.14561275E-1,2.456766E-1,-2.4637486E-1,1.2767854E-2,3.179271E-1,-7.965435E-2,6.0070735E-1,-3.665219E-1,-1.7437619E-1,3.421778E-1,-4.7594644E-3,2.8099322E-1,1.1241544E0,-3.878298E-1,-2.3545308E-2,7.3640805E-1,-2.019407E-1,-3.208477E-1,-4.272701E-1,2.8842363E-1,-1.8842278E-1,8.49613E-2,6.3173676E-1,-1.2098089E-1,2.9408732E-2,1.6758089E-1,4.768763E-1,7.231477E-1,1.5726738E0,-4.3941364E-1,9.4676614E-2,5.653659E-2,-1.4171915E-1,-2.3092264E-1,8.4156245E-1,-1.21933855E-1,-2.4562133E-2,-7.360057E-2,-3.3571216E-1,-7.927595E-2,-4.3053398E-1,4.8529014E-2,4.6255004E-1,-2.3687318E-1,-1.2699805E-1,4.571678E-2,9.700909E-1,8.521135E-1,-1.3198306E-1,-1.8021992E-1,-3.0459957E-2,7.440019E-2,-9.449644E-2,8.172667E-1,1.3428515E-1,2.7946535E-1,7.988598E-1,5.1960045E-1,1.096812E0,1.0659615E0,1.6916578E0,-2.4425212E-2,1.104027E-4,-8.101813E-3,3.3167224E-2,8.271776E-3,-9.191883E-3,-1.6841723E-2,6.543606E-3,-1.6624164E-2,3.505605E-2,5.2323725E-2,2.1444218E-2,-1.7117074E-2,-6.328399E-4,-9.525269E-3,9.838796E-3,-1.6858462E-2,3.0119246E-2,-1.5039587E-2,1.4284946E-2,-2.174988E-2,-1.0395571E-2,6.5096444E-3,-1.1038233E-2,9.791217E-3,4.1005958E-2,-1.4236321E-2,-8.622832E-3,-8.24111E-3,-4.1769232E-4,4.6284623E-3,-1.1619551E-2,-1.4440444E-2,6.2470384E-2,-2.2305753E-3,5.496493E-2,-1.3989098E-2,4.5571066E-3,-5.0218175E-3,-1.2106591E-2,-8.583959E-3,8.5200585E-4,-1.943484E-3,5.208515E-3,-1.4218861E-2,-2.0152642E-3,1.1759444E-2,7.070608E-2,4.0455176E-3,2.1386404E-2,7.0674643E-3,1.91638E-2,5.425449E-2,2.433533E-2,3.638012E-2,-3.2521092E-4,9.4460316E-2,3.7534304E-2,2.8575826E-2,7.756771E-2,9.438329E-2,6.330814E-2],"categories":[],"categories_nodes":[],"categories_segments":[],"categories_sizes":[],"default_left":[0,0,0,0,0,0,0,0,0,0,0,0,0,0,0,0,0,0,0,0,0,0,0,0,0,0,0,0,0,0,0,0,0,0,0,0,0,0,0,0,0,0,0,0,0,0,0,0,0,0,0,0,0,0,0,0,0,0,0,0,0,0,0,0,0,0,0,0,0,0,0,0,0,0,0,0,0,0,0,0,0,0,0,0,0,0,0,0,0,0,0,0,0,0,0,0,0,0,0,0,0,0,0,0,0,0,0,0,0,0,0,0,0,0,0,0,0,0,0,0,0,0,0,0,0],"id":10,"left_children":[1,3,5,7,9,11,13,15,17,19,21,23,25,27,29,31,33,35,37,39,41,43,45,47,49,51,53,55,57,59,61,63,65,67,69,71,73,75,-1,77,79,81,83,85,87,89,91,93,95,97,99,101,103,105,107,109,111,113,115,117,119,121,123,-1,-1,-1,-1,-1,-1,-1,-1,-1,-1,-1,-1,-1,-1,-1,-1,-1,-1,-1,-1,-1,-1,-1,-1,-1,-1,-1,-1,-1,-1,-1,-1,-1,-1,-1,-1,-1,-1,-1,-1,-1,-1,-1,-1,-1,-1,-1,-1,-1,-1,-1,-1,-1,-1,-1,-1,-1,-1,-1,-1,-1,-1],"loss_changes":[3.4502136E2,2.1431819E2,2.1004994E2,1.2003479E2,5.1762238E1,3.9050083E1,1.0047089E2,9.379588E0,5.426619E1,6.089264E0,2.4420013E1,2.5395252E1,2.5507797E1,7.184909E1,2.5469406E1,2.1215324E0,4.3650765E0,4.3447067E1,1.6213977E0,4.6977844E0,1.0563202E0,4.6060867E0,1.0797745E1,6.2813964E0,2.7139801E1,7.820215E0,2.7680416E1,4.4280613E1,7.5206055E1,5.511215E0,2.3554688E0,1.6416225E0,1.4058412E0,7.2327795E0,9.950475E0,4.2538605E0,3.2001373E1,1.3982179E0,0E0,2.381288E0,1.8594971E0,9.0626365E-1,8.544769E-1,1.0781525E0,5.951462E0,6.21714E0,7.2080097E0,2.3073025E0,3.0620484E0,2.7702423E1,1.2399633E0,4.331875E0,3.8832788E0,1.2286154E1,1.3600037E1,3.4354813E1,3.0558052E1,1.0515587E1,3.9722656E1,5.8766623E0,6.0677986E0,2.910303E0,2.126587E0,0E0,0E0,0E0,0E0,0E0,0E0,0E0,0E0,0E0,0E0,0E0,0E0,0E0,0E0,0E0,0E0,0E0,0E0,0E0,0E0,0E0,0E0,0E0,0E0,0E0,0E0,0E0,0E0,0E0,0E0,0E0,0E0,0E0,0E0,0E0,0E0,0E0,0E0,0E0,0E0,0E0,0E0,0E0,0E0,0E0,0E0,0E0,0E0,0E0,0E0,0E0,0E0,0E0,0E0,0E0,0E0,0E0,0E0,0E0,0E0,0E0,0E0],"parents":[2147483647,0,0,1,1,2,2,3,3,4,4,5,5,6,6,7,7,8,8,9,9,10,10,11,11,12,12,13,13,14,14,15,15,16,16,17,17,18,18,19,19,20,20,21,21,22,22,23,23,24,24,25,25,26,26,27,27,28,28,29,29,30,30,31,31,32,32,33,33,34,34,35,35,36,36,37,37,39,39,40,40,41,41,42,42,43,43,44,44,45,45,46,46,47,47,48,48,49,49,50,50,51,51,52,52,53,53,54,54,55,55,56,56,57,57,58,58,59,59,60,60,61,61,62,62],"right_children":[2,4,6,8,10,12,14,16,18,20,22,24,26,28,30,32,34,36,38,40,42,44,46,48,50,52,54,56,58,60,62,64,66,68,70,72,74,76,-1,78,80,82,84,86,88,90,92,94,96,98,100,102,104,106,108,110,112,114,116,118,120,122,124,-1,-1,-1,-1,-1,-1,-1,-1,-1,-1,-1,-1,-1,-1,-1,-1,-1,-1,-1,-1,-1,-1,-1,-1,-1,-1,-1,-1,-1,-1,-1,-1,-1,-1,-1,-1,-1,-1,-1,-1,-1,-1,-1,-1,-1,-1,-1,-1,-1,-1,-1,-1,-1,-1,-1,-1,-1,-1,-1,-1,-1,-1],"split_conditions":[4E-1,1E0,5.5E1,1E0,9E-2,1E0,1.01E2,5E0,4E0,8E-2,2.2E1,1E0,6.4E-1,4E1,8.4E-1,4.116E3,8E0,3E0,6.3E1,2.4E1,2.1E1,2.03E2,5.5E1,8.88E3,4E0,4E0,1.2E1,1E0,9.8E-1,3.5E1,9.1E1,7E0,7.7E1,5E0,1E1,7.7E1,7E0,8E-2,-2.4562133E-2,1.313E3,8.7E1,1.3E1,6.9E1,1.5E1,2.5E-1,2.5E-1,4.3E1,8.6E-1,4.8E-1,3E0,7.3E-1,3E0,4.1E1,4.1E1,4.2E1,1E0,9.1E1,5.6E-1,9E0,7E0,3E0,1.1E1,3.6E1,-2.4425212E-2,1.104027E-4,-8.101813E-3,3.3167224E-2,8.271776E-3,-9.191883E-3,-1.6841723E-2,6.543606E-3,-1.6624164E-2,3.505605E-2,5.2323725E-2,2.1444218E-2,-1.7117074E-2,-6.328399E-4,-9.525269E-3,9.838796E-3,-1.6858462E-2,3.0119246E-2,-1.5039587E-2,1.4284946E-2,-2.174988E-2,-1.0395571E-2,6.5096444E-3,-1.1038233E-2,9.791217E-3,4.1005958E-2,-1.4236321E-2,-8.622832E-3,-8.24111E-3,-4.1769232E-4,4.6284623E-3,-1.1619551E-2,-1.4440444E-2,6.2470384E-2,-2.2305753E-3,5.496493E-2,-1.3989098E-2,4.5571066E-3,-5.0218175E-3,-1.2106591E-2,-8.583959E-3,8.5200585E-4,-1.943484E-3,5.208515E-3,-1.4218861E-2,-2.0152642E-3,1.1759444E-2,7.070608E-2,4.0455176E-3,2.1386404E-2,7.0674643E-3,1.91638E-2,5.425449E-2,2.433533E-2,3.638012E-2,-3.2521092E-4,9.4460316E-2,3.7534304E-2,2.8575826E-2,7.756771E-2,9.438329E-2,6.330814E-2],"split_indices":[0,3,5,7,0,3,5,2,6,0,4,7,0,4,0,8,2,6,4,4,4,8,5,8,6,6,3,3,0,4,8,6,5,6,2,5,2,0,0,8,4,3,4,3,0,0,4,0,0,6,0,6,4,4,4,7,5,0,3,2,6,3,4,0,0,0,0,0,0,0,0,0,0,0,0,0,0,0,0,0,0,0,0,0,0,0,0,0,0,0,0,0,0,0,0,0,0,0,0,0,0,0,0,0,0,0,0,0,0,0,0,0,0,0,0,0,0,0,0,0,0,0,0,0,0],"split_type":[0,0,0,0,0,0,0,0,0,0,0,0,0,0,0,0,0,0,0,0,0,0,0,0,0,0,0,0,0,0,0,0,0,0,0,0,0,0,0,0,0,0,0,0,0,0,0,0,0,0,0,0,0,0,0,0,0,0,0,0,0,0,0,0,0,0,0,0,0,0,0,0,0,0,0,0,0,0,0,0,0,0,0,0,0,0,0,0,0,0,0,0,0,0,0,0,0,0,0,0,0,0,0,0,0,0,0,0,0,0,0,0,0,0,0,0,0,0,0,0,0,0,0,0,0],"sum_hessian":[1.7173887E4,7.027989E3,1.0145898E4,1.0378254E3,5.9901636E3,6.7621914E3,3.3837073E3,5.4196954E2,4.958559E2,2.2430337E3,3.7471296E3,3.4069107E2,6.4215E3,3.2367766E3,1.4693062E2,8.256643E1,4.5940314E2,4.2421756E2,7.163833E1,1.2839581E3,9.590757E2,1.09804726E2,3.637325E3,1.8110666E2,1.5958443E2,1.4583737E3,4.9631265E3,2.0510916E3,1.185685E3,7.89533E1,6.7977325E1,7.467263E1,7.8937974E0,2.7414624E2,1.8525687E2,4.1476177E1,3.827414E2,5.7232174E1,1.4406159E1,7.315141E1,1.2108066E3,9.146581E0,9.4992914E2,4.671878E1,6.3085945E1,2.0318179E3,1.6055072E3,1.7442473E2,6.681924E0,1.2375757E2,3.582686E1,8.8090063E2,5.774731E2,3.6413193E3,1.3218071E3,9.884399E1,1.9522476E3,7.36189E2,4.4949606E2,5.2658848E1,2.629445E1,1.4820538E1,5.3156784E1,6.710688E1,7.565749E0,5.9313E0,1.9624976E0,1.888855E2,8.526076E1,1.0783505E2,7.742182E1,3.798085E1,3.4953284E0,2.5472426E2,1.2801712E2,1.8263205E1,3.8968967E1,5.1276146E1,2.1875263E1,1.2095685E3,1.2381473E0,5.80138E0,3.3452008E0,9.303221E2,1.9607037E1,3.6244194E1,1.0474588E1,3.7019333E1,2.6066608E1,1.163825E3,8.679929E2,1.2171022E3,3.88405E2,1.498473E2,2.4577433E1,1.2071648E0,5.474759E0,2.6919598E1,9.6837975E1,2.1398497E1,1.4428363E1,3.8604318E2,4.9485742E2,1.446902E2,4.327829E2,7.577839E2,2.8835354E3,2.92537E2,1.0292701E3,5.074722E1,4.8096764E1,1.6528785E3,2.9936905E2,3.169118E2,4.192772E2,2.3319287E2,2.1630319E2,3.7463997E1,1.5194852E1,6.6385393E0,1.965591E1,8.420465E0,6.4000726E0,3.4039696E1,1.911709E1],"tree_param":{"num_deleted":"0","num_feature":"10","num_nodes":"125","size_leaf_vector":"1"}},{"base_weights":[0E0],"categories":[],"categories_nodes":[],"categories_segments":[],"categories_sizes":[],"default_left":[0],"id":11,"left_children":[-1],"loss_changes":[0E0],"parents":[2147483647],"right_children":[-1],"split_conditions":[0E0],"split_indices":[0],"split_type":[0],"sum_hessian":[3.6133456E-1],"tree_param":{"num_deleted":"0","num_feature":"10","num_nodes":"1","size_leaf_vector":"1"}},{"base_weights":[-3.9335914E-4,1.6592559E-1,-1.1399717E-1,-2.3317897E-1,2.374207E-1,-1.5496329E-2,-3.067624E-1,8.9720376E-2,-5.6354356E-1,3.7102044E-1,1.5802304E-1,-3.288005E-1,1.906788E-3,-1.4677854E-1,-4.6057323E-1,3.389877E-1,4.718753E-2,-6.8369776E-1,2.2001758E-1,3.2513857E-1,4.3285066E-1,1.940189E-1,-5.577554E-2,-1.0333877E-1,-5.686906E-1,1.24427006E-1,-3.3776265E-2,-6.4596385E-1,-1.05420664E-1,-4.1803062E-1,-1.2815188E0,4.037305E-1,-2.2497429E-1,1.440245E-1,-6.0083244E-2,2.1285017E-1,-7.6847947E-1,4.6074265E-1,9.492088E-2,4.8631575E-2,3.4258187E-1,4.3757644E-1,1.854073E-1,2.3450823E-1,1.3879248E-1,-3.66931E-1,1.6385244E-2,-3.1011943E-2,-4.643484E-1,-7.60907E-1,1.2144117E-1,1.8783405E-1,3.008003E-2,-7.789595E-2,8.930271E-2,-1.9160697E-1,-1.062824E0,-4.9471468E-2,-4.6812683E-1,-2.3437303E-1,-6.5637016E-1,-6.2157005E-1,-1.3580192E0,2.1515723E-2,-2.856707E-2,2.1768594E-2,-5.7567682E-2,1.0493076E-2,-2.705529E-3,-6.7573166E-3,8.8749025E-3,-4.8870977E-2,1.5063127E-2,-4.7572676E-2,-1.8393826E-2,4.966893E-4,2.5036106E-2,-1.40672E-2,9.086279E-3,7.654843E-3,-1.2919364E-2,1.7203955E-2,-3.222933E-2,1.2646427E-3,2.1968635E-2,1.8067243E-2,-2.1582594E-2,1.25480015E-2,6.0455995E-3,9.15181E-3,3.7868319E-3,-1.3285681E-2,-3.7222054E-2,7.362102E-3,-5.5148676E-3,-7.94537E-4,-2.9748762E-2,-7.172806E-2,-4.7265887E-3,7.1655633E-3,-5.0457723E-2,1.2589633E-2,-9.435241E-3,6.15548E-3,1.1897102E-2,9.308297E-3,-2.0272827E-3,1.1364038E-4,-5.716822E-3,1.351798E-2,1.8907444E-3,-2.6372394E-2,-1.5463213E-3,-6.0536712E-2,-5.5790204E-3,1.0742139E-3,-7.8040273E-3,-7.2475E-3,-2.947229E-2,-9.065629E-3,-3.2724917E-2,-2.1489544E-2,-3.802669E-2,-9.023722E-3,-6.520238E-2,-7.2416835E-2,-4.1271206E-2],"categories":[],"categories_nodes":[],"categories_segments":[],"categories_sizes":[],"default_left":[0,0,0,0,0,0,0,0,0,0,0,0,0,0,0,0,0,0,0,0,0,0,0,0,0,0,0,0,0,0,0,0,0,0,0,0,0,0,0,0,0,0,0,0,0,0,0,0,0,0,0,0,0,0,0,0,0,0,0,0,0,0,0,0,0,0,0,0,0,0,0,0,0,0,0,0,0,0,0,0,0,0,0,0,0,0,0,0,0,0,0,0,0,0,0,0,0,0,0,0,0,0,0,0,0,0,0,0,0,0,0,0,0,0,0,0,0,0,0,0,0,0,0,0,0,0,0],"id":12,"left_children":[1,3,5,7,9,11,13,15,17,19,21,23,25,27,29,31,33,35,37,39,41,43,45,47,49,51,53,55,57,59,61,63,65,67,69,71,73,75,77,79,81,83,85,87,89,91,93,95,97,99,101,103,105,107,109,111,113,115,117,119,121,123,125,-1,-1,-1,-1,-1,-1,-1,-1,-1,-1,-1,-1,-1,-1,-1,-1,-1,-1,-1,-1,-1,-1,-1,-1,-1,-1,-1,-1,-1,-1,-1,-1,-1,-1,-1,-1,-1,-1,-1,-1,-1,-1,-1,-1,-1,-1,-1,-1,-1,-1,-1,-1,-1,-1,-1,-1,-1,-1,-1,-1,-1,-1,-1,-1],"loss_changes":[3.2489798E2,1.9918231E2,1.939875E2,1.1320172E2,6.27258E1,3.6874218E1,8.495264E1,5.680278E0,4.9524902E1,6.116272E0,2.8595337E1,1.9189766E1,2.8018631E1,3.4926155E1,6.0969635E1,2.9443645E0,4.7883615E0,3.474475E1,2.078787E0,6.109268E0,1.0140076E0,7.076538E0,1.2041167E1,4.807797E0,2.2936115E1,8.641804E0,2.6958858E1,2.4323025E1,3.176668E1,7.319989E1,3.5118408E0,2.0723257E0,5.8172965E0,3.1697068E0,3.9297042E0,4.5131483E0,3.013263E1,4.2474985E-1,1.6071272E0,2.494235E0,1.9873657E0,6.6885376E-1,2.249701E0,3.3951569E0,3.7449493E0,3.659504E0,7.2449512E0,1.311755E0,1.0898691E1,3.040944E1,1.5989989E0,2.773882E0,6.4254827E0,1.06754875E1,1.2203465E1,3.3931007E0,9.335884E0,1.0278244E1,8.11808E0,2.1014603E1,1.6872864E1,3.0178423E0,2.4831085E0,0E0,0E0,0E0,0E0,0E0,0E0,0E0,0E0,0E0,0E0,0E0,0E0,0E0,0E0,0E0,0E0,0E0,0E0,0E0,0E0,0E0,0E0,0E0,0E0,0E0,0E0,0E0,0E0,0E0,0E0,0E0,0E0,0E0,0E0,0E0,0E0,0E0,0E0,0E0,0E0,0E0,0E0,0E0,0E0,0E0,0E0,0E0,0E0,0E0,0E0,0E0,0E0,0E0,0E0,0E0,0E0,0E0,0E0,0E0,0E0,0E0,0E0,0E0,0E0],"parents":[2147483647,0,0,1,1,2,2,3,3,4,4,5,5,6,6,7,7,8,8,9,9,10,10,11,11,12,12,13,13,14,14,15,15,16,16,17,17,18,18,19,19,20,20,21,21,22,22,23,23,24,24,25,25,26,26,27,27,28,28,29,29,30,30,31,31,32,32,33,33,34,34,35,35,36,36,37,37,38,38,39,39,40,40,41,41,42,42,43,43,44,44,45,45,46,46,47,47,48,48,49,49,50,50,51,51,52,52,53,53,54,54,55,55,56,56,57,57,58,58,59,59,60,60,61,61,62,62],"right_children":[2,4,6,8,10,12,14,16,18,20,22,24,26,28,30,32,34,36,38,40,42,44,46,48,50,52,54,56,58,60,62,64,66,68,70,72,74,76,78,80,82,84,86,88,90,92,94,96,98,100,102,104,106,108,110,112,114,116,118,120,122,124,126,-1,-1,-1,-1,-1,-1,-1,-1,-1,-1,-1,-1,-1,-1,-1,-1,-1,-1,-1,-1,-1,-1,-1,-1,-1,-1,-1,-1,-1,-1,-1,-1,-1,-1,-1,-1,-1,-1,-1,-1,-1,-1,-1,-1,-1,-1,-1,-1,-1,-1,-1,-1,-1,-1,-1,-1,-1,-1,-1,-1,-1,-1,-1,-1],"split_conditions":[4E-1,1E0,5.5E1,1E0,9E-2,1E0,7.5E-1,5E0,4E0,8E-2,8.9E1,1E0,6.4E-1,1E0,1.01E2,7E0,1E-1,3E0,8E-2,2.4E1,5E0,2.5E-1,2.2E1,1E1,4E0,4E0,1.2E1,1E0,1E2,3.9E1,8.3E-1,5E0,4.5E1,4E0,4E0,2.8E1,7E0,8.196721E-3,2E0,2.3E1,8.6E1,2E1,7E0,7.4E1,4E0,3.2E-1,4E0,5E0,1.1E1,3E0,8.1E-1,3E0,4.3E1,4.5E1,4.2E1,6.4E1,6E0,3.8E1,5E0,9.2E1,9.9E-1,3.7E1,8E0,2.1515723E-2,-2.856707E-2,2.1768594E-2,-5.7567682E-2,1.0493076E-2,-2.705529E-3,-6.7573166E-3,8.8749025E-3,-4.8870977E-2,1.5063127E-2,-4.7572676E-2,-1.8393826E-2,4.966893E-4,2.5036106E-2,-1.40672E-2,9.086279E-3,7.654843E-3,-1.2919364E-2,1.7203955E-2,-3.222933E-2,1.2646427E-3,2.1968635E-2,1.8067243E-2,-2.1582594E-2,1.25480015E-2,6.0455995E-3,9.15181E-3,3.7868319E-3,-1.3285681E-2,-3.7222054E-2,7.362102E-3,-5.5148676E-3,-7.94537E-4,-2.9748762E-2,-7.172806E-2,-4.7265887E-3,7.1655633E-3,-5.0457723E-2,1.2589633E-2,-9.435241E-3,6.15548E-3,1.1897102E-2,9.308297E-3,-2.0272827E-3,1.1364038E-4,-5.716822E-3,1.351798E-2,1.8907444E-3,-2.6372394E-2,-1.5463213E-3,-6.0536712E-2,-5.5790204E-3,1.0742139E-3,-7.8040273E-3,-7.2475E-3,-2.947229E-2,-9.065629E-3,-3.2724917E-2,-2.1489544E-2,-3.802669E-2,-9.023722E-3,-6.520238E-2,-7.2416835E-2,-4.1271206E-2],"split_indices":[0,3,5,7,0,3,0,2,6,0,5,7,0,3,5,6,0,6,0,4,1,0,4,2,6,6,3,7,5,4,0,1,4,1,1,4,2,0,1,4,4,4,6,5,6,0,6,1,2,6,0,6,4,4,4,5,6,4,3,5,0,4,6,0,0,0,0,0,0,0,0,0,0,0,0,0,0,0,0,0,0,0,0,0,0,0,0,0,0,0,0,0,0,0,0,0,0,0,0,0,0,0,0,0,0,0,0,0,0,0,0,0,0,0,0,0,0,0,0,0,0,0,0,0,0,0,0],"split_type":[0,0,0,0,0,0,0,0,0,0,0,0,0,0,0,0,0,0,0,0,0,0,0,0,0,0,0,0,0,0,0,0,0,0,0,0,0,0,0,0,0,0,0,0,0,0,0,0,0,0,0,0,0,0,0,0,0,0,0,0,0,0,0,0,0,0,0,0,0,0,0,0,0,0,0,0,0,0,0,0,0,0,0,0,0,0,0,0,0,0,0,0,0,0,0,0,0,0,0,0,0,0,0,0,0,0,0,0,0,0,0,0,0,0,0,0,0,0,0,0,0,0,0,0,0,0,0],"sum_hessian":[1.7193402E4,6.9775806E3,1.0215821E4,1.0597141E3,5.9178667E3,6.761733E3,3.4540884E3,5.3628046E2,5.234337E2,2.2045955E3,3.713271E3,3.5488736E2,6.4068457E3,1.6940273E3,1.760061E3,7.715238E1,4.5912805E2,4.5395068E2,6.948307E1,1.2691019E3,9.354936E2,3.178261E3,5.350102E2,1.8368294E2,1.7120442E2,1.4445154E3,4.96233E3,1.284944E2,1.565533E3,1.6747806E3,8.5280365E1,6.946224E1,7.690142E0,2.4111903E2,2.18009E2,3.9088425E1,4.1486224E2,2.2842974E1,4.6640095E1,7.553451E1,1.1935674E3,9.172079E2,1.8285658E1,1.8319312E3,1.3463297E3,9.994877E1,4.350614E2,1.5392966E2,2.9753284E1,1.3382794E2,3.7376484E1,8.633198E2,5.8119556E2,3.6531616E3,1.3091687E3,6.2180443E1,6.631396E1,1.3572993E3,2.0823363E2,9.470186E2,7.27762E2,9.806579E0,7.547379E1,6.8162575E1,1.2996694E0,4.799189E0,2.8909528E0,1.8093736E2,6.018167E1,1.6599466E2,5.2014355E1,2.007452E0,3.708097E1,2.8384293E2,1.3101933E2,1.962482E0,2.0880491E1,8.32281E0,3.8317284E1,5.6732296E1,1.8802212E1,1.1924104E3,1.1570553E0,4.0441833E0,9.131637E2,1.4551192E1,3.7344663E0,1.5991254E3,2.3280582E2,7.900684E2,5.5626135E2,8.016021E1,1.9788565E1,2.1392514E2,2.2113628E2,1.5091153E2,3.018122E0,7.41664E0,2.2336643E1,2.8918327E1,1.0490961E2,2.6448551E1,1.0927935E1,3.7822446E2,4.8509534E2,1.8054565E2,4.0064993E2,1.1419093E3,2.5112522E3,2.889224E2,1.0202463E3,1.9383694E1,4.279675E1,5.715418E1,9.15978E0,8.153955E2,5.419039E2,5.743351E1,1.5080013E2,8.420962E2,1.0492245E2,2.3081459E2,4.969474E2,6.724726E0,3.0818524E0,6.3060574E1,1.2413216E1],"tree_param":{"num_deleted":"0","num_feature":"10","num_nodes":"127","size_leaf_vector":"1"}},{"base_weights":[-2.6929495E-3,-1.6485609E-1,1.0825035E-1,-2.8023666E-1,-9.1141514E-2,7.148714E-3,3.0532232E-1,-2.1187371E-1,-3.9613068E-1,-1.13518484E-1,1.9920814E-1,-9.505393E-2,3.349647E-2,2.7240282E-1,1.0074003E0,-3.153692E-1,-1.055704E-1,3.531262E-2,-3.9797837E-1,-1.7425047E-1,-5.1718965E-2,3.8531974E-1,5.5940975E-2,-1.390127E-1,7.244637E-2,-7.941157E-2,5.8274318E-2,1.5553069E-1,4.5081973E-1,6.812286E-1,1.465083E0,-1.4065328E-1,-3.453248E-1,-3.0121133E-2,-2.6001292E-1,-3.9975122E-1,2.1161838E-2,-2.1497352E-1,-1.153201E-1,2.1589157E-1,-7.3161334E-2,3.2918796E-2,5.416244E-1,-1.4386398E-1,1.20788276E-1,-1.6990155E-1,-7.18555E-2,2.5422955E-2,3.2398152E-1,-2.0662613E-2,-1.4300194E-1,5.3088393E-2,2.324721E-1,1.0049855E-1,4.4864663E-1,1.9362846E-1,6.5672195E-1,7.7461904E-1,1.2304616E-1,1.0891017E0,1.7082692E0,-1.3055863E-2,3.3032799E-3,-1.7427398E-2,1.3135058E-2,-1.3975355E-2,3.9438936E-3,-1.0633873E-3,-1.4754747E-2,-1.3606575E-2,-2.0677913E-2,1.6973577E-2,-1.1027732E-2,-8.181175E-3,-1.4519511E-3,1.9502802E-2,-1.1235796E-3,-8.452086E-3,-2.1671925E-3,1.1104367E-2,-1.5106136E-2,-7.0813904E-3,3.0465437E-2,-1.54209705E-2,1.0436523E-2,3.1016492E-3,2.8715694E-2,-6.107667E-3,-1.2089482E-2,1.2158162E-2,-5.1700696E-3,-7.15424E-3,4.251338E-3,2.6387716E-2,-1.7282441E-3,-6.304856E-3,1.3919158E-3,-1.028739E-2,-3.6056612E-3,3.919859E-3,9.070947E-4,1.4845915E-3,4.9991332E-2,-3.061456E-3,6.8278634E-3,1.4980619E-2,3.192013E-2,1.5102103E-2,3.7792046E-3,2.1468194E-2,3.860301E-2,1.8254943E-2,5.063959E-2,-8.618408E-3,6.514192E-2,6.407387E-2,9.826773E-3,9.516444E-2,4.3553513E-2],"categories":[],"categories_nodes":[],"categories_segments":[],"categories_sizes":[],"default_left":[0,0,0,0,0,0,0,0,0,0,0,0,0,0,0,0,0,0,0,0,0,0,0,0,0,0,0,0,0,0,0,0,0,0,0,0,0,0,0,0,0,0,0,0,0,0,0,0,0,0,0,0,0,0,0,0,0,0,0,0,0,0,0,0,0,0,0,0,0,0,0,0,0,0,0,0,0,0,0,0,0,0,0,0,0,0,0,0,0,0,0,0,0,0,0,0,0,0,0,0,0,0,0,0,0,0,0,0,0,0,0,0,0,0,0,0,0,0,0],"id":13,"left_children":[1,3,5,7,9,11,13,15,17,19,21,23,25,27,29,31,33,-1,35,37,39,41,43,45,47,49,51,53,55,57,59,61,63,65,67,69,-1,71,73,75,77,79,81,83,85,87,89,91,93,95,97,99,101,103,105,107,109,111,113,115,117,-1,-1,-1,-1,-1,-1,-1,-1,-1,-1,-1,-1,-1,-1,-1,-1,-1,-1,-1,-1,-1,-1,-1,-1,-1,-1,-1,-1,-1,-1,-1,-1,-1,-1,-1,-1,-1,-1,-1,-1,-1,-1,-1,-1,-1,-1,-1,-1,-1,-1,-1,-1,-1,-1,-1,-1,-1,-1],"loss_changes":[3.0950244E2,5.941266E1,2.0352138E2,2.1496368E1,2.7737007E1,1.818591E1,7.977466E1,1.8839043E1,2.337143E0,1.4857582E1,8.12653E0,1.020223E1,1.5025328E1,6.894496E1,2.2104324E1,4.497757E0,9.870158E0,0E0,1.6372986E0,4.768505E0,1.1289563E1,7.294239E0,2.2697687E0,2.2630196E0,3.403129E0,3.608295E0,3.96564E0,3.223785E1,6.921594E1,4.712475E0,3.9479828E0,3.2252455E0,1.5434265E0,1.5533276E1,2.3228455E0,1.6613464E0,0E0,3.7262383E0,3.40594E0,6.069717E0,5.1950064E0,2.7197182E0,4.3360596E0,2.562296E0,3.4760969E0,2.5466824E0,3.4762106E0,2.463563E0,3.3309007E0,2.5788422E0,2.049139E0,3.781785E0,1.9733095E1,9.8421135E0,8.747021E0,7.4461975E0,1.8727844E1,7.3181343E0,5.2461805E0,4.506157E0,4.35318E0,0E0,0E0,0E0,0E0,0E0,0E0,0E0,0E0,0E0,0E0,0E0,0E0,0E0,0E0,0E0,0E0,0E0,0E0,0E0,0E0,0E0,0E0,0E0,0E0,0E0,0E0,0E0,0E0,0E0,0E0,0E0,0E0,0E0,0E0,0E0,0E0,0E0,0E0,0E0,0E0,0E0,0E0,0E0,0E0,0E0,0E0,0E0,0E0,0E0,0E0,0E0,0E0,0E0,0E0,0E0,0E0,0E0,0E0],"parents":[2147483647,0,0,1,1,2,2,3,3,4,4,5,5,6,6,7,7,8,8,9,9,10,10,11,11,12,12,13,13,14,14,15,15,16,16,18,18,19,19,20,20,21,21,22,22,23,23,24,24,25,25,26,26,27,27,28,28,29,29,30,30,31,31,32,32,33,33,34,34,35,35,37,37,38,38,39,39,40,40,41,41,42,42,43,43,44,44,45,45,46,46,47,47,48,48,49,49,50,50,51,51,52,52,53,53,54,54,55,55,56,56,57,57,58,58,59,59,60,60],"right_children":[2,4,6,8,10,12,14,16,18,20,22,24,26,28,30,32,34,-1,36,38,40,42,44,46,48,50,52,54,56,58,60,62,64,66,68,70,-1,72,74,76,78,80,82,84,86,88,90,92,94,96,98,100,102,104,106,108,110,112,114,116,118,-1,-1,-1,-1,-1,-1,-1,-1,-1,-1,-1,-1,-1,-1,-1,-1,-1,-1,-1,-1,-1,-1,-1,-1,-1,-1,-1,-1,-1,-1,-1,-1,-1,-1,-1,-1,-1,-1,-1,-1,-1,-1,-1,-1,-1,-1,-1,-1,-1,-1,-1,-1,-1,-1,-1,-1,-1,-1],"split_conditions":[4E-1,9E-2,5.5E1,8E-2,9.6E1,4.1E1,1.01E2,1E0,1.9E1,1E0,2.6E1,1.468E3,5.6E-1,3.9E1,8.9E-1,3E0,4E0,3.531262E-2,2.1E1,2.5E-1,1.1E-1,1.7E-1,5E0,3.08E2,9E0,7E0,5.2E1,9.2E1,7.5E-1,3.744E3,4.05E2,5E-2,7.9E1,3E0,2.5E1,3E0,2.1161838E-2,2.2E1,5.8E1,7E0,3E0,1.262E3,4.1E1,1.7E1,3.6E-1,1E0,3.7E2,2E0,4E0,5E0,1E0,7E0,6.2E1,5E0,6.9E-1,1.3E1,6.1E1,2.17E2,5.1E1,1.4E1,5.1E1,-1.3055863E-2,3.3032799E-3,-1.7427398E-2,1.3135058E-2,-1.3975355E-2,3.9438936E-3,-1.0633873E-3,-1.4754747E-2,-1.3606575E-2,-2.0677913E-2,1.6973577E-2,-1.1027732E-2,-8.181175E-3,-1.4519511E-3,1.9502802E-2,-1.1235796E-3,-8.452086E-3,-2.1671925E-3,1.1104367E-2,-1.5106136E-2,-7.0813904E-3,3.0465437E-2,-1.54209705E-2,1.0436523E-2,3.1016492E-3,2.8715694E-2,-6.107667E-3,-1.2089482E-2,1.2158162E-2,-5.1700696E-3,-7.15424E-3,4.251338E-3,2.6387716E-2,-1.7282441E-3,-6.304856E-3,1.3919158E-3,-1.028739E-2,-3.6056612E-3,3.919859E-3,9.070947E-4,1.4845915E-3,4.9991332E-2,-3.061456E-3,6.8278634E-3,1.4980619E-2,3.192013E-2,1.5102103E-2,3.7792046E-3,2.1468194E-2,3.860301E-2,1.8254943E-2,5.063959E-2,-8.618408E-3,6.514192E-2,6.407387E-2,9.826773E-3,9.516444E-2,4.3553513E-2],"split_indices":[0,0,5,0,5,4,5,7,4,7,4,8,0,4,0,9,6,0,9,0,0,0,2,8,2,2,5,5,0,8,8,0,4,6,4,9,0,4,5,2,6,8,8,9,0,7,8,6,6,2,7,2,4,2,0,9,5,8,4,9,4,0,0,0,0,0,0,0,0,0,0,0,0,0,0,0,0,0,0,0,0,0,0,0,0,0,0,0,0,0,0,0,0,0,0,0,0,0,0,0,0,0,0,0,0,0,0,0,0,0,0,0,0,0,0,0,0,0,0],"split_type":[0,0,0,0,0,0,0,0,0,0,0,0,0,0,0,0,0,0,0,0,0,0,0,0,0,0,0,0,0,0,0,0,0,0,0,0,0,0,0,0,0,0,0,0,0,0,0,0,0,0,0,0,0,0,0,0,0,0,0,0,0,0,0,0,0,0,0,0,0,0,0,0,0,0,0,0,0,0,0,0,0,0,0,0,0,0,0,0,0,0,0,0,0,0,0,0,0,0,0,0,0,0,0,0,0,0,0,0,0,0,0,0,0,0,0,0,0,0,0],"sum_hessian":[1.7201271E4,6.987429E3,1.0213843E4,2.7228032E3,4.264626E3,6.7513228E3,3.4625198E3,1.7143685E3,1.00843463E3,3.9600386E3,3.045874E2,1.3832201E3,5.3681025E3,3.3087644E3,1.5375552E2,8.6765985E2,8.467086E2,1.0494767E0,1.00738513E3,1.9963523E3,1.9636864E3,1.3174898E2,1.7283841E2,1.0958068E3,2.874134E2,9.656428E2,4.40246E3,2.000323E3,1.3084413E3,9.122888E1,6.2526646E1,1.27823875E2,7.39836E2,5.6962616E2,2.7708243E2,1.0057272E3,1.6579765E0,1.1789832E3,8.173691E2,1.449964E2,1.8186901E3,4.0853104E1,9.089588E1,4.205174E1,1.3078667E2,7.495312E2,3.4627554E2,2.4307301E2,4.434038E1,5.0261703E2,4.630258E2,4.276453E3,1.2600661E2,1.6852604E3,3.1506262E2,5.826264E2,7.258149E2,7.78208E1,1.3408083E1,2.670991E1,3.5816734E1,8.059472E1,4.7229156E1,7.363593E2,3.4766908E0,1.7277002E2,3.9685614E2,3.5704857E1,2.4137758E2,1.0020763E2,9.0551953E2,1.1153303E1,1.1678298E3,5.2343445E2,2.9393463E2,8.341286E1,6.158354E1,4.3031384E2,1.3883762E3,2.6326164E1,1.4526939E1,8.094267E0,8.280161E1,2.875643E1,1.329531E1,1.1679269E2,1.3993984E1,4.520067E2,2.975245E2,3.090896E1,3.1536658E2,6.3147152E1,1.7992586E2,2.797144E1,1.636894E1,1.5785707E2,3.4475995E2,2.4461066E2,2.1841512E2,2.4795107E3,1.7969425E3,1.0048994E2,2.551667E1,3.0711493E2,1.3781455E3,1.7791061E2,1.37152E2,3.0288962E2,2.797368E2,2.4587047E2,4.799444E2,2.954805E1,4.827275E1,1.1405979E1,2.002103E0,2.16154E1,5.094509E0,2.8016977E1,7.7997565E0],"tree_param":{"num_deleted":"0","num_feature":"10","num_nodes":"119","size_leaf_vector":"1"}},{"base_weights":[0E0],"categories":[],"categories_nodes":[],"categories_segments":[],"categories_sizes":[],"default_left":[0],"id":14,"left_children":[-1],"loss_changes":[0E0],"parents":[2147483647],"right_children":[-1],"split_conditions":[0E0],"split_indices":[0],"split_type":[0],"sum_hessian":[3.6146125E-1],"tree_param":{"num_deleted":"0","num_feature":"10","num_nodes":"1","size_leaf_vector":"1"}},{"base_weights":[1.1697218E-3,1.6416183E-1,-1.0741724E-1,2.6441178E-1,1.0121698E-1,-2.8532404E-2,-3.2589114E-1,1.9499163E-1,3.828967E-1,1.23698995E-1,-1.909465E-1,6.774216E-2,-5.150017E-2,-1.1805285E0,-2.720799E-1,2.7595615E-1,1.1429568E-1,3.8768914E-1,-9.4531916E-2,1.802201E-1,6.719862E-2,1.6679731E-1,-2.2835149E-1,1.901359E-2,1.220117E-1,-3.3238754E-2,-2.137287E-1,-4.4541797E-1,-1.6220735E0,-2.2587489E-1,-9.267023E-1,1.2063286E-1,3.0292913E-1,3.940302E-2,2.6924515E-1,4.478438E-1,3.5602924E-1,2.0694539E-2,-4.3803602E-1,2.194649E-1,1.19386934E-1,-1.807406E-1,8.751234E-2,-2.597441E-2,2.5398856E-1,-2.789637E-1,3.28428E-2,-2.3721306E-2,1.8816714E-1,1.4913316E-1,-3.470168E-2,6.735565E-4,-6.512228E-2,-3.2097214E-1,3.5880305E-2,-6.880747E-1,3.0579966E-1,-5.508702E-1,-1.778656E0,-1.4617977E-1,-4.259206E-1,-6.2496746E-1,-1.2260759E0,-3.666212E-2,7.235804E-3,1.5629837E-2,5.264424E-3,1.36274425E-2,-2.992972E-3,1.5483848E-2,3.4462789E-3,2.2525972E-2,-3.1949282E-3,1.9242115E-3,2.0415703E-2,-4.6029236E-2,-9.5851393E-4,1.1404413E-2,-5.123212E-4,7.1681784E-3,-5.127208E-3,1.2720938E-2,-1.4752991E-2,8.800537E-3,2.875088E-3,1.0814956E-2,-3.5218947E-2,2.0300513E-2,9.666306E-6,-9.3108555E-3,-1.9880617E-2,1.6035253E-2,-1.11364005E-2,1.0412133E-3,-8.45591E-3,1.2260453E-2,-4.998789E-3,8.800796E-3,-2.201836E-3,2.5150094E-3,-1.8885491E-2,2.2981309E-4,-2.2383157E-2,-1.6644146E-2,-2.9542795E-3,-1.0992397E-2,-2.8312027E-2,-2.0576788E-2,4.3991553E-3,-4.522554E-2,2.7028138E-3,2.0754788E-2,-1.1389618E-2,2.749912E-3,-7.1232826E-2,-9.226219E-2,-2.7947146E-2,-4.646122E-3,-1.6773155E-2,-1.40176965E-2,-3.2717522E-2,-1.8832615E-2,-4.2119138E-2,-4.8553843E-2,-6.9256745E-2],"categories":[],"categories_nodes":[],"categories_segments":[],"categories_sizes":[],"default_left":[0,0,0,0,0,0,0,0,0,0,0,0,0,0,0,0,0,0,0,0,0,0,0,0,0,0,0,0,0,0,0,0,0,0,0,0,0,0,0,0,0,0,0,0,0,0,0,0,0,0,0,0,0,0,0,0,0,0,0,0,0,0,0,0,0,0,0,0,0,0,0,0,0,0,0,0,0,0,0,0,0,0,0,0,0,0,0,0,0,0,0,0,0,0,0,0,0,0,0,0,0,0,0,0,0,0,0,0,0,0,0,0,0,0,0,0,0,0,0,0,0,0,0,0,0],"id":15,"left_children":[1,3,5,7,9,11,13,15,17,19,21,23,25,27,29,31,33,35,37,39,41,43,45,47,49,51,53,55,57,59,61,63,65,67,69,71,73,-1,75,77,79,81,83,85,87,89,91,93,95,97,99,101,103,105,107,109,111,113,115,117,119,121,123,-1,-1,-1,-1,-1,-1,-1,-1,-1,-1,-1,-1,-1,-1,-1,-1,-1,-1,-1,-1,-1,-1,-1,-1,-1,-1,-1,-1,-1,-1,-1,-1,-1,-1,-1,-1,-1,-1,-1,-1,-1,-1,-1,-1,-1,-1,-1,-1,-1,-1,-1,-1,-1,-1,-1,-1,-1,-1,-1,-1,-1,-1],"loss_changes":[3.039859E2,4.330783E1,1.7764386E2,2.1707016E1,2.7743816E1,1.6752602E1,1.2543573E2,1.0891495E1,2.2727509E0,1.2503975E1,4.078413E0,3.8570666E0,1.811233E1,5.175505E1,7.7640656E1,3.45681E0,9.72586E0,1.6837006E0,2.0179832E0,4.6499405E0,9.895526E0,4.9670666E-1,3.6283836E0,5.571671E0,2.9390097E0,5.9453526E0,1.6571735E1,1.1521061E1,1.5898682E1,3.828708E1,1.4532974E1,2.67738E0,1.323288E0,1.3133596E1,2.1915245E0,4.8042297E-1,1.0592575E1,0E0,1.3491247E0,2.3584213E0,4.113472E0,7.480915E0,4.8069324E0,1.7940683E0,7.781563E-1,2.4508038E0,3.4066083E0,3.9913275E0,2.5793576E0,3.064413E0,3.0118194E0,4.689866E0,4.5612946E0,1.0610569E1,4.3911853E0,7.6314144E0,1.0184261E0,7.6392365E0,6.0627136E0,1.7324688E1,2.2586182E1,4.3467407E0,2.0610123E0,0E0,0E0,0E0,0E0,0E0,0E0,0E0,0E0,0E0,0E0,0E0,0E0,0E0,0E0,0E0,0E0,0E0,0E0,0E0,0E0,0E0,0E0,0E0,0E0,0E0,0E0,0E0,0E0,0E0,0E0,0E0,0E0,0E0,0E0,0E0,0E0,0E0,0E0,0E0,0E0,0E0,0E0,0E0,0E0,0E0,0E0,0E0,0E0,0E0,0E0,0E0,0E0,0E0,0E0,0E0,0E0,0E0,0E0,0E0,0E0,0E0,0E0],"parents":[2147483647,0,0,1,1,2,2,3,3,4,4,5,5,6,6,7,7,8,8,9,9,10,10,11,11,12,12,13,13,14,14,15,15,16,16,17,17,18,18,19,19,20,20,21,21,22,22,23,23,24,24,25,25,26,26,27,27,28,28,29,29,30,30,31,31,32,32,33,33,34,34,35,35,36,36,38,38,39,39,40,40,41,41,42,42,43,43,44,44,45,45,46,46,47,47,48,48,49,49,50,50,51,51,52,52,53,53,54,54,55,55,56,56,57,57,58,58,59,59,60,60,61,61,62,62],"right_children":[2,4,6,8,10,12,14,16,18,20,22,24,26,28,30,32,34,36,38,40,42,44,46,48,50,52,54,56,58,60,62,64,66,68,70,72,74,-1,76,78,80,82,84,86,88,90,92,94,96,98,100,102,104,106,108,110,112,114,116,118,120,122,124,-1,-1,-1,-1,-1,-1,-1,-1,-1,-1,-1,-1,-1,-1,-1,-1,-1,-1,-1,-1,-1,-1,-1,-1,-1,-1,-1,-1,-1,-1,-1,-1,-1,-1,-1,-1,-1,-1,-1,-1,-1,-1,-1,-1,-1,-1,-1,-1,-1,-1,-1,-1,-1,-1,-1,-1,-1,-1,-1,-1,-1,-1],"split_conditions":[4E-1,9E-2,6.1E1,8E-2,9.6E1,5.7E-1,6.3E1,1E0,1.6533E4,1E0,1E0,7E0,5.5E1,7.5E-1,1.01E2,3E0,4E0,3E0,1E0,5.7E1,1.1E-1,1.7E-1,4.172E3,5.3E-1,7E0,2.29E2,6E1,1.8E1,6.2E1,9.8E-1,8.1E-1,2.7E1,9.6E1,3E0,9.2E1,1.13E2,4E0,2.0694539E-2,6E0,6.09E3,9E0,3E0,5E0,7E0,3E-1,1.054E3,8.455E3,2.131E3,7E0,5.5E1,5.2E-1,1.3E1,2.42E2,5.8E1,3E0,1.602E3,6.7E-1,1.4E1,5.033E3,9.1E1,7.7E1,8E0,4.44E2,-3.666212E-2,7.235804E-3,1.5629837E-2,5.264424E-3,1.36274425E-2,-2.992972E-3,1.5483848E-2,3.4462789E-3,2.2525972E-2,-3.1949282E-3,1.9242115E-3,2.0415703E-2,-4.6029236E-2,-9.5851393E-4,1.1404413E-2,-5.123212E-4,7.1681784E-3,-5.127208E-3,1.2720938E-2,-1.4752991E-2,8.800537E-3,2.875088E-3,1.0814956E-2,-3.5218947E-2,2.0300513E-2,9.666306E-6,-9.3108555E-3,-1.9880617E-2,1.6035253E-2,-1.11364005E-2,1.0412133E-3,-8.45591E-3,1.2260453E-2,-4.998789E-3,8.800796E-3,-2.201836E-3,2.5150094E-3,-1.8885491E-2,2.2981309E-4,-2.2383157E-2,-1.6644146E-2,-2.9542795E-3,-1.0992397E-2,-2.8312027E-2,-2.0576788E-2,4.3991553E-3,-4.522554E-2,2.7028138E-3,2.0754788E-2,-1.1389618E-2,2.749912E-3,-7.1232826E-2,-9.226219E-2,-2.7947146E-2,-4.646122E-3,-1.6773155E-2,-1.40176965E-2,-3.2717522E-2,-1.8832615E-2,-4.2119138E-2,-4.8553843E-2,-6.9256745E-2],"split_indices":[0,0,5,0,5,0,5,7,8,7,1,2,5,0,5,9,6,6,7,5,0,0,8,0,6,8,5,9,5,0,0,8,5,6,5,5,6,0,2,8,2,6,2,6,0,8,8,8,6,5,0,2,8,5,9,8,0,9,8,5,5,9,8,0,0,0,0,0,0,0,0,0,0,0,0,0,0,0,0,0,0,0,0,0,0,0,0,0,0,0,0,0,0,0,0,0,0,0,0,0,0,0,0,0,0,0,0,0,0,0,0,0,0,0,0,0,0,0,0,0,0,0,0,0,0],"split_type":[0,0,0,0,0,0,0,0,0,0,0,0,0,0,0,0,0,0,0,0,0,0,0,0,0,0,0,0,0,0,0,0,0,0,0,0,0,0,0,0,0,0,0,0,0,0,0,0,0,0,0,0,0,0,0,0,0,0,0,0,0,0,0,0,0,0,0,0,0,0,0,0,0,0,0,0,0,0,0,0,0,0,0,0,0,0,0,0,0,0,0,0,0,0,0,0,0,0,0,0,0,0,0,0,0,0,0,0,0,0,0,0,0,0,0,0,0,0,0,0,0,0,0,0,0],"sum_hessian":[1.7173496E4,6.8663696E3,1.0307127E4,2.64715E3,4.2192197E3,7.573631E3,2.733496E3,1.6708479E3,9.763019E2,3.9182837E3,3.009358E2,1.4584133E3,6.1152173E3,1.6067618E2,2.57282E3,8.328282E2,8.380197E2,9.667852E2,9.516654E0,1.9576881E3,1.9605956E3,2.815928E1,2.7277652E2,7.691471E2,6.8926624E2,5.4975815E3,6.1763586E2,6.104822E1,9.962796E1,2.4044521E3,1.6836775E2,1.2403691E2,7.0879126E2,5.658017E2,2.7221802E2,3.2883826E2,6.3794696E2,3.754575E0,5.762079E0,1.1884106E3,7.692776E2,1.4787E2,1.8127256E3,8.988544E0,1.9170736E1,2.2844263E2,4.43339E1,6.147074E2,1.5443971E2,5.876189E2,1.0164736E2,2.6645073E3,2.8330742E3,4.3182025E2,1.8581563E2,4.6206688E1,1.4841534E1,1.3281999E1,8.634596E1,1.7206876E3,6.8376465E2,8.53909E1,8.2976845E1,2.594713E0,1.214422E2,6.7518304E2,3.360826E1,1.6843617E2,3.9736554E2,2.2604749E2,4.6170525E1,3.272469E2,1.5913707E0,9.043535E1,5.4751166E2,2.1209095E0,3.6411695E0,1.1454187E3,4.2991882E1,6.945905E2,7.4687035E1,3.0509438E1,1.1736056E2,4.578129E2,1.3549127E3,7.125156E0,1.8633888E0,1.161417E1,7.5565658E0,1.2965887E2,9.8783745E1,2.0729904E1,2.3603994E1,4.712012E2,1.435062E2,1.2904286E2,2.539684E1,5.159103E2,7.170858E1,8.2144295E1,1.9503067E1,2.6423777E3,2.2129639E1,6.1269955E1,2.7718042E3,3.0709946E2,1.24720795E2,1.8662119E1,1.671535E2,3.5604225E1,1.0602465E1,1.2502673E1,2.3388598E0,8.396834E0,4.8851633E0,8.13898E1,4.956161E0,1.3440209E3,3.7666672E2,4.1899063E2,2.6477405E2,4.113829E1,4.4252613E1,3.4604706E1,4.8372143E1],"tree_param":{"num_deleted":"0","num_feature":"10","num_nodes":"125","size_leaf_vector":"1"}},{"base_weights":[1.2314656E-3,-1.6129003E-1,1.0946916E-1,2.2644722E-1,-2.332226E-1,2.3530407E-2,3.05518E-1,-1.02658585E-1,5.435411E-1,-3.6185557E-1,-1.5880524E-1,3.3391067E-1,6.204774E-3,1.3774595E-1,4.5313427E-1,-3.4876767E-1,-6.04656E-2,7.049074E-1,2.2418195E-1,-3.1770778E-1,-4.2207742E-1,-1.8065667E-1,1.1369097E-1,1.5639491E-1,5.196195E-1,-1.10100724E-1,4.03335E-2,5.8187306E-1,1.0058155E-1,3.8677585E-1,1.0226451E0,-4.1535184E-1,2.1392073E-1,-2.2176889E-1,9.407837E-3,3.9853665E-1,1.0131196E0,-2.9953446E-2,4.9979323E-1,-1.03221096E-1,-3.312982E-1,-4.2782548E-1,-1.557896E-1,-2.2062802E-1,-1.2186698E-1,3.3517456E-1,1.9668767E-2,1.0520893E-1,5.6572527E-1,7.280605E-1,1.839027E-1,-1.5731871E-1,-6.13948E-2,8.1998706E-2,-7.734126E-2,2.0909637E-1,8.9977676E-1,4.2181402E-2,4.2303038E-1,1.12066194E-1,5.4029024E-1,6.8102E-1,1.188204E0,1.1747366E-2,-2.141883E-2,2.0894935E-2,-1.7226083E-2,-1.3797727E-2,3.8469385E-2,-4.731592E-3,5.373917E-3,2.8739175E-2,-4.7934926E-3,7.913519E-2,3.9639827E-2,-4.615587E-3,2.6294608E-2,7.878452E-2,8.08332E-3,-9.984452E-3,9.705296E-3,-1.8784666E-2,-1.4684287E-2,-1.36213275E-2,-2.1680921E-2,-1.3598705E-2,2.4655413E-2,-1.3214526E-2,-8.630974E-3,-7.4647376E-3,5.0774834E-4,6.964352E-3,3.8768306E-2,-1.5206483E-2,3.361559E-3,8.072144E-3,-9.535468E-3,-1.998388E-2,3.756699E-2,5.0358392E-2,2.3305735E-2,-4.639158E-3,2.3759373E-2,5.559778E-2,-8.030995E-3,-6.44521E-3,1.1037821E-3,-1.8087E-4,6.150234E-3,-1.2550554E-2,-1.5979825E-3,4.2823076E-2,1.1497498E-3,5.0357975E-2,-7.350971E-3,-1.7974786E-3,5.220765E-3,1.06408E-2,2.7632212E-2,2.0574247E-3,1.7943779E-2,3.9228823E-2,2.159555E-2,1.7490467E-2,5.6480665E-2,5.035729E-2,7.5029545E-2],"categories":[],"categories_nodes":[],"categories_segments":[],"categories_sizes":[],"default_left":[0,0,0,0,0,0,0,0,0,0,0,0,0,0,0,0,0,0,0,0,0,0,0,0,0,0,0,0,0,0,0,0,0,0,0,0,0,0,0,0,0,0,0,0,0,0,0,0,0,0,0,0,0,0,0,0,0,0,0,0,0,0,0,0,0,0,0,0,0,0,0,0,0,0,0,0,0,0,0,0,0,0,0,0,0,0,0,0,0,0,0,0,0,0,0,0,0,0,0,0,0,0,0,0,0,0,0,0,0,0,0,0,0,0,0,0,0,0,0,0,0,0,0,0,0,0,0],"id":16,"left_children":[1,3,5,7,9,11,13,15,17,19,21,23,25,27,29,31,33,35,37,39,41,43,45,47,49,51,53,55,57,59,61,63,65,67,69,71,73,75,77,79,81,83,85,87,89,91,93,95,97,99,101,103,105,107,109,111,113,115,117,119,121,123,125,-1,-1,-1,-1,-1,-1,-1,-1,-1,-1,-1,-1,-1,-1,-1,-1,-1,-1,-1,-1,-1,-1,-1,-1,-1,-1,-1,-1,-1,-1,-1,-1,-1,-1,-1,-1,-1,-1,-1,-1,-1,-1,-1,-1,-1,-1,-1,-1,-1,-1,-1,-1,-1,-1,-1,-1,-1,-1,-1,-1,-1,-1,-1,-1],"loss_changes":[3.0208475E2,1.915216E2,1.7366092E2,1.1221704E2,5.5378296E1,3.8541317E1,7.7735504E1,5.4642143E0,2.8058716E1,5.5066833E0,2.1876152E1,1.2410366E1,2.6954638E1,2.423337E1,6.2739838E1,2.9774313E0,5.0981092E0,3.3899567E1,1.2991052E1,3.5460892E0,1.3023529E0,7.9589844E0,5.6805124E0,4.029576E0,1.2794868E1,3.533411E0,2.5746586E1,1.3254696E1,2.557905E1,6.310762E1,9.017044E0,6.874523E-1,1.1484259E0,7.5540724E0,3.2388964E0,1.6073769E1,2.1389893E1,3.4221094E0,3.2097534E1,2.1796315E0,1.8176422E0,6.694946E-1,1.6774753E0,4.1922684E0,4.990095E0,6.9042635E0,2.9893227E0,2.937931E0,4.146483E0,7.839409E0,5.85571E0,3.4536304E0,4.2854347E0,1.36139965E1,1.0815576E1,6.427447E0,6.9960365E0,5.6050644E0,5.5585785E0,9.406057E0,2.5094574E1,8.379082E0,5.031555E0,0E0,0E0,0E0,0E0,0E0,0E0,0E0,0E0,0E0,0E0,0E0,0E0,0E0,0E0,0E0,0E0,0E0,0E0,0E0,0E0,0E0,0E0,0E0,0E0,0E0,0E0,0E0,0E0,0E0,0E0,0E0,0E0,0E0,0E0,0E0,0E0,0E0,0E0,0E0,0E0,0E0,0E0,0E0,0E0,0E0,0E0,0E0,0E0,0E0,0E0,0E0,0E0,0E0,0E0,0E0,0E0,0E0,0E0,0E0,0E0,0E0,0E0,0E0,0E0],"parents":[2147483647,0,0,1,1,2,2,3,3,4,4,5,5,6,6,7,7,8,8,9,9,10,10,11,11,12,12,13,13,14,14,15,15,16,16,17,17,18,18,19,19,20,20,21,21,22,22,23,23,24,24,25,25,26,26,27,27,28,28,29,29,30,30,31,31,32,32,33,33,34,34,35,35,36,36,37,37,38,38,39,39,40,40,41,41,42,42,43,43,44,44,45,45,46,46,47,47,48,48,49,49,50,50,51,51,52,52,53,53,54,54,55,55,56,56,57,57,58,58,59,59,60,60,61,61,62,62],"right_children":[2,4,6,8,10,12,14,16,18,20,22,24,26,28,30,32,34,36,38,40,42,44,46,48,50,52,54,56,58,60,62,64,66,68,70,72,74,76,78,80,82,84,86,88,90,92,94,96,98,100,102,104,106,108,110,112,114,116,118,120,122,124,126,-1,-1,-1,-1,-1,-1,-1,-1,-1,-1,-1,-1,-1,-1,-1,-1,-1,-1,-1,-1,-1,-1,-1,-1,-1,-1,-1,-1,-1,-1,-1,-1,-1,-1,-1,-1,-1,-1,-1,-1,-1,-1,-1,-1,-1,-1,-1,-1,-1,-1,-1,-1,-1,-1,-1,-1,-1,-1,-1,-1,-1,-1,-1,-1],"split_conditions":[4E-1,1E0,5.8E1,1E0,9E-2,1E0,7.3E-1,5E0,7E0,8E-2,9.6E1,1E0,6.4E-1,1E0,9.6E1,4.116E3,6E-2,5E0,9E0,2.4E1,6.9E1,5.7E1,2.3E1,4.172E3,7E0,3.99E2,1.2E1,1E0,1E2,3.2E1,6E0,8.196721E-3,5.1E1,5E0,4.4E1,5.7E1,3.9E1,8.2E1,1E1,2.3E1,5E0,3E1,6.1E1,6E0,4.7E1,2.9E-1,7.5E1,8.4E-1,4.6E-1,5.2E1,9E0,2.2E1,6E0,4.5E1,4.1E1,6.4E1,1E1,4.65E2,4.73E2,8.8E1,6.3E1,9.6E-1,1.15E2,1.1747366E-2,-2.141883E-2,2.0894935E-2,-1.7226083E-2,-1.3797727E-2,3.8469385E-2,-4.731592E-3,5.373917E-3,2.8739175E-2,-4.7934926E-3,7.913519E-2,3.9639827E-2,-4.615587E-3,2.6294608E-2,7.878452E-2,8.08332E-3,-9.984452E-3,9.705296E-3,-1.8784666E-2,-1.4684287E-2,-1.36213275E-2,-2.1680921E-2,-1.3598705E-2,2.4655413E-2,-1.3214526E-2,-8.630974E-3,-7.4647376E-3,5.0774834E-4,6.964352E-3,3.8768306E-2,-1.5206483E-2,3.361559E-3,8.072144E-3,-9.535468E-3,-1.998388E-2,3.756699E-2,5.0358392E-2,2.3305735E-2,-4.639158E-3,2.3759373E-2,5.559778E-2,-8.030995E-3,-6.44521E-3,1.1037821E-3,-1.8087E-4,6.150234E-3,-1.2550554E-2,-1.5979825E-3,4.2823076E-2,1.1497498E-3,5.0357975E-2,-7.350971E-3,-1.7974786E-3,5.220765E-3,1.06408E-2,2.7632212E-2,2.0574247E-3,1.7943779E-2,3.9228823E-2,2.159555E-2,1.7490467E-2,5.6480665E-2,5.035729E-2,7.5029545E-2],"split_indices":[0,3,5,7,0,3,0,2,2,0,5,7,0,3,5,8,0,2,2,4,4,5,4,8,2,8,3,7,5,4,3,0,4,1,4,4,4,5,2,4,3,8,5,3,4,0,8,0,0,4,2,4,3,4,4,5,2,8,8,5,5,0,5,0,0,0,0,0,0,0,0,0,0,0,0,0,0,0,0,0,0,0,0,0,0,0,0,0,0,0,0,0,0,0,0,0,0,0,0,0,0,0,0,0,0,0,0,0,0,0,0,0,0,0,0,0,0,0,0,0,0,0,0,0,0,0,0],"split_type":[0,0,0,0,0,0,0,0,0,0,0,0,0,0,0,0,0,0,0,0,0,0,0,0,0,0,0,0,0,0,0,0,0,0,0,0,0,0,0,0,0,0,0,0,0,0,0,0,0,0,0,0,0,0,0,0,0,0,0,0,0,0,0,0,0,0,0,0,0,0,0,0,0,0,0,0,0,0,0,0,0,0,0,0,0,0,0,0,0,0,0,0,0,0,0,0,0,0,0,0,0,0,0,0,0,0,0,0,0,0,0,0,0,0,0,0,0,0,0,0,0,0,0,0,0,0,0],"sum_hessian":[1.7170729E4,6.8639106E3,1.0306817E4,1.0737798E3,5.790131E3,7.1664824E3,3.1403347E3,5.272417E2,5.4653815E2,2.120651E3,3.66948E3,3.7792197E2,6.7885605E3,1.4707261E3,1.6696086E3,7.60984E1,4.5114328E2,3.6227826E2,1.8425987E2,1.2272482E3,8.9340265E2,3.3973816E3,2.7209848E2,1.9416513E2,1.8375684E2,1.5396027E3,5.248958E3,1.1243487E2,1.3582913E3,1.4968746E3,1.7273407E2,6.8280464E1,7.8179364E0,1.3570154E2,3.1544174E2,1.8283182E2,1.7944644E2,9.6328606E1,8.793127E1,7.3640236E1,1.153608E3,8.7393146E2,1.9471209E1,2.0207275E3,1.376654E3,8.032229E1,1.9177618E2,1.7370116E2,2.0463972E1,1.1264732E2,7.1109505E1,7.806099E2,7.589928E2,3.8766516E3,1.3723064E3,5.2514107E1,5.9920765E1,1.1509656E3,2.0732568E2,5.372359E2,9.596387E2,5.805436E1,1.1467971E2,1.0061672E0,6.727429E1,5.910664E0,1.9072723E0,1.2935158E2,6.349952E0,1.5307973E2,1.6236201E2,1.34664E2,4.8167816E1,4.8326935E1,1.311195E2,8.736174E1,8.966869E0,2.0151258E1,6.778001E1,5.5848526E1,1.7791708E1,5.249757E2,6.2863226E2,3.3133575E1,8.407979E2,1.7006992E1,2.4642165E0,1.0559049E3,9.6482263E2,1.1397404E3,2.369137E2,5.6497177E1,2.3825111E1,2.3871046E1,1.6790515E2,1.463453E2,2.7355858E1,3.1140692E0,1.7349903E1,5.3159794E1,5.9487526E1,3.6818134E1,3.4291374E1,1.153787E0,7.794561E2,4.1931448E2,3.396783E2,1.255731E3,2.6209207E3,2.8336655E2,1.0889398E3,1.0921359E1,4.1592747E1,5.4380188E1,5.540575E0,5.104935E2,6.4047205E2,8.008374E1,1.2724195E2,4.1822946E2,1.1900647E2,2.929935E2,6.666452E2,3.4420444E1,2.3633917E1,7.527476E1,3.9404953E1],"tree_param":{"num_deleted":"0","num_feature":"10","num_nodes":"127","size_leaf_vector":"1"}},{"base_weights":[0E0],"categories":[],"categories_nodes":[],"categories_segments":[],"categories_sizes":[],"default_left":[0],"id":17,"left_children":[-1],"loss_changes":[0E0],"parents":[2147483647],"right_children":[-1],"split_conditions":[0E0],"split_indices":[0],"split_type":[0],"sum_hessian":[3.609775E-1],"tree_param":{"num_deleted":"0","num_feature":"10","num_nodes":"1","size_leaf_vector":"1"}},{"base_weights":[-2.9121534E-4,-2.7906066E-1,2.8426735E-2,2.4807502E-2,-5.697051E-1,3.9139815E-2,-5.73245E-1,3.030189E-1,-2.0720363E-2,-6.9139713E-1,1.2978774E-1,8.1169434E-2,-4.0523537E-2,-1.4105132E-1,-6.832299E-1,3.274409E-1,-4.3698322E-2,1.4614647E-2,-1.2350174E-1,1.4107156E-1,-7.9625696E-1,2.3679268E-1,-1.4471322E-1,1.7389609E-1,5.1861655E-2,1.8265843E-2,-2.7573577E-1,2.5065356E-1,-2.875835E-1,-6.5580803E-1,-1.8739471E0,3.6112797E-1,-8.925664E-2,-4.759203E-2,1.925816E-1,-6.0159147E-1,-2.0653345E-2,2.0248333E-1,-4.71202E-1,-8.964371E-1,-1.03986055E-1,-1.2828792E-2,3.5175848E-1,4.166845E-1,-4.8189557E-1,1.4038573E-1,3.2356024E-1,9.63664E-2,1.1293704E-3,5.187633E-2,-1.1920525E-1,-3.5516965E-1,5.031449E-2,3.4836832E-1,-2.5181955E-1,-1.0986E-1,-7.6692617E-1,-7.155244E-1,-3.4495652E-1,-2.5740514E-2,-1.1676395E-1,1.9637467E-2,-6.0332096E-3,-2.42047E-2,1.2489576E-2,-8.100321E-3,3.762447E-3,1.5411896E-2,6.631087E-3,-3.7540864E-2,2.0616526E-2,1.8443101E-3,-2.2799667E-2,1.11873215E-2,-2.3952717E-2,-3.265497E-2,1.4246996E-2,-4.1540917E-2,-1.20945506E-1,-1.1903522E-2,1.0829374E-2,1.1403224E-2,-2.0454038E-2,2.2044307E-2,7.399396E-3,5.305184E-3,2.4030937E-2,-1.4511917E-3,-4.4863645E-2,-1.851537E-2,7.3317187E-3,-1.7937995E-2,1.6543223E-2,5.689181E-4,1.0409825E-2,-2.380938E-3,6.3607865E-3,4.3388945E-3,-4.440739E-3,-1.9873751E-4,-1.0538513E-2,-2.9323423E-2,-1.2823577E-2,1.3610102E-2,-4.412092E-3,-1.0067648E-2,2.0543618E-2,1.3909544E-2,-3.3377066E-2,-2.1460766E-2,1.7518831E-2,-4.7976643E-2,1.5960744E-2,-3.8234565E-2,-1.6046438E-2,-4.982142E-3,-3.7723467E-2],"categories":[],"categories_nodes":[],"categories_segments":[],"categories_sizes":[],"default_left":[0,0,0,0,0,0,0,0,0,0,0,0,0,0,0,0,0,0,0,0,0,0,0,0,0,0,0,0,0,0,0,0,0,0,0,0,0,0,0,0,0,0,0,0,0,0,0,0,0,0,0,0,0,0,0,0,0,0,0,0,0,0,0,0,0,0,0,0,0,0,0,0,0,0,0,0,0,0,0,0,0,0,0,0,0,0,0,0,0,0,0,0,0,0,0,0,0,0,0,0,0,0,0,0,0,0,0,0,0,0,0,0,0,0,0,0,0],"id":18,"left_children":[1,3,5,7,9,11,13,15,17,19,21,23,25,27,29,31,-1,33,35,37,39,41,43,45,47,49,51,53,55,57,59,61,63,65,67,69,71,73,75,77,79,81,83,85,87,89,91,93,95,97,99,101,103,105,107,109,111,113,115,-1,-1,-1,-1,-1,-1,-1,-1,-1,-1,-1,-1,-1,-1,-1,-1,-1,-1,-1,-1,-1,-1,-1,-1,-1,-1,-1,-1,-1,-1,-1,-1,-1,-1,-1,-1,-1,-1,-1,-1,-1,-1,-1,-1,-1,-1,-1,-1,-1,-1,-1,-1,-1,-1,-1,-1,-1,-1],"loss_changes":[1.3735164E2,1.4153113E2,1.00282364E2,9.940766E0,6.980896E1,5.1174904E1,1.28413315E1,3.4585066E0,2.4530978E0,6.1027496E1,3.6241348E0,2.7181038E1,7.300433E1,3.3134565E0,5.8467026E0,1.5601654E0,0E0,5.579657E0,8.483457E0,3.0627213E0,4.2898804E1,2.5390186E0,6.8071547E0,1.2003357E1,1.7167786E1,1.9524965E1,2.7359558E1,8.68825E-1,3.4565892E0,3.7137756E0,1.518919E0,1.5846663E0,1.3181441E0,5.2637467E0,8.642669E-1,4.9324665E0,3.6046133E0,1.1566942E0,1.2168756E0,5.207892E1,3.4687524E0,2.8437042E0,1.0335822E0,2.1969485E-1,4.162837E0,6.323826E0,2.3052635E0,3.849403E1,2.1852287E1,1.6679234E1,8.758952E0,1.9231247E1,6.4090295E0,5.547712E-1,8.842755E-1,4.7785864E0,2.623168E0,3.2088928E0,3.572856E0,0E0,0E0,0E0,0E0,0E0,0E0,0E0,0E0,0E0,0E0,0E0,0E0,0E0,0E0,0E0,0E0,0E0,0E0,0E0,0E0,0E0,0E0,0E0,0E0,0E0,0E0,0E0,0E0,0E0,0E0,0E0,0E0,0E0,0E0,0E0,0E0,0E0,0E0,0E0,0E0,0E0,0E0,0E0,0E0,0E0,0E0,0E0,0E0,0E0,0E0,0E0,0E0,0E0,0E0,0E0,0E0,0E0,0E0],"parents":[2147483647,0,0,1,1,2,2,3,3,4,4,5,5,6,6,7,7,8,8,9,9,10,10,11,11,12,12,13,13,14,14,15,15,17,17,18,18,19,19,20,20,21,21,22,22,23,23,24,24,25,25,26,26,27,27,28,28,29,29,30,30,31,31,32,32,33,33,34,34,35,35,36,36,37,37,38,38,39,39,40,40,41,41,42,42,43,43,44,44,45,45,46,46,47,47,48,48,49,49,50,50,51,51,52,52,53,53,54,54,55,55,56,56,57,57,58,58],"right_children":[2,4,6,8,10,12,14,16,18,20,22,24,26,28,30,32,-1,34,36,38,40,42,44,46,48,50,52,54,56,58,60,62,64,66,68,70,72,74,76,78,80,82,84,86,88,90,92,94,96,98,100,102,104,106,108,110,112,114,116,-1,-1,-1,-1,-1,-1,-1,-1,-1,-1,-1,-1,-1,-1,-1,-1,-1,-1,-1,-1,-1,-1,-1,-1,-1,-1,-1,-1,-1,-1,-1,-1,-1,-1,-1,-1,-1,-1,-1,-1,-1,-1,-1,-1,-1,-1,-1,-1,-1,-1,-1,-1,-1,-1,-1,-1,-1,-1],"split_conditions":[1E0,1E0,1.01E2,5E0,4E0,5.8E1,4E0,1E1,6E1,3E0,5.6E1,4.1E1,4.7E1,4E0,2.1E1,9.6E1,-4.3698322E-2,4E0,6.4E1,7.9E1,1E1,6E0,3.1E1,1.3E1,4E0,9.1E1,1.9E1,4E0,4E1,1.5E1,2.7E2,6.09E3,2.7E1,8E0,4.3E1,1.1E1,1E1,8E1,1.8E1,9E0,1.2E1,7E0,1.9E1,2.3E1,7.41E2,2.6E1,2.3E1,3E0,1.2E1,3.9E1,4E0,6.3E1,3.8E2,2.3E1,3.628E3,1E0,3.374E3,1.9E1,1.19E2,-2.5740514E-2,-1.1676395E-1,1.9637467E-2,-6.0332096E-3,-2.42047E-2,1.2489576E-2,-8.100321E-3,3.762447E-3,1.5411896E-2,6.631087E-3,-3.7540864E-2,2.0616526E-2,1.8443101E-3,-2.2799667E-2,1.11873215E-2,-2.3952717E-2,-3.265497E-2,1.4246996E-2,-4.1540917E-2,-1.20945506E-1,-1.1903522E-2,1.0829374E-2,1.1403224E-2,-2.0454038E-2,2.2044307E-2,7.399396E-3,5.305184E-3,2.4030937E-2,-1.4511917E-3,-4.4863645E-2,-1.851537E-2,7.3317187E-3,-1.7937995E-2,1.6543223E-2,5.689181E-4,1.0409825E-2,-2.380938E-3,6.3607865E-3,4.3388945E-3,-4.440739E-3,-1.9873751E-4,-1.0538513E-2,-2.9323423E-2,-1.2823577E-2,1.3610102E-2,-4.412092E-3,-1.0067648E-2,2.0543618E-2,1.3909544E-2,-3.3377066E-2,-2.1460766E-2,1.7518831E-2,-4.7976643E-2,1.5960744E-2,-3.8234565E-2,-1.6046438E-2,-4.982142E-3,-3.7723467E-2],"split_indices":[3,7,5,2,6,5,3,6,5,6,5,4,4,9,3,5,0,6,5,5,2,9,4,3,6,5,9,6,4,3,8,8,4,2,4,2,2,4,9,2,2,6,9,4,8,4,4,6,3,4,6,5,8,4,8,7,8,9,5,0,0,0,0,0,0,0,0,0,0,0,0,0,0,0,0,0,0,0,0,0,0,0,0,0,0,0,0,0,0,0,0,0,0,0,0,0,0,0,0,0,0,0,0,0,0,0,0,0,0,0,0,0,0,0,0,0,0],"split_type":[0,0,0,0,0,0,0,0,0,0,0,0,0,0,0,0,0,0,0,0,0,0,0,0,0,0,0,0,0,0,0,0,0,0,0,0,0,0,0,0,0,0,0,0,0,0,0,0,0,0,0,0,0,0,0,0,0,0,0,0,0,0,0,0,0,0,0,0,0,0,0,0,0,0,0,0,0,0,0,0,0,0,0,0,0,0,0,0,0,0,0,0,0,0,0,0,0,0,0,0,0,0,0,0,0,0,0,0,0,0,0,0,0,0,0,0,0],"sum_hessian":[1.7154768E4,1.6013645E3,1.5553403E4,7.8331995E2,8.1804456E2,1.52822295E4,2.711732E2,