{"learner":{"attributes":{},"feature_names":["MDVP:Fo(Hz)","MDVP:Fhi(Hz)","MDVP:Flo(Hz)","MDVP:Jitter(%)","MDVP:Jitter(Abs)","MDVP:RAP","MDVP:PPQ","Jitter:DDP","MDVP:Shimmer","MDVP:Shimmer(dB)","Shimmer:APQ3","Shimmer:APQ5","MDVP:APQ","Shimmer:DDA","NHR","HNR","RPDE","DFA","spread1","spread2","D2","PPE"],"feature_types":["float","float","float","float","float","float","float","float","float","float","float","float","float","float","float","float","float","float","float","float","float","float"],"gradient_booster":{"model":{"cats":{"enc":[],"feature_segments":[],"sorted_idx":[]},"gbtree_model_param":{"num_parallel_tree":"1","num_trees":"200"},"iteration_indptr":[0,1,2,3,4,5,6,7,8,9,10,11,12,13,14,15,16,17,18,19,20,21,22,23,24,25,26,27,28,29,30,31,32,33,34,35,36,37,38,39,40,41,42,43,44,45,46,47,48,49,50,51,52,53,54,55,56,57,58,59,60,61,62,63,64,65,66,67,68,69,70,71,72,73,74,75,76,77,78,79,80,81,82,83,84,85,86,87,88,89,90,91,92,93,94,95,96,97,98,99,100,101,102,103,104,105,106,107,108,109,110,111,112,113,114,115,116,117,118,119,120,121,122,123,124,125,126,127,128,129,130,131,132,133,134,135,136,137,138,139,140,141,142,143,144,145,146,147,148,149,150,151,152,153,154,155,156,157,158,159,160,161,162,163,164,165,166,167,168,169,170,171,172,173,174,175,176,177,178,179,180,181,182,183,184,185,186,187,188,189,190,191,192,193,194,195,196,197,198,199,200],"tree_info":[0,0,0,0,0,0,0,0,0,0,0,0,0,0,0,0,0,0,0,0,0,0,0,0,0,0,0,0,0,0,0,0,0,0,0,0,0,0,0,0,0,0,0,0,0,0,0,0,0,0,0,0,0,0,0,0,0,0,0,0,0,0,0,0,0,0,0,0,0,0,0,0,0,0,0,0,0,0,0,0,0,0,0,0,0,0,0,0,0,0,0,0,0,0,0,0,0,0,0,0,0,0,0,0,0,0,0,0,0,0,0,0,0,0,0,0,0,0,0,0,0,0,0,0,0,0,0,0,0,0,0,0,0,0,0,0,0,0,0,0,0,0,0,0,0,0,0,0,0,0,0,0,0,0,0,0,0,0,0,0,0,0,0,0,0,0,0,0,0,0,0,0,0,0,0,0,0,0,0,0,0,0,0,0,0,0,0,0,0,0,0,0,0,0,0,0,0,0,0,0],"trees":[{"base_weights":[-8.026303E-3,-1.3157038E-1,8.756192E-1,-1.2528476E-2,5.8369547E-2],"categories":[],"categories_nodes":[],"categories_segments":[],"categories_sizes":[],"default_left":[0,0,0,0,0],"id":0,"left_children":[1,-1,3,-1,-1],"loss_changes":[2.8560387E1,0E0,3.32307E0,0E0,0E0],"parents":[2147483647,0,0,2,2],"right_children":[2,-1,4,-1,-1],"split_conditions":[-6.471427E0,-1.3157038E-1,1.92E-1,-1.2528476E-2,5.8369547E-2],"split_indices":[18,0,9,0,0],"split_type":[0,0,0,0,0],"sum_hessian":[1.0326446E1,2.1035352E0,8.222911E0,1.7210743E0,6.5018363E0],"tree_param":{"num_deleted":"0","num_feature":"22","num_nodes":"5","size_leaf_vector":"1"}},{"base_weights":[1.6680496E-2,-9.5961586E-2,8.141187E-1,-8.5845385E-3,5.639259E-2],"categories":[],"categories_nodes":[],"categories_segments":[],"categories_sizes":[],"default_left":[0,0,0,0,0],"id":1,"left_children":[1,-1,3,-1,-1],"loss_changes":[1.8176937E1,0E0,2.7682815E0,0E0,0E0],"parents":[2147483647,0,0,2,2],"right_children":[2,-1,4,-1,-1],"split_conditions":[-6.635729E0,-9.5961586E-2,2.137075E0,-8.5845385E-3,5.639259E-2],"split_indices":[18,0,20,0,0],"split_type":[0,0,0,0,0],"sum_hessian":[9.7622595E0,2.4376698E0,7.32459E0,1.8775911E0,5.446999E0],"tree_param":{"num_deleted":"0","num_feature":"22","num_nodes":"5","size_leaf_vector":"1"}},{"base_weights":[-1.2202902E-1,-1.0488427E-1,7.0388037E-1,-3.5068285E-2,1.0109562E0,5.5738755E-2,1.0820626E-2],"categories":[],"categories_nodes":[],"categories_segments":[],"categories_sizes":[],"default_left":[0,0,0,0,0,0,0],"id":2,"left_children":[1,-1,3,-1,5,-1,-1],"loss_changes":[1.9585579E1,0E0,4.409382E0,0E0,3.7303782E-1,0E0,0E0],"parents":[2147483647,0,0,2,2,4,4],"right_children":[2,-1,4,-1,6,-1,-1],"split_conditions":[1.35242E-1,-1.0488427E-1,4.03884E-1,-3.5068285E-2,6.479E-1,5.5738755E-2,1.0820626E-2],"split_indices":[21,0,16,0,16,0,0],"split_type":[0,0,0,0,0,0,0],"sum_hessian":[1.0098188E1,2.5230224E0,7.5751667E0,1.1282114E0,6.446955E0,5.345455E0,1.1015002E0],"tree_param":{"num_deleted":"0","num_feature":"22","num_nodes":"7","size_leaf_vector":"1"}},{"base_weights":[-1.9182513E-2,-9.188354E-2,8.23344E-1,-3.3934157E-2,5.6856032E-2],"categories":[],"categories_nodes":[],"categories_segments":[],"categories_sizes":[],"default_left":[0,0,0,0,0],"id":3,"left_children":[1,-1,3,-1,-1],"loss_changes":[1.9681116E1,0E0,4.916456E0,0E0,0E0],"parents":[2147483647,0,0,2,2],"right_children":[2,-1,4,-1,-1],"split_conditions":[1.35242E-1,-9.188354E-2,4.07567E-1,-3.3934157E-2,5.6856032E-2],"split_indices":[21,0,16,0,0],"split_type":[0,0,0,0,0],"sum_hessian":[1.0858096E1,3.0639024E0,7.794194E0,1.1458997E0,6.6482944E0],"tree_param":{"num_deleted":"0","num_feature":"22","num_nodes":"5","size_leaf_vector":"1"}},{"base_weights":[5.0184682E-2,-7.926822E-2,7.79027E-1,-1.1144277E-2,9.7022563E-1,5.389471E-2,9.156391E-3],"categories":[],"categories_nodes":[],"categories_segments":[],"categories_sizes":[],"default_left":[0,0,0,0,0,0,0],"id":4,"left_children":[1,-1,3,-1,5,-1,-1],"loss_changes":[1.4291988E1,0E0,1.7961497E0,0E0,4.0536308E-1,0E0,0E0],"parents":[2147483647,0,0,2,2,4,4],"right_children":[2,-1,4,-1,6,-1,-1],"split_conditions":[1.35242E-1,-7.926822E-2,4.22229E-1,-1.1144277E-2,6.40945E-1,5.389471E-2,9.156391E-3],"split_indices":[21,0,16,0,16,0,0],"split_type":[0,0,0,0,0,0,0],"sum_hessian":[9.953287E0,2.7059202E0,7.2473664E0,1.1348478E0,6.112519E0,5.0519934E0,1.0605254E0],"tree_param":{"num_deleted":"0","num_feature":"22","num_nodes":"7","size_leaf_vector":"1"}},{"base_weights":[1.8628345E-1,-6.63496E-2,7.696635E-1,-4.3835533E-3,5.339262E-2,3.4872897E-2,-3.6818016E-2],"categories":[],"categories_nodes":[],"categories_segments":[],"categories_sizes":[],"default_left":[0,0,0,0,0,0,0],"id":5,"left_children":[1,-1,3,5,-1,-1,-1],"loss_changes":[1.0347214E1,0E0,1.9105902E0,2.2049367E0,0E0,0E0,0E0],"parents":[2147483647,0,0,2,2,3,3],"right_children":[2,-1,4,6,-1,-1,-1],"split_conditions":[1.35242E-1,-6.63496E-2,2.07914E-1,1.60414E-1,5.339262E-2,3.4872897E-2,-3.6818016E-2],"split_indices":[21,0,19,19,0,0,0],"split_type":[0,0,0,0,0,0,0],"sum_hessian":[9.563797E0,2.306395E0,7.257402E0,2.2922955E0,4.965106E0,1.1943117E0,1.0979838E0],"tree_param":{"num_deleted":"0","num_feature":"22","num_nodes":"7","size_leaf_vector":"1"}},{"base_weights":[7.851861E-2,-7.4482314E-2,8.468125E-1,-9.754976E-3,5.3281307E-2],"categories":[],"categories_nodes":[],"categories_segments":[],"categories_sizes":[],"default_left":[0,0,0,0,0],"id":6,"left_children":[1,-1,3,-1,-1],"loss_changes":[1.373277E1,0E0,1.9371753E0,0E0,0E0],"parents":[2147483647,0,0,2,2],"right_children":[2,-1,4,-1,-1],"split_conditions":[-6.471427E0,-7.4482314E-2,4.07567E-1,-9.754976E-3,5.3281307E-2],"split_indices":[18,0,16,0,0],"split_type":[0,0,0,0,0],"sum_hessian":[9.351262E0,2.7662225E0,6.5850396E0,1.1617204E0,5.423319E0],"tree_param":{"num_deleted":"0","num_feature":"22","num_nodes":"5","size_leaf_vector":"1"}},{"base_weights":[-1.6718887E-1,-1.1055686E0,5.0213158E-2,-1.6862308E0,3.427772E-2,-2.6300225E-2,-9.5572315E-2],"categories":[],"categories_nodes":[],"categories_segments":[],"categories_sizes":[],"default_left":[0,0,0,0,0,0,0],"id":7,"left_children":[1,3,-1,5,-1,-1,-1],"loss_changes":[1.194834E1,7.344481E0,0E0,2.4425411E-1,0E0,0E0,0E0],"parents":[2147483647,0,0,1,1,3,3],"right_children":[2,4,-1,6,-1,-1,-1],"split_conditions":[2.07914E-1,1.441E-2,5.0213158E-2,3.44252E-1,3.427772E-2,-2.6300225E-2,-9.5572315E-2],"split_indices":[19,10,0,16,0,0,0],"split_type":[0,0,0,0,0,0,0],"sum_hessian":[8.859351E0,4.950247E0,3.9091046E0,3.782549E0,1.167698E0,1.1571099E0,2.6254392E0],"tree_param":{"num_deleted":"0","num_feature":"22","num_nodes":"7","size_leaf_vector":"1"}},{"base_weights":[-2.656309E-2,-8.069994E-2,8.3617026E-1,5.195762E-2,6.180817E-3],"categories":[],"categories_nodes":[],"categories_segments":[],"categories_sizes":[],"default_left":[0,0,0,0,0],"id":8,"left_children":[1,-1,3,-1,-1],"loss_changes":[1.6117994E1,0E0,9.773207E-1,0E0,0E0],"parents":[2147483647,0,0,2,2],"right_children":[2,-1,4,-1,-1],"split_conditions":[1.35242E-1,-8.069994E-2,2.09512E2,5.195762E-2,6.180817E-3],"split_indices":[21,0,1,0,0],"split_type":[0,0,0,0,0],"sum_hessian":[9.783535E0,3.13828E0,6.6452556E0,4.815217E0,1.8300385E0],"tree_param":{"num_deleted":"0","num_feature":"22","num_nodes":"5","size_leaf_vector":"1"}},{"base_weights":[-2.0588187E-3,-8.0348E-1,4.950091E-2,1.470602E-2,-1.3345947E0,-8.374321E-2,-9.498428E-3],"categories":[],"categories_nodes":[],"categories_segments":[],"categories_sizes":[],"default_left":[0,0,0,0,0,0,0],"id":9,"left_children":[1,3,-1,-1,5,-1,-1],"loss_changes":[8.898957E0,4.0008974E0,0E0,0E0,1.3768272E0,0E0,0E0],"parents":[2147483647,0,0,1,1,4,4],"right_children":[2,4,-1,-1,6,-1,-1],"split_conditions":[1.767E-2,7.48E-3,4.950091E-2,1.470602E-2,5.32E-3,-8.374321E-2,-9.498428E-3],"split_indices":[12,10,0,0,3,0,0],"split_type":[0,0,0,0,0,0,0],"sum_hessian":[9.1921625E0,5.1898184E0,4.002344E0,1.8378803E0,3.351938E0,2.226741E0,1.1251968E0],"tree_param":{"num_deleted":"0","num_feature":"22","num_nodes":"7","size_leaf_vector":"1"}},{"base_weights":[2.2855423E-2,-1.2134529E0,6.7797345E-1,-1.8317793E-2,-7.3108345E-2,-1.3220842E-2,5.0637223E-2],"categories":[],"categories_nodes":[],"categories_segments":[],"categories_sizes":[],"default_left":[0,0,0,0,0,0,0],"id":10,"left_children":[1,3,5,-1,-1,-1,-1],"loss_changes":[9.199467E0,2.9458046E-1,2.6029704E0,0E0,0E0,0E0,0E0],"parents":[2147483647,0,0,1,1,2,2],"right_children":[2,4,6,-1,-1,-1,-1],"split_conditions":[1.35242E-1,2.84E-3,2.07914E-1,-1.8317793E-2,-7.3108345E-2,-1.3220842E-2,5.0637223E-2],"split_indices":[21,3,19,0,0,0,0],"split_type":[0,0,0,0,0,0,0],"sum_hessian":[9.342622E0,2.9407358E0,6.401886E0,1.2287445E0,1.7119912E0,1.7331561E0,4.66873E0],"tree_param":{"num_deleted":"0","num_feature":"22","num_nodes":"7","size_leaf_vector":"1"}},{"base_weights":[-1.1940697E-2,-1.236418E0,6.79898E-1,-1.764339E-2,-7.419766E-2,-3.4942787E-2,5.161301E-2],"categories":[],"categories_nodes":[],"categories_segments":[],"categories_sizes":[],"default_left":[0,0,0,0,0,0,0],"id":11,"left_children":[1,3,5,-1,-1,-1,-1],"loss_changes":[9.873724E0,3.9590788E-1,4.344947E0,0E0,0E0,0E0,0E0],"parents":[2147483647,0,0,1,1,2,2],"right_children":[2,4,6,-1,-1,-1,-1],"split_conditions":[1.35242E-1,1.503E-2,4.22229E-1,-1.764339E-2,-7.419766E-2,-3.4942787E-2,5.161301E-2],"split_indices":[21,8,16,0,0,0,0],"split_type":[0,0,0,0,0,0,0],"sum_hessian":[9.663028E0,3.204418E0,6.4586096E0,1.2320988E0,1.9723191E0,1.1144698E0,5.34414E0],"tree_param":{"num_deleted":"0","num_feature":"22","num_nodes":"7","size_leaf_vector":"1"}},{"base_weights":[7.679425E-2,-1.192164E0,7.997106E-1,-1.6233467E-2,-7.2164685E-2,-1.6134549E-2,5.1623084E-2],"categories":[],"categories_nodes":[],"categories_segments":[],"categories_sizes":[],"default_left":[0,0,0,0,0,0,0],"id":12,"left_children":[1,3,5,-1,-1,-1,-1],"loss_changes":[1.0602745E1,4.5054817E-1,2.240128E0,0E0,0E0,0E0,0E0],"parents":[2147483647,0,0,1,1,2,2],"right_children":[2,4,6,-1,-1,-1,-1],"split_conditions":[1.35242E-1,3.44252E-1,1.25213E2,-1.6233467E-2,-7.2164685E-2,-1.6134549E-2,5.1623084E-2],"split_indices":[21,16,1,0,0,0,0],"split_type":[0,0,0,0,0,0,0],"sum_hessian":[9.518725E0,3.2190757E0,6.29965E0,1.2374171E0,1.9816586E0,1.015613E0,5.284037E0],"tree_param":{"num_deleted":"0","num_feature":"22","num_nodes":"7","size_leaf_vector":"1"}},{"base_weights":[-1.1680221E-1,7.6355964E-1,-1.0883877E0,4.9726777E-2,6.5763155E-3,-8.182916E-2,1.463101E-2],"categories":[],"categories_nodes":[],"categories_segments":[],"categories_sizes":[],"default_left":[0,0,0,0,0,0,0],"id":13,"left_children":[1,3,5,-1,-1,-1,-1],"loss_changes":[9.622233E0,7.4214935E-1,4.489906E0,0E0,0E0,0E0,0E0],"parents":[2147483647,0,0,1,1,2,2],"right_children":[2,4,6,-1,-1,-1,-1],"split_conditions":[2.06896E2,7.60361E-1,1.80528E-1,4.9726777E-2,6.5763155E-3,-8.182916E-2,1.463101E-2],"split_indices":[1,17,19,0,0,0,0],"split_type":[0,0,0,0,0,0,0],"sum_hessian":[9.277917E0,4.9797935E0,4.2981234E0,3.2269568E0,1.7528366E0,2.944307E0,1.3538165E0],"tree_param":{"num_deleted":"0","num_feature":"22","num_nodes":"7","size_leaf_vector":"1"}},{"base_weights":[9.080847E-2,9.0103745E-1,-8.9095604E-1,4.978406E-2,1.5263013E-2,-7.3908225E-2,3.1049758E-2],"categories":[],"categories_nodes":[],"categories_segments":[],"categories_sizes":[],"default_left":[0,0,0,0,0,0,0],"id":14,"left_children":[1,3,5,-1,-1,-1,-1],"loss_changes":[8.595028E0,2.671051E-2,5.296664E0,0E0,0E0,0E0,0E0],"parents":[2147483647,0,0,1,1,2,2],"right_children":[2,4,6,-1,-1,-1,-1],"split_conditions":[2.06896E2,7.60361E-1,2.07914E-1,4.978406E-2,1.5263013E-2,-7.3908225E-2,3.1049758E-2],"split_indices":[1,17,19,0,0,0,0],"split_type":[0,0,0,0,0,0,0],"sum_hessian":[8.795968E0,4.8640223E0,3.9319456E0,3.6180382E0,1.245984E0,2.8481383E0,1.0838073E0],"tree_param":{"num_deleted":"0","num_feature":"22","num_nodes":"7","size_leaf_vector":"1"}},{"base_weights":[-5.3149216E-2,-8.1492835E-1,8.179749E-1,2.7131027E-1,-7.106095E-2,4.573926E-2,1.0656626E-2,3.637399E-2,-1.626823E-2],"categories":[],"categories_nodes":[],"categories_segments":[],"categories_sizes":[],"default_left":[0,0,0,0,0,0,0,0,0],"id":15,"left_children":[1,3,5,7,-1,-1,-1,-1,-1],"loss_changes":[7.7050076E0,4.441911E0,1.2398577E-1,1.0657803E0,0E0,0E0,0E0,0E0,0E0],"parents":[2147483647,0,0,1,1,2,2,3,3],"right_children":[2,4,6,8,-1,-1,-1,-1,-1],"split_conditions":[2.07914E-1,2.06896E2,1.12773E2,1.52813E-1,-7.106095E-2,4.573926E-2,1.0656626E-2,3.637399E-2,-1.626823E-2],"split_indices":[19,1,2,19,0,0,0,0,0],"split_type":[0,0,0,0,0,0,0,0,0],"sum_hessian":[9.606347E0,5.159226E0,4.4471216E0,2.0460331E0,3.113193E0,3.3917994E0,1.0553219E0,1.0353016E0,1.0107315E0],"tree_param":{"num_deleted":"0","num_feature":"22","num_nodes":"9","size_leaf_vector":"1"}},{"base_weights":[-2.1362148E-1,-1.0000954E0,7.6077855E-1,-7.4103534E-2,1.6331984E-2,4.3296434E-2,9.363149E-3],"categories":[],"categories_nodes":[],"categories_segments":[],"categories_sizes":[],"default_left":[0,0,0,0,0,0,0],"id":16,"left_children":[1,3,5,-1,-1,-1,-1],"loss_changes":[8.013061E0,4.109004E0,1.2698817E-1,0E0,0E0,0E0,0E0],"parents":[2147483647,0,0,1,1,2,2],"right_children":[2,4,6,-1,-1,-1,-1],"split_conditions":[1.767E-2,2.07914E-1,1.62568E2,-7.4103534E-2,1.6331984E-2,4.3296434E-2,9.363149E-3],"split_indices":[12,19,0,0,0,0,0],"split_type":[0,0,0,0,0,0,0],"sum_hessian":[8.463433E0,4.6687465E0,3.7946866E0,3.3387623E0,1.3299842E0,2.7758858E0,1.0188006E0],"tree_param":{"num_deleted":"0","num_feature":"22","num_nodes":"7","size_leaf_vector":"1"}},{"base_weights":[1.3184201E-2,-1.0774347E0,7.5635666E-1,-1.1475063E-2,-6.5608405E-2,-8.542643E-3,4.872499E-2],"categories":[],"categories_nodes":[],"categories_segments":[],"categories_sizes":[],"default_left":[0,0,0,0,0,0,0],"id":17,"left_children":[1,3,5,-1,-1,-1,-1],"loss_changes":[9.36794E0,6.3215256E-1,1.554738E0,0E0,0E0,0E0,0E0],"parents":[2147483647,0,0,1,1,2,2],"right_children":[2,4,6,-1,-1,-1,-1],"split_conditions":[1.35242E-1,3.44252E-1,4.07567E-1,-1.1475063E-2,-6.5608405E-2,-8.542643E-3,4.872499E-2],"split_indices":[21,16,16,0,0,0,0],"split_type":[0,0,0,0,0,0,0],"sum_hessian":[9.55253E0,3.6890323E0,5.863498E0,1.2286084E0,2.4604237E0,1.1580474E0,4.705451E0],"tree_param":{"num_deleted":"0","num_feature":"22","num_nodes":"7","size_leaf_vector":"1"}},{"base_weights":[-3.913901E-2,-6.7338306E-1,7.5263107E-1,2.8131765E-1,-6.25909E-2,9.300088E-3,4.2742558E-2,-1.2697431E-2,3.3451445E-2],"categories":[],"categories_nodes":[],"categories_segments":[],"categories_sizes":[],"default_left":[0,0,0,0,0,0,0,0,0],"id":18,"left_children":[1,3,5,7,-1,-1,-1,-1,-1],"loss_changes":[5.3493524E0,3.6003714E0,1.1676669E-1,7.9989594E-1,0E0,0E0,0E0,0E0,0E0],"parents":[2147483647,0,0,1,1,2,2,3,3],"right_children":[2,4,6,8,-1,-1,-1,-1,-1],"split_conditions":[2.07914E-1,2.06896E2,2.59E-3,2.080121E0,-6.25909E-2,9.300088E-3,4.2742558E-2,-1.2697431E-2,3.3451445E-2],"split_indices":[19,1,6,20,0,0,0,0,0],"split_type":[0,0,0,0,0,0,0,0,0],"sum_hessian":[8.64313E0,4.8819704E0,3.7611597E0,2.0357099E0,2.8462608E0,1.0057387E0,2.755421E0,1.000057E0,1.0356529E0],"tree_param":{"num_deleted":"0","num_feature":"22","num_nodes":"9","size_leaf_vector":"1"}},{"base_weights":[-3.9009742E-2,-6.744187E-1,7.373456E-1,-1.0520372E0,1.614845E-2,9.7888345E-3,4.1843053E-2,5.0448845E-3,-7.568294E-2],"categories":[],"categories_nodes":[],"categories_segments":[],"categories_sizes":[],"default_left":[0,0,0,0,0,0,0,0,0],"id":19,"left_children":[1,3,5,7,-1,-1,-1,-1,-1],"loss_changes":[5.021922E0,2.43619E0,8.4396124E-2,2.4266052E0,0E0,0E0,0E0,0E0,0E0],"parents":[2147483647,0,0,1,1,2,2,3,3],"right_children":[2,4,6,8,-1,-1,-1,-1,-1],"split_conditions":[2.07914E-1,2.215E-2,-5.736781E0,1.36E-3,1.614845E-2,9.7888345E-3,4.1843053E-2,5.0448845E-3,-7.568294E-2],"split_indices":[19,8,18,5,0,0,0,0,0],"split_type":[0,0,0,0,0,0,0,0,0],"sum_hessian":[8.172135E0,4.5662136E0,3.6059217E0,3.2724473E0,1.2937663E0,1.0203607E0,2.5855608E0,1.1590526E0,2.1133947E0],"tree_param":{"num_deleted":"0","num_feature":"22","num_nodes":"9","size_leaf_vector":"1"}},{"base_weights":[-1.721821E-1,-8.8976705E-1,4.4397544E-2,-1.2178568E0,1.3690884E-2,-9.588748E-3,-7.468328E-2],"categories":[],"categories_nodes":[],"categories_segments":[],"categories_sizes":[],"default_left":[0,0,0,0,0,0,0],"id":20,"left_children":[1,3,-1,5,-1,-1,-1],"loss_changes":[8.102499E0,2.712502E0,0E0,1.1412001E0,0E0,0E0,0E0],"parents":[2147483647,0,0,1,1,3,3],"right_children":[2,4,-1,6,-1,-1,-1],"split_conditions":[1.767E-2,2.07914E-1,4.4397544E-2,1.472E-2,1.3690884E-2,-9.588748E-3,-7.468328E-2],"split_indices":[12,19,0,8,0,0,0],"split_type":[0,0,0,0,0,0,0],"sum_hessian":[8.612315E0,5.231744E0,3.380571E0,4.044653E0,1.187091E0,1.2160273E0,2.8286257E0],"tree_param":{"num_deleted":"0","num_feature":"22","num_nodes":"7","size_leaf_vector":"1"}},{"base_weights":[-1.4529978E-2,-6.697813E-1,4.3385975E-2,8.773002E-3,-5.7005443E-2],"categories":[],"categories_nodes":[],"categories_segments":[],"categories_sizes":[],"default_left":[0,0,0,0,0],"id":21,"left_children":[1,3,-1,-1,-1],"loss_changes":[5.4595404E0,2.3494067E0,0E0,0E0,0E0],"parents":[2147483647,0,0,1,1],"right_children":[2,4,-1,-1,-1],"split_conditions":[2.07914E-1,2.06896E2,4.3385975E-2,8.773002E-3,-5.7005443E-2],"split_indices":[19,1,0,0,0],"split_type":[0,0,0,0,0],"sum_hessian":[7.4386764E0,4.4066553E0,3.032021E0,1.7995551E0,2.6071002E0],"tree_param":{"num_deleted":"0","num_feature":"22","num_nodes":"5","size_leaf_vector":"1"}},{"base_weights":[1.7244104E-1,-4.139611E-2,7.7869004E-1,7.263323E-3,4.5093097E-2],"categories":[],"categories_nodes":[],"categories_segments":[],"categories_sizes":[],"default_left":[0,0,0,0,0],"id":22,"left_children":[1,-1,3,-1,-1],"loss_changes":[5.121273E0,0E0,2.6777864E-1,0E0,0E0],"parents":[2147483647,0,0,2,2],"right_children":[2,-1,4,-1,-1],"split_conditions":[-6.471427E0,-4.139611E-2,1.13715E2,7.263323E-3,4.5093097E-2],"split_indices":[18,0,0,0,0],"split_type":[0,0,0,0,0],"sum_hessian":[6.381378E0,2.270013E0,4.111365E0,1.0241178E0,3.0872471E0],"tree_param":{"num_deleted":"0","num_feature":"22","num_nodes":"5","size_leaf_vector":"1"}},{"base_weights":[-7.894261E-2,-7.198812E-1,6.7227316E-1,2.0806983E-3,-9.3479735E-1,4.021013E-2,5.735398E-3,-5.573525E-2,-1.3955493E-2],"categories":[],"categories_nodes":[],"categories_segments":[],"categories_sizes":[],"default_left":[0,0,0,0,0,0,0,0,0],"id":23,"left_children":[1,3,5,-1,7,-1,-1,-1,-1],"loss_changes":[4.502292E0,8.549504E-1,2.2842753E-1,0E0,1.5263629E-1,0E0,0E0,0E0,0E0],"parents":[2147483647,0,0,1,1,2,2,4,4],"right_children":[2,4,6,-1,8,-1,-1,-1,-1],"split_conditions":[-5.86975E0,1.32E-1,2.01249E2,2.0806983E-3,2.06E-1,4.021013E-2,5.735398E-3,-5.573525E-2,-1.3955493E-2],"split_indices":[18,9,1,0,9,0,0,0,0],"split_type":[0,0,0,0,0,0,0,0,0],"sum_hessian":[7.3457437E0,3.9863205E0,3.3594234E0,1.0549111E0,2.9314094E0,2.3589163E0,1.000507E0,1.7509328E0,1.1804767E0],"tree_param":{"num_deleted":"0","num_feature":"22","num_nodes":"9","size_leaf_vector":"1"}},{"base_weights":[9.4311945E-2,8.221774E-1,-7.661563E-1,6.9162296E-3,4.767178E-2,-5.9305098E-2,1.0582432E-2],"categories":[],"categories_nodes":[],"categories_segments":[],"categories_sizes":[],"default_left":[0,0,0,0,0,0,0],"id":24,"left_children":[1,3,5,-1,-1,-1,-1],"loss_changes":[6.119607E0,3.3764434E-1,2.1129549E0,0E0,0E0,0E0,0E0],"parents":[2147483647,0,0,1,1,2,2],"right_children":[2,4,6,-1,-1,-1,-1],"split_conditions":[2.09512E2,1.27349E2,1.7352E-1,6.9162296E-3,4.767178E-2,-5.9305098E-2,1.0582432E-2],"split_indices":[1,1,19,0,0,0,0],"split_type":[0,0,0,0,0,0,0],"sum_hessian":[7.7652016E0,4.2308493E0,3.5343525E0,1.0120295E0,3.2188196E0,2.3234549E0,1.2108977E0],"tree_param":{"num_deleted":"0","num_feature":"22","num_nodes":"7","size_leaf_vector":"1"}},{"base_weights":[9.0676986E-2,-6.63989E-1,5.2487254E-1,-4.386949E-3,-4.5578483E-2,-4.6108864E-2,4.2099398E-2,1.1772223E-2,-1.5600571E-2],"categories":[],"categories_nodes":[],"categories_segments":[],"categories_sizes":[],"default_left":[0,0,0,0,0,0,0,0,0],"id":25,"left_children":[1,3,5,-1,-1,7,-1,-1,-1],"loss_changes":[3.1138308E0,4.227376E-1,1.1099426E0,0E0,0E0,3.025791E-1,0E0,0E0,0E0],"parents":[2147483647,0,0,1,1,2,2,5,5],"right_children":[2,4,6,-1,-1,8,-1,-1,-1],"split_conditions":[1.35242E-1,3.44252E-1,2.215E-2,-4.386949E-3,-4.5578483E-2,-5.86975E0,4.2099398E-2,1.1772223E-2,-1.5600571E-2],"split_indices":[21,16,8,0,0,18,0,0,0],"split_type":[0,0,0,0,0,0,0,0,0],"sum_hessian":[7.4392805E0,2.5236826E0,4.915598E0,1.1654513E0,1.3582312E0,2.0603817E0,2.8552163E0,1.0563753E0,1.0040064E0],"tree_param":{"num_deleted":"0","num_feature":"22","num_nodes":"9","size_leaf_vector":"1"}},{"base_weights":[-8.699019E-2,-6.0434103E-1,6.765135E-1,6.4791213E-3,-9.331536E-1,3.8409386E-2,1.03332475E-2,-5.5217814E-2,-1.5284105E-2],"categories":[],"categories_nodes":[],"categories_segments":[],"categories_sizes":[],"default_left":[0,0,0,0,0,0,0,0,0],"id":26,"left_children":[1,3,5,-1,7,-1,-1,-1,-1],"loss_changes":[4.006718E0,1.5586491E0,2.0032763E-2,0E0,1.17501736E-1,0E0,0E0,0E0,0E0],"parents":[2147483647,0,0,1,1,2,2,4,4],"right_children":[2,4,6,-1,8,-1,-1,-1,-1],"split_conditions":[1.767E-2,7.48E-3,2.659E-2,6.4791213E-3,2.26E-3,3.8409386E-2,1.03332475E-2,-5.5217814E-2,-1.5284105E-2],"split_indices":[12,10,14,0,6,0,0,0,0],"split_type":[0,0,0,0,0,0,0,0,0],"sum_hessian":[8.108557E0,4.957687E0,3.1508698E0,1.7213873E0,3.2362995E0,2.1051552E0,1.0457146E0,1.9454757E0,1.2908239E0],"tree_param":{"num_deleted":"0","num_feature":"22","num_nodes":"9","size_leaf_vector":"1"}},{"base_weights":[-1.5638843E-1,-5.0348897E-2,5.001128E-1,-8.573457E-3,4.2031486E-2],"categories":[],"categories_nodes":[],"categories_segments":[],"categories_sizes":[],"default_left":[0,0,0,0,0],"id":27,"left_children":[1,-1,3,-1,-1],"loss_changes":[5.4302754E0,0E0,1.4356592E0,0E0,0E0],"parents":[2147483647,0,0,2,2],"right_children":[2,-1,4,-1,-1],"split_conditions":[1.35242E-1,-5.0348897E-2,1.497E-2,-8.573457E-3,4.2031486E-2],"split_indices":[21,0,12,0,0],"split_type":[0,0,0,0,0],"sum_hessian":[7.822633E0,3.175052E0,4.6475806E0,1.7306883E0,2.9168925E0],"tree_param":{"num_deleted":"0","num_feature":"22","num_nodes":"5","size_leaf_vector":"1"}},{"base_weights":[1.3782887E-2,-7.532122E-1,5.214631E-1,-3.2066011E-3,-5.083662E-2,-4.0312605E-3,4.1912068E-2],"categories":[],"categories_nodes":[],"categories_segments":[],"categories_sizes":[],"default_left":[0,0,0,0,0,0,0],"id":28,"left_children":[1,3,5,-1,-1,-1,-1],"loss_changes":[3.8481567E0,6.508634E-1,1.1986947E0,0E0,0E0,0E0,0E0],"parents":[2147483647,0,0,1,1,2,2],"right_children":[2,4,6,-1,-1,-1,-1],"split_conditions":[1.35242E-1,3.66329E-1,1.92E-1,-3.2066011E-3,-5.083662E-2,-4.0312605E-3,4.1912068E-2],"split_indices":[21,16,9,0,0,0,0],"split_type":[0,0,0,0,0,0,0],"sum_hessian":[7.8738804E0,2.9434016E0,4.930479E0,1.158196E0,1.7852055E0,1.956782E0,2.973697E0],"tree_param":{"num_deleted":"0","num_feature":"22","num_nodes":"7","size_leaf_vector":"1"}},{"base_weights":[3.9850555E-2,7.50148E-1,-6.9847524E-1,6.6270004E-3,4.4724707E-2,-5.1690172E-2,1.2681559E-3],"categories":[],"categories_nodes":[],"categories_segments":[],"categories_sizes":[],"default_left":[0,0,0,0,0,0,0],"id":29,"left_children":[1,3,5,-1,-1,-1,-1],"loss_changes":[4.5511518E0,2.7334714E-1,1.0658362E0,0E0,0E0,0E0,0E0],"parents":[2147483647,0,0,1,1,2,2],"right_children":[2,4,6,-1,-1,-1,-1],"split_conditions":[2.03522E2,2.041277E0,4.41097E-1,6.6270004E-3,4.4724707E-2,-5.1690172E-2,1.2681559E-3],"split_indices":[1,20,16,0,0,0,0],"split_type":[0,0,0,0,0,0,0],"sum_hessian":[6.6791654E0,3.3960369E0,3.2831285E0,1.0067414E0,2.3892953E0,1.9510522E0,1.3320764E0],"tree_param":{"num_deleted":"0","num_feature":"22","num_nodes":"7","size_leaf_vector":"1"}},{"base_weights":[-1.05782546E-1,-4.6417993E-2,4.873796E-1,-9.40175E-3,4.1714247E-2],"categories":[],"categories_nodes":[],"categories_segments":[],"categories_sizes":[],"default_left":[0,0,0,0,0],"id":30,"left_children":[1,-1,3,-1,-1],"loss_changes":[4.555028E0,0E0,1.4551878E0,0E0,0E0],"parents":[2147483647,0,0,2,2],"right_children":[2,-1,4,-1,-1],"split_conditions":[1.35242E-1,-4.6417993E-2,1.94627E-1,-9.40175E-3,4.1714247E-2],"split_indices":[21,0,19,0,0],"split_type":[0,0,0,0,0],"sum_hessian":[7.4082427E0,2.867118E0,4.541125E0,1.6963483E0,2.8447764E0],"tree_param":{"num_deleted":"0","num_feature":"22","num_nodes":"5","size_leaf_vector":"1"}},{"base_weights":[-1.44178E-1,-4.4905704E-2,4.3264362E-1,-8.714325E-3,3.9515417E-2],"categories":[],"categories_nodes":[],"categories_segments":[],"categories_sizes":[],"default_left":[0,0,0,0,0],"id":31,"left_children":[1,-1,3,-1,-1],"loss_changes":[3.8886793E0,0E0,1.2740644E0,0E0,0E0],"parents":[2147483647,0,0,2,2],"right_children":[2,-1,4,-1,-1],"split_conditions":[-6.471427E0,-4.4905704E-2,1.92E-1,-8.714325E-3,3.9515417E-2],"split_indices":[18,0,9,0,0],"split_type":[0,0,0,0,0],"sum_hessian":[7.0483413E0,2.8136928E0,4.234648E0,1.7602859E0,2.4743626E0],"tree_param":{"num_deleted":"0","num_feature":"22","num_nodes":"5","size_leaf_vector":"1"}},{"base_weights":[7.216376E-2,-4.3178615E-1,4.1825775E-2,2.0151636E-2,-8.849137E-1,-6.2286194E-2,4.6266915E-4],"categories":[],"categories_nodes":[],"categories_segments":[],"categories_sizes":[],"default_left":[0,0,0,0,0,0,0],"id":32,"left_children":[1,3,-1,-1,5,-1,-1],"loss_changes":[3.4016764E0,2.4056172E0,0E0,0E0,1.2451837E0,0E0,0E0],"parents":[2147483647,0,0,1,1,4,4],"right_children":[2,4,-1,-1,6,-1,-1],"split_conditions":[2.68E-3,1.33E-1,4.1825775E-2,2.0151636E-2,2.047E-2,-6.2286194E-2,4.6266915E-4],"split_indices":[5,9,0,0,8,0,0],"split_type":[0,0,0,0,0,0,0],"sum_hessian":[6.8933554E0,4.416547E0,2.4768085E0,1.5927323E0,2.8238146E0,1.7318285E0,1.0919862E0],"tree_param":{"num_deleted":"0","num_feature":"22","num_nodes":"7","size_leaf_vector":"1"}},{"base_weights":[-1.5374103E-1,-6.0694504E-1,3.6317088E-2,-8.932084E-1,1.29711805E-2,-4.827946E-3,-6.10456E-2],"categories":[],"categories_nodes":[],"categories_segments":[],"categories_sizes":[],"default_left":[0,0,0,0,0,0,0],"id":33,"left_children":[1,3,-1,5,-1,-1,-1],"loss_changes":[3.3767488E0,1.5718431E0,0E0,1.0011888E0,0E0,0E0,0E0],"parents":[2147483647,0,0,1,1,3,3],"right_children":[2,4,-1,6,-1,-1,-1],"split_conditions":[1.767E-2,2.07914E-1,3.6317088E-2,1.58453E-1,1.29711805E-2,-4.827946E-3,-6.10456E-2],"split_indices":[12,19,0,19,0,0,0],"split_type":[0,0,0,0,0,0,0],"sum_hessian":[6.3607807E0,4.4035172E0,1.9572636E0,3.2865906E0,1.1169267E0,1.335248E0,1.9513426E0],"tree_param":{"num_deleted":"0","num_feature":"22","num_nodes":"7","size_leaf_vector":"1"}},{"base_weights":[-2.025574E-2,-5.5664814E-1,6.5062314E-1,6.132897E-3,-4.606132E-2,9.974327E-3,3.6997084E-2],"categories":[],"categories_nodes":[],"categories_segments":[],"categories_sizes":[],"default_left":[0,0,0,0,0,0,0],"id":34,"left_children":[1,3,5,-1,-1,-1,-1],"loss_changes":[3.2042203E0,1.3333926E0,1.2365222E-2,0E0,0E0,0E0,0E0],"parents":[2147483647,0,0,1,1,2,2],"right_children":[2,4,6,-1,-1,-1,-1],"split_conditions":[2.07914E-1,2.00125E2,1.38752E2,6.132897E-3,-4.606132E-2,9.974327E-3,3.6997084E-2],"split_indices":[19,1,1,0,0,0,0],"split_type":[0,0,0,0,0,0,0],"sum_hessian":[6.8977847E0,3.9277077E0,2.9700768E0,1.6035081E0,2.3241997E0,1.0252248E0,1.9448521E0],"tree_param":{"num_deleted":"0","num_feature":"22","num_nodes":"7","size_leaf_vector":"1"}},{"base_weights":[-7.41017E-2,-6.42214E-1,6.4788085E-1,7.3855924E-3,-5.4993417E-2,3.67955E-2,9.775228E-3],"categories":[],"categories_nodes":[],"categories_segments":[],"categories_sizes":[],"default_left":[0,0,0,0,0,0,0],"id":35,"left_children":[1,3,5,-1,-1,-1,-1],"loss_changes":[3.6409283E0,1.9346752E0,1.3825417E-2,0E0,0E0,0E0,0E0],"parents":[2147483647,0,0,1,1,2,2],"right_children":[2,4,6,-1,-1,-1,-1],"split_conditions":[2.07914E-1,2.06896E2,7.41367E-1,7.3855924E-3,-5.4993417E-2,3.67955E-2,9.775228E-3],"split_indices":[19,1,17,0,0,0,0],"split_type":[0,0,0,0,0,0,0],"sum_hessian":[6.862283E0,3.9022071E0,2.960076E0,1.6798955E0,2.2223115E0,1.9532272E0,1.0068489E0],"tree_param":{"num_deleted":"0","num_feature":"22","num_nodes":"7","size_leaf_vector":"1"}},{"base_weights":[5.3639073E-2,-6.482587E-1,5.884352E-1,2.664114E-3,-4.671458E-2,4.0921923E-2,6.5270774E-3],"categories":[],"categories_nodes":[],"categories_segments":[],"categories_sizes":[],"default_left":[0,0,0,0,0,0,0],"id":36,"left_children":[1,3,5,-1,-1,-1,-1],"loss_changes":[3.3189516E0,8.243222E-1,4.1612744E-1,0E0,0E0,0E0,0E0],"parents":[2147483647,0,0,1,1,2,2],"right_children":[2,4,6,-1,-1,-1,-1],"split_conditions":[1.35242E-1,3.44252E-1,3.46E-3,2.664114E-3,-4.671458E-2,4.0921923E-2,6.5270774E-3],"split_indices":[21,16,6,0,0,0,0],"split_type":[0,0,0,0,0,0,0],"sum_hessian":[6.8255486E0,2.8598948E0,3.9656541E0,1.0639958E0,1.7958988E0,2.1155832E0,1.850071E0],"tree_param":{"num_deleted":"0","num_feature":"22","num_nodes":"7","size_leaf_vector":"1"}},{"base_weights":[-5.11136E-2,-4.84152E-1,3.7500765E-2,1.7312447E-2,-8.113836E-1,-5.678479E-2,3.9586006E-3],"categories":[],"categories_nodes":[],"categories_segments":[],"categories_sizes":[],"default_left":[0,0,0,0,0,0,0],"id":37,"left_children":[1,3,-1,-1,5,-1,-1],"loss_changes":[3.1211767E0,1.848391E0,0E0,0E0,1.3713677E0,0E0,0E0],"parents":[2147483647,0,0,1,1,4,4],"right_children":[2,4,-1,-1,6,-1,-1],"split_conditions":[1.767E-2,2.245E-2,3.7500765E-2,1.7312447E-2,5.32E-3,-5.678479E-2,3.9586006E-3],"split_indices":[12,13,0,0,3,0,0],"split_type":[0,0,0,0,0,0,0],"sum_hessian":[6.95013E0,4.768338E0,2.181792E0,1.3314533E0,3.4368849E0,2.317616E0,1.1192689E0],"tree_param":{"num_deleted":"0","num_feature":"22","num_nodes":"7","size_leaf_vector":"1"}},{"base_weights":[1.9794753E-2,-4.9224865E-1,3.8347993E-2,-4.9907707E-2,7.900043E-2,2.4924075E-2,-1.8063175E-2],"categories":[],"categories_nodes":[],"categories_segments":[],"categories_sizes":[],"default_left":[0,0,0,0,0,0,0],"id":38,"left_children":[1,3,-1,-1,5,-1,-1],"loss_changes":[3.116496E0,1.4825325E0,0E0,0E0,7.725186E-1,0E0,0E0],"parents":[2147483647,0,0,1,1,4,4],"right_children":[2,4,-1,-1,6,-1,-1],"split_conditions":[2.07914E-1,1.13787E2,3.8347993E-2,-4.9907707E-2,1.97569E2,2.4924075E-2,-1.8063175E-2],"split_indices":[19,2,0,0,0,0,0],"split_type":[0,0,0,0,0,0,0],"sum_hessian":[6.1591673E0,3.857051E0,2.3021164E0,1.6491894E0,2.2078614E0,1.0629014E0,1.14496E0],"tree_param":{"num_deleted":"0","num_feature":"22","num_nodes":"7","size_leaf_vector":"1"}},{"base_weights":[2.1997215E-1,3.8602907E-2,-3.3724643E-2],"categories":[],"categories_nodes":[],"categories_segments":[],"categories_sizes":[],"default_left":[0,0,0],"id":39,"left_children":[1,-1,-1],"loss_changes":[3.4284084E0,0E0,0E0],"parents":[2147483647,0,0],"right_children":[2,-1,-1],"split_conditions":[1.97076E2,3.8602907E-2,-3.3724643E-2],"split_indices":[0,0,0],"split_type":[0,0,0],"sum_hessian":[4.888079E0,3.1071305E0,1.7809489E0],"tree_param":{"num_deleted":"0","num_feature":"22","num_nodes":"3","size_leaf_vector":"1"}},{"base_weights":[7.709474E-2,-3.3222564E-2,4.4965696E-1,-1.1149202E-2,6.6535586E-1,4.44004E-2,-1.8745546E-3],"categories":[],"categories_nodes":[],"categories_segments":[],"categories_sizes":[],"default_left":[0,0,0,0,0,0,0],"id":40,"left_children":[1,-1,3,-1,5,-1,-1],"loss_changes":[2.3942194E0,0E0,9.673492E-1,0E0,7.4143577E-1,0E0,0E0],"parents":[2147483647,0,0,2,2,4,4],"right_children":[2,-1,4,-1,6,-1,-1],"split_conditions":[1.1573E-1,-3.3222564E-2,1.1787E2,-1.1149202E-2,4.3E-3,4.44004E-2,-1.8745546E-3],"split_indices":[21,0,0,0,5,0,0],"split_type":[0,0,0,0,0,0,0],"sum_hessian":[6.584714E0,1.9399611E0,4.644753E0,1.1195973E0,3.5251558E0,2.4770243E0,1.0481315E0],"tree_param":{"num_deleted":"0","num_feature":"22","num_nodes":"7","size_leaf_vector":"1"}},{"base_weights":[1.566838E-2,-4.0521514E-1,3.377749E-2,9.92674E-3,-7.0649004E-1,-4.72764E-2,-5.1762965E-3],"categories":[],"categories_nodes":[],"categories_segments":[],"categories_sizes":[],"default_left":[0,0,0,0,0,0,0],"id":41,"left_children":[1,3,-1,-1,5,-1,-1],"loss_changes":[2.3497207E0,1.0840957E0,0E0,0E0,4.3265033E-1,0E0,0E0],"parents":[2147483647,0,0,1,1,4,4],"right_children":[2,4,-1,-1,6,-1,-1],"split_conditions":[2.68E-3,1.472E-2,3.377749E-2,9.92674E-3,1.191E-2,-4.72764E-2,-5.1762965E-3],"split_indices":[5,8,0,0,11,0,0],"split_type":[0,0,0,0,0,0,0],"sum_hessian":[6.474719E0,4.188897E0,2.285822E0,1.5079693E0,2.6809278E0,1.5129884E0,1.1679393E0],"tree_param":{"num_deleted":"0","num_feature":"22","num_nodes":"7","size_leaf_vector":"1"}},{"base_weights":[-8.976291E-2,-4.8324814E-1,3.4722835E-2,1.9615643E-2,-7.9442185E-1,-5.088789E-2,-5.5909725E-3],"categories":[],"categories_nodes":[],"categories_segments":[],"categories_sizes":[],"default_left":[0,0,0,0,0,0,0],"id":42,"left_children":[1,3,-1,-1,5,-1,-1],"loss_changes":[2.5366209E0,1.7663639E0,0E0,0E0,5.3713465E-1,0E0,0E0],"parents":[2147483647,0,0,1,1,4,4],"right_children":[2,4,-1,-1,6,-1,-1],"split_conditions":[1.767E-2,3.41788E-1,3.4722835E-2,1.9615643E-2,1.94627E-1,-5.088789E-2,-5.5909725E-3],"split_indices":[12,16,0,0,19,0,0],"split_type":[0,0,0,0,0,0,0],"sum_hessian":[6.1327825E0,4.3393044E0,1.7934781E0,1.0694373E0,3.2698672E0,2.0938113E0,1.1760558E0],"tree_param":{"num_deleted":"0","num_feature":"22","num_nodes":"7","size_leaf_vector":"1"}},{"base_weights":[-1.0324338E-1,-4.6454898E-1,2.6474658E-2,1.912383E-2,-7.6878285E-1,-4.9753144E-2,-4.8424634E-3],"categories":[],"categories_nodes":[],"categories_segments":[],"categories_sizes":[],"default_left":[0,0,0,0,0,0,0],"id":43,"left_children":[1,3,-1,-1,5,-1,-1],"loss_changes":[1.9606949E0,1.6616253E0,0E0,0E0,5.4781294E-1,0E0,0E0],"parents":[2147483647,0,0,1,1,4,4],"right_children":[2,4,-1,-1,6,-1,-1],"split_conditions":[1.767E-2,3.44252E-1,2.6474658E-2,1.912383E-2,4.41097E-1,-4.9753144E-2,-4.8424634E-3],"split_indices":[12,16,0,0,16,0,0],"split_type":[0,0,0,0,0,0,0],"sum_hessian":[6.50059E0,4.3070087E0,2.1935809E0,1.0702151E0,3.2367938E0,2.0616267E0,1.1751671E0],"tree_param":{"num_deleted":"0","num_feature":"22","num_nodes":"7","size_leaf_vector":"1"}},{"base_weights":[-6.3448176E-2,4.0928817E-1,-5.7926744E-1,-1.2579426E-2,4.1512907E-2,-4.7395926E-2,1.1168209E-2],"categories":[],"categories_nodes":[],"categories_segments":[],"categories_sizes":[],"default_left":[0,0,0,0,0,0,0],"id":44,"left_children":[1,3,5,-1,-1,-1,-1],"loss_changes":[2.0582118E0,1.4560609E0,1.3909888E0,0E0,0E0,0E0,0E0],"parents":[2147483647,0,0,1,1,2,2],"right_children":[2,4,6,-1,-1,-1,-1],"split_conditions":[2.06896E2,1.38752E2,1.80528E-1,-1.2579426E-2,4.1512907E-2,-4.7395926E-2,1.1168209E-2],"split_indices":[1,1,19,0,0,0,0],"split_type":[0,0,0,0,0,0,0],"sum_hessian":[6.468323E0,3.482876E0,2.985447E0,1.5118294E0,1.9710468E0,1.9217625E0,1.0636845E0],"tree_param":{"num_deleted":"0","num_feature":"22","num_nodes":"7","size_leaf_vector":"1"}},{"base_weights":[8.848783E-2,-5.2411914E-1,5.1527756E-1,2.6103945E-3,-4.0091407E-2,-8.7207155E-3,4.0539313E-2],"categories":[],"categories_nodes":[],"categories_segments":[],"categories_sizes":[],"default_left":[0,0,0,0,0,0,0],"id":45,"left_children":[1,3,5,-1,-1,-1,-1],"loss_changes":[2.044784E0,5.672992E-1,1.0595629E0,0E0,0E0,0E0,0E0],"parents":[2147483647,0,0,1,1,2,2],"right_children":[2,4,6,-1,-1,-1,-1],"split_conditions":[1.35242E-1,1.53E-3,2.137075E0,2.6103945E-3,-4.0091407E-2,-8.7207155E-3,4.0539313E-2],"split_indices":[21,6,20,0,0,0,0],"split_type":[0,0,0,0,0,0,0],"sum_hessian":[5.787867E0,2.2829328E0,3.5049343E0,1.0063888E0,1.2765441E0,1.1742107E0,2.3307238E0],"tree_param":{"num_deleted":"0","num_feature":"22","num_nodes":"7","size_leaf_vector":"1"}},{"base_weights":[-1.581492E-1,-4.675562E-1,2.6177928E-2,1.3823164E-2,-7.7059114E-1,-4.884767E-2,-5.096396E-3],"categories":[],"categories_nodes":[],"categories_segments":[],"categories_sizes":[],"default_left":[0,0,0,0,0,0,0],"id":46,"left_children":[1,3,-1,-1,5,-1,-1],"loss_changes":[1.6729168E0,1.3821406E0,0E0,0E0,4.4528127E-1,0E0,0E0],"parents":[2147483647,0,0,1,1,4,4],"right_children":[2,4,-1,-1,6,-1,-1],"split_conditions":[1.284E-2,7.42E-3,2.6177928E-2,1.3823164E-2,2.63E-3,-4.884767E-2,-5.096396E-3],"split_indices":[10,10,0,0,5,0,0],"split_type":[0,0,0,0,0,0,0],"sum_hessian":[5.770761E0,4.185312E0,1.5854496E0,1.2366762E0,2.9486353E0,1.9009205E0,1.047715E0],"tree_param":{"num_deleted":"0","num_feature":"22","num_nodes":"7","size_leaf_vector":"1"}},{"base_weights":[-2.8930467E-2,-6.24568E-1,3.6985885E-2,-4.2835213E-2,-1.6557024E-3],"categories":[],"categories_nodes":[],"categories_segments":[],"categories_sizes":[],"default_left":[0,0,0,0,0],"id":47,"left_children":[1,3,-1,-1,-1],"loss_changes":[3.2953908E0,5.247952E-1,0E0,0E0,0E0],"parents":[2147483647,0,0,1,1],"right_children":[2,4,-1,-1,-1],"split_conditions":[1.652E-2,-6.635729E0,3.6985885E-2,-4.2835213E-2,-1.6557024E-3],"split_indices":[12,18,0,0,0],"split_type":[0,0,0,0,0],"sum_hessian":[5.188655E0,3.028933E0,2.1597216E0,1.8531353E0,1.1757978E0],"tree_param":{"num_deleted":"0","num_feature":"22","num_nodes":"5","size_leaf_vector":"1"}},{"base_weights":[1.11793034E-1,-3.042956E-2,5.2767605E-1,-1.5848282E-3,3.5003033E-2],"categories":[],"categories_nodes":[],"categories_segments":[],"categories_sizes":[],"default_left":[0,0,0,0,0],"id":48,"left_children":[1,-1,3,-1,-1],"loss_changes":[2.3123667E0,0E0,4.8015702E-1,0E0,0E0],"parents":[2147483647,0,0,2,2],"right_children":[2,-1,4,-1,-1],"split_conditions":[1.1573E-1,-3.042956E-2,4.03884E-1,-1.5848282E-3,3.5003033E-2],"split_indices":[21,0,16,0,0],"split_type":[0,0,0,0,0],"sum_hessian":[5.646385E0,1.8970252E0,3.74936E0,1.0755204E0,2.6738396E0],"tree_param":{"num_deleted":"0","num_feature":"22","num_nodes":"5","size_leaf_vector":"1"}},{"base_weights":[-6.943913E-2,-3.9029345E-1,3.129827E-2,2.0700246E-2,-7.028988E-1,-5.6064095E-2,1.2461211E-2],"categories":[],"categories_nodes":[],"categories_segments":[],"categories_sizes":[],"default_left":[0,0,0,0,0,0,0],"id":49,"left_children":[1,3,-1,-1,5,-1,-1],"loss_changes":[1.6798083E0,1.5527599E0,0E0,0E0,1.8666706E0,0E0,0E0],"parents":[2147483647,0,0,1,1,4,4],"right_children":[2,4,-1,-1,6,-1,-1],"split_conditions":[1.284E-2,3.44252E-1,3.129827E-2,2.0700246E-2,2.07914E-1,-5.6064095E-2,1.2461211E-2],"split_indices":[10,16,0,0,19,0,0],"split_type":[0,0,0,0,0,0,0],"sum_hessian":[5.4336476E0,4.0183606E0,1.4152874E0,1.0338954E0,2.9844651E0,1.9499507E0,1.0345143E0],"tree_param":{"num_deleted":"0","num_feature":"22","num_nodes":"7","size_leaf_vector":"1"}},{"base_weights":[-5.527643E-2,-4.505039E-1,4.9235645E-1,1.7247934E-2,-8.258167E-1,5.0319205E-3,3.0967802E-2,-4.868655E-2,-1.3324834E-2],"categories":[],"categories_nodes":[],"categories_segments":[],"categories_sizes":[],"default_left":[0,0,0,0,0,0,0,0,0],"id":50,"left_children":[1,3,5,-1,7,-1,-1,-1,-1],"loss_changes":[1.7145456E0,1.6366918E0,1.05259836E-1,0E0,1.940012E-2,0E0,0E0,0E0,0E0],"parents":[2147483647,0,0,1,1,2,2,4,4],"right_children":[2,4,6,-1,8,-1,-1,-1,-1],"split_conditions":[8.03E-3,1.472E-2,5E-5,1.7247934E-2,2.033E-2,5.0319205E-3,3.0967802E-2,-4.868655E-2,-1.3324834E-2],"split_indices":[7,8,4,0,8,0,0,0,0],"split_type":[0,0,0,0,0,0,0,0,0],"sum_hessian":[5.8967853E0,3.5279906E0,2.3687944E0,1.1568865E0,2.3711042E0,1.0188084E0,1.3499862E0,1.2892404E0,1.0818639E0],"tree_param":{"num_deleted":"0","num_feature":"22","num_nodes":"9","size_leaf_vector":"1"}},{"base_weights":[7.130322E-3,-3.7223774E-1,3.439445E-2,2.027329E-2,-6.8050075E-1,-3.5811258E-3,-4.638306E-2],"categories":[],"categories_nodes":[],"categories_segments":[],"categories_sizes":[],"default_left":[0,0,0,0,0,0,0],"id":51,"left_children":[1,3,-1,-1,5,-1,-1],"loss_changes":[1.978641E0,1.4583057E0,0E0,0E0,5.212805E-1,0E0,0E0],"parents":[2147483647,0,0,1,1,4,4],"right_children":[2,4,-1,-1,6,-1,-1],"split_conditions":[2.07914E-1,3.41788E-1,3.439445E-2,2.027329E-2,2.00125E2,-3.5811258E-3,-4.638306E-2],"split_indices":[19,16,0,0,1,0,0],"split_type":[0,0,0,0,0,0,0],"sum_hessian":[5.670006E0,3.9320078E0,1.7379981E0,1.0266335E0,2.9053743E0,1.2112496E0,1.6941246E0],"tree_param":{"num_deleted":"0","num_feature":"22","num_nodes":"7","size_leaf_vector":"1"}},{"base_weights":[1.1888492E-1,6.553407E-1,-4.362933E-1,8.202664E-3,3.9139666E-2,-4.2524576E-2,1.2852966E-2],"categories":[],"categories_nodes":[],"categories_segments":[],"categories_sizes":[],"default_left":[0,0,0,0,0,0,0],"id":52,"left_children":[1,3,5,-1,-1,-1,-1],"loss_changes":[2.1543822E0,9.638822E-2,1.2764277E0,0E0,0E0,0E0,0E0],"parents":[2147483647,0,0,1,1,2,2],"right_children":[2,4,6,-1,-1,-1,-1],"split_conditions":[2.03522E2,1.39644E2,1.80528E-1,8.202664E-3,3.9139666E-2,-4.2524576E-2,1.2852966E-2],"split_indices":[1,1,19,0,0,0,0],"split_type":[0,0,0,0,0,0,0],"sum_hessian":[5.273614E0,2.5902758E0,2.6833382E0,1.0046921E0,1.5855836E0,1.5379524E0,1.1453856E0],"tree_param":{"num_deleted":"0","num_feature":"22","num_nodes":"7","size_leaf_vector":"1"}},{"base_weights":[-3.964336E-2,4.3786892E-1,-4.6586886E-1,3.8220026E-2,-1.0339268E-2,-3.9279647E-2,2.9679027E-3],"categories":[],"categories_nodes":[],"categories_segments":[],"categories_sizes":[],"default_left":[0,0,0,0,0,0,0],"id":53,"left_children":[1,3,5,-1,-1,-1,-1],"loss_changes":[1.5448177E0,9.2060834E-1,7.125329E-1,0E0,0E0,0E0,0E0],"parents":[2147483647,0,0,1,1,2,2],"right_children":[2,4,6,-1,-1,-1,-1],"split_conditions":[2.03522E2,7.667E-1,1.35242E-1,3.8220026E-2,-1.0339268E-2,-3.9279647E-2,2.9679027E-3],"split_indices":[1,17,21,0,0,0,0],"split_type":[0,0,0,0,0,0,0],"sum_hessian":[5.5879326E0,2.622526E0,2.9654064E0,1.6174828E0,1.0050433E0,1.5351722E0,1.4302342E0],"tree_param":{"num_deleted":"0","num_feature":"22","num_nodes":"7","size_leaf_vector":"1"}},{"base_weights":[1.4898482E-2,6.298375E-1,-5.1241225E-1,8.051681E-3,3.772859E-2,-4.4578813E-2,1.24904495E-2],"categories":[],"categories_nodes":[],"categories_segments":[],"categories_sizes":[],"default_left":[0,0,0,0,0,0,0],"id":54,"left_children":[1,3,5,-1,-1,-1,-1],"loss_changes":[2.446147E0,8.149445E-2,1.4009417E0,0E0,0E0,0E0,0E0],"parents":[2147483647,0,0,1,1,2,2],"right_children":[2,4,6,-1,-1,-1,-1],"split_conditions":[2.06896E2,1.54284E2,1.80528E-1,8.051681E-3,3.772859E-2,-4.4578813E-2,1.24904495E-2],"split_indices":[1,1,19,0,0,0,0],"split_type":[0,0,0,0,0,0,0],"sum_hessian":[5.548401E0,2.4716177E0,3.0767834E0,1.0008848E0,1.4707328E0,1.9413556E0,1.1354278E0],"tree_param":{"num_deleted":"0","num_feature":"22","num_nodes":"7","size_leaf_vector":"1"}},{"base_weights":[-1.8054815E-1,-5.314764E-1,2.300799E-2,1.4404069E-2,-8.74784E-1,-5.157081E-2,-1.233464E-2],"categories":[],"categories_nodes":[],"categories_segments":[],"categories_sizes":[],"default_left":[0,0,0,0,0,0,0],"id":55,"left_children":[1,3,-1,-1,5,-1,-1],"loss_changes":[1.7036645E0,1.5622877E0,0E0,0E0,9.281874E-2,0E0,0E0],"parents":[2147483647,0,0,1,1,4,4],"right_children":[2,4,-1,-1,6,-1,-1],"split_conditions":[2.07914E-1,3.44252E-1,2.300799E-2,1.4404069E-2,2.06E-1,-5.157081E-2,-1.233464E-2],"split_indices":[19,16,0,0,9,0,0],"split_type":[0,0,0,0,0,0,0],"sum_hessian":[5.489433E0,3.656941E0,1.8324921E0,1.1271138E0,2.529827E0,1.510898E0,1.018929E0],"tree_param":{"num_deleted":"0","num_feature":"22","num_nodes":"7","size_leaf_vector":"1"}},{"base_weights":[-2.4216288E-1,-6.577341E-1,2.262008E-2,-4.14729E-2,-4.287424E-3],"categories":[],"categories_nodes":[],"categories_segments":[],"categories_sizes":[],"default_left":[0,0,0,0,0],"id":56,"left_children":[1,3,-1,-1,-1],"loss_changes":[2.0022044E0,3.3183765E-1,0E0,0E0,0E0],"parents":[2147483647,0,0,1,1],"right_children":[2,4,-1,-1,-1],"split_conditions":[2.07914E-1,2.215E-2,2.262008E-2,-4.14729E-2,-4.287424E-3],"split_indices":[19,8,0,0,0],"split_type":[0,0,0,0,0],"sum_hessian":[4.90576E0,3.1025007E0,1.803259E0,2.0399275E0,1.0625733E0],"tree_param":{"num_deleted":"0","num_feature":"22","num_nodes":"5","size_leaf_vector":"1"}},{"base_weights":[6.9811255E-2,4.2984205E-1,-2.3713438E-2,-4.4183177E-3,3.3892628E-2],"categories":[],"categories_nodes":[],"categories_segments":[],"categories_sizes":[],"default_left":[0,0,0,0,0],"id":57,"left_children":[1,3,-1,-1,-1],"loss_changes":[1.3689089E0,5.873166E-1,0E0,0E0,0E0],"parents":[2147483647,0,0,1,1],"right_children":[2,4,-1,-1,-1],"split_conditions":[1.97076E2,1.2793E2,-2.3713438E-2,-4.4183177E-3,3.3892628E-2],"split_indices":[0,0,0,0,0],"split_type":[0,0,0,0,0],"sum_hessian":[4.9475956E0,3.1037412E0,1.8438545E0,1.212975E0,1.8907661E0],"tree_param":{"num_deleted":"0","num_feature":"22","num_nodes":"5","size_leaf_vector":"1"}},{"base_weights":[6.4645365E-2,-2.4705467E-1,2.4559954E-2,-6.8019044E-1,2.1343468E-2,-4.4248488E-2,-6.6756383E-3],"categories":[],"categories_nodes":[],"categories_segments":[],"categories_sizes":[],"default_left":[0,0,0,0,0,0,0],"id":58,"left_children":[1,3,-1,5,-1,-1,-1],"loss_changes":[9.6385765E-1,1.5532917E0,0E0,2.198633E-1,0E0,0E0,0E0],"parents":[2147483647,0,0,1,1,3,3],"right_children":[2,4,-1,6,-1,-1,-1],"split_conditions":[2.07914E-1,1.13787E2,2.4559954E-2,2.018E-2,2.1343468E-2,-4.4248488E-2,-6.6756383E-3],"split_indices":[19,2,0,8,0,0,0],"split_type":[0,0,0,0,0,0,0],"sum_hessian":[5.3366795E0,3.3266063E0,2.0100734E0,2.0194151E0,1.3071911E0,1.0189236E0,1.0004915E0],"tree_param":{"num_deleted":"0","num_feature":"22","num_nodes":"7","size_leaf_vector":"1"}},{"base_weights":[2.7059283E-2,-3.1623924E-1,3.129555E-2,-3.5816766E-2,1.0538497E-2],"categories":[],"categories_nodes":[],"categories_segments":[],"categories_sizes":[],"default_left":[0,0,0,0,0],"id":59,"left_children":[1,3,-1,-1,-1],"loss_changes":[1.361197E0,1.0494068E0,0E0,0E0,0E0],"parents":[2147483647,0,0,1,1],"right_children":[2,4,-1,-1,-1],"split_conditions":[-5.657899E0,1.13201E2,3.129555E-2,-3.5816766E-2,1.0538497E-2],"split_indices":[18,2,0,0,0],"split_type":[0,0,0,0,0],"sum_hessian":[4.658292E0,3.2608795E0,1.3974122E0,1.6494216E0,1.611458E0],"tree_param":{"num_deleted":"0","num_feature":"22","num_nodes":"5","size_leaf_vector":"1"}},{"base_weights":[-1.2750584E-1,-4.7250775E-1,2.3551514E-2,-6.686788E-1,5.7415725E-3,-6.0295365E-3,-4.2318787E-2],"categories":[],"categories_nodes":[],"categories_segments":[],"categories_sizes":[],"default_left":[0,0,0,0,0,0,0],"id":60,"left_children":[1,3,-1,5,-1,-1,-1],"loss_changes":[1.5829651E0,6.1581945E-1,0E0,2.537688E-1,0E0,0E0,0E0],"parents":[2147483647,0,0,1,1,3,3],"right_children":[2,4,-1,6,-1,-1,-1],"split_conditions":[2.07914E-1,5.32E-3,2.3551514E-2,1.53E-3,5.7415725E-3,-6.0295365E-3,-4.2318787E-2],"split_indices":[19,3,0,5,0,0,0],"split_type":[0,0,0,0,0,0,0],"sum_hessian":[5.5880165E0,3.6783445E0,1.9096718E0,2.6535661E0,1.0247784E0,1.0606699E0,1.5928962E0],"tree_param":{"num_deleted":"0","num_feature":"22","num_nodes":"7","size_leaf_vector":"1"}},{"base_weights":[-1.3150445E-1,-4.403995E-1,2.138353E-2,-3.417162E-2,-9.674311E-2,1.607435E-2,-2.3433855E-2],"categories":[],"categories_nodes":[],"categories_segments":[],"categories_sizes":[],"default_left":[0,0,0,0,0,0,0],"id":61,"left_children":[1,3,-1,-1,5,-1,-1],"loss_changes":[1.2665738E0,3.108716E-1,0E0,0E0,6.227335E-1,0E0,0E0],"parents":[2147483647,0,0,1,1,4,4],"right_children":[2,4,-1,-1,6,-1,-1],"split_conditions":[2.07914E-1,6.81811E-1,2.138353E-2,-3.417162E-2,-6.132663E0,1.607435E-2,-2.3433855E-2],"split_indices":[19,17,0,0,18,0,0],"split_type":[0,0,0,0,0,0,0],"sum_hessian":[5.2424035E0,3.513768E0,1.7286358E0,1.4790671E0,2.0347006E0,1.0215869E0,1.0131139E0],"tree_param":{"num_deleted":"0","num_feature":"22","num_nodes":"7","size_leaf_vector":"1"}},{"base_weights":[8.307827E-2,4.4763663E-1,-1.9778406E-2,-5.3009577E-3,3.6733743E-2],"categories":[],"categories_nodes":[],"categories_segments":[],"categories_sizes":[],"default_left":[0,0,0,0,0],"id":62,"left_children":[1,3,-1,-1,-1],"loss_changes":[1.1113613E0,6.3545895E-1,0E0,0E0,0E0],"parents":[2147483647,0,0,1,1],"right_children":[2,4,-1,-1,-1],"split_conditions":[2.06896E2,1.38752E2,-1.9778406E-2,-5.3009577E-3,3.6733743E-2],"split_indices":[1,1,0,0,0],"split_type":[0,0,0,0,0],"sum_hessian":[4.354268E0,2.5084825E0,1.8457855E0,1.0717922E0,1.4366902E0],"tree_param":{"num_deleted":"0","num_feature":"22","num_nodes":"5","size_leaf_vector":"1"}},{"base_weights":[1.4260719E-2,-2.8061701E-2,3.598169E-1,-8.381722E-3,2.9248431E-2],"categories":[],"categories_nodes":[],"categories_segments":[],"categories_sizes":[],"default_left":[0,0,0,0,0],"id":63,"left_children":[1,-1,3,-1,-1],"loss_changes":[1.3541542E0,0E0,6.003444E-1,0E0,0E0],"parents":[2147483647,0,0,2,2],"right_children":[2,-1,4,-1,-1],"split_conditions":[1.35242E-1,-2.8061701E-2,1.1787E2,-8.381722E-3,2.9248431E-2],"split_indices":[21,0,0,0,0],"split_type":[0,0,0,0,0],"sum_hessian":[4.793922E0,1.5643996E0,3.2295222E0,1.0425811E0,2.1869411E0],"tree_param":{"num_deleted":"0","num_feature":"22","num_nodes":"5","size_leaf_vector":"1"}},{"base_weights":[-8.015481E-4,4.3532228E-1,-4.1286024E-1,-6.7187333E-3,3.6391463E-2,-3.9890736E-2,1.2493548E-2],"categories":[],"categories_nodes":[],"categories_segments":[],"categories_sizes":[],"default_left":[0,0,0,0,0,0,0],"id":64,"left_children":[1,3,5,-1,-1,-1,-1],"loss_changes":[1.2722964E0,6.711022E-1,1.1278203E0,0E0,0E0,0E0,0E0],"parents":[2147483647,0,0,1,1,2,2],"right_children":[2,4,6,-1,-1,-1,-1],"split_conditions":[2.06896E2,1.19056E2,1.80528E-1,-6.7187333E-3,3.6391463E-2,-3.9890736E-2,1.2493548E-2],"split_indices":[1,0,19,0,0,0,0],"split_type":[0,0,0,0,0,0,0],"sum_hessian":[5.079671E0,2.4403462E0,2.639325E0,1.0113045E0,1.4290417E0,1.5406141E0,1.0987107E0],"tree_param":{"num_deleted":"0","num_feature":"22","num_nodes":"7","size_leaf_vector":"1"}},{"base_weights":[-7.2417684E-2,-3.6644247E-1,2.9091403E-2,1.6179435E-2,-6.8659514E-1,-4.191084E-2,-8.933117E-3],"categories":[],"categories_nodes":[],"categories_segments":[],"categories_sizes":[],"default_left":[0,0,0,0,0,0,0],"id":65,"left_children":[1,3,-1,-1,5,-1,-1],"loss_changes":[1.3342787E0,1.2459874E0,0E0,0E0,1.187098E-1,0E0,0E0],"parents":[2147483647,0,0,1,1,4,4],"right_children":[2,4,-1,-1,6,-1,-1],"split_conditions":[-5.657899E0,3.6909E-1,2.9091403E-2,1.6179435E-2,4.41097E-1,-4.191084E-2,-8.933117E-3],"split_indices":[18,16,0,0,16,0,0],"split_type":[0,0,0,0,0,0,0],"sum_hessian":[4.827855E0,3.6344132E0,1.193442E0,1.1484356E0,2.4859776E0,1.4137208E0,1.0722568E0],"tree_param":{"num_deleted":"0","num_feature":"22","num_nodes":"7","size_leaf_vector":"1"}},{"base_weights":[-1.4707756E-1,3.1875008E-1,-4.8329645E-1,-5.939879E-3,3.0064119E-2,1.9792593E-3,-3.8782235E-2],"categories":[],"categories_nodes":[],"categories_segments":[],"categories_sizes":[],"default_left":[0,0,0,0,0,0,0],"id":66,"left_children":[1,3,5,-1,-1,-1,-1],"loss_changes":[1.0693167E0,4.4876438E-1,6.1029047E-1,0E0,0E0,0E0,0E0],"parents":[2147483647,0,0,1,1,2,2],"right_children":[2,4,6,-1,-1,-1,-1],"split_conditions":[2.06896E2,1.38752E2,1.144E-2,-5.939879E-3,3.0064119E-2,1.9792593E-3,-3.8782235E-2],"split_indices":[1,1,11,0,0,0,0],"split_type":[0,0,0,0,0,0,0],"sum_hessian":[4.843862E0,2.052333E0,2.7915287E0,1.0326424E0,1.0196908E0,1.3111168E0,1.480412E0],"tree_param":{"num_deleted":"0","num_feature":"22","num_nodes":"7","size_leaf_vector":"1"}},{"base_weights":[-7.2033755E-2,-4.127439E-1,2.9588917E-2,4.7617517E-3,-3.3912268E-2],"categories":[],"categories_nodes":[],"categories_segments":[],"categories_sizes":[],"default_left":[0,0,0,0,0],"id":67,"left_children":[1,3,-1,-1,-1],"loss_changes":[1.4853477E0,6.331183E-1,0E0,0E0,0E0],"parents":[2147483647,0,0,1,1],"right_children":[2,4,-1,-1,-1],"split_conditions":[2.07914E-1,2.00125E2,2.9588917E-2,4.7617517E-3,-3.3912268E-2],"split_indices":[19,1,0,0,0],"split_type":[0,0,0,0,0],"sum_hessian":[4.487503E0,3.2153862E0,1.2721168E0,1.3238295E0,1.8915567E0],"tree_param":{"num_deleted":"0","num_feature":"22","num_nodes":"5","size_leaf_vector":"1"}},{"base_weights":[-4.9704995E-2,3.9406246E-1,-4.5556098E-1,-7.1158074E-3,3.4615118E-2,-3.7214305E-2,4.8916E-3],"categories":[],"categories_nodes":[],"categories_segments":[],"categories_sizes":[],"default_left":[0,0,0,0,0,0,0],"id":68,"left_children":[1,3,5,-1,-1,-1,-1],"loss_changes":[1.2137743E0,6.231165E-1,6.2615526E-1,0E0,0E0,0E0,0E0],"parents":[2147483647,0,0,1,1,2,2],"right_children":[2,4,6,-1,-1,-1,-1],"split_conditions":[2.06896E2,1.4283E2,1.7352E-1,-7.1158074E-3,3.4615118E-2,-3.7214305E-2,4.8916E-3],"split_indices":[1,1,19,0,0,0,0],"split_type":[0,0,0,0,0,0,0],"sum_hessian":[4.742489E0,2.279317E0,2.463172E0,1.0013041E0,1.2780129E0,1.3919771E0,1.071195E0],"tree_param":{"num_deleted":"0","num_feature":"22","num_nodes":"7","size_leaf_vector":"1"}},{"base_weights":[-1.3185589E-1,-4.9133655E-1,2.3428261E-2,-1.0899014E-3,-3.3673886E-2],"categories":[],"categories_nodes":[],"categories_segments":[],"categories_sizes":[],"default_left":[0,0,0,0,0],"id":69,"left_children":[1,3,-1,-1,-1],"loss_changes":[1.4122467E0,3.200227E-1,0E0,0E0,0E0],"parents":[2147483647,0,0,1,1],"right_children":[2,4,-1,-1,-1],"split_conditions":[5.32E-3,2.03522E2,2.3428261E-2,-1.0899014E-3,-3.3673886E-2],"split_indices":[3,1,0,0,0],"split_type":[0,0,0,0,0],"sum_hessian":[4.4763927E0,2.9136372E0,1.5627558E0,1.1272907E0,1.7863463E0],"tree_param":{"num_deleted":"0","num_feature":"22","num_nodes":"5","size_leaf_vector":"1"}},{"base_weights":[-5.126756E-2,-3.3782378E-1,2.814565E-2,1.50416065E-2,-6.2059283E-1,-3.9905827E-2,-6.4661847E-3],"categories":[],"categories_nodes":[],"categories_segments":[],"categories_sizes":[],"default_left":[0,0,0,0,0,0,0],"id":70,"left_children":[1,3,-1,-1,5,-1,-1],"loss_changes":[1.1760247E0,9.893278E-1,0E0,0E0,1.939168E-1,0E0,0E0],"parents":[2147483647,0,0,1,1,4,4],"right_children":[2,4,-1,-1,6,-1,-1],"split_conditions":[1.767E-2,3.66329E-1,2.814565E-2,1.50416065E-2,1.94627E-1,-3.9905827E-2,-6.4661847E-3],"split_indices":[12,16,0,0,19,0,0],"split_type":[0,0,0,0,0,0,0],"sum_hessian":[4.6015606E0,3.4444535E0,1.1571071E0,1.0374388E0,2.4070148E0,1.3092916E0,1.0977232E0],"tree_param":{"num_deleted":"0","num_feature":"22","num_nodes":"7","size_leaf_vector":"1"}},{"base_weights":[-1.6438727E-1,-5.564973E-1,2.1162545E-2,2.4724493E-4,-4.042091E-2],"categories":[],"categories_nodes":[],"categories_segments":[],"categories_sizes":[],"default_left":[0,0,0,0,0],"id":71,"left_children":[1,3,-1,-1,-1],"loss_changes":[1.4825611E0,5.2421415E-1,0E0,0E0,0E0],"parents":[2147483647,0,0,1,1],"right_children":[2,4,-1,-1,-1],"split_conditions":[2.07914E-1,2.06896E2,2.1162545E-2,2.4724493E-4,-4.042091E-2],"split_indices":[19,1,0,0,0],"split_type":[0,0,0,0,0],"sum_hessian":[4.4119854E0,2.6780272E0,1.7339585E0,1.1331065E0,1.5449206E0],"tree_param":{"num_deleted":"0","num_feature":"22","num_nodes":"5","size_leaf_vector":"1"}},{"base_weights":[-1.0511442E-1,-3.934468E-1,1.929751E-2,1.164172E-2,-3.64551E-2],"categories":[],"categories_nodes":[],"categories_segments":[],"categories_sizes":[],"default_left":[0,0,0,0,0],"id":72,"left_children":[1,3,-1,-1,-1],"loss_changes":[9.523108E-1,1.0226293E0,0E0,0E0,0E0],"parents":[2147483647,0,0,1,1],"right_children":[2,4,-1,-1,-1],"split_conditions":[2.07914E-1,1.58453E-1,1.929751E-2,1.164172E-2,-3.64551E-2],"split_indices":[19,19,0,0,0],"split_type":[0,0,0,0,0],"sum_hessian":[4.653372E0,3.057138E0,1.5962337E0,1.1736379E0,1.8835E0],"tree_param":{"num_deleted":"0","num_feature":"22","num_nodes":"5","size_leaf_vector":"1"}},{"base_weights":[8.9323714E-2,3.530084E-2,-4.075003E-1,-3.6189716E-2,7.2319484E-3],"categories":[],"categories_nodes":[],"categories_segments":[],"categories_sizes":[],"default_left":[0,0,0,0,0],"id":73,"left_children":[1,-1,3,-1,-1],"loss_changes":[1.8675878E0,0E0,7.141474E-1,0E0,0E0],"parents":[2147483647,0,0,2,2],"right_children":[2,-1,4,-1,-1],"split_conditions":[2.06896E2,3.530084E-2,1.7352E-1,-3.6189716E-2,7.2319484E-3],"split_indices":[1,0,19,0,0],"split_type":[0,0,0,0,0],"sum_hessian":[4.156489E0,1.6666566E0,2.4898322E0,1.3853441E0,1.1044879E0],"tree_param":{"num_deleted":"0","num_feature":"22","num_nodes":"5","size_leaf_vector":"1"}},{"base_weights":[-1.2037967E-1,-4.366806E-1,2.8330911E-2,1.0016046E-2,-4.2483233E-2],"categories":[],"categories_nodes":[],"categories_segments":[],"categories_sizes":[],"default_left":[0,0,0,0,0],"id":74,"left_children":[1,3,-1,-1,-1],"loss_changes":[1.4318117E0,1.3006021E0,0E0,0E0,0E0],"parents":[2147483647,0,0,1,1],"right_children":[2,4,-1,-1,-1],"split_conditions":[2.07914E-1,2.06896E2,2.8330911E-2,1.0016046E-2,-4.2483233E-2],"split_indices":[19,1,0,0,0],"split_type":[0,0,0,0,0],"sum_hessian":[4.4504886E0,3.2969177E0,1.1535709E0,1.4992945E0,1.7976232E0],"tree_param":{"num_deleted":"0","num_feature":"22","num_nodes":"5","size_leaf_vector":"1"}},{"base_weights":[-1.55114E-2,-3.8865206E-1,3.048338E-2,9.20244E-3,-4.0108114E-2],"categories":[],"categories_nodes":[],"categories_segments":[],"categories_sizes":[],"default_left":[0,0,0,0,0],"id":75,"left_children":[1,3,-1,-1,-1],"loss_changes":[1.4740623E0,1.0787289E0,0E0,0E0,0E0],"parents":[2147483647,0,0,1,1],"right_children":[2,4,-1,-1,-1],"split_conditions":[2.07914E-1,2.00125E2,3.048338E-2,9.20244E-3,-4.0108114E-2],"split_indices":[19,1,0,0,0],"split_type":[0,0,0,0,0],"sum_hessian":[4.303135E0,2.9316826E0,1.3714521E0,1.4619002E0,1.4697824E0],"tree_param":{"num_deleted":"0","num_feature":"22","num_nodes":"5","size_leaf_vector":"1"}},{"base_weights":[-7.299083E-2,-3.8561928E-1,2.8062254E-2,-4.1077115E-2,2.6176326E-2,-1.5721448E-2,1.80995E-2],"categories":[],"categories_nodes":[],"categories_segments":[],"categories_sizes":[],"default_left":[0,0,0,0,0,0,0],"id":76,"left_children":[1,3,-1,-1,5,-1,-1],"loss_changes":[1.2552152E0,7.5785303E-1,0E0,0E0,4.65936E-1,0E0,0E0],"parents":[2147483647,0,0,1,1,4,4],"right_children":[2,4,-1,-1,6,-1,-1],"split_conditions":[2.378E-2,1.2793E2,2.8062254E-2,-4.1077115E-2,-6.689151E0,-1.5721448E-2,1.80995E-2],"split_indices":[8,0,0,0,18,0,0],"split_type":[0,0,0,0,0,0,0],"sum_hessian":[4.2389917E0,3.101962E0,1.1370295E0,1.0234854E0,2.0784767E0,1.0634912E0,1.0149854E0],"tree_param":{"num_deleted":"0","num_feature":"22","num_nodes":"7","size_leaf_vector":"1"}},{"base_weights":[-1.1275778E-2,-2.8432378E-1,2.1528626E-2,1.6628502E-2,-3.321948E-2],"categories":[],"categories_nodes":[],"categories_segments":[],"categories_sizes":[],"default_left":[0,0,0,0,0],"id":77,"left_children":[1,3,-1,-1,-1],"loss_changes":[8.031201E-1,1.1797694E0,0E0,0E0,0E0],"parents":[2147483647,0,0,1,1],"right_children":[2,4,-1,-1,-1],"split_conditions":[8.03E-3,1.33E-1,2.1528626E-2,1.6628502E-2,-3.321948E-2],"split_indices":[7,9,0,0,0],"split_type":[0,0,0,0,0],"sum_hessian":[4.64212E0,3.089451E0,1.5526687E0,1.225416E0,1.864035E0],"tree_param":{"num_deleted":"0","num_feature":"22","num_nodes":"5","size_leaf_vector":"1"}},{"base_weights":[-5.330536E-2,-3.4548607E-1,2.1340622E-2,1.9045016E-2,-3.653171E-2],"categories":[],"categories_nodes":[],"categories_segments":[],"categories_sizes":[],"default_left":[0,0,0,0,0],"id":78,"left_children":[1,3,-1,-1,-1],"loss_changes":[9.291936E-1,1.4021242E0,0E0,0E0,0E0],"parents":[2147483647,0,0,1,1],"right_children":[2,4,-1,-1,-1],"split_conditions":[8.03E-3,1.33E-1,2.1340622E-2,1.9045016E-2,-3.653171E-2],"split_indices":[7,9,0,0,0],"split_type":[0,0,0,0,0],"sum_hessian":[4.5726366E0,3.0170147E0,1.5556221E0,1.0492208E0,1.9677938E0],"tree_param":{"num_deleted":"0","num_feature":"22","num_nodes":"5","size_leaf_vector":"1"}},{"base_weights":[-2.8881617E-2,-2.9250067E-1,2.6898358E-2,-3.3809457E-2,1.2871093E-2],"categories":[],"categories_nodes":[],"categories_segments":[],"categories_sizes":[],"default_left":[0,0,0,0,0],"id":79,"left_children":[1,3,-1,-1,-1],"loss_changes":[9.554186E-1,1.0799103E0,0E0,0E0,0E0],"parents":[2147483647,0,0,1,1],"right_children":[2,4,-1,-1,-1],"split_conditions":[2.07914E-1,1.13787E2,2.6898358E-2,-3.3809457E-2,1.2871093E-2],"split_indices":[19,2,0,0,0],"split_type":[0,0,0,0,0],"sum_hessian":[4.3406377E0,3.2931232E0,1.0475141E0,1.8044949E0,1.4886285E0],"tree_param":{"num_deleted":"0","num_feature":"22","num_nodes":"5","size_leaf_vector":"1"}},{"base_weights":[4.4274542E-2,-2.9763308E-1,2.7886292E-2,-3.048125E-2,8.8989725E-3],"categories":[],"categories_nodes":[],"categories_segments":[],"categories_sizes":[],"default_left":[0,0,0,0,0],"id":80,"left_children":[1,3,-1,-1,-1],"loss_changes":[9.499734E-1,6.030339E-1,0E0,0E0,0E0],"parents":[2147483647,0,0,1,1],"right_children":[2,4,-1,-1,-1],"split_conditions":[2.07914E-1,1.12173E2,2.7886292E-2,-3.048125E-2,8.8989725E-3],"split_indices":[19,2,0,0,0],"split_type":[0,0,0,0,0],"sum_hessian":[3.4657516E0,2.33272E0,1.1330316E0,1.2385132E0,1.0942068E0],"tree_param":{"num_deleted":"0","num_feature":"22","num_nodes":"5","size_leaf_vector":"1"}},{"base_weights":[1.5379319E-1,2.7200257E-2,-1.9084336E-2],"categories":[],"categories_nodes":[],"categories_segments":[],"categories_sizes":[],"default_left":[0,0,0],"id":81,"left_children":[1,-1,-1],"loss_changes":[1.096342E0,0E0,0E0],"parents":[2147483647,0,0],"right_children":[2,-1,-1],"split_conditions":[2.01249E2,2.7200257E-2,-1.9084336E-2],"split_indices":[1,0,0],"split_type":[0,0,0],"sum_hessian":[3.2531683E0,1.8726329E0,1.3805356E0],"tree_param":{"num_deleted":"0","num_feature":"22","num_nodes":"3","size_leaf_vector":"1"}},{"base_weights":[5.109187E-2,-1.821003E-2,2.1530634E-2],"categories":[],"categories_nodes":[],"categories_segments":[],"categories_sizes":[],"default_left":[0,0,0],"id":82,"left_children":[1,-1,-1],"loss_changes":[9.02057E-1,0E0,0E0],"parents":[2147483647,0,0],"right_children":[2,-1,-1],"split_conditions":[3.69E-3,-1.821003E-2,2.1530634E-2],"split_indices":[3,0,0],"split_type":[0,0,0],"sum_hessian":[3.7282376E0,1.7994969E0,1.9287409E0],"tree_param":{"num_deleted":"0","num_feature":"22","num_nodes":"3","size_leaf_vector":"1"}},{"base_weights":[-1.8386038E-1,-5.095281E-1,1.8387236E-2,-5.851129E-3,-3.2462854E-2],"categories":[],"categories_nodes":[],"categories_segments":[],"categories_sizes":[],"default_left":[0,0,0,0,0],"id":83,"left_children":[1,3,-1,-1,-1],"loss_changes":[1.0886543E0,1.2002671E-1,0E0,0E0,0E0],"parents":[2147483647,0,0,1,1],"right_children":[2,4,-1,-1,-1],"split_conditions":[5.32E-3,3E-5,1.8387236E-2,-5.851129E-3,-3.2462854E-2],"split_indices":[3,4,0,0,0],"split_type":[0,0,0,0,0],"sum_hessian":[4.0171356E0,2.5738282E0,1.4433074E0,1.1581172E0,1.4157109E0],"tree_param":{"num_deleted":"0","num_feature":"22","num_nodes":"5","size_leaf_vector":"1"}},{"base_weights":[-2.5809864E-2,-2.8824675E-1,2.4144927E-2,-3.4534503E-2,4.254988E-3],"categories":[],"categories_nodes":[],"categories_segments":[],"categories_sizes":[],"default_left":[0,0,0,0,0],"id":84,"left_children":[1,3,-1,-1,-1],"loss_changes":[8.357E-1,6.699734E-1,0E0,0E0,0E0],"parents":[2147483647,0,0,1,1],"right_children":[2,4,-1,-1,-1],"split_conditions":[3.851E-2,1.43533E2,2.4144927E-2,-3.4534503E-2,4.254988E-3],"split_indices":[13,0,0,0,0],"split_type":[0,0,0,0,0],"sum_hessian":[4.217124E0,3.067837E0,1.149287E0,1.0673286E0,2.0005085E0],"tree_param":{"num_deleted":"0","num_feature":"22","num_nodes":"5","size_leaf_vector":"1"}},{"base_weights":[-2.8693821E-2,-2.0795165E-2,2.0828178E-2],"categories":[],"categories_nodes":[],"categories_segments":[],"categories_sizes":[],"default_left":[0,0,0],"id":85,"left_children":[1,-1,-1],"loss_changes":[9.701204E-1,0E0,0E0],"parents":[2147483647,0,0],"right_children":[2,-1,-1],"split_conditions":[4.60139E-1,-2.0795165E-2,2.0828178E-2],"split_indices":[16,0,0],"split_type":[0,0,0],"sum_hessian":[3.6220055E0,1.9725455E0,1.64946E0],"tree_param":{"num_deleted":"0","num_feature":"22","num_nodes":"3","size_leaf_vector":"1"}},{"base_weights":[1.8044546E-1,2.5276134E-2,-9.260791E-3],"categories":[],"categories_nodes":[],"categories_segments":[],"categories_sizes":[],"default_left":[0,0,0],"id":86,"left_children":[1,-1,-1],"loss_changes":[6.351974E-1,0E0,0E0],"parents":[2147483647,0,0],"right_children":[2,-1,-1],"split_conditions":[2.06896E2,2.5276134E-2,-9.260791E-3],"split_indices":[1,0,0],"split_type":[0,0,0],"sum_hessian":[3.5560284E0,1.6799998E0,1.8760285E0],"tree_param":{"num_deleted":"0","num_feature":"22","num_nodes":"3","size_leaf_vector":"1"}},{"base_weights":[1.0029263E-1,3.149433E-2,-3.1887248E-1,-5.2607822E-5,-2.4423761E-2],"categories":[],"categories_nodes":[],"categories_segments":[],"categories_sizes":[],"default_left":[0,0,0,0,0],"id":87,"left_children":[1,-1,3,-1,-1],"loss_changes":[1.1647513E0,0E0,1.6592115E-1,0E0,0E0],"parents":[2147483647,0,0,2,2],"right_children":[2,-1,4,-1,-1],"split_conditions":[2.06896E2,3.149433E-2,1.439E-2,-5.2607822E-5,-2.4423761E-2],"split_indices":[1,0,12,0,0],"split_type":[0,0,0,0,0],"sum_hessian":[3.3421292E0,1.2544621E0,2.087667E0,1.0765369E0,1.0111301E0],"tree_param":{"num_deleted":"0","num_feature":"22","num_nodes":"5","size_leaf_vector":"1"}},{"base_weights":[-1.8323158E-1,-2.8669063E-2,1.5201098E-1,-1.8239167E-2,2.5147632E-2],"categories":[],"categories_nodes":[],"categories_segments":[],"categories_sizes":[],"default_left":[0,0,0,0,0],"id":88,"left_children":[1,-1,3,-1,-1],"loss_changes":[7.707684E-1,0E0,8.3665997E-1,0E0,0E0],"parents":[2147483647,0,0,2,2],"right_children":[2,-1,4,-1,-1],"split_conditions":[1.35242E-1,-2.8669063E-2,1.1787E2,-1.8239167E-2,2.5147632E-2],"split_indices":[21,0,0,0,0],"split_type":[0,0,0,0,0],"sum_hessian":[4.226571E0,1.6250352E0,2.601536E0,1.0361973E0,1.5653387E0],"tree_param":{"num_deleted":"0","num_feature":"22","num_nodes":"5","size_leaf_vector":"1"}},{"base_weights":[1.0387871E-1,3.4490708E-1,-1.830364E-2,3.2540567E-2,-3.989948E-3],"categories":[],"categories_nodes":[],"categories_segments":[],"categories_sizes":[],"default_left":[0,0,0,0,0],"id":89,"left_children":[1,3,-1,-1,-1],"loss_changes":[6.5485233E-1,5.195729E-1,0E0,0E0,0E0],"parents":[2147483647,0,0,1,1],"right_children":[2,4,-1,-1,-1],"split_conditions":[7.60361E-1,2.06896E2,-1.830364E-2,3.2540567E-2,-3.989948E-3],"split_indices":[17,1,0,0,0],"split_type":[0,0,0,0,0],"sum_hessian":[3.66658E0,2.5994537E0,1.0671263E0,1.201596E0,1.3978578E0],"tree_param":{"num_deleted":"0","num_feature":"22","num_nodes":"5","size_leaf_vector":"1"}},{"base_weights":[2.802561E-2,-2.0849647E-2,3.2642213E-1,-7.491711E-3,3.274269E-2],"categories":[],"categories_nodes":[],"categories_segments":[],"categories_sizes":[],"default_left":[0,0,0,0,0],"id":90,"left_children":[1,-1,3,-1,-1],"loss_changes":[7.927853E-1,0E0,6.48885E-1,0E0,0E0],"parents":[2147483647,0,0,2,2],"right_children":[2,-1,4,-1,-1],"split_conditions":[1.2793E2,-2.0849647E-2,-6.689151E0,-7.491711E-3,3.274269E-2],"split_indices":[0,0,18,0,0],"split_type":[0,0,0,0,0],"sum_hessian":[3.9450996E0,1.4239793E0,2.5211203E0,1.250936E0,1.2701843E0],"tree_param":{"num_deleted":"0","num_feature":"22","num_nodes":"5","size_leaf_vector":"1"}},{"base_weights":[5.1611498E-2,-2.2376776E-2,3.1412435E-1,-2.8866713E-3,3.3147644E-2],"categories":[],"categories_nodes":[],"categories_segments":[],"categories_sizes":[],"default_left":[0,0,0,0,0],"id":91,"left_children":[1,-1,3,-1,-1],"loss_changes":[8.290575E-1,0E0,5.611405E-1,0E0,0E0],"parents":[2147483647,0,0,2,2],"right_children":[2,-1,4,-1,-1],"split_conditions":[1.1573E-1,-2.2376776E-2,1.0337E2,-2.8866713E-3,3.3147644E-2],"split_indices":[21,0,2,0,0],"split_type":[0,0,0,0,0],"sum_hessian":[4.2542357E0,1.2233399E0,3.030896E0,1.870936E0,1.1599599E0],"tree_param":{"num_deleted":"0","num_feature":"22","num_nodes":"5","size_leaf_vector":"1"}},{"base_weights":[4.4440396E-2,2.4597898E-2,-3.4774277E-1,-2.9079234E-2,2.3179492E-3],"categories":[],"categories_nodes":[],"categories_segments":[],"categories_sizes":[],"default_left":[0,0,0,0,0],"id":92,"left_children":[1,-1,3,-1,-1],"loss_changes":[9.99031E-1,0E0,3.126535E-1,0E0,0E0],"parents":[2147483647,0,0,2,2],"right_children":[2,-1,4,-1,-1],"split_conditions":[2.06896E2,2.4597898E-2,-6.471427E0,-2.9079234E-2,2.3179492E-3],"split_indices":[1,0,18,0,0],"split_type":[0,0,0,0,0],"sum_hessian":[3.7174609E0,1.6174225E0,2.1000383E0,1.019432E0,1.0806065E0],"tree_param":{"num_deleted":"0","num_feature":"22","num_nodes":"5","size_leaf_vector":"1"}},{"base_weights":[-1.5034343E-2,-2.8385082E-1,1.5548609E-2,8.540703E-3,-2.9556489E-2],"categories":[],"categories_nodes":[],"categories_segments":[],"categories_sizes":[],"default_left":[0,0,0,0,0],"id":93,"left_children":[1,3,-1,-1,-1],"loss_changes":[5.075191E-1,5.403265E-1,0E0,0E0,0E0],"parents":[2147483647,0,0,1,1],"right_children":[2,4,-1,-1,-1],"split_conditions":[1.0337E2,9.4261E1,1.5548609E-2,8.540703E-3,-2.9556489E-2],"split_indices":[2,2,0,0,0],"split_type":[0,0,0,0,0],"sum_hessian":[3.783991E0,2.1447752E0,1.6392161E0,1.0440522E0,1.1007229E0],"tree_param":{"num_deleted":"0","num_feature":"22","num_nodes":"5","size_leaf_vector":"1"}},{"base_weights":[6.738168E-2,-2.0437053E-1,2.7121121E-2,-2.6721507E-2,1.3140351E-2],"categories":[],"categories_nodes":[],"categories_segments":[],"categories_sizes":[],"default_left":[0,0,0,0,0],"id":94,"left_children":[1,3,-1,-1,-1],"loss_changes":[7.515242E-1,7.3923266E-1,0E0,0E0,0E0],"parents":[2147483647,0,0,1,1],"right_children":[2,4,-1,-1,-1],"split_conditions":[2.07914E-1,1.13787E2,2.7121121E-2,-2.6721507E-2,1.3140351E-2],"split_indices":[19,2,0,0,0],"split_type":[0,0,0,0,0],"sum_hessian":[3.9628346E0,2.883233E0,1.0796015E0,1.605205E0,1.2780279E0],"tree_param":{"num_deleted":"0","num_feature":"22","num_nodes":"5","size_leaf_vector":"1"}},{"base_weights":[-8.557612E-3,-2.8074637E-1,1.985678E-2,-3.4136932E-2,1.5029895E-2],"categories":[],"categories_nodes":[],"categories_segments":[],"categories_sizes":[],"default_left":[0,0,0,0,0],"id":95,"left_children":[1,3,-1,-1,-1],"loss_changes":[6.335328E-1,1.0033348E0,0E0,0E0,0E0],"parents":[2147483647,0,0,1,1],"right_children":[2,4,-1,-1,-1],"split_conditions":[1.13787E2,-5.86975E0,1.985678E-2,-3.4136932E-2,1.5029895E-2],"split_indices":[2,18,0,0,0],"split_type":[0,0,0,0,0],"sum_hessian":[3.7275321E0,2.4151423E0,1.31239E0,1.3247089E0,1.0904334E0],"tree_param":{"num_deleted":"0","num_feature":"22","num_nodes":"5","size_leaf_vector":"1"}},{"base_weights":[-5.4624468E-2,-2.4509456E-2,2.579014E-1,-2.582587E-3,2.0817792E-2],"categories":[],"categories_nodes":[],"categories_segments":[],"categories_sizes":[],"default_left":[0,0,0,0,0],"id":96,"left_children":[1,-1,3,-1,-1],"loss_changes":[7.5040144E-1,0E0,1.8455514E-1,0E0,0E0],"parents":[2147483647,0,0,2,2],"right_children":[2,-1,4,-1,-1],"split_conditions":[1.35242E-1,-2.4509456E-2,9.42E-3,-2.582587E-3,2.0817792E-2],"split_indices":[21,0,10,0,0],"split_type":[0,0,0,0,0],"sum_hessian":[3.5838757E0,1.259728E0,2.3241477E0,1.0150993E0,1.3090483E0],"tree_param":{"num_deleted":"0","num_feature":"22","num_nodes":"5","size_leaf_vector":"1"}},{"base_weights":[-3.0555064E-2,2.189318E-2,-3.0886334E-1,-3.496639E-2,1.1532003E-2],"categories":[],"categories_nodes":[],"categories_segments":[],"categories_sizes":[],"default_left":[0,0,0,0,0],"id":97,"left_children":[1,-1,3,-1,-1],"loss_changes":[7.0012707E-1,0E0,8.574145E-1,0E0,0E0],"parents":[2147483647,0,0,2,2],"right_children":[2,-1,4,-1,-1],"split_conditions":[9.5E-3,2.189318E-2,1.92E-1,-3.496639E-2,1.1532003E-2],"split_indices":[11,0,9,0,0],"split_type":[0,0,0,0,0],"sum_hessian":[3.3331256E0,1.0285971E0,2.3045285E0,1.165069E0,1.1394596E0],"tree_param":{"num_deleted":"0","num_feature":"22","num_nodes":"5","size_leaf_vector":"1"}},{"base_weights":[6.779687E-2,-1.7422967E-2,2.2395408E-2],"categories":[],"categories_nodes":[],"categories_segments":[],"categories_sizes":[],"default_left":[0,0,0],"id":98,"left_children":[1,-1,-1],"loss_changes":[8.078862E-1,0E0,0E0],"parents":[2147483647,0,0],"right_children":[2,-1,-1],"split_conditions":[1.35242E-1,-1.7422967E-2,2.2395408E-2],"split_indices":[21,0,0],"split_type":[0,0,0],"sum_hessian":[3.119537E0,1.5287204E0,1.5908166E0],"tree_param":{"num_deleted":"0","num_feature":"22","num_nodes":"3","size_leaf_vector":"1"}},{"base_weights":[-4.5183674E-3,-1.8189522E-2,1.918083E-2],"categories":[],"categories_nodes":[],"categories_segments":[],"categories_sizes":[],"default_left":[0,0,0],"id":99,"left_children":[1,-1,-1],"loss_changes":[7.4207073E-1,0E0,0E0],"parents":[2147483647,0,0],"right_children":[2,-1,-1],"split_conditions":[1.78E-3,-1.8189522E-2,1.918083E-2],"split_indices":[5,0,0],"split_type":[0,0,0],"sum_hessian":[3.320773E0,1.7570783E0,1.5636946E0],"tree_param":{"num_deleted":"0","num_feature":"22","num_nodes":"3","size_leaf_vector":"1"}},{"base_weights":[-1.1913904E-1,-3.613783E-1,1.600488E-2,-3.0116191E-2,5.838987E-3],"categories":[],"categories_nodes":[],"categories_segments":[],"categories_sizes":[],"default_left":[0,0,0,0,0],"id":100,"left_children":[1,3,-1,-1,-1],"loss_changes":[6.4693135E-1,4.9521956E-1,0E0,0E0,0E0],"parents":[2147483647,0,0,1,1],"right_children":[2,4,-1,-1,-1],"split_conditions":[5.32E-3,1.13787E2,1.600488E-2,-3.0116191E-2,5.838987E-3],"split_indices":[3,2,0,0,0],"split_type":[0,0,0,0,0],"sum_hessian":[3.9929814E0,2.687875E0,1.3051064E0,1.614598E0,1.073277E0],"tree_param":{"num_deleted":"0","num_feature":"22","num_nodes":"5","size_leaf_vector":"1"}},{"base_weights":[-8.287145E-2,1.1882113E-2,-1.903491E-2],"categories":[],"categories_nodes":[],"categories_segments":[],"categories_sizes":[],"default_left":[0,0,0],"id":101,"left_children":[1,-1,-1],"loss_changes":[5.311856E-1,0E0,0E0],"parents":[2147483647,0,0],"right_children":[2,-1,-1],"split_conditions":[7.25216E-1,1.1882113E-2,-1.903491E-2],"split_indices":[17,0,0],"split_type":[0,0,0],"sum_hessian":[3.616876E0,1.8394183E0,1.7774576E0],"tree_param":{"num_deleted":"0","num_feature":"22","num_nodes":"3","size_leaf_vector":"1"}},{"base_weights":[-1.06281005E-1,-3.532484E-1,1.409705E-2,-3.0879676E-2,2.9552008E-3],"categories":[],"categories_nodes":[],"categories_segments":[],"categories_sizes":[],"default_left":[0,0,0,0,0],"id":102,"left_children":[1,3,-1,-1,-1],"loss_changes":[5.588416E-1,4.0399712E-1,0E0,0E0,0E0],"parents":[2147483647,0,0,1,1],"right_children":[2,4,-1,-1,-1],"split_conditions":[1.13787E2,-5.86975E0,1.409705E-2,-3.0879676E-2,2.9552008E-3],"split_indices":[2,18,0,0,0],"split_type":[0,0,0,0,0],"sum_hessian":[3.789895E0,2.3714097E0,1.4184853E0,1.141744E0,1.2296656E0],"tree_param":{"num_deleted":"0","num_feature":"22","num_nodes":"5","size_leaf_vector":"1"}},{"base_weights":[3.1608865E-2,-2.0058487E-2,2.7499834E-1,-5.4992456E-3,3.1172803E-2],"categories":[],"categories_nodes":[],"categories_segments":[],"categories_sizes":[],"default_left":[0,0,0,0,0],"id":103,"left_children":[1,-1,3,-1,-1],"loss_changes":[6.086566E-1,0E0,5.543783E-1,0E0,0E0],"parents":[2147483647,0,0,2,2],"right_children":[2,-1,4,-1,-1],"split_conditions":[1.1573E-1,-2.0058487E-2,1.0337E2,-5.4992456E-3,3.1172803E-2],"split_indices":[21,0,2,0,0],"split_type":[0,0,0,0,0],"sum_hessian":[3.7310152E0,1.1096495E0,2.6213655E0,1.570553E0,1.0508126E0],"tree_param":{"num_deleted":"0","num_feature":"22","num_nodes":"5","size_leaf_vector":"1"}},{"base_weights":[5.5677388E-2,-2.1589385E-1,2.4348909E-2,-2.4718279E-2,1.0234224E-2],"categories":[],"categories_nodes":[],"categories_segments":[],"categories_sizes":[],"default_left":[0,0,0,0,0],"id":104,"left_children":[1,3,-1,-1,-1],"loss_changes":[6.357451E-1,5.079028E-1,0E0,0E0,0E0],"parents":[2147483647,0,0,1,1],"right_children":[2,4,-1,-1,-1],"split_conditions":[2.68E-3,1.13787E2,2.4348909E-2,-2.4718279E-2,1.0234224E-2],"split_indices":[5,2,0,0,0],"split_type":[0,0,0,0,0],"sum_hessian":[3.5301335E0,2.4726498E0,1.0574838E0,1.382098E0,1.0905517E0],"tree_param":{"num_deleted":"0","num_feature":"22","num_nodes":"5","size_leaf_vector":"1"}},{"base_weights":[-8.135869E-2,1.5006783E-2,-2.0885607E-2],"categories":[],"categories_nodes":[],"categories_segments":[],"categories_sizes":[],"default_left":[0,0,0],"id":105,"left_children":[1,-1,-1],"loss_changes":[7.141592E-1,0E0,0E0],"parents":[2147483647,0,0],"right_children":[2,-1,-1],"split_conditions":[2.03522E2,1.5006783E-2,-2.0885607E-2],"split_indices":[1,0,0],"split_type":[0,0,0],"sum_hessian":[3.5885522E0,1.7318985E0,1.8566536E0],"tree_param":{"num_deleted":"0","num_feature":"22","num_nodes":"3","size_leaf_vector":"1"}},{"base_weights":[-1.5321891E-2,1.444442E-2,-1.5677271E-2],"categories":[],"categories_nodes":[],"categories_segments":[],"categories_sizes":[],"default_left":[0,0,0],"id":106,"left_children":[1,-1,-1],"loss_changes":[5.174189E-1,0E0,0E0],"parents":[2147483647,0,0],"right_children":[2,-1,-1],"split_conditions":[7.25216E-1,1.444442E-2,-1.5677271E-2],"split_indices":[17,0,0],"split_type":[0,0,0],"sum_hessian":[3.7048805E0,1.849527E0,1.8553534E0],"tree_param":{"num_deleted":"0","num_feature":"22","num_nodes":"3","size_leaf_vector":"1"}},{"base_weights":[6.621842E-2,-2.041443E-2,2.4905453E-2],"categories":[],"categories_nodes":[],"categories_segments":[],"categories_sizes":[],"default_left":[0,0,0],"id":107,"left_children":[1,-1,-1],"loss_changes":[1.064254E0,0E0,0E0],"parents":[2147483647,0,0],"right_children":[2,-1,-1],"split_conditions":[-6.471427E0,-2.041443E-2,2.4905453E-2],"split_indices":[18,0,0],"split_type":[0,0,0],"sum_hessian":[3.2007525E0,1.5511702E0,1.6495823E0],"tree_param":{"num_deleted":"0","num_feature":"22","num_nodes":"3","size_leaf_vector":"1"}},{"base_weights":[-1.6860926E-1,-4.4673616E-1,1.7614804E-2,-3.0654182E-3,-3.0447287E-2],"categories":[],"categories_nodes":[],"categories_segments":[],"categories_sizes":[],"default_left":[0,0,0,0,0],"id":108,"left_children":[1,3,-1,-1,-1],"loss_changes":[7.8333527E-1,1.6632932E-1,0E0,0E0,0E0],"parents":[2147483647,0,0,1,1],"right_children":[2,4,-1,-1,-1],"split_conditions":[1.715E-2,9.48E-3,1.7614804E-2,-3.0654182E-3,-3.0447287E-2],"split_indices":[12,11,0,0,0],"split_type":[0,0,0,0,0],"sum_hessian":[3.3205512E0,2.2575586E0,1.0629927E0,1.0768358E0,1.1807227E0],"tree_param":{"num_deleted":"0","num_feature":"22","num_nodes":"5","size_leaf_vector":"1"}},{"base_weights":[-2.5163164E-2,-2.86594E-1,2.1066232E-2,-2.8574917E-2,7.464779E-3],"categories":[],"categories_nodes":[],"categories_segments":[],"categories_sizes":[],"default_left":[0,0,0,0,0],"id":109,"left_children":[1,3,-1,-1,-1],"loss_changes":[6.5251625E-1,5.160594E-1,0E0,0E0,0E0],"parents":[2147483647,0,0,1,1],"right_children":[2,4,-1,-1,-1],"split_conditions":[2.63E-3,1.13787E2,2.1066232E-2,-2.8574917E-2,7.464779E-3],"split_indices":[5,2,0,0,0],"split_type":[0,0,0,0,0],"sum_hessian":[3.5556993E0,2.468462E0,1.0872375E0,1.3046283E0,1.1638337E0],"tree_param":{"num_deleted":"0","num_feature":"22","num_nodes":"5","size_leaf_vector":"1"}},{"base_weights":[-1.8609565E-2,-1.843845E-2,2.318147E-1,2.7034326E-2,-9.642987E-3],"categories":[],"categories_nodes":[],"categories_segments":[],"categories_sizes":[],"default_left":[0,0,0,0,0],"id":110,"left_children":[1,-1,3,-1,-1],"loss_changes":[4.946293E-1,0E0,5.41646E-1,0E0,0E0],"parents":[2147483647,0,0,2,2],"right_children":[2,-1,4,-1,-1],"split_conditions":[1.2793E2,-1.843845E-2,1.97076E2,2.7034326E-2,-9.642987E-3],"split_indices":[0,0,0,0,0],"split_type":[0,0,0,0,0],"sum_hessian":[3.6658754E0,1.3315037E0,2.3343716E0,1.1932933E0,1.1410782E0],"tree_param":{"num_deleted":"0","num_feature":"22","num_nodes":"5","size_leaf_vector":"1"}},{"base_weights":[-9.489115E-2,1.2045211E-2,-2.1674681E-2],"categories":[],"categories_nodes":[],"categories_segments":[],"categories_sizes":[],"default_left":[0,0,0],"id":111,"left_children":[1,-1,-1],"loss_changes":[6.176995E-1,0E0,0E0],"parents":[2147483647,0,0],"right_children":[2,-1,-1],"split_conditions":[7.25216E-1,1.2045211E-2,-2.1674681E-2],"split_indices":[17,0,0],"split_type":[0,0,0],"sum_hessian":[3.5141945E0,1.9092784E0,1.6049162E0],"tree_param":{"num_deleted":"0","num_feature":"22","num_nodes":"3","size_leaf_vector":"1"}},{"base_weights":[1.8576792E-3,-2.3891409E-1,1.6145622E-2,-3.272214E-2,1.4579641E-2],"categories":[],"categories_nodes":[],"categories_segments":[],"categories_sizes":[],"default_left":[0,0,0,0,0],"id":112,"left_children":[1,3,-1,-1,-1],"loss_changes":[4.261801E-1,8.8631666E-1,0E0,0E0,0E0],"parents":[2147483647,0,0,1,1],"right_children":[2,4,-1,-1,-1],"split_conditions":[1.13787E2,1.8558E-1,1.6145622E-2,-3.272214E-2,1.4579641E-2],"split_indices":[2,21,0,0,0],"split_type":[0,0,0,0,0],"sum_hessian":[3.515234E0,2.154977E0,1.3602569E0,1.0774375E0,1.0775396E0],"tree_param":{"num_deleted":"0","num_feature":"22","num_nodes":"5","size_leaf_vector":"1"}},{"base_weights":[-8.706411E-2,-2.7096263E-1,1.2893832E-2,1.3502893E-2,-2.9573618E-2],"categories":[],"categories_nodes":[],"categories_segments":[],"categories_sizes":[],"default_left":[0,0,0,0,0],"id":113,"left_children":[1,3,-1,-1,-1],"loss_changes":[3.679335E-1,7.75728E-1,0E0,0E0,0E0],"parents":[2147483647,0,0,1,1],"right_children":[2,4,-1,-1,-1],"split_conditions":[5.32E-3,1.33E-1,1.2893832E-2,1.3502893E-2,-2.9573618E-2],"split_indices":[3,9,0,0,0],"split_type":[0,0,0,0,0],"sum_hessian":[3.6987128E0,2.5524104E0,1.1463025E0,1.008118E0,1.5442923E0],"tree_param":{"num_deleted":"0","num_feature":"22","num_nodes":"5","size_leaf_vector":"1"}},{"base_weights":[-7.573807E-2,-2.3916213E-2,2.46373E-1,-9.7400317E-4,1.9309428E-2],"categories":[],"categories_nodes":[],"categories_segments":[],"categories_sizes":[],"default_left":[0,0,0,0,0],"id":114,"left_children":[1,-1,3,-1,-1],"loss_changes":[7.076751E-1,0E0,1.259773E-1,0E0,0E0],"parents":[2147483647,0,0,2,2],"right_children":[2,-1,4,-1,-1],"split_conditions":[1.35242E-1,-2.3916213E-2,2.2333E1,-9.7400317E-4,1.9309428E-2],"split_indices":[21,0,15,0,0],"split_type":[0,0,0,0,0],"sum_hessian":[3.5484304E0,1.3616383E0,2.1867921E0,1.0503229E0,1.1364692E0],"tree_param":{"num_deleted":"0","num_feature":"22","num_nodes":"5","size_leaf_vector":"1"}},{"base_weights":[4.479716E-2,1.5448301E-2,-1.398694E-2],"categories":[],"categories_nodes":[],"categories_segments":[],"categories_sizes":[],"default_left":[0,0,0],"id":115,"left_children":[1,-1,-1],"loss_changes":[3.887268E-1,0E0,0E0],"parents":[2147483647,0,0],"right_children":[2,-1,-1],"split_conditions":[1.84055E2,1.5448301E-2,-1.398694E-2],"split_indices":[0,0,0],"split_type":[0,0,0],"sum_hessian":[2.5260587E0,1.418991E0,1.1070677E0],"tree_param":{"num_deleted":"0","num_feature":"22","num_nodes":"3","size_leaf_vector":"1"}},{"base_weights":[-9.941412E-2,-3.0973503E-1,1.3569154E-2,8.863247E-3,-3.352839E-2],"categories":[],"categories_nodes":[],"categories_segments":[],"categories_sizes":[],"default_left":[0,0,0,0,0],"id":116,"left_children":[1,3,-1,-1,-1],"loss_changes":[4.228866E-1,6.8809E-1,0E0,0E0,0E0],"parents":[2147483647,0,0,1,1],"right_children":[2,4,-1,-1,-1],"split_conditions":[2.07914E-1,2.06896E2,1.3569154E-2,8.863247E-3,-3.352839E-2],"split_indices":[19,1,0,0,0],"split_type":[0,0,0,0,0],"sum_hessian":[3.3447287E0,2.2392664E0,1.1054624E0,1.1695331E0,1.0697331E0],"tree_param":{"num_deleted":"0","num_feature":"22","num_nodes":"5","size_leaf_vector":"1"}},{"base_weights":[-2.8282538E-2,-1.4073036E-2,1.5892988E-2],"categories":[],"categories_nodes":[],"categories_segments":[],"categories_sizes":[],"default_left":[0,0,0],"id":117,"left_children":[1,-1,-1],"loss_changes":[4.4561464E-1,0E0,0E0],"parents":[2147483647,0,0],"right_children":[2,-1,-1],"split_conditions":[1.13201E2,-1.4073036E-2,1.5892988E-2],"split_indices":[2,0,0],"split_type":[0,0,0],"sum_hessian":[3.0639791E0,1.8775505E0,1.1864288E0],"tree_param":{"num_deleted":"0","num_feature":"22","num_nodes":"3","size_leaf_vector":"1"}},{"base_weights":[7.006723E-3,1.684594E-2,-1.4737616E-2],"categories":[],"categories_nodes":[],"categories_segments":[],"categories_sizes":[],"default_left":[0,0,0],"id":118,"left_children":[1,-1,-1],"loss_changes":[5.587995E-1,0E0,0E0],"parents":[2147483647,0,0],"right_children":[2,-1,-1],"split_conditions":[2.06896E2,1.684594E-2,-1.4737616E-2],"split_indices":[1,0,0],"split_type":[0,0,0],"sum_hessian":[3.6155066E0,1.6715219E0,1.9439847E0],"tree_param":{"num_deleted":"0","num_feature":"22","num_nodes":"3","size_leaf_vector":"1"}},{"base_weights":[1.135297E-1,-1.3181264E-2,2.271731E-2],"categories":[],"categories_nodes":[],"categories_segments":[],"categories_sizes":[],"default_left":[0,0,0],"id":119,"left_children":[1,-1,-1],"loss_changes":[6.3998556E-1,0E0,0E0],"parents":[2147483647,0,0],"right_children":[2,-1,-1],"split_conditions":[6.23E-3,-1.3181264E-2,2.271731E-2],"split_indices":[14,0,0],"split_type":[0,0,0],"sum_hessian":[3.0470345E0,1.553921E0,1.4931135E0],"tree_param":{"num_deleted":"0","num_feature":"22","num_nodes":"3","size_leaf_vector":"1"}},{"base_weights":[-8.514289E-2,-1.7253105E-2,1.544935E-2],"categories":[],"categories_nodes":[],"categories_segments":[],"categories_sizes":[],"default_left":[0,0,0],"id":120,"left_children":[1,-1,-1],"loss_changes":[5.3738445E-1,0E0,0E0],"parents":[2147483647,0,0],"right_children":[2,-1,-1],"split_conditions":[2.63E-3,-1.7253105E-2,1.544935E-2],"split_indices":[5,0,0],"split_type":[0,0,0],"sum_hessian":[3.2049663E0,2.0063338E0,1.1986324E0],"tree_param":{"num_deleted":"0","num_feature":"22","num_nodes":"3","size_leaf_vector":"1"}},{"base_weights":[-1.0108574E-2,-1.2388289E-2,1.3290723E-2],"categories":[],"categories_nodes":[],"categories_segments":[],"categories_sizes":[],"default_left":[0,0,0],"id":121,"left_children":[1,-1,-1],"loss_changes":[3.4968E-1,0E0,0E0],"parents":[2147483647,0,0],"right_children":[2,-1,-1],"split_conditions":[1.13201E2,-1.2388289E-2,1.3290723E-2],"split_indices":[2,0,0],"split_type":[0,0,0],"sum_hessian":[3.328172E0,1.8428991E0,1.4852729E0],"tree_param":{"num_deleted":"0","num_feature":"22","num_nodes":"3","size_leaf_vector":"1"}},{"base_weights":[8.966214E-2,1.537614E-2,-7.338916E-3],"categories":[],"categories_nodes":[],"categories_segments":[],"categories_sizes":[],"default_left":[0,0,0],"id":122,"left_children":[1,-1,-1],"loss_changes":[2.5382695E-1,0E0,0E0],"parents":[2147483647,0,0],"right_children":[2,-1,-1],"split_conditions":[1.74152E-1,1.537614E-2,-7.338916E-3],"split_indices":[21,0,0],"split_type":[0,0,0],"sum_hessian":[3.051348E0,1.431605E0,1.619743E0],"tree_param":{"num_deleted":"0","num_feature":"22","num_nodes":"3","size_leaf_vector":"1"}},{"base_weights":[-1.3358821E-1,-3.4843427E-1,1.0668777E-2,1.826784E-3,-2.848686E-2],"categories":[],"categories_nodes":[],"categories_segments":[],"categories_sizes":[],"default_left":[0,0,0,0,0],"id":123,"left_children":[1,3,-1,-1,-1],"loss_changes":[4.1781974E-1,2.956044E-1,0E0,0E0,0E0],"parents":[2147483647,0,0,1,1],"right_children":[2,4,-1,-1,-1],"split_conditions":[1.13787E2,9.5654E1,1.0668777E-2,1.826784E-3,-2.848686E-2],"split_indices":[2,2,0,0,0],"split_type":[0,0,0,0,0],"sum_hessian":[3.6076589E0,2.2254086E0,1.3822503E0,1.1170825E0,1.1083262E0],"tree_param":{"num_deleted":"0","num_feature":"22","num_nodes":"5","size_leaf_vector":"1"}},{"base_weights":[2.0496278E-1,-5.777854E-3,2.6408061E-2],"categories":[],"categories_nodes":[],"categories_segments":[],"categories_sizes":[],"default_left":[0,0,0],"id":124,"left_children":[1,-1,-1],"loss_changes":[4.7450918E-1,0E0,0E0],"parents":[2147483647,0,0],"right_children":[2,-1,-1],"split_conditions":[4.62E-3,-5.777854E-3,2.6408061E-2],"split_indices":[3,0,0],"split_type":[0,0,0],"sum_hessian":[2.9914112E0,1.8244951E0,1.1669161E0],"tree_param":{"num_deleted":"0","num_feature":"22","num_nodes":"3","size_leaf_vector":"1"}},{"base_weights":[3.6149647E-2,1.6388813E-2,-1.2992973E-2],"categories":[],"categories_nodes":[],"categories_segments":[],"categories_sizes":[],"default_left":[0,0,0],"id":125,"left_children":[1,-1,-1],"loss_changes":[4.7216988E-1,0E0,0E0],"parents":[2147483647,0,0],"right_children":[2,-1,-1],"split_conditions":[2.06896E2,1.6388813E-2,-1.2992973E-2],"split_indices":[1,0,0],"split_type":[0,0,0],"sum_hessian":[3.483035E0,1.7004462E0,1.7825888E0],"tree_param":{"num_deleted":"0","num_feature":"22","num_nodes":"3","size_leaf_vector":"1"}},{"base_weights":[-3.8130585E-2,1.3878186E-2,-1.5964556E-2],"categories":[],"categories_nodes":[],"categories_segments":[],"categories_sizes":[],"default_left":[0,0,0],"id":126,"left_children":[1,-1,-1],"loss_changes":[4.7506264E-1,0E0,0E0],"parents":[2147483647,0,0],"right_children":[2,-1,-1],"split_conditions":[2.06896E2,1.3878186E-2,-1.5964556E-2],"split_indices":[1,0,0],"split_type":[0,0,0],"sum_hessian":[3.3537138E0,1.5858608E0,1.7678529E0],"tree_param":{"num_deleted":"0","num_feature":"22","num_nodes":"3","size_leaf_vector":"1"}},{"base_weights":[1.373288E-2,2.1758169E-2,-1.560147E-2],"categories":[],"categories_nodes":[],"categories_segments":[],"categories_sizes":[],"default_left":[0,0,0],"id":127,"left_children":[1,-1,-1],"loss_changes":[7.2252274E-1,0E0,0E0],"parents":[2147483647,0,0],"right_children":[2,-1,-1],"split_conditions":[2.06896E2,2.1758169E-2,-1.560147E-2],"split_indices":[1,0,0],"split_type":[0,0,0],"sum_hessian":[3.2738392E0,1.2809173E0,1.9929218E0],"tree_param":{"num_deleted":"0","num_feature":"22","num_nodes":"3","size_leaf_vector":"1"}},{"base_weights":[-1.9764721E-1,1.23090735E-2,-4.1273814E-1,-3.2083195E-2,7.35651E-4],"categories":[],"categories_nodes":[],"categories_segments":[],"categories_sizes":[],"default_left":[0,0,0,0,0],"id":128,"left_children":[1,-1,3,-1,-1],"loss_changes":[5.16534E-1,0E0,3.3248216E-1,0E0,0E0],"parents":[2147483647,0,0,2,2],"right_children":[2,-1,4,-1,-1],"split_conditions":[9.05E-3,1.23090735E-2,1.652E-2,-3.2083195E-2,7.35651E-4],"split_indices":[11,0,12,0,0],"split_type":[0,0,0,0,0],"sum_hessian":[3.3464293E0,1.0451897E0,2.3012397E0,1.1722759E0,1.1289637E0],"tree_param":{"num_deleted":"0","num_feature":"22","num_nodes":"5","size_leaf_vector":"1"}},{"base_weights":[-3.607051E-2,-1.8318629E-2,1.9692607E-1,-7.3093064E-3,2.208895E-2],"categories":[],"categories_nodes":[],"categories_segments":[],"categories_sizes":[],"default_left":[0,0,0,0,0],"id":129,"left_children":[1,-1,3,-1,-1],"loss_changes":[4.2201424E-1,0E0,3.4317583E-1,0E0,0E0],"parents":[2147483647,0,0,2,2],"right_children":[2,-1,4,-1,-1],"split_conditions":[1.2793E2,-1.8318629E-2,-6.689151E0,-7.3093064E-3,2.208895E-2],"split_indices":[0,0,18,0,0],"split_type":[0,0,0,0,0],"sum_hessian":[3.5461195E0,1.2300009E0,2.3161187E0,1.132338E0,1.1837806E0],"tree_param":{"num_deleted":"0","num_feature":"22","num_nodes":"5","size_leaf_vector":"1"}},{"base_weights":[-1.5127677E-1,1.0813039E-2,-2.1484641E-2],"categories":[],"categories_nodes":[],"categories_segments":[],"categories_sizes":[],"default_left":[0,0,0],"id":130,"left_children":[1,-1,-1],"loss_changes":[5.0708234E-1,0E0,0E0],"parents":[2147483647,0,0],"right_children":[2,-1,-1],"split_conditions":[2.09512E2,1.0813039E-2,-2.1484641E-2],"split_indices":[1,0,0],"split_type":[0,0,0],"sum_hessian":[3.0473304E0,1.4096693E0,1.6376611E0],"tree_param":{"num_deleted":"0","num_feature":"22","num_nodes":"3","size_leaf_vector":"1"}},{"base_weights":[1.233983E-1,-6.251274E-3,1.9288808E-2],"categories":[],"categories_nodes":[],"categories_segments":[],"categories_sizes":[],"default_left":[0,0,0],"id":131,"left_children":[1,-1,-1],"loss_changes":[3.1986308E-1,0E0,0E0],"parents":[2147483647,0,0],"right_children":[2,-1,-1],"split_conditions":[4.41097E-1,-6.251274E-3,1.9288808E-2],"split_indices":[16,0,0],"split_type":[0,0,0],"sum_hessian":[3.167344E0,1.8958305E0,1.2715135E0],"tree_param":{"num_deleted":"0","num_feature":"22","num_nodes":"3","size_leaf_vector":"1"}},{"base_weights":[1.7207801E-1,-5.8641476E-3,2.1756724E-2],"categories":[],"categories_nodes":[],"categories_segments":[],"categories_sizes":[],"default_left":[0,0,0],"id":132,"left_children":[1,-1,-1],"loss_changes":[3.5738075E-1,0E0,0E0],"parents":[2147483647,0,0],"right_children":[2,-1,-1],"split_conditions":[1.80528E-1,-5.8641476E-3,2.1756724E-2],"split_indices":[19,0,0],"split_type":[0,0,0],"sum_hessian":[3.0246167E0,1.7041795E0,1.3204371E0],"tree_param":{"num_deleted":"0","num_feature":"22","num_nodes":"3","size_leaf_vector":"1"}},{"base_weights":[-1.2648569E-1,-3.457331E-1,1.30726E-2,-2.8825164E-2,2.6862288E-3],"categories":[],"categories_nodes":[],"categories_segments":[],"categories_sizes":[],"default_left":[0,0,0,0,0],"id":133,"left_children":[1,3,-1,-1,-1],"loss_changes":[4.361397E-1,3.1008217E-1,0E0,0E0,0E0],"parents":[2147483647,0,0,1,1],"right_children":[2,4,-1,-1,-1],"split_conditions":[1.13201E2,1.89E-1,1.30726E-2,-2.8825164E-2,2.6862288E-3],"split_indices":[2,9,0,0,0],"split_type":[0,0,0,0,0],"sum_hessian":[3.0650148E0,2.0277827E0,1.0372323E0,1.0043474E0,1.0234351E0],"tree_param":{"num_deleted":"0","num_feature":"22","num_nodes":"5","size_leaf_vector":"1"}},{"base_weights":[5.7625387E-2,2.1711199E-2,-1.4015515E-2],"categories":[],"categories_nodes":[],"categories_segments":[],"categories_sizes":[],"default_left":[0,0,0],"id":134,"left_children":[1,-1,-1],"loss_changes":[6.268576E-1,0E0,0E0],"parents":[2147483647,0,0],"right_children":[2,-1,-1],"split_conditions":[2.01249E2,2.1711199E-2,-1.4015515E-2],"split_indices":[1,0,0],"split_type":[0,0,0],"sum_hessian":[2.9691653E0,1.2694964E0,1.699669E0],"tree_param":{"num_deleted":"0","num_feature":"22","num_nodes":"3","size_leaf_vector":"1"}},{"base_weights":[-2.4033014E-3,1.8816939E-2,-1.5005047E-2],"categories":[],"categories_nodes":[],"categories_segments":[],"categories_sizes":[],"default_left":[0,0,0],"id":135,"left_children":[1,-1,-1],"loss_changes":[5.516362E-1,0E0,0E0],"parents":[2147483647,0,0],"right_children":[2,-1,-1],"split_conditions":[2.06896E2,1.8816939E-2,-1.5005047E-2],"split_indices":[1,0,0],"split_type":[0,0,0],"sum_hessian":[2.8908577E0,1.155994E0,1.7348635E0],"tree_param":{"num_deleted":"0","num_feature":"22","num_nodes":"3","size_leaf_vector":"1"}},{"base_weights":[-2.4841312E-2,1.3600183E-2,-1.4617306E-2],"categories":[],"categories_nodes":[],"categories_segments":[],"categories_sizes":[],"default_left":[0,0,0],"id":136,"left_children":[1,-1,-1],"loss_changes":[4.2468646E-1,0E0,0E0],"parents":[2147483647,0,0],"right_children":[2,-1,-1],"split_conditions":[2.06896E2,1.3600183E-2,-1.4617306E-2],"split_indices":[1,0,0],"split_type":[0,0,0],"sum_hessian":[3.3467863E0,1.5784229E0,1.7683634E0],"tree_param":{"num_deleted":"0","num_feature":"22","num_nodes":"3","size_leaf_vector":"1"}},{"base_weights":[1.1598822E-1,2.03232E-2,-8.810676E-3],"categories":[],"categories_nodes":[],"categories_segments":[],"categories_sizes":[],"default_left":[0,0,0],"id":137,"left_children":[1,-1,-1],"loss_changes":[3.963782E-1,0E0,0E0],"parents":[2147483647,0,0],"right_children":[2,-1,-1],"split_conditions":[2.06896E2,2.03232E-2,-8.810676E-3],"split_indices":[1,0,0],"split_type":[0,0,0],"sum_hessian":[2.8261452E0,1.2211596E0,1.6049856E0],"tree_param":{"num_deleted":"0","num_feature":"22","num_nodes":"3","size_leaf_vector":"1"}},{"base_weights":[7.7001505E-2,2.0303313E-2,-1.2996447E-2],"categories":[],"categories_nodes":[],"categories_segments":[],"categories_sizes":[],"default_left":[0,0,0],"id":138,"left_children":[1,-1,-1],"loss_changes":[5.583297E-1,0E0,0E0],"parents":[2147483647,0,0],"right_children":[2,-1,-1],"split_conditions":[7.25216E-1,2.0303313E-2,-1.2996447E-2],"split_indices":[17,0,0],"split_type":[0,0,0],"sum_hessian":[3.083823E0,1.4563138E0,1.627509E0],"tree_param":{"num_deleted":"0","num_feature":"22","num_nodes":"3","size_leaf_vector":"1"}},{"base_weights":[-1.05338015E-1,-1.8319514E-2,1.4533532E-2],"categories":[],"categories_nodes":[],"categories_segments":[],"categories_sizes":[],"default_left":[0,0,0],"id":139,"left_children":[1,-1,-1],"loss_changes":[5.0625587E-1,0E0,0E0],"parents":[2147483647,0,0],"right_children":[2,-1,-1],"split_conditions":[4.62E-3,-1.8319514E-2,1.4533532E-2],"split_indices":[3,0,0],"split_type":[0,0,0],"sum_hessian":[2.8669088E0,1.7729546E0,1.0939543E0],"tree_param":{"num_deleted":"0","num_feature":"22","num_nodes":"3","size_leaf_vector":"1"}},{"base_weights":[-2.1340033E-2,-1.6029764E-2,1.2814604E-2],"categories":[],"categories_nodes":[],"categories_segments":[],"categories_sizes":[],"default_left":[0,0,0],"id":140,"left_children":[1,-1,-1],"loss_changes":[4.1860893E-1,0E0,0E0],"parents":[2147483647,0,0],"right_children":[2,-1,-1],"split_conditions":[5.81E-3,-1.6029764E-2,1.2814604E-2],"split_indices":[14,0,0],"split_type":[0,0,0],"sum_hessian":[3.0494866E0,1.393118E0,1.6563685E0],"tree_param":{"num_deleted":"0","num_feature":"22","num_nodes":"3","size_leaf_vector":"1"}},{"base_weights":[-9.747948E-2,-1.9862672E-2,8.133896E-3],"categories":[],"categories_nodes":[],"categories_segments":[],"categories_sizes":[],"default_left":[0,0,0],"id":141,"left_children":[1,-1,-1],"loss_changes":[3.8262528E-1,0E0,0E0],"parents":[2147483647,0,0],"right_children":[2,-1,-1],"split_conditions":[1.2793E2,-1.9862672E-2,8.133896E-3],"split_indices":[0,0,0],"split_type":[0,0,0],"sum_hessian":[3.077541E0,1.1850543E0,1.8924868E0],"tree_param":{"num_deleted":"0","num_feature":"22","num_nodes":"3","size_leaf_vector":"1"}},{"base_weights":[9.770917E-5,-1.3423105E-2,1.7372273E-2],"categories":[],"categories_nodes":[],"categories_segments":[],"categories_sizes":[],"default_left":[0,0,0],"id":142,"left_children":[1,-1,-1],"loss_changes":[4.595377E-1,0E0,0E0],"parents":[2147483647,0,0],"right_children":[2,-1,-1],"split_conditions":[4.41097E-1,-1.3423105E-2,1.7372273E-2],"split_indices":[16,0,0],"split_type":[0,0,0],"sum_hessian":[2.926324E0,1.7784125E0,1.1479113E0],"tree_param":{"num_deleted":"0","num_feature":"22","num_nodes":"3","size_leaf_vector":"1"}},{"base_weights":[-1.3390427E-2,-2.0347094E-2,2.7140895E-1,2.877341E-2,-8.138559E-3],"categories":[],"categories_nodes":[],"categories_segments":[],"categories_sizes":[],"default_left":[0,0,0,0,0],"id":143,"left_children":[1,-1,3,-1,-1],"loss_changes":[5.7922196E-1,0E0,4.9319682E-1,0E0,0E0],"parents":[2147483647,0,0,2,2],"right_children":[2,-1,4,-1,-1],"split_conditions":[1.2793E2,-2.0347094E-2,1.97076E2,2.877341E-2,-8.138559E-3],"split_indices":[0,0,0,0,0],"split_type":[0,0,0,0,0],"sum_hessian":[3.1823778E0,1.1560341E0,2.0263438E0,1.0003667E0,1.025977E0],"tree_param":{"num_deleted":"0","num_feature":"22","num_nodes":"5","size_leaf_vector":"1"}},{"base_weights":[-8.28367E-2,-2.6920915E-1,1.3105352E-2,3.4930666E-3,-2.3483371E-2],"categories":[],"categories_nodes":[],"categories_segments":[],"categories_sizes":[],"default_left":[0,0,0,0,0],"id":144,"left_children":[1,3,-1,-1,-1],"loss_changes":[3.604198E-1,2.6530176E-1,0E0,0E0,0E0],"parents":[2147483647,0,0,1,1],"right_children":[2,4,-1,-1,-1],"split_conditions":[5.32E-3,4.98E-3,1.3105352E-2,3.4930666E-3,-2.3483371E-2],"split_indices":[3,7,0,0,0],"split_type":[0,0,0,0,0],"sum_hessian":[3.5087452E0,2.4205067E0,1.0882386E0,1.1413804E0,1.2791263E0],"tree_param":{"num_deleted":"0","num_feature":"22","num_nodes":"5","size_leaf_vector":"1"}},{"base_weights":[6.764834E-2,-1.0753258E-2,1.4975974E-2],"categories":[],"categories_nodes":[],"categories_segments":[],"categories_sizes":[],"default_left":[0,0,0],"id":145,"left_children":[1,-1,-1],"loss_changes":[3.1490776E-1,0E0,0E0],"parents":[2147483647,0,0],"right_children":[2,-1,-1],"split_conditions":[1.0337E2,-1.0753258E-2,1.4975974E-2],"split_indices":[2,0,0],"split_type":[0,0,0],"sum_hessian":[2.8212006E0,1.3038884E0,1.517312E0],"tree_param":{"num_deleted":"0","num_feature":"22","num_nodes":"3","size_leaf_vector":"1"}},{"base_weights":[-9.680352E-3,-1.3832112E-2,1.4302856E-2],"categories":[],"categories_nodes":[],"categories_segments":[],"categories_sizes":[],"default_left":[0,0,0],"id":146,"left_children":[1,-1,-1],"loss_changes":[4.0518486E-1,0E0,0E0],"parents":[2147483647,0,0],"right_children":[2,-1,-1],"split_conditions":[1.02137E2,-1.3832112E-2,1.4302856E-2],