{"learner":{"attributes":{},"feature_names":["N_Days","Drug","Age","Sex","Ascites","Hepatomegaly","Spiders","Edema","Bilirubin","Cholesterol","Albumin","Copper","Alk_Phos","SGOT","Tryglicerides","Platelets","Prothrombin"],"feature_types":["int","int","int","int","int","int","int","int","float","float","float","float","float","float","float","float","float"],"gradient_booster":{"model":{"cats":{"enc":[],"feature_segments":[],"sorted_idx":[]},"gbtree_model_param":{"num_parallel_tree":"1","num_trees":"900"},"iteration_indptr":[0,3,6,9,12,15,18,21,24,27,30,33,36,39,42,45,48,51,54,57,60,63,66,69,72,75,78,81,84,87,90,93,96,99,102,105,108,111,114,117,120,123,126,129,132,135,138,141,144,147,150,153,156,159,162,165,168,171,174,177,180,183,186,189,192,195,198,201,204,207,210,213,216,219,222,225,228,231,234,237,240,243,246,249,252,255,258,261,264,267,270,273,276,279,282,285,288,291,294,297,300,303,306,309,312,315,318,321,324,327,330,333,336,339,342,345,348,351,354,357,360,363,366,369,372,375,378,381,384,387,390,393,396,399,402,405,408,411,414,417,420,423,426,429,432,435,438,441,444,447,450,453,456,459,462,465,468,471,474,477,480,483,486,489,492,495,498,501,504,507,510,513,516,519,522,525,528,531,534,537,540,543,546,549,552,555,558,561,564,567,570,573,576,579,582,585,588,591,594,597,600,603,606,609,612,615,618,621,624,627,630,633,636,639,642,645,648,651,654,657,660,663,666,669,672,675,678,681,684,687,690,693,696,699,702,705,708,711,714,717,720,723,726,729,732,735,738,741,744,747,750,753,756,759,762,765,768,771,774,777,780,783,786,789,792,795,798,801,804,807,810,813,816,819,822,825,828,831,834,837,840,843,846,849,852,855,858,861,864,867,870,873,876,879,882,885,888,891,894,897,900],"tree_info":[0,1,2,0,1,2,0,1,2,0,1,2,0,1,2,0,1,2,0,1,2,0,1,2,0,1,2,0,1,2,0,1,2,0,1,2,0,1,2,0,1,2,0,1,2,0,1,2,0,1,2,0,1,2,0,1,2,0,1,2,0,1,2,0,1,2,0,1,2,0,1,2,0,1,2,0,1,2,0,1,2,0,1,2,0,1,2,0,1,2,0,1,2,0,1,2,0,1,2,0,1,2,0,1,2,0,1,2,0,1,2,0,1,2,0,1,2,0,1,2,0,1,2,0,1,2,0,1,2,0,1,2,0,1,2,0,1,2,0,1,2,0,1,2,0,1,2,0,1,2,0,1,2,0,1,2,0,1,2,0,1,2,0,1,2,0,1,2,0,1,2,0,1,2,0,1,2,0,1,2,0,1,2,0,1,2,0,1,2,0,1,2,0,1,2,0,1,2,0,1,2,0,1,2,0,1,2,0,1,2,0,1,2,0,1,2,0,1,2,0,1,2,0,1,2,0,1,2,0,1,2,0,1,2,0,1,2,0,1,2,0,1,2,0,1,2,0,1,2,0,1,2,0,1,2,0,1,2,0,1,2,0,1,2,0,1,2,0,1,2,0,1,2,0,1,2,0,1,2,0,1,2,0,1,2,0,1,2,0,1,2,0,1,2,0,1,2,0,1,2,0,1,2,0,1,2,0,1,2,0,1,2,0,1,2,0,1,2,0,1,2,0,1,2,0,1,2,0,1,2,0,1,2,0,1,2,0,1,2,0,1,2,0,1,2,0,1,2,0,1,2,0,1,2,0,1,2,0,1,2,0,1,2,0,1,2,0,1,2,0,1,2,0,1,2,0,1,2,0,1,2,0,1,2,0,1,2,0,1,2,0,1,2,0,1,2,0,1,2,0,1,2,0,1,2,0,1,2,0,1,2,0,1,2,0,1,2,0,1,2,0,1,2,0,1,2,0,1,2,0,1,2,0,1,2,0,1,2,0,1,2,0,1,2,0,1,2,0,1,2,0,1,2,0,1,2,0,1,2,0,1,2,0,1,2,0,1,2,0,1,2,0,1,2,0,1,2,0,1,2,0,1,2,0,1,2,0,1,2,0,1,2,0,1,2,0,1,2,0,1,2,0,1,2,0,1,2,0,1,2,0,1,2,0,1,2,0,1,2,0,1,2,0,1,2,0,1,2,0,1,2,0,1,2,0,1,2,0,1,2,0,1,2,0,1,2,0,1,2,0,1,2,0,1,2,0,1,2,0,1,2,0,1,2,0,1,2,0,1,2,0,1,2,0,1,2,0,1,2,0,1,2,0,1,2,0,1,2,0,1,2,0,1,2,0,1,2,0,1,2,0,1,2,0,1,2,0,1,2,0,1,2,0,1,2,0,1,2,0,1,2,0,1,2,0,1,2,0,1,2,0,1,2,0,1,2,0,1,2,0,1,2,0,1,2,0,1,2,0,1,2,0,1,2,0,1,2,0,1,2,0,1,2,0,1,2,0,1,2,0,1,2,0,1,2,0,1,2,0,1,2,0,1,2,0,1,2,0,1,2,0,1,2,0,1,2,0,1,2,0,1,2,0,1,2,0,1,2,0,1,2,0,1,2,0,1,2,0,1,2,0,1,2,0,1,2,0,1,2,0,1,2,0,1,2,0,1,2,0,1,2,0,1,2,0,1,2,0,1,2,0,1,2,0,1,2,0,1,2,0,1,2,0,1,2,0,1,2,0,1,2,0,1,2,0,1,2,0,1,2,0,1,2,0,1,2,0,1,2,0,1,2,0,1,2,0,1,2,0,1,2,0,1,2,0,1,2,0,1,2,0,1,2,0,1,2,0,1,2,0,1,2,0,1,2,0,1,2,0,1,2,0,1,2,0,1,2,0,1,2,0,1,2,0,1,2,0,1,2,0,1,2,0,1,2,0,1,2,0,1,2,0,1,2,0,1,2,0,1,2,0,1,2,0,1,2,0,1,2,0,1,2,0,1,2,0,1,2,0,1,2,0,1,2,0,1,2,0,1,2],"trees":[{"base_weights":[5.4086324E-2,5.146457E-1,-5.9662294E-1,7.873409E-1,3.1964637E-2,1.0149941E-1,-9.104962E-1,4.3611873E-2,1.867442E-1,4.2775086E-1,-4.6000138E-1,-3.636856E-2,4.6884972E-1,7.4614994E-3,-5.113479E-2,2.7550051E-2,-1.2627052E-2,-1.2627052E-2,6.2365824E-1,-4.093982E-2,4.10321E-3,-1.2627052E-2,3.6787696E-2,3.6787696E-2,7.4614994E-3],"categories":[],"categories_nodes":[],"categories_segments":[],"categories_sizes":[],"default_left":[0,0,0,0,0,0,0,0,0,0,0,0,0,0,0,0,0,0,0,0,0,0,0,0,0],"id":0,"left_children":[1,3,5,7,9,11,13,-1,15,17,19,-1,21,-1,-1,-1,-1,-1,23,-1,-1,-1,-1,-1,-1],"loss_changes":[1.7563585E1,4.483493E0,5.423071E0,9.509983E-1,2.8075151E0,2.9123807E0,2.159956E0,0E0,7.7567416E-1,1.2168388E0,1.3235232E0,0E0,1.4295522E0,0E0,0E0,0E0,0E0,0E0,2.3373342E-1,0E0,0E0,0E0,0E0,0E0,0E0],"parents":[2147483647,0,0,1,1,2,2,3,3,4,4,5,5,6,6,8,8,9,9,10,10,12,12,18,18],"right_children":[2,4,6,8,10,12,14,-1,16,18,20,-1,22,-1,-1,-1,-1,-1,24,-1,-1,-1,-1,-1,-1],"split_conditions":[2.1E0,1.9358E4,1.02E1,1.457E2,1E0,1.072E3,1.4772E4,4.3611873E-2,9E-1,2.0354E4,1.08E1,-3.636856E-2,6.4E1,7.4614994E-3,-5.113479E-2,2.7550051E-2,-1.2627052E-2,-1.2627052E-2,1.987E3,-4.093982E-2,4.10321E-3,-1.2627052E-2,3.6787696E-2,3.6787696E-2,7.4614994E-3],"split_indices":[8,2,16,13,8,0,2,0,8,2,16,0,11,0,0,0,0,0,0,0,0,0,0,0,0],"split_type":[0,0,0,0,0,0,0,0,0,0,0,0,0,0,0,0,0,0,0,0,0,0,0,0,0],"sum_hessian":[5.6581234E1,3.3253883E1,2.332735E1,2.0845718E1,1.2408166E1,7.4448996E0,1.5882452E1,1.7867758E1,2.9779596E0,6.9485726E0,5.459593E0,1.9853065E0,5.459593E0,1.4889798E0,1.4393472E1,1.4889798E0,1.4889798E0,1.4889798E0,5.459593E0,2.9779596E0,2.4816332E0,1.4889798E0,3.970613E0,3.970613E0,1.4889798E0],"tree_param":{"num_deleted":"0","num_feature":"17","num_nodes":"25","size_leaf_vector":"1"}},{"base_weights":[6.051865E-2,1.1104224E0,-2.8641462E-1,8.251395E-2,6.8527036E-3,-2.3246512E-2,2.4517624E-1,3.43807E-2,-1.43818725E-2],"categories":[],"categories_nodes":[],"categories_segments":[],"categories_sizes":[],"default_left":[0,0,0,0,0,0,0,0,0],"id":1,"left_children":[1,3,5,-1,-1,-1,7,-1,-1],"loss_changes":[4.9605327E0,1.5450268E0,1.0985322E0,0E0,0E0,0E0,9.669666E-1,0E0,0E0],"parents":[2147483647,0,0,1,1,2,2,6,6],"right_children":[2,4,6,-1,-1,-1,8,-1,-1],"split_conditions":[1.5056E4,1E0,1.37E2,8.251395E-2,6.8527036E-3,-2.3246512E-2,1.8972E4,3.43807E-2,-1.43818725E-2],"split_indices":[2,1,14,0,0,0,2,0,0],"split_type":[0,0,0,0,0,0,0,0,0],"sum_hessian":[1.1745466E1,2.3706446E0,9.374822E0,1.0775657E0,1.2930789E0,7.1119337E0,2.262888E0,1.0775657E0,1.1853223E0],"tree_param":{"num_deleted":"0","num_feature":"17","num_nodes":"9","size_leaf_vector":"1"}},{"base_weights":[4.7900286E-2,-2.858571E-1,9.0909153E-1,-5.7010746E-1,2.2788255E-1,1.7969048E-8,1.0769237E0,-7.024026E-1,7.518839E-2,-4.8872146E-1,5.660383E-1,1.6393458E-2,5.709346E-2,-7.425739E-1,-4.098346E-3,-2.9411752E-2,4.1095912E-2,-4.098346E-3,-3.092782E-2,-2.4590153E-2,7.860268E-1,-4.098346E-3,-3.9445613E-2,9.1716033E-1,1.4705903E-2,5.0751906E-2,1.6393458E-2],"categories":[],"categories_nodes":[],"categories_segments":[],"categories_sizes":[],"default_left":[0,0,0,0,0,0,0,0,0,0,0,0,0,0,0,0,0,0,0,0,0,0,0,0,0,0,0],"id":2,"left_children":[1,3,5,7,9,-1,11,13,15,17,19,-1,-1,21,-1,-1,-1,-1,-1,-1,23,-1,-1,25,-1,-1,-1],"loss_changes":[1.5861511E1,5.95362E0,2.3496513E0,2.2690039E0,3.892105E0,0E0,2.5803566E-1,4.7848415E-1,3.1189985E0,2.3025286E-1,2.8533268E0,0E0,0E0,5.536852E-1,0E0,0E0,0E0,0E0,0E0,0E0,3.2111883E-1,0E0,0E0,5.710745E-2,0E0,0E0,0E0],"parents":[2147483647,0,0,1,1,2,2,3,3,4,4,6,6,7,7,8,8,9,9,10,10,13,13,20,20,23,23],"right_children":[2,4,6,8,10,-1,12,14,16,18,20,-1,-1,22,-1,-1,-1,-1,-1,-1,24,-1,-1,26,-1,-1,-1],"split_conditions":[8.4E1,1.7E0,1.6658E4,2.1464E4,1.5056E4,1.7969048E-8,1.11E2,4.2E0,1E0,2.1E0,9.9E0,1.6393458E-2,5.709346E-2,2.2E1,-4.098346E-3,-2.9411752E-2,4.1095912E-2,-4.098346E-3,-3.092782E-2,-2.4590153E-2,1E0,-4.098346E-3,-3.9445613E-2,1.783E3,1.4705903E-2,5.0751906E-2,1.6393458E-2],"split_indices":[11,8,2,2,2,0,11,10,8,8,16,0,0,11,0,0,0,0,0,0,7,0,0,0,0,0,0],"split_type":[0,0,0,0,0,0,0,0,0,0,0,0,0,0,0,0,0,0,0,0,0,0,0,0,0,0,0],"sum_hessian":[5.327999E1,3.8879993E1,1.4399998E1,2.4959997E1,1.3919998E1,2.3999996E0,1.1999998E1,2.0639997E1,4.319999E0,4.319999E0,9.599998E0,1.4399998E0,1.05599985E1,1.9199997E1,1.4399998E0,2.3999996E0,1.9199997E0,1.4399998E0,2.8799996E0,1.4399998E0,8.159999E0,1.4399998E0,1.7759998E1,5.7599993E0,2.3999996E0,4.319999E0,1.4399998E0],"tree_param":{"num_deleted":"0","num_feature":"17","num_nodes":"27","size_leaf_vector":"1"}},{"base_weights":[-7.518677E-3,4.368633E-1,-7.068498E-1,5.8537036E-1,-4.1267654E-1,-7.110114E-2,-9.2587936E-1,8.021964E-1,1.6752605E-1,-3.946821E-2,4.103961E-3,-4.6016455E-1,3.0141724E-2,-4.8895393E-2,-1.1607135E-2,4.234774E-2,7.0925876E-3,3.7445437E-2,-3.523064E-1,-2.643765E-3,-3.564992E-2,-6.5901756E-1,1.3870962E-2,-3.8335364E-2,-1.2188745E-2],"categories":[],"categories_nodes":[],"categories_segments":[],"categories_sizes":[],"default_left":[0,0,0,0,0,0,0,0,0,0,0,0,0,0,0,0,0,0,0,0,0,0,0,0,0],"id":3,"left_children":[1,3,5,7,9,11,13,15,17,-1,-1,19,-1,-1,-1,-1,-1,-1,21,-1,-1,23,-1,-1,-1],"loss_changes":[1.8336645E1,4.794625E0,3.1259289E0,2.6861868E0,1.1748829E0,2.1014502E0,3.8531685E-1,4.77849E-1,3.8602433E0,0E0,0E0,4.748714E-1,0E0,0E0,0E0,0E0,0E0,0E0,1.5276017E0,0E0,0E0,3.571582E-2,0E0,0E0,0E0],"parents":[2147483647,0,0,1,1,2,2,3,3,4,4,5,5,6,6,7,7,8,8,11,11,18,18,21,21],"right_children":[2,4,6,8,10,12,14,16,18,-1,-1,20,-1,-1,-1,-1,-1,-1,22,-1,-1,24,-1,-1,-1],"split_conditions":[2.3E0,3.64E2,1.02E1,1.9724E4,1.4245E4,1.518E3,5.76E2,1.457E2,1E0,-3.946821E-2,4.103961E-3,4.2E0,3.0141724E-2,-4.8895393E-2,-1.1607135E-2,4.234774E-2,7.0925876E-3,3.7445437E-2,2.338E3,-2.643765E-3,-3.564992E-2,3.64E0,1.3870962E-2,-3.8335364E-2,-1.2188745E-2],"split_indices":[8,9,16,2,2,0,9,13,8,0,0,8,0,0,0,0,0,0,0,0,0,10,0,0,0],"split_type":[0,0,0,0,0,0,0,0,0,0,0,0,0,0,0,0,0,0,0,0,0,0,0,0,0],"sum_hessian":[5.7010227E1,3.5088776E1,2.192145E1,3.0132334E1,4.9564424E0,5.956604E0,1.5964845E1,1.9232462E1,1.0899872E1,2.4759152E0,2.480527E0,3.9775565E0,1.9790477E0,1.4470008E1,1.4948368E0,1.774697E1,1.4854927E0,4.937301E0,5.9625707E0,1.9865539E0,1.9910026E0,3.9783695E0,1.984201E0,2.4869838E0,1.4913857E0],"tree_param":{"num_deleted":"0","num_feature":"17","num_nodes":"25","size_leaf_vector":"1"}},{"base_weights":[4.469212E-2,-2.356076E-2,9.607736E-1,1.4179941E0,-1.4378843E-2,6.6634836E-3,1.0106987E-1],"categories":[],"categories_nodes":[],"categories_segments":[],"categories_sizes":[],"default_left":[0,0,0,0,0,0,0],"id":4,"left_children":[1,-1,3,5,-1,-1,-1],"loss_changes":[6.6439443E0,0E0,3.2893972E0,2.7258759E0,0E0,0E0,0E0],"parents":[2147483647,0,0,2,2,3,3],"right_children":[2,-1,4,6,-1,-1,-1],"split_conditions":[3.1E2,-2.356076E-2,1.7889E4,2.38E2,-1.4378843E-2,6.6634836E-3,1.0106987E-1],"split_indices":[9,0,2,15,0,0,0],"split_type":[0,0,0,0,0,0,0],"sum_hessian":[1.2099961E1,8.0513315E0,4.0486298E0,2.8638296E0,1.1847999E0,1.3053762E0,1.5584534E0],"tree_param":{"num_deleted":"0","num_feature":"17","num_nodes":"7","size_leaf_vector":"1"}},{"base_weights":[-4.9588796E-2,9.042651E-1,-2.8970373E-1,-4.513463E-3,5.303008E-2,-5.384537E-1,1.2874149E-1,-6.541527E-1,8.098414E-2,-5.2951616E-1,4.5668995E-1,-7.2867894E-1,4.7391155E-4,3.644378E-2,-3.505734E-1,-3.364432E-3,-3.2613833E-2,3.8865354E-2,4.8706345E-2,-3.863689E-2,-3.2428496E-3,-3.5572224E-3,-2.427025E-2,4.2001404E-2,-4.86985E-1,-3.0836781E-2,-4.0610638E-3],"categories":[],"categories_nodes":[],"categories_segments":[],"categories_sizes":[],"default_left":[0,0,0,0,0,0,0,0,0,0,0,0,0,0,0,0,0,0,0,0,0,0,0,0,0,0,0],"id":5,"left_children":[1,3,5,-1,-1,7,9,11,13,15,17,19,-1,-1,21,-1,-1,23,-1,-1,-1,-1,-1,-1,25,-1,-1],"loss_changes":[1.278119E1,1.8426247E0,4.6934977E0,0E0,0E0,2.0636568E0,3.9916067E0,1.1815348E0,1.7389021E0,3.101462E-1,2.584817E0,5.7474995E-1,0E0,0E0,1.1087638E-1,0E0,0E0,3.6753662E0,0E0,0E0,0E0,0E0,0E0,0E0,2.2966862E-1,0E0,0E0],"parents":[2147483647,0,0,1,1,2,2,5,5,6,6,7,7,8,8,9,9,10,10,11,11,14,14,17,17,24,24],"right_children":[2,4,6,-1,-1,8,10,12,14,16,18,20,-1,-1,22,-1,-1,24,-1,-1,-1,-1,-1,-1,26,-1,-1],"split_conditions":[8.39E2,1.6728E4,1.8E0,-4.513463E-3,5.303008E-2,1.271E2,1.5116E4,2.3376E4,1.45E2,1.83E2,3.47E0,1.57E2,4.7391155E-4,3.644378E-2,2.796E3,-3.364432E-3,-3.2613833E-2,1E0,4.8706345E-2,-3.863689E-2,-3.2428496E-3,-3.5572224E-3,-2.427025E-2,4.2001404E-2,3.1E0,-3.0836781E-2,-4.0610638E-3],"split_indices":[0,2,8,0,0,13,2,2,13,15,10,14,0,0,0,0,0,1,0,0,0,0,0,0,8,0,0],"split_type":[0,0,0,0,0,0,0,0,0,0,0,0,0,0,0,0,0,0,0,0,0,0,0,0,0,0,0],"sum_hessian":[5.366083E1,1.023529E1,4.342554E1,1.4477872E0,8.787503E0,2.7055355E1,1.6370188E1,2.2750044E1,4.305311E0,5.2392797E0,1.1130907E1,2.0365019E1,2.3850248E0,1.4458038E0,2.8595073E0,1.4243461E0,3.8149338E0,6.7530255E0,4.3778815E0,1.8943628E1,1.4213921E0,1.4279132E0,1.4315943E0,2.43924E0,4.3137856E0,2.8746305E0,1.4391553E0],"tree_param":{"num_deleted":"0","num_feature":"17","num_nodes":"27","size_leaf_vector":"1"}},{"base_weights":[8.1266597E-4,4.265654E-1,-6.3753253E-1,5.8932734E-1,-6.524501E-1,1.3760558E-2,-7.370797E-1,6.8871653E-1,6.869441E-3,-1.1547483E-2,-3.8348425E-2,1.3475889E-2,-8.560331E-1,7.550673E-1,-3.9493977E-3,4.152865E-1,-3.2197133E-2,-1.0998119E-2,-8.978863E-1,7.877285E-1,1.2951076E-2,2.6321784E-2,6.837465E-3,-4.7295596E-2,-1.7486952E-2,4.1409098E-2,6.7016506E-3],"categories":[],"categories_nodes":[],"categories_segments":[],"categories_sizes":[],"default_left":[0,0,0,0,0,0,0,0,0,0,0,0,0,0,0,0,0,0,0,0,0,0,0,0,0,0,0],"id":6,"left_children":[1,3,5,7,9,-1,11,13,15,-1,-1,-1,17,19,-1,21,-1,-1,23,25,-1,-1,-1,-1,-1,-1,-1],"loss_changes":[1.5581098E1,6.4243417E0,2.287095E0,1.7556305E0,6.336069E-2,0E0,2.7398176E0,1.3822966E0,1.7140763E0,0E0,0E0,0E0,3.0776978E-1,1.8471813E-1,0E0,5.0360143E-2,0E0,0E0,1.2943363E-1,4.713745E-1,0E0,0E0,0E0,0E0,0E0,0E0,0E0],"parents":[2147483647,0,0,1,1,2,2,3,3,4,4,6,6,7,7,8,8,12,12,13,13,15,15,18,18,19,19],"right_children":[2,4,6,8,10,-1,12,14,16,-1,-1,-1,18,20,-1,22,-1,-1,24,26,-1,-1,-1,-1,-1,-1,-1],"split_conditions":[2.3E0,3.64E2,1.4772E4,2.1464E4,3.51E0,1.3760558E-2,9.9E0,1.35E2,3.66E0,-1.1547483E-2,-3.8348425E-2,1.3475889E-2,7E1,1.17E1,-3.9493977E-3,1.74E2,-3.2197133E-2,-1.0998119E-2,2.3376E4,1.8E0,1.2951076E-2,2.6321784E-2,6.837465E-3,-4.7295596E-2,-1.7486952E-2,4.1409098E-2,6.7016506E-3],"split_indices":[8,9,2,2,10,0,16,14,10,0,0,0,14,16,0,15,0,0,2,8,0,0,0,0,0,0,0],"split_type":[0,0,0,0,0,0,0,0,0,0,0,0,0,0,0,0,0,0,0,0,0,0,0,0,0,0,0],"sum_hessian":[5.5329773E1,3.3390984E1,2.1938791E1,2.9408712E1,3.9822695E0,1.9838961E0,1.9954895E1,2.4966122E1,4.4425898E0,1.4953041E0,2.4869654E0,1.9751558E0,1.797974E1,2.2995169E1,1.970953E0,2.951974E0,1.490616E0,1.4962227E0,1.6483517E1,2.1022938E1,1.9722323E0,1.4738419E0,1.478132E0,1.4488465E1,1.9950514E0,1.9546402E1,1.4765356E0],"tree_param":{"num_deleted":"0","num_feature":"17","num_nodes":"27","size_leaf_vector":"1"}},{"base_weights":[-2.233185E-3,-3.7339124E-1,1.0167346E0,1.0808564E-2,-2.344597E-2,9.948908E-2,-1.5357857E-2],"categories":[],"categories_nodes":[],"categories_segments":[],"categories_sizes":[],"default_left":[0,0,0,0,0,0,0],"id":7,"left_children":[1,3,5,-1,-1,-1,-1],"loss_changes":[5.0589566E0,6.533351E-1,5.2127266E0,0E0,0E0,0E0,0E0],"parents":[2147483647,0,0,1,1,2,2],"right_children":[2,4,6,-1,-1,-1,-1],"split_conditions":[1.457E2,6.46E2,1.7246E4,1.0808564E-2,-2.344597E-2,9.948908E-2,-1.5357857E-2],"split_indices":[13,12,2,0,0,0,0],"split_type":[0,0,0,0,0,0,0],"sum_hessian":[1.1372661E1,8.800607E0,2.5720534E0,1.0510465E0,7.7495604E0,1.1925572E0,1.3794963E0],"tree_param":{"num_deleted":"0","num_feature":"17","num_nodes":"7","size_leaf_vector":"1"}},{"base_weights":[-1.28595615E-2,-4.074692E-1,5.882798E-1,-6.314325E-1,1.4272138E-1,-2.892772E-2,7.68126E-1,-7.0454174E-1,-8.5092835E-2,-3.5794178E-1,3.7408732E-2,-4.0548197E-3,8.435407E-1,-3.75283E-2,-2.7437396E-3,-2.3671048E-2,1.677939E-2,-3.0708162E-2,7.098985E-3,4.6316367E-1,9.565651E-1,3.36788E-2,-5.219835E-3,1.5323221E-2,5.0770562E-2],"categories":[],"categories_nodes":[],"categories_segments":[],"categories_sizes":[],"default_left":[0,0,0,0,0,0,0,0,0,0,0,0,0,0,0,0,0,0,0,0,0,0,0,0,0],"id":8,"left_children":[1,3,5,7,9,-1,11,13,15,17,-1,-1,19,-1,-1,-1,-1,-1,-1,21,23,-1,-1,-1,-1],"loss_changes":[1.2592798E1,4.0368137E0,4.861007E0,8.566227E-1,3.3238375E0,0E0,1.2638063E0,5.598612E-1,7.8711385E-1,8.806919E-1,0E0,0E0,2.9773426E-1,0E0,0E0,0E0,0E0,0E0,0E0,7.7320826E-1,1.6107655E-1,0E0,0E0,0E0,0E0],"parents":[2147483647,0,0,1,1,2,2,3,3,4,4,6,6,7,7,8,8,9,9,12,12,19,19,20,20],"right_children":[2,4,6,8,10,-1,12,14,16,18,-1,-1,20,-1,-1,-1,-1,-1,-1,22,24,-1,-1,-1,-1],"split_conditions":[2.3E0,1.9724E4,1.5116E4,1.9E0,1E0,-2.892772E-2,6.7E1,3.6E2,1.4212E4,3.79E0,3.7408732E-2,-4.0548197E-3,1.08E2,-3.75283E-2,-2.7437396E-3,-2.3671048E-2,1.677939E-2,-3.0708162E-2,7.098985E-3,1E0,1.6658E4,3.36788E-2,-5.219835E-3,1.5323221E-2,5.0770562E-2],"split_indices":[8,2,2,8,8,0,11,15,2,10,0,0,11,0,0,0,0,0,0,7,2,0,0,0,0],"split_type":[0,0,0,0,0,0,0,0,0,0,0,0,0,0,0,0,0,0,0,0,0,0,0,0,0],"sum_hessian":[5.1075428E1,3.1029024E1,2.0046406E1,2.1947363E1,9.08166E0,2.3810866E0,1.7665318E1,1.9101675E1,2.8456872E0,5.194781E0,3.8868797E0,1.4346635E0,1.6230656E1,1.769295E1,1.4087266E0,1.4145522E0,1.4311349E0,3.2834277E0,1.911353E0,4.8857746E0,1.134488E1,3.4280846E0,1.4576898E0,1.4569684E0,9.887912E0],"tree_param":{"num_deleted":"0","num_feature":"17","num_nodes":"25","size_leaf_vector":"1"}},{"base_weights":[-3.6295976E-2,4.009244E-1,-6.549131E-1,4.944883E-1,-3.5474483E-2,-1.2777534E-1,-8.082498E-1,2.4122015E-1,6.916711E-1,4.3748602E-1,-3.6620975E-2,-4.4961378E-2,-2.633978E-1,4.5509598E-1,-2.9685003E-1,5.5194637E-3,7.3928875E-1,2.7245242E-2,7.6842415E-3,-2.9383892E-2,8.412098E-3,1.4290711E-1,3.5918094E-2,-2.5271839E-2,5.8520255E-3,3.9491888E-2,7.832362E-3,-3.8663668E-3,2.623317E-2],"categories":[],"categories_nodes":[],"categories_segments":[],"categories_sizes":[],"default_left":[0,0,0,0,0,0,0,0,0,0,0,0,0,0,0,0,0,0,0,0,0,0,0,0,0,0,0,0,0],"id":9,"left_children":[1,3,5,7,-1,9,11,13,15,17,-1,-1,19,21,23,-1,25,-1,-1,-1,-1,27,-1,-1,-1,-1,-1,-1,-1],"loss_changes":[1.531211E1,3.8023067E0,1.7898245E0,1.3927097E0,0E0,2.5301745E0,6.5318775E-1,1.884963E0,3.8957214E-1,3.7209928E-2,0E0,0E0,6.5644014E-1,8.240576E-1,4.8478752E-1,0E0,3.3450127E-1,0E0,0E0,0E0,0E0,5.7922626E-1,0E0,0E0,0E0,0E0,0E0,0E0,0E0],"parents":[2147483647,0,0,1,1,2,2,3,3,5,5,6,6,7,7,8,8,9,9,12,12,13,13,14,14,16,16,21,21],"right_children":[2,4,6,8,-1,10,12,14,16,18,-1,-1,20,22,24,-1,26,-1,-1,-1,-1,28,-1,-1,-1,-1,-1,-1,-1],"split_conditions":[2.3E0,3.94E2,1.01E1,2.39E2,-3.5474483E-2,2.36E2,3.57E0,2.24E2,5.2E1,1.428E3,-3.6620975E-2,-4.4961378E-2,1E0,1.06E1,2.504E3,5.5194637E-3,3.58E2,2.7245242E-2,7.6842415E-3,-2.9383892E-2,8.412098E-3,1.9E0,3.5918094E-2,-2.5271839E-2,5.8520255E-3,3.9491888E-2,7.832362E-3,-3.8663668E-3,2.623317E-2],"split_indices":[8,9,16,15,0,15,10,15,13,12,0,0,6,16,0,0,9,0,0,0,0,8,0,0,0,0,0,0,0],"split_type":[0,0,0,0,0,0,0,0,0,0,0,0,0,0,0,0,0,0,0,0,0,0,0,0,0,0,0,0,0],"sum_hessian":[5.4641754E1,3.2220886E1,2.242087E1,3.0228502E1,1.9923838E0,5.4653826E0,1.6955488E1,1.4205637E1,1.6022865E1,2.967564E0,2.4978182E0,1.3972066E1,2.9834213E0,1.0275476E1,3.93016E0,1.4644289E0,1.4558436E1,1.4853395E0,1.4822247E0,1.49715E0,1.4862715E0,5.4067774E0,4.8686996E0,2.4661298E0,1.4640303E0,1.3068978E1,1.4894576E0,3.934446E0,1.4723312E0],"tree_param":{"num_deleted":"0","num_feature":"17","num_nodes":"29","size_leaf_vector":"1"}},{"base_weights":[1.0235935E-1,1.0750798E0,-2.8644353E-1,-6.92056E-4,1.0493541E-1,2.3802897E-1,-2.319532E-2,-1.4487413E-2,3.4263007E-2],"categories":[],"categories_nodes":[],"categories_segments":[],"categories_sizes":[],"default_left":[0,0,0,0,0,0,0,0,0],"id":10,"left_children":[1,3,5,-1,-1,7,-1,-1,-1],"loss_changes":[5.4063597E0,4.5545716E0,1.0803342E0,0E0,0E0,9.764127E-1,0E0,0E0,0E0],"parents":[2147483647,0,0,1,1,2,2,5,5],"right_children":[2,4,6,-1,-1,8,-1,-1,-1],"split_conditions":[1.5105E4,1.45E2,1.01E1,-6.92056E-4,1.0493541E-1,1.3E0,-2.319532E-2,-1.4487413E-2,3.4263007E-2],"split_indices":[2,13,16,0,0,8,0,0,0],"split_type":[0,0,0,0,0,0,0,0,0],"sum_hessian":[1.248085E1,3.0600383E0,9.420812E0,1.9607254E0,1.0993129E0,2.2954795E0,7.1253324E0,1.2144437E0,1.0810357E0],"tree_param":{"num_deleted":"0","num_feature":"17","num_nodes":"9","size_leaf_vector":"1"}},{"base_weights":[-1.2812369E-2,7.991164E-1,-2.5732428E-1,-2.406262E-2,4.9613763E-2,-3.8668364E-1,3.9822552E-1,-6.2727135E-1,4.010048E-3,4.509767E-2,-3.4967035E-1,-6.610099E-1,-3.1047831E-3,-3.0218327E-2,2.1843623E-1,-2.4264565E-2,-3.4765664E-3,-3.689206E-2,-3.134637E-1,-2.3716597E-2,3.5511324E-1,-2.915184E-2,7.344577E-3,3.5931468E-2,1.8220062E-3],"categories":[],"categories_nodes":[],"categories_segments":[],"categories_sizes":[],"default_left":[0,0,0,0,0,0,0,0,0,0,0,0,0,0,0,0,0,0,0,0,0,0,0,0,0],"id":11,"left_children":[1,3,5,-1,-1,7,9,11,13,-1,15,17,-1,-1,19,-1,-1,-1,21,-1,23,-1,-1,-1,-1],"loss_changes":[1.1449607E1,3.779727E0,3.909424E0,0E0,0E0,3.5267916E0,3.250603E0,4.0154457E-1,2.1257024E0,0E0,1.1276686E-1,3.5081768E-1,0E0,0E0,1.3079481E0,0E0,0E0,0E0,7.91193E-1,0E0,1.2044615E0,0E0,0E0,0E0,0E0],"parents":[2147483647,0,0,1,1,2,2,5,5,6,6,7,7,8,8,10,10,11,11,14,14,18,18,20,20],"right_children":[2,4,6,-1,-1,8,10,12,14,-1,16,18,-1,-1,20,-1,-1,-1,22,-1,24,-1,-1,-1,-1],"split_conditions":[9.01E2,1.5105E4,3.94E2,-2.406262E-2,4.9613763E-2,1.906E4,2.286E3,3.6E2,9.18E2,4.509767E-2,1E0,1.716E3,-3.1047831E-3,-3.0218327E-2,1.17E2,-2.4264565E-2,-3.4765664E-3,-3.689206E-2,1E0,-2.3716597E-2,2E0,-2.915184E-2,7.344577E-3,3.5931468E-2,1.8220062E-3],"split_indices":[0,2,9,0,0,2,0,15,12,0,1,12,0,0,15,0,0,0,5,0,1,0,0,0,0],"split_type":[0,0,0,0,0,0,0,0,0,0,0,0,0,0,0,0,0,0,0,0,0,0,0,0,0],"sum_hessian":[5.5637215E1,1.2352192E1,4.3285023E1,1.4236871E0,1.0928505E1,3.6493847E1,6.791177E0,2.2210917E1,1.428293E1,3.9349167E0,2.8562598E0,2.0799698E1,1.4112191E0,3.24828E0,1.103465E1,1.4311082E0,1.4251516E0,1.6114336E1,4.6853614E0,1.4112179E0,9.623432E0,2.7869163E0,1.8984451E0,3.9091392E0,5.714293E0],"tree_param":{"num_deleted":"0","num_feature":"17","num_nodes":"25","size_leaf_vector":"1"}},{"base_weights":[-2.656091E-2,-4.0418256E-2,2.1428339E-1,4.19033E-1,-6.61472E-1,6.424112E-1,1.3035786E-2,-8.00324E-3,-4.1497953E-2,7.42256E-1,1.0161383E-1,-4.270274E-1,3.3323509E-1,3.918354E-2,6.3998434E-3,2.7989386E-2,-1.9227838E-2,-6.112664E-1,5.8715553E-3,3.286406E-2,1.0262396E-2,-1.1044208E-2,-3.5730883E-2,-1.5486905E-2,2.6031777E-2],"categories":[],"categories_nodes":[],"categories_segments":[],"categories_sizes":[],"default_left":[0,0,0,0,0,0,0,0,0,0,0,0,0,0,0,0,0,0,0,0,0,0,0,0,0],"id":12,"left_children":[1,-1,3,5,7,9,11,-1,-1,13,15,17,19,-1,-1,-1,-1,21,-1,-1,23,-1,-1,-1,-1],"loss_changes":[1.1129886E1,0E0,8.395586E0,3.3751564E0,6.247151E-1,1.2229671E0,2.1519601E0,0E0,0E0,4.120407E-1,1.3081369E0,7.182952E-1,9.160342E-1,0E0,0E0,0E0,0E0,4.294622E-2,0E0,0E0,1.0483674E0,0E0,0E0,0E0,0E0],"parents":[2147483647,0,0,2,2,3,3,4,4,5,5,6,6,9,9,10,10,11,11,12,12,17,17,20,20],"right_children":[2,-1,4,6,8,10,12,-1,-1,14,16,18,20,-1,-1,-1,-1,22,-1,-1,24,-1,-1,-1,-1],"split_conditions":[9.89E2,-4.0418256E-2,3.73E2,1.906E4,1.83E2,7.4E1,2.0459E4,-8.00324E-3,-4.1497953E-2,3.58E2,1E0,2.86E2,2.1915E4,3.918354E-2,6.3998434E-3,2.7989386E-2,-1.9227838E-2,1.978E3,5.8715553E-3,3.286406E-2,2.4472E4,-1.1044208E-2,-3.5730883E-2,-1.5486905E-2,2.6031777E-2],"split_indices":[0,0,9,2,15,11,2,0,0,15,5,15,2,0,0,0,0,0,0,0,2,0,0,0,0],"split_type":[0,0,0,0,0,0,0,0,0,0,0,0,0,0,0,0,0,0,0,0,0,0,0,0,0],"sum_hessian":[5.7189426E1,1.291375E1,4.4275677E1,3.630838E1,7.9672976E0,2.3046162E1,1.32622175E1,2.494331E0,5.4729667E0,1.9139929E1,3.9062333E0,5.4451256E0,7.817092E0,1.7672602E1,1.4673258E0,1.9330645E0,1.9731688E0,3.9767354E0,1.4683902E0,3.385371E0,4.4317207E0,1.4891359E0,2.4875996E0,2.9654918E0,1.4662288E0],"tree_param":{"num_deleted":"0","num_feature":"17","num_nodes":"25","size_leaf_vector":"1"}},{"base_weights":[-1.4862014E-2,-2.3581851E-2,9.75312E-1,9.5531665E-2,-1.6501972E-2],"categories":[],"categories_nodes":[],"categories_segments":[],"categories_sizes":[],"default_left":[0,0,0,0,0],"id":13,"left_children":[1,-1,3,-1,-1],"loss_changes":[6.1905904E0,0E0,5.91196E0,0E0,0E0],"parents":[2147483647,0,0,2,2],"right_children":[2,-1,4,-1,-1],"split_conditions":[3.38E2,-2.3581851E-2,1.5105E4,9.5531665E-2,-1.6501972E-2],"split_indices":[9,0,2,0,0],"split_type":[0,0,0,0,0],"sum_hessian":[1.1670274E1,8.34455E0,3.3257234E0,1.6673367E0,1.6583867E0],"tree_param":{"num_deleted":"0","num_feature":"17","num_nodes":"5","size_leaf_vector":"1"}},{"base_weights":[-4.001058E-3,-3.5124812E-1,6.168739E-1,-4.3368953E-1,3.8507707E-2,-8.553953E-2,8.560859E-1,-6.130095E-1,-2.4517642E-1,-2.8691206E-2,3.534264E-1,4.7689434E-2,1.1256051E-2,-3.562544E-2,-1.782489E-1,-5.3812647E-1,-7.0666835E-2,3.246447E-2,-4.608403E-3,1.8060716E-2,-2.6162868E-2,-3.2410495E-2,-2.7049312E-3,3.426979E-2,-2.2428584E-1,-3.0143356E-5,-2.3414573E-2],"categories":[],"categories_nodes":[],"categories_segments":[],"categories_sizes":[],"default_left":[0,0,0,0,0,0,0,0,0,0,0,0,0,0,0,0,0,0,0,0,0,0,0,0,0,0,0],"id":14,"left_children":[1,3,5,7,-1,9,11,13,15,-1,17,-1,-1,-1,19,21,23,-1,-1,-1,-1,-1,-1,-1,25,-1,-1],"loss_changes":[1.2757221E1,3.8416076E0,3.6397562E0,1.0660481E0,0E0,1.5534617E0,7.669859E-1,6.418743E-1,9.4393086E-1,0E0,5.7889855E-1,0E0,0E0,0E0,1.0533173E0,3.3895183E-1,1.6855094E0,0E0,0E0,0E0,0E0,0E0,0E0,0E0,6.3910925E-1,0E0,0E0],"parents":[2147483647,0,0,1,1,2,2,3,3,5,5,6,6,7,7,8,8,10,10,14,14,15,15,16,16,24,24],"right_children":[2,4,6,8,-1,10,12,14,16,-1,18,-1,-1,-1,20,22,24,-1,-1,-1,-1,-1,-1,-1,26,-1,-1],"split_conditions":[2.3E0,4.66E2,1.02E1,1E0,3.8507707E-2,1E0,4.5E2,1.1E1,1E0,-2.8691206E-2,2E0,4.7689434E-2,1.1256051E-2,-3.562544E-2,2.504E3,1.637E3,1.04E3,3.246447E-2,-4.608403E-3,1.8060716E-2,-2.6162868E-2,-3.2410495E-2,-2.7049312E-3,3.426979E-2,2.36E2,-3.0143356E-5,-2.3414573E-2],"split_indices":[8,9,16,8,0,6,9,16,1,0,1,0,0,0,0,12,12,0,0,0,0,0,0,0,15,0,0],"split_type":[0,0,0,0,0,0,0,0,0,0,0,0,0,0,0,0,0,0,0,0,0,0,0,0,0,0,0],"sum_hessian":[5.71666E1,3.6940525E1,2.0226072E1,3.4982037E1,1.9584904E0,5.301462E0,1.492461E1,1.6774117E1,1.8207918E1,2.3643053E0,2.9371572E0,1.2480424E1,2.4441867E0,1.3130274E1,3.6438432E0,6.019428E0,1.218849E1,1.490424E0,1.446733E0,1.4030421E0,2.240801E0,4.6277337E0,1.3916941E0,1.4737102E0,1.071478E1,6.113202E0,4.6015778E0],"tree_param":{"num_deleted":"0","num_feature":"17","num_nodes":"27","size_leaf_vector":"1"}},{"base_weights":[2.0076606E-2,3.5341173E-1,-5.486965E-1,-2.91001E-2,4.0921393E-1,-4.118642E-2,-3.3165124E-1,5.3230333E-1,-5.9032608E-2,-6.017406E-1,1.2910041E-1,6.906004E-1,3.357805E-1,-6.523994E-1,3.1723287E-2,-3.910176E-2,8.980838E-3,2.8978607E-2,-2.3856488E-1,1.4200351E-2,3.7280902E-2,3.523623E-2,8.0534145E-2,-3.7622374E-2,-1.2390318E-2,9.215935E-3,-2.8179659E-2,-1.6325144E-2,1.5209362E-2],"categories":[],"categories_nodes":[],"categories_segments":[],"categories_sizes":[],"default_left":[0,0,0,0,0,0,0,0,0,0,0,0,0,0,0,0,0,0,0,0,0,0,0,0,0,0,0,0,0],"id":15,"left_children":[1,3,5,-1,7,-1,9,11,13,15,17,19,21,23,-1,-1,-1,-1,25,-1,-1,-1,27,-1,-1,-1,-1,-1,-1],"loss_changes":[1.1147287E1,2.1712666E0,1.0245299E0,0E0,2.0795965E0,0E0,1.7980722E0,6.465969E-1,3.8282166E0,1.3931544E0,1.1207999E0,1.16947174E-1,1.3129449E0,1.449275E-2,0E0,0E0,0E0,0E0,6.5021396E-1,0E0,0E0,0E0,9.847303E-1,0E0,0E0,0E0,0E0,0E0,0E0],"parents":[2147483647,0,0,1,1,2,2,4,4,6,6,7,7,8,8,9,9,10,10,11,11,12,12,13,13,18,18,22,22],"right_children":[2,4,6,-1,8,-1,10,12,14,16,18,20,22,24,-1,-1,-1,-1,26,-1,-1,-1,28,-1,-1,-1,-1,-1,-1],"split_conditions":[2.3E0,6.91E2,1E0,-2.91001E-2,1.613E3,-4.118642E-2,1.363E3,1E0,3.395E3,3.54E0,3.31E0,6.4E1,3.51E0,6.5E1,3.1723287E-2,-3.910176E-2,8.980838E-3,2.8978607E-2,1E0,1.4200351E-2,3.7280902E-2,3.523623E-2,3.65E0,-3.7622374E-2,-1.2390318E-2,9.215935E-3,-2.8179659E-2,-1.6325144E-2,1.5209362E-2],"split_indices":[8,0,1,0,12,0,0,8,0,10,10,14,10,11,0,0,0,0,5,0,0,0,10,0,0,0,0,0,0],"split_type":[0,0,0,0,0,0,0,0,0,0,0,0,0,0,0,0,0,0,0,0,0,0,0,0,0,0,0,0,0],"sum_hessian":[5.677337E1,3.6033955E1,2.0739414E1,1.4977303E0,3.4536224E1,7.914835E0,1.282458E1,2.7239017E1,7.297207E0,7.892219E0,4.9323606E0,1.36943035E1,1.3544714E1,3.9644399E0,3.332767E0,6.411847E0,1.480372E0,1.9575584E0,2.9748025E0,2.3666084E0,1.1327696E1,4.818659E0,8.726055E0,2.4891562E0,1.4752836E0,1.4809293E0,1.4938732E0,2.9313276E0,5.7947273E0],"tree_param":{"num_deleted":"0","num_feature":"17","num_nodes":"29","size_leaf_vector":"1"}},{"base_weights":[-9.354628E-2,6.059718E-1,-3.7006474E-1,-1.7304922E-2,8.054198E-2,1.1416915E-2,-2.333478E-2],"categories":[],"categories_nodes":[],"categories_segments":[],"categories_sizes":[],"default_left":[0,0,0,0,0,0,0],"id":16,"left_children":[1,3,5,-1,-1,-1,-1],"loss_changes":[2.6728678E0,4.3513503E0,6.6707945E-1,0E0,0E0,0E0,0E0],"parents":[2147483647,0,0,1,1,2,2],"right_children":[2,4,6,-1,-1,-1,-1],"split_conditions":[1.5105E4,1.428E3,6.46E2,-1.7304922E-2,8.054198E-2,1.1416915E-2,-2.333478E-2],"split_indices":[2,12,12,0,0,0,0],"split_type":[0,0,0,0,0,0,0],"sum_hessian":[1.1658963E1,2.9655294E0,8.693434E0,1.8594018E0,1.1061276E0,1.0191537E0,7.6742797E0],"tree_param":{"num_deleted":"0","num_feature":"17","num_nodes":"7","size_leaf_vector":"1"}},{"base_weights":[2.0020094E-2,-3.315066E-1,5.630337E-1,-4.7399545E-1,3.7448093E-1,-3.49331E-1,8.332845E-1,-3.526291E-2,-9.9711664E-2,-1.0862547E-1,4.0341936E-2,1.4154622E-2,-3.1461768E-2,1.1245371E-2,4.5900512E-2,-4.9920624E-1,2.9505888E-1,-2.4107E-2,1.531629E-2,-3.0950397E-2,-1.607251E-3,-2.312879E-2,5.766226E-1,-3.6114883E-3,4.1410364E-2],"categories":[],"categories_nodes":[],"categories_segments":[],"categories_sizes":[],"default_left":[0,0,0,0,0,0,0,0,0,0,0,0,0,0,0,0,0,0,0,0,0,0,0,0,0],"id":17,"left_children":[1,3,5,7,9,11,13,-1,15,17,-1,-1,-1,-1,-1,19,21,-1,-1,-1,-1,-1,23,-1,-1],"loss_changes":[1.0804622E1,3.6375496E0,5.7721906E0,2.4451213E0,1.4108407E0,1.2020956E0,6.927433E-1,0E0,2.0813096E0,7.480002E-1,0E0,0E0,0E0,0E0,0E0,3.4194005E-1,1.7165961E0,0E0,0E0,0E0,0E0,0E0,9.4136095E-1,0E0,0E0],"parents":[2147483647,0,0,1,1,2,2,3,3,4,4,5,5,6,6,8,8,9,9,15,15,16,16,22,22],"right_children":[2,4,6,8,10,12,14,-1,16,18,-1,-1,-1,-1,-1,20,22,-1,-1,-1,-1,-1,24,-1,-1],"split_conditions":[2.3E0,3.64E2,1.6658E4,1.9379E4,6.3E1,3.1E2,1.01E1,-3.526291E-2,1E0,1.4939E4,4.0341936E-2,1.4154622E-2,-3.1461768E-2,1.1245371E-2,4.5900512E-2,2.8E2,1.2E2,-2.4107E-2,1.531629E-2,-3.0950397E-2,-1.607251E-3,-2.312879E-2,1.9817E4,-3.6114883E-3,4.1410364E-2],"split_indices":[8,9,2,2,11,9,16,0,8,2,0,0,0,0,0,15,15,0,0,0,0,0,2,0,0],"split_type":[0,0,0,0,0,0,0,0,0,0,0,0,0,0,0,0,0,0,0,0,0,0,0,0,0],"sum_hessian":[5.4625324E1,3.3395702E1,2.1229622E1,2.8060818E1,5.334883E0,4.784516E0,1.6445107E1,1.6797611E1,1.12632065E1,2.8731985E0,2.4616845E0,1.4644066E0,3.3201094E0,2.457004E0,1.3988103E1,5.466621E0,5.796586E0,1.4268832E0,1.4463153E0,4.091756E0,1.3748649E0,1.3963614E0,4.4002247E0,1.4286215E0,2.971603E0],"tree_param":{"num_deleted":"0","num_feature":"17","num_nodes":"25","size_leaf_vector":"1"}},{"base_weights":[-3.1019187E-2,-6.298399E-1,2.0128717E-1,2.468842E-2,-3.8637158E-2,3.7329793E-1,-3.58475E-1,4.6303666E-1,-1.6368891E-1,-6.957449E-1,2.545668E-1,6.4119804E-1,2.4649367E-1,-5.200341E-1,2.4228755E-2,-3.958491E-2,-1.0073253E-2,-1.0865023E-2,2.819697E-2,6.405504E-3,6.87406E-1,4.928213E-1,-1.3637699E-1,-1.009798E-2,-3.128298E-2,1.1571675E-2,3.7205447E-2,3.3782E-2,-1.29399E-2,1.9485613E-2,-3.443624E-2],"categories":[],"categories_nodes":[],"categories_segments":[],"categories_sizes":[],"default_left":[0,0,0,0,0,0,0,0,0,0,0,0,0,0,0,0,0,0,0,0,0,0,0,0,0,0,0,0,0,0,0],"id":18,"left_children":[1,3,5,-1,-1,7,9,11,13,15,17,19,21,23,-1,-1,-1,-1,-1,-1,25,27,29,-1,-1,-1,-1,-1,-1,-1,-1],"loss_changes":[8.040693E0,2.9736395E0,4.1533747E0,0E0,0E0,1.638227E0,2.3115125E0,9.237952E-1,1.495132E0,1.6904378E-1,7.642584E-1,2.6187468E-1,1.4141731E0,6.5145493E-3,0E0,0E0,0E0,0E0,0E0,0E0,1.7195368E-1,1.3988283E0,2.120762E0,0E0,0E0,0E0,0E0,0E0,0E0,0E0,0E0],"parents":[2147483647,0,0,1,1,2,2,5,5,6,6,7,7,8,8,9,9,10,10,11,11,12,12,13,13,20,20,21,21,22,22],"right_children":[2,4,6,-1,-1,8,10,12,14,16,18,20,22,24,-1,-1,-1,-1,-1,-1,26,28,30,-1,-1,-1,-1,-1,-1,-1,-1],"split_conditions":[1.103E3,1.461E4,1.2865E2,2.468842E-2,-3.8637158E-2,1.716E3,1.736E2,1.05E1,3.395E3,1.705E2,1.98E2,1.42E3,1.8302E4,1.899E3,2.4228755E-2,-3.958491E-2,-1.0073253E-2,-1.0865023E-2,2.819697E-2,6.405504E-3,1.43E2,1.09E2,2.21E2,-1.009798E-2,-3.128298E-2,1.1571675E-2,3.7205447E-2,3.3782E-2,-1.29399E-2,1.9485613E-2,-3.443624E-2],"split_indices":[0,2,13,0,0,12,13,16,0,13,15,0,2,0,0,0,0,0,0,0,15,14,15,0,0,0,0,0,0,0,0],"split_type":[0,0,0,0,0,0,0,0,0,0,0,0,0,0,0,0,0,0,0,0,0,0,0,0,0,0,0,0,0,0,0],"sum_hessian":[5.5889683E1,1.5143286E1,4.0746395E1,1.4316173E0,1.3711669E1,3.1423347E1,9.323049E0,2.7041939E1,4.3814087E0,5.9272294E0,3.3958192E0,1.3759886E1,1.3282052E1,2.9549198E0,1.4264891E0,4.4597487E0,1.4674804E0,1.4626054E0,1.9332137E0,1.4484898E0,1.2311397E1,7.907455E0,5.374597E0,1.4625912E0,1.4923286E0,1.9236906E0,1.0387706E1,6.4417067E0,1.4657485E0,2.9035375E0,2.4710596E0],"tree_param":{"num_deleted":"0","num_feature":"17","num_nodes":"31","size_leaf_vector":"1"}},{"base_weights":[9.305524E-2,-2.2958497E-2,9.023639E-1,1.5217614E0,-1.615566E-2,2.7696451E-2,9.169265E-2],"categories":[],"categories_nodes":[],"categories_segments":[],"categories_sizes":[],"default_left":[0,0,0,0,0,0,0],"id":19,"left_children":[1,-1,3,5,-1,-1,-1],"loss_changes":[5.804319E0,0E0,4.46064E0,8.618736E-2,0E0,0E0,0E0],"parents":[2147483647,0,0,2,2,3,3],"right_children":[2,-1,4,6,-1,-1,-1],"split_conditions":[3.16E2,-2.2958497E-2,1.7246E4,2.97E2,-1.615566E-2,2.7696451E-2,9.169265E-2],"split_indices":[9,0,2,15,0,0,0],"split_type":[0,0,0,0,0,0,0],"sum_hessian":[1.1060265E1,6.8314915E0,4.228773E0,2.648408E0,1.5803653E0,1.3223959E0,1.3260119E0],"tree_param":{"num_deleted":"0","num_feature":"17","num_nodes":"7","size_leaf_vector":"1"}},{"base_weights":[8.983448E-3,7.642727E-1,-2.2267893E-1,-4.827415E-3,4.376193E-2,-5.7071227E-1,-2.3050314E-2,-3.395392E-2,-1.5041724E-1,-3.2407883E-1,3.2000697E-1,-2.488762E-2,1.858288E-2,-3.3162788E-2,-7.927847E-2,-2.466896E-2,4.8145503E-1,-2.76271E-2,1.2504426E-1,-5.3112436E-2,7.313671E-1,-1.7329989E-2,2.503029E-2,1.5454352E-2,-1.4799518E-2,-3.2789584E-3,4.5054797E-2],"categories":[],"categories_nodes":[],"categories_segments":[],"categories_sizes":[],"default_left":[0,0,0,0,0,0,0,0,0,0,0,0,0,0,0,0,0,0,0,0,0,0,0,0,0,0,0],"id":20,"left_children":[1,3,5,-1,-1,7,9,-1,11,13,15,-1,-1,-1,17,-1,19,-1,21,23,25,-1,-1,-1,-1,-1,-1],"loss_changes":[9.979585E0,1.3630552E0,3.021459E0,0E0,0E0,6.2107086E-1,3.0777607E0,0E0,1.0081481E0,1.2622787E0,2.0711498E0,0E0,0E0,0E0,1.0683063E0,0E0,1.6629019E0,0E0,1.5963705E0,5.14186E-1,1.1887641E0,0E0,0E0,0E0,0E0,0E0,0E0],"parents":[2147483647,0,0,1,1,2,2,5,5,6,6,8,8,9,9,10,10,14,14,16,16,18,18,19,19,20,20],"right_children":[2,4,6,-1,-1,8,10,-1,12,14,16,-1,-1,-1,18,-1,20,-1,22,24,26,-1,-1,-1,-1,-1,-1],"split_conditions":[9.01E2,1.5177E4,1E0,-4.827415E-3,4.376193E-2,1.1E1,1.7889E4,-3.395392E-2,1.8118E4,1E0,1.2E2,-2.488762E-2,1.858288E-2,-3.3162788E-2,1.444E3,-2.466896E-2,3.43E0,-2.76271E-2,1.9E0,1.271E3,1.212E3,-1.7329989E-2,2.503029E-2,1.5454352E-2,-1.4799518E-2,-3.2789584E-3,4.5054797E-2],"split_indices":[0,2,8,0,0,16,2,0,2,5,15,0,0,0,0,0,10,0,8,0,0,0,0,0,0,0,0],"split_type":[0,0,0,0,0,0,0,0,0,0,0,0,0,0,0,0,0,0,0,0,0,0,0,0,0,0,0],"sum_hessian":[5.5062637E1,1.2384934E1,4.2677704E1,1.4290409E0,1.09558935E1,1.4878898E1,2.7798803E1,1.1339482E1,3.5394156E0,1.4835851E1,1.2962954E1,2.1533713E0,1.3860445E0,5.5025535E0,9.333298E0,1.8063712E0,1.1156582E1,2.3004978E0,7.0327997E0,3.805025E0,7.351557E0,3.1517863E0,3.8810134E0,1.4179134E0,2.3871117E0,1.3985262E0,5.9530306E0],"tree_param":{"num_deleted":"0","num_feature":"17","num_nodes":"27","size_leaf_vector":"1"}},{"base_weights":[-1.3288098E-2,2.6638973E-1,-5.033955E-1,-2.9199034E-2,3.3627066E-1,2.4436278E-2,-6.0954374E-1,3.971698E-1,-2.0115053E-2,-1.2685299E-1,-7.546639E-1,4.8529828E-1,-1.0417613E-2,1.2699939E-2,-2.0366456E-2,-4.0600266E-2,-8.020457E-3,1.6268086E-2,5.8268917E-1,-2.6038928E-2,2.9449118E-2,1.3766003E-2,-1.0520781E-2,3.064341E-2,5.2822502E-3],"categories":[],"categories_nodes":[],"categories_segments":[],"categories_sizes":[],"default_left":[0,0,0,0,0,0,0,0,0,0,0,0,0,0,0,0,0,0,0,0,0,0,0,0,0],"id":21,"left_children":[1,3,5,-1,7,-1,9,11,-1,13,15,17,19,-1,-1,-1,-1,21,23,-1,-1,-1,-1,-1,-1],"loss_changes":[7.341287E0,2.2245579E0,2.3461337E0,0E0,1.6068783E0,0E0,1.1661458E0,1.0907602E0,0E0,6.7667115E-1,3.3481836E-1,1.1267061E0,2.250023E0,0E0,0E0,0E0,0E0,3.6948118E-1,2.3136044E-1,0E0,0E0,0E0,0E0,0E0,0E0],"parents":[2147483647,0,0,1,1,2,2,4,4,6,6,7,7,9,9,10,10,11,11,12,12,17,17,18,18],"right_children":[2,4,6,-1,8,-1,10,12,-1,14,16,18,20,-1,-1,-1,-1,22,24,-1,-1,-1,-1,-1,-1],"split_conditions":[7.4E1,6.91E2,8.99E1,-2.9199034E-2,1.919E3,2.4436278E-2,1E0,1.2865E2,-2.0115053E-2,1.3674E2,2.387E2,1.43E2,1.55E2,1.2699939E-2,-2.0366456E-2,-4.0600266E-2,-8.020457E-3,3.16E0,3.48E2,-2.6038928E-2,2.9449118E-2,1.3766003E-2,-1.0520781E-2,3.064341E-2,5.2822502E-3],"split_indices":[11,0,13,0,12,0,5,13,0,13,13,15,13,0,0,0,0,10,15,0,0,0,0,0,0],"split_type":[0,0,0,0,0,0,0,0,0,0,0,0,0,0,0,0,0,0,0,0,0,0,0,0,0],"sum_hessian":[5.1579514E1,3.3130306E1,1.844921E1,1.9571575E0,3.1173147E1,1.434779E0,1.701443E1,2.9225588E1,1.9475586E0,4.3661394E0,1.2648291E1,2.3873093E1,5.3524957E0,1.8917624E0,2.474377E0,1.1201041E1,1.447249E0,4.305421E0,1.9567673E1,2.9618156E0,2.39068E0,1.9091299E0,2.3962913E0,1.8135645E1,1.4320271E0],"tree_param":{"num_deleted":"0","num_feature":"17","num_nodes":"25","size_leaf_vector":"1"}},{"base_weights":[1.4911884E-1,-2.2656439E-2,1.0266869E0,7.853868E-2,-1.4621518E-2],"categories":[],"categories_nodes":[],"categories_segments":[],"categories_sizes":[],"default_left":[0,0,0,0,0],"id":22,"left_children":[1,-1,3,-1,-1],"loss_changes":[6.317086E0,0E0,3.9132376E0,0E0,0E0],"parents":[2147483647,0,0,2,2],"right_children":[2,-1,4,-1,-1],"split_conditions":[3.1E2,-2.2656439E-2,1.7889E4,7.853868E-2,-1.4621518E-2],"split_indices":[9,0,2,0,0],"split_type":[0,0,0,0,0],"sum_hessian":[1.0072313E1,6.259955E0,3.8123581E0,2.5640197E0,1.2483385E0],"tree_param":{"num_deleted":"0","num_feature":"17","num_nodes":"5","size_leaf_vector":"1"}},{"base_weights":[5.87115E-2,-3.7257197E-1,4.1284764E-1,-4.8084947E-1,2.0505723E-1,-3.078902E-1,5.817153E-1,1.9998623E-3,-5.507166E-1,3.216614E-2,-2.1955019E-2,1.5081597E-2,-2.8624773E-2,2.6994407E-1,4.232728E-2,-2.9708391E-2,-8.494761E-4,3.718717E-1,-9.217656E-3,7.196733E-2,4.0892087E-2,2.6161572E-2,-1.8594436E-2],"categories":[],"categories_nodes":[],"categories_segments":[],"categories_sizes":[],"default_left":[0,0,0,0,0,0,0,0,0,0,0,0,0,0,0,0,0,0,0,0,0,0,0],"id":23,"left_children":[1,3,5,7,9,11,13,-1,15,-1,-1,-1,-1,17,-1,-1,-1,19,-1,21,-1,-1,-1],"loss_changes":[7.753524E0,1.5346777E0,3.5622764E0,7.3655653E-1,1.5036718E0,1.129161E0,1.659502E0,0E0,3.9298153E-1,0E0,0E0,0E0,0E0,6.228658E-1,0E0,0E0,0E0,1.2931432E0,0E0,1.6248085E0,0E0,0E0,0E0],"parents":[2147483647,0,0,1,1,2,2,3,3,4,4,5,5,6,6,8,8,13,13,17,17,19,19],"right_children":[2,4,6,8,10,12,14,-1,16,-1,-1,-1,-1,18,-1,-1,-1,20,-1,22,-1,-1,-1],"split_conditions":[1.8137E4,3.6E2,8.68E1,1.43E2,2.286E3,2.0254E4,7.4E1,1.9998623E-3,1.13E1,3.216614E-2,-2.1955019E-2,1.5081597E-2,-2.8624773E-2,2.504E3,4.232728E-2,-2.9708391E-2,-8.494761E-4,1.487E3,-9.217656E-3,1.212E3,4.0892087E-2,2.6161572E-2,-1.8594436E-2],"split_indices":[2,15,13,15,0,2,11,0,16,0,0,0,0,0,0,0,0,0,0,0,0,0,0],"split_type":[0,0,0,0,0,0,0,0,0,0,0,0,0,0,0,0,0,0,0,0,0,0,0],"sum_hessian":[4.8758114E1,2.1960968E1,2.6797148E1,1.8635298E1,3.325669E0,4.9304423E0,2.1866705E1,2.2546697E0,1.6380629E1,1.9799004E0,1.3457687E0,1.4501253E0,3.480317E0,1.0970732E1,1.0895973E1,1.5042742E1,1.337887E0,9.108543E0,1.8621882E0,6.140544E0,2.968E0,2.9561863E0,3.1843574E0],"tree_param":{"num_deleted":"0","num_feature":"17","num_nodes":"23","size_leaf_vector":"1"}},{"base_weights":[3.6511317E-2,-7.207015E-1,2.8464696E-1,-3.8564745E-2,-8.1439065E-3,4.863278E-1,-4.1537216E-1,6.2105405E-1,2.2812083E-1,-5.9583795E-1,5.7494245E-3,3.8833058E-1,3.6105674E-2,-2.96438E-1,5.1739174E-1,-3.9206382E-2,6.8149264E-3,5.239629E-1,2.7358072E-4,-5.009258E-1,7.993164E-3,3.441714E-2,1.3268221E-3,3.8319328E-3,3.1488303E-2,-9.715476E-3,-3.0210897E-2],"categories":[],"categories_nodes":[],"categories_segments":[],"categories_sizes":[],"default_left":[0,0,0,0,0,0,0,0,0,0,0,0,0,0,0,0,0,0,0,0,0,0,0,0,0,0,0],"id":24,"left_children":[1,3,5,-1,-1,7,9,11,13,15,-1,17,-1,19,21,-1,-1,23,-1,25,-1,-1,-1,-1,-1,-1,-1],"loss_changes":[1.0959876E1,2.8107214E-1,6.3897243E0,0E0,0E0,1.0580025E0,1.0583997E0,2.389059E-1,2.1874318E0,1.1929386E0,0E0,4.566412E-1,0E0,5.8398473E-1,7.37319E-1,0E0,0E0,2.60486E-1,0E0,8.365393E-3,0E0,0E0,0E0,0E0,0E0,0E0,0E0],"parents":[2147483647,0,0,1,1,2,2,5,5,6,6,7,7,8,8,9,9,11,11,13,13,14,14,17,17,19,19],"right_children":[2,4,6,-1,-1,8,10,12,14,16,-1,18,-1,20,22,-1,-1,24,-1,26,-1,-1,-1,-1,-1,-1,-1],"split_conditions":[9.89E2,3.75E0,3.39E2,-3.8564745E-2,-8.1439065E-3,1.9379E4,1.736E2,3.57E0,2.0459E4,2.503E3,5.7494245E-3,3.47E0,3.6105674E-2,2.468E3,3.62E0,-3.9206382E-2,6.8149264E-3,1.271E3,2.7358072E-4,1.978E3,7.993164E-3,3.441714E-2,1.3268221E-3,3.8319328E-3,3.1488303E-2,-9.715476E-3,-3.0210897E-2],"split_indices":[0,10,9,0,0,2,13,10,2,0,0,10,0,0,10,0,0,0,0,0,0,0,0,0,0,0,0],"split_type":[0,0,0,0,0,0,0,0,0,0,0,0,0,0,0,0,0,0,0,0,0,0,0,0,0,0,0],"sum_hessian":[5.623905E1,1.3410621E1,4.282843E1,1.1944586E1,1.4660349E0,3.3486095E1,9.342335E0,2.1081179E1,1.2404917E1,6.8783727E0,2.4639616E0,7.8489375E0,1.3232242E1,4.400447E0,8.00447E0,5.414792E0,1.4635806E0,5.5235877E0,2.32535E0,2.9711525E0,1.4292945E0,5.63843E0,2.3660395E0,1.386398E0,4.1371894E0,1.474716E0,1.4964365E0],"tree_param":{"num_deleted":"0","num_feature":"17","num_nodes":"27","size_leaf_vector":"1"}},{"base_weights":[8.250056E-2,5.906651E-1,-2.2335177E-2,-1.4047921E-2,7.1899734E-2,-1.8821655E-2,2.6023656E-2],"categories":[],"categories_nodes":[],"categories_segments":[],"categories_sizes":[],"default_left":[0,0,0,0,0,0,0],"id":25,"left_children":[1,3,-1,5,-1,-1,-1],"loss_changes":[3.5569417E0,3.4417114E0,0E0,1.1425387E0,0E0,0E0,0E0],"parents":[2147483647,0,0,1,1,3,3],"right_children":[2,4,-1,6,-1,-1,-1],"split_conditions":[1E0,2.97E2,-2.2335177E-2,1.457E2,7.1899734E-2,-1.8821655E-2,2.6023656E-2],"split_indices":[6,15,0,13,0,0,0],"split_type":[0,0,0,0,0,0,0],"sum_hessian":[1.1245485E1,5.6775346E0,5.567951E0,3.8869553E0,1.7905793E0,2.4927325E0,1.3942226E0],"tree_param":{"num_deleted":"0","num_feature":"17","num_nodes":"7","size_leaf_vector":"1"}},{"base_weights":[-6.318778E-3,-2.3208128E-1,6.3000745E-1,-5.137711E-1,1.0603873E-1,-2.24016E-2,7.746478E-1,-6.029793E-1,8.27065E-3,-3.6474082E-1,3.4642613E-1,1.0582181E-2,4.1316282E-2,-2.2837564E-1,-3.4048554E-2,-3.0097703E-2,1.7503073E-2,-3.2021242E-1,5.468805E-1,-2.5993852E-2,1.417792E-2,-2.871424E-3,-2.2432026E-2,6.427855E-1,3.6770937E-3,1.3610694E-2,3.6828276E-2],"categories":[],"categories_nodes":[],"categories_segments":[],"categories_sizes":[],"default_left":[0,0,0,0,0,0,0,0,0,0,0,0,0,0,0,0,0,0,0,0,0,0,0,0,0,0,0],"id":26,"left_children":[1,3,5,7,9,-1,11,13,-1,15,17,-1,-1,19,-1,-1,-1,21,23,-1,-1,-1,-1,25,-1,-1,-1],"loss_changes":[8.044954E0,3.989499E0,2.6342182E0,1.4756632E0,2.3451045E0,0E0,2.120533E-1,4.372158E-1,0E0,1.4170012E0,1.9779801E0,0E0,0E0,8.9365804E-1,0E0,0E0,0E0,1.0078129E-1,4.4035578E-1,0E0,0E0,0E0,0E0,1.05413675E-1,0E0,0E0,0E0],"parents":[2147483647,0,0,1,1,2,2,3,3,4,4,6,6,7,7,9,9,10,10,13,13,17,17,18,18,23,23],"right_children":[2,4,6,8,10,-1,12,14,-1,16,18,-1,-1,20,-1,-1,-1,22,24,-1,-1,-1,-1,26,-1,-1,-1],"split_conditions":[1.08E2,1.8137E4,1.4975E4,6.1E0,1E0,-2.24016E-2,7E1,1.518E3,8.27065E-3,1.06E1,2.8E2,1.0582181E-2,4.1316282E-2,1.2245E2,-3.4048554E-2,-3.0097703E-2,1.7503073E-2,2.47E2,2.3741E4,-2.5993852E-2,1.417792E-2,-2.871424E-3,-2.2432026E-2,1.9358E4,3.6770937E-3,1.3610694E-2,3.6828276E-2],"split_indices":[11,2,2,8,8,0,14,0,0,16,9,0,0,13,0,0,0,9,2,0,0,0,0,2,0,0,0],"split_type":[0,0,0,0,0,0,0,0,0,0,0,0,0,0,0,0,0,0,0,0,0,0,0,0,0,0,0],"sum_hessian":[5.3982727E1,4.0314724E1,1.3668002E1,2.1709183E1,1.8605543E1,1.368758E0,1.2299244E1,1.928798E1,2.4212022E0,6.1141543E0,1.2491388E1,1.4624144E0,1.083683E1,4.000638E0,1.5287342E1,4.7092295E0,1.4049249E0,2.7496421E0,9.741747E0,2.5392456E0,1.4613924E0,1.3777382E0,1.3719038E0,7.8028064E0,1.93894E0,2.3640292E0,5.438777E0],"tree_param":{"num_deleted":"0","num_feature":"17","num_nodes":"27","size_leaf_vector":"1"}},{"base_weights":[-1.2880566E-2,2.9399166E-1,-5.1923764E-1,4.1246057E-1,-3.3613363E-1,1.7559418E-1,-6.432774E-1,-9.101774E-2,4.696522E-1,4.951557E-3,-3.3439707E-2,2.4479251E-2,-1.0333909E-2,-5.995396E-3,-6.8210346E-1,4.377793E-3,-1.1381487E-2,5.1777816E-1,-8.4130093E-4,-3.8352948E-2,-3.2414454E-1,5.924264E-1,1.4203273E-1,9.459184E-3,-2.9895393E-2,3.129494E-2,4.908868E-3,2.8051486E-2,-1.9059015E-2],"categories":[],"categories_nodes":[],"categories_segments":[],"categories_sizes":[],"default_left":[0,0,0,0,0,0,0,0,0,0,0,0,0,0,0,0,0,0,0,0,0,0,0,0,0,0,0,0,0],"id":27,"left_children":[1,3,5,7,9,11,13,15,17,-1,-1,-1,-1,-1,19,-1,-1,21,-1,-1,23,25,27,-1,-1,-1,-1,-1,-1],"loss_changes":[8.464611E0,2.6726665E0,1.8838129E0,8.7843657E-1,9.236571E-1,5.69053E-1,2.768407E-1,1.1258629E-1,6.226783E-1,0E0,0E0,0E0,0E0,0E0,2.4452019E-1,0E0,0E0,5.860777E-1,0E0,0E0,7.9361427E-1,2.6312447E-1,1.3704164E0,0E0,0E0,0E0,0E0,0E0,0E0],"parents":[2147483647,0,0,1,1,2,2,3,3,4,4,5,5,6,6,7,7,8,8,14,14,17,17,20,20,21,21,22,22],"right_children":[2,4,6,8,10,12,14,16,18,-1,-1,-1,-1,-1,20,-1,-1,22,-1,-1,24,26,28,-1,-1,-1,-1,-1,-1],"split_conditions":[2.3E0,3.64E2,1E1,3.02E0,1E0,2.33E2,7.6E1,1.78E2,1.35E2,4.951557E-3,-3.3439707E-2,2.4479251E-2,-1.0333909E-2,-5.995396E-3,3.57E0,4.377793E-3,-1.1381487E-2,1.8E0,-8.4130093E-4,-3.8352948E-2,1.095E3,1.16E1,3.47E0,9.459184E-3,-2.9895393E-2,3.129494E-2,4.908868E-3,2.8051486E-2,-1.9059015E-2],"split_indices":[8,9,16,10,5,15,14,15,14,0,0,0,0,0,10,0,0,8,0,0,0,16,10,0,0,0,0,0,0],"split_type":[0,0,0,0,0,0,0,0,0,0,0,0,0,0,0,0,0,0,0,0,0,0,0,0,0,0,0,0,0],"sum_hessian":[5.249202E1,3.2945286E1,1.9546734E1,2.8022287E1,4.9229975E0,2.8979123E0,1.664882E1,2.7981076E0,2.522418E1,2.437164E0,2.4858336E0,1.4369265E0,1.4609857E0,1.4321384E0,1.5216682E1,1.3684357E0,1.4296719E0,2.289491E1,2.3292696E0,1.1374315E1,3.842368E0,1.8619215E1,4.2756963E0,1.4438967E0,2.398471E0,1.7188766E1,1.4304483E0,2.3341753E0,1.9415209E0],"tree_param":{"num_deleted":"0","num_feature":"17","num_nodes":"29","size_leaf_vector":"1"}},{"base_weights":[4.751126E-2,-2.2873601E-2,6.87358E-1,1.0559909E0,-1.5640495E-2,1.3507619E0,6.8652504E-3,1.1113166E-2,8.694044E-2],"categories":[],"categories_nodes":[],"categories_segments":[],"categories_sizes":[],"default_left":[0,0,0,0,0,0,0,0,0],"id":28,"left_children":[1,-1,3,5,-1,7,-1,-1,-1],"loss_changes":[4.505597E0,0E0,2.5871725E0,1.0876303E0,0E0,1.1225863E0,0E0,0E0,0E0],"parents":[2147483647,0,0,2,2,3,3,5,5],"right_children":[2,-1,4,6,-1,8,-1,-1,-1],"split_conditions":[3.1E2,-2.2873601E-2,1.08E2,1.5965E2,-1.5640495E-2,1.056E3,6.8652504E-3,1.1113166E-2,8.694044E-2],"split_indices":[9,0,11,13,0,12,0,0,0],"split_type":[0,0,0,0,0,0,0,0,0],"sum_hessian":[1.1971203E1,6.850021E0,5.121182E0,3.7012095E0,1.4199724E0,2.4460473E0,1.2551621E0,1.028318E0,1.4177293E0],"tree_param":{"num_deleted":"0","num_feature":"17","num_nodes":"9","size_leaf_vector":"1"}},{"base_weights":[1.5442498E-3,-3.0207315E-1,4.503161E-1,-4.2082635E-1,3.0006424E-1,-2.86123E-2,6.337404E-1,-5.636193E-1,2.1935126E-1,-2.0699406E-2,3.0080039E-2,-1.7607553E-1,4.105414E-2,-6.3202226E-1,1.11306E-3,-1.012642E-2,2.7036412E-2,-2.4873264E-2,1.3082526E-2,-3.380435E-2,-3.885912E-4],"categories":[],"categories_nodes":[],"categories_segments":[],"categories_sizes":[],"default_left":[0,0,0,0,0,0,0,0,0,0,0,0,0,0,0,0,0,0,0,0,0],"id":29,"left_children":[1,3,5,7,9,-1,11,13,15,-1,-1,17,-1,19,-1,-1,-1,-1,-1,-1,-1],"loss_changes":[7.1614523E0,2.368168E0,4.3405313E0,2.5555882E0,1.4867852E0,0E0,2.9447494E0,8.970399E-1,8.649413E-1,0E0,0E0,7.3383266E-1,0E0,5.383744E-1,0E0,0E0,0E0,0E0,0E0,0E0,0E0],"parents":[2147483647,0,0,1,1,2,2,3,3,4,4,6,6,7,7,8,8,11,11,13,13],"right_children":[2,4,6,8,10,-1,12,14,16,-1,-1,18,-1,20,-1,-1,-1,-1,-1,-1,-1],"split_conditions":[2.3E0,2.1185E4,1.5056E4,1.718E3,8E-1,-2.86123E-2,1.02E1,7.4E1,1E0,-2.0699406E-2,3.0080039E-2,3.16E0,4.105414E-2,4.22E0,1.11306E-3,-1.012642E-2,2.7036412E-2,-2.4873264E-2,1.3082526E-2,-3.380435E-2,-3.885912E-4],"split_indices":[8,2,2,12,8,0,16,11,1,0,0,10,0,10,0,0,0,0,0,0,0],"split_type":[0,0,0,0,0,0,0,0,0,0,0,0,0,0,0,0,0,0,0,0,0],"sum_hessian":[5.056087E1,3.0352633E1,2.0208239E1,2.5604116E1,4.7485166E0,2.7511592E0,1.7457079E1,2.1032387E1,4.5717297E0,1.2991474E0,3.4493692E0,3.29107E0,1.4166009E1,1.8763004E1,2.2693822E0,2.1366737E0,2.4350557E0,1.8190212E0,1.4720488E0,1.744832E1,1.314683E0],"tree_param":{"num_deleted":"0","num_feature":"17","num_nodes":"21","size_leaf_vector":"1"}},{"base_weights":[2.4827186E-2,3.350746E-1,-4.2910987E-1,4.551147E-1,-4.2124113E-1,1.60285E-2,-6.979788E-1,6.2922263E-1,1.4084128E-2,3.977335E-3,-3.2459244E-2,-2.8942121E-2,2.5359043E-1,-1.1176365E-2,-3.6876496E-2,2.6100197E-1,3.5276975E-2,-3.1980813E-1,2.847336E-2,2.98213E-2,-3.8435034E-2,-1.25651015E-2,2.6623983E-2,-6.033746E-1,2.1063447E-2,2.5497338E-2,-2.1049103E-2,-1.0884053E-2,-3.4968413E-2],"categories":[],"categories_nodes":[],"categories_segments":[],"categories_sizes":[],"default_left":[0,0,0,0,0,0,0,0,0,0,0,0,0,0,0,0,0,0,0,0,0,0,0,0,0,0,0,0,0],"id":30,"left_children":[1,3,5,7,9,11,13,15,17,-1,-1,-1,19,-1,-1,21,-1,23,-1,-1,25,-1,-1,27,-1,-1,-1,-1,-1],"loss_changes":[7.5768027E0,3.0890436E0,2.6281915E0,2.1428924E0,6.0991675E-1,1.4485421E0,9.136963E-2,3.797946E-1,1.8425916E0,0E0,0E0,0E0,7.51577E-1,0E0,0E0,8.337089E-1,0E0,1.5639412E0,0E0,0E0,1.2362578E0,0E0,0E0,2.987969E-2,0E0,0E0,0E0,0E0,0E0],"parents":[2147483647,0,0,1,1,2,2,3,3,4,4,5,5,6,6,7,7,8,8,12,12,15,15,17,17,20,20,23,23],"right_children":[2,4,6,8,10,12,14,16,18,-1,-1,-1,20,-1,-1,22,-1,24,-1,-1,26,-1,-1,28,-1,-1,-1,-1,-1],"split_conditions":[2.1E0,2.1464E4,1.05E1,1.09E2,9E-1,1.072E3,1.5056E4,1.01E1,2.796E3,3.977335E-3,-3.2459244E-2,-2.8942121E-2,3.44E0,-1.1176365E-2,-3.6876496E-2,3.65E0,3.5276975E-2,1.9884E4,2.847336E-2,2.98213E-2,1.433E3,-1.25651015E-2,2.6623983E-2,1E0,2.1063447E-2,2.5497338E-2,-2.1049103E-2,-1.0884053E-2,-3.4968413E-2],"split_indices":[8,2,16,14,8,0,2,16,0,0,0,0,10,0,0,10,0,2,0,0,0,0,0,1,0,0,0,0,0],"split_type":[0,0,0,0,0,0,0,0,0,0,0,0,0,0,0,0,0,0,0,0,0,0,0,0,0,0,0,0,0],"sum_hessian":[5.1779034E1,3.0913067E1,2.0865969E1,2.7022402E1,3.8906646E0,8.2114725E0,1.2654496E1,1.9068085E1,7.954317E0,1.4206185E0,2.470046E0,1.9334327E0,6.2780395E0,1.4855525E0,1.1168943E1,4.0323577E0,1.5035727E1,5.2326517E0,2.7216654E0,2.4083176E0,3.8697221E0,1.4224252E0,2.6099327E0,3.9189243E0,1.3137273E0,1.4533346E0,2.4163876E0,1.4321877E0,2.4867365E0],"tree_param":{"num_deleted":"0","num_feature":"17","num_nodes":"29","size_leaf_vector":"1"}},{"base_weights":[5.5308104E-3,-3.358723E-1,5.323691E-1,-2.2456279E-2,1.0241895E-2,1.1424055E0,-1.720377E-2,7.85074E-2,8.933442E-3],"categories":[],"categories_nodes":[],"categories_segments":[],"categories_sizes":[],"default_left":[0,0,0,0,0,0,0,0,0],"id":31,"left_children":[1,3,5,-1,-1,7,-1,-1,-1],"loss_changes":[2.358013E0,5.797461E-1,3.1470888E0,0E0,0E0,1.0668478E0,0E0,0E0,0E0],"parents":[2147483647,0,0,1,1,2,2,5,5],"right_children":[2,4,6,-1,-1,8,-1,-1,-1],"split_conditions":[3.2E0,3.98E0,1E0,-2.2456279E-2,1.0241895E-2,1.08E2,-1.720377E-2,7.85074E-2,8.933442E-3],"split_indices":[8,10,6,0,0,11,0,0,0],"split_type":[0,0,0,0,0,0,0,0,0],"sum_hessian":[1.1115834E1,6.9648986E0,4.150936E0,5.898764E0,1.0661345E0,2.2685149E0,1.8824211E0,1.135367E0,1.1331477E0],"tree_param":{"num_deleted":"0","num_feature":"17","num_nodes":"9","size_leaf_vector":"1"}},{"base_weights":[-1.7437616E-2,6.613358E-1,-2.2010133E-1,3.8172748E-2,3.1502408E-3,-4.2870635E-1,8.210564E-2,-5.4456526E-1,1.8947573E-1,-4.7436714E-1,3.286599E-1,-6.203605E-1,8.179825E-3,3.5450727E-2,-2.2923442E-2,-2.9979456E-2,-1.1010122E-3,-2.4691043E-2,5.037128E-1,-3.3177998E-2,-1.0199914E-3,7.243365E-2,7.1689487E-1,2.7571661E-2,-1.517645E-2,4.0872347E-2,8.920903E-3],"categories":[],"categories_nodes":[],"categories_segments":[],"categories_sizes":[],"default_left":[0,0,0,0,0,0,0,0,0,0,0,0,0,0,0,0,0,0,0,0,0,0,0,0,0,0,0],"id":32,"left_children":[1,3,5,-1,-1,7,9,11,13,15,17,19,-1,-1,-1,-1,-1,-1,21,-1,-1,23,25,-1,-1,-1,-1],"loss_changes":[7.4928393E0,7.1749735E-1,2.6754153E0,0E0,0E0,1.8892894E0,2.6176057E0,1.2426248E0,1.8998328E0,3.2202184E-1,2.1239367E0,4.8961496E-1,0E0,0E0,0E0,0E0,0E0,0E0,9.8090863E-1,0E0,0E0,1.0369024E0,2.551117E-1,0E0,0E0,0E0,0E0],"parents":[2147483647,0,0,1,1,2,2,5,5,6,6,7,7,8,8,9,9,10,10,11,11,18,18,21,21,22,22],"right_children":[2,4,6,-1,-1,8,10,12,14,16,18,20,-1,-1,-1,-1,-1,-1,22,-1,-1,24,26,-1,-1,-1,-1],"split_conditions":[8.39E2,3.48E0,1.8E0,3.8172748E-2,3.1502408E-3,3.22E2,1.5116E4,2.3376E4,2.863E3,1E0,9.9E0,1.17E1,8.179825E-3,3.5450727E-2,-2.2923442E-2,-2.9979456E-2,-1.1010122E-3,-2.4691043E-2,3.36E0,-3.3177998E-2,-1.0199914E-3,3.03E0,1.43E2,2.7571661E-2,-1.517645E-2,4.0872347E-2,8.920903E-3],"split_indices":[0,10,8,0,0,9,2,2,0,6,16,16,0,0,0,0,0,0,10,0,0,10,11,0,0,0,0],"split_type":[0,0,0,0,0,0,0,0,0,0,0,0,0,0,0,0,0,0,0,0,0,0,0,0,0,0,0],"sum_hessian":[5.2410385E1,1.1530046E1,4.088034E1,9.613333E0,1.9167135E0,2.3938013E1,1.6942326E1,2.0259996E1,3.6780171E0,4.918128E0,1.2024199E1,1.8413198E1,1.8467977E0,1.9889631E0,1.6890541E0,3.5969005E0,1.3212273E0,1.7905185E0,1.023368E1,1.7077543E1,1.3356543E0,3.8283968E0,6.405283E0,1.4782683E0,2.3501284E0,4.96085E0,1.444433E0],"tree_param":{"num_deleted":"0","num_feature":"17","num_nodes":"27","size_leaf_vector":"1"}},{"base_weights":[-1.6471477E-2,1.81677E-1,-5.849281E-1,-5.480905E-1,4.0305918E-1,-2.9002875E-1,-3.561278E-2,5.8513754E-3,-3.4169227E-2,4.7260162E-1,4.635486E-2,-3.434604E-2,1.3967914E-2,3.3444688E-2,2.7646944E-1,-2.2085024E-2,2.702345E-2,2.9869393E-2,1.1620826E-1,2.7038205E-2,-5.2153245E-3],"categories":[],"categories_nodes":[],"categories_segments":[],"categories_sizes":[],"default_left":[0,0,0,0,0,0,0,0,0,0,0,0,0,0,0,0,0,0,0,0,0],"id":33,"left_children":[1,3,5,7,9,11,-1,-1,-1,13,15,-1,-1,-1,17,-1,-1,-1,19,-1,-1],"loss_changes":[5.417682E0,5.993227E0,2.599783E-1,8.664386E-1,6.7239857E-1,1.419873E0,0E0,0E0,0E0,7.126465E-1,1.607336E0,0E0,0E0,0E0,6.180191E-1,0E0,0E0,0E0,1.007224E0,0E0,0E0],"parents":[2147483647,0,0,1,1,2,2,3,3,4,4,5,5,9,9,10,10,14,14,18,18],"right_children":[2,4,6,8,10,12,-1,-1,-1,14,16,-1,-1,-1,18,-1,-1,-1,20,-1,-1],"split_conditions":[3.58E2,1.072E3,1.4939E4,1.6728E4,1.718E3,1.39E2,-3.561278E-2,5.8513754E-3,-3.4169227E-2,1.8137E4,1.09E2,-3.434604E-2,1.3967914E-2,3.3444688E-2,3.34E0,-2.2085024E-2,2.702345E-2,2.9869393E-2,1.0191E2,2.7038205E-2,-5.2153245E-3],"split_indices":[9,0,2,2,12,14,0,0,0,2,14,0,0,0,10,0,0,0,13,0,0],"split_type":[0,0,0,0,0,0,0,0,0,0,0,0,0,0,0,0,0,0,0,0,0],"sum_hessian":[4.615439E1,3.4729153E1,1.1425233E1,7.7397995E0,2.6989355E1,4.4338794E0,6.991354E0,1.3310829E0,6.408716E0,2.2314123E1,4.675232E0,2.4910607E0,1.9428189E0,9.947794E0,1.2366329E1,2.4054012E0,2.2698305E0,3.2102685E0,9.15606E0,2.6335053E0,6.522555E0],"tree_param":{"num_deleted":"0","num_feature":"17","num_nodes":"21","size_leaf_vector":"1"}},{"base_weights":[1.5644392E-1,6.0527575E-1,-2.179768E-2,-3.4640562E-3,1.2389657E0,-1.7690396E-2,1.8796561E-2,8.745262E-3,8.272238E-2],"categories":[],"categories_nodes":[],"categories_segments":[],"categories_sizes":[],"default_left":[0,0,0,0,0,0,0,0,0],"id":34,"left_children":[1,3,-1,5,7,-1,-1,-1,-1],"loss_changes":[3.5374246E0,2.86788E0,0E0,7.688168E-1,1.3198395E0,0E0,0E0,0E0,0E0],"parents":[2147483647,0,0,1,1,3,3,4,4],"right_children":[2,4,-1,6,8,-1,-1,-1,-1],"split_conditions":[1E0,2.97E2,-2.179768E-2,1E0,2.2E0,-1.7690396E-2,1.8796561E-2,8.745262E-3,8.272238E-2],"split_indices":[6,15,0,5,8,0,0,0,0],"split_type":[0,0,0,0,0,0,0,0,0],"sum_hessian":[1.1311824E1,6.4233866E0,4.8884377E0,3.7834425E0,2.639944E0,2.0020957E0,1.7813469E0,1.1403769E0,1.499567E0],"tree_param":{"num_deleted":"0","num_feature":"17","num_nodes":"9","size_leaf_vector":"1"}},{"base_weights":[5.4275542E-3,-2.0315157E-1,5.4200834E-1,-3.2515112E-1,3.3991912E-1,-1.4102729E-2,7.0953065E-1,-4.3217188E-1,1.9102904E-1,-1.589479E-1,3.6787983E-2,3.7908517E-2,9.255375E-3,-5.020882E-1,1.6341116E-2,5.192072E-1,-1.3049741E-2,1.4108795E-2,-2.4295114E-2,-6.1207664E-1,-1.6608055E-1,3.1923223E-2,9.423855E-3,-3.2780822E-2,-5.8479817E-3,1.2308064E-2,-2.7151689E-2],"categories":[],"categories_nodes":[],"categories_segments":[],"categories_sizes":[],"default_left":[0,0,0,0,0,0,0,0,0,0,0,0,0,0,0,0,0,0,0,0,0,0,0,0,0,0,0],"id":35,"left_children":[1,3,5,7,9,-1,11,13,15,17,-1,-1,-1,19,-1,21,-1,-1,-1,23,25,-1,-1,-1,-1,-1,-1],"loss_changes":[6.0707903E0,2.6996317E0,2.2957578E0,1.873553E0,1.62906E0,0E0,1.8871117E-1,1.6053619E0,1.0642996E0,7.443288E-1,0E0,0E0,0E0,8.3200026E-1,0E0,3.5931826E-2,0E0,0E0,0E0,3.2559347E-1,1.3150922E0,0E0,0E0,0E0,0E0,0E0,0E0],"parents":[2147483647,0,0,1,1,2,2,3,3,4,4,6,6,7,7,8,8,9,9,13,13,15,15,19,19,20,20],"right_children":[2,4,6,8,10,-1,12,14,16,18,-1,-1,-1,20,-1,22,-1,-1,-1,24,26,-1,-1,-1,-1,-1,-1],"split_conditions":[1.08E2,2.1915E4,1.02E1,3.94E2,1.03E1,-1.4102729E-2,5.76E2,1.08E1,2.111E3,2.2977E4,3.6787983E-2,3.7908517E-2,9.255375E-3,1.9379E4,1.6341116E-2,1.4245E4,-1.3049741E-2,1.4108795E-2,-2.4295114E-2,1.15E1,2.0459E4,3.1923223E-2,9.423855E-3,-3.2780822E-2,-5.8479817E-3,1.2308064E-2,-2.7151689E-2],"split_indices":[11,2,16,9,16,0,9,8,0,2,0,0,0,2,0,2,0,0,0,16,2,0,0,0,0,0,0],"split_type":[0,0,0,0,0,0,0,0,0,0,0,0,0,0,0,0,0,0,0,0,0,0,0,0,0,0,0],"sum_hessian":[5.225862E1,3.807827E1,1.418035E1,3.142091E1,6.6573606E0,2.2801802E0,1.190017E1,2.6159876E1,5.261035E0,3.2101502E0,3.4472103E0,1.0482232E1,1.4179379E0,2.4263294E1,1.8965812E0,2.961964E0,2.299071E0,1.4247915E0,1.7853589E0,1.7660658E1,6.602637E0,1.4930999E0,1.4688638E0,1.5935177E1,1.7254807E0,3.3194294E0,3.2832077E0],"tree_param":{"num_deleted":"0","num_feature":"17","num_nodes":"27","size_leaf_vector":"1"}},{"base_weights":[4.664888E-2,3.7690827E-1,-5.220268E-1,-2.3330258E-2,4.285866E-1,-6.422186E-1,-1.8762639E-2,5.530377E-1,1.2081271E-1,-8.716961E-3,-3.3920147E-2,1.1856289E-2,-1.3604851E-2,6.1383516E-1,1.3461796E-3,4.4280523E-1,-2.2132288E-1,3.787401E-3,3.2453638E-2,1.5436712E-3,2.7992038E-2,-2.8708277E-2,3.8357235E-2,2.276809E-2,-1.5894825E-2],"categories":[],"categories_nodes":[],"categories_segments":[],"categories_sizes":[],"default_left":[0,0,0,0,0,0,0,0,0,0,0,0,0,0,0,0,0,0,0,0,0,0,0,0,0],"id":36,"left_children":[1,3,5,-1,7,9,11,13,15,-1,-1,-1,-1,17,-1,19,21,-1,-1,-1,-1,-1,23,-1,-1],"loss_changes":[9.89889E0,1.649867E0,1.1613202E0,0E0,1.1535888E0,1.4631653E-1,3.7372273E-1,7.002368E-1,1.2496217E0,0E0,0E0,0E0,0E0,3.3083534E-1,0E0,2.5841188E-1,5.475E-1,0E0,0E0,0E0,0E0,0E0,7.7480096E-1,0E0,0E0],"parents":[2147483647,0,0,1,1,2,2,4,4,5,5,6,6,7,7,8,8,13,13,15,15,16,16,22,22],"right_children":[2,4,6,-1,8,10,12,14,16,-1,-1,-1,-1,18,-1,20,22,-1,-1,-1,-1,-1,24,-1,-1],"split_conditions":[7.4E1,6.91E2,2.475E3,-2.3330258E-2,2.83E2,1.4245E4,1.05E2,2.3376E4,1E0,-8.716961E-3,-3.3920147E-2,1.1856289E-2,-1.3604851E-2,2.94E0,1.3461796E-3,1.085E2,1.3514E4,3.787401E-3,3.2453638E-2,1.5436712E-3,2.7992038E-2,-2.8708277E-2,1.6279E4,2.276809E-2,-1.5894825E-2],"split_indices":[11,0,0,0,15,2,11,2,8,0,0,0,0,10,0,13,2,0,0,0,0,0,2,0,0],"split_type":[0,0,0,0,0,0,0,0,0,0,0,0,0,0,0,0,0,0,0,0,0,0,0,0,0],"sum_hessian":[5.065917E1,3.2260845E1,1.8398323E1,1.3988739E0,3.0861969E1,1.4628559E1,3.769764E0,2.1408398E1,9.453571E0,1.4677662E0,1.3160793E1,1.9072584E0,1.8625057E0,1.9041267E1,2.367131E0,4.718568E0,4.735004E0,1.3638923E0,1.7677374E1,1.3236148E0,3.394953E0,1.4939867E0,3.241017E0,1.3650242E0,1.8759928E0],"tree_param":{"num_deleted":"0","num_feature":"17","num_nodes":"25","size_leaf_vector":"1"}},{"base_weights":[-1.9524151E-2,7.144251E-1,-3.6195183E-1,-1.5274869E-2,6.47832E-2,-3.3563025E-2,-2.2609854E-2,-1.3424018E-2,1.0948093E-2],"categories":[],"categories_nodes":[],"categories_segments":[],"categories_sizes":[],"default_left":[0,0,0,0,0,0,0,0,0],"id":37,"left_children":[1,3,5,-1,-1,7,-1,-1,-1],"loss_changes":[3.444352E0,2.985758E0,2.6064217E-1,0E0,0E0,2.4188574E-1,0E0,0E0,0E0],"parents":[2147483647,0,0,1,1,2,2,5,5],"right_children":[2,4,6,-1,-1,8,-1,-1,-1],"split_conditions":[1.5056E4,3.38E2,1.01E1,-1.5274869E-2,6.47832E-2,1.68E3,-2.2609854E-2,-1.3424018E-2,1.0948093E-2],"split_indices":[2,9,16,0,0,0,0,0,0],"split_type":[0,0,0,0,0,0,0,0,0],"sum_hessian":[1.16758995E1,3.3688514E0,8.307049E0,1.3951428E0,1.9737086E0,2.0864995E0,6.220549E0,1.0482012E0,1.0382984E0],"tree_param":{"num_deleted":"0","num_feature":"17","num_nodes":"9","size_leaf_vector":"1"}},{"base_weights":[1.3814828E-2,-2.4496514E-1,4.9821946E-1,-3.1024808E-2,-5.7792217E-2,-2.4269415E-2,6.8573546E-1,-4.3836415E-1,2.7864507E-1,-3.958791E-3,3.928707E-2,8.0753835E-3,-5.7111883E-1,3.2008566E-2,1.07224464E-1,-9.508874E-3,-3.2818448E-2,-1.0350678E-1,3.1220177E-2,-2.7359193E-2,1.4169047E-2],"categories":[],"categories_nodes":[],"categories_segments":[],"categories_sizes":[],"default_left":[0,0,0,0,0,0,0,0,0,0,0,0,0,0,0,0,0,0,0,0,0],"id":38,"left_children":[1,3,5,-1,7,-1,9,11,13,-1,-1,-1,15,-1,17,-1,-1,19,-1,-1,-1],"loss_changes":[6.230274E0,2.2436852E0,3.5231104E0,0E0,3.034525E0,0E0,1.2051935E0,9.731405E-1,7.174536E-1,0E0,0E0,0E0,1.764679E-1,0E0,1.1333172E0,0E0,0E0,1.4982083E0,0E0,0E0,0E0],"parents":[2147483647,0,0,1,1,2,2,4,4,6,6,7,7,8,8,12,12,14,14,17,17],"right_children":[2,4,6,-1,8,-1,10,12,14,-1,-1,-1,16,-1,18,-1,-1,20,-1,-1,-1],"split_conditions":[1.1E1,1E0,1.5031E4,-3.1024808E-2,1.7889E4,-2.4269415E-2,8E-1,1.51E2,1.103E3,-3.958791E-3,3.928707E-2,8.0753835E-3,1.4E0,3.2008566E-2,3.1E2,-9.508874E-3,-3.2818448E-2,1.9817E4,3.1220177E-2,-2.7359193E-2,1.4169047E-2],"split_indices":[16,8,2,0,2,0,8,15,0,0,0,0,8,0,9,0,0,2,0,0,0],"split_type":[0,0,0,0,0,0,0,0,0,0,0,0,0,0,0,0,0,0,0,0,0],"sum_hessian":[4.772774E1,3.1430923E1,1.6296816E1,9.684834E0,2.1746088E1,2.3550384E0,1.3941778E1,1.0061612E1,1.1684477E1,1.6361003E0,1.2305678E1,1.7839556E0,8.277657E0,2.8787293E0,8.805748E0,2.1044977E0,6.1731586E0,6.8247705E0,1.9809773E0,2.9860687E0,3.8387017E0],"tree_param":{"num_deleted":"0","num_feature":"17","num_nodes":"21","size_leaf_vector":"1"}},{"base_weights":[4.2185575E-2,-5.491781E-1,2.4141964E-1,-6.209093E-1,-1.8695575E-1,4.135808E-1,-3.9795443E-1,-3.3936277E-2,-7.874366E-3,6.2288404E-3,-2.0684175E-2,1.485696E-1,5.129142E-1,-6.078868E-1,1.124064E-2,4.4635642E-1,-2.1274328E-1,5.4125065E-1,2.7562438E-3,-3.5307582E-2,-6.908749E-3,2.392988E-3,2.7677147E-2,2.2004347E-2,-3.257334E-2,3.7727735E-3,5.7016355E-1,1.33666815E-2,3.1644583E-2],"categories":[],"categories_nodes":[],"categories_segments":[],"categories_sizes":[],"default_left":[0,0,0,0,0,0,0,0,0,0,0,0,0,0,0,0,0,0,0,0,0,0,0,0,0,0,0,0,0],"id":39,"left_children":[1,3,5,7,9,11,13,-1,-1,-1,-1,15,17,19,-1,21,23,25,-1,-1,-1,-1,-1,-1,-1,-1,27,-1,-1],"loss_changes":[6.038267E0,2.2005463E-1,4.3681135E0,1.7089581E-1,3.036436E-1,7.2871494E-1,1.2624367E0,0E0,0E0,0E0,0E0,1.1433697E0,2.5338125E-1,2.1213317E-1,0E0,2.1545434E-1,1.7415872E0,2.3234367E-1,0E0,0E0,0E0,0E0,0E0,0E0,0E0,0E0,1.93614E-1,0E0,0E0],"parents":[2147483647,0,0,1,1,2,2,3,3,4,4,5,5,6,6,11,11,12,12,13,13,15,15,16,16,17,17,26,26],"right_children":[2,4,6,8,10,12,14,-1,-1,-1,-1,16,18,20,-1,22,24,26,-1,-1,-1,-1,-1,-1,-1,-1,28,-1,-1],"split_conditions":[1.072E3,3.07E2,3.64E2,4.5E2,1.09E1,1.02E2,2.503E3,-3.3936277E-2,-7.874366E-3,6.2288404E-3,-2.0684175E-2,4.2E1,1.457E2,1.89E2,1.124064E-2,6.74E2,8.1E2,1.103E3,2.7562438E-3,-3.5307582E-2,-6.908749E-3,2.392988E-3,2.7677147E-2,2.2004347E-2,-3.257334E-2,3.7727735E-3,1.43E2,1.33666815E-2,3.1644583E-2],"split_indices":[0,15,9,9,16,14,0,0,0,0,0,11,13,14,0,12,12,0,0,0,0,0,0,0,0,0,15,0,0],"split_type":[0,0,0,0,0,0,0,0,0,0,0,0,0,0,0,0,0,0,0,0,0,0,0,0,0,0,0,0,0],"sum_hessian":[4.912472E1,1.193701E1,3.718771E1,9.367744E0,2.5692658E0,2.9576843E1,7.610866E0,7.9156027E0,1.4521416E0,1.2720144E0,1.2972515E0,8.744114E0,2.083273E1,5.709956E0,1.9009097E0,4.6644197E0,4.0796947E0,1.9446693E1,1.3860358E0,4.3058004E0,1.4041559E0,1.2952955E0,3.3691242E0,1.638485E0,2.4412096E0,1.34752E0,1.8099174E1,4.008633E0,1.4090541E1],"tree_param":{"num_deleted":"0","num_feature":"17","num_nodes":"29","size_leaf_vector":"1"}},{"base_weights":[1.3057582E-1,-2.2310587E-2,6.963179E-1,1.0170343E0,-1.5386443E-2,6.337877E-2,6.2451735E-3],"categories":[],"categories_nodes":[],"categories_segments":[],"categories_sizes":[],"default_left":[0,0,0,0,0,0,0],"id":40,"left_children":[1,-1,3,5,-1,-1,-1],"loss_changes":[4.4680285E0,0E0,2.509841E0,1.0493159E0,0E0,0E0,0E0],"parents":[2147483647,0,0,2,2,3,3],"right_children":[2,-1,4,6,-1,-1,-1],"split_conditions":[3.1E2,-2.2310587E-2,1.7889E4,1.43E2,-1.5386443E-2,6.337877E-2,6.2451735E-3],"split_indices":[9,0,2,14,0,0,0],"split_type":[0,0,0,0,0,0,0],"sum_hessian":[1.17402935E1,5.918016E0,5.8222775E0,4.4029393E0,1.4193383E0,3.108988E0,1.2939513E0],"tree_param":{"num_deleted":"0","num_feature":"17","num_nodes":"7","size_leaf_vector":"1"}},{"base_weights":[-6.780447E-4,-1.9162373E-1,5.374847E-1,-2.2547709E-2,-5.099702E-1,5.2697103E-2,3.56549E-2,-1.449597E-1,3.495022E-2,-5.613451E-1,-1.2935736E-3,-2.4008725E-2,2.7101878E-2,-2.4542889E-1,1.5948257E-1,-3.1135192E-2,-9.5954E-3,4.296814E-2,-3.459534E-1,-9.41968E-3,3.2977647E-1,-1.9970922E-2,1.3500104E-2,-2.202875E-2,9.105066E-3,1.6191631E-4,3.0162355E-2],"categories":[],"categories_nodes":[],"categories_segments":[],"categories_sizes":[],"default_left":[0,0,0,0,0,0,0,0,0,0,0,0,0,0,0,0,0,0,0,0,0,0,0,0,0,0,0],"id":41,"left_children":[1,3,5,7,9,11,-1,13,-1,15,-1,-1,-1,17,19,-1,-1,21,23,-1,25,-1,-1,-1,-1,-1,-1],"loss_changes":[5.268362E0,2.0251944E0,1.1055353E0,2.376619E0,3.1076837E-1,1.4728659E0,0E0,7.381137E-1,0E0,1.4744282E-1,0E0,0E0,0E0,5.2439857E-1,4.339422E-1,0E0,0E0,6.534447E-1,7.369398E-1,0E0,4.0678316E-1,0E0,0E0,0E0,0E0,0E0,0E0],"parents":[2147483647,0,0,1,1,2,2,3,3,4,4,5,5,7,7,9,9,13,13,14,14,17,17,18,18,20,20],"right_children":[2,4,6,8,10,12,-1,14,-1,16,-1,-1,-1,18,20,-1,-1,22,24,-1,26,-1,-1,-1,-1,-1,-1],"split_conditions":[1.08E2,2.468E3,1E0,3.48E2,1.7205E2,2.16E2,3.56549E-2,1.09E1,3.495022E-2,1.15E1,-1.2935736E-3,-2.4008725E-2,2.7101878E-2,1.85E2,1.2E2,-3.1135192E-2,-9.5954E-3,1.487E3,3.91E0,-9.41968E-3,1.444E3,-1.9970922E-2,1.3500104E-2,-2.202875E-2,9.105066E-3,1.6191631E-4,3.0162355E-2],"split_indices":[11,0,5,15,13,15,0,16,0,16,0,0,0,15,15,0,0,0,10,0,0,0,0,0,0,0,0],"split_type":[0,0,0,0,0,0,0,0,0,0,0,0,0,0,0,0,0,0,0,0,0,0,0,0,0,0,0],"sum_hessian":[4.926639E1,3.683934E1,1.2427049E1,2.4759974E1,1.2079369E1,3.6503053E0,8.776743E0,2.1851881E1,2.908092E0,1.0776179E1,1.3031886E0,1.7563949E0,1.8939103E0,1.6575598E1,5.276283E0,8.653412E0,2.122768E0,4.4322834E0,1.2143315E1,1.6990929E0,3.57719E0,1.2456957E0,3.1865876E0,1.0438513E1,1.7048018E0,2.0915782E0,1.4856117E0],"tree_param":{"num_deleted":"0","num_feature":"17","num_nodes":"27","size_leaf_vector":"1"}},{"base_weights":[-3.362266E-2,2.38709E-1,-4.2962146E-1,3.8175637E-1,-3.3588108E-2,2.5136572E-1,-5.720194E-1,5.929812E-1,9.965142E-2,2.5425365E-2,-8.100028E-3,7.391659E-3,-6.470217E-1,3.2343175E-2,1.5452992E-3,3.4145477E-1,-1.2708995E-1,-3.451781E-2,-9.67346E-3,2.9435595E-2,-1.4909658E-2,2.189898E-2,-3.335119E-1,4.730641E-3,-2.4754103E-2],"categories":[],"categories_nodes":[],"categories_segments":[],"categories_sizes":[],"default_left":[0,0,0,0,0,0,0,0,0,0,0,0,0,0,0,0,0,0,0,0,0,0,0,0,0],"id":42,"left_children":[1,3,5,7,-1,9,11,13,15,-1,-1,-1,17,-1,-1,19,21,-1,-1,-1,-1,-1,23,-1,-1],"loss_changes":[5.4011774E0,4.1317463E0,2.119847E0,1.5111859E0,0E0,5.308206E-1,1.0220704E0,4.3027878E-1,7.279135E-1,0E0,0E0,0E0,1.7551947E-1,0E0,0E0,1.1740165E0,9.8263055E-1,0E0,0E0,0E0,0E0,0E0,4.4947392E-1,0E0,0E0],"parents":[2147483647,0,0,1,1,2,2,3,3,5,5,6,6,7,7,8,8,12,12,15,15,16,16,22,22],"right_children":[2,4,6,8,-1,10,12,14,16,-1,-1,-1,18,-1,-1,20,22,-1,-1,-1,-1,-1,24,-1,-1],"split_conditions":[2.3E0,3.64E2,1E1,1.9358E4,-3.3588108E-2,1.8102E4,1.5056E4,1.271E2,1E0,2.5425365E-2,-8.100028E-3,7.391659E-3,1E0,3.2343175E-2,1.5452992E-3,3.98E0,1.2E2,-3.451781E-2,-9.67346E-3,2.9435595E-2,-1.4909658E-2,2.189898E-2,1.9817E4,4.730641E-3,-2.4754103E-2],"split_indices":[8,9,16,2,0,2,2,13,8,0,0,0,3,0,0,10,15,0,0,0,0,0,2,0,0],"split_type":[0,0,0,0,0,0,0,0,0,0,0,0,0,0,0,0,0,0,0,0,0,0,0,0,0],"sum_hessian":[4.8132744E1,2.8754934E1,1.937781E1,2.5352428E1,3.4025054E0,3.218898E0,1.615891E1,1.3867334E1,1.1485094E1,1.842548E0,1.3763502E0,1.433122E0,1.472579E1,1.2516604E1,1.3507302E0,5.3131156E0,6.171978E0,1.2964949E1,1.7608409E0,3.889322E0,1.4237934E0,1.3512452E0,4.820733E0,1.4343758E0,3.3863573E0],"tree_param":{"num_deleted":"0","num_feature":"17","num_nodes":"25","size_leaf_vector":"1"}},{"base_weights":[9.015515E-2,-2.2243472E-2,6.6877943E-1,9.652195E-1,-2.3694304E-4,6.561016E-3,6.386509E-2],"categories":[],"categories_nodes":[],"categories_segments":[],"categories_sizes":[],"default_left":[0,0,0,0,0,0,0],"id":43,"left_children":[1,-1,3,5,-1,-1,-1],"loss_changes":[4.003288E0,0E0,1.2325368E0,9.4521594E-1,0E0,0E0,0E0],"parents":[2147483647,0,0,2,2,3,3],"right_children":[2,-1,4,6,-1,-1,-1],"split_conditions":[3.1E2,-2.2243472E-2,1.39E2,1.45E2,-2.3694304E-4,6.561016E-3,6.386509E-2],"split_indices":[9,0,14,13,0,0,0],"split_type":[0,0,0,0,0,0,0],"sum_hessian":[1.0970379E1,5.820041E0,5.150337E0,3.275548E0,1.8747892E0,1.2787427E0,1.9968054E0],"tree_param":{"num_deleted":"0","num_feature":"17","num_nodes":"7","size_leaf_vector":"1"}},{"base_weights":[5.644933E-2,-5.010674E-1,2.62429E-1,-5.523232E-1,-3.0256357E-4,-1.421895E-1,5.1985395E-1,1.3145956E-5,-3.0498946E-2,-2.9681807E-2,1.2670498E-1,-1.0615609E-2,5.8768344E-1,-2.1800917E-1,3.877013E-1,6.7130025E-3,6.235018E-1,-2.4530536E-2,1.3886349E-2,3.329998E-2,-2.522958E-3,6.7989886E-1,2.0691419E-1,1.9186944E-2,3.856795E-2,2.3353562E-2,-7.3209475E-3],"categories":[],"categories_nodes":[],"categories_segments":[],"categories_sizes":[],"default_left":[0,0,0,0,0,0,0,0,0,0,0,0,0,0,0,0,0,0,0,0,0,0,0,0,0,0,0],"id":44,"left_children":[1,3,5,7,-1,9,11,-1,-1,-1,13,-1,15,17,19,-1,21,-1,-1,-1,-1,23,25,-1,-1,-1,-1],"loss_changes":[5.8808575E0,3.4808183E-1,3.9501693E0,3.9967895E-1,0E0,1.9271171E0,1.2649813E0,0E0,0E0,0E0,1.0188497E0,0E0,2.6186085E-1,8.27474E-1,7.9817575E-1,0E0,3.1618357E-1,0E0,0E0,0E0,0E0,1.5606737E-1,4.1365707E-1,0E0,0E0,0E0,0E0],"parents":[2147483647,0,0,1,1,2,2,3,3,5,5,6,6,10,10,12,12,13,13,14,14,16,16,21,21,22,22],"right_children":[2,4,6,8,-1,10,12,-1,-1,-1,14,-1,16,18,20,-1,22,-1,-1,-1,-1,24,26,-1,-1,-1,-1],"split_conditions":[1E0,2.3741E4,1.7889E4,9.8E0,-3.0256357E-4,1.01E1,1.08E2,1.3145956E-5,-3.0498946E-2,-2.9681807E-2,1.9E0,-1.0615609E-2,4.3E1,3.64E2,3.28E2,6.7130025E-3,1E0,-2.4530536E-2,1.3886349E-2,3.329998E-2,-2.522958E-3,1.9002E4,2.58E2,1.9186944E-2,3.856795E-2,2.3353562E-2,-7.3209475E-3],"split_indices":[8,2,2,16,0,16,15,0,0,0,8,0,11,9,9,0,3,0,0,0,0,2,9,0,0,0,0],"split_type":[0,0,0,0,0,0,0,0,0,0,0,0,0,0,0,0,0,0,0,0,0,0,0,0,0,0,0],"sum_hessian":[4.906538E1,1.2850595E1,3.6214787E1,1.1539938E1,1.3106574E0,1.4255599E1,2.1959187E1,1.1843433E0,1.0355595E1,4.870623E0,9.384975E0,1.6812556E0,2.0277931E1,4.114889E0,5.270087E0,1.8322248E0,1.8445707E1,2.6616223E0,1.4532669E0,2.9049888E0,2.365098E0,1.5689603E1,2.7561042E0,4.927947E0,1.0761656E1,1.4019536E0,1.3541505E0],"tree_param":{"num_deleted":"0","num_feature":"17","num_nodes":"27","size_leaf_vector":"1"}},{"base_weights":[6.6613406E-2,3.740155E-1,-3.6007643E-1,4.377182E-1,-2.6335169E-2,1.5644178E-2,-4.5736003E-1,5.7079035E-1,-1.5962784E-1,-3.301507E-2,-1.5721253E-1,2.257155E-3,5.9831446E-1,2.9528522E-1,-3.0193115E-2,2.0490867E-1,-4.9298504E-1,3.1370427E-2,1.1376926E-2,2.0938586E-2,2.4811046E-3,2.66133E-2,-1.1558332E-2,-3.0185744E-2,-4.986713E-3],"categories":[],"categories_nodes":[],"categories_segments":[],"categories_sizes":[],"default_left":[0,0,0,0,0,0,0,0,0,0,0,0,0,0,0,0,0,0,0,0,0,0,0,0,0],"id":45,"left_children":[1,3,5,7,-1,-1,9,11,13,-1,15,-1,17,19,-1,21,23,-1,-1,-1,-1,-1,-1,-1,-1],"loss_changes":[6.9155183E0,1.9828358E0,1.5937173E0,2.4017487E0,0E0,0E0,1.1001434E0,3.2008982E-1,1.4064578E0,0E0,1.2300601E0,0E0,1.02282524E-1,9.067887E-2,0E0,8.6163175E-1,1.623764E-1,0E0,0E0,0E0,0E0,0E0,0E0,0E0,0E0],"parents":[2147483647,0,0,1,1,2,2,3,3,6,6,7,7,8,8,10,10,12,12,13,13,15,15,16,16],"right_children":[2,4,6,8,-1,-1,10,12,14,-1,16,-1,18,20,-1,22,24,-1,-1,-1,-1,-1,-1,-1,-1],"split_conditions":[2.1E0,4.5E2,1.4939E4,2.1464E4,-2.6335169E-2,1.5644178E-2,1.363E3,2.93E0,1E0,-3.301507E-2,1.68E3,2.257155E-3,7.4E1,2.3741E4,-3.0193115E-2,3.47E0,5.6E0,3.1370427E-2,1.1376926E-2,2.0938586E-2,2.4811046E-3,2.66133E-2,-1.1558332E-2,-3.0185744E-2,-4.986713E-3],"split_indices":[8,9,2,2,0,0,0,10,8,0,0,0,11,2,0,10,8,0,0,0,0,0,0,0,0],"split_type":[0,0,0,0,0,0,0,0,0,0,0,0,0,0,0,0,0,0,0,0,0,0,0,0,0],"sum_hessian":[5.0696915E1,2.953926E1,2.1157656E1,2.8068192E1,1.4710677E0,2.3923512E0,1.8765305E1,2.299091E1,5.0772824E0,1.04796715E1,8.285633E0,1.2753217E0,2.1715588E1,2.6741474E0,2.4031348E0,4.1739187E0,4.1117144E0,1.94938E1,2.2217894E0,1.3106632E0,1.3634841E0,2.2581587E0,1.91576E0,2.790724E0,1.3209903E0],"tree_param":{"num_deleted":"0","num_feature":"17","num_nodes":"25","size_leaf_vector":"1"}},{"base_weights":[-5.5655684E-2,-2.207139E-2,3.809245E-1,-1.8105362E-2,8.758638E-1,6.425528E-2,4.4911527E-3],"categories":[],"categories_nodes":[],"categories_segments":[],"categories_sizes":[],"default_left":[0,0,0,0,0,0,0],"id":46,"left_children":[1,-1,3,-1,5,-1,-1],"loss_changes":[2.1064918E0,0E0,2.5000522E0,0E0,1.1246893E0,0E0,0E0],"parents":[2147483647,0,0,2,2,4,4],"right_children":[2,-1,4,-1,6,-1,-1],"split_conditions":[3.1E2,-2.207139E-2,2.38E2,-1.8105362E-2,1.664E3,6.425528E-2,4.4911527E-3],"split_indices":[9,0,15,0,12,0,0],"split_type":[0,0,0,0,0,0,0],"sum_hessian":[1.0508943E1,5.573218E0,4.9357247E0,2.080595E0,2.8551297E0,1.4600593E0,1.3950704E0],"tree_param":{"num_deleted":"0","num_feature":"17","num_nodes":"7","size_leaf_vector":"1"}},{"base_weights":[8.794435E-3,-4.1900265E-1,3.339981E-1,-5.414977E-1,3.5774704E-2,-2.6415715E-1,5.35566E-1,-3.140234E-2,2.0854641E-4,-2.3211012E-2,3.8417488E-1,-4.3857196E-1,1.660498E-2,-1.4358534E-3,6.018801E-1,2.4745176E-2,5.335979E-3,-2.7914757E-2,2.6430136E-3,2.8447023E-1,3.6321115E-2,-5.056576E-2,3.2492407E-2,1.0553679E-2,-1.17405895E-2],"categories":[],"categories_nodes":[],"categories_segments":[],"categories_sizes":[],"default_left":[0,0,0,0,0,0,0,0,0,0,0,0,0,0,0,0,0,0,0,0,0,0,0,0,0],"id":47,"left_children":[1,3,5,7,9,11,13,-1,-1,-1,15,17,-1,-1,19,-1,-1,-1,-1,21,-1,23,-1,-1,-1],"loss_changes":[6.931039E0,1.2185025E0,3.5522382E0,8.064103E-1,1.1374109E0,9.56801E-1,8.214054E-1,0E0,0E0,0E0,6.367868E-2,4.0991664E-1,0E0,0E0,5.5530596E-1,0E0,0E0,0E0,0E0,8.9898336E-1,0E0,2.7221242E-1,0E0,0E0,0E0],"parents":[2147483647,0,0,1,1,2,2,3,3,4,4,5,5,6,6,10,10,11,11,14,14,19,19,21,21],"right_children":[2,4,6,8,10,12,14,-1,-1,-1,16,18,-1,-1,20,-1,-1,-1,-1,22,-1,24,-1,-1,-1],"split_conditions":[1.7889E4,4.7E0,1E0,3.94E2,1.5116E4,2.78E2,1.0191E2,-3.140234E-2,2.0854641E-4,-2.3211012E-2,6.4E0,1.1E1,1.660498E-2,-1.4358534E-3,1.04E1,2.4745176E-2,5.335979E-3,-2.7914757E-2,2.6430136E-3,3.1E2,3.6321115E-2,1.43E2,3.2492407E-2,1.0553679E-2,-1.17405895E-2],"split_indices":[2,8,8,9,2,15,13,0,0,0,8,16,0,0,16,0,0,0,0,9,0,15,0,0,0],"split_type":[0,0,0,0,0,0,0,0,0,0,0,0,0,0,0,0,0,0,0,0,0,0,0,0,0],"sum_hessian":[4.781423E1,2.0525297E1,2.7288935E1,1.6019682E1,4.5056157E0,6.7998323E0,2.0489101E1,1.3696325E1,2.3233557E0,1.7137501E0,2.7918653E0,5.465533E0,1.3342993E0,2.214272E0,1.827483E1,1.435324E0,1.3565415E0,4.28545E0,1.1800828E0,6.075318E0,1.2199512E1,3.618716E0,2.4566019E0,1.4351367E0,2.1835794E0],"tree_param":{"num_deleted":"0","num_feature":"17","num_nodes":"25","size_leaf_vector":"1"}},{"base_weights":[7.02529E-3,3.0845675E-1,-4.4562274E-1,3.998269E-1,-3.1515282E-1,-7.7309576E-4,-5.986132E-1,5.1077473E-1,-1.5807453E-1,-2.7669642E-2,5.3105247E-3,-2.847821E-2,4.0386015E-1,-3.4504912E-3,-3.3703294E-2,5.747287E-1,2.8939312E-2,2.0264952E-2,-4.5229164E-1,2.4603264E-2,6.1050616E-3,6.095298E-1,2.1946805E-3,-1.6878849E-2,2.0215562E-2,-7.7000335E-3,-2.7611876E-2,3.245731E-2,7.952472E-3],"categories":[],"categories_nodes":[],"categories_segments":[],"categories_sizes":[],"default_left":[0,0,0,0,0,0,0,0,0,0,0,0,0,0,0,0,0,0,0,0,0,0,0,0,0,0,0,0,0],"id":48,"left_children":[1,3,5,7,9,11,13,15,17,-1,-1,-1,19,-1,-1,21,23,-1,25,-1,-1,27,-1,-1,-1,-1,-1,-1,-1],"loss_changes":[6.706016E0,1.8062537E0,1.337071E0,1.7000542E0,4.9321467E-1,1.6179732E0,5.3779125E-1,6.6308594E-1,1.029193E0,0E0,0E0,0E0,4.2035043E-2,0E0,0E0,3.320055E-1,6.369595E-1,0E0,2.8990686E-2,0E0,0E0,2.2062492E-1,0E0,0E0,0E0,0E0,0E0,0E0,0E0],"parents":[2147483647,0,0,1,1,2,2,3,3,4,4,5,5,6,6,7,7,8,8,12,12,15,15,16,16,18,18,21,21],"right_children":[2,4,6,8,10,12,14,16,18,-1,-1,-1,20,-1,-1,22,24,-1,26,-1,-1,28,-1,-1,-1,-1,-1,-1,-1],"split_conditions":[2.1E0,3.64E2,1.01E1,2.1464E4,2.449E3,1.072E3,1.4772E4,1.35E2,1.01E1,-2.7669642E-2,5.3105247E-3,-2.847821E-2,3.47E0,-3.4504912E-3,-3.3703294E-2,5.89E3,2.475E3,2.0264952E-2,1.356E3,2.4603264E-2,6.1050616E-3,1.17E1,2.1946805E-3,-1.6878849E-2,2.0215562E-2,-7.7000335E-3,-2.7611876E-2,3.245731E-2,7.952472E-3],"split_indices":[8,9,16,2,0,0,2,14,16,0,0,0,10,0,0,12,0,0,0,0,0,16,0,0,0,0,0,0,0],"split_type":[0,0,0,0,0,0,0,0,0,0,0,0,0,0,0,0,0,0,0,0,0,0,0,0,0,0,0,0,0],"sum_hessian":[4.7141647E1,2.848873E1,1.865292E1,2.516103E1,3.3276987E0,5.03058E0,1.362234E1,2.1057812E1,4.103219E0,1.9256129E0,1.4020858E0,1.9216788E0,3.1089013E0,1.9375129E0,1.1684828E1,1.842012E1,2.6376915E0,1.2781801E0,2.825039E0,1.7992406E0,1.3096608E0,1.7147686E1,1.2724327E0,1.3855326E0,1.252159E0,1.3466798E0,1.4783592E0,1.5356213E1,1.7914745E0],"tree_param":{"num_deleted":"0","num_feature":"17","num_nodes":"29","size_leaf_vector":"1"}},{"base_weights":[1.04056865E-1,-2.1852799E-2,6.2218106E-1,8.948383E-1,-1.4660776E-2,6.2513114E-3,1.1177585E0,9.888901E-3,6.978204E-2],"categories":[],"categories_nodes":[],"categories_segments":[],"categories_sizes":[],"default_left":[0,0,0,0,0,0,0,0,0],"id":49,"left_children":[1,-1,3,5,-1,-1,7,-1,-1],"loss_changes":[3.5374334E0,0E0,1.8504438E0,7.439003E-1,0E0,0E0,7.125702E-1,0E0,0E0],"parents":[2147483647,0,0,2,2,3,3,6,6],"right_children":[2,-1,4,6,-1,-1,8,-1,-1],"split_conditions":[3.1E2,-2.1852799E-2,1E0,6.3E1,-1.4660776E-2,6.2513114E-3,2.38E2,9.888901E-3,6.978204E-2],"split_indices":[9,0,6,11,0,0,15,0,0],"split_type":[0,0,0,0,0,0,0,0,0],"sum_hessian":[1.0647392E1,5.2846904E0,5.362702E0,4.149271E0,1.2134309E0,1.2822218E0,2.8670492E0,1.062194E0,1.8048552E0],"tree_param":{"num_deleted":"0","num_feature":"17","num_nodes":"9","size_leaf_vector":"1"}},{"base_weights":[3.1711212E-3,-1.8665098E-1,5.0327474E-1,-2.5624332E-1,2.8156633E-2,-2.6442532E-3,6.218187E-1,2.2888118E-2,-3.0210468E-1,3.357559E-2,7.494982E-3,-4.0044641E-1,3.9501935E-2,-1.151185E-2,-5.220553E-1,4.903079E-1,-3.5773215E-1,-2.3442876E-2,1.5725894E-2,1.5241808E-3,-2.7983753E-2,7.487069E-4,3.376023E-2,2.7638974E-3,-2.511674E-2],"categories":[],"categories_nodes":[],"categories_segments":[],"categories_sizes":[],"default_left":[0,0,0,0,0,0,0,0,0,0,0,0,0,0,0,0,0,0,0,0,0,0,0,0,0],"id":50,"left_children":[1,3,5,7,-1,-1,9,-1,11,-1,-1,13,15,17,19,21,23,-1,-1,-1,-1,-1,-1,-1,-1],"loss_changes":[4.61137E0,1.9822279E0,9.139161E-1,1.2162342E0,0E0,0E0,1.595006E-1,0E0,1.0751991E0,0E0,0E0,1.1563587E0,1.6006885E0,1.1727781E0,4.0574837E-1,3.5462457E-1,3.1498116E-1,0E0,0E0,0E0,0E0,0E0,0E0,0E0,0E0],"parents":[2147483647,0,0,1,1,2,2,3,3,6,6,8,8,11,11,12,12,13,13,14,14,15,15,16,16],"right_children":[2,4,6,8,-1,-1,10,-1,12,-1,-1,14,16,18,20,22,24,-1,-1,-1,-1,-1,-1,-1,-1],"split_conditions":[1.05E2,6.3E0,1.02E1,6.91E2,2.8156633E-2,-2.6442532E-3,4.86E2,2.2888118E-2,3.91E0,3.357559E-2,7.494982E-3,1.51E2,4.01E0,1.2E2,3.2E1,4.8E1,2.97E2,-2.3442876E-2,1.5725894E-2,1.5241808E-3,-2.7983753E-2,7.487069E-4,3.376023E-2,2.7638974E-3,-2.511674E-2],"split_indices":[11,8,16,0,0,0,9,0,10,0,0,15,10,15,11,11,15,0,0,0,0,0,0,0,0],"split_type":[0,0,0,0,0,0,0,0,0,0,0,0,0,0,0,0,0,0,0,0,0,0,0,0,0],"sum_hessian":[4.6586636E1,3.4223392E1,1.2363244E1,3.1919022E1,2.3043709E0,2.2695105E0,1.0093734E1,1.3843853E0,3.0534637E1,8.7494755E0,1.3442585E0,2.3575481E1,6.9591546E0,5.876306E0,1.7699177E1,3.1500158E0,3.8091388E0,2.2633116E0,3.6129944E0,1.1403273E0,1.655885E1,1.1848868E0,1.965129E0,1.1479943E0,2.6611445E0],"tree_param":{"num_deleted":"0","num_feature":"17","num_nodes":"25","size_leaf_vector":"1"}},{"base_weights":[-7.254544E-2,1.4411886E-1,-4.1969293E-1,2.5011015E-1,-4.082606E-1,-5.064773E-1,2.1140419E-2,-2.2837631E-2,3.1728256E-1,-3.3057448E-2,8.746345E-3,-2.065458E-1,-3.475908E-2,3.8427213E-1,-1.6930333E-1,2.4585608E-1,-4.6787557E-1,1.9757637E-1,5.51179E-1,-1.52015565E-2,2.2974436E-3,-6.412592E-3,2.4808386E-2,-2.7772723E-2,-5.055121E-3,2.5726905E-2,2.1708382E-3,3.0133987E-2,1.1195749E-2],"categories":[],"categories_nodes":[],"categories_segments":[],"categories_sizes":[],"default_left":[0,0,0,0,0,0,0,0,0,0,0,0,0,0,0,0,0,0,0,0,0,0,0,0,0,0,0,0,0],"id":51,"left_children":[1,3,5,7,9,11,-1,-1,13,-1,-1,15,-1,17,19,21,23,25,27,-1,-1,-1,-1,-1,-1,-1,-1,-1,-1],"loss_changes":[3.7159724E0,1.8976808E0,1.598387E0,1.3961295E0,8.998474E-1,8.536267E-1,0E0,0E0,8.687067E-1,0E0,0E0,1.0876709E0,0E0,5.759206E-1,1.2062454E-1,4.0710023E-1,1.2241113E-1,5.607044E-1,5.120206E-2,0E0,0E0,0E0,0E0,0E0,0E0,0E0,0E0,0E0,0E0],"parents":[2147483647,0,0,1,1,2,2,3,3,4,4,5,5,8,8,11,11,13,13,14,14,15,15,16,16,17,17,18,18],"right_children":[2,4,6,8,10,12,-1,-1,14,-1,-1,16,-1,18,20,22,24,26,28,-1,-1,-1,-1,-1,-1,-1,-1,-1,-1],"split_conditions":[7.4E1,3.64E2,3.933E3,6.91E2,1.68E2,2.14E2,2.1140419E-2,-2.2837631E-2,1.718E3,-3.3057448E-2,8.746345E-3,1E0,-3.475908E-2,2.36E2,5.9E1,1E0,1.84E3,1.2E2,3.58E2,-1.52015565E-2,2.2974436E-3,-6.412592E-3,2.4808386E-2,-2.7772723E-2,-5.055121E-3,2.5726905E-2,2.1708382E-3,3.0133987E-2,1.1195749E-2],"split_indices":[11,9,0,0,14,15,0,0,12,0,0,5,0,15,11,1,12,15,15,0,0,0,0,0,0,0,0,0,0],"split_type":[0,0,0,0,0,0,0,0,0,0,0,0,0,0,0,0,0,0,0,0,0,0,0,0,0,0,0,0,0],"sum_hessian":[4.7600845E1,2.9668665E1,1.7932182E1,2.5351416E1,4.317249E0,1.6619122E1,1.3130609E0,1.696739E0,2.3654676E1,2.9181616E0,1.3990873E0,7.2269564E0,9.392164E0,2.0976988E1,2.6776893E0,2.667799E0,4.5591574E0,1.093229E1,1.0044698E1,1.3932214E0,1.284468E0,1.2649202E0,1.4028788E0,3.2650795E0,1.2940781E0,2.8123095E0,8.119981E0,7.9517756E0,2.0929222E0],"tree_param":{"num_deleted":"0","num_feature":"17","num_nodes":"29","size_leaf_vector":"1"}},{"base_weights":[1.1649641E-2,-2.1665694E-2,4.0711328E-1,6.307574E-1,-1.4882467E-2,9.222909E-1,3.0385528E-4,6.3001695E-3,6.3952945E-2],"categories":[],"categories_nodes":[],"categories_segments":[],"categories_sizes":[],"default_left":[0,0,0,0,0,0,0,0,0],"id":52,"left_children":[1,-1,3,5,-1,7,-1,-1,-1],"loss_changes":[2.2586865E0,0E0,1.256499E0,9.901893E-1,0E0,8.960576E-1,0E0,0E0,0E0],"parents":[2147483647,0,0,2,2,3,3,5,5],"right_children":[2,-1,4,6,-1,8,-1,-1,-1],"split_conditions":[3.1E2,-2.1665694E-2,1.7889E4,1.664E3,-1.4882467E-2,1E0,3.0385528E-4,6.3001695E-3,6.3952945E-2],"split_indices":[9,0,2,12,0,5,0,0,0],"split_type":[0,0,0,0,0,0,0,0,0],"sum_hessian":[1.0833355E1,5.0526066E0,5.7807484E0,4.4679346E0,1.3128139E0,2.7214394E0,1.7464954E0,1.2607319E0,1.4607073E0],"tree_param":{"num_deleted":"0","num_feature":"17","num_nodes":"9","size_leaf_vector":"1"}},{"base_weights":[-7.479287E-2,-3.396175E-1,3.3415556E-1,2.4183534E-2,-3.9952126E-1,-2.3113817E-1,5.501101E-1,-2.9341022E-2,-2.6584405E-1,9.811081E-3,-4.0809047E-1,3.368052E-2,2.2913579E-2,1.7388257E-1,-3.962053E-1,-1.3916849E-3,-2.7406802E-2,9.292674E-3,-7.5024017E-3,-1.9869473E-2,2.7337512E-2,-8.830102E-3,-4.7596717E-1,1.5687214E-2,-1.7854204E-2,-2.6846891E-2,9.697258E-4],"categories":[],"categories_nodes":[],"categories_segments":[],"categories_sizes":[],"default_left":[0,0,0,0,0,0,0,0,0,0,0,0,0,0,0,0,0,0,0,0,0,0,0,0,0,0,0],"id":53,"left_children":[1,3,5,-1,7,9,11,-1,13,-1,15,-1,17,19,21,-1,-1,-1,-1,-1,-1,23,25,-1,-1,-1,-1],"loss_changes":[5.2153845E0,1.6278477E0,2.4490907E0,0E0,5.3662825E-1,5.309168E-1,8.998933E-1,0E0,1.0990367E0,0E0,2.2655314E-1,0E0,1.3225909E-1,1.2406398E0,4.3350816E-1,0E0,0E0,0E0,0E0,0E0,0E0,4.9822402E-1,3.6464834E-1,0E0,0E0,0E0,0E0],"parents":[2147483647,0,0,1,1,2,2,4,4,5,5,6,6,8,8,10,10,12,12,13,13,14,14,21,21,22,22],"right_children":[2,4,6,-1,8,10,12,-1,14,-1,16,-1,18,20,22,-1,-1,-1,-1,-1,-1,24,26,-1,-1,-1,-1],"split_conditions":[2.3E0,6.91E2,1.02E1,2.4183534E-2,1E0,1.51E2,3.56E0,-2.9341022E-2,1.1005E2,9.811081E-3,7.4E1,3.368052E-2,4.7E0,8.256E1,1.43E2,-1.3916849E-3,-2.7406802E-2,9.292674E-3,-7.5024017E-3,-1.9869473E-2,2.7337512E-2,1.1E1,1.13E1,1.5687214E-2,-1.7854204E-2,-2.6846891E-2,9.697258E-4],"split_indices":[8,0,16,0,5,15,10,0,13,0,11,0,8,13,15,0,0,0,0,0,0,16,16,0,0,0,0],"split_type":[0,0,0,0,0,0,0,0,0,0,0,0,0,0,0,0,0,0,0,0,0,0,0,0,0,0,0],"sum_hessian":[4.6109123E1,2.808896E1,1.8020163E1,1.4253614E0,2.6663599E1,4.9617424E0,1.305842E1,9.692839E0,1.697076E1,1.4209915E0,3.5407507E0,1.0354961E1,2.7034588E0,3.8043406E0,1.3166419E1,1.2756925E0,2.2650583E0,1.3536786E0,1.3497801E0,1.4764699E0,2.3278708E0,2.4377644E0,1.0728654E1,1.3169851E0,1.1207794E0,9.478127E0,1.2505281E0],"tree_param":{"num_deleted":"0","num_feature":"17","num_nodes":"27","size_leaf_vector":"1"}},{"base_weights":[-2.5342291E-2,5.4641104E-1,-2.1198212E-1,-8.244002E-4,3.0690527E-2,-2.8398633E-2,-5.383809E-1,1.0698838E-1,-2.8400842E-2,-3.6520008E-2,-9.330279E-2,1.8166898E-1,-2.5197435E-2,2.5171101E-2,-2.3741094E-2,2.9051552E-2,-1.5503096E-2,2.503938E-2,-8.875992E-3],"categories":[],"categories_nodes":[],"categories_segments":[],"categories_sizes":[],"default_left":[0,0,0,0,0,0,0,0,0,0,0,0,0,0,0,0,0,0,0],"id":54,"left_children":[1,3,5,-1,-1,7,9,11,-1,-1,13,15,-1,-1,-1,-1,17,-1,-1],"loss_changes":[5.0653515E0,4.5378375E-1,2.1231856E0,0E0,0E0,1.8065996E0,1.0250394E0,1.0015546E0,0E0,0E0,1.3777325E0,1.4663608E0,0E0,0E0,0E0,0E0,1.2067995E0,0E0,0E0],"parents":[2147483647,0,0,1,1,2,2,5,5,6,6,7,7,10,10,11,11,16,16],"right_children":[2,4,6,-1,-1,8,10,12,-1,-1,14,16,-1,-1,-1,-1,18,-1,-1],"split_conditions":[1E0,5.425E1,1.2865E2,-8.244002E-4,3.0690527E-2,1.07E2,1.29E2,4.5E2,-2.8400842E-2,-3.6520008E-2,1.6658E4,1.7167E4,-2.5197435E-2,2.5171101E-2,-2.3741094E-2,2.9051552E-2,4.9E1,2.503938E-2,-8.875992E-3],"split_indices":[8,13,13,0,0,11,11,9,0,0,2,2,0,0,0,0,11,0,0],"split_type":[0,0,0,0,0,0,0,0,0,0,0,0,0,0,0,0,0,0,0],"sum_hessian":[4.538208E1,1.0694099E1,3.468798E1,1.2243214E0,9.469778E0,2.2896704E1,1.1791277E1,1.8945198E1,3.9515047E0,7.7895756E0,4.0017014E0,1.7507706E1,1.4374933E0,1.4360656E0,2.5656357E0,5.1433296E0,1.2364375E1,2.4538505E0,9.910525E0],"tree_param":{"num_deleted":"0","num_feature":"17","num_nodes":"19","size_leaf_vector":"1"}},{"base_weights":[9.8488174E-2,-2.1835836E-2,6.0948306E-1,1.0494418E0,-1.7270776E-2,6.9177665E-2,6.069967E-3],"categories":[],"categories_nodes":[],"categories_segments":[],"categories_sizes":[],"default_left":[0,0,0,0,0,0,0],"id":55,"left_children":[1,-1,3,5,-1,-1,-1],"loss_changes":[3.4501371E0,0E0,3.0399723E0,1.2616534E0,0E0,0E0,0E0],"parents":[2147483647,0,0,2,2,3,3],"right_children":[2,-1,4,6,-1,-1,-1],"split_conditions":[3.16E2,-2.1835836E-2,1.43E2,1.5105E4,-1.7270776E-2,6.9177665E-2,6.069967E-3],"split_indices":[9,0,14,2,0,0,0],"split_type":[0,0,0,0,0,0,0],"sum_hessian":[1.0642111E1,5.2689195E0,5.3731914E0,3.6106272E0,1.7625642E0,2.293939E0,1.3166881E0],"tree_param":{"num_deleted":"0","num_feature":"17","num_nodes":"7","size_leaf_vector":"1"}},{"base_weights":[7.742071E-3,-1.9000258E-1,5.022471E-1,-4.3988052E-1,1.0057042E-1,-2.0314978E-2,6.275543E-1,-5.3138226E-1,1.3820341E-1,-2.454344E-1,2.6383644E-1,6.3322196E-3,3.346137E-2,-3.030911E-2,-2.61903E-3,1.2679261E-2,-2.584894E-3,-2.5056986E-2,1.2684131E-2,-1.7756547E-1,5.3582364E-1,5.9310347E-2,-2.1878002E-2,3.8166686E-3,6.5881425E-1,-7.43724E-3,1.2062992E-2,3.7489872E-2,1.0390566E-2],"categories":[],"categories_nodes":[],"categories_segments":[],"categories_sizes":[],"default_left":[0,0,0,0,0,0,0,0,0,0,0,0,0,0,0,0,0,0,0,0,0,0,0,0,0,0,0,0,0],"id":56,"left_children":[1,3,5,7,9,-1,11,13,15,17,19,-1,-1,-1,-1,-1,-1,-1,-1,21,23,25,-1,-1,27,-1,-1,-1,-1],"loss_changes":[4.6922317E0,2.535131E0,1.8150046E0,1.0589249E0,1.0067607E0,0E0,1.7481947E-1,5.51949E-1,8.628364E-2,8.755331E-1,1.5131679E0,0E0,0E0,0E0,0E0,0E0,0E0,0E0,0E0,3.4954625E-1,3.767836E-1,1.7330274E-1,0E0,0E0,8.342433E-2,0E0,0E0,0E0,0E0],"parents":[2147483647,0,0,1,1,2,2,3,3,4,4,6,6,7,7,8,8,9,9,10,10,19,19,20,20,21,21,24,24],"right_children":[2,4,6,8,10,-1,12,14,16,18,20,-1,-1,-1,-1,-1,-1,-1,-1,22,24,26,-1,-1,28,-1,-1,-1,-1],"split_conditions":[1.08E2,1.8137E4,1.4975E4,3.6E2,1E0,-2.0314978E-2,6.57E2,3.94E2,4.21E2,3.79E0,1.65E2,6.3322196E-3,3.346137E-2,-3.030911E-2,-2.61903E-3,1.2679261E-2,-2.584894E-3,-2.5056986E-2,1.2684131E-2,2.081E3,1.168E3,3.16E0,-2.1878002E-2,3.8166686E-3,2.2E0,-7.43724E-3,1.2062992E-2,3.7489872E-2,1.0390566E-2],"split_indices":[11,2,2,15,8,0,12,9,15,10,15,0,0,0,0,0,0,0,0,0,0,10,0,0,8,0,0,0,0],"split_type":[0,0,0,0,0,0,0,0,0,0,0,0,0,0,0,0,0,0,0,0,0,0,0,0,0,0,0,0,0],"sum_hessian":[4.600894E1,3.3306126E1,1.2702814E1,1.7630745E1,1.5675381E1,1.2678401E0,1.1434974E1,1.5291176E1,2.33957E0,4.863991E0,1.081139E1,1.1884776E0,1.0246496E1,1.2996203E1,2.294972E0,1.2467229E0,1.0928471E0,3.2135746E0,1.650416E0,4.254314E0,6.5570765E0,2.6300275E0,1.6242865E0,1.7267227E0,4.8303537E0,1.3121303E0,1.3178973E0,3.468187E0,1.3621664E0],"tree_param":{"num_deleted":"0","num_feature":"17","num_nodes":"29","size_leaf_vector":"1"}},{"base_weights":[3.1087307E-2,2.5737634E-1,-3.4394795E-1,4.0143138E-1,-1.4206068E-1,-4.3042466E-1,2.0989146E-2,4.7595984E-1,-1.238818E-2,-4.333308E-1,2.306904E-2,-1.1004197E-1,-5.8916414E-1,-9.440604E-3,5.319831E-1,-1.6423452E-1,-3.3328768E-2,-3.2434347E-1,1.1425513E-2,-3.2590993E-2,-2.66396E-3,6.2828287E-3,2.7740661E-2,1.8292608E-2,-2.3999987E-2,4.813618E-3,-2.623717E-2],"categories":[],"categories_nodes":[],"categories_segments":[],"categories_sizes":[],"default_left":[0,0,0,0,0,0,0,0,0,0,0,0,0,0,0,0,0,0,0,0,0,0,0,0,0,0,0],"id":57,"left_children":[1,3,5,7,9,11,-1,13,-1,15,-1,17,19,-1,21,23,-1,25,-1,-1,-1,-1,-1,-1,-1,-1,-1],"loss_changes":[3.965263E0,1.7292877E0,1.344291E0,1.1639979E0,1.683674E0,7.651663E-1,0E0,8.354788E-1,0E0,2.8024602E-1,0E0,5.556269E-1,3.2397985E-1,0E0,1.0156822E-1,8.802837E-1,0E0,4.27932E-1,0E0,0E0,0E0,0E0,0E0,0E0,0E0,0E0,0E0],"parents":[2147483647,0,0,1,1,2,2,3,3,4,4,5,5,7,7,9,9,11,11,12,12,14,14,15,15,17,17],"right_children":[2,4,6,8,10,12,-1,14,-1,16,-1,18,20,-1,22,24,-1,26,-1,-1,-1,-1,-1,-1,-1,-1,-1],"split_conditions":[7.4E1,1.1E1,3.933E3,3.64E2,3.395E3,1E0,2.0989146E-2,2.8E0,-1.238818E-2,1.925E3,2.306904E-2,3.3E0,2.2704E2,-9.440604E-3,8.53E2,2.1E0,-3.3328768E-2,1.0075E2,1.1425513E-2,-3.2590993E-2,-2.66396E-3,6.2828287E-3,2.7740661E-2,1.8292608E-2,-2.3999987E-2,4.813618E-3,-2.623717E-2],"split_indices":[11,16,0,9,0,5,0,10,0,0,0,8,13,0,0,8,0,13,0,0,0,0,0,0,0,0,0],"split_type":[0,0,0,0,0,0,0,0,0,0,0,0,0,0,0,0,0,0,0,0,0,0,0,0,0,0,0],"sum_hessian":[4.4680504E1,2.8062101E1,1.6618402E1,2.0620445E1,7.4416566E0,1.5320134E1,1.2982694E0,1.8736336E1,1.8841101E0,5.2091813E0,2.2324753E0,5.6367493E0,9.683385E0,1.2720413E0,1.7464294E1,3.2099562E0,1.9992251E0,3.477489E0,2.1592603E0,8.476025E0,1.2073597E0,1.2750568E0,1.6189238E1,1.1390948E0,2.0708613E0,1.2898483E0,2.1876407E0],"tree_param":{"num_deleted":"0","num_feature":"17","num_nodes":"27","size_leaf_vector":"1"}},{"base_weights":[1.2356098E-2,-2.1772979E-2,4.4878763E-1,-8.056118E-2,7.649737E-1,1.0625326E-2,-1.5176661E-2,5.9367735E-2,2.4517946E-1,-1.3834412E-2,3.1923596E-2],"categories":[],"categories_nodes":[],"categories_segments":[],"categories_sizes":[],"default_left":[0,0,0,0,0,0,0,0,0,0,0],"id":58,"left_children":[1,-1,3,5,7,-1,-1,-1,9,-1,-1],"loss_changes":[2.4762847E0,0E0,1.1332715E0,2.8007984E-1,6.0986376E-1,0E0,0E0,0E0,8.129109E-1,0E0,0E0],"parents":[2147483647,0,0,2,2,3,3,4,4,8,8],"right_children":[2,-1,4,6,8,-1,-1,-1,10,-1,-1],"split_conditions":[3.1E2,-2.1772979E-2,2.97E2,2.01E2,3.22E2,1.0625326E-2,-1.5176661E-2,5.9367735E-2,3.79E0,-1.3834412E-2,3.1923596E-2],"split_indices":[9,0,15,15,15,0,0,0,10,0,0],"split_type":[0,0,0,0,0,0,0,0,0,0,0],"sum_hessian":[1.067031E1,5.2675676E0,5.4027424E0,2.299014E0,3.1037283E0,1.0136455E0,1.2853686E0,1.0037831E0,2.0999453E0,1.0298709E0,1.0700744E0],"tree_param":{"num_deleted":"0","num_feature":"17","num_nodes":"11","size_leaf_vector":"1"}},{"base_weights":[-6.0257014E-2,4.8203185E-1,-2.2633193E-1,-2.0755574E-2,3.2362133E-2,-2.847229E-2,-7.66936E-2,-2.9219598E-1,1.6734917E-1,-3.6654615E-1,1.1933965E-2,-2.2479994E-2,3.2459822E-1,1.1343076E-3,-4.5714748E-1,9.3635626E-2,3.1881083E-2,2.0230596E-3,-2.63736E-2,-1.3009827E-2,1.4378579E-2],"categories":[],"categories_nodes":[],"categories_segments":[],"categories_sizes":[],"default_left":[0,0,0,0,0,0,0,0,0,0,0,0,0,0,0,0,0,0,0,0,0],"id":59,"left_children":[1,3,5,-1,-1,-1,7,9,11,13,-1,-1,15,-1,17,19,-1,-1,-1,-1,-1],"loss_changes":[4.076285E0,1.8467553E0,1.7226884E0,0E0,0E0,0E0,1.3695474E0,6.28219E-1,1.3500572E0,4.480443E-1,0E0,0E0,6.973487E-1,0E0,3.7530255E-1,5.687355E-1,0E0,0E0,0E0,0E0,0E0],"parents":[2147483647,0,0,1,1,2,2,6,6,7,7,8,8,9,9,12,12,14,14,15,15],"right_children":[2,4,6,-1,-1,-1,8,10,12,14,-1,-1,16,-1,18,20,-1,-1,-1,-1,-1],"split_conditions":[9.01E2,1.5105E4,1E0,-2.0755574E-2,3.2362133E-2,-2.847229E-2,1.7889E4,5.89E3,1.2E2,1.51E2,1.1933965E-2,-2.2479994E-2,1.2555E2,1.1343076E-3,9.1E1,1.42E3,3.1881083E-2,2.0230596E-3,-2.63736E-2,-1.3009827E-2,1.4378579E-2],"split_indices":[0,2,8,0,0,0,2,12,15,15,0,0,13,0,13,0,0,0,0,0,0],"split_type":[0,0,0,0,0,0,0,0,0,0,0,0,0,0,0,0,0,0,0,0,0],"sum_hessian":[4.3050186E1,9.64702E0,3.3403168E1,1.2650125E0,8.382008E0,9.291865E0,2.4111303E1,1.2699592E1,1.1411711E1,1.1411001E1,1.2885907E0,1.9402397E0,9.471471E0,2.2961438E0,9.114858E0,6.19768E0,3.2737906E0,1.181233E0,7.9336247E0,2.0733087E0,4.1243715E0],"tree_param":{"num_deleted":"0","num_feature":"17","num_nodes":"21","size_leaf_vector":"1"}},{"base_weights":[-8.0959145E-3,4.9505818E-1,-2.0067723E-1,2.9948244E-2,8.546034E-2,-2.7225983E-1,2.519303E-2,-1.3576895E-2,1.9433348E-2,-6.892783E-2,-4.903534E-1,2.0025772E-1,-3.866284E-1,7.6448456E-3,-5.6759983E-1,4.9742556E-1,-3.0329335E-1,3.6339879E-3,-4.8533076E-1,-3.8190605E-4,-6.2311935E-1,6.113239E-3,2.7596155E-2,-2.929085E-2,8.8470215E-3,-2.7805809E-2,-5.467368E-3,-6.441967E-3,-3.331264E-2],"categories":[],"categories_nodes":[],"categories_segments":[],"categories_sizes":[],"default_left":[0,0,0,0,0,0,0,0,0,0,0,0,0,0,0,0,0,0,0,0,0,0,0,0,0,0,0,0,0],"id":60,"left_children":[1,3,5,-1,7,9,-1,-1,-1,11,13,15,17,-1,19,21,23,-1,25,-1,27,-1,-1,-1,-1,-1,-1,-1,-1],"loss_changes":[4.4981055E0,4.9588203E-1,1.8287741E0,0E0,5.133401E-1,1.3452213E0,0E0,0E0,0E0,1.5532352E0,8.241873E-1,1.647326E0,4.0957415E-1,0E0,4.137435E-1,6.8844676E-2,6.9149816E-1,0E0,1.2352526E-1,0E0,1.7500782E-1,0E0,0E0,0E0,0E0,0E0,0E0,0E0,0E0],"parents":[2147483647,0,0,1,1,2,2,4,4,5,5,9,9,10,10,11,11,12,12,14,14,15,15,16,16,18,18,20,20],"right_children":[2,4,6,-1,8,10,-1,-1,-1,12,14,16,18,-1,20,22,24,-1,26,-1,28,-1,-1,-1,-1,-1,-1,-1,-1],"split_conditions":[1E0,1.09E2,3.933E3,2.9948244E-2,2.468E3,7.4E1,2.519303E-2,-1.3576895E-2,1.9433348E-2,1.9358E4,1.2369E4,3.15E2,2.8E2,7.6448456E-3,7.6E1,1.095E3,1.3514E4,3.6339879E-3,2.3741E4,-3.8190605E-4,1.0449E2,6.113239E-3,2.7596155E-2,-2.929085E-2,8.8470215E-3,-2.7805809E-2,-5.467368E-3,-6.441967E-3,-3.331264E-2],"split_indices":[8,14,0,0,0,11,0,0,0,2,2,9,9,0,14,0,2,0,2,0,13,0,0,0,0,0,0,0,0],"split_type":[0,0,0,0,0,0,0,0,0,0,0,0,0,0,0,0,0,0,0,0,0,0,0,0,0,0,0,0,0],"sum_hessian":[4.4395725E1,1.1854091E1,3.2541634E1,9.086662E0,2.7674274E0,3.009725E1,2.4443843E0,1.3189406E0,1.4484869E0,1.6256817E1,1.3840433E1,9.000457E0,7.2563605E0,1.3788729E0,1.246156E1,5.6678004E0,3.3326561E0,1.3301586E0,5.9262023E0,1.2267109E0,1.123485E1,1.1303015E0,4.537499E0,1.9598247E0,1.3728315E0,4.584073E0,1.3421292E0,1.221723E0,1.0013126E1],"tree_param":{"num_deleted":"0","num_feature":"17","num_nodes":"29","size_leaf_vector":"1"}},{"base_weights":[7.378348E-2,-2.1594757E-2,4.9901506E-1,7.108255E-1,-1.4306026E-2,2.4142903E-3,9.46152E-1,5.5393796E-2,1.0943345E-2],"categories":[],"categories_nodes":[],"categories_segments":[],"categories_sizes":[],"default_left":[0,0,0,0,0,0,0,0,0],"id":61,"left_children":[1,-1,3,5,-1,-1,7,-1,-1],"loss_changes":[2.8079505E0,0E0,1.3696308E0,8.601632E-1,0E0,0E0,2.5545526E-1,0E0,0E0],"parents":[2147483647,0,0,2,2,3,3,6,6],"right_children":[2,-1,4,6,-1,-1,8,-1,-1],"split_conditions":[3.1E2,-2.1594757E-2,1.7889E4,2E0,-1.4306026E-2,2.4142903E-3,1.5105E4,5.5393796E-2,1.0943345E-2],"split_indices":[9,0,2,8,0,0,2,0,0],"split_type":[0,0,0,0,0,0,0,0,0],"sum_hessian":[1.1056094E1,5.043168E0,6.0129256E0,4.8099613E0,1.2029643E0,1.5765417E0,3.2334197E0,2.2171056E0,1.016314E0],"tree_param":{"num_deleted":"0","num_feature":"17","num_nodes":"9","size_leaf_vector":"1"}},{"base_weights":[1.27072185E-2,-1.6945598E-1,5.272684E-1,-4.2817155E-1,-2.642818E-2,2.1812089E-1,3.0587448E-2,-2.8233204E-2,4.872383E-3,-2.7515304E-1,1.6349177E-1,2.1797111E-2,-2.5130918E-3,-5.009536E-1,1.766822E-2,-1.9619659E-2,2.6616588E-1,-2.324396E-4,-2.9687757E-2,-1.6237687E-2,3.5274434E-1,-6.09861E-3,2.257949E-2],"categories":[],"categories_nodes":[],"categories_segments":[],"categories_sizes":[],"default_left":[0,0,0,0,0,0,0,0,0,0,0,0,0,0,0,0,0,0,0,0,0,0,0],"id":62,"left_children":[1,3,5,7,9,11,-1,-1,-1,13,15,-1,-1,17,-1,-1,19,-1,-1,-1,21,-1,-1],"loss_changes":[4.140135E0,1.197717E0,1.6801333E-1,8.84845E-1,1.0892671E0,2.5758076E-1,0E0,0E0,0E0,1.5883164E0,8.556949E-1,0E0,0E0,3.532493E-1,0E0,0E0,7.134582E-1,0E0,0E0,0E0,5.5667746E-1,0E0,0E0],"parents":[2147483647,0,0,1,1,2,2,3,3,4,4,5,5,9,9,10,10,13,13,16,16,20,20],"right_children":[2,4,6,8,10,12,-1,-1,-1,14,16,-1,-1,18,-1,-1,20,-1,-1,-1,22,-1,-1],"split_conditions":[1.07E2,1E0,1E0,1.1E1,3.47E0,1E0,3.0587448E-2,-2.8233204E-2,4.872383E-3,6.3E0,2.59E2,2.1797111E-2,-2.5130918E-3,2.48E2,1.766822E-2,-1.9619659E-2,9.9E0,-2.324396E-4,-2.9687757E-2,-1.6237687E-2,3.9E1,-6.09861E-3,2.257949E-2],"split_indices":[11,8,5,16,10,1,0,0,0,8,9,0,0,9,0,0,16,0,0,0,11,0,0],"split_type":[0,0,0,0,0,0,0,0,0,0,0,0,0,0,0,0,0,0,0,0,0,0,0],"sum_hessian":[4.2215702E1,3.1673454E1,1.0542249E1,1.0566548E1,2.1106907E1,3.0313292E0,7.51092E0,8.329313E0,2.2372348E0,8.944343E0,1.2162563E1,1.3286537E0,1.7026756E0,6.729624E0,2.2147186E0,1.4563025E0,1.0706261E1,1.225533E0,5.504091E0,1.0166178E0,9.689643E0,1.6295538E0,8.060089E0],"tree_param":{"num_deleted":"0","num_feature":"17","num_nodes":"23","size_leaf_vector":"1"}},{"base_weights":[3.831878E-2,2.5190893E-1,-3.4345582E-1,3.381325E-1,-2.2412816E-1,4.3022852E-2,-5.5435383E-1,4.9888602E-1,8.72681E-2,5.3323535E-3,-2.6123827E-2,-1.8349076E-2,3.3326086E-1,-3.0679682E-2,-2.4084016E-3,5.4106677E-1,9.259192E-4,3.4708557E-1,-2.3587953E-1,2.759255E-2,-6.98986E-3,2.9602876E-2,5.0219116E-3,-1.30063E-2,2.7793113E-2,1.3734709E-1,-3.082466E-2,2.088516E-2,-1.0007943E-2],"categories":[],"categories_nodes":[],"categories_segments":[],"categories_sizes":[],"default_left":[0,0,0,0,0,0,0,0,0,0,0,0,0,0,0,0,0,0,0,0,0,0,0,0,0,0,0,0,0],"id":63,"left_children":[1,3,5,7,9,11,13,15,17,-1,-1,-1,19,-1,-1,21,-1,23,25,-1,-1,-1,-1,-1,-1,27,-1,-1,-1],"loss_changes":[3.7632499E0,1.2862273E0,1.3768051E0,9.794235E-1,5.613639E-1,9.300817E-1,2.9462695E-1,2.9893517E-1,1.0153841E0,0E0,0E0,0E0,5.423343E-1,0E0,0E0,2.5467157E-1,0E0,9.772136E-1,8.731878E-1,0E0,0E0,0E0,0E0,0E0,0E0,4.2617413E-1,0E0,0E0,0E0],"parents":[2147483647,0,0,1,1,2,2,3,3,4,4,5,5,6,6,7,7,8,8,12,12,15,15,17,17,18,18,25,25],"right_children":[2,4,6,8,10,12,14,16,18,-1,-1,-1,20,-1,-1,22,-1,24,26,-1,-1,-1,-1,-1,-1,28,-1,-1,-1],"split_conditions":[2.3E0,3.64E2,1.05E1,1.9379E4,1E0,1.103E3,5.58E2,2.1E0,1.05E1,5.3323535E-3,-2.6123827E-2,-1.8349076E-2,1.666E3,-3.0679682E-2,-2.4084016E-3,7.4E1,9.259192E-4,2.0459E4,2.21E2,2.759255E-2,-6.98986E-3,2.9602876E-2,5.0219116E-3,-1.30063E-2,2.7793113E-2,2.0834E4,-3.082466E-2,2.088516E-2,-1.0007943E-2],"split_indices":[8,9,16,2,1,0,9,8,16,0,0,0,0,0,0,11,0,2,15,0,0,0,0,0,0,2,0,0,0],"split_type":[0,0,0,0,0,0,0,0,0,0,0,0,0,0,0,0,0,0,0,0,0,0,0,0,0,0,0,0,0],"sum_hessian":[4.4089302E1,2.849017E1,1.5599134E1,2.4366425E1,4.123746E0,5.7881417E0,9.810992E0,1.4247792E1,1.0118632E1,2.26031E0,1.8634359E0,2.2894862E0,3.4986556E0,8.593132E0,1.2178608E0,1.2981533E1,1.2662588E0,5.56787E0,