{"learner":{"attributes":{},"feature_names":["feature_1","feature_2","feature_3","feature_4","feature_5","feature_6","feature_7","feature_8","feature_9","feature_10","feature_11","feature_12","feature_13","feature_14","feature_15","feature_16","feature_17","feature_18","feature_19","feature_20","feature_21","feature_22","feature_23","feature_24","feature_25","feature_26","feature_27","feature_28","feature_29","feature_30"],"feature_types":["float","float","float","float","float","float","float","float","float","float","float","float","float","float","float","float","float","float","float","float","float","float","float","float","float","float","float","float","float","float"],"gradient_booster":{"model":{"cats":{"enc":[],"feature_segments":[],"sorted_idx":[]},"gbtree_model_param":{"num_parallel_tree":"1","num_trees":"200"},"iteration_indptr":[0,1,2,3,4,5,6,7,8,9,10,11,12,13,14,15,16,17,18,19,20,21,22,23,24,25,26,27,28,29,30,31,32,33,34,35,36,37,38,39,40,41,42,43,44,45,46,47,48,49,50,51,52,53,54,55,56,57,58,59,60,61,62,63,64,65,66,67,68,69,70,71,72,73,74,75,76,77,78,79,80,81,82,83,84,85,86,87,88,89,90,91,92,93,94,95,96,97,98,99,100,101,102,103,104,105,106,107,108,109,110,111,112,113,114,115,116,117,118,119,120,121,122,123,124,125,126,127,128,129,130,131,132,133,134,135,136,137,138,139,140,141,142,143,144,145,146,147,148,149,150,151,152,153,154,155,156,157,158,159,160,161,162,163,164,165,166,167,168,169,170,171,172,173,174,175,176,177,178,179,180,181,182,183,184,185,186,187,188,189,190,191,192,193,194,195,196,197,198,199,200],"tree_info":[0,0,0,0,0,0,0,0,0,0,0,0,0,0,0,0,0,0,0,0,0,0,0,0,0,0,0,0,0,0,0,0,0,0,0,0,0,0,0,0,0,0,0,0,0,0,0,0,0,0,0,0,0,0,0,0,0,0,0,0,0,0,0,0,0,0,0,0,0,0,0,0,0,0,0,0,0,0,0,0,0,0,0,0,0,0,0,0,0,0,0,0,0,0,0,0,0,0,0,0,0,0,0,0,0,0,0,0,0,0,0,0,0,0,0,0,0,0,0,0,0,0,0,0,0,0,0,0,0,0,0,0,0,0,0,0,0,0,0,0,0,0,0,0,0,0,0,0,0,0,0,0,0,0,0,0,0,0,0,0,0,0,0,0,0,0,0,0,0,0,0,0,0,0,0,0,0,0,0,0,0,0,0,0,0,0,0,0,0,0,0,0,0,0,0,0,0,0,0,0],"trees":[{"base_weights":[-6.1960574E-2,-1.402942E0,2.037852E0,-1.5261788E0,2.3641866E-2,3.1709334E-1,1.1710334E-1,-2.1970218E-2,-7.836836E-2,-2.1970218E-2,4.6447907E-2],"categories":[],"categories_nodes":[],"categories_segments":[],"categories_sizes":[],"default_left":[0,0,0,0,0,0,0,0,0,0,0],"id":0,"left_children":[1,3,5,7,-1,9,-1,-1,-1,-1,-1],"loss_changes":[1.0707358E2,6.079731E0,7.02153E0,2.9545593E-1,0E0,1.9749268E0,0E0,0E0,0E0,0E0,0E0],"parents":[2147483647,0,0,1,1,2,2,3,3,5,5],"right_children":[2,4,6,8,-1,10,-1,-1,-1,-1,-1],"split_conditions":[1.312E-1,7.932E2,1.02E-1,3.741E-3,2.3641866E-2,1.374E1,1.1710334E-1,-2.1970218E-2,-7.836836E-2,-2.1970218E-2,4.6447907E-2],"split_indices":[27,3,6,14,0,0,0,0,0,0,0],"split_type":[0,0,0,0,0,0,0,0,0,0,0],"sum_hessian":[3.6010525E1,2.2178667E1,1.3831858E1,2.0986267E1,1.1924015E0,2.384803E0,1.1447054E1,1.1924015E0,1.9793865E1,1.1924015E0,1.1924015E0],"tree_param":{"num_deleted":"0","num_feature":"30","num_nodes":"11","size_leaf_vector":"1"}},{"base_weights":[6.34355E-2,-1.1937726E0,1.07508354E-1,-1.351526E0,4.6412144E-2,-7.572109E-2,-3.40368E-1,4.6191435E-2,-5.579379E-2],"categories":[],"categories_nodes":[],"categories_segments":[],"categories_sizes":[],"default_left":[0,0,0,0,0,0,0,0,0],"id":1,"left_children":[1,3,-1,5,-1,-1,7,-1,-1],"loss_changes":[9.698292E1,8.987896E0,0E0,3.0934258E0,0E0,0E0,5.2758455E0,0E0,0E0],"parents":[2147483647,0,0,1,1,3,3,6,6],"right_children":[2,4,-1,6,-1,-1,8,-1,-1],"split_conditions":[1.425E-1,4.368E1,1.07508354E-1,1.108E-1,4.6412144E-2,-7.572109E-2,1.528E-2,4.6191435E-2,-5.579379E-2],"split_indices":[27,13,0,27,0,0,18,0,0],"split_type":[0,0,0,0,0,0,0,0,0],"sum_hessian":[3.4989212E1,2.2101492E1,1.288772E1,2.0910099E1,1.1913912E0,1.7580242E1,3.3298576E0,1.1933148E0,2.1365428E0],"tree_param":{"num_deleted":"0","num_feature":"30","num_nodes":"9","size_leaf_vector":"1"}},{"base_weights":[4.6132684E-2,-1.1439316E0,1.04237475E-1,-1.3698756E0,5.8779508E-2,-7.406894E-2,-6.0056365E-1,2.2742491E-2,-5.5807274E-2],"categories":[],"categories_nodes":[],"categories_segments":[],"categories_sizes":[],"default_left":[0,0,0,0,0,0,0,0,0],"id":2,"left_children":[1,3,-1,5,-1,-1,7,-1,-1],"loss_changes":[9.2808624E1,1.4282307E1,0E0,1.0399628E0,0E0,0E0,2.9723995E0,0E0,0E0],"parents":[2147483647,0,0,1,1,3,3,6,6],"right_children":[2,4,-1,6,-1,-1,8,-1,-1],"split_conditions":[1.459E-1,1.773E1,1.04237475E-1,1.023E2,5.8779508E-2,-7.406894E-2,1.459E1,2.2742491E-2,-5.5807274E-2],"split_indices":[27,20,0,22,0,0,0,0,0],"split_type":[0,0,0,0,0,0,0,0,0],"sum_hessian":[3.6271496E1,2.3179235E1,1.3092258E1,2.1494844E1,1.6843911E0,1.7965372E1,3.5294726E0,1.1969888E0,2.3324838E0],"tree_param":{"num_deleted":"0","num_feature":"30","num_nodes":"9","size_leaf_vector":"1"}},{"base_weights":[4.893917E-2,-1.1721438E0,1.7897396E0,-1.325891E0,4.4267472E-2,-2.157561E-2,9.968444E-2,-7.2410725E-2,-2.0838794E-1,2.3677398E-2,-4.055698E-2],"categories":[],"categories_nodes":[],"categories_segments":[],"categories_sizes":[],"default_left":[0,0,0,0,0,0,0,0,0,0,0],"id":3,"left_children":[1,3,5,7,-1,-1,-1,-1,9,-1,-1],"loss_changes":[8.313506E1,8.452909E0,8.1596985E0,2.6797218E0,0E0,0E0,0E0,0E0,1.7487596E0,0E0,0E0],"parents":[2147483647,0,0,1,1,2,2,3,3,8,8],"right_children":[2,4,6,8,-1,-1,-1,-1,10,-1,-1],"split_conditions":[5.596E-2,3.646E1,1.534E1,7.879E2,4.4267472E-2,-2.157561E-2,9.968444E-2,-7.2410725E-2,1.526E-2,2.3677398E-2,-4.055698E-2],"split_indices":[7,13,1,23,0,0,0,0,18,0,0],"split_type":[0,0,0,0,0,0,0,0,0,0,0],"sum_hessian":[3.7123295E1,2.2010624E1,1.5112671E1,2.0811087E1,1.1995382E0,1.1770787E0,1.3935592E1,1.8491087E1,2.32E0,1.1890732E0,1.1309266E0],"tree_param":{"num_deleted":"0","num_feature":"30","num_nodes":"11","size_leaf_vector":"1"}},{"base_weights":[-1.07165165E-1,-1.1429255E0,9.042589E-2,-1.3177179E0,6.304172E-2,-1.5940858E-2,-1.3521496E0,-1.7156458E-2,-1.3884598E0,-7.115763E-2,-2.0929305E-2],"categories":[],"categories_nodes":[],"categories_segments":[],"categories_sizes":[],"default_left":[0,0,0,0,0,0,0,0,0,0,0],"id":4,"left_children":[1,3,-1,5,-1,-1,7,-1,9,-1,-1],"loss_changes":[7.754961E1,1.2293373E1,0E0,3.9705658E-1,0E0,0E0,3.6504745E-1,0E0,1.3919449E-1,0E0,0E0],"parents":[2147483647,0,0,1,1,3,3,6,6,8,8],"right_children":[2,4,-1,6,-1,-1,8,-1,10,-1,-1],"split_conditions":[1.459E-1,1.177E2,9.042589E-2,2.06E-1,6.304172E-2,-1.5940858E-2,1.514E-3,-1.7156458E-2,5.596E-2,-7.115763E-2,-2.0929305E-2],"split_indices":[27,22,0,28,0,0,19,0,7,0,0],"split_type":[0,0,0,0,0,0,0,0,0,0,0],"sum_hessian":[3.7042057E1,2.4304583E1,1.2737475E1,2.307823E1,1.2263527E0,1.1108458E0,2.1967384E1,1.1260337E0,2.084135E1,1.9670378E1,1.1709737E0],"tree_param":{"num_deleted":"0","num_feature":"30","num_nodes":"11","size_leaf_vector":"1"}},{"base_weights":[-5.173677E-2,-1.0214691E0,8.66059E-2,-1.2719196E0,6.858107E-2,-1.5063857E-2,-1.308319E0,-5.682107E-1,-6.9293596E-2,-4.547352E-2,5.2294466E-3],"categories":[],"categories_nodes":[],"categories_segments":[],"categories_sizes":[],"default_left":[0,0,0,0,0,0,0,0,0,0,0],"id":5,"left_children":[1,3,-1,5,-1,-1,7,9,-1,-1,-1],"loss_changes":[6.3596684E1,1.5999102E1,0E0,3.8484192E-1,0E0,0E0,4.1516876E-1,9.4055843E-1,0E0,0E0,0E0],"parents":[2147483647,0,0,1,1,3,3,6,6,7,7],"right_children":[2,4,-1,6,-1,-1,8,10,-1,-1,-1],"split_conditions":[1.043E-1,1.177E2,8.66059E-2,2.16E-1,6.858107E-2,-1.5063857E-2,1.386E-2,5.592E2,-6.9293596E-2,-4.547352E-2,5.2294466E-3],"split_indices":[6,22,0,28,0,0,18,3,0,0,0],"split_type":[0,0,0,0,0,0,0,0,0,0,0],"sum_hessian":[3.4741226E1,2.2783258E1,1.1957967E1,2.1048878E1,1.7343811E0,1.096125E0,1.9952751E1,2.6822307E0,1.7270521E1,1.5461947E0,1.136036E0],"tree_param":{"num_deleted":"0","num_feature":"30","num_nodes":"11","size_leaf_vector":"1"}},{"base_weights":[4.1609805E-2,-1.1268619E0,8.426625E-2,-1.2790905E0,3.9189693E-2,-6.785115E-2,-1.1346717E-2],"categories":[],"categories_nodes":[],"categories_segments":[],"categories_sizes":[],"default_left":[0,0,0,0,0,0,0],"id":6,"left_children":[1,3,-1,5,-1,-1,-1],"loss_changes":[7.125808E1,7.3161488E0,0E0,1.3717651E0,0E0,0E0,0E0],"parents":[2147483647,0,0,1,1,3,3],"right_children":[2,4,-1,6,-1,-1,-1],"split_conditions":[1.459E-1,9.714E2,8.426625E-2,1.362E-1,3.9189693E-2,-6.785115E-2,-1.1346717E-2],"split_indices":[27,23,0,27,0,0,0],"split_type":[0,0,0,0,0,0,0],"sum_hessian":[3.5112514E1,2.0706955E1,1.4405561E1,1.9485062E1,1.2218931E0,1.7871572E1,1.6134899E0],"tree_param":{"num_deleted":"0","num_feature":"30","num_nodes":"7","size_leaf_vector":"1"}},{"base_weights":[-3.964684E-2,-1.0518048E0,1.5184382E0,-6.639017E-2,4.3571055E-1,-2.588922E-3,8.3535306E-2,-1.2413111E-2,5.4151017E-2],"categories":[],"categories_nodes":[],"categories_segments":[],"categories_sizes":[],"default_left":[0,0,0,0,0,0,0,0,0],"id":7,"left_children":[1,3,5,-1,7,-1,-1,-1,-1],"loss_changes":[5.4073612E1,9.102621E0,3.3173943E0,0E0,2.0408869E0,0E0,0E0,0E0,0E0],"parents":[2147483647,0,0,1,1,2,2,4,4],"right_children":[2,4,6,-1,8,-1,-1,-1,-1],"split_conditions":[5.588E-2,1.565E1,1.556E1,-6.639017E-2,1.345E-1,-2.588922E-3,8.3535306E-2,-1.2413111E-2,5.4151017E-2],"split_indices":[7,20,1,0,24,0,0,0,0],"split_type":[0,0,0,0,0,0,0,0,0],"sum_hessian":[3.227557E1,1.9762476E1,1.2513095E1,1.6760115E1,3.0023603E0,1.1644984E0,1.1348597E1,1.759585E0,1.2427753E0],"tree_param":{"num_deleted":"0","num_feature":"30","num_nodes":"9","size_leaf_vector":"1"}},{"base_weights":[-7.5984664E-2,-1.1134781E0,1.4709021E0,-1.2198356E0,1.6553758E-2,-2.609185E-3,8.067172E-2,-1.2436054E-2,-1.2614638E0,-6.50919E-2,-1.4788262E-2],"categories":[],"categories_nodes":[],"categories_segments":[],"categories_sizes":[],"default_left":[0,0,0,0,0,0,0,0,0,0,0],"id":8,"left_children":[1,3,5,7,-1,-1,-1,-1,9,-1,-1],"loss_changes":[5.5381725E1,3.5708656E0,3.0961742E0,4.7104073E-1,0E0,0E0,0E0,0E0,3.3117867E-1,0E0,0E0],"parents":[2147483647,0,0,1,1,2,2,3,3,8,8],"right_children":[2,4,6,8,-1,-1,-1,-1,10,-1,-1],"split_conditions":[5.596E-2,1.141E2,1.565E1,1.533E-3,1.6553758E-2,-2.609185E-3,8.067172E-2,-1.2436054E-2,9.964E-2,-6.50919E-2,-1.4788262E-2],"split_indices":[7,22,1,19,0,0,0,0,29,0,0],"split_type":[0,0,0,0,0,0,0,0,0,0,0],"sum_hessian":[3.2487705E1,1.9613295E1,1.2874411E1,1.8413158E1,1.2001374E0,1.1559486E0,1.1718462E1,1.0435574E0,1.73696E1,1.633844E1,1.03116E0],"tree_param":{"num_deleted":"0","num_feature":"30","num_nodes":"11","size_leaf_vector":"1"}},{"base_weights":[8.318313E-3,-1.0385494E0,7.5142235E-2,-1.1529285E0,2.302186E-2,-6.365919E-2,-2.9015988E-1,-4.1544452E-2,2.2495639E-2],"categories":[],"categories_nodes":[],"categories_segments":[],"categories_sizes":[],"default_left":[0,0,0,0,0,0,0,0,0],"id":9,"left_children":[1,3,-1,5,-1,-1,7,-1,-1],"loss_changes":[5.3155415E1,3.9571896E0,0E0,1.5865955E0,0E0,0E0,1.8150606E0,0E0,0E0],"parents":[2147483647,0,0,1,1,3,3,6,6],"right_children":[2,4,-1,6,-1,-1,8,-1,-1],"split_conditions":[1.459E-1,3.503E1,7.5142235E-2,1.252E-1,2.302186E-2,-6.365919E-2,1.374E1,-4.1544452E-2,2.2495639E-2],"split_indices":[27,13,0,27,0,0,0,0,0],"split_type":[0,0,0,0,0,0,0,0,0],"sum_hessian":[3.197685E1,1.8984158E1,1.2992694E1,1.7852776E1,1.1313809E0,1.5251304E1,2.601472E0,1.432276E0,1.1691959E0],"tree_param":{"num_deleted":"0","num_feature":"30","num_nodes":"9","size_leaf_vector":"1"}},{"base_weights":[-4.3787867E-2,-1.0600547E0,1.2914675E0,-1.204805E0,-1.7720833E-1,-2.0908413E-2,1.4510437E0,-6.28091E-2,-1.3091842E-2,-4.5663442E-2,4.301069E-2,2.9659862E-2,7.662146E-2],"categories":[],"categories_nodes":[],"categories_segments":[],"categories_sizes":[],"default_left":[0,0,0,0,0,0,0,0,0,0,0,0,0],"id":10,"left_children":[1,3,5,7,9,-1,11,-1,-1,-1,-1,-1,-1],"loss_changes":[4.8243088E1,2.3632545E0,4.8025455E0,5.0198746E-1,3.84977E0,0E0,8.864975E-2,0E0,0E0,0E0,0E0,0E0,0E0],"parents":[2147483647,0,0,1,1,2,2,3,3,4,4,6,6],"right_children":[2,4,6,8,10,-1,12,-1,-1,-1,-1,-1,-1],"split_conditions":[5.069E-2,7.594E2,2.606E-1,2.105E0,2.779E-1,-2.0908413E-2,8.124E2,-6.28091E-2,-1.3091842E-2,-4.5663442E-2,4.301069E-2,2.9659862E-2,7.662146E-2],"split_indices":[7,23,26,11,28,0,23,0,0,0,0,0,0],"split_type":[0,0,0,0,0,0,0,0,0,0,0,0,0],"sum_hessian":[3.3543034E1,1.9163635E1,1.4379396E1,1.6150877E1,3.012758E0,1.0892383E0,1.3290158E1,1.5001381E1,1.1494967E0,1.8323579E0,1.1804E0,1.8698334E0,1.1420325E1],"tree_param":{"num_deleted":"0","num_feature":"30","num_nodes":"13","size_leaf_vector":"1"}},{"base_weights":[-6.9585696E-2,-9.210895E-1,7.283498E-2,-1.1251607E0,3.7867613E-2,-1.1976312E0,-4.315224E-3,-1.405489E-2,-6.2197607E-2],"categories":[],"categories_nodes":[],"categories_segments":[],"categories_sizes":[],"default_left":[0,0,0,0,0,0,0,0,0],"id":11,"left_children":[1,3,-1,5,-1,7,-1,-1,-1],"loss_changes":[4.3278004E1,8.156414E0,0E0,1.3583736E0,0E0,4.1756248E-1,0E0,0E0,0E0],"parents":[2147483647,0,0,1,1,3,3,5,5],"right_children":[2,4,-1,6,-1,8,-1,-1,-1],"split_conditions":[1.459E-1,4.009E1,7.283498E-2,1.362E-1,3.7867613E-2,1.575E-3,-4.315224E-3,-1.405489E-2,-6.2197607E-2],"split_indices":[27,13,0,27,0,19,0,0,0],"split_type":[0,0,0,0,0,0,0,0,0],"sum_hessian":[3.126765E1,2.0324995E1,1.0942656E1,1.8415598E1,1.9093972E0,1.707183E1,1.3437655E0,1.1613408E0,1.5910491E1],"tree_param":{"num_deleted":"0","num_feature":"30","num_nodes":"9","size_leaf_vector":"1"}},{"base_weights":[9.655348E-2,-9.023653E-1,1.3945096E0,-1.0540209E0,3.963889E-2,2.1942804E-2,7.207674E-2,-6.070986E-2,-2.4590681E-1,-4.1213654E-2,1.823895E-2],"categories":[],"categories_nodes":[],"categories_segments":[],"categories_sizes":[],"default_left":[0,0,0,0,0,0,0,0,0,0,0],"id":12,"left_children":[1,3,5,7,-1,-1,-1,-1,9,-1,-1],"loss_changes":[4.5323895E1,5.92906E0,4.9282074E-2,2.110981E0,0E0,0E0,0E0,0E0,1.8312047E0,0E0,0E0],"parents":[2147483647,0,0,1,1,2,2,3,3,8,8],"right_children":[2,4,6,8,-1,-1,-1,-1,10,-1,-1],"split_conditions":[1.459E-1,4.009E1,1.584E-1,1.108E-1,3.963889E-2,2.1942804E-2,7.207674E-2,-6.070986E-2,7.259E2,-4.1213654E-2,1.823895E-2],"split_indices":[27,13,8,27,0,0,0,0,23,0,0],"split_type":[0,0,0,0,0,0,0,0,0,0,0],"sum_hessian":[3.2986694E1,1.8812895E1,1.4173797E1,1.7615171E1,1.1977249E0,1.1493281E0,1.3024468E1,1.4281856E1,3.3333151E0,1.5323309E0,1.8009843E0],"tree_param":{"num_deleted":"0","num_feature":"30","num_nodes":"11","size_leaf_vector":"1"}},{"base_weights":[-1.9781996E-2,-1.0089285E0,1.1568198E0,-1.094277E0,8.199976E-3,2.4288793E-1,6.734E-2,-5.9355464E-2,-1.2503627E-2,-2.4565727E-2,4.3380734E-2],"categories":[],"categories_nodes":[],"categories_segments":[],"categories_sizes":[],"default_left":[0,0,0,0,0,0,0,0,0,0,0],"id":13,"left_children":[1,3,5,7,-1,9,-1,-1,-1,-1,-1],"loss_changes":[3.626051E1,1.8728561E0,2.1449318E0,9.491062E-1,0E0,2.1097353E0,0E0,0E0,0E0,0E0,0E0],"parents":[2147483647,0,0,1,1,2,2,3,3,5,5],"right_children":[2,4,6,8,-1,10,-1,-1,-1,-1,-1],"split_conditions":[4.951E-2,3.444E1,8.124E2,7.836E2,8.199976E-3,9.288E-2,6.734E-2,-5.9355464E-2,-1.2503627E-2,-2.4565727E-2,4.3380734E-2],"split_indices":[7,13,23,23,0,29,0,0,0,0,0],"split_type":[0,0,0,0,0,0,0,0,0,0,0],"sum_hessian":[2.91533E1,1.5915745E1,1.3237555E1,1.4898692E1,1.0170529E0,2.6702685E0,1.0567286E1,1.3056733E1,1.841959E0,1.32575E0,1.3445187E0],"tree_param":{"num_deleted":"0","num_feature":"30","num_nodes":"11","size_leaf_vector":"1"}},{"base_weights":[1.8411117E-2,-8.265169E-1,1.3087649E0,-1.0373238E0,5.3729217E-2,2.0004122E-2,6.8034016E-2,-1.115985E0,6.852129E-3,-1.2393772E-2,-1.1610144E0,-5.9898872E-2,-1.6232913E-2],"categories":[],"categories_nodes":[],"categories_segments":[],"categories_sizes":[],"default_left":[0,0,0,0,0,0,0,0,0,0,0,0,0],"id":14,"left_children":[1,3,5,7,-1,-1,-1,9,-1,-1,11,-1,-1],"loss_changes":[3.5449978E1,8.99469E0,6.2318802E-2,1.8349895E0,0E0,0E0,0E0,3.8358688E-1,0E0,0E0,1.0743904E-1,0E0,0E0],"parents":[2147483647,0,0,1,1,2,2,3,3,7,7,10,10],"right_children":[2,4,6,8,-1,-1,-1,10,-1,-1,12,-1,-1],"split_conditions":[1.459E-1,1.177E2,2.432E1,5.19E-1,5.3729217E-2,2.0004122E-2,6.8034016E-2,3.796E-3,6.852129E-3,-1.2393772E-2,9.954E-2,-5.9898872E-2,-1.6232913E-2],"split_indices":[27,22,13,10,0,0,0,14,0,0,6,0,0],"split_type":[0,0,0,0,0,0,0,0,0,0,0,0,0],"sum_hessian":[3.0523111E1,1.8662384E1,1.1860727E1,1.7208542E1,1.4538425E0,1.11155E0,1.0749177E1,1.6174835E1,1.0337064E0,1.1183925E0,1.5056442E1,1.4005104E1,1.051338E0],"tree_param":{"num_deleted":"0","num_feature":"30","num_nodes":"13","size_leaf_vector":"1"}},{"base_weights":[-1.1196505E-2,-8.468593E-1,6.6746525E-2,-1.0513542E0,3.440728E-2,-2.9971963E-1,-5.9059132E-2,-4.11777E-2,2.7232213E-2],"categories":[],"categories_nodes":[],"categories_segments":[],"categories_sizes":[],"default_left":[0,0,0,0,0,0,0,0,0],"id":15,"left_children":[1,3,-1,5,-1,7,-1,-1,-1],"loss_changes":[3.56173E1,6.853012E0,0E0,1.3660793E0,0E0,2.1895783E0,0E0,0E0,0E0],"parents":[2147483647,0,0,1,1,3,3,5,5],"right_children":[2,4,-1,6,-1,8,-1,-1,-1],"split_conditions":[1.459E-1,4.009E1,6.6746525E-2,1.454E-2,3.440728E-2,1.014E2,-5.9059132E-2,-4.11777E-2,2.7232213E-2],"split_indices":[27,13,0,18,0,22,0,0,0],"split_type":[0,0,0,0,0,0,0,0,0],"sum_hessian":[2.9657433E1,1.8526962E1,1.1130469E1,1.662698E1,1.8999822E0,2.936259E0,1.36907215E1,1.8272796E0,1.1089795E0],"tree_param":{"num_deleted":"0","num_feature":"30","num_nodes":"9","size_leaf_vector":"1"}},{"base_weights":[6.6419925E-5,-1.0527723E0,1.1267022E0,-1.1044219E0,-8.106436E-3,-2.0718418E-2,1.2793322E0,-9.981102E-3,-5.806297E-2,1.0204113E-2,6.752906E-2],"categories":[],"categories_nodes":[],"categories_segments":[],"categories_sizes":[],"default_left":[0,0,0,0,0,0,0,0,0,0,0],"id":16,"left_children":[1,3,5,7,-1,-1,9,-1,-1,-1,-1],"loss_changes":[3.5086376E1,5.2433205E-1,3.8910847E0,5.0258255E-1,0E0,0E0,7.391529E-1,0E0,0E0,0E0,0E0],"parents":[2147483647,0,0,1,1,2,2,3,3,6,6],"right_children":[2,4,6,8,-1,-1,10,-1,-1,-1,-1],"split_conditions":[5.069E-2,4.255E-1,1.407E1,3.872E-3,-8.106436E-3,-2.0718418E-2,1.278E1,-9.981102E-3,-5.806297E-2,1.0204113E-2,6.752906E-2],"split_indices":[7,10,1,14,0,0,0,0,0,0,0],"split_type":[0,0,0,0,0,0,0,0,0,0,0],"sum_hessian":[2.7579662E1,1.4290645E1,1.3289017E1,1.3280468E1,1.0101769E0,1.0430204E0,1.2245996E1,1.0516332E0,1.2228835E1,1.0011748E0,1.1244822E1],"tree_param":{"num_deleted":"0","num_feature":"30","num_nodes":"11","size_leaf_vector":"1"}},{"base_weights":[-9.343191E-3,-8.4122217E-1,1.2167653E0,-1.027762E0,3.985339E-2,1.6941447E-2,6.348621E-2,-1.1145844E0,-3.0380383E-1,-1.116719E-2,-5.8358755E-2,9.094854E-3,-3.207194E-2],"categories":[],"categories_nodes":[],"categories_segments":[],"categories_sizes":[],"default_left":[0,0,0,0,0,0,0,0,0,0,0,0,0],"id":17,"left_children":[1,3,5,7,-1,-1,-1,9,11,-1,-1,-1,-1],"loss_changes":[3.0692205E1,6.2959948E0,1.3545609E-1,7.001343E-1,0E0,0E0,0E0,4.1339684E-1,6.3232166E-1,0E0,0E0,0E0,0E0],"parents":[2147483647,0,0,1,1,2,2,3,3,7,7,8,8],"right_children":[2,4,6,8,-1,-1,-1,10,12,-1,-1,-1,-1],"split_conditions":[1.459E-1,1.773E1,3.063E-1,1.805E0,3.985339E-2,1.6941447E-2,6.348621E-2,1.315E-2,1.868E-2,-1.116719E-2,-5.8358755E-2,9.094854E-3,-3.207194E-2],"split_indices":[27,20,10,11,0,0,0,18,18,0,0,0,0],"split_type":[0,0,0,0,0,0,0,0,0,0,0,0,0],"sum_hessian":[2.808764E1,1.6921083E1,1.1166555E1,1.5525924E1,1.3951602E0,1.0561402E0,1.0110415E1,1.3381543E1,2.1443808E0,1.037981E0,1.2343562E1,1.0685261E0,1.0758548E0],"tree_param":{"num_deleted":"0","num_feature":"30","num_nodes":"13","size_leaf_vector":"1"}},{"base_weights":[-3.7283838E-2,-8.8448584E-1,6.0746472E-2,-1.0381076E0,3.1901736E-2,-1.0875441E0,-1.0879971E-2,-1.0579674E-2,-5.6939166E-2],"categories":[],"categories_nodes":[],"categories_segments":[],"categories_sizes":[],"default_left":[0,0,0,0,0,0,0,0,0],"id":18,"left_children":[1,3,-1,5,-1,7,-1,-1,-1],"loss_changes":[2.9693506E1,4.5611315E0,0E0,3.9297104E-1,0E0,4.049015E-1,0E0,0E0,0E0],"parents":[2147483647,0,0,1,1,3,3,5,5],"right_children":[2,4,-1,6,-1,8,-1,-1,-1],"split_conditions":[1.425E-1,1.752E1,6.0746472E-2,2.079E0,3.1901736E-2,1.315E-2,-1.0879971E-2,-1.0579674E-2,-5.6939166E-2],"split_indices":[27,20,0,11,0,18,0,0,0],"split_type":[0,0,0,0,0,0,0,0,0],"sum_hessian":[2.5976648E1,1.566914E1,1.0307508E1,1.4522037E1,1.1471031E0,1.33898325E1,1.1322039E0,1.023434E0,1.2366399E1],"tree_param":{"num_deleted":"0","num_feature":"30","num_nodes":"9","size_leaf_vector":"1"}},{"base_weights":[-1.7761571E-2,-1.052237E0,9.172716E-1,-5.586954E-2,-9.41233E-3,-2.9386327E-2,1.1380388E0,-2.6041719E-3,6.3841365E-2],"categories":[],"categories_nodes":[],"categories_segments":[],"categories_sizes":[],"default_left":[0,0,0,0,0,0,0,0,0],"id":19,"left_children":[1,3,5,-1,-1,-1,7,-1,-1],"loss_changes":[2.5705534E1,4.994316E-1,5.31003E0,0E0,0E0,0E0,2.1348858E0,0E0,0E0],"parents":[2147483647,0,0,1,1,2,2,6,6],"right_children":[2,4,6,-1,-1,-1,8,-1,-1],"split_conditions":[1.014E2,2.884E0,1.534E1,-5.586954E-2,-9.41233E-3,-2.9386327E-2,1.108E-1,-2.6041719E-3,6.3841365E-2],"split_indices":[22,12,1,0,0,0,27,0,0],"split_type":[0,0,0,0,0,0,0,0,0],"sum_hessian":[2.4577526E1,1.1608784E1,1.2968743E1,1.0522024E1,1.0867593E0,1.4463805E0,1.1522363E1,1.2686154E0,1.0253748E1],"tree_param":{"num_deleted":"0","num_feature":"30","num_nodes":"9","size_leaf_vector":"1"}},{"base_weights":[2.194666E-2,-6.9510144E-1,6.225502E-2,-9.4511867E-1,3.826674E-2,-1.0287983E0,5.4507544E-3,-2.840458E-1,-5.6655712E-2,-3.2315966E-2,1.0048278E-2],"categories":[],"categories_nodes":[],"categories_segments":[],"categories_sizes":[],"default_left":[0,0,0,0,0,0,0,0,0,0,0],"id":20,"left_children":[1,3,-1,5,-1,7,-1,9,-1,-1,-1],"loss_changes":[2.4104885E1,7.0569897E0,0E0,1.4580603E0,0E0,7.838011E-1,0E0,6.7159843E-1,0E0,0E0,0E0],"parents":[2147483647,0,0,1,1,3,3,5,5,7,7],"right_children":[2,4,-1,6,-1,8,-1,10,-1,-1,-1],"split_conditions":[1.177E2,1.043E-1,6.225502E-2,5.169E-1,3.826674E-2,1.386E-2,5.4507544E-3,5.592E2,-5.6655712E-2,-3.2315966E-2,1.0048278E-2],"split_indices":[22,6,0,10,0,18,0,3,0,0,0],"split_type":[0,0,0,0,0,0,0,0,0,0,0],"sum_hessian":[2.5496948E1,1.6346104E1,9.150846E0,1.4258066E1,2.0880373E0,1.3231734E1,1.0263326E0,2.083038E0,1.1148696E1,1.0020114E0,1.0810266E0],"tree_param":{"num_deleted":"0","num_feature":"30","num_nodes":"11","size_leaf_vector":"1"}},{"base_weights":[3.4710567E-2,-9.668876E-1,1.1055839E0,-5.5393007E-2,1.5904812E-2,1.342113E-3,1.2091734E0,1.99084E-2,6.3342094E-2],"categories":[],"categories_nodes":[],"categories_segments":[],"categories_sizes":[],"default_left":[0,0,0,0,0,0,0,0,0],"id":21,"left_children":[1,3,5,-1,-1,-1,7,-1,-1],"loss_changes":[2.7186485E1,2.7282372E0,1.3347158E0,0E0,0E0,0E0,1.6593933E-2,0E0,0E0],"parents":[2147483647,0,0,1,1,2,2,6,6],"right_children":[2,4,6,-1,-1,-1,8,-1,-1],"split_conditions":[1.565E1,5.588E-2,1.899E1,-5.5393007E-2,1.5904812E-2,1.342113E-3,6.969E-2,1.99084E-2,6.3342094E-2],"split_indices":[20,7,21,0,0,0,29,0,0],"split_type":[0,0,0,0,0,0,0,0,0],"sum_hessian":[2.3350065E1,1.2115461E1,1.1234605E1,1.1041921E1,1.0735413E0,1.0946332E0,1.0139971E1,1.1979095E0,8.942061E0],"tree_param":{"num_deleted":"0","num_feature":"30","num_nodes":"9","size_leaf_vector":"1"}},{"base_weights":[1.0208406E-2,-5.4237254E-2,8.8695776E-1,-2.3222558E-2,1.0781653E0,-3.2090612E-3,6.0589988E-2],"categories":[],"categories_nodes":[],"categories_segments":[],"categories_sizes":[],"default_left":[0,0,0,0,0,0,0],"id":22,"left_children":[1,-1,3,-1,5,-1,-1],"loss_changes":[2.2923101E1,0E0,3.925581E0,0E0,1.8962593E0,0E0,0E0],"parents":[2147483647,0,0,2,2,4,4],"right_children":[2,-1,4,-1,6,-1,-1],"split_conditions":[1.017E2,-5.4237254E-2,1.112E-1,-2.3222558E-2,1.959E1,-3.2090612E-3,6.0589988E-2],"split_indices":[22,0,27,0,21,0,0],"split_type":[0,0,0,0,0,0,0],"sum_hessian":[2.1876026E1,9.622037E0,1.225399E1,1.341754E0,1.0912236E1,1.1972775E0,9.714958E0],"tree_param":{"num_deleted":"0","num_feature":"30","num_nodes":"7","size_leaf_vector":"1"}},{"base_weights":[4.1516066E-2,-8.595325E-1,8.617806E-1,-9.830052E-1,8.534926E-3,-5.736537E-2,5.770973E-2,-9.057551E-3,-5.26751E-2,-3.927808E-2,3.3243842E-2],"categories":[],"categories_nodes":[],"categories_segments":[],"categories_sizes":[],"default_left":[0,0,0,0,0,0,0,0,0,0,0],"id":23,"left_children":[1,3,5,7,-1,9,-1,-1,-1,-1,-1],"loss_changes":[1.7872055E1,1.6365242E0,3.4614897E0,4.0034866E-1,0E0,2.626864E0,0E0,0E0,0E0,0E0,0E0],"parents":[2147483647,0,0,1,1,2,2,3,3,5,5],"right_children":[2,4,6,8,-1,10,-1,-1,-1,-1,-1],"split_conditions":[7.135E-2,3.159E1,8.124E2,1.575E-3,8.534926E-3,3.662E-1,5.770973E-2,-9.057551E-3,-5.26751E-2,-3.927808E-2,3.3243842E-2],"split_indices":[6,13,23,19,0,26,0,0,0,0,0],"split_type":[0,0,0,0,0,0,0,0,0,0,0],"sum_hessian":[2.217869E1,1.0546092E1,1.1632599E1,9.458352E0,1.0877398E0,3.0015712E0,8.631027E0,1.0528227E0,8.405529E0,1.4509696E0,1.5506017E0],"tree_param":{"num_deleted":"0","num_feature":"30","num_nodes":"11","size_leaf_vector":"1"}},{"base_weights":[-2.2585407E-2,-6.9633603E-1,5.833408E-2,-9.0593386E-1,3.1183645E-2,-9.850503E-1,3.6638547E-3,-2.8819987E-1,-5.4349866E-2,-3.1454552E-2,9.416743E-3],"categories":[],"categories_nodes":[],"categories_segments":[],"categories_sizes":[],"default_left":[0,0,0,0,0,0,0,0,0,0,0],"id":24,"left_children":[1,3,-1,5,-1,7,-1,9,-1,-1,-1],"loss_changes":[2.054185E1,5.0869975E0,0E0,1.1964827E0,0E0,6.455612E-1,0E0,6.193546E-1,0E0,0E0,0E0],"parents":[2147483647,0,0,1,1,3,3,5,5,7,7],"right_children":[2,4,-1,6,-1,8,-1,10,-1,-1,-1],"split_conditions":[1.177E2,1.043E-1,5.833408E-2,3.398E0,3.1183645E-2,1.386E-2,3.6638547E-3,5.592E2,-5.4349866E-2,-3.1454552E-2,9.416743E-3],"split_indices":[22,6,0,12,0,18,0,3,0,0,0],"split_type":[0,0,0,0,0,0,0,0,0,0,0],"sum_hessian":[2.3622742E1,1.5344287E1,8.278455E0,1.3512408E1,1.8318787E0,1.2496755E1,1.0156534E0,2.083323E0,1.0413432E1,1.0278846E0,1.0554384E0],"tree_param":{"num_deleted":"0","num_feature":"30","num_nodes":"11","size_leaf_vector":"1"}},{"base_weights":[7.1032725E-2,-6.5281135E-1,5.6447215E-2,-8.518564E-1,4.4957053E-2,-7.442869E-2,-5.3323228E-2,-3.6965843E-2,3.8675573E-2],"categories":[],"categories_nodes":[],"categories_segments":[],"categories_sizes":[],"default_left":[0,0,0,0,0,0,0,0,0],"id":25,"left_children":[1,3,-1,5,-1,7,-1,-1,-1],"loss_changes":[1.758591E1,4.997274E0,0E0,2.031866E0,0E0,2.7213032E0,0E0,0E0,0E0],"parents":[2147483647,0,0,1,1,3,3,5,5],"right_children":[2,4,-1,6,-1,8,-1,-1,-1],"split_conditions":[1.459E-1,5.495E-1,5.6447215E-2,1.461E-2,4.4957053E-2,9.917E1,-5.3323228E-2,-3.6965843E-2,3.8675573E-2],"split_indices":[27,10,0,18,0,22,0,0,0],"split_type":[0,0,0,0,0,0,0,0,0],"sum_hessian":[2.1002792E1,1.26977E1,8.305093E0,1.1654112E1,1.0435871E0,2.8125029E0,8.841609E0,1.648209E0,1.1642939E0],"tree_param":{"num_deleted":"0","num_feature":"30","num_nodes":"9","size_leaf_vector":"1"}},{"base_weights":[2.8894983E-2,-7.769389E-1,9.0830654E-1,-9.2814255E-1,2.1185443E-2,-1.5076912E-2,1.0735425E0,-5.2521247E-2,3.771392E-3,1.452818E-2,5.638531E-2],"categories":[],"categories_nodes":[],"categories_segments":[],"categories_sizes":[],"default_left":[0,0,0,0,0,0,0,0,0,0,0],"id":26,"left_children":[1,3,5,7,-1,-1,9,-1,-1,-1,-1],"loss_changes":[1.6939913E1,2.6613126E0,2.6057053E0,1.4793701E0,0E0,0E0,1.0756302E-1,0E0,0E0,0E0,0E0],"parents":[2147483647,0,0,1,1,2,2,3,3,6,6],"right_children":[2,4,6,8,-1,-1,10,-1,-1,-1,-1],"split_conditions":[5.069E-2,3.444E1,1.926E1,7.879E2,2.1185443E-2,-1.5076912E-2,5.613E-2,-5.2521247E-2,3.771392E-3,1.452818E-2,5.638531E-2],"split_indices":[7,13,21,23,0,0,7,0,0,0,0],"split_type":[0,0,0,0,0,0,0,0,0,0,0],"sum_hessian":[2.1908339E1,1.1493234E1,1.0415106E1,1.0409303E1,1.0839309E0,1.1524031E0,9.262703E0,9.237099E0,1.172204E0,1.0110933E0,8.251609E0],"tree_param":{"num_deleted":"0","num_feature":"30","num_nodes":"11","size_leaf_vector":"1"}},{"base_weights":[-8.785833E-2,-7.531557E-1,1.0188727E0,-9.1972315E-1,2.9039627E-2,1.5317502E-2,5.377869E-2,-2.9568812E-1,-5.3182017E-2,-3.765617E-2,2.293598E-2],"categories":[],"categories_nodes":[],"categories_segments":[],"categories_sizes":[],"default_left":[0,0,0,0,0,0,0,0,0,0,0],"id":27,"left_children":[1,3,5,7,-1,-1,-1,9,-1,-1,-1],"loss_changes":[1.7242535E1,3.7670002E0,2.7065277E-2,8.819027E-1,0E0,0E0,0E0,1.6849709E0,0E0,0E0,0E0],"parents":[2147483647,0,0,1,1,2,2,3,3,7,7],"right_children":[2,4,6,8,-1,-1,-1,10,-1,-1,-1],"split_conditions":[1.459E-1,1.773E1,2.479E1,1.454E-2,2.9039627E-2,1.5317502E-2,5.377869E-2,1.014E2,-5.3182017E-2,-3.765617E-2,2.293598E-2],"split_indices":[27,20,13,18,0,0,0,22,0,0,0],"split_type":[0,0,0,0,0,0,0,0,0,0,0],"sum_hessian":[2.1375454E1,1.35497E1,7.8257537E0,1.2321646E1,1.2280536E0,1.0488232E0,6.7769303E0,2.8815618E0,9.440084E0,1.7949165E0,1.0866454E0],"tree_param":{"num_deleted":"0","num_feature":"30","num_nodes":"11","size_leaf_vector":"1"}},{"base_weights":[5.3219753E-3,-6.3832587E-1,5.5571645E-2,-8.755084E-1,5.324478E-1,-9.7326094E-1,5.8321E-3,3.6164343E-2,3.4603477E-3,-9.319374E-3,-5.1713254E-2],"categories":[],"categories_nodes":[],"categories_segments":[],"categories_sizes":[],"default_left":[0,0,0,0,0,0,0,0,0,0,0],"id":28,"left_children":[1,3,-1,5,7,9,-1,-1,-1,-1,-1],"loss_changes":[1.6414951E1,4.5149527E0,0E0,1.3260689E0,2.220546E-1,3.5868263E-1,0E0,0E0,0E0,0E0,0E0],"parents":[2147483647,0,0,1,1,3,3,4,4,5,5],"right_children":[2,4,-1,6,8,10,-1,-1,-1,-1,-1],"split_conditions":[1.177E2,9.964E-2,5.5571645E-2,5.169E-1,3.634E-2,3.98E-3,5.8321E-3,3.6164343E-2,3.4603477E-3,-9.319374E-3,-5.1713254E-2],"split_indices":[22,29,0,10,15,14,0,0,0,0,0],"split_type":[0,0,0,0,0,0,0,0,0,0,0],"sum_hessian":[2.1059958E1,1.3580405E1,7.479552E0,1.1502379E1,2.078026E0,1.0488072E1,1.0143077E0,1.0741509E0,1.003875E0,1.0463866E0,9.441686E0],"tree_param":{"num_deleted":"0","num_feature":"30","num_nodes":"11","size_leaf_vector":"1"}},{"base_weights":[3.5678376E-2,-7.813311E-1,8.4857804E-1,-9.541402E-1,2.149996E-2,-1.1729246E-2,1.0356816E0,-8.103481E-3,-5.1309194E-2,1.520432E-2,5.4507285E-2],"categories":[],"categories_nodes":[],"categories_segments":[],"categories_sizes":[],"default_left":[0,0,0,0,0,0,0,0,0,0,0],"id":29,"left_children":[1,3,5,7,-1,-1,9,-1,-1,-1,-1],"loss_changes":[1.4467166E1,2.6892042E0,2.4515786E0,3.9509392E-1,0E0,0E0,4.613495E-2,0E0,0E0,0E0,0E0],"parents":[2147483647,0,0,1,1,2,2,3,3,6,6],"right_children":[2,4,6,8,-1,-1,10,-1,-1,-1,-1],"split_conditions":[5.069E-2,3.444E1,2.606E-1,3.98E-3,2.149996E-2,-1.1729246E-2,5.588E-2,-8.103481E-3,-5.1309194E-2,1.520432E-2,5.4507285E-2],"split_indices":[7,13,26,14,0,0,7,0,0,0,0],"split_type":[0,0,0,0,0,0,0,0,0,0,0],"sum_hessian":[1.9784782E1,9.886816E0,9.897967E0,8.838264E0,1.0485513E0,1.4205395E0,8.4774275E0,1.0077995E0,7.830465E0,1.0435159E0,7.433912E0],"tree_param":{"num_deleted":"0","num_feature":"30","num_nodes":"11","size_leaf_vector":"1"}},{"base_weights":[1.7319879E-2,-6.5556693E-1,5.4127067E-2,-9.588646E-1,3.7136444E-1,-7.842279E-3,-5.1512916E-2,-1.6572295E-2,3.8843814E-2],"categories":[],"categories_nodes":[],"categories_segments":[],"categories_sizes":[],"default_left":[0,0,0,0,0,0,0,0,0],"id":30,"left_children":[1,3,-1,5,7,-1,-1,-1,-1],"loss_changes":[1.4778747E1,4.2968483E0,0E0,4.136734E-1,1.2850816E0,0E0,0E0,0E0,0E0],"parents":[2147483647,0,0,1,1,3,3,4,4],"right_children":[2,4,-1,6,8,-1,-1,-1,-1],"split_conditions":[1.177E2,3.241E-1,5.4127067E-2,3.98E-3,1.231E-1,-7.842279E-3,-5.1512916E-2,-1.6572295E-2,3.8843814E-2],"split_indices":[22,26,0,14,5,0,0,0,0],"split_type":[0,0,0,0,0,0,0,0,0],"sum_hessian":[1.8628334E1,1.1652299E1,6.976036E0,9.046696E0,2.605603E0,1.0008047E0,8.045891E0,1.0201626E0,1.5854405E0],"tree_param":{"num_deleted":"0","num_feature":"30","num_nodes":"9","size_leaf_vector":"1"}},{"base_weights":[4.6597816E-2,-9.169905E-1,7.878744E-1,-4.9821004E-2,-8.0394475E-3,-1.5293168E-2,9.3159854E-1,2.6054413E-3,1.0404432E0,5.5008184E-2,1.622918E-2],"categories":[],"categories_nodes":[],"categories_segments":[],"categories_sizes":[],"default_left":[0,0,0,0,0,0,0,0,0,0,0],"id":31,"left_children":[1,3,5,-1,-1,-1,7,-1,9,-1,-1],"loss_changes":[1.4490494E1,3.709402E-1,2.0820456E0,0E0,0E0,0E0,9.36718E-1,0E0,3.446102E-2,0E0,0E0],"parents":[2147483647,0,0,1,1,2,2,6,6,8,8],"right_children":[2,4,6,-1,-1,-1,8,-1,10,-1,-1],"split_conditions":[1.025E2,3.218E-2,1.556E1,-4.9821004E-2,-8.0394475E-3,-1.5293168E-2,6.877E-2,2.6054413E-3,6.578E-2,5.5008184E-2,1.622918E-2],"split_indices":[22,18,1,0,0,0,6,0,16,0,0],"split_type":[0,0,0,0,0,0,0,0,0,0,0],"sum_hessian":[1.8275234E1,7.8430195E0,1.0432214E1,6.8100443E0,1.0329751E0,1.0806162E0,9.351598E0,1.1927384E0,8.158859E0,7.035112E0,1.1237473E0],"tree_param":{"num_deleted":"0","num_feature":"30","num_nodes":"11","size_leaf_vector":"1"}},{"base_weights":[9.104308E-3,-5.572396E-1,5.2772123E-2,-7.773539E-1,4.0917408E-1,-8.78929E-1,5.7138796E-3,-3.6024346E-3,3.3791833E-2,-1.046067E-2,-5.0209828E-2],"categories":[],"categories_nodes":[],"categories_segments":[],"categories_sizes":[],"default_left":[0,0,0,0,0,0,0,0,0,0,0],"id":32,"left_children":[1,3,-1,5,7,9,-1,-1,-1,-1,-1],"loss_changes":[1.2060447E1,3.129272E0,0E0,1.1065259E0,4.473647E-1,6.361947E-1,0E0,0E0,0E0,0E0,0E0],"parents":[2147483647,0,0,1,1,3,3,4,4,5,5],"right_children":[2,4,-1,6,8,10,-1,-1,-1,-1,-1],"split_conditions":[1.177E2,5.943E-2,5.2772123E-2,3.376E1,3.639E-1,1.386E-2,5.7138796E-3,-3.6024346E-3,3.3791833E-2,-1.046067E-2,-5.0209828E-2],"split_indices":[22,7,0,13,26,18,0,0,0,0,0],"split_type":[0,0,0,0,0,0,0,0,0,0,0],"sum_hessian":[1.8359703E1,1.22154E1,6.1443033E0,1.01086445E1,2.1067553E0,9.087624E0,1.0210208E0,1.0113938E0,1.0953616E0,1.8526989E0,7.234925E0],"tree_param":{"num_deleted":"0","num_feature":"30","num_nodes":"11","size_leaf_vector":"1"}},{"base_weights":[9.4852755E-3,-8.5728014E-1,7.33888E-1,-4.8748873E-2,-7.706954E-4,-1.8790455E-1,5.0029546E-2,-3.166313E-2,1.7950261E-2],"categories":[],"categories_nodes":[],"categories_segments":[],"categories_sizes":[],"default_left":[0,0,0,0,0,0,0,0,0],"id":33,"left_children":[1,3,5,-1,-1,7,-1,-1,-1],"loss_changes":[1.1273785E1,7.954278E-1,2.590836E0,0E0,0E0,9.6662027E-1,0E0,0E0,0E0],"parents":[2147483647,0,0,1,1,2,2,5,5],"right_children":[2,4,6,-1,-1,8,-1,-1,-1],"split_conditions":[1.565E1,3.274E-1,7.293E-2,-4.8748873E-2,-7.706954E-4,2.025E1,5.0029546E-2,-3.166313E-2,1.7950261E-2],"split_indices":[20,28,6,0,0,1,0,0,0],"split_type":[0,0,0,0,0,0,0,0,0],"sum_hessian":[1.5953103E1,7.1793756E0,8.773727E0,6.1600537E0,1.019322E0,2.0351593E0,6.738568E0,1.0346961E0,1.0004631E0],"tree_param":{"num_deleted":"0","num_feature":"30","num_nodes":"9","size_leaf_vector":"1"}},{"base_weights":[2.5233816E-2,-8.713673E-1,8.210814E-1,-4.8518233E-2,-5.2164397E-3,-3.3437347E-3,5.039499E-2],"categories":[],"categories_nodes":[],"categories_segments":[],"categories_sizes":[],"default_left":[0,0,0,0,0,0,0],"id":34,"left_children":[1,3,5,-1,-1,-1,-1],"loss_changes":[1.2707383E1,5.356903E-1,1.6297212E0,0E0,0E0,0E0,0E0],"parents":[2147483647,0,0,1,1,2,2],"right_children":[2,4,6,-1,-1,-1,-1],"split_conditions":[7.293E-2,3.233E1,8.124E2,-4.8518233E-2,-5.2164397E-3,-3.3437347E-3,5.039499E-2],"split_indices":[6,21,23,0,0,0,0],"split_type":[0,0,0,0,0,0,0],"sum_hessian":[1.5805815E1,7.3878164E0,8.417998E0,6.3085303E0,1.0792861E0,1.5748236E0,6.843175E0],"tree_param":{"num_deleted":"0","num_feature":"30","num_nodes":"7","size_leaf_vector":"1"}},{"base_weights":[7.7102885E-2,-7.968449E-1,8.143616E-1,-4.7361724E-2,4.6114386E-3,1.0671471E-3,9.5727766E-1,1.2846455E-2,5.1136192E-2],"categories":[],"categories_nodes":[],"categories_segments":[],"categories_sizes":[],"default_left":[0,0,0,0,0,0,0,0,0],"id":35,"left_children":[1,3,5,-1,-1,-1,7,-1,-1],"loss_changes":[1.1611505E1,1.1958971E0,1.0815592E0,0E0,0E0,0E0,1.1380339E-1,0E0,0E0],"parents":[2147483647,0,0,1,1,2,2,6,6],"right_children":[2,4,6,-1,-1,-1,8,-1,-1],"split_conditions":[1.112E-1,3.327E1,1.974E0,-4.7361724E-2,4.6114386E-3,1.0671471E-3,1.234E-1,1.2846455E-2,5.1136192E-2],"split_indices":[27,13,12,0,0,0,24,0,0],"split_type":[0,0,0,0,0,0,0,0,0],"sum_hessian":[1.6014046E1,7.290753E0,8.723293E0,6.179974E0,1.1107789E0,1.5075386E0,7.215754E0,1.0376396E0,6.1781144E0],"tree_param":{"num_deleted":"0","num_feature":"30","num_nodes":"9","size_leaf_vector":"1"}},{"base_weights":[3.2158412E-2,-7.371121E-1,7.451692E-1,-4.6835307E-2,-7.22949E-2,-1.3132761E-2,9.283947E-1,1.5775498E-2,-2.1576954E-2,7.847228E-3,5.1382422E-2],"categories":[],"categories_nodes":[],"categories_segments":[],"categories_sizes":[],"default_left":[0,0,0,0,0,0,0,0,0,0,0],"id":36,"left_children":[1,3,5,-1,7,-1,9,-1,-1,-1,-1],"loss_changes":[9.997453E0,1.0984707E0,1.9864669E0,0E0,5.6983864E-1,0E0,4.670229E-1,0E0,0E0,0E0,0E0],"parents":[2147483647,0,0,1,1,2,2,4,4,6,6],"right_children":[2,4,6,-1,8,-1,10,-1,-1,-1,-1],"split_conditions":[1.565E1,3.515E-2,1.926E1,-4.6835307E-2,6.627E-3,-1.3132761E-2,1.773E-1,1.5775498E-2,-2.1576954E-2,7.847228E-3,5.1382422E-2],"split_indices":[20,7,21,0,14,0,25,0,0,0,0],"split_type":[0,0,0,0,0,0,0,0,0,0,0],"sum_hessian":[1.6225542E1,7.7885933E0,8.43695E0,5.6756573E0,2.112936E0,1.2312113E0,7.205738E0,1.0746206E0,1.0383154E0,1.1156429E0,6.0900955E0],"tree_param":{"num_deleted":"0","num_feature":"30","num_nodes":"11","size_leaf_vector":"1"}},{"base_weights":[7.979576E-2,-4.9013048E-1,5.3178884E-2,-7.648179E-1,3.7945077E-2,-4.866263E-2,2.4116146E-3],"categories":[],"categories_nodes":[],"categories_segments":[],"categories_sizes":[],"default_left":[0,0,0,0,0,0,0],"id":37,"left_children":[1,3,-1,5,-1,-1,-1],"loss_changes":[9.822016E0,4.4189196E0,0E0,1.6855402E0,0E0,0E0,0E0],"parents":[2147483647,0,0,1,1,3,3],"right_children":[2,4,-1,6,-1,-1,-1],"split_conditions":[4.009E1,1.043E-1,5.3178884E-2,7.879E2,3.7945077E-2,-4.866263E-2,2.4116146E-3],"split_indices":[13,6,0,23,0,0,0],"split_type":[0,0,0,0,0,0,0],"sum_hessian":[1.55882015E1,1.0187912E1,5.4002895E0,8.669078E0,1.518834E0,6.743314E0,1.9257637E0],"tree_param":{"num_deleted":"0","num_feature":"30","num_nodes":"7","size_leaf_vector":"1"}},{"base_weights":[3.6375575E-2,-5.514127E-1,9.093664E-1,-4.6483755E-2,1.7924102E-1,5.864564E-3,5.171178E-2,-2.4686806E-1,3.56453E-2,6.2024985E-3,-2.5012359E-2],"categories":[],"categories_nodes":[],"categories_segments":[],"categories_sizes":[],"default_left":[0,0,0,0,0,0,0,0,0,0,0],"id":38,"left_children":[1,3,5,-1,7,-1,-1,9,-1,-1,-1],"loss_changes":[8.235255E0,2.8280792E0,5.1584816E-1,0E0,1.1135956E0,0E0,0E0,3.4733015E-1,0E0,0E0,0E0],"parents":[2147483647,0,0,1,1,2,2,4,4,7,7],"right_children":[2,4,6,-1,8,-1,-1,10,-1,-1,-1],"split_conditions":[3.444E1,1.108E-1,7.452E-1,-4.6483755E-2,9.646E-2,5.864564E-3,5.171178E-2,5.986E-2,3.56453E-2,6.2024985E-3,-2.5012359E-2],"split_indices":[13,27,11,0,29,0,0,9,0,0,0],"split_type":[0,0,0,0,0,0,0,0,0,0,0],"sum_hessian":[1.4071738E1,8.629694E0,5.4420443E0,5.5065455E0,3.1231487E0,1.0051904E0,4.436854E0,2.0353873E0,1.0877614E0,1.033248E0,1.0021393E0],"tree_param":{"num_deleted":"0","num_feature":"30","num_nodes":"11","size_leaf_vector":"1"}},{"base_weights":[3.4347545E-2,-5.2702034E-1,4.8787948E-2,-7.39519E-1,3.264341E-2,-2.2435535E-3,-8.97288E-1,-1.2762669E-2,-4.7956835E-2],"categories":[],"categories_nodes":[],"categories_segments":[],"categories_sizes":[],"default_left":[0,0,0,0,0,0,0,0,0],"id":39,"left_children":[1,3,-1,5,-1,-1,7,-1,-1],"loss_changes":[8.579723E0,3.0426972E0,0E0,9.593048E-1,0E0,0E0,4.8226833E-2,0E0,0E0],"parents":[2147483647,0,0,1,1,3,3,6,6],"right_children":[2,4,-1,6,-1,-1,8,-1,-1],"split_conditions":[1.043E-1,1.773E1,4.8787948E-2,1.104E-2,3.264341E-2,-2.2435535E-3,1.365E-2,-1.2762669E-2,-4.7956835E-2],"split_indices":[6,20,0,15,0,0,18,0,0],"split_type":[0,0,0,0,0,0,0,0,0],"sum_hessian":[1.4261708E1,9.209953E0,5.0517554E0,8.120648E0,1.0893044E0,1.7407286E0,6.37992E0,1.0110936E0,5.368826E0],"tree_param":{"num_deleted":"0","num_feature":"30","num_nodes":"9","size_leaf_vector":"1"}},{"base_weights":[3.4011642E-3,-5.3479713E-1,4.742534E-2,-7.1038276E-1,1.9759465E-2,-4.7017146E-2,-3.4532804E-2,2.0171354E-2,-2.0774504E-2],"categories":[],"categories_nodes":[],"categories_segments":[],"categories_sizes":[],"default_left":[0,0,0,0,0,0,0,0,0],"id":40,"left_children":[1,3,-1,5,-1,-1,7,-1,-1],"loss_changes":[8.583151E0,2.037053E0,0E0,1.4292259E0,0E0,0E0,7.3918957E-1,0E0,0E0],"parents":[2147483647,0,0,1,1,3,3,6,6],"right_children":[2,4,-1,6,-1,-1,8,-1,-1],"split_conditions":[1.459E-1,4.009E1,4.742534E-2,1.108E-1,1.9759465E-2,-4.7017146E-2,9.231E-3,2.0171354E-2,-2.0774504E-2],"split_indices":[27,13,0,27,0,0,17,0,0],"split_type":[0,0,0,0,0,0,0,0,0],"sum_hessian":[1.4876977E1,9.75567E0,5.1213074E0,8.40492E0,1.35075E0,5.979147E0,2.4257727E0,1.1010222E0,1.3247505E0],"tree_param":{"num_deleted":"0","num_feature":"30","num_nodes":"9","size_leaf_vector":"1"}},{"base_weights":[-3.8483866E-2,-7.8559923E-1,6.296902E-1,-4.658709E-2,3.6083076E-3,-2.0344876E-2,8.405222E-1,8.457318E-3,4.8664454E-2],"categories":[],"categories_nodes":[],"categories_segments":[],"categories_sizes":[],"default_left":[0,0,0,0,0,0,0,0,0],"id":41,"left_children":[1,3,5,-1,-1,-1,7,-1,-1],"loss_changes":[7.862063E0,9.964385E-1,2.1659489E0,0E0,0E0,0E0,4.8263073E-1,0E0,0E0],"parents":[2147483647,0,0,1,1,2,2,6,6],"right_children":[2,4,6,-1,-1,-1,8,-1,-1],"split_conditions":[1.025E2,4.203E-1,1.556E1,-4.658709E-2,3.6083076E-3,-2.0344876E-2,5.069E-2,8.457318E-3,4.8664454E-2],"split_indices":[22,10,1,0,0,0,7,0,0],"split_type":[0,0,0,0,0,0,0,0,0],"sum_hessian":[1.375828E1,6.4124694E0,7.3458104E0,5.405294E0,1.0071753E0,1.084372E0,6.2614384E0,1.4092331E0,4.8522053E0],"tree_param":{"num_deleted":"0","num_feature":"30","num_nodes":"9","size_leaf_vector":"1"}},{"base_weights":[1.1279403E-2,-4.475234E-2,5.545375E-1,-2.6540712E-2,7.7190405E-1,-1.0448272E-2,4.6898317E-2],"categories":[],"categories_nodes":[],"categories_segments":[],"categories_sizes":[],"default_left":[0,0,0,0,0,0,0],"id":42,"left_children":[1,-1,3,-1,5,-1,-1],"loss_changes":[7.4391594E0,0E0,2.63534E0,0E0,1.5425982E0,0E0,0E0],"parents":[2147483647,0,0,2,2,4,4],"right_children":[2,-1,4,-1,6,-1,-1],"split_conditions":[3.279E-2,-4.475234E-2,1.997E1,-2.6540712E-2,2.265E1,-1.0448272E-2,4.6898317E-2],"split_indices":[7,0,21,0,13,0,0],"split_type":[0,0,0,0,0,0,0],"sum_hessian":[1.3100852E1,4.6671004E0,8.433751E0,1.1666127E0,7.267139E0,1.0147893E0,6.2523494E0],"tree_param":{"num_deleted":"0","num_feature":"30","num_nodes":"7","size_leaf_vector":"1"}},{"base_weights":[-2.5049254E-2,-4.681363E-1,4.5687586E-2,-6.836498E-1,2.3449043E-2,1.6965623E-3,-8.452178E-1,-4.7009237E-2,-7.2088945E-3],"categories":[],"categories_nodes":[],"categories_segments":[],"categories_sizes":[],"default_left":[0,0,0,0,0,0,0,0,0],"id":43,"left_children":[1,3,-1,5,-1,-1,7,-1,-1],"loss_changes":[6.2079186E0,2.3607035E0,0E0,1.0280118E0,0E0,0E0,3.3540535E-1,0E0,0E0],"parents":[2147483647,0,0,1,1,3,3,6,6],"right_children":[2,4,-1,6,-1,-1,8,-1,-1],"split_conditions":[1.177E2,1.043E-1,4.5687586E-2,1.104E-2,2.3449043E-2,1.6965623E-3,9.333E-2,-4.7009237E-2,-7.2088945E-3],"split_indices":[22,6,0,15,0,0,29,0,0],"split_type":[0,0,0,0,0,0,0,0,0],"sum_hessian":[1.2895596E1,9.101361E0,3.794234E0,7.619535E0,1.4818264E0,1.5454831E0,6.074052E0,5.0489616E0,1.0250901E0],"tree_param":{"num_deleted":"0","num_feature":"30","num_nodes":"9","size_leaf_vector":"1"}},{"base_weights":[4.1977067E-2,-7.163024E-1,5.8290565E-1,-4.278188E-2,-4.5614936E-3,-2.8080186E-2,8.4884465E-1,5.0503635E-3,4.7917124E-2],"categories":[],"categories_nodes":[],"categories_segments":[],"categories_sizes":[],"default_left":[0,0,0,0,0,0,0,0,0],"id":44,"left_children":[1,3,5,-1,-1,-1,7,-1,-1],"loss_changes":[6.113854E0,4.6460652E-1,3.111569E0,0E0,0E0,0E0,5.110202E-1,0E0,0E0],"parents":[2147483647,0,0,1,1,2,2,6,6],"right_children":[2,4,6,-1,-1,-1,8,-1,-1],"split_conditions":[1.017E2,1.365E-2,1.534E1,-4.278188E-2,-4.5614936E-3,-2.8080186E-2,4.079E-2,5.0503635E-3,4.7917124E-2],"split_indices":[22,17,1,0,0,0,7,0,0],"split_type":[0,0,0,0,0,0,0,0,0],"sum_hessian":[1.2887527E1,5.23077E0,7.6567574E0,3.975687E0,1.255083E0,1.2340511E0,6.422706E0,1.0658345E0,5.3568716E0],"tree_param":{"num_deleted":"0","num_feature":"30","num_nodes":"9","size_leaf_vector":"1"}},{"base_weights":[-1.4549626E-2,-5.1344556E-1,4.0971745E-2,-7.1020293E-1,1.8829955E-2,3.3920545E-3,-4.6332818E-2],"categories":[],"categories_nodes":[],"categories_segments":[],"categories_sizes":[],"default_left":[0,0,0,0,0,0,0],"id":45,"left_children":[1,3,-1,5,-1,-1,-1],"loss_changes":[6.2095857E0,1.8996475E0,0E0,1.4066772E0,0E0,0E0,0E0],"parents":[2147483647,0,0,1,1,3,3],"right_children":[2,4,-1,6,-1,-1,-1],"split_conditions":[1.459E-1,4.009E1,4.0971745E-2,1.454E-2,1.8829955E-2,3.3920545E-3,-4.6332818E-2],"split_indices":[27,13,0,18,0,0,0],"split_type":[0,0,0,0,0,0,0],"sum_hessian":[1.29131155E1,8.320234E0,4.5928817E0,6.9793963E0,1.340838E0,1.6685076E0,5.310889E0],"tree_param":{"num_deleted":"0","num_feature":"30","num_nodes":"7","size_leaf_vector":"1"}},{"base_weights":[6.011312E-2,-7.4869883E-1,6.613573E-1,-4.3195907E-2,-4.4368966E-3,-8.607392E-3,8.215807E-1,4.5175847E-2,1.1040192E-2],"categories":[],"categories_nodes":[],"categories_segments":[],"categories_sizes":[],"default_left":[0,0,0,0,0,0,0,0,0],"id":46,"left_children":[1,3,5,-1,-1,-1,7,-1,-1],"loss_changes":[6.7653346E0,3.7706375E-1,1.200047E0,0E0,0E0,0E0,1.3631725E-1,0E0,0E0],"parents":[2147483647,0,0,1,1,2,2,6,6],"right_children":[2,4,6,-1,-1,-1,8,-1,-1],"split_conditions":[1.108E-1,1.268E-2,7.259E2,-4.3195907E-2,-4.4368966E-3,-8.607392E-3,4.112E-2,4.5175847E-2,1.1040192E-2],"split_indices":[27,17,23,0,0,0,15,0,0],"split_type":[0,0,0,0,0,0,0,0,0],"sum_hessian":[1.1893814E1,4.966917E0,6.926897E0,3.965547E0,1.0013698E0,1.1048555E0,5.8220415E0,4.6798687E0,1.1421728E0],"tree_param":{"num_deleted":"0","num_feature":"30","num_nodes":"9","size_leaf_vector":"1"}},{"base_weights":[-1.187668E-1,-7.017107E-1,3.982301E-2,-4.7238067E-2,2.3827547E-2],"categories":[],"categories_nodes":[],"categories_segments":[],"categories_sizes":[],"default_left":[0,0,0,0,0],"id":47,"left_children":[1,3,-1,-1,-1],"loss_changes":[7.217083E0,2.78574E0,0E0,0E0,0E0],"parents":[2147483647,0,0,1,1],"right_children":[2,4,-1,-1,-1],"split_conditions":[1.459E-1,1.773E1,3.982301E-2,-4.7238067E-2,2.3827547E-2],"split_indices":[27,20,0,0,0],"split_type":[0,0,0,0,0],"sum_hessian":[1.1479612E1,7.1553707E0,4.324242E0,6.0960555E0,1.0593148E0],"tree_param":{"num_deleted":"0","num_feature":"30","num_nodes":"5","size_leaf_vector":"1"}},{"base_weights":[-5.1456295E-2,-7.184353E-1,5.237903E-1,-4.3381892E-2,1.4007281E-3,-4.642409E-2,4.7008425E-2,-2.8288767E-2,2.0393232E-2],"categories":[],"categories_nodes":[],"categories_segments":[],"categories_sizes":[],"default_left":[0,0,0,0,0,0,0,0,0],"id":48,"left_children":[1,3,5,-1,-1,7,-1,-1,-1],"loss_changes":[5.2296753E0,7.2365713E-1,1.7935157E0,0E0,0E0,1.1894693E0,0E0,0E0,0E0],"parents":[2147483647,0,0,1,1,2,2,5,5],"right_children":[2,4,6,-1,-1,8,-1,-1,-1],"split_conditions":[1.112E-1,4.505E-1,2.726E1,-4.3381892E-2,1.4007281E-3,1.635E1,4.7008425E-2,-2.8288767E-2,2.0393232E-2],"split_indices":[27,10,21,0,0,20,0,0,0],"split_type":[0,0,0,0,0,0,0,0,0],"sum_hessian":[1.1649601E1,5.279399E0,6.370202E0,4.2646217E0,1.0147772E0,3.0634403E0,3.306762E0,1.3148595E0,1.7485809E0],"tree_param":{"num_deleted":"0","num_feature":"30","num_nodes":"9","size_leaf_vector":"1"}},{"base_weights":[-6.2461104E-2,-5.5154604E-1,4.2973008E-2,-7.440192E-1,1.666487E-2,-4.298055E-3,-4.1946594E-2],"categories":[],"categories_nodes":[],"categories_segments":[],"categories_sizes":[],"default_left":[0,0,0,0,0,0,0],"id":49,"left_children":[1,3,-1,5,-1,-1,-1],"loss_changes":[5.7871923E0,1.6629386E0,0E0,3.734126E-1,0E0,0E0,0E0],"parents":[2147483647,0,0,1,1,3,3],"right_children":[2,4,-1,6,-1,-1,-1],"split_conditions":[1.177E2,1.043E-1,4.2973008E-2,2.311E-1,1.666487E-2,-4.298055E-3,-4.1946594E-2],"split_indices":[22,6,0,28,0,0,0],"split_type":[0,0,0,0,0,0,0],"sum_hessian":[1.0783514E1,7.308207E0,3.4753065E0,6.133242E0,1.1749651E0,1.0133141E0,5.119928E0],"tree_param":{"num_deleted":"0","num_feature":"30","num_nodes":"7","size_leaf_vector":"1"}},{"base_weights":[9.483338E-2,-4.11983E-1,4.46194E-2,-7.248884E-1,2.2569935E-1,-4.1926615E-3,-4.2456437E-2,3.657786E-2,-1.7194891E-2],"categories":[],"categories_nodes":[],"categories_segments":[],"categories_sizes":[],"default_left":[0,0,0,0,0,0,0,0,0],"id":50,"left_children":[1,3,-1,5,7,-1,-1,-1,-1],"loss_changes":[5.1298556E0,1.7375064E0,0E0,3.6912823E-1,1.2194332E0,0E0,0E0,0E0,0E0],"parents":[2147483647,0,0,1,1,3,3,4,4],"right_children":[2,4,-1,6,8,-1,-1,-1,-1],"split_conditions":[5.943E-2,1.551E1,4.46194E-2,9.052E-2,1.536E-2,-4.1926615E-3,-4.2456437E-2,3.657786E-2,-1.7194891E-2],"split_indices":[7,20,0,25,18,0,0,0,0],"split_type":[0,0,0,0,0,0,0,0,0],"sum_hessian":[1.0781407E1,6.8878665E0,3.8935416E0,4.5288453E0,2.3590212E0,1.007165E0,3.5216804E0,1.0988202E0,1.260201E0],"tree_param":{"num_deleted":"0","num_feature":"30","num_nodes":"9","size_leaf_vector":"1"}},{"base_weights":[9.3195E-3,-4.7531843E-1,6.961722E-1,-7.2437525E-1,2.66536E-2,-4.331789E-4,4.3034576E-2,-4.378858E-2,-3.874876E-3],"categories":[],"categories_nodes":[],"categories_segments":[],"categories_sizes":[],"default_left":[0,0,0,0,0,0,0,0,0],"id":51,"left_children":[1,3,5,7,-1,-1,-1,-1,-1],"loss_changes":[4.30594E0,2.2937684E0,6.273594E-1,5.7019067E-1,0E0,0E0,0E0,0E0,0E0],"parents":[2147483647,0,0,1,1,2,2,3,3],"right_children":[2,4,6,8,-1,-1,-1,-1,-1],"split_conditions":[5.596E-2,3.444E1,1.772E1,7.879E2,2.66536E-2,-4.331789E-4,4.3034576E-2,-4.378858E-2,-3.874876E-3],"split_indices":[7,13,1,23,0,0,0,0,0],"split_type":[0,0,0,0,0,0,0,0,0],"sum_hessian":[1.0941534E1,6.595662E0,4.345872E0,5.515156E0,1.0805062E0,1.0017033E0,3.344169E0,4.182446E0,1.3327098E0],"tree_param":{"num_deleted":"0","num_feature":"30","num_nodes":"9","size_leaf_vector":"1"}},{"base_weights":[1.6178567E-2,-6.214989E-1,5.3041846E-1,-4.1327845E-2,-7.069541E-4,-2.1931408E-2,7.8055364E-1,9.815828E-3,4.307553E-2],"categories":[],"categories_nodes":[],"categories_segments":[],"categories_sizes":[],"default_left":[0,0,0,0,0,0,0,0,0],"id":52,"left_children":[1,3,5,-1,-1,-1,7,-1,-1],"loss_changes":[4.160251E0,6.9514275E-1,2.0406199E0,0E0,0E0,0E0,1.1127901E-1,0E0,0E0],"parents":[2147483647,0,0,1,1,2,2,6,6],"right_children":[2,4,6,-1,-1,-1,8,-1,-1],"split_conditions":[1.025E2,2.472E1,1.556E1,-4.1327845E-2,-7.069541E-4,-2.1931408E-2,2.432E-1,9.815828E-3,4.307553E-2],"split_indices":[22,13,1,0,0,0,26,0,0],"split_type":[0,0,0,0,0,0,0,0,0],"sum_hessian":[1.0681526E1,4.675342E0,6.0061836E0,3.225456E0,1.4498861E0,1.0776612E0,4.9285226E0,1.0166535E0,3.911869E0],"tree_param":{"num_deleted":"0","num_feature":"30","num_nodes":"9","size_leaf_vector":"1"}},{"base_weights":[4.8133217E-2,-4.600579E-1,4.2912986E-2,1.1700579E-1,-7.514414E-1,-1.4461641E-2,2.7188135E-2,-4.215791E-2,-9.867216E-3],"categories":[],"categories_nodes":[],"categories_segments":[],"categories_sizes":[],"default_left":[0,0,0,0,0,0,0,0,0],"id":53,"left_children":[1,3,-1,5,7,-1,-1,-1,-1],"loss_changes":[5.0480027E0,1.365246E0,0E0,7.4915254E-1,9.697819E-2,0E0,0E0,0E0,0E0],"parents":[2147483647,0,0,1,1,3,3,4,4],"right_children":[2,4,-1,6,8,-1,-1,-1,-1],"split_conditions":[1.459E-1,1.581E-2,4.2912986E-2,1.74E0,1.471E1,-1.4461641E-2,2.7188135E-2,-4.215791E-2,-9.867216E-3],"split_indices":[27,18,0,12,0,0,0,0,0],"split_type":[0,0,0,0,0,0,0,0,0],"sum_hessian":[1.0302319E1,6.596475E0,3.7058432E0,2.4140575E0,4.1824174E0,1.4018561E0,1.0122015E0,3.1408494E0,1.041568E0],"tree_param":{"num_deleted":"0","num_feature":"30","num_nodes":"9","size_leaf_vector":"1"}},{"base_weights":[-1.1382715E-1,-5.4871136E-1,4.1778143E-2,-7.274956E-1,1.5884936E-2,-4.5926172E-2,8.132196E-3],"categories":[],"categories_nodes":[],"categories_segments":[],"categories_sizes":[],"default_left":[0,0,0,0,0,0,0],"id":54,"left_children":[1,3,-1,5,-1,-1,-1],"loss_changes":[5.07823E0,1.5133319E0,0E0,1.3678527E0,0E0,0E0,0E0],"parents":[2147483647,0,0,1,1,3,3],"right_children":[2,4,-1,6,-1,-1,-1],"split_conditions":[1.177E2,9.964E-2,4.1778143E-2,1.809E0,1.5884936E-2,-4.5926172E-2,8.132196E-3],"split_indices":[22,29,0,11,0,0,0],"split_type":[0,0,0,0,0,0,0],"sum_hessian":[1.0189223E1,7.2776227E0,2.9116006E0,6.165667E0,1.1119558E0,5.0500226E0,1.1156442E0],"tree_param":{"num_deleted":"0","num_feature":"30","num_nodes":"7","size_leaf_vector":"1"}},{"base_weights":[-7.91776E-2,-5.0160444E-1,4.0155914E-2,-4.2993758E-2,-7.7552095E-2,-4.3668205E-1,2.0742012E-2,-4.4665183E-3,-2.8159905E-2],"categories":[],"categories_nodes":[],"categories_segments":[],"categories_sizes":[],"default_left":[0,0,0,0,0,0,0,0,0],"id":55,"left_children":[1,3,-1,-1,5,7,-1,-1,-1],"loss_changes":[4.197371E0,1.0727998E0,0E0,0E0,9.829032E-1,8.631283E-2,0E0,0E0,0E0],"parents":[2147483647,0,0,1,1,4,4,5,5],"right_children":[2,4,-1,-1,6,8,-1,-1,-1],"split_conditions":[1.177E2,1.805E1,4.0155914E-2,-4.2993758E-2,1.108E-1,1.109E-1,2.0742012E-2,-4.4665183E-3,-2.8159905E-2],"split_indices":[22,1,0,0,27,25,0,0,0],"split_type":[0,0,0,0,0,0,0,0,0],"sum_hessian":[9.181024E0,6.500286E0,2.6807377E0,2.9663434E0,3.5339425E0,2.1089249E0,1.4250178E0,1.0185525E0,1.0903722E0],"tree_param":{"num_deleted":"0","num_feature":"30","num_nodes":"9","size_leaf_vector":"1"}},{"base_weights":[7.662702E-2,-5.754365E-1,5.526719E-1,-3.9809287E-2,8.267138E-3,-1.0240168E-2,7.4911314E-1,8.40327E-3,4.2185098E-2],"categories":[],"categories_nodes":[],"categories_segments":[],"categories_sizes":[],"default_left":[0,0,0,0,0,0,0,0,0],"id":56,"left_children":[1,3,5,-1,-1,-1,7,-1,-1],"loss_changes":[3.7333593E0,9.7099876E-1,1.175636E0,0E0,0E0,0E0,1.6981602E-1,0E0,0E0],"parents":[2147483647,0,0,1,1,2,2,6,6],"right_children":[2,4,6,-1,-1,-1,8,-1,-1],"split_conditions":[1.017E2,1.368E-2,1.59E1,-3.9809287E-2,8.267138E-3,-1.0240168E-2,6.877E-2,8.40327E-3,4.2185098E-2],"split_indices":[22,17,1,0,0,0,6,0,0],"split_type":[0,0,0,0,0,0,0,0,0],"sum_hessian":[1.0002595E1,4.132841E0,5.869754E0,3.1263933E0,1.0064476E0,1.1999998E0,4.669754E0,1.0425138E0,3.6272402E0],"tree_param":{"num_deleted":"0","num_feature":"30","num_nodes":"9","size_leaf_vector":"1"}},{"base_weights":[1.832395E-2,-4.1214556E-1,4.1171905E-2,-6.0809934E-1,1.7357698E-2,7.141564E-3,-4.2123985E-2],"categories":[],"categories_nodes":[],"categories_segments":[],"categories_sizes":[],"default_left":[0,0,0,0,0,0,0],"id":57,"left_children":[1,3,-1,5,-1,-1,-1],"loss_changes":[3.888961E0,1.3032172E0,0E0,1.2111671E0,0E0,0E0,0E0],"parents":[2147483647,0,0,1,1,3,3],"right_children":[2,4,-1,6,-1,-1,-1],"split_conditions":[1.177E2,1.043E-1,4.1171905E-2,1.104E-2,1.7357698E-2,7.141564E-3,-4.2123985E-2],"split_indices":[22,6,0,15,0,0,0],"split_type":[0,0,0,0,0,0,0],"sum_hessian":[9.241835E0,6.3400807E0,2.901754E0,5.197805E0,1.1422757E0,1.329339E0,3.8684661E0],"tree_param":{"num_deleted":"0","num_feature":"30","num_nodes":"7","size_leaf_vector":"1"}},{"base_weights":[4.358458E-2,-3.3299702E-1,3.9315995E-2,-5.712058E-1,2.2809021E-2,9.5495675E-3,-4.0860336E-2],"categories":[],"categories_nodes":[],"categories_segments":[],"categories_sizes":[],"default_left":[0,0,0,0,0,0,0],"id":58,"left_children":[1,3,-1,5,-1,-1,-1],"loss_changes":[2.9313335E0,1.5831883E0,0E0,1.2526528E0,0E0,0E0,0E0],"parents":[2147483647,0,0,1,1,3,3],"right_children":[2,4,-1,6,-1,-1,-1],"split_conditions":[1.773E1,9.964E-2,3.9315995E-2,1.104E-2,2.2809021E-2,9.5495675E-3,-4.0860336E-2],"split_indices":[20,29,0,15,0,0,0],"split_type":[0,0,0,0,0,0,0],"sum_hessian":[8.544107E0,6.0355997E0,2.5085077E0,4.8483524E0,1.1872469E0,1.2375634E0,3.610789E0],"tree_param":{"num_deleted":"0","num_feature":"30","num_nodes":"7","size_leaf_vector":"1"}},{"base_weights":[1.4215664E-2,-3.5795888E-1,3.970465E-2,-6.966712E-1,1.8941721E-1,-4.0730838E-2,-6.1727217E-3,2.721693E-2,-1.0736817E-2],"categories":[],"categories_nodes":[],"categories_segments":[],"categories_sizes":[],"default_left":[0,0,0,0,0,0,0,0,0],"id":59,"left_children":[1,3,-1,5,7,-1,-1,-1,-1],"loss_changes":[3.2269208E0,1.5322033E0,0E0,2.2930884E-1,6.4378136E-1,0E0,0E0,0E0,0E0],"parents":[2147483647,0,0,1,1,3,3,4,4],"right_children":[2,4,-1,6,8,-1,-1,-1,-1],"split_conditions":[1.177E2,9.968E-2,3.970465E-2,2.92E1,1.745E-2,-4.0730838E-2,-6.1727217E-3,2.721693E-2,-1.0736817E-2],"split_indices":[22,4,0,21,18,0,0,0,0],"split_type":[0,0,0,0,0,0,0,0,0],"sum_hessian":[9.138373E0,6.5524206E0,2.5859525E0,3.879233E0,2.6731877E0,2.8679826E0,1.0112503E0,1.2386041E0,1.4345835E0],"tree_param":{"num_deleted":"0","num_feature":"30","num_nodes":"9","size_leaf_vector":"1"}},{"base_weights":[1.0059528E-1,-5.8606833E-1,5.983914E-1,-3.8566843E-2,1.6109614E-3,-1.0609883E-2,4.017518E-2],"categories":[],"categories_nodes":[],"categories_segments":[],"categories_sizes":[],"default_left":[0,0,0,0,0,0,0],"id":60,"left_children":[1,3,5,-1,-1,-1,-1],"loss_changes":[3.6778805E0,5.513245E-1,1.1909709E0,0E0,0E0,0E0,0E0],"parents":[2147483647,0,0,1,1,2,2],"right_children":[2,4,6,-1,-1,-1,-1],"split_conditions":[1.025E2,3.721E-1,1.112E-1,-3.8566843E-2,1.6109614E-3,-1.0609883E-2,4.017518E-2],"split_indices":[22,10,27,0,0,0,0],"split_type":[0,0,0,0,0,0,0],"sum_hessian":[8.733769E0,3.5960398E0,5.1377296E0,2.576469E0,1.0195708E0,1.0305446E0,4.1071854E0],"tree_param":{"num_deleted":"0","num_feature":"30","num_nodes":"7","size_leaf_vector":"1"}},{"base_weights":[-2.7367778E-2,-3.7929613E-2,4.6989372E-1,-1.6597372E-2,6.7908984E-1,7.1757534E-3,4.1944064E-2],"categories":[],"categories_nodes":[],"categories_segments":[],"categories_sizes":[],"default_left":[0,0,0,0,0,0,0],"id":61,"left_children":[1,-1,3,-1,5,-1,-1],"loss_changes":[3.9011683E0,0E0,1.3023504E0,0E0,3.434577E-1,0E0,0E0],"parents":[2147483647,0,0,2,2,4,4],"right_children":[2,-1,4,-1,6,-1,-1],"split_conditions":[1.017E2,-3.7929613E-2,1.959E1,-1.6597372E-2,5.069E-2,7.1757534E-3,4.1944064E-2],"split_indices":[22,0,21,0,7,0,0],"split_type":[0,0,0,0,0,0,0],"sum_hessian":[8.748667E0,3.3285236E0,5.4201436E0,1.0000837E0,4.42006E0,1.4518882E0,2.9681718E0],"tree_param":{"num_deleted":"0","num_feature":"30","num_nodes":"7","size_leaf_vector":"1"}},{"base_weights":[2.5428664E-2,-4.275564E-1,3.4733858E-2,1.625203E-2,-3.6083702E-2],"categories":[],"categories_nodes":[],"categories_segments":[],"categories_sizes":[],"default_left":[0,0,0,0,0],"id":62,"left_children":[1,3,-1,-1,-1],"loss_changes":[3.1164515E0,1.5992554E0,0E0,0E0,0E0],"parents":[2147483647,0,0,1,1],"right_children":[2,4,-1,-1,-1],"split_conditions":[1.043E-1,1.104E-2,3.4733858E-2,1.625203E-2,-3.6083702E-2],"split_indices":[6,15,0,0,0],"split_type":[0,0,0,0,0],"sum_hessian":[8.300178E0,5.165211E0,3.1349661E0,1.4218361E0,3.7433753E0],"tree_param":{"num_deleted":"0","num_feature":"30","num_nodes":"5","size_leaf_vector":"1"}},{"base_weights":[5.324823E-3,-3.796725E-1,3.2863762E-2,1.22152776E-1,-3.6991857E-2,-1.4653142E-2,2.5829304E-2],"categories":[],"categories_nodes":[],"categories_segments":[],"categories_sizes":[],"default_left":[0,0,0,0,0,0,0],"id":63,"left_children":[1,3,-1,5,-1,-1,-1],"loss_changes":[2.5801504E0,1.2600682E0,0E0,7.348172E-1,0E0,0E0,0E0],"parents":[2147483647,0,0,1,1,3,3],"right_children":[2,4,-1,6,-1,-1,-1],"split_conditions":[1.043E-1,1.581E-2,3.2863762E-2,2.322E1,-3.6991857E-2,-1.4653142E-2,2.5829304E-2],"split_indices":[6,18,0,13,0,0,0],"split_type":[0,0,0,0,0,0,0],"sum_hessian":[8.285293E0,5.4717107E0,2.8135822E0,2.56236E0,2.9093509E0,1.3734972E0,1.1888628E0],"tree_param":{"num_deleted":"0","num_feature":"30","num_nodes":"7","size_leaf_vector":"1"}},{"base_weights":[-7.149669E-2,-4.689474E-1,3.7608158E-2,-7.142305E-1,1.8914051E-2,-4.320518E-2,-1.4632124E-3],"categories":[],"categories_nodes":[],"categories_segments":[],"categories_sizes":[],"default_left":[0,0,0,0,0,0,0],"id":64,"left_children":[1,3,-1,5,-1,-1,-1],"loss_changes":[3.2292457E0,1.6298628E0,0E0,5.311365E-1,0E0,0E0,0E0],"parents":[2147483647,0,0,1,1,3,3],"right_children":[2,4,-1,6,-1,-1,-1],"split_conditions":[1.752E1,9.964E-2,3.7608158E-2,1.74E0,1.8914051E-2,-4.320518E-2,-1.4632124E-3],"split_indices":[20,29,0,11,0,0,0],"split_type":[0,0,0,0,0,0,0],"sum_hessian":[7.7869124E0,5.542888E0,2.2440238E0,4.4201736E0,1.1227145E0,3.4120727E0,1.0081011E0],"tree_param":{"num_deleted":"0","num_feature":"30","num_nodes":"7","size_leaf_vector":"1"}},{"base_weights":[1.4756621E-2,-2.8173727E-1,4.0684517E-2,-5.7400584E-1,2.4257123E-2,1.2096904E-2,-4.2836096E-2],"categories":[],"categories_nodes":[],"categories_segments":[],"categories_sizes":[],"default_left":[0,0,0,0,0,0,0],"id":65,"left_children":[1,3,-1,5,-1,-1,-1],"loss_changes":[2.2842548E0,1.8631177E0,0E0,1.4938102E0,0E0,0E0,0E0],"parents":[2147483647,0,0,1,1,3,3],"right_children":[2,4,-1,6,-1,-1,-1],"split_conditions":[5.495E-1,1.459E-1,4.0684517E-2,1.461E-2,2.4257123E-2,1.2096904E-2,-4.2836096E-2],"split_indices":[10,27,0,18,0,0,0],"split_type":[0,0,0,0,0,0,0],"sum_hessian":[7.67535E0,6.070043E0,1.6053075E0,4.577137E0,1.4929061E0,1.2149421E0,3.3621948E0],"tree_param":{"num_deleted":"0","num_feature":"30","num_nodes":"7","size_leaf_vector":"1"}},{"base_weights":[1.0141211E-2,-2.9848853E-1,4.075967E-2,-5.748141E-1,2.3321677E-2,9.405496E-3,-4.2378813E-2],"categories":[],"categories_nodes":[],"categories_segments":[],"categories_sizes":[],"default_left":[0,0,0,0,0,0,0],"id":66,"left_children":[1,3,-1,5,-1,-1,-1],"loss_changes":[2.4176104E0,1.7599041E0,0E0,1.3315989E0,0E0,0E0,0E0],"parents":[2147483647,0,0,1,1,3,3],"right_children":[2,4,-1,6,-1,-1,-1],"split_conditions":[5.495E-1,1.459E-1,4.075967E-2,1.461E-2,2.3321677E-2,9.405496E-3,-4.2378813E-2],"split_indices":[10,27,0,18,0,0,0],"split_type":[0,0,0,0,0,0,0],"sum_hessian":[7.750937E0,6.057809E0,1.6931279E0,4.632769E0,1.42504E0,1.3018389E0,3.3309302E0],"tree_param":{"num_deleted":"0","num_feature":"30","num_nodes":"7","size_leaf_vector":"1"}},{"base_weights":[2.6691789E-2,-3.6769634E-1,3.819735E-2,-5.68219E-1,7.284578E-3,-3.6629763E-2,-2.2431714E-3],"categories":[],"categories_nodes":[],"categories_segments":[],"categories_sizes":[],"default_left":[0,0,0,0,0,0,0],"id":67,"left_children":[1,3,-1,5,-1,-1,-1],"loss_changes":[2.814052E0,7.365825E-1,0E0,3.7758029E-1,0E0,0E0,0E0],"parents":[2147483647,0,0,1,1,3,3],"right_children":[2,4,-1,6,-1,-1,-1],"split_conditions":[1.177E2,2.158E1,3.819735E-2,1.37E-2,7.284578E-3,-3.6629763E-2,-2.2431714E-3],"split_indices":[22,1,0,17,0,0,0],"split_type":[0,0,0,0,0,0,0],"sum_hessian":[7.712033E0,5.350887E0,2.3611462E0,3.7711298E0,1.5797569E0,2.5655382E0,1.2055917E0],"tree_param":{"num_deleted":"0","num_feature":"30","num_nodes":"7","size_leaf_vector":"1"}},{"base_weights":[4.251884E-3,-3.5568085E-2,3.6953184E-1,-1.2639268E-2,5.618211E-1,3.1306164E-4,3.7651133E-2],"categories":[],"categories_nodes":[],"categories_segments":[],"categories_sizes":[],"default_left":[0,0,0,0,0,0,0],"id":68,"left_children":[1,-1,3,-1,5,-1,-1],"loss_changes":[2.432866E0,0E0,8.784579E-1,0E0,5.276557E-1,0E0,0E0],"parents":[2147483647,0,0,2,2,4,4],"right_children":[2,-1,4,-1,6,-1,-1],"split_conditions":[3.323E-2,-3.5568085E-2,2.054E1,-1.2639268E-2,9.688E-2,3.1306164E-4,3.7651133E-2],"split_indices":[7,0,21,0,4,0,0],"split_type":[0,0,0,0,0,0,0],"sum_hessian":[7.301458E0,2.1472924E0,5.1541653E0,1.1423855E0,4.01178E0,1.2916054E0,2.7201746E0],"tree_param":{"num_deleted":"0","num_feature":"30","num_nodes":"7","size_leaf_vector":"1"}},{"base_weights":[-5.4915387E-2,-3.6184933E-2,4.1374058E-1,-2.2427153E-2,7.0285046E-1,1.09483665E-2,3.9583147E-2],"categories":[],"categories_nodes":[],"categories_segments":[],"categories_sizes":[],"default_left":[0,0,0,0,0,0,0],"id":69,"left_children":[1,-1,3,-1,5,-1,-1],"loss_changes":[2.9486258E0,0E0,1.7128005E0,0E0,2.3816586E-2,0E0,0E0],"parents":[2147483647,0,0,2,2,4,4],"right_children":[2,-1,4,-1,6,-1,-1],"split_conditions":[1.023E2,-3.6184933E-2,1.959E1,-2.2427153E-2,5.069E-2,1.09483665E-2,3.9583147E-2],"split_indices":[22,0,21,0,7,0,0],"split_type":[0,0,0,0,0,0,0],"sum_hessian":[7.452313E0,2.8463306E0,4.6059823E0,1.0180724E0,3.58791E0,1.0938284E0,2.4940813E0],"tree_param":{"num_deleted":"0","num_feature":"30","num_nodes":"7","size_leaf_vector":"1"}},{"base_weights":[1.2084459E-1,-2.4326746E-1,3.686159E-2,3.047603E-1,-3.423616E-2,-8.797536E-3,3.1837907E-2],"categories":[],"categories_nodes":[],"categories_segments":[],"categories_sizes":[],"default_left":[0,0,0,0,0,0,0],"id":70,"left_children":[1,3,-1,5,-1,-1,-1],"loss_changes":[1.9933369E0,1.6198397E0,0E0,6.3780046E-1,0E0,0E0,0E0],"parents":[2147483647,0,0,1,1,3,3],"right_children":[2,4,-1,6,-1,-1,-1],"split_conditions":[1.459E-1,1.581E-2,3.686159E-2,2.619E-3,-3.423616E-2,-8.797536E-3,3.1837907E-2],"split_indices":[27,18,0,19,0,0,0],"split_type":[0,0,0,0,0,0,0],"sum_hessian":[7.082521E0,4.832941E0,2.2495801E0,2.2943532E0,2.5385878E0,1.1292696E0,1.1650836E0],"tree_param":{"num_deleted":"0","num_feature":"30","num_nodes":"7","size_leaf_vector":"1"}},{"base_weights":[-2.5333932E-2,-3.674282E-2,5.2890974E-1,-4.371569E-3,7.169902E-1,1.0852228E-2,4.0641844E-2],"categories":[],"categories_nodes":[],"categories_segments":[],"categories_sizes":[],"default_left":[0,0,0,0,0,0,0],"id":71,"left_children":[1,-1,3,-1,5,-1,-1],"loss_changes":[3.546415E0,0E0,6.5269923E-1,0E0,1.565361E-2,0E0,0E0],"parents":[2147483647,0,0,2,2,4,4],"right_children":[2,-1,4,-1,6,-1,-1],"split_conditions":[1.112E-1,-3.674282E-2,1.548E1,-4.371569E-3,8.225E-1,1.0852228E-2,4.0641844E-2],"split_indices":[27,0,20,0,11,0,0],"split_type":[0,0,0,0,0,0,0],"sum_hessian":[7.0298934E0,2.9401493E0,4.089744E0,1.0813357E0,3.0084083E0,1.0091388E0,1.9992694E0],"tree_param":{"num_deleted":"0","num_feature":"30","num_nodes":"7","size_leaf_vector":"1"}},{"base_weights":[-2.0618355E-3,-5.220397E-1,4.253787E-1,-3.4908373E-2,1.0357023E-4,-2.8663604E-3,5.679639E-1,4.8526446E-3,3.4959152E-2],"categories":[],"categories_nodes":[],"categories_segments":[],"categories_sizes":[],"default_left":[0,0,0,0,0,0,0,0,0],"id":72,"left_children":[1,3,5,-1,-1,-1,7,-1,-1],"loss_changes":[1.986956E0,3.7359858E-1,3.7044E-1,0E0,0E0,0E0,1.7198348E-1,0E0,0E0],"parents":[2147483647,0,0,1,1,2,2,6,6],"right_children":[2,4,6,-1,-1,-1,8,-1,-1],"split_conditions":[1.112E-1,2.735E0,7.298E2,-3.4908373E-2,1.0357023E-4,-2.8663604E-3,2.088E1,4.8526446E-3,3.4959152E-2],"split_indices":[27,12,23,0,0,0,21,0,0],"split_type":[0,0,0,0,0,0,0,0,0],"sum_hessian":[6.9406743E0,3.0315292E0,3.9091454E0,2.020456E0,1.0110731E0,1.0277518E0,2.8813934E0,1.0070349E0,1.8743587E0],"tree_param":{"num_deleted":"0","num_feature":"30","num_nodes":"9","size_leaf_vector":"1"}},{"base_weights":[-3.314429E-2,-3.9279464E-1,3.439595E-2,1.223085E-2,-3.3659764E-2],"categories":[],"categories_nodes":[],"categories_segments":[],"categories_sizes":[],"default_left":[0,0,0,0,0],"id":73,"left_children":[1,3,-1,-1,-1],"loss_changes":[2.2324073E0,1.1807427E0,0E0,0E0,0E0],"parents":[2147483647,0,0,1,1],"right_children":[2,4,-1,-1,-1],"split_conditions":[1.459E-1,1.461E-2,3.439595E-2,1.223085E-2,-3.3659764E-2],"split_indices":[27,18,0,0,0],"split_type":[0,0,0,0,0],"sum_hessian":[6.566388E0,4.6849136E0,1.8814745E0,1.4702746E0,3.214639E0],"tree_param":{"num_deleted":"0","num_feature":"30","num_nodes":"5","size_leaf_vector":"1"}},{"base_weights":[1.7525807E-2,-3.9284396E-1,3.400777E-2,-3.5014383E-2,1.79662E-2],"categories":[],"categories_nodes":[],"categories_segments":[],"categories_sizes":[],"default_left":[0,0,0,0,0],"id":74,"left_children":[1,3,-1,-1,-1],"loss_changes":[2.1604028E0,1.392484E0,0E0,0E0,0E0],"parents":[2147483647,0,0,1,1],"right_children":[2,4,-1,-1,-1],"split_conditions":[4.009E1,9.74E-2,3.400777E-2,-3.5014383E-2,1.79662E-2],"split_indices":[13,29,0,0,0],"split_type":[0,0,0,0,0],"sum_hessian":[5.96229E0,3.9334369E0,2.028853E0,2.8411214E0,1.0923152E0],"tree_param":{"num_deleted":"0","num_feature":"30","num_nodes":"5","size_leaf_vector":"1"}},{"base_weights":[1.3735273E-1,-4.433459E-1,5.279528E-1,-3.1119997E-2,-5.541693E-5,-3.5668008E-3,3.5252444E-2],"categories":[],"categories_nodes":[],"categories_segments":[],"categories_sizes":[],"default_left":[0,0,0,0,0,0,0],"id":75,"left_children":[1,3,5,-1,-1,-1,-1],"loss_changes":[1.9148166E0,2.7831173E-1,5.689179E-1,0E0,0E0,0E0,0E0],"parents":[2147483647,0,0,1,1,2,2],"right_children":[2,4,6,-1,-1,-1,-1],"split_conditions":[1.112E-1,2.561E0,1.55E1,-3.1119997E-2,-5.541693E-5,-3.5668008E-3,3.5252444E-2],"split_indices":[27,12,20,0,0,0,0],"split_type":[0,0,0,0,0,0,0],"sum_hessian":[6.4100347E0,2.5234401E0,3.8865943E0,1.5062133E0,1.0172267E0,1.0227666E0,2.8638277E0],"tree_param":{"num_deleted":"0","num_feature":"30","num_nodes":"7","size_leaf_vector":"1"}},{"base_weights":[-4.099298E-2,-3.7448332E-1,3.3795148E-2,-6.18462E-1,1.1369853E-2,-3.7616912E-2,-4.7212965E-3],"categories":[],"categories_nodes":[],"categories_segments":[],"categories_sizes":[],"default_left":[0,0,0,0,0,0,0],"id":76,"left_children":[1,3,-1,5,-1,-1,-1],"loss_changes":[2.0393057E0,9.839151E-1,0E0,2.3449254E-1,0E0,0E0,0E0],"parents":[2147483647,0,0,1,1,3,3],"right_children":[2,4,-1,6,-1,-1,-1],"split_conditions":[1.177E2,2.158E1,3.3795148E-2,1.275E-1,1.1369853E-2,-3.7616912E-2,-4.7212965E-3],"split_indices":[22,1,0,5,0,0,0],"split_type":[0,0,0,0,0,0,0],"sum_hessian":[6.47117E0,4.7426057E0,1.7285641E0,3.35505E0,1.3875556E0,2.325333E0,1.0297168E0],"tree_param":{"num_deleted":"0","num_feature":"30","num_nodes":"7","size_leaf_vector":"1"}},{"base_weights":[5.6599565E-2,-4.743962E-1,4.7438842E-1,-3.287322E-2,5.5626215E-4,-7.4338325E-4,3.0872375E-2],"categories":[],"categories_nodes":[],"categories_segments":[],"categories_sizes":[],"default_left":[0,0,0,0,0,0,0],"id":77,"left_children":[1,3,5,-1,-1,-1,-1],"loss_changes":[1.8490753E0,3.3827662E-1,3.3093786E-1,0E0,0E0,0E0,0E0],"parents":[2147483647,0,0,1,1,2,2],"right_children":[2,4,6,-1,-1,-1,-1],"split_conditions":[1.112E-1,1.161E-2,7.395E-2,-3.287322E-2,5.5626215E-4,-7.4338325E-4,3.0872375E-2],"split_indices":[27,17,6,0,0,0,0],"split_type":[0,0,0,0,0,0,0],"sum_hessian":[6.3205786E0,2.7235475E0,3.597031E0,1.7206335E0,1.0029141E0,1.0165491E0,2.580482E0],"tree_param":{"num_deleted":"0","num_feature":"30","num_nodes":"7","size_leaf_vector":"1"}},{"base_weights":[2.987836E-2,-3.4758958E-1,3.3495784E-2,-3.597536E-2,1.5814085E-2],"categories":[],"categories_nodes":[],"categories_segments":[],"categories_sizes":[],"default_left":[0,0,0,0,0],"id":78,"left_children":[1,3,-1,-1,-1],"loss_changes":[1.9302937E0,1.4813359E0,0E0,0E0,0E0],"parents":[2147483647,0,0,1,1],"right_children":[2,4,-1,-1,-1],"split_conditions":[3.646E1,2.994E-1,3.3495784E-2,-3.597536E-2,1.5814085E-2],"split_indices":[13,28,0,0,0],"split_type":[0,0,0,0,0],"sum_hessian":[6.0260077E0,4.0779324E0,1.9480753E0,2.5599675E0,1.5179645E0],"tree_param":{"num_deleted":"0","num_feature":"30","num_nodes":"5","size_leaf_vector":"1"}},{"base_weights":[9.558932E-2,-3.2892168E-2,4.8604834E-1,-6.4835E-3,6.726827E-1,1.0818978E-2,4.083371E-2],"categories":[],"categories_nodes":[],"categories_segments":[],"categories_sizes":[],"default_left":[0,0,0,0,0,0,0],"id":79,"left_children":[1,-1,3,-1,5,-1,-1],"loss_changes":[2.3055143E0,0E0,6.642209E-1,0E0,8.707261E-2,0E0,0E0],"parents":[2147483647,0,0,2,2,4,4],"right_children":[2,-1,4,-1,6,-1,-1],"split_conditions":[3.323E-2,-3.2892168E-2,1.616E1,-6.4835E-3,3.376E1,1.0818978E-2,4.083371E-2],"split_indices":[7,0,1,0,13,0,0],"split_type":[0,0,0,0,0,0,0],"sum_hessian":[5.7500844E0,1.7289993E0,4.0210853E0,1.0063369E0,3.0147483E0,1.3234655E0,1.6912829E0],"tree_param":{"num_deleted":"0","num_feature":"30","num_nodes":"7","size_leaf_vector":"1"}},{"base_weights":[-9.6504994E-2,-4.7473752E-1,2.697509E-2,-3.6618482E-2,2.61954E-3],"categories":[],"categories_nodes":[],"categories_segments":[],"categories_sizes":[],"default_left":[0,0,0,0,0],"id":80,"left_children":[1,3,-1,-1,-1],"loss_changes":[1.8697126E0,6.818372E-1,0E0,0E0,0E0],"parents":[2147483647,0,0,1,1],"right_children":[2,4,-1,-1,-1],"split_conditions":[1.029E-1,7.879E2,2.697509E-2,-3.6618482E-2,2.61954E-3],"split_indices":[6,23,0,0,0],"split_type":[0,0,0,0,0],"sum_hessian":[5.707687E0,3.7381678E0,1.9695191E0,2.2494164E0,1.4887515E0],"tree_param":{"num_deleted":"0","num_feature":"30","num_nodes":"5","size_leaf_vector":"1"}},{"base_weights":[3.7941903E-2,-2.271435E-1,3.0053323E-2,1.2604052E-2,-5.017637E-1,-3.3011697E-2,-2.8250953E-3],"categories":[],"categories_nodes":[],"categories_segments":[],"categories_sizes":[],"default_left":[0,0,0,0,0,0,0],"id":81,"left_children":[1,3,-1,-1,5,-1,-1],"loss_changes":[1.0897236E0,7.9337883E-1,0E0,0E0,2.1359378E-1,0E0,0E0],"parents":[2147483647,0,0,1,1,4,4],"right_children":[2,4,-1,-1,6,-1,-1],"split_conditions":[1.177E2,1.78E-2,3.0053323E-2,1.2604052E-2,9.954E-2,-3.3011697E-2,-2.8250953E-3],"split_indices":[22,16,0,0,6,0,0],"split_type":[0,0,0,0,0,0,0],"sum_hessian":[5.3854513E0,4.0673995E0,1.3180515E0,1.5116233E0,2.5557764E0,1.5288527E0,1.0269237E0],"tree_param":{"num_deleted":"0","num_feature":"30","num_nodes":"7","size_leaf_vector":"1"}},{"base_weights":[8.731403E-2,-2.2042038E-1,3.765827E-2,2.0345844E-2,-5.106493E-1,-3.503059E-2,6.3409173E-4],"categories":[],"categories_nodes":[],"categories_segments":[],"categories_sizes":[],"default_left":[0,0,0,0,0,0,0],"id":82,"left_children":[1,3,-1,-1,5,-1,-1],"loss_changes":[1.4899558E0,1.1532063E0,0E0,0E0,4.0590215E-1,0E0,0E0],"parents":[2147483647,0,0,1,1,4,4],"right_children":[2,4,-1,-1,6,-1,-1],"split_conditions":[5.495E-1,1.5E-2,3.765827E-2,2.0345844E-2,1.365E-1,-3.503059E-2,6.3409173E-4],"split_indices":[10,18,0,0,24,0,0],"split_type":[0,0,0,0,0,0,0],"sum_hessian":[5.4612393E0,4.192548E0,1.2686919E0,1.1989441E0,2.9936035E0,1.9478167E0,1.0457867E0],"tree_param":{"num_deleted":"0","num_feature":"30","num_nodes":"7","size_leaf_vector":"1"}},{"base_weights":[4.5816954E-2,-3.1178718E-2,3.9401203E-1,7.408087E-2,3.6639E-2,-1.2190525E-2,1.9454211E-2],"categories":[],"categories_nodes":[],"categories_segments":[],"categories_sizes":[],"default_left":[0,0,0,0,0,0,0],"id":83,"left_children":[1,-1,3,5,-1,-1,-1],"loss_changes":[1.6873013E0,0E0,4.5310384E-1,4.4735828E-1,0E0,0E0,0E0],"parents":[2147483647,0,0,2,2,3,3],"right_children":[2,-1,4,6,-1,-1,-1],"split_conditions":[3.515E-2,-3.1178718E-2,5.495E-1,1.392E-1,3.6639E-2,-1.2190525E-2,1.9454211E-2],"split_indices":[7,0,10,24,0,0,0],"split_type":[0,0,0,0,0,0,0],"sum_hessian":[5.185058E0,1.5035895E0,3.6814682E0,2.5201375E0,1.1613308E0,1.3668065E0,1.153331E0],"tree_param":{"num_deleted":"0","num_feature":"30","num_nodes":"7","size_leaf_vector":"1"}},{"base_weights":[-8.624126E-2,-4.2367667E-1,3.164683E-2,-3.5287607E-2,4.6901465E-3],"categories":[],"categories_nodes":[],"categories_segments":[],"categories_sizes":[],"default_left":[0,0,0,0,0],"id":84,"left_children":[1,3,-1,-1,-1],"loss_changes":[1.7975504E0,7.797781E-1,0E0,0E0,0E0],"parents":[2147483647,0,0,1,1],"right_children":[2,4,-1,-1,-1],"split_conditions":[1.177E2,9.968E-2,3.164683E-2,-3.5287607E-2,4.6901465E-3],"split_indices":[22,4,0,0,0],"split_type":[0,0,0,0,0],"sum_hessian":[5.3021865E0,3.8885715E0,1.413615E0,2.2812486E0,1.6073228E0],"tree_param":{"num_deleted":"0","num_feature":"30","num_nodes":"5","size_leaf_vector":"1"}},{"base_weights":[1.810457E-2,-3.3424128E-2,4.115481E-1,-1.6302363E-3,3.616346E-2],"categories":[],"categories_nodes":[],"categories_segments":[],"categories_sizes":[],"default_left":[0,0,0,0,0],"id":85,"left_children":[1,-1,3,-1,-1],"loss_changes":[2.029933E0,0E0,6.8103516E-1,0E0,0E0],"parents":[2147483647,0,0,2,2],"right_children":[2,-1,4,-1,-1],"split_conditions":[1.014E2,-3.3424128E-2,1.345E-1,-1.6302363E-3,3.616346E-2],"split_indices":[22,0,24,0,0],"split_type":[0,0,0,0,0],"sum_hessian":[5.496128E0,1.7475219E0,3.7486064E0,1.915182E0,1.8334243E0],"tree_param":{"num_deleted":"0","num_feature":"30","num_nodes":"5","size_leaf_vector":"1"}},{"base_weights":[2.4004403E-1,-2.3938061E-1,5.348419E-1,-2.6213964E-2,8.606737E-3,7.173328E-3,3.23568E-2],"categories":[],"categories_nodes":[],"categories_segments":[],"categories_sizes":[],"default_left":[0,0,0,0,0,0,0],"id":86,"left_children":[1,3,5,-1,-1,-1,-1],"loss_changes":[1.0052427E0,4.48311E-1,8.966005E-2,0E0,0E0,0E0,0E0],"parents":[2147483647,0,0,1,1,2,2],"right_children":[2,4,6,-1,-1,-1,-1],"split_conditions":[1.112E-1,2.957E-2,2.572E1,-2.6213964E-2,8.606737E-3,7.173328E-3,3.23568E-2],"split_indices":[27,7,21,0,0,0,0],"split_type":[0,0,0,0,0,0,0],"sum_hessian":[5.2066884E0,2.0541093E0,3.1525788E0,1.0518651E0,1.0022444E0,1.2106686E0,1.9419104E0],"tree_param":{"num_deleted":"0","num_feature":"30","num_nodes":"7","size_leaf_vector":"1"}},{"base_weights":[4.9287756E-4,-3.981493E-1,3.1104302E-2,-3.3351805E-2,1.2005958E-2],"categories":[],"categories_nodes":[],"categories_segments":[],"categories_sizes":[],"default_left":[0,0,0,0,0],"id":87,"left_children":[1,3,-1,-1,-1],"loss_changes":[1.745699E0,8.969431E-1,0E0,0E0,0E0],"parents":[2147483647,0,0,1,1],"right_children":[2,4,-1,-1,-1],"split_conditions":[4.009E1,3.172E-1,3.1104302E-2,-3.3351805E-2,1.2005958E-2],"split_indices":[13,25,0,0,0],"split_type":[0,0,0,0,0],"sum_hessian":[5.0454264E0,3.293011E0,1.7524152E0,2.285229E0,1.0077821E0],"tree_param":{"num_deleted":"0","num_feature":"30","num_nodes":"5","size_leaf_vector":"1"}},{"base_weights":[1.06364146E-1,-2.6509026E-2,3.5266405E-1,-1.0658985E-2,3.5708994E-2],"categories":[],"categories_nodes":[],"categories_segments":[],"categories_sizes":[],"default_left":[0,0,0,0,0],"id":88,"left_children":[1,-1,3,-1,-1],"loss_changes":[1.1908313E0,0E0,1.219475E0,0E0,0E0],"parents":[2147483647,0,0,2,2],"right_children":[2,-1,4,-1,-1],"split_conditions":[2.024E1,-2.6509026E-2,1.014E2,-1.0658985E-2,3.5708994E-2],"split_indices":[21,0,22,0,0],"split_type":[0,0,0,0,0],"sum_hessian":[5.402921E0,1.185779E0,4.2171426E0,1.8039386E0,2.4132037E0],"tree_param":{"num_deleted":"0","num_feature":"30","num_nodes":"5","size_leaf_vector":"1"}},{"base_weights":[1.5366864E-1,-1.04359366E-1,3.588737E-2,-4.4998205E-1,1.9320747E-2,-3.193472E-2,3.1673448E-4],"categories":[],"categories_nodes":[],"categories_segments":[],"categories_sizes":[],"default_left":[0,0,0,0,0,0,0],"id":89,"left_children":[1,3,-1,5,-1,-1,-1],"loss_changes":[9.969461E-1,1.059263E0,0E0,3.075742E-1,0E0,0E0,0E0],"parents":[2147483647,0,0,1,1,3,3],"right_children":[2,4,-1,6,-1,-1,-1],"split_conditions":[5.495E-1,2.948E-1,3.588737E-2,4.562E-2,1.9320747E-2,-3.193472E-2,3.1673448E-4],"split_indices":[10,28,0,7,0,0,0],"split_type":[0,0,0,0,0,0,0],"sum_hessian":[5.334966E0,4.2197204E0,1.1152459E0,2.524785E0,1.6949353E0,1.5033804E0,1.0214045E0],"tree_param":{"num_deleted":"0","num_feature":"30","num_nodes":"7","size_leaf_vector":"1"}},{"base_weights":[1.6375178E-1,-3.2314518E-1,5.4909164E-1,-2.8972566E-2,6.6218446E-3,4.592311E-3,3.4285523E-2],"categories":[],"categories_nodes":[],"categories_segments":[],"categories_sizes":[],"default_left":[0,0,0,0,0,0,0],"id":90,"left_children":[1,3,5,-1,-1,-1,-1],"loss_changes":[1.3193687E0,4.6422365E-1,1.7240071E-1,0E0,0E0,0E0,0E0],"parents":[2147483647,0,0,1,1,2,2],"right_children":[2,4,6,-1,-1,-1,-1],"split_conditions":[1.112E-1,3.327E1,1.737E-1,-2.8972566E-2,6.6218446E-3,4.592311E-3,3.4285523E-2],"split_indices":[27,13,8,0,0,0,0],"split_type":[0,0,0,0,0,0,0],"sum_hessian":[5.0863843E0,2.3183856E0,2.7679987E0,1.3096799E0,1.0087057E0,1.0214887E0,1.7465099E0],"tree_param":{"num_deleted":"0","num_feature":"30","num_nodes":"7","size_leaf_vector":"1"}},{"base_weights":[1.101602E-1,-2.6254091E-2,3.5373786E-1,-5.7654493E-3,3.3750277E-2],"categories":[],"categories_nodes":[],"categories_segments":[],"categories_sizes":[],"default_left":[0,0,0,0,0],"id":91,"left_children":[1,-1,3,-1,-1],"loss_changes":[1.1632504E0,0E0,8.559931E-1,0E0,0E0],"parents":[2147483647,0,0,2,2],"right_children":[2,-1,4,-1,-1],"split_conditions":[2.024E1,-2.6254091E-2,7.393E2,-5.7654493E-3,3.3750277E-2],"split_indices":[21,0,23,0,0],"split_type":[0,0,0,0,0],"sum_hessian":[5.3174834E0,1.1534973E0,4.163986E0,1.9532892E0,2.2106972E0],"tree_param":{"num_deleted":"0","num_feature":"30","num_nodes":"5","size_leaf_vector":"1"}},{"base_weights":[1.3127041E-1,-1.7582919E-1,3.1777333E-2,1.9002857E-2,-4.810306E-1,-3.0278368E-2,-5.0020916E-3],"categories":[],"categories_nodes":[],"categories_segments":[],"categories_sizes":[],"default_left":[0,0,0,0,0,0,0],"id":92,"left_children":[1,3,-1,-1,5,-1,-1],"loss_changes":[1.0271348E0,9.3898046E-1,0E0,0E0,9.6877635E-2,0E0,0E0],"parents":[2147483647,0,0,1,1,4,4],"right_children":[2,4,-1,-1,6,-1,-1],"split_conditions":[1.029E-1,1.185E-1,3.1777333E-2,1.9002857E-2,5.723E2,-3.0278368E-2,-5.0020916E-3],"split_indices":[6,24,0,0,3,0,0],"split_type":[0,0,0,0,0,0,0],"sum_hessian":[4.910947E0,3.4569933E0,1.4539535E0,1.1383551E0,2.318638E0,1.3031917E0,1.0154465E0],"tree_param":{"num_deleted":"0","num_feature":"30","num_nodes":"7","size_leaf_vector":"1"}},{"base_weights":[1.2454159E-1,-2.9829225E-2,5.13276E-1,1.056122E-2,3.5041496E-2],"categories":[],"categories_nodes":[],"categories_segments":[],"categories_sizes":[],"default_left":[0,0,0,0,0],"id":93,"left_children":[1,-1,3,-1,-1],"loss_changes":[1.8226832E0,0E0,8.154166E-2,0E0,0E0],"parents":[2147483647,0,0,2,2],"right_children":[2,-1,4,-1,-1],"split_conditions":[3.323E-2,-2.9829225E-2,4.368E1,1.056122E-2,3.5041496E-2],"split_indices":[7,0,13,0,0],"split_type":[0,0,0,0,0],"sum_hessian":[4.409659E0,1.35723E0,3.052429E0,1.9837879E0,1.0686411E0],"tree_param":{"num_deleted":"0","num_feature":"30","num_nodes":"5","size_leaf_vector":"1"}},{"base_weights":[-5.087009E-3,-4.1994125E-1,3.2714748E-1,-2.8266538E-2,-2.4985343E-3,-2.1251529E-3,3.330963E-2],"categories":[],"categories_nodes":[],"categories_segments":[],"categories_sizes":[],"default_left":[0,0,0,0,0,0,0],"id":94,"left_children":[1,3,5,-1,-1,-1,-1],"loss_changes":[9.969122E-1,1.444785E-1,5.327656E-1,0E0,0E0,0E0,0E0],"parents":[2147483647,0,0,1,1,2,2],"right_children":[2,4,6,-1,-1,-1,-1],"split_conditions":[1.112E-1,9.779E-2,2.726E1,-2.8266538E-2,-2.4985343E-3,-2.1251529E-3,3.330963E-2],"split_indices":[27,4,21,0,0,0,0],"split_type":[0,0,0,0,0,0,0],"sum_hessian":[5.236207E0,2.2111723E0,3.025035E0,1.2082978E0,1.0028744E0,1.8656319E0,1.1594028E0],"tree_param":{"num_deleted":"0","num_feature":"30","num_nodes":"7","size_leaf_vector":"1"}},{"base_weights":[1.266228E-1,-1.7904854E-1,2.5568683E-2,-2.4045436E-2,1.2134246E-2],"categories":[],"categories_nodes":[],"categories_segments":[],"categories_sizes":[],"default_left":[0,0,0,0,0],"id":95,"left_children":[1,3,-1,-1,-1],"loss_changes":[7.952204E-1,6.354599E-1,0E0,0E0,0E0],"parents":[2147483647,0,0,1,1],"right_children":[2,4,-1,-1,-1],"split_conditions":[2.94E-1,9.947E-2,2.5568683E-2,-2.4045436E-2,1.2134246E-2],"split_indices":[28,4,0,0,0],"split_type":[0,0,0,0,0],"sum_hessian":[4.9831285E0,3.0748801E0,1.9082487E0,1.7103586E0,1.3645215E0],"tree_param":{"num_deleted":"0","num_feature":"30","num_nodes":"5","size_leaf_vector":"1"}},{"base_weights":[-3.9519057E-2,-3.0014113E-2,3.6054787E-1,-7.8746835E-3,3.0288443E-2],"categories":[],"categories_nodes":[],"categories_segments":[],"categories_sizes":[],"default_left":[0,0,0,0,0],"id":96,"left_children":[1,-1,3,-1,-1],"loss_changes":[1.4241155E0,0E0,5.738838E-1,0E0,0E0],"parents":[2147483647,0,0,2,2],"right_children":[2,-1,4,-1,-1],"split_conditions":[1.112E-1,-3.0014113E-2,8.225E-1,-7.8746835E-3,3.0288443E-2],"split_indices":[27,0,11,0,0],"split_type":[0,0,0,0,0],"sum_hessian":[4.3832126E0,1.6166886E0,2.766524E0,1.0037661E0,1.762758E0],"tree_param":{"num_deleted":"0","num_feature":"30","num_nodes":"5","size_leaf_vector":"1"}},{"base_weights":[-5.6387667E-2,-3.2428163E-1,2.3865769E-2,-3.2927614E-2,8.138599E-3],"categories":[],"categories_nodes":[],"categories_segments":[],"categories_sizes":[],"default_left":[0,0,0,0,0],"id":97,"left_children":[1,3,-1,-1,-1],"loss_changes":[9.206998E-1,7.8481805E-1,0E0,0E0,0E0],"parents":[2147483647,0,0,1,1],"right_children":[2,4,-1,-1,-1],"split_conditions":[4.009E1,7.293E-2,2.3865769E-2,-3.2927614E-2,8.138599E-3],"split_indices":[13,6,0,0,0],"split_type":[0,0,0,0,0],"sum_hessian":[4.3569555E0,3.1621149E0,1.1948408E0,1.6663588E0,1.4957559E0],"tree_param":{"num_deleted":"0","num_feature":"30","num_nodes":"5","size_leaf_vector":"1"}},{"base_weights":[-4.785977E-2,-2.9391915E-1,1.9737534E-2,1.9081596E-2,-3.207361E-2],"categories":[],"categories_nodes":[],"categories_segments":[],"categories_sizes":[],"default_left":[0,0,0,0,0],"id":98,"left_children":[1,3,-1,-1,-1],"loss_changes":[7.13224E-1,1.2068504E0,0E0,0E0,0E0],"parents":[2147483647,0,0,1,1],"right_children":[2,4,-1,-1,-1],"split_conditions":[1.01E-1,1.2E-2,1.9737534E-2,1.9081596E-2,-3.207361E-2],"split_indices":[6,15,0,0,0],"split_type":[0,0,0,0,0],"sum_hessian":[4.483497E0,3.09747E0,1.3860273E0,1.0189152E0,2.0785549E0],"tree_param":{"num_deleted":"0","num_feature":"30","num_nodes":"5","size_leaf_vector":"1"}},{"base_weights":[-1.5878808E-1,-4.6792042E-1,2.7423793E-2,-3.4736436E-2,4.878761E-3],"categories":[],"categories_nodes":[],"categories_segments":[],"categories_sizes":[],"default_left":[0,0,0,0,0],"id":99,"left_children":[1,3,-1,-1,-1],"loss_changes":[1.3980093E0,6.029146E-1,0E0,0E0,0E0],"parents":[2147483647,0,0,1,1],"right_children":[2,4,-1,-1,-1],"split_conditions":[1.177E2,1.01E-1,2.7423793E-2,-3.4736436E-2,4.878761E-3],"split_indices":[22,6,0,0,0],"split_type":[0,0,0,0,0],"sum_hessian":[4.2203436E0,3.1722276E0,1.0481161E0,2.1010218E0,1.071206E0],"tree_param":{"num_deleted":"0","num_feature":"30","num_nodes":"5","size_leaf_vector":"1"}},{"base_weights":[1.3110824E-2,-2.7948683E-2,3.0579612E-1,4.3667923E-4,2.8523928E-2],"categories":[],"categories_nodes":[],"categories_segments":[],"categories_sizes":[],"default_left":[0,0,0,0,0],"id":100,"left_children":[1,-1,3,-1,-1],"loss_changes":[1.0736945E0,0E0,3.2628435E-1,0E0,0E0],"parents":[2147483647,0,0,2,2],"right_children":[2,-1,4,-1,-1],"split_conditions":[3.323E-2,-2.7948683E-2,4.009E1,4.3667923E-4,2.8523928E-2],"split_indices":[7,0,13,0,0],"split_type":[0,0,0,0,0],"sum_hessian":[4.391535E0,1.1784052E0,3.2131295E0,2.0006855E0,1.212444E0],"tree_param":{"num_deleted":"0","num_feature":"30","num_nodes":"5","size_leaf_vector":"1"}},{"base_weights":[1.537736E-1,-1.6716205E-2,5.461142E-1,8.170832E-3,3.264418E-2],"categories":[],"categories_nodes":[],"categories_segments":[],"categories_sizes":[],"default_left":[0,0,0,0,0],"id":101,"left_children":[1,-1,3,-1,-1],"loss_changes":[1.1169552E0,0E0,1.9348979E-2,0E0,0E0],"parents":[2147483647,0,0,2,2],"right_children":[2,-1,4,-1,-1],"split_conditions":[1.112E-1,-1.6716205E-2,2.65E1,8.170832E-3,3.264418E-2],"split_indices":[27,0,21,0,0],"split_type":[0,0,0,0,0],"sum_hessian":[3.8792343E0,1.794558E0,2.0846763E0,1.006739E0,1.0779371E0],"tree_param":{"num_deleted":"0","num_feature":"30","num_nodes":"5","size_leaf_vector":"1"}},{"base_weights":[6.883464E-2,-1.7920231E-2,3.5547292E-1,-1.9170445E-3,3.5143655E-2],"categories":[],"categories_nodes":[],"categories_segments":[],"categories_sizes":[],"default_left":[0,0,0,0,0],"id":102,"left_children":[1,-1,3,-1,-1],"loss_changes":[7.934138E-1,0E0,5.409267E-1,0E0,0E0],"parents":[2147483647,0,0,2,2],"right_children":[2,-1,4,-1,-1],"split_conditions":[1.788E1,-1.7920231E-2,3.646E1,-1.9170445E-3,3.5143655E-2],"split_indices":[1,0,13,0,0],"split_type":[0,0,0,0,0],"sum_hessian":[4.4384594E0,1.6816134E0,2.7568457E0,1.7090719E0,1.047774E0],"tree_param":{"num_deleted":"0","num_feature":"30","num_nodes":"5","size_leaf_vector":"1"}},{"base_weights":[-1.12088155E-2,-2.5150803E-1,2.694345E-2,1.4521894E-2,-4.8546496E-1,-3.308093E-2,-8.9350337E-4],"categories":[],"categories_nodes":[],"categories_segments":[],"categories_sizes":[],"default_left":[0,0,0,0,0,0,0],"id":103,"left_children":[1,3,-1,-1,5,-1,-1],"loss_changes":[8.760707E-1,7.21815E-1,0E0,0E0,2.8255624E-1,0E0,0E0],"parents":[2147483647,0,0,1,1,4,4],"right_children":[2,4,-1,-1,6,-1,-1],"split_conditions":[1.177E2,6.307E-2,2.694345E-2,1.4521894E-2,5.596E-2,-3.308093E-2,-8.9350337E-4],"split_indices":[22,5,0,0,7,0,0],"split_type":[0,0,0,0,0,0,0],"sum_hessian":[4.6023784E0,3.5808682E0,1.02151E0,1.0069406E0,2.5739276E0,1.5682081E0,1.0057197E0],"tree_param":{"num_deleted":"0","num_feature":"30","num_nodes":"7","size_leaf_vector":"1"}},{"base_weights":[5.231525E-2,-1.5531205E-2,3.2824305E-1,4.7858976E-4,2.7549172E-2],"categories":[],"categories_nodes":[],"categories_segments":[],"categories_sizes":[],"default_left":[0,0,0,0,0],"id":104,"left_children":[1,-1,3,-1,-1],"loss_changes":[6.45095E-1,0E0,2.4793509E-1,0E0,0E0],"parents":[2147483647,0,0,2,2],"right_children":[2,-1,4,-1,-1],"split_conditions":[1.805E1,-1.5531205E-2,2.944E1,4.7858976E-4,2.7549172E-2],"split_indices":[1,0,13,0,0],"split_type":[0,0,0,0,0],"sum_hessian":[4.4234805E0,1.8561995E0,2.567281E0,1.4852829E0,1.0819982E0],"tree_param":{"num_deleted":"0","num_feature":"30","num_nodes":"5","size_leaf_vector":"1"}},{"base_weights":[7.589012E-2,-1.5806817E-2,3.543873E-1,-5.296097E-3,3.260396E-2],"categories":[],"categories_nodes":[],"categories_segments":[],"categories_sizes":[],"default_left":[0,0,0,0,0],"id":105,"left_children":[1,-1,3,-1,-1],"loss_changes":[6.826096E-1,0E0,5.523679E-1,0E0,0E0],"parents":[2147483647,0,0,2,2],"right_children":[2,-1,4,-1,-1],"split_conditions":[1.805E1,-1.5806817E-2,1.549E1,-5.296097E-3,3.260396E-2],"split_indices":[1,0,20,0,0],"split_type":[0,0,0,0,0],"sum_hessian":[4.226085E0,1.6991402E0,2.5269449E0,1.2454084E0,1.2815365E0],"tree_param":{"num_deleted":"0","num_feature":"30","num_nodes":"5","size_leaf_vector":"1"}},{"base_weights":[1.3380533E-1,2.794542E-2,-2.8113216E-1,-2.9095659E-2,1.0790321E-2],"categories":[],"categories_nodes":[],"categories_segments":[],"categories_sizes":[],"default_left":[0,0,0,0,0],"id":106,"left_children":[1,-1,3,-1,-1],"loss_changes":[1.1000566E0,0E0,6.2937057E-1,0E0,0E0],"parents":[2147483647,0,0,2,2],"right_children":[2,-1,4,-1,-1],"split_conditions":[1.581E-2,2.794542E-2,1.312E-1,-2.9095659E-2,1.0790321E-2],"split_indices":[18,0,27,0,0],"split_type":[0,0,0,0,0],"sum_hessian":[4.345672E0,1.9751563E0,2.370516E0,1.3701885E0,1.0003275E0],"tree_param":{"num_deleted":"0","num_feature":"30","num_nodes":"5","size_leaf_vector":"1"}},{"base_weights":[3.380817E-2,-2.382675E-2,2.7322486E-1,-6.3656406E-3,3.187051E-2],"categories":[],"categories_nodes":[],"categories_segments":[],"categories_sizes":[],"default_left":[0,0,0,0,0],"id":107,"left_children":[1,-1,3,-1,-1],"loss_changes":[7.608468E-1,0E0,6.863402E-1,0E0,0E0],"parents":[2147483647,0,0,2,2],"right_children":[2,-1,4,-1,-1],"split_conditions":[2.024E1,-2.382675E-2,2.892E1,-6.3656406E-3,3.187051E-2],"split_indices":[21,0,13,0,0],"split_type":[0,0,0,0,0],"sum_hessian":[4.161413E0,1.0125822E0,3.1488311E0,1.8093225E0,1.3395087E0],"tree_param":{"num_deleted":"0","num_feature":"30","num_nodes":"5","size_leaf_vector":"1"}},{"base_weights":[-3.3484608E-2,-2.3132471E-2,2.917757E-1,3.29001E-2,-5.016029E-3],"categories":[],"categories_nodes":[],"categories_segments":[],"categories_sizes":[],"default_left":[0,0,0,0,0],"id":108,"left_children":[1,-1,3,-1,-1],"loss_changes":[8.7263596E-1,0E0,5.8573234E-1,0E0,0E0],"parents":[2147483647,0,0,2,2],"right_children":[2,-1,4,-1,-1],"split_conditions":[1.025E2,-2.3132471E-2,1.499E-2,3.29001E-2,-5.016029E-3],"split_indices":[22,0,18,0,0],"split_type":[0,0,0,0,0],"sum_hessian":[4.284366E0,1.6650361E0,2.61933E0,1.003694E0,1.615636E0],"tree_param":{"num_deleted":"0","num_feature":"30","num_nodes":"5","size_leaf_vector":"1"}},{"base_weights":[1.0154623E-1,-1.6502907E-2,3.38742E-1,-6.203065E-4,2.8526003E-2],"categories":[],"categories_nodes":[],"categories_segments":[],"categories_sizes":[],"default_left":[0,0,0,0,0],"id":109,"left_children":[1,-1,3,-1,-1],"loss_changes":[6.1225533E-1,0E0,3.0399984E-1,0E0,0E0],"parents":[2147483647,0,0,2,2],"right_children":[2,-1,4,-1,-1],"split_conditions":[1.756E1,-1.6502907E-2,3.778E-1,-6.203065E-4,2.8526003E-2],"split_indices":[1,0,10,0,0],"split_type":[0,0,0,0,0],"sum_hessian":[3.8884213E0,1.2402129E0,2.6482084E0,1.4292866E0,1.2189218E0],"tree_param":{"num_deleted":"0","num_feature":"30","num_nodes":"5","size_leaf_vector":"1"}},{"base_weights":[6.344699E-2,-1.8637775E-2,2.723323E-1,-5.25058E-3,2.9581442E-2],"categories":[],"categories_nodes":[],"categories_segments":[],"categories_sizes":[],"default_left":[0,0,0,0,0],"id":110,"left_children":[1,-1,3,-1,-1],"loss_changes":[5.9147656E-1,0E0,5.698433E-1,0E0,0E0],"parents":[2147483647,0,0,2,2],"right_children":[2,-1,4,-1,-1],"split_conditions":[2.086E1,-1.8637775E-2,7.393E2,-5.25058E-3,2.9581442E-2],"split_indices":[21,0,23,0,0],"split_type":[0,0,0,0,0],"sum_hessian":[4.3773394E0,1.1633947E0,3.2139444E0,1.7806691E0,1.4332753E0],"tree_param":{"num_deleted":"0","num_feature":"30","num_nodes":"5","size_leaf_vector":"1"}},{"base_weights":[7.559971E-2,1.8988175E-2,-2.2466084E-1,-2.5856767E-2,1.00556305E-2],"categories":[],"categories_nodes":[],"categories_segments":[],"categories_sizes":[],"default_left":[0,0,0,0,0],"id":111,"left_children":[1,-1,3,-1,-1],"loss_changes":[5.679201E-1,0E0,5.1338696E-1,0E0,0E0],"parents":[2147483647,0,0,2,2],"right_children":[2,-1,4,-1,-1],"split_conditions":[1.581E-2,1.8988175E-2,1.01E-1,-2.5856767E-2,1.00556305E-2],"split_indices":[18,0,6,0,0],"split_type":[0,0,0,0,0],"sum_hessian":[4.2842503E0,1.9967568E0,2.2874935E0,1.2288126E0,1.0586809E0],"tree_param":{"num_deleted":"0","num_feature":"30","num_nodes":"5","size_leaf_vector":"1"}},{"base_weights":[1.7182435E-1,2.7585888E-2,-2.1593103E-1,-2.7521482E-2,1.3309333E-2],"categories":[],"categories_nodes":[],"categories_segments":[],"categories_sizes":[],"default_left":[0,0,0,0,0],"id":112,"left_children":[1,-1,3,-1,-1],"loss_changes":[8.7903833E-1,0E0,6.741272E-1,0E0,0E0],"parents":[2147483647,0,0,2,2],"right_children":[2,-1,4,-1,-1],"split_conditions":[1.581E-2,2.7585888E-2,9.954E-2,-2.7521482E-2,1.3309333E-2],"split_indices":[18,0,6,0,0],"split_type":[0,0,0,0,0],"sum_hessian":[4.158695E0,1.8870533E0,2.2716422E0,1.2574902E0,1.014152E0],"tree_param":{"num_deleted":"0","num_feature":"30","num_nodes":"5","size_leaf_vector":"1"}},{"base_weights":[1.1660124E-1,-1.2341305E-2,3.7150416E-1,2.8185604E-2,8.3976705E-4],"categories":[],"categories_nodes":[],"categories_segments":[],"categories_sizes":[],"default_left":[0,0,0,0,0],"id":113,"left_children":[1,-1,3,-1,-1],"loss_changes":[5.7741517E-1,0E0,2.278507E-1,0E0,0E0],"parents":[2147483647,0,0,2,2],"right_children":[2,-1,4,-1,-1],"split_conditions":[1.112E-1,-1.2341305E-2,1.352E-2,2.8185604E-2,8.3976705E-4],"split_indices":[27,0,17,0,0],"split_type":[0,0,0,0,0],"sum_hessian":[4.243148E0,1.7622743E0,2.4808736E0,1.2268493E0,1.2540241E0],"tree_param":{"num_deleted":"0","num_feature":"30","num_nodes":"5","size_leaf_vector":"1"}},{"base_weights":[5.1973403E-2,-2.3292964E-2,2.776043E-1,-8.222174E-3,2.969617E-2],"categories":[],"categories_nodes":[],"categories_segments":[],"categories_sizes":[],"default_left":[0,0,0,0,0],"id":114,"left_children":[1,-1,3,-1,-1],"loss_changes":[7.576441E-1,0E0,7.090254E-1,0E0,0E0],"parents":[2147483647,0,0,2,2],"right_children":[2,-1,4,-1,-1],"split_conditions":[2.024E1,-2.3292964E-2,1.551E1,-8.222174E-3,2.969617E-2],"split_indices":[21,0,20,0,0],"split_type":[0,0,0,0,0],"sum_hessian":[4.3776503E0,1.0054356E0,3.3722146E0,1.6068363E0,1.7653784E0],"tree_param":{"num_deleted":"0","num_feature":"30","num_nodes":"5","size_leaf_vector":"1"}},{"base_weights":[8.15292E-2,1.9807782E-2,-2.0822413E-1,-2.7535317E-2,1.4351941E-2],"categories":[],"categories_nodes":[],"categories_segments":[],"categories_sizes":[],"default_left":[0,0,0,0,0],"id":115,"left_children":[1,-1,3,-1,-1],"loss_changes":[5.5169934E-1,0E0,7.2372246E-1,0E0,0E0],"parents":[2147483647,0,0,2,2],"right_children":[2,-1,4,-1,-1],"split_conditions":[1.581E-2,1.9807782E-2,1.029E-1,-2.7535317E-2,1.4351941E-2],"split_indices":[18,0,6,0,0],"split_type":[0,0,0,0,0],"sum_hessian":[4.1468773E0,1.8120549E0,2.3348227E0,1.3141321E0,1.0206906E0],"tree_param":{"num_deleted":"0","num_feature":"30","num_nodes":"5","size_leaf_vector":"1"}},{"base_weights":[-8.19769E-4,1.6880928E-2,-3.0897358E-1,-2.5441011E-2,2.4743215E-3],"categories":[],"categories_nodes":[],"categories_segments":[],"categories_sizes":[],"default_left":[0,0,0,0,0],"id":116,"left_children":[1,-1,3,-1,-1],"loss_changes":[6.3505846E-1,0E0,2.5340518E-1,0E0,0E0],"parents":[2147483647,0,0,2,2],"right_children":[2,-1,4,-1,-1],"split_conditions":[1.581E-2,1.6880928E-2,5.596E-2,-2.5441011E-2,2.4743215E-3],"split_indices":[18,0,7,0,0],"split_type":[0,0,0,0,0],"sum_hessian":[4.089058E0,1.9032E0,2.185858E0,1.1341122E0,1.0517458E0],"tree_param":{"num_deleted":"0","num_feature":"30","num_nodes":"5","size_leaf_vector":"1"}},{"base_weights":[4.9762434E-4,-3.0325824E-1,2.3266172E-2,-2.8914655E-2,5.6644324E-3],"categories":[],"categories_nodes":[],"categories_segments":[],"categories_sizes":[],"default_left":[0,0,0,0,0],"id":117,"left_children":[1,3,-1,-1,-1],"loss_changes":[7.8130746E-1,4.4903374E-1,0E0,0E0,0E0],"parents":[2147483647,0,0,1,1],"right_children":[2,4,-1,-1,-1],"split_conditions":[4.009E1,4.079E-2,2.3266172E-2,-2.8914655E-2,5.6644324E-3],"split_indices":[13,7,0,0,0],"split_type":[0,0,0,0,0],"sum_hessian":[3.5341604E0,2.3476186E0,1.1865419E0,1.1801165E0,1.167502E0],"tree_param":{"num_deleted":"0","num_feature":"30","num_nodes":"5","size_leaf_vector":"1"}},{"base_weights":[6.674045E-2,-1.9284818E-1,2.0800212E-2,1.2158941E-2,-2.2847816E-2],"categories":[],"categories_nodes":[],"categories_segments":[],"categories_sizes":[],"default_left":[0,0,0,0,0],"id":118,"left_children":[1,3,-1,-1,-1],"loss_changes":[5.382258E-1,5.2351046E-1,0E0,0E0,0E0],"parents":[2147483647,0,0,1,1],"right_children":[2,4,-1,-1,-1],"split_conditions":[8.124E2,4.055E-2,2.0800212E-2,1.2158941E-2,-2.2847816E-2],"split_indices":[23,6,0,0,0],"split_type":[0,0,0,0,0],"sum_hessian":[4.051571E0,2.5810566E0,1.470514E0,1.0035312E0,1.5775255E0],"tree_param":{"num_deleted":"0","num_feature":"30","num_nodes":"5","size_leaf_vector":"1"}},{"base_weights":[1.0121295E-1,2.0346208E-2,-2.0442395E-1,-2.5881246E-2,1.2307166E-2],"categories":[],"categories_nodes":[],"categories_segments":[],"categories_sizes":[],"default_left":[0,0,0,0,0],"id":119,"left_children":[1,-1,3,-1,-1],"loss_changes":[5.6235844E-1,0E0,5.832344E-1,0E0,0E0],"parents":[2147483647,0,0,2,2],"right_children":[2,-1,4,-1,-1],"split_conditions":[1.581E-2,2.0346208E-2,1.01E-1,-2.5881246E-2,1.2307166E-2],"split_indices":[18,0,6,0,0],"split_type":[0,0,0,0,0],"sum_hessian":[4.1283264E0,1.8982339E0,2.2300923E0,1.2277925E0,1.0022998E0],"tree_param":{"num_deleted":"0","num_feature":"30","num_nodes":"5","size_leaf_vector":"1"}},{"base_weights":[-5.0859097E-2,-3.89103E-1,2.114204E-2,-2.7209133E-2,-1.9484007E-3],"categories":[],"categories_nodes":[],"categories_segments":[],"categories_sizes":[],"default_left":[0,0,0,0,0],"id":120,"left_children":[1,3,-1,-1,-1],"loss_changes":[9.2472523E-1,1.5737233E-1,0E0,0E0,0E0],"parents":[2147483647,0,0,1,1],"right_children":[2,4,-1,-1,-1],"split_conditions":[2.021E1,2.829E-1,2.114204E-2,-2.7209133E-2,-1.9484007E-3],"split_indices":[1,28,0,0,0],"split_type":[0,0,0,0,0],"sum_hessian":[3.744525E0,2.2888012E0,1.4557238E0,1.2021459E0,1.0866554E0],"tree_param":{"num_deleted":"0","num_feature":"30","num_nodes":"5","size_leaf_vector":"1"}},{"base_weights":[7.555575E-2,-2.090366E-2,3.1493685E-1,2.4519151E-2,2.51795E-4],"categories":[],"categories_nodes":[],"categories_segments":[],"categories_sizes":[],"default_left":[0,0,0,0,0],"id":121,"left_children":[1,-1,3,-1,-1],"loss_changes":[7.258204E-1,0E0,2.1264613E-1,0E0,0E0],"parents":[2147483647,0,0,2,2],"right_children":[2,-1,4,-1,-1],"split_conditions":[2.053E1,-2.090366E-2,3.136E-3,2.4519151E-2,2.51795E-4],"split_indices":[13,0,19,0,0],"split_type":[0,0,0,0,0],"sum_hessian":[4.0281515E0,1.071706E0,2.9564457E0,1.5158702E0,1.4405755E0],"tree_param":{"num_deleted":"0","num_feature":"30","num_nodes":"5","size_leaf_vector":"1"}},{"base_weights":[-6.641978E-2,-3.044667E-1,2.0390507E-2,-2.7214712E-2,8.265143E-3],"categories":[],"categories_nodes":[],"categories_segments":[],"categories_sizes":[],"default_left":[0,0,0,0,0],"id":122,"left_children":[1,3,-1,-1,-1],"loss_changes":[6.625791E-1,5.122365E-1,0E0,0E0,0E0],"parents":[2147483647,0,0,1,1],"right_children":[2,4,-1,-1,-1],"split_conditions":[4.368E1,9.27E-2,2.0390507E-2,-2.7214712E-2,8.265143E-3],"split_indices":[13,29,0,0,0],"split_type":[0,0,0,0,0],"sum_hessian":[3.769417E0,2.7479956E0,1.0214214E0,1.7142121E0,1.0337836E0],"tree_param":{"num_deleted":"0","num_feature":"30","num_nodes":"5","size_leaf_vector":"1"}},{"base_weights":[1.2596677E-2,